1.527599695950423737e-03
1.400006717363617634e-02
-3.392914157898381800e-01
4.729412372768270357e-04
0.000000000000000000e+00
-1.398824823014684637e-01
-1.127516266322449098e-02
-2.360982726979847166e-03
7.831551895451817347e-02
0.000000000000000000e+00
-2.894262091647888113e-02
0.000000000000000000e+00
-4.747051544275526953e-03
6.718621963277349521e-03
0.000000000000000000e+00
1.336091096720929197e-02
9.333251945987364184e-02
-9.539435554151041996e-02
-1.654081290764427843e-04
7.260568307448755053e-03
1.380371985880653012e-02
4.850862025170408348e-02
-1.015033971560357490e-01
5.207842914449892224e-02
0.000000000000000000e+00
1.079732509549300090e+01
1.379460849406411414e-03
-8.542781018822853678e-01
7.836962706898492267e-03
0.000000000000000000e+00
0.000000000000000000e+00
0.000000000000000000e+00
0.000000000000000000e+00
-6.557739088552358951e-03
3.175914778697497970e-02
0.000000000000000000e+00
5.578417834165257713e-04
3.708380909873321835e-02
0.000000000000000000e+00
-2.876598584756780153e-02
2.504097197293776635e-03
3.276211920255214793e-02
-5.445962733562625946e-02
-9.068444668473502404e-04
-1.127583356690477073e-01
-9.964944913351564404e-03
0.000000000000000000e+00
0.000000000000000000e+00
0.000000000000000000e+00
2.054348955114255592e-03
0.000000000000000000e+00
2.402540281078610965e-02
0.000000000000000000e+00
0.000000000000000000e+00
0.000000000000000000e+00
0.000000000000000000e+00
0.000000000000000000e+00
0.000000000000000000e+00
0.000000000000000000e+00
0.000000000000000000e+00
-6.678570923516993774e-02
1.991457091377241140e-02
7.440884166632334706e-03
0.000000000000000000e+00
5.042015580952097231e-01
-1.197996975685936558e-03
-2.595393992558399643e-01
-1.885987830335133786e-01
0.000000000000000000e+00
-8.825715400694050458e-03
-4.159022447625049072e-03
6.250167888895577506e-02
-3.300680138418629703e-04
-2.242654942070156435e-02
5.547525407909210948e-03
-2.762743671263524770e-02
-2.177368953550027839e-03
0.000000000000000000e+00
0.000000000000000000e+00
0.000000000000000000e+00
0.000000000000000000e+00
-4.006793973190273667e-02
-2.132558487049444288e-03
0.000000000000000000e+00
-1.448352143612178546e-03
-3.847116812547966228e-03
2.534963340126208942e-02
0.000000000000000000e+00
2.366236661905962713e-02
2.887475544849234244e-02
-6.949508330061051481e-03
-1.627883222786876971e-01
-1.033378994472844564e-01
-6.704988364073951601e-01
1.264052294060303942e-02
-6.650528636846249515e-03
-1.424167096176867098e-01
2.499742485903306277e-01
-4.650134043841807783e-04
-5.961084250814011748e-02
-2.235462005741399930e-02
-9.227657761806714719e-04
0.000000000000000000e+00
-1.551391199318105651e-02
-1.001695408396049763e-03
-2.184571795606397512e-02
0.000000000000000000e+00
-2.384846194268535821e-02
1.752400549123136753e-01
5.329784452712538201e-02
0.000000000000000000e+00
0.000000000000000000e+00
0.000000000000000000e+00
0.000000000000000000e+00
-2.855265937221198713e-03
2.372816854486438452e-03
-1.638073791632096987e-02
-2.351183517735108003e-03
-2.090126134523490314e-03
-8.247795764802041962e-02
-4.368760271322574829e-02
3.048163972397964668e-03
0.000000000000000000e+00
7.096407943186310192e-03
2.671839212298307009e-01
1.026394678177501574e-02
1.155100133939473694e-01
4.683280208102729575e-02
1.999824565319442346e-02
-5.951789828442107314e-03
-6.901775714304377550e-03
5.824041622670845728e-03
-1.800586557208093972e-03
-5.887014112508321545e-03
-1.166877836748458630e-01
-1.648502161760530965e-02
-2.593013136884274230e-04
0.000000000000000000e+00
3.437454346793387353e-03
0.000000000000000000e+00
-1.941848148483630437e-02
3.443616375721431089e-02
2.658039503859644520e-02
-6.411630763011987033e-02
0.000000000000000000e+00
0.000000000000000000e+00
3.502100150705068915e-02
-8.258521251505683905e-03
2.027275479752306336e-04
-6.404892864631897553e-02
1.039171862635675653e-01
1.180649150359899119e-02
-4.014061342545589828e-02
6.260933538012955490e-02
-2.039775708079172648e-02
0.000000000000000000e+00
-4.932487226224838497e-03
3.508696719853994228e+00
1.187830155254531866e-01
-2.369232954810930880e-01
0.000000000000000000e+00
6.046127971709954751e-01
3.705941972990924038e-02
3.728531416778152344e-04
-2.021468222468282214e-02
8.788667394190043461e-03
1.906089282927632411e-03
5.934359486834012501e-03
6.656754454143393868e-03
-2.938481455185755140e-02
-5.444690782454315175e-03
0.000000000000000000e+00
-9.751684478052259630e-02
-2.622764859892281163e-03
0.000000000000000000e+00
-6.939322499977107830e-03
0.000000000000000000e+00
3.212589524663648317e-04
0.000000000000000000e+00
-1.163048609670622700e-02
-4.217424737138855684e-02
3.275511993338892959e-03
1.421280256216014837e-01
-4.283603222016681492e-03
7.341639412459253014e-05
-2.177529630751239204e-04
-5.244976122147876341e-02
-1.650012098613201986e-03
-6.880668978742997613e-03
0.000000000000000000e+00
-1.714836595864437790e-02
3.172332516251215317e-02
2.543779867109617968e-02
1.460299985411768475e-01
4.279925785905465130e-01
2.906344742904694300e-03
-2.266722733885317975e-02
0.000000000000000000e+00
-5.036176891382686260e-02
-2.447132836683866275e-01
-5.281596574715638481e-02
1.047834265197016132e-04
0.000000000000000000e+00
3.788067661698804253e-03
3.041522500693042558e-02
2.598253544299067991e-02
2.267777404837266475e-02
0.000000000000000000e+00
2.225101787583708135e-01
0.000000000000000000e+00
3.665242568047259383e-03
-1.273647705919221142e-02
1.061424892984308976e-01
-1.680041520069788241e-01
-6.375602524711218577e-02
-9.646443186761666233e-02
-4.718586029179480668e-02
0.000000000000000000e+00
1.714646915635669941e-02
1.014570336718032123e-01
2.473153263172338245e-02
3.172605780354385147e-02
2.612599789536977635e-02
-3.775965192336906435e-03
-1.703152452659848631e-02
1.268580022504351423e-01
5.300079026619352630e-03
-3.287758506967642345e-03
-2.891987379873625294e-02
1.967391971534083409e-03
-2.981100440828626623e-04
0.000000000000000000e+00
0.000000000000000000e+00
-1.087988685367675956e-02
-1.686086291713708688e-04
5.889162135081585543e-03
2.263226271754075619e-02
-9.678052398023707231e-03
0.000000000000000000e+00
-4.006112535332950753e-03
0.000000000000000000e+00
1.384561980658340352e-01
3.069384479453981379e-02
3.347966549616769160e-03
2.344756819478239704e-02
0.000000000000000000e+00
1.269033907677139493e-02
1.109601153057976439e-03
0.000000000000000000e+00
0.000000000000000000e+00
1.267182479523775579e-02
0.000000000000000000e+00
7.395492491919647415e-02
0.000000000000000000e+00
9.503928175410898682e-02
0.000000000000000000e+00
0.000000000000000000e+00
-1.826012160553319458e-03
0.000000000000000000e+00
6.067375563148372231e-02
5.922160088378781821e-03
4.509390922270561410e-03
-1.522380217463635381e-02
0.000000000000000000e+00
-1.206474131887198320e+00
3.425355013760369299e-02
2.853332929511426252e-03
0.000000000000000000e+00
0.000000000000000000e+00
-9.103920977370352774e-03
-1.679999004818507734e-03
-9.139416767932942443e-02
0.000000000000000000e+00
8.999308444369264826e-04
1.045819725189870153e-01
1.905103274466503696e-02
0.000000000000000000e+00
-3.169179805640485320e-02
1.212317751255950239e-02
5.462705220534496038e-03
-2.604434625495494031e-04
-1.704611534358468905e-01
0.000000000000000000e+00
8.950177432746331957e-03
8.617017717544401822e-01
-1.001101317040676564e-01
-1.899289259824133477e-04
0.000000000000000000e+00
0.000000000000000000e+00
-1.475608226805887394e-02
-6.562887757443496284e+00
1.583605559183559885e-01
4.491889701534437784e-02
0.000000000000000000e+00
-1.636750110982221752e-05
-1.017536918026222016e-02
7.648820886112077388e-02
-2.240821645712372800e-01
-1.065697657210284144e-01
-1.051104891689524841e-04
0.000000000000000000e+00
0.000000000000000000e+00
-3.669596564012996692e-02
-1.907936303096580653e-04
0.000000000000000000e+00
0.000000000000000000e+00
-1.347899946200665777e-01
9.066918315624453856e-03
-3.400701312087720668e-02
3.625586095902485692e-03
0.000000000000000000e+00
4.778765111834804014e-02
-5.101686362538521147e-02
-5.773478790471633232e-02
-1.890008661610459786e-02
-1.471812703176827442e-01
-3.151342640945847123e-02
5.663731549667175291e-02
7.764889113221309577e-03
-5.163230680134203721e-02
-1.044790296228825799e-02
-2.395022073313545462e-03
4.305670091432971941e-02
0.000000000000000000e+00
0.000000000000000000e+00
2.165039929226393600e-02
0.000000000000000000e+00
1.525803328741872321e-02
0.000000000000000000e+00
0.000000000000000000e+00
-1.627211083859427670e-02
-5.224610336177211260e-03
-1.401948772084216088e-02
2.010469917824385909e-03
-1.790949530877228996e-02
-2.088318202718879909e-03
3.284823723444903133e-04
0.000000000000000000e+00
-1.283319201783371735e-02
-9.502394044779649768e-04
0.000000000000000000e+00
-8.867010220257976610e-03
0.000000000000000000e+00
-4.185021045528379384e-03
2.038071717022357440e-02
0.000000000000000000e+00
0.000000000000000000e+00
-9.292338761010185671e-04
-2.251301986192088406e-02
1.933318262733889174e-03
-4.252488881039446361e-02
2.098171297260389631e-02
0.000000000000000000e+00
7.813097627550263241e-03
-1.825320861492850735e-02
6.654674150066003380e-02
2.449469325383198809e-03
-2.466586584578975283e-03
0.000000000000000000e+00
0.000000000000000000e+00
-1.946533532614282830e-03
0.000000000000000000e+00
-1.702436087751416777e-02
-3.128983061504057861e-02
0.000000000000000000e+00
0.000000000000000000e+00
0.000000000000000000e+00
0.000000000000000000e+00
-7.331120956683742640e-03
-6.721433049630332057e-02
0.000000000000000000e+00
0.000000000000000000e+00
1.083239880563132904e-02
1.355847290362961928e-02
-8.017881240405036469e-02
-1.353803553670591964e-01
0.000000000000000000e+00
0.000000000000000000e+00
4.221564941180634863e-03
-3.882745920715748728e-02
0.000000000000000000e+00
1.631233822096979155e-05
0.000000000000000000e+00
-3.606994709883732525e-02
-3.163319509792861944e-02
2.498932416238235001e-03
-5.118183658747956681e-04
0.000000000000000000e+00
0.000000000000000000e+00
0.000000000000000000e+00
0.000000000000000000e+00
-1.107604661272841053e-03
-1.135851553201294994e-01
-5.931853990987838443e-02
0.000000000000000000e+00
2.297713654597380861e-01
5.149185381734637523e-03
1.243327883036662862e-01
-2.150663771507499520e-03
-4.492187200775927813e-01
7.916672423085951982e-02
3.927654188380981862e-03
0.000000000000000000e+00
-2.819260870477069414e-01
-2.072385752055213803e+00
-1.378816190587309372e-02
3.795825055536121775e-03
6.074390685805786984e-04
1.677349518025960870e-02
-5.145703981324382115e-01
4.195386069926239012e-03
2.613588802780266937e-02
5.379434708008558330e-02
4.203734606785224787e-02
3.649481420177314028e-02
0.000000000000000000e+00
0.000000000000000000e+00
0.000000000000000000e+00
0.000000000000000000e+00
0.000000000000000000e+00
0.000000000000000000e+00
-1.616784224101206575e-03
9.420054369459572932e-03
4.508313108513453682e-02
2.517346412508362358e-02
-2.155765337553668393e-01
3.278145562201987273e-01
1.697763230290589426e-02
-2.214386961532783804e-01
3.343054608324715071e-02
0.000000000000000000e+00
1.878143575832678103e-01
2.576469950132689868e-02
-1.385381716401955232e-02
0.000000000000000000e+00
1.944654995227325552e-03
6.425126157249618246e-04
-2.775311122971755098e-02
0.000000000000000000e+00
0.000000000000000000e+00
0.000000000000000000e+00
0.000000000000000000e+00
3.166787288622402788e-03
0.000000000000000000e+00
-2.143162871534685238e-02
-5.554109522014929329e-03
0.000000000000000000e+00
1.460126656956823536e-03
1.772703447623085252e-02
0.000000000000000000e+00
-6.033042638664411206e-02
-4.390356105992187022e-03
-1.324677146845561378e-02
-2.331624819971725784e-02
-3.155374680250231539e-04
4.958058095733283710e-03
-9.337201786485249677e-01
3.143647839957541736e-03
0.000000000000000000e+00
0.000000000000000000e+00
2.521698311403708023e-02
-2.350297828778583065e-01
4.249661942849881219e-02
3.105397327682571373e-03
-2.904457909539539325e-04
1.127468754484696641e-02
9.070380112363549130e-02
-6.114536024239185935e-02
-4.548729218457368134e-03
-6.033533661752969041e-03
0.000000000000000000e+00
0.000000000000000000e+00
-5.353956478963494726e-03
0.000000000000000000e+00
0.000000000000000000e+00
2.627510435270133740e-03
0.000000000000000000e+00
-4.002769420985073830e-03
2.923512493541505913e-03
0.000000000000000000e+00
2.719308806070823425e-02
0.000000000000000000e+00
-7.221123841204197744e-03
-2.282429600399920600e-01
1.452950335622597670e-02
-1.473974544156822775e-01
-3.337048044888578646e-01
-5.422469596087833160e-02
-6.687041410741955544e-03
-6.403498472639588712e+00
0.000000000000000000e+00
-9.035129601220159845e-03
0.000000000000000000e+00
0.000000000000000000e+00
-1.583396396857748856e-02
-1.287365484576475094e-01
-2.128919774515631268e-03
3.299219106851201261e-02
0.000000000000000000e+00
3.533726621809897897e-03
9.665850184725754968e-02
-7.946651680178103305e+00
0.000000000000000000e+00
2.341776869194101083e-03
-2.386153460781338317e-02
0.000000000000000000e+00
0.000000000000000000e+00
0.000000000000000000e+00
-2.364190280851990317e-02
0.000000000000000000e+00
0.000000000000000000e+00
2.489280361497223787e-02
1.195871395983375517e-02
-8.843719483110244403e-03
0.000000000000000000e+00
1.974876903906783165e-03
-1.597857596011329970e-02
-2.472584234735339948e-01
-4.184282150951035978e-02
-3.690758856114933484e-01
-1.098733834634513240e-02
0.000000000000000000e+00
-4.613077053481758061e-02
-4.724804523942917611e-01
-2.779653452722005702e-03
0.000000000000000000e+00
0.000000000000000000e+00
-5.259372610842504405e-04
-2.463645233886605224e-01
4.138328897635051851e-02
2.087461621904287273e-04
1.454073726565092550e-03
-3.844592784893560711e-02
1.167120664414575924e-02
-1.169967731796821286e-02
0.000000000000000000e+00
0.000000000000000000e+00
0.000000000000000000e+00
-2.381115060733779432e-02
4.309890894775935777e-04
-3.136011674473144356e-02
-1.565519411573412789e-02
-3.940428785410969928e-03
-2.156979011110327429e-02
0.000000000000000000e+00
0.000000000000000000e+00
-3.226655463956751985e-02
6.219936397322853132e-03
-1.052133641363628552e-01
0.000000000000000000e+00
-1.985946332529098801e-01
7.222593746558123940e-04
1.877699110786021364e-02
6.056984292788670544e-03
-1.109192930044534085e-02
0.000000000000000000e+00
2.300710327474606715e-02
6.094984665286724487e-03
-7.286404342600677486e-02
-4.862376583434965122e-03
0.000000000000000000e+00
-9.364952628696173202e-04
-3.229744898153151349e-03
7.632150736994650075e-02
1.987113431931731081e-02
-1.270213607711932497e-03
-1.572179319466904474e-03
-6.230955030673974299e-02
3.197725643267812935e-03
0.000000000000000000e+00
-6.689078496905999957e-05
-5.237692154737695616e-02
0.000000000000000000e+00
2.665463853770243599e-02
1.319454049495315685e-03
8.272864156356050103e+00
8.168519973881073828e-03
-9.324951511732685466e-03
0.000000000000000000e+00
0.000000000000000000e+00
-1.919149688889357219e-02
0.000000000000000000e+00
0.000000000000000000e+00
4.054753299854583679e-04
0.000000000000000000e+00
9.373588382585317999e-03
-1.425613048833764863e-02
-1.826800349439891211e-02
-8.023587660355239667e-03
0.000000000000000000e+00
5.323366460449272530e-01
3.966310697423855447e-02
7.963336550470112574e-02
0.000000000000000000e+00
4.117160718727719965e-02
-9.121053874729579194e-03
0.000000000000000000e+00
0.000000000000000000e+00
3.280367325343264140e-02
1.362117812705434042e-02
0.000000000000000000e+00
0.000000000000000000e+00
-7.802301420969215418e-02
-2.588259968259905633e-02
-3.763988865491980397e-03
0.000000000000000000e+00
0.000000000000000000e+00
0.000000000000000000e+00
-1.493069469981893761e-03
-2.986461116325066917e-02
8.361295270502431265e-01
0.000000000000000000e+00
-1.288858690782828387e-01
7.698697829864087393e-04
1.887424453136569980e-02
-2.157929484070591607e-03
-6.588377788358475984e-01
-7.515231430758061160e-02
0.000000000000000000e+00
1.641628365810369637e-03
-9.447879487889701902e-03
1.393564804208585490e-03
6.647983802120753386e-04
0.000000000000000000e+00
2.184299280711119243e-02
6.042566554471983167e-03
2.383062655289618602e-03
0.000000000000000000e+00
-2.895096144710355632e-02
7.476275159514621238e-02
0.000000000000000000e+00
-1.203903545411645452e-02
4.089870310644602713e-02
1.509080070383927302e-03
0.000000000000000000e+00
0.000000000000000000e+00
0.000000000000000000e+00
-4.713901740480605485e-05
1.717887437481572244e-01
-8.077693350322080745e-03
0.000000000000000000e+00
0.000000000000000000e+00
0.000000000000000000e+00
1.130004539503582338e-02
3.580384980355800703e-03
0.000000000000000000e+00
0.000000000000000000e+00
0.000000000000000000e+00
9.449846730676478984e-04
2.056113695934995989e-01
-1.470492660406575586e-02
-8.209293070786882751e-03
-1.492503009864019382e-02
-1.196755989327585347e-02
9.425716769176318774e-03
3.964017990588884766e-02
0.000000000000000000e+00
-7.794216747729504693e-03
0.000000000000000000e+00
0.000000000000000000e+00
-7.069881393162279724e-03
0.000000000000000000e+00
3.303462423907501831e-04
3.765556111235880687e-02
-8.154662102462317819e-02
-9.842155894177452569e-03
-2.727832736538916277e-05
0.000000000000000000e+00
2.464086593289934596e-02
0.000000000000000000e+00
0.000000000000000000e+00
0.000000000000000000e+00
1.079585277358803552e-01
-2.323899805744026811e-02
-1.825945956109025631e-02
0.000000000000000000e+00
0.000000000000000000e+00
0.000000000000000000e+00
-2.079093096628778156e-02
0.000000000000000000e+00
-2.213017531676585853e-03
-6.163220246196667723e-02
6.771786723385696538e-01
2.566600792586810620e-01
-1.698558938504110927e+01
1.412791276486702395e-04
6.029961485198403722e-04
1.653746991998768401e+00
0.000000000000000000e+00
9.334305782162283282e-04
0.000000000000000000e+00
-4.302395415342468734e-04
0.000000000000000000e+00
-5.949393972880849535e-02
0.000000000000000000e+00
-1.145233260287303705e-02
-4.915075621452488080e-02
-5.562902983590344713e-02
0.000000000000000000e+00
5.889961176104133861e-03
-1.098721383364110625e-03
3.552798367190602991e-02
0.000000000000000000e+00
2.237266177455275208e-04
-7.284137670068149828e-03
1.141141494917466276e-01
-5.963944895768435658e-03
0.000000000000000000e+00
0.000000000000000000e+00
0.000000000000000000e+00
0.000000000000000000e+00
-2.685863950298430017e-02
-2.820218548513291762e-02
-1.295121585316193549e-02
-3.183729435288836385e-03
6.587647377778736539e-03
2.014657428273761847e-02
0.000000000000000000e+00
-5.614424147429067369e-02
-1.414866811667770362e-02
-9.732066410213515220e-03
-4.067105711904638043e-02
3.294625001098490658e-01
-2.584298963742567151e-03
-5.469373628329823323e-01
-1.337409786896109343e-01
9.114460431697198051e-02
0.000000000000000000e+00
2.043645507608972400e-03
-1.121834707927956733e-02
-7.991878971075028204e-02
-8.087800844263172417e-03
-4.381274278037632364e-01
0.000000000000000000e+00
-1.890043275782183002e-03
5.823005280264343005e-03
0.000000000000000000e+00
0.000000000000000000e+00
-7.508949182048801907e-02
0.000000000000000000e+00
0.000000000000000000e+00
-1.582431380231128458e-04
1.146690424518646313e-02
-1.803327278313338750e-02
0.000000000000000000e+00
0.000000000000000000e+00
1.824064885731141450e-02
0.000000000000000000e+00
0.000000000000000000e+00
0.000000000000000000e+00
1.728335469851221273e-01
-1.169508127647744117e-02
4.788080897382310068e-03
-6.563449063965500494e-04
-1.997431400604303409e-01
0.000000000000000000e+00
9.924030962862638930e-03
-7.451927727274193503e-02
0.000000000000000000e+00
-3.122600631345028889e-03
5.364697926756219377e-03
-1.291907848493965560e-01
-1.854904725906455012e-02
-2.444713913798279847e-02
0.000000000000000000e+00
-5.758876247552001913e-03
-8.174223689510767702e-04
-2.710593687620932446e-02
-1.182527433248781699e-02
-2.236015283828705208e-02
1.306282669644592276e-01
-1.854919669803277049e+00
-2.438756620392040948e-03
-2.771346098361936704e-03
-8.457725692910287307e-01
-5.201271281069234009e-04
-4.909706862753256129e-02
4.455470933502429787e-02
0.000000000000000000e+00
0.000000000000000000e+00
-1.272863092198841251e-01
-2.420139529932686884e+00
-7.958171131682147820e-03
-1.097617724579780067e-02
0.000000000000000000e+00
8.914642677610039659e-03
1.258555799200328923e-03
5.911932622402642397e-03
0.000000000000000000e+00
8.438507052921167428e+00
7.250273401014410701e-03
-1.567802152174646232e-03
-5.747990151443531891e-03
-9.089786831337007137e-04
2.334251414611616601e-03
2.489349120259978267e-03
-1.452180915959564583e-02
-8.708150811068952890e-02
0.000000000000000000e+00
-7.851979846144734390e-03
0.000000000000000000e+00
-2.501792641734872785e-02
-5.020093485872263728e-02
-1.634041565127289505e-03
0.000000000000000000e+00
8.764139158014931652e-03
-5.101714686909766296e-03
0.000000000000000000e+00
1.010002104161160791e-01
-1.232402208768512697e-02
-3.078649024790445880e-03
7.597456183997268638e-05
0.000000000000000000e+00
2.455023199355113594e-02
-5.391079580412571487e-02
8.756748871639669085e-02
0.000000000000000000e+00
-7.835570305738490116e-03
0.000000000000000000e+00
0.000000000000000000e+00
-8.141194842167737492e-03
0.000000000000000000e+00
-4.911872394968438277e-02
0.000000000000000000e+00
3.811419618176632718e-02
1.663745707661192785e+00
0.000000000000000000e+00
-5.720327803461178976e-04
4.175544021355833552e-03
-2.129817287939171958e-04
-3.616658729855903864e-02
4.413411807024238132e-02
0.000000000000000000e+00
0.000000000000000000e+00
0.000000000000000000e+00
-2.386638798637660732e-03
-4.328487098996957987e-03
-6.128593438723604209e-03
1.864530764338404078e-03
6.150014465685518447e-03
0.000000000000000000e+00
1.406422040894634434e-02
0.000000000000000000e+00
0.000000000000000000e+00
-6.475292795524724421e-02
-6.876621765874584014e-02
-2.726354686307772349e-02
0.000000000000000000e+00
0.000000000000000000e+00
4.578634947541686262e-02
-6.040454168431733106e-02
-3.268773864950252211e-02
-8.274271811134233491e-04
-1.026932824214371598e-01
-3.338999740401192009e-04
0.000000000000000000e+00
0.000000000000000000e+00
0.000000000000000000e+00
0.000000000000000000e+00
0.000000000000000000e+00
0.000000000000000000e+00
-2.195833078720053205e-02
5.866982248139693962e-02
-2.281478630408882366e-02
-2.046658568674854239e-02
-1.184168556651237283e-02
-9.733841935083227992e-05
-1.380198857040573074e-03
0.000000000000000000e+00
0.000000000000000000e+00
-5.788147254117731628e-03
5.222273160165118513e-03
0.000000000000000000e+00
0.000000000000000000e+00
0.000000000000000000e+00
-6.440604506873839723e-03
-1.306223512583141750e-03
0.000000000000000000e+00
0.000000000000000000e+00
0.000000000000000000e+00
0.000000000000000000e+00
0.000000000000000000e+00
0.000000000000000000e+00
0.000000000000000000e+00
0.000000000000000000e+00
6.939990462393035367e-03
5.408134234410924904e-03
-1.775830523796879945e-02
0.000000000000000000e+00
-1.610378014925966696e-03
-4.549393503792959273e-03
0.000000000000000000e+00
0.000000000000000000e+00
0.000000000000000000e+00
-3.138837423903440005e-02
-1.482333366069293543e-03
1.690157773044364475e+01
0.000000000000000000e+00
0.000000000000000000e+00
0.000000000000000000e+00
0.000000000000000000e+00
3.257293254066184057e-02
7.145175260430038089e-02
5.716688596396348604e-02
0.000000000000000000e+00
0.000000000000000000e+00
-1.985429662737692614e-04
0.000000000000000000e+00
0.000000000000000000e+00
-4.522932199927872432e+00
0.000000000000000000e+00
0.000000000000000000e+00
-8.150004102378817852e-03
-1.488201961939118615e-03
0.000000000000000000e+00
0.000000000000000000e+00
3.357465662970923401e-03
2.157567108558668123e-02
5.757523190215837507e-03
0.000000000000000000e+00
0.000000000000000000e+00
-5.280556217396660479e+00
-4.039496630607637695e-02
-4.507085815030949238e-02
0.000000000000000000e+00
0.000000000000000000e+00
2.223527632672204699e-02
8.029210257066265576e-04
1.978318345608110970e-02
4.923177069858220706e-03
0.000000000000000000e+00
0.000000000000000000e+00
0.000000000000000000e+00
0.000000000000000000e+00
-1.162746141278754308e-01
-2.551363403633156914e-03
-1.505675949610757458e-01
-1.767534377728218642e+00
3.824169411270939706e-02
1.029402943240810379e-02
-1.186525254066657376e-02
-3.521230931689713420e-03
0.000000000000000000e+00
3.384529416993779186e-04
-1.381361321598337522e-01
-7.935092102663403313e-03
-2.230414459060025070e-02
6.919759777957609184e-05
3.572640457426223392e-03
-7.706299245443457013e-02
4.980295206904647963e-03
-3.685363824306316094e-02
3.782177965421082422e-02
0.000000000000000000e+00
7.362881526774209262e-02
0.000000000000000000e+00
-1.209267249439560307e-02
8.939872171408620727e-02
3.129090621427028712e-04
0.000000000000000000e+00
0.000000000000000000e+00
0.000000000000000000e+00
0.000000000000000000e+00
6.992447145541100164e-04
-3.184863347224382163e-02
-4.613863158467363529e-02
-5.186944216520691930e-02
3.113256054014458193e-02
3.757839484821128354e-03
3.147109737452669607e-03
-7.948841321341571300e-03
-4.277286278082429588e-02
1.592306199332540750e-01
3.929436946688149440e-03
-7.418676855657606317e-02
0.000000000000000000e+00
1.297616775786862575e-01
-2.125490682891463035e+00
-2.636851752347289454e-02
-2.667865448295196704e-03
1.523966952268284158e-01
0.000000000000000000e+00
1.883707060039035031e-03
1.866120048370136786e-01
-1.877915494249167774e-02
1.062427496747851280e-01
7.593501125977692150e-04
0.000000000000000000e+00
-1.235626604889604074e+00
-9.437097071862653175e-03
-1.960952372195748708e-02
0.000000000000000000e+00
0.000000000000000000e+00
0.000000000000000000e+00
0.000000000000000000e+00
-8.300181789879269856e-03
0.000000000000000000e+00
-2.605627010019837680e-02
3.994149291801537584e-03
-8.905456843856357496e-02
1.864344925109373205e-02
0.000000000000000000e+00
-8.513131152397306056e-02
-8.682003650720769627e+00
-1.284726892866273174e+00
-1.718609006645343065e-02
-3.110128492852376730e-04
2.566880606115490814e-03
0.000000000000000000e+00
-7.729541008569569549e-02
-9.823315381439447214e-02
-7.515470510127184034e-02
-2.279119124462790358e-02
4.516009213114529144e-03
-3.605127461982432502e-02
-4.757960650230023264e-02
-1.957342178782817133e-02
0.000000000000000000e+00
-3.587755276100257438e-03
7.891252668435192255e-03
5.649960866624130496e-02
5.532647823580010282e-01
1.590047036180962381e-02
8.519297013996678380e-01
0.000000000000000000e+00
0.000000000000000000e+00
0.000000000000000000e+00
3.443841792714456146e-03
0.000000000000000000e+00
-1.071676361202046873e-04
0.000000000000000000e+00
0.000000000000000000e+00
1.041053476967489493e-04
-2.880672757604525458e-01
7.078549490813956790e-02
1.069140375941157566e-02
-2.121839541302940058e-01
-1.298473218632733017e-01
-3.350714648424041320e-02
1.618169441834617708e-02
0.000000000000000000e+00
-1.509573585726453615e-03
-2.648458103721888432e-02
-3.953606899415202380e-01
0.000000000000000000e+00
-4.258597476323025544e-03
2.771803045205512364e-02
0.000000000000000000e+00
0.000000000000000000e+00
-7.140354167675794228e-02
0.000000000000000000e+00
0.000000000000000000e+00
-2.599797902930625973e-02
0.000000000000000000e+00
-2.856470158267942483e-01
0.000000000000000000e+00
-8.552777314722439855e-04
1.055815451287046153e-02
0.000000000000000000e+00
2.980651098755777821e-03
0.000000000000000000e+00
0.000000000000000000e+00
-5.942968741400321206e-03
-2.253857429533400770e-03
-2.387465669807312119e-02
6.572067601041289842e-02
7.891199106528599960e-03
-3.114096720158101433e-02
1.558809746365247273e-01
-5.196108964036650485e-02
0.000000000000000000e+00
8.279457988045746397e-03
4.279781903699293732e-02
4.014043648788975238e-01
-1.882015796376461424e-03
0.000000000000000000e+00
5.337964094786308740e-03
0.000000000000000000e+00
-4.293216568087323583e-03
0.000000000000000000e+00
0.000000000000000000e+00
1.798861125859678445e-01
9.407712912842616793e-02
-9.877391130767815275e-02
-8.842755986711793581e-02
0.000000000000000000e+00
0.000000000000000000e+00
0.000000000000000000e+00
0.000000000000000000e+00
0.000000000000000000e+00
3.216502782530763355e-02
1.451063590561725222e-02
1.063872602931709545e-03
0.000000000000000000e+00
-1.674201867104478225e-03
8.709886953779540607e-04
3.188637204007408106e-05
2.731665283681712283e-02
-9.615992750971354835e-03
-5.038547791968544555e-03
3.797472819918037423e-01
1.610449672271010903e-03
1.261694696203189137e-01
0.000000000000000000e+00
4.348435692945364084e-02
6.174951298468376454e-02
0.000000000000000000e+00
0.000000000000000000e+00
0.000000000000000000e+00
3.632247896192914924e-03
0.000000000000000000e+00
-8.053346454158716999e-03
-5.126046625666114825e-03
3.719221724612243457e-02
0.000000000000000000e+00
0.000000000000000000e+00
0.000000000000000000e+00
0.000000000000000000e+00
-3.687198298943594743e-03
1.184146585578103872e-02
0.000000000000000000e+00
-1.071164633271372291e-01
-5.955704501785459570e-02
-3.578943493901207140e-02
1.461628796051663015e-01
-1.310881184176461260e-02
8.204850383372995493e-02
8.356778465271414097e-04
9.444401862390808589e+00
0.000000000000000000e+00
4.797372235098370727e-03
5.668432037859318096e-02
2.175818848766869137e-02
7.465598275893289490e-03
2.819140005877638841e-02
6.148656257262943847e-02
-3.532941742719599570e-02
-9.613164356102616576e-03
1.052055641710065576e-01
8.026628084264639251e-02
0.000000000000000000e+00
0.000000000000000000e+00
0.000000000000000000e+00
1.126521614769079166e-02
-1.255442215524059102e-01
3.012058443243034178e-01
3.671922572973920079e-02
5.093151569644833315e-02
4.341286604065588538e-04
-2.102783093711501836e-02
1.311358612924296051e-03
1.835014427255157298e-03
-6.063070259162251646e-02
-8.412082616511631222e-03
3.338540914158019679e-02
-2.044257360465356055e-01
2.514757597587571891e-01
0.000000000000000000e+00
2.240404858546255450e-03
2.499444432945551950e-02
-1.273811612424058208e-02
0.000000000000000000e+00
-3.789524017218406232e-02
0.000000000000000000e+00
9.446737312962204952e-03
0.000000000000000000e+00
0.000000000000000000e+00
-1.000666020302921119e-03
6.354380748041231139e-03
0.000000000000000000e+00
3.346339215876006357e-01
1.399740657396731647e-01
1.631753407696109326e-01
0.000000000000000000e+00
0.000000000000000000e+00
-3.617548229518552979e-03
-1.389827681433358464e+01
0.000000000000000000e+00
-8.894283747826237790e-03
0.000000000000000000e+00
2.269707601843813996e-02
-4.652761521905772121e-03
-8.328595954664187164e-04
-2.613877686224037183e-02
0.000000000000000000e+00
0.000000000000000000e+00
0.000000000000000000e+00
0.000000000000000000e+00
0.000000000000000000e+00
0.000000000000000000e+00
9.480270425226110242e-04
1.596467449545261545e-03
5.328841531721650870e-02
-3.426546131362372127e-02
2.937351673411927114e-02
-1.385553609051878030e-03
7.942256127156602924e-03
0.000000000000000000e+00
0.000000000000000000e+00
0.000000000000000000e+00
0.000000000000000000e+00
-1.376516883256350965e-01
-8.823793777618710310e-02
-1.569049037854304551e-01
-3.487305047421685594e-02
-7.128374695655001307e-03
-2.990082485832669043e-02
0.000000000000000000e+00
0.000000000000000000e+00
0.000000000000000000e+00
7.871403755079039077e-05
0.000000000000000000e+00
0.000000000000000000e+00
0.000000000000000000e+00
-2.677529384467700752e-02
1.411906156388987310e-01
1.805535243398401213e-02
2.156091195526444251e-02
0.000000000000000000e+00
0.000000000000000000e+00
0.000000000000000000e+00
0.000000000000000000e+00
-1.594200445585750026e-02
0.000000000000000000e+00
-1.318507731417133400e+01
0.000000000000000000e+00
0.000000000000000000e+00
-9.845444410947086500e-02
0.000000000000000000e+00
0.000000000000000000e+00
4.463747823138921288e-03
1.357713296917653113e-02
1.963098894727906968e-02
-3.050201972382762250e-01
0.000000000000000000e+00
7.762174375712622629e-04
0.000000000000000000e+00
1.827794948179359887e-03
0.000000000000000000e+00
0.000000000000000000e+00
-4.935248925410744281e-03
-1.871702128849233411e-03
2.594658185095254088e-02
2.666169480152348961e-02
0.000000000000000000e+00
8.934061480054045212e-02
4.699151914822142020e-03
-2.884051722075696433e-02
-1.267611204599896138e-02
1.233283633497078702e-02
-1.363710699499220691e-01
0.000000000000000000e+00
0.000000000000000000e+00
0.000000000000000000e+00
-4.884289536877510322e-03
0.000000000000000000e+00
-1.004349240715523076e-02
-6.199373663749926933e-02
-3.798089682960611307e-02
0.000000000000000000e+00
1.205414165019705330e-02
0.000000000000000000e+00
-2.285469616953317018e-01
0.000000000000000000e+00
-1.635893930221428150e-01
-1.682884510031848837e-04
3.697743225740535156e-02
2.564499298402462928e-03
3.709088016704747970e-02
0.000000000000000000e+00
-5.416245632731334428e-03
-2.122668671292257669e-02
-7.734136699945175220e-02
0.000000000000000000e+00
1.037250419697688560e-02
0.000000000000000000e+00
-4.862950875306099041e-02
-4.602695712802643002e-02
-4.445551322722448434e-02
-5.795637982783902187e-03
-1.380150520951146410e-02
-3.142885484604348439e-02
2.859664986552362675e-02
2.443535588019590810e-02
6.266755880208967067e-02
-5.988682147014325356e-04
-2.084561636219027167e-02
-5.911165753730988903e-02
-6.218077661305387166e-02
0.000000000000000000e+00
-2.703335869285630397e-02
0.000000000000000000e+00
1.156586513965518828e-03
1.301483843998292838e-04
8.127278622086030191e-02
6.650328530033466912e-02
3.905865872062423694e-02
1.368090682932511688e-02
1.148869332981061891e-01
0.000000000000000000e+00
-4.097558009881417142e-03
-1.207651744303624283e-03
-3.950590587021129974e-02
-1.113322341354540390e-01
-9.226192646778336170e-02
8.353041061073704365e-02
-5.378502416865654778e-02
0.000000000000000000e+00
0.000000000000000000e+00
0.000000000000000000e+00
0.000000000000000000e+00
0.000000000000000000e+00
0.000000000000000000e+00
-5.163832610657767552e-02
1.319940257461334893e-02
-1.463167487009342602e-03
3.746501543150958236e-02
0.000000000000000000e+00
-4.358933329951629118e-03
-1.425915438999067659e-04
0.000000000000000000e+00
0.000000000000000000e+00
-3.979756169433517655e-03
-7.080585724509641868e-03
0.000000000000000000e+00
-6.881900858882454564e-03
2.120251475742363501e-01
-3.497890143581549455e-05
-8.813074768274403725e-02
-2.890923069800395429e-02
0.000000000000000000e+00
0.000000000000000000e+00
-4.432270779719454240e-02
2.468070920800279500e-03
0.000000000000000000e+00
-8.587807465792864168e-04
0.000000000000000000e+00
-8.800020445149320247e-02
-8.278322536296238389e-04
1.473993751209742298e+00
5.553001259726292674e-03
2.959608578131789347e-01
-1.118918380906942650e-01
-4.628647289936119180e-02
1.488183156812185218e-04
0.000000000000000000e+00
0.000000000000000000e+00
3.866914478770461933e-02
4.461171147799498221e-03
1.640624236198462704e-01
0.000000000000000000e+00
-8.831916226393213623e-04
-6.565506932507312286e-04
0.000000000000000000e+00
0.000000000000000000e+00
-1.051620918662869025e-02
0.000000000000000000e+00
0.000000000000000000e+00
-7.563825814341576526e-05
-2.234435472265552079e-03
3.270738661644091394e+01
4.174493659502096499e-01
-2.443290966920017883e-03
2.717107698001852787e-03
0.000000000000000000e+00
1.926901003718558547e-01
5.674874668205075190e-02
0.000000000000000000e+00
-2.808009254758893694e-02
-6.116457277600042403e-03
4.741298399274335943e-04
2.189290494739812645e-02
4.169198323224452274e+00
0.000000000000000000e+00
-1.656846820824601620e-05
0.000000000000000000e+00
0.000000000000000000e+00
1.314304657699192670e-02
4.322391057843764928e-02
0.000000000000000000e+00
0.000000000000000000e+00
4.987649980120058280e-03
7.211783341329616737e-03
0.000000000000000000e+00
2.128965979210192122e-02
3.385279554897586279e-02
-5.949647421750054767e-03
0.000000000000000000e+00
-2.941885437973316454e-03
0.000000000000000000e+00
2.070771261074961372e-02
-1.849723940712157816e-02
0.000000000000000000e+00
6.250026801479517842e-03
0.000000000000000000e+00
0.000000000000000000e+00
0.000000000000000000e+00
0.000000000000000000e+00
2.843147100921318473e-03
0.000000000000000000e+00
1.441679104969394686e-03
0.000000000000000000e+00
2.137540174255410722e-03
-1.822122652408874471e-02
4.047505161186711400e-03
-8.885283631696739952e-04
0.000000000000000000e+00
0.000000000000000000e+00
-1.692105728527533394e-04
-6.409811244384444606e-03
-4.693200026684857251e-02
-9.883332882847746179e-03
0.000000000000000000e+00
3.767689037654281450e-03
-3.447046712032252047e-02
2.446902478374126874e-02
0.000000000000000000e+00
-1.036965312872582465e-02
-2.299648563052227729e-02
-3.251550024790012677e-03
0.000000000000000000e+00
0.000000000000000000e+00
-4.081190002480899331e-02
0.000000000000000000e+00
3.148761275930181402e-02
5.302832103558622126e-03
0.000000000000000000e+00
-2.879061823980560032e-03
6.899130405842836614e-03
2.218240742676129418e-02
0.000000000000000000e+00
0.000000000000000000e+00
0.000000000000000000e+00
4.026387271288307985e-03
1.466616757184156239e-01
0.000000000000000000e+00
0.000000000000000000e+00
-9.643157116673862703e-03
-5.048647649267083704e-02
0.000000000000000000e+00
0.000000000000000000e+00
-1.354436780032851895e-01
0.000000000000000000e+00
-2.000503973584116107e-02
0.000000000000000000e+00
0.000000000000000000e+00
-1.997806220045178494e-02
-1.489445359683365605e-03
-1.576851216038331529e-03
0.000000000000000000e+00
0.000000000000000000e+00
0.000000000000000000e+00
-5.775333766046553130e-01
1.129006738888258150e-02
0.000000000000000000e+00
0.000000000000000000e+00
0.000000000000000000e+00
0.000000000000000000e+00
0.000000000000000000e+00
0.000000000000000000e+00
0.000000000000000000e+00
-1.174112567438645276e-03
0.000000000000000000e+00
0.000000000000000000e+00
0.000000000000000000e+00
0.000000000000000000e+00
-1.971528194851765795e-02
-7.875889302133740402e-03
0.000000000000000000e+00
0.000000000000000000e+00
0.000000000000000000e+00
0.000000000000000000e+00
0.000000000000000000e+00
0.000000000000000000e+00
3.354491961063468114e-02
-1.054255757522407494e-01
0.000000000000000000e+00
0.000000000000000000e+00
0.000000000000000000e+00
0.000000000000000000e+00
0.000000000000000000e+00
0.000000000000000000e+00
0.000000000000000000e+00
0.000000000000000000e+00
0.000000000000000000e+00
0.000000000000000000e+00
0.000000000000000000e+00
3.088517604981993580e-03
0.000000000000000000e+00
0.000000000000000000e+00
0.000000000000000000e+00
0.000000000000000000e+00
0.000000000000000000e+00
0.000000000000000000e+00
-1.957966080422363156e-07
0.000000000000000000e+00
8.902374642451632916e-03
-1.095389795573111814e-02
4.266085239152170860e-01
-7.779464245239994802e-03
-2.006120174602075285e-02
-1.902057375369893555e-02
1.068825497717380280e-01
0.000000000000000000e+00
0.000000000000000000e+00
0.000000000000000000e+00
0.000000000000000000e+00
0.000000000000000000e+00
0.000000000000000000e+00
0.000000000000000000e+00
0.000000000000000000e+00
0.000000000000000000e+00
0.000000000000000000e+00
0.000000000000000000e+00
0.000000000000000000e+00
-3.543028712353621986e-03
0.000000000000000000e+00
0.000000000000000000e+00
-5.569609964548069558e-02
0.000000000000000000e+00
-7.901780896441407392e-04
-3.808104265362264370e-03
0.000000000000000000e+00
1.876243261217416108e-02
0.000000000000000000e+00
0.000000000000000000e+00
-1.055911585565283070e-02
1.978035080082201844e-02
0.000000000000000000e+00
0.000000000000000000e+00
0.000000000000000000e+00
3.734454370947570129e-02
-7.686451659509319946e-03
-8.193573597538560127e-02
1.146853605830250311e-01
-8.583192622895004578e-03
2.699995720233241622e-02
-2.657411699837627581e-02
0.000000000000000000e+00
0.000000000000000000e+00
0.000000000000000000e+00
0.000000000000000000e+00
0.000000000000000000e+00
0.000000000000000000e+00
-8.601842930511643948e-02
-4.596046170745751724e-02
1.300551947643465711e-01
8.346057901698342163e-02
-4.771508226321881201e-03
-9.162365556440299486e-02
0.000000000000000000e+00
-1.369359880900130298e-02
-4.080812430363527088e-02
-4.059439661073803093e-03
0.000000000000000000e+00
-2.541686266324903569e-03
0.000000000000000000e+00
0.000000000000000000e+00
4.594660604936353504e-02
4.543281683235417603e-03
1.684095454980822151e-02
-6.009208938762190637e-03
-6.047833204448845729e-03
-3.695802342161869092e-02
-2.802492569152660942e-02
0.000000000000000000e+00
0.000000000000000000e+00
0.000000000000000000e+00
0.000000000000000000e+00
0.000000000000000000e+00
-1.967912901497717235e-02
-1.112881292971469420e-02
1.203138662964396977e-01
4.914680184365208815e-01
1.175073755841039291e-01
-7.668216079734078115e-03
-1.175872722461726860e-01
-3.547850383459689311e-02
-3.581115617434751930e-02
-3.156649131237271311e-02
0.000000000000000000e+00
0.000000000000000000e+00
-4.787930132815279016e-01
0.000000000000000000e+00
0.000000000000000000e+00
1.378209901334394522e-03
-3.274988666290284955e-02
-7.274956225265676079e-04
0.000000000000000000e+00
3.265300330784376426e-02
4.481100856735865945e-02
0.000000000000000000e+00
-4.247757210236513536e-03
9.914336906420548323e-02
2.753291902855037419e-03
0.000000000000000000e+00
0.000000000000000000e+00
0.000000000000000000e+00
0.000000000000000000e+00
-3.464210296507405309e-05
-2.242293752471477830e-01
-9.211647078744392841e-03
-1.219575229062421912e-01
2.938489270976416684e-02
-4.544807128206460739e-02
-1.679477910769784990e-02
-5.583464894654284472e-02
-3.361973073374954768e-02
-3.438129546050281427e+00
-1.105254641451220571e-02
1.800531539526225959e-03
5.548472369478400605e-04
-1.032041423631651078e-01
4.064741750128669762e-04
-6.399975222760903928e-03
-4.038868935609880514e-03
6.963262896543208607e-04
-1.672809919005441293e-01
-8.862836708082482209e-03
-8.821328822463690711e-03
0.000000000000000000e+00
0.000000000000000000e+00
0.000000000000000000e+00
-3.478346535181186475e-03
-2.151071773839688568e-03
0.000000000000000000e+00
0.000000000000000000e+00
0.000000000000000000e+00
0.000000000000000000e+00
0.000000000000000000e+00
0.000000000000000000e+00
0.000000000000000000e+00
4.146508464047291703e-02
0.000000000000000000e+00
2.919605297170311739e-02
-4.803702854749314355e-02
-1.578549647512710041e-01
3.679098789855016031e-04
4.437952173538394635e-02
-3.656412185121077574e+00
-2.022773631902445579e-03
4.112396611039747379e-02
-2.368295405423848001e-03
2.634807649891173723e-03
-7.496100008904110767e-02
1.059152952277537044e-02
5.136663433700575793e-02
0.000000000000000000e+00
0.000000000000000000e+00
-7.501635886209412699e-03
3.519313493542017626e-03
0.000000000000000000e+00
0.000000000000000000e+00
0.000000000000000000e+00
0.000000000000000000e+00
0.000000000000000000e+00
0.000000000000000000e+00
-8.042986550736067443e-04
0.000000000000000000e+00
0.000000000000000000e+00
0.000000000000000000e+00
0.000000000000000000e+00
4.155101143705109898e-03
0.000000000000000000e+00
0.000000000000000000e+00
9.535117805304199612e-02
-1.295681856213597161e-02
-5.882033163356716055e-02
9.631405080549496761e-03
-2.107173247119365606e-04
0.000000000000000000e+00
0.000000000000000000e+00
-2.059929592496612810e-03
-3.967192767998238556e-02
-2.062306111771142203e-02
0.000000000000000000e+00
-1.046840358266750044e-02
4.068220588442193753e-02
0.000000000000000000e+00
5.078664019706717603e-02
2.373216896964439604e-01
1.921602805913787126e-02
0.000000000000000000e+00
0.000000000000000000e+00
0.000000000000000000e+00
1.890032241675851897e-03
1.453008796316301345e-02
0.000000000000000000e+00
0.000000000000000000e+00
0.000000000000000000e+00
0.000000000000000000e+00
0.000000000000000000e+00
0.000000000000000000e+00
1.972255557001027348e-03
0.000000000000000000e+00
2.163010057741749648e-01
2.009139941496388207e-02
-5.744790668269501854e-03
4.696352853527351739e-02
2.254273940172765833e+01
1.723179935621372769e-02
0.000000000000000000e+00
0.000000000000000000e+00
1.253952941990934926e-02
-1.157184730285193072e-02
0.000000000000000000e+00
-1.414852810448840870e-01
0.000000000000000000e+00
-4.523119254335823403e-01
-1.911784460283517603e-02
1.375874998058914667e-01
1.967116075850195434e-01
1.384263102570305881e-02
-3.106450176580796067e-04
0.000000000000000000e+00
-1.186624108070340362e-02
-1.420517615444988205e-03
-3.690900782855806653e-03
-1.442953006436821853e-02
0.000000000000000000e+00
0.000000000000000000e+00
0.000000000000000000e+00
4.017642172138807116e-02
5.961698420991683872e-03
2.851912361903161108e-01
4.087284715461707296e-03
3.784376211931841753e-03
2.006068500840429633e-03
2.147788448036756503e-01
5.854133462443190938e-02
-1.730054006228476937e-01
-3.260436548520603828e-02
3.556303436349284586e-01
0.000000000000000000e+00
-3.385561688937118764e-03
1.251034398091504900e-02
4.631351819137932008e-02
-2.631295649082581178e+01
-1.248974896779989421e-02
0.000000000000000000e+00
7.865870887753752261e-02
-1.238468901877823845e-02
0.000000000000000000e+00
0.000000000000000000e+00
-3.438474049035510419e-03
-2.269299608564308117e-03
0.000000000000000000e+00
0.000000000000000000e+00
5.332996033806162994e-02
-1.000359769093684065e-03
0.000000000000000000e+00
0.000000000000000000e+00
4.104175780532383355e-03
-5.015634363702232978e-02
-4.614462643185317237e-02
0.000000000000000000e+00
2.514640674843373128e-02
0.000000000000000000e+00
0.000000000000000000e+00
-1.509164524870188449e-02
9.025060615302109073e-04
0.000000000000000000e+00
2.148943284977515578e-02
-9.453917584886292746e-02
0.000000000000000000e+00
2.866439414467055954e-02
1.216804027033166202e-01
0.000000000000000000e+00
0.000000000000000000e+00
1.554646156744743900e-02
4.398218347172944825e-02
0.000000000000000000e+00
4.835072140397581042e-02
-1.871562894583107470e-02
0.000000000000000000e+00
1.355082602381707177e-02
-4.686406102827217479e-02
-5.959786525418872159e-04
2.541280461661841322e-02
0.000000000000000000e+00
2.495592606909935104e-03
1.341091225262351985e-02
-5.342768623107753238e-03
9.225595608631162459e-02
-1.818409200533242440e-02
-7.806691952366087565e-05
-1.345258315096169426e-03
-8.581099330586613658e-03
1.397376520120615327e-02
0.000000000000000000e+00
-3.311285791639843185e-02
0.000000000000000000e+00
2.638718760231031565e-02
1.644198708448149464e-04
0.000000000000000000e+00
0.000000000000000000e+00
0.000000000000000000e+00
0.000000000000000000e+00
0.000000000000000000e+00
7.467390200951344072e-03
7.995153727938589250e-05
-1.181945541339853023e-02
-4.523667533806529999e-04
-6.539955158687209280e-03
6.879345070042165895e-03
6.437133937787684577e-03
1.641785708606232144e-02
-1.156076317231805040e-01
3.581489475233378024e-03
1.427209028696221644e-03
-1.462847305665947867e-02
2.436327755448443044e-01
-8.152214235656797536e-03
-5.161639033546098349e-02
-1.737056921758892702e-01
4.830903659059447423e-05
0.000000000000000000e+00
0.000000000000000000e+00
0.000000000000000000e+00
-2.750354608140250323e-05
2.625376163265536193e-04
0.000000000000000000e+00
0.000000000000000000e+00
0.000000000000000000e+00
0.000000000000000000e+00
-1.291581165825061994e-02
4.946204220749202130e-02
4.868674454987508698e-02
-2.141030407336467767e-01
2.170538137831243448e-03
7.396810637436100622e-03
-1.054781597920271576e-02
1.155952551134145634e-02
1.192259430459911319e-02
-6.799420168852257640e-02
-1.623587843480849696e-02
-8.444040369558709902e-02
-3.920259025523321894e-03
-8.180143483680967637e-03
0.000000000000000000e+00
0.000000000000000000e+00
-3.672496062941876024e-03
0.000000000000000000e+00
0.000000000000000000e+00
0.000000000000000000e+00
0.000000000000000000e+00
-2.959390667021751312e-03
-1.752550633503490995e-01
-5.211735564713233793e-02
9.736159111799799759e-03
-2.930499238683609634e-02
0.000000000000000000e+00
0.000000000000000000e+00
-3.675322294370641108e-03
-5.680683909376045776e-04
-1.957234764503946230e-04
-7.857084855073616092e-01
-1.257873969151367399e+00
2.903227886827397866e-02
0.000000000000000000e+00
0.000000000000000000e+00
0.000000000000000000e+00
0.000000000000000000e+00
-7.879885356843445710e-01
1.055876156359263074e-02
1.140930920232401252e-01
0.000000000000000000e+00
5.290349870300272133e-04
4.556963205344432000e-01
-2.762442496780446663e-02
0.000000000000000000e+00
0.000000000000000000e+00
1.600684648058369602e-02
2.283738915825282989e-01
7.720186967477794815e-02
0.000000000000000000e+00
-1.008623327327392780e-02
-3.174923848055607317e-02
-2.145250390987213374e-01
-1.357652564249571814e-01
-2.463807030212320642e-03
2.242684182669615889e-02
-7.696428828784476111e-04
1.663975210976252062e-01
0.000000000000000000e+00
-9.485640521192694949e-03
-1.028433944427795989e-02
-1.464009675481801886e-02
-4.044167518097586261e-02
1.084697008171408433e-02
-4.028278330453183287e-02
0.000000000000000000e+00
2.552951908074753362e+00
-1.540338820346985438e+00
-7.233470172126532649e-02
0.000000000000000000e+00
2.960754320347790125e-02
-4.576774613373122236e+01
0.000000000000000000e+00
0.000000000000000000e+00
4.273190450324422344e-03
-1.048147596963258654e-02
2.199982973049711618e-02
6.666744539715949505e-03
-9.087525840684580053e-03
-1.707518942853279362e-02
-8.471547122567478494e-02
-2.856172517361547578e-02
0.000000000000000000e+00
7.306882447255331516e-03
0.000000000000000000e+00
-1.863621902037145006e-01
4.737153393639650933e-02
5.417096472121734063e-01
-6.047155251452641933e-02
5.861062120765224426e-04
1.565878579163314677e-03
0.000000000000000000e+00
2.010127811211469828e-01
0.000000000000000000e+00
4.344486859637408833e-03
7.396164100349670624e-03
-1.513174533943162370e-02
0.000000000000000000e+00
6.140198478149668220e-04
-3.407022802502304160e-01
0.000000000000000000e+00
0.000000000000000000e+00
1.011927803932951165e-03
1.318631185271367662e-02
-2.414999926664647065e-02
-2.853062394563783948e-03
4.350824333421461632e-02
0.000000000000000000e+00
4.108008347346548544e-02
0.000000000000000000e+00
0.000000000000000000e+00
9.608516814263052055e-03
0.000000000000000000e+00
2.527136997492182013e-01
-1.032747880186054568e-01
-1.926509303054789110e-02
2.129604996260179781e-02
9.127880314875154444e-02
1.262153987162776825e-01
-3.897074551759705657e-02
5.952863986211620606e-01
0.000000000000000000e+00
2.810134448354992178e-03
-3.144139771893431773e-02
-4.099952787171991242e-03
7.835262701034197141e-02
2.069441358100438666e-01
-8.453421270282089617e-02
2.428075456145770139e-02
1.089973297010502773e-01
4.977185424493384136e-02
7.410437743144433487e-01
-2.676295038251672379e-02
8.742949181906269421e-03
0.000000000000000000e+00
0.000000000000000000e+00
-2.322722403843521279e-04
-1.880745458192715699e-02
-7.355410773213735169e-04
8.180457424388410184e-03
0.000000000000000000e+00
0.000000000000000000e+00
-1.423937914882029698e-01
-1.002787196023929989e-01
-2.181774382989374803e-02
0.000000000000000000e+00
0.000000000000000000e+00
0.000000000000000000e+00
-1.796918485943492473e-04
2.013312917054868416e-03
-2.157846117536754357e-02
-2.074199182318940959e-01
1.087331792908052125e-02
-4.110782630286164557e-02
-1.772323743676799089e-03
1.049115216475173806e-01
2.352923000102950107e-02
-4.348554385187984725e-04
0.000000000000000000e+00
-1.271077380486323495e-02
0.000000000000000000e+00
-1.127229925958031682e-02
0.000000000000000000e+00
-4.039020097716967267e-02
-1.384801791093673816e-03
-1.947480018525254764e+01
0.000000000000000000e+00
0.000000000000000000e+00
0.000000000000000000e+00
0.000000000000000000e+00
0.000000000000000000e+00
0.000000000000000000e+00
0.000000000000000000e+00
0.000000000000000000e+00
-3.321859460993404484e-02
2.748933905131560954e-02
-2.941367643902401685e-01
-1.038904735005909963e-01
-1.674721514216275312e-02
2.818972500630642988e-02
0.000000000000000000e+00
0.000000000000000000e+00
-3.309061432565076066e-03
-9.472969508275509709e-03
-9.234077927458930746e-02
2.094220520478702607e-04
4.343243430502659666e-03
4.379658276531142418e-03
-4.135955722244218091e-02
-2.365737644143917160e-05
0.000000000000000000e+00
0.000000000000000000e+00
0.000000000000000000e+00
0.000000000000000000e+00
0.000000000000000000e+00
0.000000000000000000e+00
0.000000000000000000e+00
0.000000000000000000e+00
0.000000000000000000e+00
0.000000000000000000e+00
0.000000000000000000e+00
-9.779979867396998428e-02
-1.720243314115061650e-01
6.414442551331298037e-02
9.753592394796388454e-03
-1.841210577938799057e-03
0.000000000000000000e+00
7.814388111996129621e-03
9.475460171317262245e-05
6.379066558018756279e-04
0.000000000000000000e+00
-1.518037432773843287e-01
-6.747902538229351779e-03
-2.401259702525445142e-03
1.301341321189798672e-02
-1.930487125119405636e-02
-2.696952968650975432e-02
-1.372783285059405722e-01
-4.592206659821838378e-03
2.339240073527480701e-02
0.000000000000000000e+00
-1.477864298010343469e-01
-1.439341333350674032e-02
0.000000000000000000e+00
1.994873125316642612e-02
-1.481807287453280018e-02
0.000000000000000000e+00
0.000000000000000000e+00
0.000000000000000000e+00
8.620111535947889980e-04
1.740364750355082035e-01
-9.582088092110724320e-03
8.036339713124821330e-03
9.448486436208398259e-03
-2.106597743558029021e-02
-1.271074282740515711e-02
-1.037358352973681216e-02
0.000000000000000000e+00
-2.175583256436862123e-01
-1.301154090064978242e+01
-5.873858935969292552e-04
-3.553321287120055072e-03
0.000000000000000000e+00
0.000000000000000000e+00
-4.923668715096907872e-02
-1.416234093938635585e-01
1.347742927471596852e-01
3.260562863874967854e-01
0.000000000000000000e+00
0.000000000000000000e+00
-6.519317129776104093e-03
0.000000000000000000e+00
-1.252308418835986967e-02
-5.673350336430162122e-03
0.000000000000000000e+00
0.000000000000000000e+00
0.000000000000000000e+00
-2.705263407911276765e-04
1.620428820638186718e-02
-4.911044199930251000e-03
-1.636853368358352420e-02
0.000000000000000000e+00
0.000000000000000000e+00
0.000000000000000000e+00
-4.912127632637698360e-01
0.000000000000000000e+00
-3.403528812953060534e-01
-1.130388267343970909e+00
-2.294671063637482300e-03
7.059919013359605526e-03
0.000000000000000000e+00
0.000000000000000000e+00
0.000000000000000000e+00
0.000000000000000000e+00
7.621197357239904236e-05
0.000000000000000000e+00
-4.278995918303980101e-02
-1.549054033191574718e-03
-2.982661227801499115e-01
-4.093279160130416233e-02
-5.863852580631089342e-03
0.000000000000000000e+00
-3.593038071390722548e-03
-1.666481907348477814e-02
0.000000000000000000e+00
6.431706413903282883e-03
-2.548250301171263443e-02
1.511114892434150571e-02
0.000000000000000000e+00
0.000000000000000000e+00
-2.877129472579715436e-02
1.132770531094181611e-03
-2.738708435257047880e-01
0.000000000000000000e+00
-1.121507380675889759e-01
-1.228367344602484222e-02
-8.784397836637823642e-02
0.000000000000000000e+00
0.000000000000000000e+00
0.000000000000000000e+00
0.000000000000000000e+00
7.791246130611181875e-02
-3.077280912538543287e-02
0.000000000000000000e+00
-3.632352085966711330e-01
0.000000000000000000e+00
3.462559642582807573e-02
-3.675012964082392114e-03
0.000000000000000000e+00
0.000000000000000000e+00
0.000000000000000000e+00
1.107476261438094107e-04
1.352583152467085326e-01
7.067551076127951857e-04
-7.508994395266971322e-02
-4.204595957864347255e+00
0.000000000000000000e+00
0.000000000000000000e+00
4.239317841434841333e-03
0.000000000000000000e+00
0.000000000000000000e+00
5.075094190756608906e-03
0.000000000000000000e+00
0.000000000000000000e+00
0.000000000000000000e+00
0.000000000000000000e+00
-3.443517317600205897e-04
0.000000000000000000e+00
0.000000000000000000e+00
1.788626785281148893e-02
0.000000000000000000e+00
-5.464443216491994548e-02
0.000000000000000000e+00
3.272248272179837519e-02
2.987088283071353545e-01
1.180681452142038831e-02
8.044691797108016176e-04
4.239788662839520661e-02
-8.042394734151751129e-03
-1.186545899995031933e-01
-2.605707189727907939e-03
0.000000000000000000e+00
2.184411738950535128e-02
1.968120223405160629e-01
0.000000000000000000e+00
-3.582680101762873714e-03
0.000000000000000000e+00
1.152108836489220377e-02
0.000000000000000000e+00
0.000000000000000000e+00
-5.176811320285205822e-04
-7.990374152887673442e-02
0.000000000000000000e+00
2.143705496833101520e-01
0.000000000000000000e+00
0.000000000000000000e+00
0.000000000000000000e+00
-1.116834387833880171e-02
0.000000000000000000e+00
5.386711108655133085e-02
-2.739326487233041951e-01
-1.802304883077956305e-02
0.000000000000000000e+00
0.000000000000000000e+00
5.526803928552968294e-03
-2.370086443858560044e-01
0.000000000000000000e+00
0.000000000000000000e+00
0.000000000000000000e+00
8.359062943136302826e-02
4.937047631974016831e-02
-4.225895245405783540e-02
0.000000000000000000e+00
1.671869966159925374e-03
0.000000000000000000e+00
0.000000000000000000e+00
0.000000000000000000e+00
1.554979666407368122e-01
9.269107265249839842e-03
0.000000000000000000e+00
-3.016142435180021661e-02
0.000000000000000000e+00
0.000000000000000000e+00
1.411472392219372332e-02
0.000000000000000000e+00
-2.208908650845701344e-02
2.409296803754117783e-02
0.000000000000000000e+00
0.000000000000000000e+00
-5.174434198112467898e-06
0.000000000000000000e+00
0.000000000000000000e+00
0.000000000000000000e+00
2.004172685950020988e-03
0.000000000000000000e+00
0.000000000000000000e+00
0.000000000000000000e+00
1.259946899452649427e-01
2.336415466382199947e-04
0.000000000000000000e+00
0.000000000000000000e+00
0.000000000000000000e+00
-5.219124688134565071e-04
-7.419494421058278090e-03
0.000000000000000000e+00
0.000000000000000000e+00
-5.096241437604190133e-04
0.000000000000000000e+00
0.000000000000000000e+00
0.000000000000000000e+00
-8.156285934117772640e-02
0.000000000000000000e+00
0.000000000000000000e+00
2.287875615888956479e-02
0.000000000000000000e+00
0.000000000000000000e+00
2.534215981498075775e-03
0.000000000000000000e+00
0.000000000000000000e+00
0.000000000000000000e+00
0.000000000000000000e+00
2.094935263528282122e-03
0.000000000000000000e+00
0.000000000000000000e+00
0.000000000000000000e+00
0.000000000000000000e+00
0.000000000000000000e+00
0.000000000000000000e+00
0.000000000000000000e+00
5.710264634212731949e-02
0.000000000000000000e+00
4.790414340510258662e-02
0.000000000000000000e+00
0.000000000000000000e+00
4.554072955444407045e-01
1.354815304066140369e-01
-6.983658124633209362e-03
6.562555123540865509e-02
0.000000000000000000e+00
0.000000000000000000e+00
0.000000000000000000e+00
-2.491408226008545029e-02
0.000000000000000000e+00
0.000000000000000000e+00
0.000000000000000000e+00
0.000000000000000000e+00
0.000000000000000000e+00
5.669283613582128817e-02
-2.066649146643387950e-05
0.000000000000000000e+00
0.000000000000000000e+00
0.000000000000000000e+00
0.000000000000000000e+00
0.000000000000000000e+00
0.000000000000000000e+00
0.000000000000000000e+00
0.000000000000000000e+00
2.314597832404699518e-02
-1.582138548222850440e-03
1.948734222331788973e-02
7.581091792907762757e-03
0.000000000000000000e+00
2.043083522650170070e-02
0.000000000000000000e+00
0.000000000000000000e+00
0.000000000000000000e+00
0.000000000000000000e+00
0.000000000000000000e+00
0.000000000000000000e+00
0.000000000000000000e+00
0.000000000000000000e+00
0.000000000000000000e+00
0.000000000000000000e+00
0.000000000000000000e+00
1.381694702941476116e-01
0.000000000000000000e+00
9.849056079674888345e-03
0.000000000000000000e+00
2.200543971189803175e-02
1.731946243705538915e-02
0.000000000000000000e+00
0.000000000000000000e+00
0.000000000000000000e+00
0.000000000000000000e+00
0.000000000000000000e+00
0.000000000000000000e+00
0.000000000000000000e+00
1.714937630107751603e-04
0.000000000000000000e+00
1.932448957006449369e-03
2.154230634660962013e-02
5.327637612542740486e-02
1.261474356014870637e-02
0.000000000000000000e+00
0.000000000000000000e+00
0.000000000000000000e+00
0.000000000000000000e+00
0.000000000000000000e+00
0.000000000000000000e+00
0.000000000000000000e+00
2.562824792550322359e-04
1.482584181031472714e-01
0.000000000000000000e+00
0.000000000000000000e+00
0.000000000000000000e+00
0.000000000000000000e+00
-1.059555109684723155e-02
2.097577289068975823e-02
0.000000000000000000e+00
0.000000000000000000e+00
0.000000000000000000e+00
0.000000000000000000e+00
0.000000000000000000e+00
2.602479173796835160e-02
8.158801421941023601e-04
-3.786283625542434165e-05
0.000000000000000000e+00
7.855859735861473944e-03
-3.712385712747810068e-02
0.000000000000000000e+00
0.000000000000000000e+00
0.000000000000000000e+00
0.000000000000000000e+00
0.000000000000000000e+00
-6.975250805443450330e-03
-2.060759191947621541e-03
0.000000000000000000e+00
2.463926867305716098e-02
-1.261067850091075575e-02
0.000000000000000000e+00
2.665231526635949803e-03
-1.412815629451332194e-03
0.000000000000000000e+00
0.000000000000000000e+00
-1.068319930998757336e-03
-8.670270489345692109e-04
0.000000000000000000e+00
0.000000000000000000e+00
0.000000000000000000e+00
1.654974445472386438e-02
2.886528228942138452e-01
0.000000000000000000e+00
1.136455831306755482e-01
2.163321326818726242e-02
-5.786382625904712418e-02
0.000000000000000000e+00
5.991117624200124891e-02
5.779153916313430062e-02
0.000000000000000000e+00
0.000000000000000000e+00
0.000000000000000000e+00
-4.042485589233608912e-04
-2.686243677012623097e-03
-2.206546600055925636e-02
0.000000000000000000e+00
2.152049304113616210e-02
1.619186677916623768e-02
-1.293199016015244987e-03
-5.432443676827369665e-03
2.183622442342408876e-02
-3.717332613800036073e-02
-3.643825397936293568e-03
4.228075564510544448e-02
-2.449213265688870642e-02
0.000000000000000000e+00
-1.385031070311503604e-02
0.000000000000000000e+00
-2.400476324123557506e-02
-3.482213192283025727e-01
-6.283481045076561022e-02
-1.122661391411157450e-03
-5.991379669799477836e-03
0.000000000000000000e+00
0.000000000000000000e+00
0.000000000000000000e+00
0.000000000000000000e+00
-1.958085759502229545e-02
0.000000000000000000e+00
0.000000000000000000e+00
1.026391410757066802e-01
-1.225837528084838812e-02
0.000000000000000000e+00
6.651890665357833646e-03
0.000000000000000000e+00
0.000000000000000000e+00
-1.161741969143868444e-04
8.587174091003995507e-03
-2.827029712509298784e-02
-2.424444138439355370e-02
-1.009919713843977426e-02
3.580881378304203669e-03
-2.842674424486747731e-02
0.000000000000000000e+00
1.539894123430993189e-02
-4.188761126944511373e-03
0.000000000000000000e+00
0.000000000000000000e+00
0.000000000000000000e+00
-1.102267117465237090e-01
7.017825930325638506e-02
0.000000000000000000e+00
0.000000000000000000e+00
0.000000000000000000e+00
0.000000000000000000e+00
0.000000000000000000e+00
0.000000000000000000e+00
0.000000000000000000e+00
0.000000000000000000e+00
0.000000000000000000e+00
5.720786667469033443e-03
1.004405191303881839e+00
-3.000550285630818742e-02
1.763841858324272701e-03
0.000000000000000000e+00
0.000000000000000000e+00
3.171647249390655010e-02
5.489273378425694669e-03
6.316436940510880907e-03
-4.438021071375262971e-02
0.000000000000000000e+00
0.000000000000000000e+00
0.000000000000000000e+00
0.000000000000000000e+00
1.345381596496484679e-02
7.740002447717505597e-03
-1.720125176914445442e-01
-1.601301904396579268e-01
1.726758645516109775e-02
0.000000000000000000e+00
0.000000000000000000e+00
1.125663757429410912e-03
0.000000000000000000e+00
0.000000000000000000e+00
0.000000000000000000e+00
0.000000000000000000e+00
0.000000000000000000e+00
6.347787155834913467e-04
0.000000000000000000e+00
2.474582824275357081e-03
0.000000000000000000e+00
0.000000000000000000e+00
2.787396081358680180e-02
-1.012238561863538708e-03
0.000000000000000000e+00
1.841030607730010423e-03
2.962897150872016738e-04
4.205753093946702423e-03
0.000000000000000000e+00
3.340776426520150090e-03
2.977193890878551685e-02
2.272424649969665977e-01
6.312491599063135839e-02
0.000000000000000000e+00
-1.076424747134582284e-02
-1.264759985235151124e-02
-1.486499212397753567e-01
0.000000000000000000e+00
-3.754509180930579171e-03
-7.487711318132871108e-02
0.000000000000000000e+00
0.000000000000000000e+00
4.577151725426635218e-03
8.544174004144089452e-03
0.000000000000000000e+00
-2.354267652224102322e-02
0.000000000000000000e+00
0.000000000000000000e+00
-1.192072540892400584e-02
1.121822893838304025e-01
4.426199771195148819e-02
0.000000000000000000e+00
-1.828855201884515939e-03
0.000000000000000000e+00
2.015880205442256018e-02
-6.112581222229836544e-05
-2.177799209461605059e-02
0.000000000000000000e+00
0.000000000000000000e+00
2.373617463765400892e-01
-5.311652265331247291e-02
-4.947578422232962788e-04
0.000000000000000000e+00
0.000000000000000000e+00
5.614798848964203115e-01
2.479297078833264945e-01
4.491834959503111513e-01
-7.638893842235643106e-03
-9.375112681931745129e-03
1.811604895395672529e-02
8.738560634366682178e-02
-3.064954315334245637e-03
5.781631963415120312e-01
0.000000000000000000e+00
0.000000000000000000e+00
-1.784170848507348611e-02
-2.074469645017066460e-02
7.557190403549847446e-02
0.000000000000000000e+00
0.000000000000000000e+00
-2.747614687753982456e-03
-8.382050113718475439e-04
-2.348487674185263607e+00
0.000000000000000000e+00
0.000000000000000000e+00
0.000000000000000000e+00
0.000000000000000000e+00
0.000000000000000000e+00
0.000000000000000000e+00
1.511856832545123708e-01
1.768520459945098211e-01
0.000000000000000000e+00
0.000000000000000000e+00
0.000000000000000000e+00
-1.356969382447115397e-03
-1.592948364091516592e-02
0.000000000000000000e+00
0.000000000000000000e+00
9.459568013479830546e-04
1.318430749544304351e-02
1.219823513622385856e-02
6.977665409205131841e-02
0.000000000000000000e+00
-9.308119918469877352e-02
-9.030037843737705877e-03
1.031143623688182825e-01
-1.529119158543757601e-02
5.792129555230621056e-03
-4.727760889779920872e-02
-6.665302135653314308e-02
0.000000000000000000e+00
-8.801809441700711445e-03
1.085795854207879385e-01
0.000000000000000000e+00
0.000000000000000000e+00
0.000000000000000000e+00
0.000000000000000000e+00
-5.539105784341102900e-02
8.030062835657251000e-03
0.000000000000000000e+00
0.000000000000000000e+00
0.000000000000000000e+00
0.000000000000000000e+00
0.000000000000000000e+00
0.000000000000000000e+00
3.095764431361435268e-02
2.116168020271889105e-01
2.212651568792538964e-02
6.104274888774046792e-04
3.425396391545287855e-02
0.000000000000000000e+00
3.094401091811616999e-03
-1.021746765706244675e+00
-4.775563861598808822e-03
3.968290523007641513e-01
3.217969335753554372e-01
1.818336094825993843e-01
4.535195231962898220e-03
6.047352629046572059e-02
0.000000000000000000e+00
3.304600216171568738e-02
2.067053573588855109e-01
-5.932015994177300931e-05
1.698713627475987448e-02
1.874047859337855948e-02
0.000000000000000000e+00
0.000000000000000000e+00
6.092739781519732750e-02
0.000000000000000000e+00
1.991192104275586738e-02
-1.115674921754070681e-01
-4.896971259970384072e-02
0.000000000000000000e+00
1.139282599252729178e-01
-1.961815257902293497e-01
0.000000000000000000e+00
-7.081190003332363259e-03
1.368570854760242021e-04
0.000000000000000000e+00
-1.488626492162960831e-03
4.503901054887084476e-01
-4.222922066092854587e-01
7.805320669819650059e-02
-3.191035785664500524e-01
-5.778869111231564659e+01
-1.952892816948417765e-02
1.455161340679359677e-02
-1.914993683315056525e-02
-3.114819354149718222e-01
-5.208245287962026855e-03
4.280028278794442698e-02
8.370031125578603071e-02
-3.206649261547118383e-03
2.286209325394782457e-02
-6.501755108683689340e-03
1.727114213488841919e-03
9.343469815085467256e-02
-3.081571209552889587e-02
-1.231433501723388623e-03
-5.182856913218714806e-02
-3.719436663122024748e-03
-1.455204270712941346e-02
4.050646858118309461e-04
-5.737698241460761602e-04
0.000000000000000000e+00
1.634369999468615955e-02
-1.478246505190974783e-04
-2.458942793288517503e+00
0.000000000000000000e+00
0.000000000000000000e+00
0.000000000000000000e+00
0.000000000000000000e+00
-6.606004968557004954e-03
0.000000000000000000e+00
0.000000000000000000e+00
-5.631291723784720600e-03
3.396274650782006577e-02
1.426567598630142375e-01
-6.116631088256934135e-01
-5.399907787256182090e-02
-3.713674575035449260e-02
-1.029218371815408262e-01
6.204807339547904234e-03
0.000000000000000000e+00
9.370929049582312764e-01
-4.100846968257099850e-02
6.879248817940877489e-03
0.000000000000000000e+00
-5.019946242234869273e-03
-1.216017921889505325e-02
-1.097832588793660469e-01
3.258969519520311248e-02
7.848379783021504352e-02
0.000000000000000000e+00
-9.901795733713304737e-02
-9.061391907018735703e-02
-1.287633862082565583e-01
-9.834225378196097545e-01
-2.566120843574789395e-02
0.000000000000000000e+00
-2.796060235769169677e-02
-9.085093282335130471e-01
0.000000000000000000e+00
0.000000000000000000e+00
0.000000000000000000e+00
-3.019523037196433224e-01
-2.752740077767051874e-01
-2.536719585808304700e-01
-3.540054114104826399e-02
9.472212282295656288e-03
0.000000000000000000e+00
0.000000000000000000e+00
1.570031577961638475e-02
-3.006201810024650839e-02
8.916839439089652153e-02
1.346578816641262784e-02
-6.925946760552648736e-04
-1.423967246539551085e-03
3.155481340041580568e-02
5.056103357172472834e-02
0.000000000000000000e+00
-1.272920391037922205e-01
-3.954333732432170900e-01
-2.969949638908652920e-02
1.158601661664636004e-02
1.248604562153985721e-02
-7.776227511316897711e-01
-3.023613565709171169e-01
-8.261653215216728796e+00
9.949437449109047038e-03
-1.752788680562751035e-03
-2.791402965383045776e-01
-1.689027445216625123e-01
-2.811148731561003040e-03
8.277257727461062586e-01
1.897999357215894578e-02
0.000000000000000000e+00
0.000000000000000000e+00
1.720194417605791226e-01
2.167978216704505023e-01
4.455301622321991627e-04
1.271604661341298459e-01
4.305313504648902376e-03
3.949881717086288491e-04
0.000000000000000000e+00
2.145067804089940133e-01
0.000000000000000000e+00
-1.606789906413746971e-03
-4.903586186167770226e-05
0.000000000000000000e+00
5.380446165457123536e-02
3.183226273163678594e-02
2.458670892034262468e-03
2.000010236142816980e-05
3.661761376252409272e-02
3.548916143133181572e-02
-1.001636697933296682e+00
4.356183558135229283e-02
0.000000000000000000e+00
-3.124028814671362952e-01
-2.980760598199153399e+00
-5.486869816702881486e-02
-5.939695092657048744e-03
-6.769971927292678035e-03
-4.185775618793219355e-01
-2.199738198573925399e-02
2.909899969350517868e-01
8.700321223255767181e-04
2.153437518360624692e-01
5.738629387744723642e-01
4.952293666192751354e-01
2.884446426431789418e-02
-8.745028401279275609e-03
0.000000000000000000e+00
1.989617826031907788e-01
2.229573550509929281e-02
-1.318227239400116208e-03
0.000000000000000000e+00
5.755103658818280440e-03
-3.533128824330038914e-02
1.087369685486844206e-01
6.335548693058468128e-01
0.000000000000000000e+00
-3.960248560530320316e-02
-2.684547410751072279e-03
3.911890040021613960e-03
1.169951907159904811e-02
-5.374100354234136873e-02
0.000000000000000000e+00
-3.265609475140425488e-02
-1.239012383049158533e-01
-4.552482620141529157e-01
-2.334247527957234152e-04
0.000000000000000000e+00
1.836324376448977141e-02
2.364198260939893437e-01
-1.743926077927337656e-02
-7.645480736228338792e+00
1.458245997943006730e-02
1.346814860876018472e-03
0.000000000000000000e+00
-9.170265567739400991e-03
-4.059926648393259035e-02
0.000000000000000000e+00
6.041089254974029224e-03
6.145996356205608163e-02
3.281059147970102896e-02
0.000000000000000000e+00
0.000000000000000000e+00
1.107612023086932823e-01
2.282024674893471088e-03
0.000000000000000000e+00
4.766231209106697175e-02
-7.991035559577404389e-05
1.930103982754804992e-01
0.000000000000000000e+00
-1.617154772938838355e-03
-2.665328335349913865e-03
1.454177425864445344e-02
-1.669648020832428803e-02
-2.140347094872208089e-03
2.337825432911461720e-01
-3.362519874543775517e-02
1.111681600045100887e-02
-4.294143864970974972e-02
-5.258918913277151053e-02
-1.757392539608319598e-03
-4.445028002622034707e-02
0.000000000000000000e+00
0.000000000000000000e+00
0.000000000000000000e+00
0.000000000000000000e+00
6.600309647173893419e-04
1.713158542186342392e-02
-6.751967724825821970e-02
-1.819940769402106640e-01
-5.509449937709472167e-03
-4.513783362602821064e-02
5.154917517344428934e-02
-2.186224311112578214e-02
-4.793018719503271650e-03
2.054146343025519350e+00
0.000000000000000000e+00
-1.581421545051441002e-03
0.000000000000000000e+00
0.000000000000000000e+00
4.984766787524548548e-02
3.554358223628951985e-02
2.211355523486815688e-01
2.124311590925113957e-02
-1.891479359621091663e-02
-2.091780390266770318e-01
0.000000000000000000e+00
-3.000855564629254131e-03
0.000000000000000000e+00
0.000000000000000000e+00
-3.657935833242611265e-04
0.000000000000000000e+00
-2.385377838595310329e-01
-6.591858882382154450e-01
-2.789649514792805762e-01
8.465052213683350590e-01
1.294441240721186381e-01
0.000000000000000000e+00
5.932479215848384790e-04
1.327621937132127394e-01
0.000000000000000000e+00
0.000000000000000000e+00
0.000000000000000000e+00
9.950515260174127088e-03
-1.177150993510456961e-02
1.498347512054177266e-01
0.000000000000000000e+00
0.000000000000000000e+00
8.856328313934862598e-03
8.270450522380366765e-03
3.543629774490425488e-02
-3.247426936839446832e+00
-1.409862700434049987e-01
-1.298541207295485916e-02
-3.405515325015261684e-03
0.000000000000000000e+00
8.455908102842815254e-04
-6.865982762115502291e-03
1.582820635933310238e-02
-6.649158168716758077e-02
0.000000000000000000e+00
0.000000000000000000e+00
0.000000000000000000e+00
3.153040495834641410e-02
1.845986667109183743e-01
6.736136174641205177e-02
3.489584303314330338e-02
-3.109951755261158510e-02
0.000000000000000000e+00
0.000000000000000000e+00
0.000000000000000000e+00
3.292470825907090060e-01
3.283328851131452758e-02
2.326888853607280150e-01
2.905298912507271736e-04
-1.525848725890248739e-03
1.512865622134748969e-02
3.073770328425716285e-03
-1.983995089743016416e-01
4.605065638414523183e-02
0.000000000000000000e+00
-4.587073581761733077e-02
-3.049432441118480643e-03
5.581026733795014551e-03
6.139504228269570402e-03
0.000000000000000000e+00
4.730023477220211131e-03
-9.590351758325398046e-02
-1.515849618503615527e-02
-8.744327751759107745e-03
-7.601398531830245303e-03
-2.313181923353861778e-03
-6.901714547075914717e-03
-2.013533529777599210e-02
0.000000000000000000e+00
0.000000000000000000e+00
5.325231636348422455e-04
0.000000000000000000e+00
-2.106172615370114146e-03
-9.422778140396545488e-02
0.000000000000000000e+00
-5.920468706171989892e-02
-7.546829638159098519e-02
0.000000000000000000e+00
-1.463547769010021052e-02
-2.320044831846581820e-02
1.888111022552375062e-01
6.920832288304683277e-02
2.361033835875821218e-02
-1.136188768436836513e-02
-1.361627526236557431e-02
-6.956927956536763935e-02
0.000000000000000000e+00
0.000000000000000000e+00
-7.688625486595967659e-03
-2.179618434942317759e-02
2.941839898045339047e-02
-1.669924114972893558e-01
1.944635991214238233e-02
-2.908054355428808524e-01
0.000000000000000000e+00
8.560928809965250019e-04
1.521806604581347339e-03
1.457984971098009730e-01
-7.514008382218352426e-03
-2.023363095077447549e-02
1.875311814232913932e-01
0.000000000000000000e+00
0.000000000000000000e+00
3.087106251034282822e-02
-3.107844024753629933e-03
-2.735486531719116734e-03
4.730602121419757444e-01
-1.506148284201704393e-03
2.259722437114364268e-02
5.915474522984489475e-02
-9.140359662955591102e-02
1.970741181887996629e-01
-1.058648819689344961e-01
-2.539261183831924562e-01
0.000000000000000000e+00
0.000000000000000000e+00
0.000000000000000000e+00
1.126798641826155106e-02
0.000000000000000000e+00
0.000000000000000000e+00
0.000000000000000000e+00
1.470324644320750163e-02
0.000000000000000000e+00
0.000000000000000000e+00
5.764444173283521725e-03
-4.403456969863827480e-02
-1.267620025063587869e-02
-1.625471056446856815e-03
5.088936125003510648e-03
-2.284385177122701376e-03
-4.197036498193427306e-02
-5.417187934669426448e-03
3.789958991036169750e-03
-8.911985149109084847e-02
-4.358361612535059659e-02
-2.822615064188729872e-02
-1.423236902256152722e-02
0.000000000000000000e+00
9.560790974561775464e-04
1.085893948933062819e-01
-1.204549114078470595e-01
6.772748071050417595e-02
-7.458919560259411052e-02
9.003413455957099049e-05
0.000000000000000000e+00
0.000000000000000000e+00
0.000000000000000000e+00
1.754203362864376059e-02
-5.719811054925601213e-02
0.000000000000000000e+00
0.000000000000000000e+00
0.000000000000000000e+00
0.000000000000000000e+00
3.890028864594732416e-03
4.791746051385502130e-03
-1.120962122180525905e-01
4.155853311921103854e-02
-4.130272250249555355e-01
-1.410103141375456670e-01
-4.531618686827191211e-04
-1.097220466052228546e-02
1.156359817486431445e-03
-1.103053187969650073e-01
0.000000000000000000e+00
-1.680002306642746079e-01
0.000000000000000000e+00
-3.957519969451905525e-03
0.000000000000000000e+00
2.813416355545662606e-01
0.000000000000000000e+00
-1.756009684471039958e-03
-3.711128565404447823e-03
-5.978891928354450325e-02
-4.052338255608697892e-04
0.000000000000000000e+00
0.000000000000000000e+00
1.898833949691988514e-04
0.000000000000000000e+00
0.000000000000000000e+00
8.230089856394036160e-06
0.000000000000000000e+00
0.000000000000000000e+00
0.000000000000000000e+00
-2.007397431976023702e-02
-2.888796912774486692e-01
-4.044969237849450026e-03
0.000000000000000000e+00
1.306302248872604280e-02
0.000000000000000000e+00
8.717654969985711355e-04
2.100205915865338885e-05
-2.009965436440133701e-02
0.000000000000000000e+00
-2.717867210335698082e-04
0.000000000000000000e+00
9.069538949445539455e-02
7.728947201478986173e-02
7.970085297977649863e-02
-1.431581298963639087e-02
0.000000000000000000e+00
-1.566426587105777292e-03
-2.858731067009465023e-03
-1.713662718347612208e-03
-4.082175044177986933e-01
-3.886583300747855317e-03
-6.461086211975539673e-01
-7.371815596301541096e-02
-1.618387412024581765e-02
0.000000000000000000e+00
0.000000000000000000e+00
-6.491760200761821295e-03
-4.711247722249871026e-03
-5.242719468897026960e-03
0.000000000000000000e+00
-7.609520435862629495e-02
1.399334735113542949e-01
-3.850612907423033525e-04
0.000000000000000000e+00
0.000000000000000000e+00
1.522608868680201395e-04
3.583612669339841100e-02
4.582581674841259764e-03
0.000000000000000000e+00
0.000000000000000000e+00
-1.932682528656121286e-03
-9.526631374676221287e-03
-3.383536604212569049e-02
1.389599545689582973e-03
-1.748374908151896501e-01
0.000000000000000000e+00
-2.557669945002711831e-01
-5.047113848494356580e-04
0.000000000000000000e+00
0.000000000000000000e+00
0.000000000000000000e+00
-2.067372613411330457e-03
-6.776378807280445185e-03
0.000000000000000000e+00
-3.935416961964323668e-01
-5.885435089024838862e-02
0.000000000000000000e+00
4.663683989749657643e-02
-8.123576236363549974e-02
-1.200644737549548674e-01
-9.934613146662710746e-04
0.000000000000000000e+00
-5.811056836206919540e-02
-8.585595563554455911e-02
0.000000000000000000e+00
-2.292234864005910158e-02
0.000000000000000000e+00
-4.149166112969841436e+01
-2.109452747602915887e-02
-3.040173259001534012e-01
-9.001660345216086490e-03
0.000000000000000000e+00
0.000000000000000000e+00
0.000000000000000000e+00
-1.284733542770722936e-01
0.000000000000000000e+00
-1.104730358526864326e-01
-1.998013065064250388e-02
0.000000000000000000e+00
4.802898643374065718e-02
-5.861148298198937567e+00
0.000000000000000000e+00
-1.907032845890423503e-02
-1.063441541876298906e-02
0.000000000000000000e+00
-4.958124026812090043e-04
1.354533947797513516e-02
-1.743007227884670746e-03
-1.889699678307501260e-04
-1.363147756144324763e-01
0.000000000000000000e+00
-4.949968390545601837e-02
0.000000000000000000e+00
0.000000000000000000e+00
0.000000000000000000e+00
3.314123924148924035e-03
2.704685173265800741e-02
0.000000000000000000e+00
-1.981646350735120909e-01
0.000000000000000000e+00
-1.846553265483218478e-02
0.000000000000000000e+00
4.238801397467851367e-02
5.989757755172472366e-03
1.307483478294665102e-01
3.640513072764943459e-02
4.942619887192123244e-03
2.028398761203851575e-04
0.000000000000000000e+00
6.929832476581500311e-03
1.796178296931679602e-02
0.000000000000000000e+00
0.000000000000000000e+00
0.000000000000000000e+00
0.000000000000000000e+00
0.000000000000000000e+00
2.196246908804067588e-01
-2.276523923905436342e-01
-2.113303761313615470e-01
-4.844938943928548737e-04
2.973906038133593624e-02
0.000000000000000000e+00
-3.675963081797429394e-02
5.472805192020023871e-03
0.000000000000000000e+00
4.414614064537815685e-01
-1.583281200210642954e-03
0.000000000000000000e+00
0.000000000000000000e+00
3.476031260121570203e-04
0.000000000000000000e+00
-2.927042636636001741e-02
-6.457595709456490085e-02
-5.559793384476313660e-02
-2.703421639971550355e-02
3.434235632966316926e-02
0.000000000000000000e+00
-3.523206122466609417e-03
0.000000000000000000e+00
-1.590113011924219541e-02
9.316425691161501002e-03
0.000000000000000000e+00
0.000000000000000000e+00
0.000000000000000000e+00
2.619028672362676557e-01
1.423233700589039974e-01
0.000000000000000000e+00
0.000000000000000000e+00
0.000000000000000000e+00
0.000000000000000000e+00
7.175042826399886421e-03
2.864868549347115339e-04
0.000000000000000000e+00
-2.637345520074785635e-02
-2.219965679322552542e-04
0.000000000000000000e+00
0.000000000000000000e+00
0.000000000000000000e+00
-2.466028839968392034e-03
0.000000000000000000e+00
-6.056485370425367153e-04
-6.460203500180410410e-03
9.133829610677069236e-03
0.000000000000000000e+00
0.000000000000000000e+00
1.904822062690650873e-03
0.000000000000000000e+00
1.504047790205052977e-02
2.878492967310665993e-04
-8.327188723321813160e-03
0.000000000000000000e+00
0.000000000000000000e+00
0.000000000000000000e+00
0.000000000000000000e+00
9.352235611090943881e-03
0.000000000000000000e+00
1.766006672211337114e-02
8.200792374202072257e-04
0.000000000000000000e+00
0.000000000000000000e+00
0.000000000000000000e+00
-7.157304751062911483e-04
0.000000000000000000e+00
0.000000000000000000e+00
0.000000000000000000e+00
9.244395512630496081e-03
1.724573847437798778e-04
0.000000000000000000e+00
-6.342059538263152517e-03
-7.246828520887733938e-02
4.914642018594310435e-03
1.184254772966164895e-02
-5.350371854817197528e-03
0.000000000000000000e+00
0.000000000000000000e+00
0.000000000000000000e+00
0.000000000000000000e+00
0.000000000000000000e+00
1.767320365196082968e-03
-4.867945596397035835e-02
2.525374015232535047e-02
-7.001342930439150014e-03
0.000000000000000000e+00
0.000000000000000000e+00
0.000000000000000000e+00
-2.821542481398199315e-03
0.000000000000000000e+00
0.000000000000000000e+00
0.000000000000000000e+00
0.000000000000000000e+00
0.000000000000000000e+00
0.000000000000000000e+00
9.251429875715823023e-03
-2.026235173606867335e+00
-5.010834618454366313e-03
0.000000000000000000e+00
0.000000000000000000e+00
3.645163065633676321e-03
0.000000000000000000e+00
0.000000000000000000e+00
-6.957168779532127770e-03
-1.690895603859620929e-03
0.000000000000000000e+00
0.000000000000000000e+00
0.000000000000000000e+00
0.000000000000000000e+00
0.000000000000000000e+00
0.000000000000000000e+00
0.000000000000000000e+00
0.000000000000000000e+00
0.000000000000000000e+00
0.000000000000000000e+00
6.071892279809662160e-03
3.846437360104226766e-02
1.363880776160339078e-02
-1.953946442035452646e-04
0.000000000000000000e+00
1.862024287641702008e-03
0.000000000000000000e+00
0.000000000000000000e+00
4.042843656893986559e-02
5.115789135097917328e-02
-5.428050925716388329e-03
0.000000000000000000e+00
0.000000000000000000e+00
0.000000000000000000e+00
0.000000000000000000e+00
0.000000000000000000e+00
4.012922857121471731e-02
1.232826937366099940e-01
7.743834535897486937e-02
3.452670690179183988e-02
-1.722451043771180274e-02
0.000000000000000000e+00
0.000000000000000000e+00
-1.178150840979806657e-02
1.707656776175704976e-03
0.000000000000000000e+00
0.000000000000000000e+00
0.000000000000000000e+00
0.000000000000000000e+00
-9.091167837132792381e-04
7.194490506799764915e-03
-4.162550873653347860e-02
2.189778892572716556e-03
7.007519840371744663e-03
0.000000000000000000e+00
0.000000000000000000e+00
0.000000000000000000e+00
1.806236313051589465e-02
2.173519930103830558e-02
0.000000000000000000e+00
0.000000000000000000e+00
0.000000000000000000e+00
6.917092507175044702e-04
0.000000000000000000e+00
5.930007419560409795e-04
3.358452200043326313e-02
0.000000000000000000e+00
-1.235774257315457817e-03
-4.294635292237225510e-03
-1.888980419327905905e-02
0.000000000000000000e+00
0.000000000000000000e+00
9.656864643299177195e-03
-5.211554486567099081e-04
1.328521827177818991e-02
-6.788704969272919831e-02
9.775640727007302300e-02
1.300888165504025251e-01
0.000000000000000000e+00
3.837323716370683729e-02
1.567420011674335312e-01
2.896113191980913010e-03
2.746640085587806479e-02
9.935958434005982137e-03
0.000000000000000000e+00
0.000000000000000000e+00
-1.366571101302301583e-01
0.000000000000000000e+00
0.000000000000000000e+00
0.000000000000000000e+00
2.423651644828387491e-03
0.000000000000000000e+00
0.000000000000000000e+00
0.000000000000000000e+00
-6.720302872948301365e-02
-1.116104467811119758e-02
-2.338975509181948076e-02
0.000000000000000000e+00
0.000000000000000000e+00
0.000000000000000000e+00
0.000000000000000000e+00
0.000000000000000000e+00
0.000000000000000000e+00
0.000000000000000000e+00
0.000000000000000000e+00
0.000000000000000000e+00
0.000000000000000000e+00
0.000000000000000000e+00
0.000000000000000000e+00
0.000000000000000000e+00
0.000000000000000000e+00
0.000000000000000000e+00
0.000000000000000000e+00
1.284503623870500988e-01
2.908898398509327521e-01
-3.274587479790562125e-03
-6.089425435399263564e-02
-4.602373536588606484e-01
0.000000000000000000e+00
0.000000000000000000e+00
0.000000000000000000e+00
0.000000000000000000e+00
0.000000000000000000e+00
8.777471373202182497e-04
-6.432151357463310355e-03
0.000000000000000000e+00
-6.951224083490597019e-04
1.204810133374354109e-01
3.802471716005915991e-02
0.000000000000000000e+00
-6.882763286436494390e-04
0.000000000000000000e+00
0.000000000000000000e+00
1.293182221758787387e-01
1.866984899135918155e-02
0.000000000000000000e+00
1.683389953836796635e-03
5.424349221759040135e-03
1.953148012798775531e-03
0.000000000000000000e+00
0.000000000000000000e+00
0.000000000000000000e+00
-9.918575431844814036e-03
-1.745382175120360887e-03
-8.846763427931716647e-03
1.295587921693617216e-02
0.000000000000000000e+00
2.723899023879017625e-02
7.560184949272837074e-02
0.000000000000000000e+00
0.000000000000000000e+00
0.000000000000000000e+00
0.000000000000000000e+00
0.000000000000000000e+00
0.000000000000000000e+00
0.000000000000000000e+00
9.996834156259537876e-03
0.000000000000000000e+00
1.067671335851325294e-02
4.537451788032630107e-02
0.000000000000000000e+00
1.928984735028667179e-03
9.571838713301620075e-03
-4.816556477116792738e-03
1.313716293873546867e-02
0.000000000000000000e+00
0.000000000000000000e+00
9.157652979593850981e-03
-2.416200809502978396e-03
2.642569636544353246e-03
0.000000000000000000e+00
-7.312616090557240173e-04
0.000000000000000000e+00
0.000000000000000000e+00
0.000000000000000000e+00
0.000000000000000000e+00
0.000000000000000000e+00
3.969068473199947877e-02
0.000000000000000000e+00
-9.837107073055178109e-04
-1.448154152824544794e-03
0.000000000000000000e+00
8.485622634764223779e-03
-4.886160544703403545e-03
-1.597115784901608632e-03
0.000000000000000000e+00
0.000000000000000000e+00
0.000000000000000000e+00
3.306960752843327717e-02
-7.848566637974391594e-03
2.466934650427077616e-02
3.195239388308900724e-02
0.000000000000000000e+00
-1.797512690547129106e-04
0.000000000000000000e+00
0.000000000000000000e+00
-1.541620438335527870e-03
-1.863439630717733109e-01
1.590258721725822388e-01
0.000000000000000000e+00
-3.187885365043749419e-02
0.000000000000000000e+00
-2.529735073061418343e-02
1.356526132823590303e-01
1.716329332579721589e-01
0.000000000000000000e+00
0.000000000000000000e+00
0.000000000000000000e+00
-1.296815981575102743e-02
-2.108569462914947762e-02
-7.165854288963813268e-02
4.305347515635667144e-03
1.590743666075452867e-01
8.379808755124765196e-02
0.000000000000000000e+00
0.000000000000000000e+00
0.000000000000000000e+00
-1.206311507423043876e-02
-2.754347709572151082e-02
-2.138972742503545462e-03
8.375267425591964923e-03
0.000000000000000000e+00
8.408131822745483833e-03
0.000000000000000000e+00
2.068827057477977405e-02
0.000000000000000000e+00
4.462861092766632308e-03
6.438394925695443971e-02
-1.418135768503122340e-01
-1.343058563550459661e-01
0.000000000000000000e+00
-3.538223230039695688e-02
0.000000000000000000e+00
0.000000000000000000e+00
-1.271855966147982658e-02
6.375640088346831158e-01
-1.906471531341429049e-02
0.000000000000000000e+00
0.000000000000000000e+00
2.915702039266009765e-03
-1.182816044958822851e-02
-1.779481772882321178e-01
5.436137089153836310e-02
0.000000000000000000e+00
1.488301810966916570e-02
-3.643602585160575502e-02
0.000000000000000000e+00
0.000000000000000000e+00
7.290571277870644927e-03
0.000000000000000000e+00
0.000000000000000000e+00
-2.958143835734328153e-02
-2.142810960410943544e-01
0.000000000000000000e+00
0.000000000000000000e+00
0.000000000000000000e+00
0.000000000000000000e+00
5.544171850279713820e-02
0.000000000000000000e+00
4.363413879529205036e-02
5.746795733564484185e-03
0.000000000000000000e+00
0.000000000000000000e+00
-6.877577927985807638e-02
0.000000000000000000e+00
-4.501954412379167297e-02
-5.910193580571116573e-04
-1.251667644105458888e-01
-4.875165101083766238e-03
1.174699714488407903e-02
0.000000000000000000e+00
0.000000000000000000e+00
-2.306824243341932396e-02
1.310835611843943170e-02
3.625068525468432695e-02
0.000000000000000000e+00
-6.058581259152394372e-03
-1.610342093124875120e-04
-7.375631087486408423e-04
0.000000000000000000e+00
0.000000000000000000e+00
-1.508742216413581569e-02
-3.083453420708314602e-02
0.000000000000000000e+00
2.514972577424721620e-03
0.000000000000000000e+00
2.328610500486473500e-02
0.000000000000000000e+00
0.000000000000000000e+00
0.000000000000000000e+00
1.596389629414218456e-02
-9.475000893689213000e-02
-1.542729928581061949e-01
-8.935640874847064485e-02
0.000000000000000000e+00
0.000000000000000000e+00
3.043798595310025223e-02
9.199575863104721141e-03
-2.917909863851778519e-03
-4.666265504288207022e-02
2.507435927088328548e-02
0.000000000000000000e+00
0.000000000000000000e+00
-6.556914413565878563e-02
2.547268020440696112e-02
2.477536142588543655e-01
4.844801662390655489e-02
2.474732754989139930e-02
2.052172547031679353e-02
0.000000000000000000e+00
-1.561533154109321156e-02
-7.566332809032255691e-02
2.529381443444333327e-02
0.000000000000000000e+00
-3.480256519851312319e-02
-8.896806222852351315e-03
1.531301457200394400e-02
-7.201395174974982716e-01
-5.485199794263710960e-01
-3.739709562892681860e-02
-1.003653010055516673e-02
6.725694204024766643e-03
2.752892522282207339e-03
0.000000000000000000e+00
0.000000000000000000e+00
-2.355119341522452110e-04
4.005865168386769232e-02
-2.077228638923622056e-02
1.024131434066511553e-01
1.115443056556257107e-03
0.000000000000000000e+00
0.000000000000000000e+00
6.023556089471726605e-02
-2.228155125623070554e-01
5.371654454773189952e-02
8.289847357505568393e-02
-8.842826765423032059e-03
-1.094169879699510017e-01
0.000000000000000000e+00
0.000000000000000000e+00
2.786836435638895271e-01
-1.227975847792445868e-02
-1.041599336836734023e-02
0.000000000000000000e+00
4.847580770270353348e-03
-1.449611076079330707e-01
8.709641601454549964e-03
-1.605722590865751864e-01
1.955243533467636297e-01
-1.508321170441309297e-02
-7.408223196514887587e-02
-2.638458609688438053e-02
3.087220654454425617e-02
-8.595149651159598309e-03
0.000000000000000000e+00
0.000000000000000000e+00
0.000000000000000000e+00
0.000000000000000000e+00
-4.997501379588656367e-02
2.244504548003996638e-02
0.000000000000000000e+00
-1.390454329537201272e-01
-5.173721095955601153e-03
-1.506870818865434919e-02
-3.478613851952586655e-01
5.025371304345752077e-02
0.000000000000000000e+00
8.830686866288579850e-03
2.399956538202244888e-02
-5.396929553143387653e-02
-7.040957094233336877e-02
3.245981749555425511e-01
-5.528122879416710322e-01
-1.291537644786230121e+00
-4.093504672931045363e-01
-3.047151856740486053e+00
0.000000000000000000e+00
0.000000000000000000e+00
3.949760133380907090e-02
3.448348429639573002e-03
0.000000000000000000e+00
0.000000000000000000e+00
-8.228264899012903075e-03
5.317448817227345137e-02
-7.817377488484500425e-02
3.387563714046997188e-01
7.738684121523248249e-02
8.473100839562142106e-02
-6.734032803952714336e-03
-4.681285818321100425e-03
-6.821236420914097466e-04
2.068738847530920966e-03
-6.033878410180108787e-02
1.068996955728237011e-02
5.609544005906632463e-02
-5.995185390335944220e-02
5.576431977714367549e-02
-3.900885998790860898e-02
0.000000000000000000e+00
7.463812068756112139e-04
0.000000000000000000e+00
-1.366557287832083634e-01
-7.995324795839453547e-02
0.000000000000000000e+00
3.677748046468498622e-02
-9.330261014049387458e-02
0.000000000000000000e+00
0.000000000000000000e+00
-2.781061282063430895e-02
-5.057524003575637472e-01
2.244125053413694587e-02
5.129733452486313627e-01
-3.429831977944134636e+00
-4.585230983184125642e-02
-1.464451683211518418e-01
-2.425893037043643299e-02
0.000000000000000000e+00
3.230060965347590907e-01
5.366481047403037080e-02
0.000000000000000000e+00
-1.589381442709925747e-03
1.152873733230186937e-01
-2.095552868326652426e-02
0.000000000000000000e+00
2.877731026616797000e-02
2.484936693516380263e-03
0.000000000000000000e+00
0.000000000000000000e+00
2.863065675770242423e-03
0.000000000000000000e+00
-5.759023362596323893e-03
4.909235010858999104e-03
9.818520584662768138e-04
2.241475208806213426e-01
0.000000000000000000e+00
1.973313721190711467e-02
2.177080296756500610e-02
-1.253026289090329939e-02
-1.047867150602466157e-01
0.000000000000000000e+00
-1.341952278544067227e-02
0.000000000000000000e+00
0.000000000000000000e+00
0.000000000000000000e+00
0.000000000000000000e+00
-7.659515873427451271e-02
0.000000000000000000e+00
-3.490903107145025552e-03
0.000000000000000000e+00
4.083221104207539025e-03
-9.653277674423017471e-04
0.000000000000000000e+00
-1.665370167017657388e-02
-3.245167489861735532e-01
4.781652862243432334e-02
1.340804921520873029e-04
-1.493330465487915752e-03
-6.020198781669098415e-03
9.209590586717853258e-03
0.000000000000000000e+00
5.732931149414223346e-05
1.019583059668223851e-01
1.153851818416377038e-02
0.000000000000000000e+00
4.022353397576202555e-02
9.889004418130731278e-04
0.000000000000000000e+00
3.026302327700984215e-03
7.323638092276894829e-03
7.151304853310291821e-04
6.808512017500216625e-03
0.000000000000000000e+00
0.000000000000000000e+00
-4.450614844376019064e-03
1.108389667258357220e-01
2.158521503494627639e-02
-2.364393524743667319e-02
-1.293686090255663154e-02
2.757034332075206443e-02
-1.077378762366800080e+00
-3.154000798493804325e+01
-9.880553689670041814e-03
2.277986673886217214e-02
-3.917096385610219222e-02
0.000000000000000000e+00
0.000000000000000000e+00
0.000000000000000000e+00
1.217000524916162230e-01
1.759437594622133005e-01
-1.348809566553308206e-02
0.000000000000000000e+00
-5.370678762163697550e-01
-1.362514755651006784e-02
-9.314003167123655058e-02
2.409139834287039525e-02
1.636866189972890906e-02
7.378038836058564351e-04
0.000000000000000000e+00
8.188852199009300295e-04
0.000000000000000000e+00
3.829687244117953304e-04
1.562352955188939761e-02
3.328477582778684163e-02
8.622438525851168489e-02
-7.272593925395263396e-04
0.000000000000000000e+00
9.333980332858829443e-02
1.441165458547564310e-02
2.587512015774557500e-02
1.604370801021677909e-02
0.000000000000000000e+00
5.503677655266177998e-02
0.000000000000000000e+00
2.686983670737309871e-03
-1.226996260022146013e+00
3.175935997832025071e-01
0.000000000000000000e+00
-3.158056497570163254e-03
2.695340559712345422e-05
5.812947911042073978e-02
-2.284247915472454593e-01
-2.213039813247437253e-03
-1.368817792918827769e-01
-5.948760991394801958e-04
-1.123072756124850365e-02
0.000000000000000000e+00
-5.301777487798002564e-02
-7.508146837516585861e-03
-3.587571712691106640e-02
0.000000000000000000e+00
-1.961883337690021323e-01
6.476775261895044433e-04
2.900217486075570839e-02
1.889828818657199316e-02
1.926627701731751033e-03
2.832596685544121543e-02
5.461433042433994772e-02
0.000000000000000000e+00
0.000000000000000000e+00
2.021886245464232790e-02
-6.382253479472271840e-03
2.586281076610082511e-02
3.931079992826849723e-02
1.428581362678587848e-03
0.000000000000000000e+00
0.000000000000000000e+00
-1.321470514917548293e-02
1.382640335938199705e+01
3.344485582251873090e+00
8.550044277985100784e-04
-1.823902267864470914e-04
2.826424073173487428e-01
7.607655440292931948e-02
3.005359043978723249e-02
8.932298325909302991e-03
-7.243037845829794485e-02
-1.329752158192075984e-01
-2.591060763061199188e-02
-4.407923427584348985e+01
3.820551310614260510e-02
8.226076520144403048e-01
0.000000000000000000e+00
7.182310678978026663e-02
-1.982703764108147970e-01
-3.258698566250921563e-03
8.486473804875243080e-04
3.308700349521722095e-01
4.104443765630018393e-02
-8.879479374158179283e-02
-4.379824033463464682e-03
1.943126321976200443e-02
2.630386066648149682e-02
3.190291588031947789e+00
2.180681054631477579e-03
2.263655956125285116e-03
1.046472557240680779e-01
2.707019569260060710e-02
3.915897835811158467e-01
-2.890335656418382623e-02
1.633097199924463463e-02
4.517889135228427694e-02
-7.748587087853146815e-02
5.650886455667489781e-03
5.175547831511325553e-02
-3.600515588655683104e-03
7.027277327955065711e-02
-4.121966985565896600e-03
5.603125352635678069e-02
-4.414661128596800155e-03
-1.402247116523616111e-01
4.300705788716865235e-02
-6.258052856665538913e-03
-1.815395566075660855e-02
-6.690963788192476613e-01
4.982826763301741180e-02
1.694773884997671509e-01
-3.779613282158830051e-02
-2.403003645563925317e-02
4.353044923262406989e-03
-5.937354322905369700e-03
9.163635455815465070e-03
1.316025216114933005e-01
6.485279890471329356e-02
-1.323177004695499405e-02
9.202000828025584944e-01
1.052952086274195898e-01
4.654153506347261278e-03
6.787522700727092184e-01
0.000000000000000000e+00
0.000000000000000000e+00
1.038233566635181071e-01
-1.202161559501503385e-01
-9.677320354731946614e-03
0.000000000000000000e+00
0.000000000000000000e+00
0.000000000000000000e+00
0.000000000000000000e+00
3.151406097261061356e-02
1.135379551270927290e-03
0.000000000000000000e+00
0.000000000000000000e+00
1.505909126534859740e-02
-1.979935320587293199e-02
-7.320432850733074592e-02
3.426579080200580635e-02
-1.387591064036833429e-03
4.965031424191483633e-02
-2.031609956805471186e-05
2.176983982365611470e-02
7.908915687178131107e-03
0.000000000000000000e+00
5.008378691688673834e-02
-1.946042279379490069e-03
-1.742037483198561937e-04
7.505112869168291401e-02
3.284346031362187640e-02
7.791668852617768259e-02
4.560505750904915445e-02
1.422613490802335755e-02
0.000000000000000000e+00
8.330092943787712478e-01
1.630083569510109263e-04
2.996492972237509590e-03
7.993540326827607012e-03
-4.410023260712688659e-02
0.000000000000000000e+00
0.000000000000000000e+00
0.000000000000000000e+00
0.000000000000000000e+00
0.000000000000000000e+00
3.193019450704904366e-02
0.000000000000000000e+00
-3.639891111484783170e-02
-2.675466875937757699e-03
0.000000000000000000e+00
1.859990000616880759e-02
3.138151530113847398e-02
0.000000000000000000e+00
-5.415988790096131628e-02
8.883218614247284650e-02
5.668111297695192091e-02
-9.672485636116244512e-03
1.674529927044194830e-02
-8.686410485936113058e-05
-3.482810881699796579e-02
-1.592144398958946494e-01
-4.792605423815125137e-02
-1.520514545586820667e-03
5.708338551454012963e-04
1.360672750814774512e-01
1.491576478351699583e-02
-1.351057675774770539e-01
-7.694716969783008675e-01
-2.854232145338150319e-03
8.984619964771838052e-03
-4.319165822367870139e-02
-1.170788788483458596e-02
-2.909683775440515263e-01
-6.386289051400698691e-01
3.889268714065741150e-02
9.591989768204385938e-03
-4.223259228788528441e-02
-7.884262141216860642e-02
-1.395149562578365199e+00
-1.609199757457299707e-02
-1.607681537275395742e-02
0.000000000000000000e+00
-4.497197961460821201e-03
0.000000000000000000e+00
6.805064499761726352e-03
2.460712042687282844e-04
-2.263125912738714440e+00
-1.086068770643569964e-01
-1.597519440640499111e-02
2.342342838796673474e-02
9.679773184822392657e-03
0.000000000000000000e+00
0.000000000000000000e+00
-4.181549783748080007e-02
-3.046362352139509455e-01
2.268472438090701759e-02
0.000000000000000000e+00
5.796416321587960496e-01
-2.336740479883022553e-02
0.000000000000000000e+00
-1.018532065387261955e-03
0.000000000000000000e+00
0.000000000000000000e+00
-1.451601264535294774e-03
-2.537696807149658063e-01
-1.788168931383156413e-02
1.232340335767012768e-01
7.627734039870791294e-02
4.159736121634605849e-04
-2.005470410211298779e-02
-1.224172698274181639e-02
3.179371146968905659e-01
4.584772340688486603e-02
-1.480799488702942354e-03
-4.053736002397401866e-02
5.245967870441631264e-02
2.235679945678626084e-03
0.000000000000000000e+00
9.246576502329345582e-02
-7.609174489760882690e-03
-5.799018965840152182e-03
-1.702588678223370192e-02
-2.685102019310692256e-02
-7.156602830403220768e-03
-6.681543937108295333e-03
0.000000000000000000e+00
1.067809895342190230e-01
