1.527599695950423737e-03
1.400006717363617634e-02
-4.825461042009153434e-02
3.982104804463087924e-04
0.000000000000000000e+00
3.428933858586812738e-02
1.497279953229010106e-02
-2.360982726979847166e-03
3.258147443378663077e-02
0.000000000000000000e+00
1.186172413311476978e-02
0.000000000000000000e+00
-4.747051544275526953e-03
-6.143025703931313287e-03
0.000000000000000000e+00
-1.643617410627379316e-02
6.039952118481838744e-02
4.729966827612553382e-01
7.518080032471358728e-05
-1.287619959309279846e-03
-2.448010190149789173e-03
6.353802280305473338e-02
1.889978936982965319e-02
7.706216401045465347e-02
0.000000000000000000e+00
3.670113870282988577e-02
5.049674841541805514e-03
-5.863985027762055879e-02
-1.394973824051904494e-03
0.000000000000000000e+00
0.000000000000000000e+00
0.000000000000000000e+00
0.000000000000000000e+00
-6.557739088552358951e-03
-1.442894701853012634e-02
0.000000000000000000e+00
5.356562671299423817e-02
4.167967964599645497e-02
0.000000000000000000e+00
-7.914228687274454943e-02
-1.131908517220671937e-03
9.489412492599724053e-03
-7.279661899660677671e-02
6.119478263504296578e-02
-5.889004395420296099e-03
1.407132812402403510e-02
0.000000000000000000e+00
0.000000000000000000e+00
0.000000000000000000e+00
2.054348955114255592e-03
0.000000000000000000e+00
1.954794329384977949e-02
0.000000000000000000e+00
0.000000000000000000e+00
0.000000000000000000e+00
0.000000000000000000e+00
0.000000000000000000e+00
0.000000000000000000e+00
0.000000000000000000e+00
0.000000000000000000e+00
-3.151988038838803366e-03
-6.282216737355069552e-03
2.010064638019785563e-02
0.000000000000000000e+00
-2.325233739639811781e-01
-1.401597094860033456e-02
-6.389780153597315882e-02
-2.902144564935070503e-02
0.000000000000000000e+00
-2.713434565357411912e-02
-5.329401869351807659e-03
5.719135439482794098e-03
1.495802787056406576e-02
6.485925071501102979e-02
5.372027277413840562e-02
-7.688403211598035872e-03
4.222793743386914905e-02
0.000000000000000000e+00
0.000000000000000000e+00
0.000000000000000000e+00
0.000000000000000000e+00
4.369722546903892502e-02
-1.936557781887963438e-03
0.000000000000000000e+00
-2.765612393311024566e-03
-6.614041586420925378e-02
-1.540586156631952933e-02
0.000000000000000000e+00
4.994638594396434428e-01
2.471695722255741468e-02
-4.530432581183809621e-02
-6.293862793491644680e-02
6.744919965034353038e-03
-3.157890259650477094e-01
1.285659280276863804e-02
-4.489605419452763480e-02
-4.320420518324408904e-02
1.612433189216999629e-01
4.800768873152192473e-01
-1.458454837668649307e-01
-3.845838688702973851e-02
-4.208203414757231801e-03
0.000000000000000000e+00
-1.138811178632302169e-02
-1.001695408396049763e-03
-1.173881447191102850e-01
0.000000000000000000e+00
1.006126055029804151e-01
1.009407241828057078e+00
-2.639692069787953274e-02
0.000000000000000000e+00
0.000000000000000000e+00
0.000000000000000000e+00
0.000000000000000000e+00
4.517901597495304808e-04
4.127379101016035411e-03
-4.329609229383643912e-03
1.586602439149193688e-01
-1.173565457880335755e-01
-3.749869366816301341e-01
-6.293570441830062534e-02
6.128071317810072655e-04
0.000000000000000000e+00
7.096407943186310192e-03
1.245319835911029918e-02
4.576941758699801721e-04
7.254473050656891076e-01
-1.298762057654717292e-02
-5.971751218185391164e-04
2.526123982283525263e-03
1.154866149997538366e-01
3.424057615892127544e-03
-1.800586557208093972e-03
-5.887014112508321545e-03
-1.504736918544947663e-02
-1.806126695002755606e-02
1.175102134823534546e-02
0.000000000000000000e+00
1.679089701183078889e-02
0.000000000000000000e+00
-7.902975787625325654e-03
2.593754236990651954e-02
1.375306939283826684e-02
-7.486320044304779764e-02
0.000000000000000000e+00
0.000000000000000000e+00
-7.940028530587886380e+00
6.146193895359050238e-03
2.027275479752306336e-04
-4.735424427223760419e-02
3.266365314393834818e-02
-1.018296166109239342e-02
-3.630795062529802719e-02
-7.464735212047946163e-03
8.020219431302644947e-03
0.000000000000000000e+00
-2.516314404440046781e-02
4.145911335185768820e+00
-4.552266856788488025e-02
1.853047423499112056e-01
0.000000000000000000e+00
-3.148405105708685509e-02
8.010650474416981413e-04
3.204658028343492686e-04
9.624439056353061364e-03
4.096759479530989040e-02
2.679286134557873865e-03
4.803557651162620318e-03
1.067209484911158662e-02
2.572453170172466635e-02
8.970280612912301388e-03
0.000000000000000000e+00
-1.759460060825786265e-01
-2.622764859892281163e-03
0.000000000000000000e+00
-2.059616243167546878e-01
0.000000000000000000e+00
3.645152486562316073e-04
0.000000000000000000e+00
-2.022740786945675159e-03
7.829102430245388905e-03
-1.079362488754685191e-02
-1.806528971389638385e-03
1.946144284269246075e-03
-5.748820939854566540e-03
-3.213754493870942495e-03
1.061473254798109278e-02
2.233610375755847727e-02
-6.880668978742997613e-03
0.000000000000000000e+00
-1.714836595864437790e-02
-1.265011871080679723e-03
-7.503607565269132529e-02
1.342166412006087078e-02
-1.526195396151229511e-02
7.076484038013472651e-03
1.655714776521786599e-02
0.000000000000000000e+00
-1.222038168063343351e-03
2.229443804520628569e-01
1.568416029865161987e-02
-7.070891695375479576e-03
0.000000000000000000e+00
4.275525787131970352e-03
4.295265896550626294e+00
-9.533080875999944137e-02
-3.481717268229276522e-03
0.000000000000000000e+00
-2.828232381319945206e-03
0.000000000000000000e+00
-1.567979716078102357e-03
1.952644409505966197e-02
-1.090624499996794006e-01
-7.822066245883625701e-02
5.646999350833168535e-02
1.403144562369676267e-02
-2.228740025120510768e-02
0.000000000000000000e+00
1.714646915635669941e-02
-7.729618029385151162e-04
8.683177038381736934e-02
-1.429207633061572481e-02
-2.523216986240530216e-02
4.036376584911864976e-03
9.921966339450594141e-02
-6.070676606728000468e-01
6.282511682131468669e-03
2.002804480313788264e-03
-7.846429735619098178e-02
-2.031122984667162346e+00
-2.981100440828626623e-04
0.000000000000000000e+00
0.000000000000000000e+00
-1.316416774035084059e-02
-1.686086291713708688e-04
1.103129261579677972e-02
6.114890663782518443e-02
4.401426728541080191e-02
0.000000000000000000e+00
-3.617134052935428324e-03
0.000000000000000000e+00
2.602489491426279500e+00
3.069384479453981379e-02
1.057757670412642209e-02
4.064476810305071020e-01
0.000000000000000000e+00
6.411299167842485214e-02
4.356888089398259112e+00
0.000000000000000000e+00
0.000000000000000000e+00
1.267182479523775579e-02
0.000000000000000000e+00
-4.084109547229067966e-02
0.000000000000000000e+00
-2.853372599002780563e-02
0.000000000000000000e+00
0.000000000000000000e+00
1.428467890767902470e-03
0.000000000000000000e+00
1.916733257958125880e-01
-4.224591898360333803e-03
-1.131373513742340783e-02
-1.379796554304154113e-02
0.000000000000000000e+00
-3.176977901214261268e-01
-1.340021544491638295e-01
2.853332929511426252e-03
0.000000000000000000e+00
0.000000000000000000e+00
6.426260203645341521e-03
-7.047087795838170160e-03
1.473817096253847610e-02
0.000000000000000000e+00
1.676635043694985885e-03
1.734386114028737278e-03
1.504378152192377242e-02
0.000000000000000000e+00
-2.036485711761807857e-02
-1.074879961344594320e-02
1.886567039765959424e-03
3.919497956417135678e-03
7.822922384583465005e-01
0.000000000000000000e+00
-3.046282927366480292e-02
-2.057693508014622058e-02
2.846520487126402710e-02
4.260017032434353437e-04
0.000000000000000000e+00
0.000000000000000000e+00
-1.475608226805887394e-02
9.264250245318321128e-03
-1.385871820200910709e-01
1.110912093703644021e-01
0.000000000000000000e+00
2.337530812701024468e-04
1.756836677847665312e-02
3.484289941472868413e-01
-2.507361187934820101e-02
-1.137520455822185056e-01
7.619203473838757304e-05
0.000000000000000000e+00
0.000000000000000000e+00
-2.644015955819466190e-02
-2.042230477180244363e-02
0.000000000000000000e+00
0.000000000000000000e+00
-1.587076710537908275e-01
9.955025413810100060e-03
9.721610517250983685e-02
3.625586095902485692e-03
0.000000000000000000e+00
-2.171108276429990422e-02
-5.101686362538521147e-02
-9.162304714978039555e-02
-1.890008661610459786e-02
-2.847728919302547346e-02
9.444516920243317334e-04
2.041660516018579258e-03
-1.088242493110555542e-02
-2.011226038612087819e-02
-5.366186745174643348e-05
2.786710426871575491e-05
-3.121075429980960450e-02
0.000000000000000000e+00
0.000000000000000000e+00
6.251736420020419238e-02
0.000000000000000000e+00
-7.479842867574560371e-03
0.000000000000000000e+00
0.000000000000000000e+00
-1.627211083859427670e-02
-4.308827021728509621e-01
-6.848084388346237228e-02
7.359555994708347204e-03
-4.412370877813312151e-03
-1.754489967689465066e-02
4.949302888919052991e-03
0.000000000000000000e+00
-5.595205834022560359e-02
-9.548935868848832005e-04
0.000000000000000000e+00
-7.394891879981217719e-02
0.000000000000000000e+00
-5.323370924570156038e-02
8.549094542840396382e-02
0.000000000000000000e+00
0.000000000000000000e+00
-2.085892213279341711e-02
-2.237178796152576934e-02
3.911348127654785435e-03
-1.700989857076248279e-01
4.707350555073946258e-02
0.000000000000000000e+00
3.200627620698136278e-02
2.828118693468364888e-04
1.639416353290645278e-01
-1.352863154748620150e-02
-2.466586584578975283e-03
0.000000000000000000e+00
0.000000000000000000e+00
-7.023535020540907538e-04
0.000000000000000000e+00
7.225666150075524437e-03
-3.185273904099757136e-02
0.000000000000000000e+00
0.000000000000000000e+00
0.000000000000000000e+00
0.000000000000000000e+00
-1.786479602422577206e-03
2.511773514083432204e-02
0.000000000000000000e+00
0.000000000000000000e+00
3.396236483781558263e-02
1.159451806766119419e-02
-5.951597440197271133e-02
8.998086478630436258e-02
0.000000000000000000e+00
0.000000000000000000e+00
-1.540433085931846614e-03
3.188191770360478128e-02
0.000000000000000000e+00
1.481309221502963422e-05
0.000000000000000000e+00
5.660413159183237328e-03
7.443250486555955114e-02
5.293284949343136231e-02
-4.555025182418548889e-03
0.000000000000000000e+00
0.000000000000000000e+00
0.000000000000000000e+00
0.000000000000000000e+00
-1.107604661272841053e-03
-3.395129682715410102e-02
8.038022538621000801e-02
0.000000000000000000e+00
-4.318796942224386037e-01
-7.935750649588113603e-02
1.130693265646476320e-01
-3.122859349121513695e-02
-9.396367134635192839e-03
3.065805119356783143e-03
-2.714829655073508225e-03
0.000000000000000000e+00
1.497627660370641663e-02
-1.618743186816404278e-01
-1.711304340689237188e-02
-2.679390512618168210e-03
6.892284290516126604e-04
2.367137670093964058e-02
4.476035762200422652e-02
3.719135427976812125e-02
1.944069447479407353e-02
-9.739471576191206792e-02
3.308801928022198080e-02
-1.658047451715459822e-02
0.000000000000000000e+00
0.000000000000000000e+00
0.000000000000000000e+00
0.000000000000000000e+00
0.000000000000000000e+00
0.000000000000000000e+00
7.326945499293596731e-02
6.914866620346843754e-03
4.378587821687576764e-02
-7.939345910145931828e-01
-1.505241452067908672e-02
-4.216801722568336297e-02
1.813960236332172807e-02
2.864052805068269258e-02
4.493928062315940067e-03
0.000000000000000000e+00
-2.225346622384764481e-02
9.127762094380362234e-03
4.664133823134937273e+01
0.000000000000000000e+00
1.944654995227325552e-03
2.351991209026100139e-03
1.220888726073055680e-03
0.000000000000000000e+00
0.000000000000000000e+00
0.000000000000000000e+00
0.000000000000000000e+00
-1.438747862914226388e-03
0.000000000000000000e+00
1.553526591390142972e-02
4.866137484505121513e+00
0.000000000000000000e+00
2.505868972000114409e-02
7.904912805689809623e-04
0.000000000000000000e+00
9.612262842894232773e-02
-4.390356105992187022e-03
-1.067750652510038659e-02
1.171290909310314377e-02
-7.083008535084049130e-03
-3.843035741642629455e-02
5.661058623663039330e-02
1.425632497814872945e-02
0.000000000000000000e+00
0.000000000000000000e+00
-5.945104182328453217e-03
-7.424806305617778768e-02
-2.991651029467291487e-02
1.512674247451695209e-02
1.793502776741784811e-03
1.248682621570284951e-01
-5.009016744050684089e+00
-3.080108084933641521e-02
3.583295936612205558e-04
-6.033533661752969041e-03
0.000000000000000000e+00
0.000000000000000000e+00
4.684711919093056259e-03
0.000000000000000000e+00
0.000000000000000000e+00
5.723994610321078702e-02
0.000000000000000000e+00
1.844745691199198290e-02
-1.066778655530281530e-03
0.000000000000000000e+00
2.577820038417741669e-02
0.000000000000000000e+00
-2.941299580097571191e-03
-1.462309703658504212e-01
-4.072680878061146759e-03
5.236743735864492905e-03
-1.191367079653527991e-02
1.113693616658184699e-01
-3.704588338683997839e-02
2.181083222443511421e-03
0.000000000000000000e+00
1.768388125393468256e-03
0.000000000000000000e+00
0.000000000000000000e+00
-4.526603826752074490e-03
3.763317595425121065e-03
1.314607973664732969e-02
1.571463922475027988e-02
0.000000000000000000e+00
-5.310283942150367587e+00
1.069803353962232167e-02
-8.109522027283115955e-03
0.000000000000000000e+00
2.114399129637656825e-03
1.020789253778649555e-02
0.000000000000000000e+00
0.000000000000000000e+00
0.000000000000000000e+00
-2.364190280851990317e-02
0.000000000000000000e+00
0.000000000000000000e+00
-5.621042444148668937e-03
-4.976098821234691341e-03
-4.405192506229164279e-02
0.000000000000000000e+00
1.302065597840507995e-02
-1.597857596011329970e-02
1.920249793415116507e-02
-7.462826225555343161e-03
-2.105415117473806996e-01
-1.611615170316382101e-02
0.000000000000000000e+00
-9.679384916584224396e-02
2.044229726346336040e+00
-1.837048069084708636e-03
0.000000000000000000e+00
0.000000000000000000e+00
-5.259372610842504405e-04
4.658121364971258282e-01
1.655645514796815279e-02
-4.053467770531078013e-02
7.704200092511679331e-04
-3.083500059711249963e-02
3.733452345086797630e-03
-1.268803073444558192e-02
0.000000000000000000e+00
0.000000000000000000e+00
0.000000000000000000e+00
1.789952030720120546e-01
-3.042258429966302196e-04
1.941740198902486628e-02
1.212580499514975818e-02
-1.919427538136213654e-02
-1.027399086788999445e-02
0.000000000000000000e+00
0.000000000000000000e+00
-1.342380078801479366e-02
2.836554872583612469e-02
3.359780230054178196e-02
0.000000000000000000e+00
3.300050057893608724e-01
8.669614156468147866e-04
-7.113347433330086123e-03
-1.639608810057593957e-02
-6.072674581049945092e-02
0.000000000000000000e+00
-2.853422269218804357e-03
-3.187644525042503812e-02
-1.159888474085620097e-01
-4.862376583434965122e-03
0.000000000000000000e+00
-7.337439107587746812e-02
-3.229744898153151349e-03
-4.092744248819556174e-02
6.763812029490820499e-02
3.529519872127421555e-03
-7.169804680202998201e-03
-2.751915869293776462e-02
5.989824437977635425e-03
0.000000000000000000e+00
-6.689078496905999957e-05
4.941815695837094118e-03
0.000000000000000000e+00
7.580442332373528609e-04
-1.515771176219147913e-02
2.555433674211957280e-03
4.092203599133042990e-02
-1.637985041340110359e-01
0.000000000000000000e+00
0.000000000000000000e+00
-4.496586661736350944e-03
0.000000000000000000e+00
0.000000000000000000e+00
4.305573232733596648e-04
0.000000000000000000e+00
-8.868165108552495020e-04
1.056073351415703215e-03
-3.833082244883251333e-02
-1.806587849444272337e-02
0.000000000000000000e+00
8.126338281497708094e-02
-3.481206161218081130e-03
-7.918255844202158611e-02
0.000000000000000000e+00
3.243365149670417225e+00
1.428847124969439619e+01
0.000000000000000000e+00
0.000000000000000000e+00
-4.472429037751615190e-03
-1.520168315418189697e-01
0.000000000000000000e+00
0.000000000000000000e+00
-2.641418200404478146e-03
-7.615576266132068062e-02
2.017565237528817605e-04
0.000000000000000000e+00
0.000000000000000000e+00
0.000000000000000000e+00
-1.371208494147459558e-03
7.492814584215012896e-02
1.221376274308956511e-02
0.000000000000000000e+00
-3.447725059456429372e-03
1.245061912607020984e-03
-1.368148037712123288e-02
-5.901666938468129453e-03
-1.730802541804316863e-01
-2.813389659926747444e-02
0.000000000000000000e+00
-1.641628365810369637e-03
-3.963099742600742492e-02
1.393564804208585490e-03
1.605424048125510348e-03
0.000000000000000000e+00
-2.518007550834302360e-02
-7.579158180288287673e-04
3.408714505294871237e-03
0.000000000000000000e+00
2.099196977103932049e+00
3.002874841212753054e+01
0.000000000000000000e+00
2.087082961620436578e-03
-3.078167163308823812e-02
1.509080070383927302e-03
0.000000000000000000e+00
0.000000000000000000e+00
0.000000000000000000e+00
-9.538785757061453430e-02
1.798095049378660715e-01
-1.412771835118379823e-02
0.000000000000000000e+00
0.000000000000000000e+00
0.000000000000000000e+00
-1.436300778461504298e-04
3.580384980355800703e-03
0.000000000000000000e+00
0.000000000000000000e+00
0.000000000000000000e+00
-5.897414186408828606e-03
3.438053695226499229e-02
1.303786150403092939e-02
2.374188679153980963e-02
-4.366605085926323904e-01
-5.457715024677575744e-02
6.787323368555380279e-03
1.870839949918246719e-03
0.000000000000000000e+00
-7.794216747729504693e-03
0.000000000000000000e+00
0.000000000000000000e+00
6.784762507692586493e-03
0.000000000000000000e+00
-9.108593078857200181e-03
-2.113037451465263339e-02
-1.719207272006674503e-02
4.015826740918700642e-03
-2.477121141442671678e-05
0.000000000000000000e+00
-4.215258952028753253e-02
0.000000000000000000e+00
0.000000000000000000e+00
0.000000000000000000e+00
-1.908548636067039506e-02
-9.494100320671858967e-03
-1.126688540472694199e-03
0.000000000000000000e+00
0.000000000000000000e+00
0.000000000000000000e+00
-7.467809764022692587e-01
0.000000000000000000e+00
-4.069947109144282128e-03
1.297868954075302173e-01
1.670092831692692945e-02
1.095887292606918528e-01
-6.808617499435959050e-03
1.252414438419169980e-03
2.470167685249215119e-03
-3.260681143616973431e-03
0.000000000000000000e+00
9.334305782162283282e-04
0.000000000000000000e+00
-4.302395415342468734e-04
0.000000000000000000e+00
5.863984971447615546e-01
0.000000000000000000e+00
-3.350027598585200023e-02
8.939211463043483796e-02
-4.619586886269604759e-03
0.000000000000000000e+00
5.889961176104133861e-03
-2.752524145992194036e-04
3.790505832492885308e-02
0.000000000000000000e+00
2.357083284285758397e-04
4.845041231083892924e-02
9.113215077742908843e-02
2.526334887170045740e-04
0.000000000000000000e+00
0.000000000000000000e+00
0.000000000000000000e+00
0.000000000000000000e+00
-2.685863950298430017e-02
3.740016958781702122e-02
1.295121585316193549e-02
-1.304211575634708388e-02
1.160944331079950126e-02
-2.596614647292901090e-02
0.000000000000000000e+00
2.402442291399849508e-02
-1.414866811667770362e-02
-3.335275514009829992e-04
-5.603286170821163148e-02
-4.674597576003471783e-02
1.477580216915898303e-01
-8.953455580161046035e-02
2.157065701402283708e-01
3.996454474326249090e-02
0.000000000000000000e+00
-1.973727885650252128e-03
-4.139824464513763153e-02
-3.954327397267820565e-02
9.493831716927180267e-04
5.873724941126920451e-02
0.000000000000000000e+00
-4.564272442978370425e-03
1.978472892001918726e-02
0.000000000000000000e+00
0.000000000000000000e+00
8.736982933737138949e-04
0.000000000000000000e+00
0.000000000000000000e+00
-2.832463331965408629e-03
1.351498917126604457e-02
-1.804934840713481176e-02
0.000000000000000000e+00
0.000000000000000000e+00
-5.112930565019423515e-03
0.000000000000000000e+00
0.000000000000000000e+00
0.000000000000000000e+00
1.894546059027522530e-02
-1.027532185105528850e-01
-9.905149449536337219e-03
-2.402625897379357701e-03
7.513800879964088741e-02
0.000000000000000000e+00
2.123613205561537126e-02
-1.106086927070322468e-03
0.000000000000000000e+00
-2.516600416830715257e-03
-3.511291068419012361e-03
-4.016145961516527640e-02
7.959277822730183305e-03
1.153793578161582678e-01
0.000000000000000000e+00
4.505101326401474496e-03
-3.329515077471963970e-04
-9.096498486526551075e-02
-1.931302588930832592e-02
5.684593810717186897e-03
1.267162245875377957e+00
-1.264397046494056265e-01
-3.830740123653902669e-03
-2.771346098361936704e-03
-3.835884892080192177e-02
7.491130175432316601e-04
-4.404424622286184920e-02
-6.641483912522030270e-03
0.000000000000000000e+00
0.000000000000000000e+00
3.612462172244218506e-01
1.343139811400243300e+00
-2.491346840690011888e-02
4.988858736583782344e-03
0.000000000000000000e+00
8.914642677610039659e-03
1.258555799200328923e-03
9.560996288878145788e-03
0.000000000000000000e+00
5.939782625565275150e-05
7.546953299283131605e-03
4.905913180291891036e-04
3.125416172120660252e-01
-1.007766930071301280e-04
-2.319275755762876048e-02
2.257848811401078938e-03
3.193495692380812594e-03
-1.402441654984752824e-02
0.000000000000000000e+00
-7.851979846144734390e-03
0.000000000000000000e+00
4.240520817403212184e-02
4.259450126058046682e-02
-2.997651326383531795e-03
0.000000000000000000e+00
6.764744402815614510e-02
-1.758947159758667955e-03
0.000000000000000000e+00
2.817732657874629787e-01
-1.330374979697404765e-02
-1.261165490679937336e-02
6.265754265983875665e-03
0.000000000000000000e+00
-1.031748756387993182e-01
-2.653451263425922815e-03
9.726693224014596600e-03
0.000000000000000000e+00
4.712388925559553993e-03
0.000000000000000000e+00
0.000000000000000000e+00
3.117832451041620614e-02
0.000000000000000000e+00
-3.739078930432428866e-02
0.000000000000000000e+00
-9.562575700559902692e-02
4.424882662081185969e-01
0.000000000000000000e+00
-5.720327803461178976e-04
4.175544021355833552e-03
-2.129817287939171958e-04
-3.299789599269195572e-02
-2.926220507636075746e-02
0.000000000000000000e+00
0.000000000000000000e+00
0.000000000000000000e+00
-2.534272091963352038e-03
-5.265391054594730988e-03
4.821111435275276212e-03
-6.488465846681240601e-02
-2.962072523752501494e-03
0.000000000000000000e+00
6.271575550992126210e-04
0.000000000000000000e+00
0.000000000000000000e+00
1.949434834387847870e-01
3.807098333037813309e-01
-3.811923122381951842e-03
0.000000000000000000e+00
0.000000000000000000e+00
1.411607093076347290e-02
-9.809793024355518282e-03
-1.639338018324661486e-02
6.456225918691188559e-02
2.294378320508668606e-02
-2.959964118093613705e-03
0.000000000000000000e+00
0.000000000000000000e+00
0.000000000000000000e+00
0.000000000000000000e+00
0.000000000000000000e+00
0.000000000000000000e+00
-3.824789635500629430e-03
6.817403370923827421e-02
3.791136529241304759e-02
-6.063903095289982503e-02
3.427588670402571640e-04
-4.754679509093302065e-04
-1.366923498984500994e-03
0.000000000000000000e+00
0.000000000000000000e+00
-5.788147254117731628e-03
-8.733002353837726606e-03
0.000000000000000000e+00
0.000000000000000000e+00
0.000000000000000000e+00
-6.440604506873839723e-03
6.756923285512305387e-03
0.000000000000000000e+00
0.000000000000000000e+00
0.000000000000000000e+00
0.000000000000000000e+00
0.000000000000000000e+00
0.000000000000000000e+00
0.000000000000000000e+00
0.000000000000000000e+00
6.951282684169677109e-03
1.527221010893688559e-03
1.076058177432076893e-02
0.000000000000000000e+00
1.098085861980189343e-01
-2.410430586321767911e-03
0.000000000000000000e+00
0.000000000000000000e+00
0.000000000000000000e+00
-1.845378327058569412e-02
-6.227963981280180798e-04
4.574404183571081223e-02
0.000000000000000000e+00
0.000000000000000000e+00
0.000000000000000000e+00
0.000000000000000000e+00
-2.963871814271172925e-03
1.450621869968720112e-01
5.716688596396348604e-02
0.000000000000000000e+00
0.000000000000000000e+00
-1.941570465665481211e-04
0.000000000000000000e+00
0.000000000000000000e+00
-3.518257391717299009e-04
0.000000000000000000e+00
0.000000000000000000e+00
3.459114218103561365e-03
-2.196395252412421811e-02
0.000000000000000000e+00
0.000000000000000000e+00
-1.902773735398073998e-02
3.968571656117811375e-02
-8.947990291051709927e-03
0.000000000000000000e+00
0.000000000000000000e+00
1.313550172269065813e-02
1.201928788278440463e-02
-4.009021506293159592e-02
0.000000000000000000e+00
0.000000000000000000e+00
2.223527632672204699e-02
8.029210257066265576e-04
6.255577368654238746e-02
2.916675654348084568e-02
0.000000000000000000e+00
0.000000000000000000e+00
0.000000000000000000e+00
0.000000000000000000e+00
-5.787778301483503807e-02
-2.551363403633156914e-03
1.727311152378342620e-03
8.486556318684432276e-05
-1.074155906074032302e-01
3.768247679177698373e-02
-1.796728811957937991e-03
-4.618776882347112693e-03
0.000000000000000000e+00
4.995131395640122103e-03
-1.247236324914163946e-01
-2.502645658814487729e-03
1.616773143092746501e-02
-9.990619437617676100e-04
3.572640457426223392e-03
9.255491066842291836e-02
1.147742202869781250e-02
3.641427765215278500e-02
-7.727430752974397653e-03
0.000000000000000000e+00
6.668174508177170112e-02
0.000000000000000000e+00
-1.164288079875971244e-02
1.006787623296278578e-01
3.129090621427028712e-04
0.000000000000000000e+00
0.000000000000000000e+00
0.000000000000000000e+00
0.000000000000000000e+00
3.885630445720195808e-02
-6.436073848512134654e-02
-4.613863158467363529e-02
-7.325918976377414626e-01
-4.903460892425066664e-01
-7.497011955200860939e-04
3.147109737452669607e-03
-2.148835657752598462e-03
-1.337418207529105646e-02
-1.476045802125387219e-01
2.558283082792491350e-03
-6.282612116687120996e-02
0.000000000000000000e+00
-1.262439433858993376e-01
-2.030032271917764364e-01
-1.234248086696397052e-02
-2.667865448295196704e-03
-2.532378215203964777e-01
0.000000000000000000e+00
9.729490718503287176e-04
-1.730586573028670694e-01
-6.775724500486368651e-01
6.242038519548682995e-02
-7.263205622420163161e-04
0.000000000000000000e+00
-1.879739400511811279e-02
-8.546682422765773668e-03
1.738643526287318025e-02
0.000000000000000000e+00
0.000000000000000000e+00
0.000000000000000000e+00
0.000000000000000000e+00
-8.300181789879269856e-03
0.000000000000000000e+00
2.588366960677257814e-02
3.700664691145556361e-03
8.583641433855564162e-02
1.209110928221406207e-02
0.000000000000000000e+00
2.876444125107376071e-02
-2.364652683452591886e-01
3.233239096276292746e-02
-8.011143696524558599e-02
-2.618688462269944638e-04
2.566880606115490814e-03
0.000000000000000000e+00
-3.678974221798562982e-02
-8.773116029810931749e-02
-9.284819839404981345e-02
-2.662276873794812773e-02
4.019108547348016619e-02
-1.638811991327308870e-02
1.387696685538210989e-02
5.155110623990466490e-02
0.000000000000000000e+00
-6.720409011796110200e-03
-1.789028927158040072e-02
2.461463137573983561e-03
-4.064575430850151522e-03
2.754667419045789267e-01
1.713048826969057470e-02
0.000000000000000000e+00
0.000000000000000000e+00
0.000000000000000000e+00
-2.126572327870981938e-02
0.000000000000000000e+00
-1.071676361202046873e-04
0.000000000000000000e+00
0.000000000000000000e+00
2.908735680394295992e-05
-1.948874121175372953e-02
-1.709310309998460231e-02
5.093950635749868588e-02
-1.738290859457633786e-01
6.562974499090759584e-02
2.655951526857541073e-02
-4.625873201071000612e-02
0.000000000000000000e+00
-1.509573585726453615e-03
1.133002388906297411e-02
-1.589334490774372555e-01
0.000000000000000000e+00
-4.258597476323025544e-03
-1.829923596051246867e-02
0.000000000000000000e+00
0.000000000000000000e+00
-1.235494796292653866e-02
0.000000000000000000e+00
0.000000000000000000e+00
5.088418144377809121e-03
0.000000000000000000e+00
5.524400189183022170e-03
0.000000000000000000e+00
-8.552777314722439855e-04
1.055815451287046153e-02
0.000000000000000000e+00
-1.539368717357898417e-02
0.000000000000000000e+00
0.000000000000000000e+00
-5.942968741400321206e-03
3.287273785584385148e-04
-1.842171806466917028e+00
-7.759527271612044752e-02
-2.363635239090789569e-02
-1.887071512827169853e-02
3.830762178093063009e-03
-4.535801906641869982e-03
0.000000000000000000e+00
-1.720293138166094360e-02
-1.958688610715418610e-02
-6.340894384686773452e-03
-1.882015796376461424e-03
0.000000000000000000e+00
5.337964094786308740e-03
0.000000000000000000e+00
-1.800874524037403279e-02
0.000000000000000000e+00
0.000000000000000000e+00
1.249644911833799540e-02
-2.252685726038404501e-02
-2.147146403699805653e-02
8.343230002561737371e-03
0.000000000000000000e+00
0.000000000000000000e+00
0.000000000000000000e+00
0.000000000000000000e+00
0.000000000000000000e+00
8.623962799095046200e-04
1.832798633761898166e-01
-6.797330340811812014e-04
0.000000000000000000e+00
-6.905285300432181805e-02
9.248665296030134531e-04
-5.332232794818184395e-05
5.299995636049658308e-03
-9.127640993379480469e-03
-8.879457506624532578e-03
-5.053968851337565377e-03
2.652655256966840024e-03
1.093629964993584752e-01
0.000000000000000000e+00
4.191014874887342284e-02
7.405093697207396075e-02
0.000000000000000000e+00
0.000000000000000000e+00
0.000000000000000000e+00
3.632247896192914924e-03
0.000000000000000000e+00
7.893567378116382594e-03
-2.324642907509189699e-02
-1.578552916817645493e-02
0.000000000000000000e+00
0.000000000000000000e+00
0.000000000000000000e+00
0.000000000000000000e+00
9.981143293660225957e-03
3.249707912942129129e-01
0.000000000000000000e+00
-4.456348317576231538e-02
3.666822260720575821e-02
-1.291307291397048029e-01
2.934202758968713909e-02
-5.438867252095030969e-02
1.208702055057200853e-02
8.356778465271414097e-04
-1.505804892306411742e-02
0.000000000000000000e+00
4.626081911945708822e-03
5.210491516175536769e-02
2.075361937901670784e-02
7.465598275893289490e-03
-1.293779433773158405e-01
-2.722615333858174023e-03
4.731844255364185681e-02
4.345901514947105027e-03
-5.126526890836750026e-03
3.336604521250802896e-02
0.000000000000000000e+00
0.000000000000000000e+00
0.000000000000000000e+00
1.566738340325350351e-02
9.086372831297272190e-02
2.046910628333489801e-01
5.158082527718819282e-02
-2.250361039890102707e-02
3.931674923826181697e-04
-2.919355893293659049e-02
2.456373292431503035e-03
4.733860525987734378e-04
-5.885829890108897761e-02
-1.185335192771760568e-02
1.655555641064962724e-01
2.743006417411762710e-02
-1.139750472229136058e+00
0.000000000000000000e+00
2.032316555810049358e-02
1.050527017860160804e-02
-5.729572246541440525e-03
0.000000000000000000e+00
-2.805987564580095239e-02
0.000000000000000000e+00
-2.274113438528410983e-02
0.000000000000000000e+00
0.000000000000000000e+00
6.179112736011259377e-03
-1.488331261843202011e-02
0.000000000000000000e+00
-5.863295871787001234e-03
6.574064753202739017e-03
-1.103359201800062708e-03
0.000000000000000000e+00
0.000000000000000000e+00
-3.617548229518552979e-03
-4.168517933278647059e-01
0.000000000000000000e+00
6.825230767705868333e-03
0.000000000000000000e+00
-2.140486348291718854e-02
-1.703987201711639268e-02
7.348075857260107438e-04
-1.269189753319960139e-02
0.000000000000000000e+00
0.000000000000000000e+00
0.000000000000000000e+00
0.000000000000000000e+00
0.000000000000000000e+00
0.000000000000000000e+00
9.480270425226110242e-04
2.581866258518639157e-03
-1.141328920159291049e-01
-1.462371276778551971e-02
2.017995257220563804e-02
-1.369410502387064833e-03
-8.850881430913847686e-03
0.000000000000000000e+00
0.000000000000000000e+00
0.000000000000000000e+00
0.000000000000000000e+00
-7.258801082896958190e-02
-1.614272574905555035e-02
4.011502771553071556e-01
-8.400675745161940641e-03
2.037793856398461417e-02
9.170266604223425988e-02
0.000000000000000000e+00
0.000000000000000000e+00
0.000000000000000000e+00
7.871403755079039077e-05
0.000000000000000000e+00
0.000000000000000000e+00
0.000000000000000000e+00
-4.632926524017652072e-03
1.022613708881027761e-01
-5.435389503429903513e-02
1.113637556504485683e-02
0.000000000000000000e+00
0.000000000000000000e+00
0.000000000000000000e+00
0.000000000000000000e+00
1.906302138772077940e-03
0.000000000000000000e+00
-3.813562906923975964e-03
0.000000000000000000e+00
0.000000000000000000e+00
-4.095983780058112117e-02
0.000000000000000000e+00
0.000000000000000000e+00
-2.785713936637205373e-02
-1.980238532754365847e-03
-2.806077915541951850e-03
-1.845090681628967777e-01
0.000000000000000000e+00
1.944585107566841262e-04
0.000000000000000000e+00
-5.286119080368412160e-03
0.000000000000000000e+00
0.000000000000000000e+00
-1.096907466819863411e-02
1.126745922030149283e-02
3.165725576432234373e-02
1.350214919054431705e-03
0.000000000000000000e+00
2.897083534905801616e-01
4.699151914822142020e-03
-1.036820322764665236e-01
-5.317245679421511717e-02
2.342260465820715162e-02
-8.333777690923707682e-03
0.000000000000000000e+00
0.000000000000000000e+00
0.000000000000000000e+00
2.003005761045009540e-03
0.000000000000000000e+00
-6.637654170653435604e-03
-1.716921383362022546e-01
9.743304241995279225e-02
0.000000000000000000e+00
1.597921766576053393e-02
0.000000000000000000e+00
2.617636896796867729e-01
0.000000000000000000e+00
2.362460033406935458e-02
-4.064003979313505349e-04
-1.475780255888551815e-02
3.078287413337862499e-03
-4.007320654963291914e-03
0.000000000000000000e+00
-4.890348522270620071e-03
-9.902819026231021726e-02
-7.977212744797994998e-03
0.000000000000000000e+00
1.413732592792754927e-01
0.000000000000000000e+00
-4.736636051716328760e-02
-6.854954295105350481e-02
-7.553754529038488041e-02
-8.879256395910991792e-03
3.924524195084442071e-03
2.004102576915890721e-02
4.559079874823826484e-02
2.131293858549748385e-02
1.860531459599331500e-02
-1.258942490899545279e-03
1.511047982526414306e-02
6.563106223531468483e-03
-8.110646964347081878e-02
0.000000000000000000e+00
3.096648833449551497e-02
0.000000000000000000e+00
-4.560744421932635788e-03
-9.186891948165197270e-05
-1.343101530088289530e-01
-3.795990668081677608e-03
-3.678724441982651749e-02
9.041297250752724501e-01
1.148869332981061891e-01
0.000000000000000000e+00
5.330686970004151065e-05
-1.207651744303624283e-03
-1.936781229365450163e-02
-1.864913690034041005e-01
-2.835970124089016164e-01
-5.994601926717808837e-03
2.907098707507963994e-02
0.000000000000000000e+00
0.000000000000000000e+00
0.000000000000000000e+00
0.000000000000000000e+00
0.000000000000000000e+00
0.000000000000000000e+00
2.014272299152119680e-02
-5.749952834653070111e-02
5.516664691221607845e-03
-5.695488974011424510e-01
0.000000000000000000e+00
-1.571596135558223084e-02
2.513558197763800608e-04
0.000000000000000000e+00
0.000000000000000000e+00
-4.806879775872955896e-01
-7.080585724509641868e-03
0.000000000000000000e+00
-2.809271907559315884e-02
-5.090797121778929679e-02
-1.904609633133545407e-02
-2.331188887671637455e-01
-1.202705892090772354e-02
0.000000000000000000e+00
0.000000000000000000e+00
-6.305445788764255100e-02
2.389992534370016103e-02
0.000000000000000000e+00
9.180070049640645137e-04
0.000000000000000000e+00
1.138123225556687823e-02
1.315994527333795225e-02
1.898723367936515707e-02
-6.461154025816942753e-05
-1.018824953245032333e-02
-1.400439959868505779e-01
-5.081503927432738654e-02
1.501137077708396890e-04
0.000000000000000000e+00
0.000000000000000000e+00
3.866914478770461933e-02
4.700089800122281974e-03
-2.481689381353048840e-01
0.000000000000000000e+00
4.337259662626693525e-03
8.108035797049782710e-04
0.000000000000000000e+00
0.000000000000000000e+00
1.864989112640516328e-03
0.000000000000000000e+00
0.000000000000000000e+00
-1.054594981825203101e-02
-2.234435472265552079e-03
-1.324467895474787729e-02
2.331865081872389316e-03
9.927473858815767660e-03
4.131448320033656585e-01
0.000000000000000000e+00
-1.673152983365532032e-03
-1.778843274256756849e-03
0.000000000000000000e+00
-2.808009254758893694e-02
-6.116457277600042403e-03
4.741298399274335943e-04
-1.931546771688156736e-02
-9.548629859777441400e-03
0.000000000000000000e+00
-3.039487596921874849e-05
0.000000000000000000e+00
0.000000000000000000e+00
-1.060652319481179308e-02
2.354785457047719466e-01
0.000000000000000000e+00
0.000000000000000000e+00
1.329317687762326117e-01
7.211783341329616737e-03
0.000000000000000000e+00
-7.260258567848575095e-02
1.831731342016896247e-01
-1.772657070857672906e-02
0.000000000000000000e+00
-1.384430746618076904e-04
0.000000000000000000e+00
-4.811732320399406126e-02
-1.849723940712157816e-02
0.000000000000000000e+00
3.052944003248242791e-02
0.000000000000000000e+00
0.000000000000000000e+00
0.000000000000000000e+00
0.000000000000000000e+00
1.444485111930715257e-04
0.000000000000000000e+00
1.441679104969394686e-03
0.000000000000000000e+00
-2.802828526840124568e-02
-1.836869267118101251e-02
1.250915139357879242e-02
-1.078456479239756375e-03
0.000000000000000000e+00
0.000000000000000000e+00
-1.692105728527533394e-04
-6.409811244384444606e-03
-3.595859378647816434e-02
-2.669270594490281284e-02
0.000000000000000000e+00
1.115709993422224905e-01
-2.272688960515730217e-01
7.675027917652979537e-02
0.000000000000000000e+00
-2.232769092869621788e-02
-1.494608043308059617e-02
-2.328250774315532724e-03
0.000000000000000000e+00
0.000000000000000000e+00
-1.508815587436292257e-04
0.000000000000000000e+00
-1.430558210476572112e-02
5.302832103558622126e-03
0.000000000000000000e+00
4.814542042238094746e-03
2.019267611766249054e-02
-4.779011040680514188e-03
0.000000000000000000e+00
0.000000000000000000e+00
0.000000000000000000e+00
-2.331066314956389222e-03
2.010844285304588253e-01
0.000000000000000000e+00
0.000000000000000000e+00
-9.164266135005375707e-03
2.316960662957744388e-01
0.000000000000000000e+00
0.000000000000000000e+00
-6.633486728946932399e-03
0.000000000000000000e+00
-2.000503973584116107e-02
0.000000000000000000e+00
0.000000000000000000e+00
4.579894290313562405e-03
-6.247772877654987275e-03
-1.576851216038331529e-03
0.000000000000000000e+00
0.000000000000000000e+00
0.000000000000000000e+00
-7.662295643201365303e-02
2.700902480811642487e-03
0.000000000000000000e+00
0.000000000000000000e+00
0.000000000000000000e+00
0.000000000000000000e+00
0.000000000000000000e+00
0.000000000000000000e+00
0.000000000000000000e+00
-5.060629485857667874e-06
0.000000000000000000e+00
0.000000000000000000e+00
0.000000000000000000e+00
0.000000000000000000e+00
-9.047856729203170023e-03
-3.303697396441913209e-02
0.000000000000000000e+00
0.000000000000000000e+00
0.000000000000000000e+00
0.000000000000000000e+00
0.000000000000000000e+00
0.000000000000000000e+00
9.439002507887331306e-03
1.866973146826421404e-02
0.000000000000000000e+00
0.000000000000000000e+00
0.000000000000000000e+00
0.000000000000000000e+00
0.000000000000000000e+00
0.000000000000000000e+00
0.000000000000000000e+00
0.000000000000000000e+00
0.000000000000000000e+00
0.000000000000000000e+00
0.000000000000000000e+00
-3.301518819118681985e-03
0.000000000000000000e+00
0.000000000000000000e+00
0.000000000000000000e+00
0.000000000000000000e+00
0.000000000000000000e+00
0.000000000000000000e+00
-4.161398486093574186e-08
0.000000000000000000e+00
-5.497216395662593569e-02
-1.091679123596832508e-02
-2.756899983097656562e-02
1.425909202548959753e-02
-2.503661307636787306e-02
-8.976863710827941286e-04
4.446616851033333845e-02
0.000000000000000000e+00
0.000000000000000000e+00
0.000000000000000000e+00
0.000000000000000000e+00
0.000000000000000000e+00
0.000000000000000000e+00
0.000000000000000000e+00
0.000000000000000000e+00
0.000000000000000000e+00
0.000000000000000000e+00
0.000000000000000000e+00
0.000000000000000000e+00
-4.762744861058672567e-04
0.000000000000000000e+00
0.000000000000000000e+00
-5.174360116412296540e-02
0.000000000000000000e+00
-6.653198577631347626e-04
1.435452112827451457e-02
0.000000000000000000e+00
-1.197197661778976879e-01
0.000000000000000000e+00
0.000000000000000000e+00
-3.948747752548432965e-02
-8.116371067566794870e-04
0.000000000000000000e+00
0.000000000000000000e+00
0.000000000000000000e+00
4.013656855614109592e-02
-3.524610006127366912e-02
1.356593556392982625e-01
-1.644185615503418116e-02
4.136734464144198320e-02
-2.804836590027359397e-02
2.507294904050426723e-03
0.000000000000000000e+00
0.000000000000000000e+00
0.000000000000000000e+00
0.000000000000000000e+00
0.000000000000000000e+00
0.000000000000000000e+00
-2.105339099376385970e-01
-6.348892322947775890e-02
2.661076600513181400e-01
-3.926200463230310467e-01
-4.771508226321881201e-03
5.962157081584033846e-02
0.000000000000000000e+00
-2.767246301585855883e-02
-1.296386285608601592e-02
-1.310767190256858020e-02
0.000000000000000000e+00
-1.654779823451651153e-03
0.000000000000000000e+00
0.000000000000000000e+00
-7.587953161086633327e-03
5.972443058303815791e-03
2.792901779785579618e-04
-7.808089252063344851e-03
5.320160914573495055e-03
-3.097884232659165252e-02
1.189464664104405642e-02
0.000000000000000000e+00
0.000000000000000000e+00
0.000000000000000000e+00
0.000000000000000000e+00
0.000000000000000000e+00
-9.287672464711807518e-04
8.932903521649031980e-03
-4.697540765437564492e-01
-1.118582504970937613e-01
1.586548280970300207e-01
-2.061374457160009867e-03
2.655237467063986667e-02
-3.096999436531262979e-03
-6.905050657447975651e-03
-2.850150355254163839e-02
0.000000000000000000e+00
0.000000000000000000e+00
-2.047185920415615229e-02
0.000000000000000000e+00
0.000000000000000000e+00
1.624886631949663904e-03
1.053248417046950408e-01
1.021002648961108830e-02
0.000000000000000000e+00
2.561816936426139502e-02
1.506287358967957346e-02
0.000000000000000000e+00
4.247757210236513536e-03
1.581336307741628144e-01
-4.853415037090778178e-03
0.000000000000000000e+00
0.000000000000000000e+00
0.000000000000000000e+00
0.000000000000000000e+00
-2.977475069303725644e-05
-3.354575212687510577e-02
-1.395919876036369120e-02
7.525303770770200296e-02
1.112527984684598820e-01
-7.250095044708575187e-02
3.792428031195720084e-03
-1.242475348843841837e-02
2.069468778190177577e-02
3.632958126597820581e+01
-2.052415896777567278e-02
1.800531539526225959e-03
1.044625008509712967e-02
-9.476451045388517569e-02
-1.124482426262539414e-02
-6.399975222760903928e-03
-4.038868935609880514e-03
-4.345599093841434959e-03
-1.628279486262268483e-02
8.103541768696053554e-03
-4.308945190898419431e-02
0.000000000000000000e+00
0.000000000000000000e+00
0.000000000000000000e+00
-1.549797717329871816e+00
-7.257973049942497215e-03
0.000000000000000000e+00
0.000000000000000000e+00
0.000000000000000000e+00
0.000000000000000000e+00
0.000000000000000000e+00
0.000000000000000000e+00
0.000000000000000000e+00
1.166760995268872544e-02
0.000000000000000000e+00
6.666611744262009032e-03
7.766846566064304624e-02
-7.396133047237700431e-02
-2.482693107460128001e-02
7.625165736120456672e-02
1.415059760328019323e+01
-6.212901171383949928e-02
9.693471631183822601e-04
-2.726362038655199670e-03
-6.095478189297651866e-02
-1.213537661310904736e-01
2.117237763119390534e-02
-9.617624561896846724e-02
0.000000000000000000e+00
0.000000000000000000e+00
-7.501635886209412699e-03
3.519313493542017626e-03
0.000000000000000000e+00
0.000000000000000000e+00
0.000000000000000000e+00
0.000000000000000000e+00
0.000000000000000000e+00
0.000000000000000000e+00
3.644922014349497030e-02
0.000000000000000000e+00
0.000000000000000000e+00
0.000000000000000000e+00
0.000000000000000000e+00
-1.906888055848592056e-02
0.000000000000000000e+00
0.000000000000000000e+00
2.683029261120493253e-02
-1.054858154530816453e-02
-1.130396610653058576e-01
6.671801751968689520e-02
1.474621193884638123e-03
0.000000000000000000e+00
0.000000000000000000e+00
5.888736279199295078e-03
-3.037210294008025890e-01
-4.600588681159770849e-02
0.000000000000000000e+00
6.658752048768010884e-03
1.480095587709810145e-01
0.000000000000000000e+00
2.928197480488450681e-03
-1.106429178641406136e-01
-1.974602025268605218e-02
0.000000000000000000e+00
0.000000000000000000e+00
0.000000000000000000e+00
-2.199133199517708744e-05
-3.097370331103132396e-02
0.000000000000000000e+00
0.000000000000000000e+00
0.000000000000000000e+00
0.000000000000000000e+00
0.000000000000000000e+00
0.000000000000000000e+00
1.300337304993881386e-02
0.000000000000000000e+00
2.031503147168535195e-01
2.148947045621120433e-02
-5.744790668269501854e-03
3.239705182125712790e-02
-3.391700280433947334e+00
-1.676495417734099810e-02
0.000000000000000000e+00
0.000000000000000000e+00
1.733598854365814984e-02
-1.010132917206355962e-03
0.000000000000000000e+00
5.964270981943570193e-02
0.000000000000000000e+00
-1.725776001397990145e+00
1.061676036269972902e-02
7.681233560118998910e-03
2.024240393982381508e-02
-2.260998205578932578e-04
-1.679321536734259580e-03
0.000000000000000000e+00
-4.721615148617221147e-02
2.788103951734564531e-03
-1.331760818469621696e-03
-9.793591435864975117e-03
0.000000000000000000e+00
0.000000000000000000e+00
0.000000000000000000e+00
1.921817678489937398e-01
1.360705220559933204e-01
2.675959630350345231e-01
1.104928729221249170e-03
-3.073199951283099585e-03
-3.204672024820992560e-01
4.459552356121960215e-01
-3.490854014846665049e-02
-7.251010079901989980e-02
-1.978863796549135134e-02
-5.033159772721076085e-03
0.000000000000000000e+00
-2.193073364943714815e-03
-1.627285957303281974e-02
-6.954260491824510240e-03
3.229741907062714384e-02
7.516839726426575129e-03
0.000000000000000000e+00
1.057376024579647494e-02
-2.502737619344970466e-02
0.000000000000000000e+00
0.000000000000000000e+00
2.492466130283624640e-03
-3.685378425120395163e-04
0.000000000000000000e+00
0.000000000000000000e+00
-3.153209832978891985e-02
1.440790348253496500e+00
0.000000000000000000e+00
0.000000000000000000e+00
1.028180856981466976e-03
-1.792898609941425553e-02
-2.537239822035017994e-02
0.000000000000000000e+00
4.351080346097336779e-03
0.000000000000000000e+00
0.000000000000000000e+00
-1.565425927855372545e-02
9.025060615302109073e-04
0.000000000000000000e+00
-1.305988226267101177e-02
-1.465734617787800564e-02
0.000000000000000000e+00
-4.681923805147130335e-04
-1.987477464764308716e-03
0.000000000000000000e+00
0.000000000000000000e+00
1.554646156744743900e-02
-5.454825853929028134e-03
0.000000000000000000e+00
-1.855955239060748385e-02
4.842434784918735191e-02
0.000000000000000000e+00
-9.565233949178072320e-03
-4.212490902878029964e-02
1.656035240639121189e-03
7.410326360621669051e-02
0.000000000000000000e+00
3.507918925460320851e-03
-3.679776705237248590e-05
3.771344398233087390e-03
7.447548822561383952e-02
-2.419846425613583416e-02
-4.437051776515521008e-06
-3.264295600428667653e-05
-8.581099330586613658e-03
-4.041316939203810910e-02
0.000000000000000000e+00
1.283262613016205311e-01
0.000000000000000000e+00
-4.309974289448208727e-04
1.644198708448149464e-04
0.000000000000000000e+00
0.000000000000000000e+00
0.000000000000000000e+00
0.000000000000000000e+00
0.000000000000000000e+00
-7.393663661933636347e-03
-4.429264595303313706e-02
2.358019784935814957e-03
-8.473514418075753186e-04
-6.539955158687209280e-03
-2.122973908583281749e-02
-6.645656221839013611e+00
1.335448752879925781e-02
-1.017529666008243627e-01
2.025553132992420277e-03
1.201691771026028571e-03
-2.936148653837495834e-03
9.095249620163517457e-02
-9.243797813177691627e-03
-1.252481802128901662e-03
2.210519549876195297e-02
7.129794297404668229e-04
0.000000000000000000e+00
0.000000000000000000e+00
0.000000000000000000e+00
-2.154902460442244434e-03
2.625376163265536193e-04
0.000000000000000000e+00
0.000000000000000000e+00
0.000000000000000000e+00
0.000000000000000000e+00
-4.539506552476141321e-02
-5.198892171501393378e+00
2.784438542501889956e-04
-6.544643036100741829e-02
-7.530012312711757694e-02
-4.336187597542787486e+00
-1.234159004307486263e-02
-1.867254480335963848e-02
-6.646462991911061824e-02
-5.218479403711762804e-02
-9.574683111754083917e-03
2.033626895607314883e-02
1.899763191492482954e-03
2.065967631206147570e-02
0.000000000000000000e+00
0.000000000000000000e+00
-2.676316585368772316e-02
0.000000000000000000e+00
0.000000000000000000e+00
0.000000000000000000e+00
0.000000000000000000e+00
-6.988898677766654764e-04
-2.611784563767340778e-02
-1.113399867984200126e-02
-6.717133868971024435e-02
-1.080158411624538711e-01
0.000000000000000000e+00
0.000000000000000000e+00
-1.505592098177662916e-02
-1.275168139843040234e-02
-4.393491089636708015e-03
3.287135496334245570e-04
-6.727724968352635226e-01
-5.148707394801474262e-03
0.000000000000000000e+00
0.000000000000000000e+00
0.000000000000000000e+00
0.000000000000000000e+00
-3.206252072260342145e-01
5.854782303473497762e-02
-1.164339462917043655e-01
0.000000000000000000e+00
4.720720074234212825e-04
4.325633553989618463e-01
3.252016283205214769e-02
0.000000000000000000e+00
0.000000000000000000e+00
-1.252196821243313669e-02
-1.098908652424652674e-02
3.113131231354171469e-02
0.000000000000000000e+00
-1.311657773507121996e-02
-2.526661881551377567e-02
-8.249687263069784005e-02
-3.008598409179444322e-02
6.669457138641624386e-03
1.532344485343962483e-02
2.225864521786763677e-03
-5.735761189366780921e-02
0.000000000000000000e+00
5.322856194496655702e-03
2.765668069408994123e-01
-1.074668068761338441e-02
1.277882971552526115e-01
1.051847514799077177e-02
6.579623526637026027e-04
0.000000000000000000e+00
-1.607375861672863115e-01
-6.887381280963944530e-01
-6.157431107294013273e-02
0.000000000000000000e+00
3.070980200160319806e-02
-2.399816509734762349e+00
0.000000000000000000e+00
0.000000000000000000e+00
8.121414216809304254e-02
-2.007983755985770780e-01
2.199982973049711618e-02
6.666744539715949505e-03
7.681355010095185926e-03
-3.556423442472682328e-02
-1.576568829078328349e-01
-2.890590444412857382e-02
0.000000000000000000e+00
-4.828687493974981489e-03
0.000000000000000000e+00
2.261879369008596916e-02
2.006372432917930826e-01
-1.391746574500103001e-02
8.653704111071885974e-02
-3.007100030521863104e-04
-1.629683036106690380e-02
0.000000000000000000e+00
-1.422491691290984350e-01
0.000000000000000000e+00
4.344486859637408833e-03
4.286858576305976193e-03
1.432569897173476513e-02
0.000000000000000000e+00
2.107661758793114015e-02
-6.377119079459891982e-01
0.000000000000000000e+00
0.000000000000000000e+00
-1.318090198423655379e-01
4.571753279489463445e-02
-5.763512339035319065e-02
3.918832973714962697e-02
1.107724473252644226e-01
0.000000000000000000e+00
1.301887988316251937e-02
0.000000000000000000e+00
0.000000000000000000e+00
6.734136422826822455e-02
0.000000000000000000e+00
1.853947392296768082e-01
3.583865186970944944e-02
1.240555813621528440e-02
-6.257802149506348777e-02
-4.229698043575307875e-01
-2.846696954870547858e-02
-1.044687869248706220e-02
5.805170268315450709e-03
0.000000000000000000e+00
2.810134448354992178e-03
-1.465612912372809551e-01
1.116583234514282805e-02
-2.923541534874476988e-01
4.395829180512828699e-02
2.131665660546251326e-02
2.806072583401995890e-02
8.406178470129868630e-02
-4.696024952441063549e-03
-5.066338144318648790e-02
1.425026990649692557e-02
2.270373010402328140e-02
0.000000000000000000e+00
0.000000000000000000e+00
3.884197474541094394e-04
-1.858400970093449997e-02
-7.355410773213735169e-04
8.180457424388410184e-03
0.000000000000000000e+00
0.000000000000000000e+00
-6.524669118788226085e-02
-2.091618398733107939e-02
-4.792195170768222268e-02
0.000000000000000000e+00
0.000000000000000000e+00
0.000000000000000000e+00
-7.319187019085636827e-05
1.629672871749630143e-03
2.510746077176879152e-04
-4.822026873679878534e-03
-4.375049116832780208e-03
-1.933614464501228619e-02
-1.772323743676799089e-03
-6.067487826096631953e-02
-6.726318745717746461e-02
1.009869908147697278e-03
0.000000000000000000e+00
-7.224361078402985600e-04
0.000000000000000000e+00
-9.776775745395432926e-02
0.000000000000000000e+00
1.490455082363536729e-02
-1.384801791093673816e-03
8.376417984223375260e-03
0.000000000000000000e+00
0.000000000000000000e+00
0.000000000000000000e+00
0.000000000000000000e+00
0.000000000000000000e+00
0.000000000000000000e+00
0.000000000000000000e+00
0.000000000000000000e+00
-3.226274003417518854e-02
6.868618009135360469e-02
2.103511200034042378e-02
-4.897495868361285629e-03
-9.866410093639357490e-03
-4.436780104473676128e-02
0.000000000000000000e+00
0.000000000000000000e+00
-1.355553702837254335e-02
-2.065874006480293446e+01
5.128889510948332342e-01
1.363454612420517240e-04
7.415844174803145478e-03
4.108405079637376250e-02
-4.247589015930504364e-02
4.643323252516408860e-05
0.000000000000000000e+00
0.000000000000000000e+00
0.000000000000000000e+00
0.000000000000000000e+00
0.000000000000000000e+00
0.000000000000000000e+00
0.000000000000000000e+00
0.000000000000000000e+00
0.000000000000000000e+00
0.000000000000000000e+00
0.000000000000000000e+00
1.866404099754545576e-01
-1.817087230269541498e-01
2.508486504087659164e-01
4.536131246361269076e-02
8.368614383625327382e-04
0.000000000000000000e+00
3.679424938957616131e-01
1.398456410283621491e-03
4.153128878462154219e-04
0.000000000000000000e+00
1.028306519706910921e-01
-9.959038811773184008e-02
9.794440499913266776e-03
1.903338261925683825e-02
1.510760597138216532e-02
5.797778718944897325e-02
2.258484983452807349e+00
-4.592206659821838378e-03
5.325316056243249718e-03
0.000000000000000000e+00
-1.292061152916343103e-01
-3.492589883479631729e-04
0.000000000000000000e+00
-8.191150658233702087e-02
1.313818063133885029e-02
0.000000000000000000e+00
0.000000000000000000e+00
0.000000000000000000e+00
6.721905699377900278e-02
8.738485070804818955e-02
1.689099887474853484e-02
1.143024347264476326e-02
-6.157353517453926020e-03
-2.106597743558029021e-02
-5.764274170850140072e-02
-9.227116140230409713e-02
0.000000000000000000e+00
3.985431124553368704e-03
-1.882500914334180042e-03
-2.406220432246471835e-03
-3.877590250314385308e-03
0.000000000000000000e+00
0.000000000000000000e+00
1.305872363745277931e-02
4.308665889080575545e-02
-3.664720555569704608e-03
8.976259265575875501e-02
0.000000000000000000e+00
0.000000000000000000e+00
-2.973085187550086883e-02
0.000000000000000000e+00
-1.195613432013775852e-02
-5.673350336430162122e-03
0.000000000000000000e+00
0.000000000000000000e+00
0.000000000000000000e+00
-2.705263407911276765e-04
-6.191909091397201220e-03
7.726569142746320812e-03
4.687522716063469846e-02
0.000000000000000000e+00
0.000000000000000000e+00
0.000000000000000000e+00
-9.685379375987086120e-03
0.000000000000000000e+00
-1.385295335712111442e-01
-3.761535748168951532e-01
-2.294671063637482300e-03
1.343965968043383434e-03
0.000000000000000000e+00
0.000000000000000000e+00
0.000000000000000000e+00
0.000000000000000000e+00
7.452841054777649518e-05
0.000000000000000000e+00
-3.411534217644869495e-03
-7.545617828133835935e-03
-1.629012378190790866e-01
-2.541993934153232576e-02
3.008531715048474910e-03
0.000000000000000000e+00
-3.593038071390722548e-03
-4.888358402538120658e-03
0.000000000000000000e+00
6.431706413903282883e-03
-3.072967440212229576e-02
6.607683930794984450e-02
0.000000000000000000e+00
0.000000000000000000e+00
6.990113758128132376e-03
-1.473669218482440732e-05
4.392317618345089464e-02
0.000000000000000000e+00
6.181652481794440712e-01
4.843796332858680415e-02
-1.254586825705169065e-02
0.000000000000000000e+00
0.000000000000000000e+00
0.000000000000000000e+00
0.000000000000000000e+00
-5.108707884617976619e-03
9.966345809760646102e-02
0.000000000000000000e+00
-8.846489247797689401e-03
0.000000000000000000e+00
-9.157255167716971817e-03
3.116879881989292334e-01
0.000000000000000000e+00
0.000000000000000000e+00
0.000000000000000000e+00
8.129518506679417843e-05
1.413702979937925264e-01
-6.825754559816859385e-04
3.187049840716831700e-02
-5.291720433359770742e-02
0.000000000000000000e+00
0.000000000000000000e+00
4.792613954846639511e-03
0.000000000000000000e+00
0.000000000000000000e+00
5.075094190756608906e-03
0.000000000000000000e+00
0.000000000000000000e+00
0.000000000000000000e+00
0.000000000000000000e+00
-7.729815005467986430e-03
0.000000000000000000e+00
0.000000000000000000e+00
3.614514289138603953e-02
0.000000000000000000e+00
-5.518428936303315657e-02
0.000000000000000000e+00
1.050687172131943570e-01
-2.192355267328458847e-03
2.449307158902873718e-02
1.187293346076911081e-02
3.024769263554627496e-02
-1.215957661399272478e-02
-1.026917858158648139e-01
-2.178128711303826265e-03
0.000000000000000000e+00
8.683937433135890949e-03
-5.131941496445624473e-02
0.000000000000000000e+00
-1.443674149487635464e-02
0.000000000000000000e+00
-2.755172339667092372e-03
0.000000000000000000e+00
0.000000000000000000e+00
3.493364684561827554e-02
-3.207672146561452164e-02
0.000000000000000000e+00
-5.168818584284310541e-03
0.000000000000000000e+00
0.000000000000000000e+00
0.000000000000000000e+00
-1.748912845001166297e-03
0.000000000000000000e+00
4.928225421877792736e-03
-8.288191510610838642e-02
2.325914566063960742e-02
0.000000000000000000e+00
0.000000000000000000e+00
-8.925440076651268428e-03
-1.857705372324912618e-01
0.000000000000000000e+00
0.000000000000000000e+00
0.000000000000000000e+00
1.325789610642554572e-01
4.309661367242167453e-03
-3.605372170613257987e-01
0.000000000000000000e+00
4.943007849455198152e-03
0.000000000000000000e+00
0.000000000000000000e+00
0.000000000000000000e+00
1.409342791708445286e-01
-3.220290014869623980e-03
0.000000000000000000e+00
3.318339349048166631e-01
0.000000000000000000e+00
0.000000000000000000e+00
1.411472392219372332e-02
0.000000000000000000e+00
-2.208908650845701344e-02
-6.887474963855644283e-02
0.000000000000000000e+00
0.000000000000000000e+00
-4.447405758872512442e-06
0.000000000000000000e+00
0.000000000000000000e+00
0.000000000000000000e+00
-3.375136692494313390e-02
0.000000000000000000e+00
0.000000000000000000e+00
0.000000000000000000e+00
1.586224729042157514e-02
2.336415466382199947e-04
0.000000000000000000e+00
0.000000000000000000e+00
0.000000000000000000e+00
-1.399331516166054061e-05
-4.830505570591879863e-03
0.000000000000000000e+00
0.000000000000000000e+00
-3.992904471444427839e-02
0.000000000000000000e+00
0.000000000000000000e+00
0.000000000000000000e+00
-7.755190404952487515e-02
0.000000000000000000e+00
0.000000000000000000e+00
3.596401208365501923e+00
0.000000000000000000e+00
0.000000000000000000e+00
2.534215981498075775e-03
0.000000000000000000e+00
0.000000000000000000e+00
0.000000000000000000e+00
0.000000000000000000e+00
2.094935263528282122e-03
0.000000000000000000e+00
0.000000000000000000e+00
0.000000000000000000e+00
0.000000000000000000e+00
0.000000000000000000e+00
0.000000000000000000e+00
0.000000000000000000e+00
-7.082072034805092856e-03
0.000000000000000000e+00
4.790414340510258662e-02
0.000000000000000000e+00
0.000000000000000000e+00
7.228102275325712020e-03
1.858703407257117531e-03
-6.552043519686400212e-05
-1.007064049410916380e-02
0.000000000000000000e+00
0.000000000000000000e+00
0.000000000000000000e+00
-3.816983133060620342e-02
0.000000000000000000e+00
0.000000000000000000e+00
0.000000000000000000e+00
0.000000000000000000e+00
0.000000000000000000e+00
2.307297363406491178e-02
4.056290882954164854e-05
0.000000000000000000e+00
0.000000000000000000e+00
0.000000000000000000e+00
0.000000000000000000e+00
0.000000000000000000e+00
0.000000000000000000e+00
0.000000000000000000e+00
0.000000000000000000e+00
1.235489230500596974e-01
-1.582138548222850440e-03
-1.213306128872520540e-01
-8.190656461121739685e-04
0.000000000000000000e+00
2.287773148518783099e-03
0.000000000000000000e+00
0.000000000000000000e+00
0.000000000000000000e+00
0.000000000000000000e+00
0.000000000000000000e+00
0.000000000000000000e+00
0.000000000000000000e+00
0.000000000000000000e+00
0.000000000000000000e+00
0.000000000000000000e+00
0.000000000000000000e+00
1.344913797746034347e-02
0.000000000000000000e+00
1.626816688186283333e-02
0.000000000000000000e+00
9.672972020028987317e-03
-3.306466639764223808e-02
0.000000000000000000e+00
0.000000000000000000e+00
0.000000000000000000e+00
0.000000000000000000e+00
0.000000000000000000e+00
0.000000000000000000e+00
0.000000000000000000e+00
-7.228235215876895742e-03
0.000000000000000000e+00
1.932448957006449369e-03
2.809904460705691526e-02
7.272197079168449263e-02
1.261474356014870637e-02
0.000000000000000000e+00
0.000000000000000000e+00
0.000000000000000000e+00
0.000000000000000000e+00
0.000000000000000000e+00
0.000000000000000000e+00
0.000000000000000000e+00
1.049858610382987294e-03
-7.377917305443570939e-03
0.000000000000000000e+00
0.000000000000000000e+00
0.000000000000000000e+00
0.000000000000000000e+00
-1.059555109684723155e-02
1.233202981173972881e-02
0.000000000000000000e+00
0.000000000000000000e+00
0.000000000000000000e+00
0.000000000000000000e+00
0.000000000000000000e+00
1.428231747160059809e-03
8.158801421941023601e-04
2.124668672116800455e-05
0.000000000000000000e+00
1.587537294107813426e-02
8.815865881042371857e-03
0.000000000000000000e+00
0.000000000000000000e+00
0.000000000000000000e+00
0.000000000000000000e+00
0.000000000000000000e+00
-1.073939540587870792e-03
-2.060759191947621541e-03
0.000000000000000000e+00
-6.573481385687470618e-04
-6.251197579932263673e-03
0.000000000000000000e+00
2.665231526635949803e-03
1.246485779120697079e-03
0.000000000000000000e+00
0.000000000000000000e+00
-1.068319930998757336e-03
-1.279620738781787719e-02
0.000000000000000000e+00
0.000000000000000000e+00
0.000000000000000000e+00
3.570472153585899089e-03
3.496454685906963400e-01
0.000000000000000000e+00
6.980438731175177269e-02
8.429804601983741444e-03
2.552027978277179865e-01
0.000000000000000000e+00
9.611724154147372693e-04
5.569762306801386009e-02
0.000000000000000000e+00
0.000000000000000000e+00
0.000000000000000000e+00
-3.607217544917207188e-04
-2.686243677012623097e-03
-1.093799890726036839e-02
0.000000000000000000e+00
1.366399207430355790e-02
-4.682808430638849689e-02
-1.293199016015244987e-03
3.013296217197314331e-03
4.564843265110443693e-02
-3.734711328205209818e-02
-8.083477468971393340e-03
-1.245286717605296155e-02
1.256603177760889055e-02
0.000000000000000000e+00
1.118842066961650518e-03
0.000000000000000000e+00
-8.677059829346100983e-02
2.880712018792599416e-01
-2.294545095849414434e-02
-8.928319923963494789e-03
-2.497572289260409015e-03
0.000000000000000000e+00
0.000000000000000000e+00
0.000000000000000000e+00
0.000000000000000000e+00
-4.728588486623820641e-02
0.000000000000000000e+00
0.000000000000000000e+00
8.749064900798153577e-02
-7.059088801095925181e-02
0.000000000000000000e+00
3.016607453261560545e-02
0.000000000000000000e+00
0.000000000000000000e+00
3.838411524800189323e-02
3.796292991493316425e-03
-1.869022920896759310e-01
-1.768478622908759013e-01
-3.375606769973128751e-02
-7.419738341595394707e-03
-4.690402557050691451e-02
0.000000000000000000e+00
1.503733503659581208e-02
-3.454544161192023011e-01
0.000000000000000000e+00
0.000000000000000000e+00
0.000000000000000000e+00
7.372392430014784726e-02
2.189325840423356987e-03
0.000000000000000000e+00
0.000000000000000000e+00
0.000000000000000000e+00
0.000000000000000000e+00
0.000000000000000000e+00
0.000000000000000000e+00
0.000000000000000000e+00
0.000000000000000000e+00
0.000000000000000000e+00
-4.337268259683426047e-04
-1.276656781214610681e-02
-1.622491530220973865e-01
-5.871479864087780038e-04
0.000000000000000000e+00
0.000000000000000000e+00
-4.707757703758740433e-03
-1.229470146975053741e-03
4.473896968497896587e-02
1.496616671383164954e-02
0.000000000000000000e+00
0.000000000000000000e+00
0.000000000000000000e+00
0.000000000000000000e+00
1.121402698030551232e-02
2.504261490401242171e-02
-5.209254124458505275e-02
-3.828960096466334229e-03
-5.151708961702726464e-02
0.000000000000000000e+00
0.000000000000000000e+00
1.277230101426198895e-03
0.000000000000000000e+00
0.000000000000000000e+00
0.000000000000000000e+00
0.000000000000000000e+00
0.000000000000000000e+00
3.100696900486071567e-03
0.000000000000000000e+00
2.474582824275357081e-03
0.000000000000000000e+00
0.000000000000000000e+00
2.524398012696540960e-02
-1.012238561863538708e-03
0.000000000000000000e+00
2.243175533982325835e-03
-2.021289446462144201e-01
7.896716906836817249e-04
0.000000000000000000e+00
-1.518439552240191844e-03
7.458486014764263011e-03
-4.743111980689473581e-03
3.073283821720891942e-02
0.000000000000000000e+00
-1.076424747134582284e-02
-6.701148516225202863e-03
8.767163561261039906e-01
0.000000000000000000e+00
7.856641357417346733e-03
-1.399283794789694113e-01
0.000000000000000000e+00
0.000000000000000000e+00
4.145285557639668238e-03
-1.382679207347693229e+00
0.000000000000000000e+00
4.617828123464188562e-04
0.000000000000000000e+00
0.000000000000000000e+00
-8.809519663796151756e-02
-5.198007806062951777e-03
6.270618721824496034e-02
0.000000000000000000e+00
-2.699155750026648037e-02
0.000000000000000000e+00
5.360855348700268447e-02
-6.112581222229836544e-05
1.578633629549736073e-02
0.000000000000000000e+00
0.000000000000000000e+00
2.166224517505639310e-02
-4.118527206440036198e-02
-1.051542494120641792e-04
0.000000000000000000e+00
0.000000000000000000e+00
-1.220876920621440376e-01
7.198025252759601700e-02
-9.362255782644790872e-03
-7.638893842235643106e-03
2.291030877017585180e-03
-3.048494873923628026e-03
-4.230042010943561692e+00
-3.064954315334245637e-03
-2.774077742312159450e-02
0.000000000000000000e+00
0.000000000000000000e+00
1.280066293185092366e-02
-6.677133145858546448e-02
-1.507684057075664094e-02
0.000000000000000000e+00
0.000000000000000000e+00
-1.884708191584190048e-03
1.353648274420871924e-03
2.370578262985055182e-02
0.000000000000000000e+00
0.000000000000000000e+00
0.000000000000000000e+00
0.000000000000000000e+00
0.000000000000000000e+00
0.000000000000000000e+00
3.495823252213790533e-01
-2.573201498169970236e-01
0.000000000000000000e+00
0.000000000000000000e+00
0.000000000000000000e+00
-3.276950341629384332e-03
-2.271809866100137076e-02
0.000000000000000000e+00
0.000000000000000000e+00
9.459568013479830546e-04
-2.153470357885492448e-04
7.913170683211961584e-03
5.921165088985901048e-02
0.000000000000000000e+00
-7.196017393257107819e-02
-1.103305572656912426e-01
2.901294843376389654e-02
-2.427999214446865039e+01
2.610354699864072137e-03
-1.184401814930749822e-02
3.124642582393239928e-02
0.000000000000000000e+00
-7.714484162748842799e-03
-5.643288779627376323e-02
0.000000000000000000e+00
0.000000000000000000e+00
0.000000000000000000e+00
0.000000000000000000e+00
-9.302312634680150530e-03
-6.170083448814619315e-02
0.000000000000000000e+00
0.000000000000000000e+00
0.000000000000000000e+00
0.000000000000000000e+00
0.000000000000000000e+00
0.000000000000000000e+00
-4.482144364715507506e-02
-4.384782348841724797e-01
4.762012594188906600e-02
8.629562283983292304e-04
4.123931410849171475e-03
0.000000000000000000e+00
-5.554784911647154579e-03
-5.416190463027394791e-02
2.450169941569901345e-03
-1.332906797675349406e-02
6.989297003164191002e-02
4.601993201286571078e-01
1.417689362457298305e-02
-2.611257540413710609e-01
0.000000000000000000e+00
2.590514740331885390e-02
-1.777010851799772251e+00
-6.293707124096734965e-06
1.231511143306903214e-02
-2.264307527358882766e+01
0.000000000000000000e+00
0.000000000000000000e+00
-8.756922272701105070e-03
0.000000000000000000e+00
1.238359929690990846e-01
-2.967020224819382282e-02
-4.474167150173229135e-02
0.000000000000000000e+00
2.764491499255115111e-03
3.204348053168722989e-03
0.000000000000000000e+00
-1.868945103265820485e-03
2.019835079419399215e-03
0.000000000000000000e+00
9.837454178022514081e-04
5.148417690034511329e-01
-5.097757640374648958e+00
-3.368242288644687776e-01
-1.134403806316286634e+01
4.153275917854634680e-02
-9.023371303840277413e-02
-1.164086750663650277e-02
-4.131000640174480737e-02
-4.178209082737198606e-04
1.459893051571219385e-03
-9.527707909118129925e-02
3.950281923282941351e-03
-4.610149811492452246e-03
-1.077961343343046812e-03
-6.430434310998369915e-03
2.073135269754814661e-03
4.492371295639339956e-02
-1.373185619865485485e+00
-4.312035641271813602e-02
-2.563069402344698641e-02
-1.407977230364216015e-01
-6.054062001390273992e-03
-7.183588834603593892e-05
-3.043403298354067643e-01
0.000000000000000000e+00
8.967739919227588063e-02
-1.478246505190974783e-04
2.924126645427573001e-02
0.000000000000000000e+00
0.000000000000000000e+00
0.000000000000000000e+00
0.000000000000000000e+00
1.027216912264900528e-01
0.000000000000000000e+00
0.000000000000000000e+00
-8.338488589675016951e-03
-6.397062915950180173e-02
-5.914674914545526851e-01
-2.340792720477782862e-01
-5.399907787256182090e-02
-2.324272825934938780e+00
-6.564301087366337939e-02
4.630309575262517297e-01
0.000000000000000000e+00
2.113179089637776953e-01
2.337273870019430655e-01
-1.334356468215890795e-02
0.000000000000000000e+00
1.979505341470455190e-02
-6.280825365867886631e-03
-3.019920152651701106e-01
7.385288304480681909e-02
-7.375264273272268412e-01
0.000000000000000000e+00
1.014531796088487259e-01
4.572662843720395193e-02
-1.703017800285820393e-01
-3.765238077640434833e-01
2.998542978383494928e-02
0.000000000000000000e+00
8.086414385202923827e-02
-3.702094705640078531e-02
0.000000000000000000e+00
0.000000000000000000e+00
0.000000000000000000e+00
-3.155137635812192975e-01
-3.510462998581722061e-01
-1.278936006158002403e-01
-3.640298328092625435e-02
-1.452959578369921421e-02
0.000000000000000000e+00
0.000000000000000000e+00
1.227694999549636470e-02
1.178308660683453496e-01
6.118536830225844436e-02
2.173622986531968150e-03
-6.925946760552648736e-04
-1.423967246539551085e-03
-7.125390461612981022e-03
2.794207815505200809e-02
0.000000000000000000e+00
-5.469016740204818428e-01
1.052423062260134101e-01
-3.482223663679098746e-02
-5.509000406037707631e-02
1.248604562153985721e-02
-3.335190768176342080e-01
2.609388071003346243e-03
-2.992907042237175075e-01
1.088368783499770037e-01
-1.445555313071385239e-01
8.532559873928448058e-01
-1.530835872866113390e-01
-1.151584263378231145e-02
-2.523001881699838966e-01
2.689454491663829938e-02
0.000000000000000000e+00
0.000000000000000000e+00
1.359046211707038744e-02
1.461225054799988876e-01
4.455301622321991627e-04
5.065216313743495929e-02
6.962712376731418872e-03
-4.703665106665878143e-02
0.000000000000000000e+00
2.525626287792958821e-02
0.000000000000000000e+00
8.243860715109018866e-04
-4.903586186167770226e-05
0.000000000000000000e+00
1.047639443952606553e-01
2.909075022729267802e-03
5.795417805367197980e-05
-2.856322123537689741e-04
4.090445618660849825e-02
-6.947665052864031299e-03
-6.894999474134712258e+00
-3.104550662567983135e-02
0.000000000000000000e+00
-2.067520444922562317e-01
-9.436784147573133719e-02
-1.454460977628824333e-03
-3.925491283898120860e-03
-3.980186859720952555e-03
-1.025701249828648365e+01
-4.630125474638840249e-02
-8.749897553651847515e-02
-7.676038155652269547e-04
5.296845029430052171e-02
-3.362564363268778500e-01
-1.048584960111750841e-01
2.728462920780940770e-01
5.492521388142683481e-02
0.000000000000000000e+00
3.838528764303457130e-01
-1.609207198911735259e-03
1.903231774475708932e-02
0.000000000000000000e+00
-6.331725818435338105e-02
-3.905789931759967581e-01
4.140894145408913901e-02
-3.634996811084204721e-03
0.000000000000000000e+00
-5.014025063784113834e-02
7.068395100586135661e-03
3.914381220948649764e-03
1.144202220957230790e-03
-3.554455128842520101e-02
0.000000000000000000e+00
3.385795381176539998e+00
-9.924139051723855631e-02
1.625496546061116487e-01
-3.445050013023997527e-03
0.000000000000000000e+00
-1.266798733178130590e-02
1.908739182633546472e-01
6.589455985920489312e-01
-6.444566497233730762e-02
6.338687207683652361e-03
1.055229259846014456e-01
0.000000000000000000e+00
-8.129277970724427260e-02
8.682035915042083385e-01
0.000000000000000000e+00
-5.523538424380431550e-03
-3.521480813358085493e-02
3.081540617420532036e-03
0.000000000000000000e+00
0.000000000000000000e+00
-8.014102521032184789e-02
-1.000040543832170399e-02
0.000000000000000000e+00
-1.385538984484009639e-01
-3.903372716030624012e-04
1.677578729697454946e-02
0.000000000000000000e+00
-9.198156684351310730e-02
-1.301099576264089057e-02
1.454177425864445344e-02
1.178568295687235437e-02
-3.351306408857849561e+01
8.108056598113080535e-03
5.390021607726217523e-01
5.607486515059073584e-03
-2.276717017698973861e-02
2.297825464175748400e-01
-1.557897353421483153e-02
-8.653277092530407832e-03
0.000000000000000000e+00
0.000000000000000000e+00
0.000000000000000000e+00
0.000000000000000000e+00
6.600309647173893419e-04
4.631236194072317625e-03
-1.072857872067351642e-02
1.345870773109698826e+00
-5.014412231436537332e-02
-5.890416123660840997e-02
3.291857944147937812e-03
3.296492012517578812e-02
-4.793018719503271650e-03
4.883667529424148834e-02
0.000000000000000000e+00
-3.818980692822195044e-03
0.000000000000000000e+00
0.000000000000000000e+00
1.336496382694023341e-03
1.201884032720296024e-04
2.876961053997101683e-02
-3.082749969222885189e-02
-6.337407209452098223e-04
-1.843861607279988907e-02
0.000000000000000000e+00
2.108629246555302102e-03
0.000000000000000000e+00
0.000000000000000000e+00
-1.947139845295532863e-03
0.000000000000000000e+00
1.807508686013213905e-01
3.708806502837567187e-01
-1.743710445455595393e+00
-2.022842689101976565e-02
2.568712585542244908e-01
0.000000000000000000e+00
6.250193980026969758e-04
8.946615366575508266e-02
0.000000000000000000e+00
0.000000000000000000e+00
0.000000000000000000e+00
9.950515260174127088e-03
-1.063059693045941868e-02
-3.530802033346774199e-02
0.000000000000000000e+00
0.000000000000000000e+00
-1.234081540478499349e-02
5.465866670437407628e-03
-1.330361553805429753e-01
-4.103386390918428023e-02
-1.676107275051498969e-03
-9.016292186433596395e-03
1.267244525524107573e-03
0.000000000000000000e+00
8.451054597786436182e-03
-6.865982762115502291e-03
-4.175756099886713396e-02
2.394770367991214469e-02
0.000000000000000000e+00
0.000000000000000000e+00
0.000000000000000000e+00
-1.303276501746616911e-02
9.813250031052106692e+00
5.103546658282459569e-01
-7.027259142312095030e-02
2.104332053280818723e-02
0.000000000000000000e+00
0.000000000000000000e+00
0.000000000000000000e+00
3.212188092314427479e-02
1.930327406046145750e-02
-4.501206468677400041e-01
2.905298912507271736e-04
2.566463716571184064e-03
2.860549662501866985e-02
-2.179889247619354364e+01
-1.528031498005302247e-01
-2.059131602939594241e-02
0.000000000000000000e+00
4.299439564594281782e-02
-8.834162582711227799e-03
-1.191674783864834913e-01
1.304870592823283160e-03
0.000000000000000000e+00
-9.436550629779918032e-04
-1.329412768303164273e-02
7.389538564846136193e-02
2.500823221114078621e+01
1.320335159716273798e-01
-5.310237743460030288e-03
3.508178815357939836e-03
-2.013533529777599210e-02
0.000000000000000000e+00
0.000000000000000000e+00
4.391811158198370008e-02
0.000000000000000000e+00
-2.106172615370114146e-03
-6.901171113003623514e-02
0.000000000000000000e+00
2.633306652455172370e-01
5.254683861308108439e-02
0.000000000000000000e+00
1.311779505513707613e-03
-2.779781884920010451e-02
1.264977001056885944e-03
-6.008617104850936044e-03
1.082738048365885219e-01
-1.136188768436836513e-02
-2.202074441080360823e-02
8.994592712914177557e-02
0.000000000000000000e+00
0.000000000000000000e+00
-3.225145888655699122e-02
2.276726941539404178e-02
1.629831725315484398e-02
-1.085756352201148189e+00
-6.950311463309425146e-04
-3.126578944526704762e-02
0.000000000000000000e+00
-7.325784972142139750e-01
1.568485407701172840e-03
1.175806181695110246e-02
-7.514008382218352426e-03
-2.023363095077447549e-02
-2.283201610247134403e-02
0.000000000000000000e+00
0.000000000000000000e+00
-1.583883110335879141e-02
3.162966817213368032e+00
1.492891506723606314e-03
5.638101539021410646e-01
-2.398500559977657584e-03
-1.378899657294174047e-02
2.610617616238828376e-01
-1.025038152845117630e-02
1.742630622619815439e-01
5.041863952412683168e-03
-6.184297730086570251e-03
0.000000000000000000e+00
0.000000000000000000e+00
0.000000000000000000e+00
-6.537713220076111220e-01
0.000000000000000000e+00
0.000000000000000000e+00
0.000000000000000000e+00
6.747703006210875425e-03
0.000000000000000000e+00
0.000000000000000000e+00
-1.633190762876089441e-01
-1.868516572248550389e+00
-6.720838907079204616e-02
1.826304719801873436e-03
9.580808167832832734e-02
-5.803713357542243656e-02
-1.828987612002972163e-01
-2.570985912681842192e-02
-1.692448224238239929e-01
-5.767022244261473668e-02
-1.329548411934046090e-02
-9.749998037383994509e-02
-2.973414460470942371e-03
0.000000000000000000e+00
9.349588017645480385e-04
3.426634774873197481e-02
8.258370681520256495e-02
1.905742710668682782e-02
-2.385461549879332524e-02
-2.019423554049759150e-04
0.000000000000000000e+00
0.000000000000000000e+00
0.000000000000000000e+00
-3.499692745357849220e-03
-2.699496080225699795e-03
0.000000000000000000e+00
0.000000000000000000e+00
0.000000000000000000e+00
0.000000000000000000e+00
3.897838433647359165e-03
2.312635404218544438e-02
-1.598152058074768511e-02
-2.121643854543088861e-02
2.713885368805731696e-02
-2.726726462263097048e-02
-4.531618686827191211e-04
-1.218766718594448519e-03
-9.882993118662582871e-03
-3.320618986627493774e-02
0.000000000000000000e+00
-4.222211960730454412e-03
0.000000000000000000e+00
-9.101277363653415822e-04
0.000000000000000000e+00
-2.203171879640726874e-02
0.000000000000000000e+00
-3.289272093593778763e-03
-6.951505868033201925e-03
3.320497539131887776e-02
-1.573612354516123329e-02
0.000000000000000000e+00
0.000000000000000000e+00
8.611140701662154577e-04
0.000000000000000000e+00
0.000000000000000000e+00
1.749196975946807769e-06
0.000000000000000000e+00
0.000000000000000000e+00
0.000000000000000000e+00
8.525532549673413285e-03
-2.438370677354745331e-01
-9.768211057162667563e-03
0.000000000000000000e+00
-1.461118765527133490e-01
0.000000000000000000e+00
-1.711047297647320681e-03
2.100205915865338885e-05
1.514669144021095135e-02
0.000000000000000000e+00
-5.776468043846077555e-05
0.000000000000000000e+00
3.732024389053679309e-02
4.707444756584777124e-01
1.094768845729527790e-01
-6.204498080958877060e-02
0.000000000000000000e+00
-1.566426587105777292e-03
4.333138478722311409e-04
3.797202397020120468e-02
-4.563029503643747931e-02
-3.886583300747855317e-03
-1.985972713341501439e-01
-1.081433256729129877e-01
-2.562585657142312304e-02
0.000000000000000000e+00
0.000000000000000000e+00
-5.818229003458173787e-02
-1.439140088770508169e-02
-8.032152890579666304e-03
0.000000000000000000e+00
-1.639021615531929821e-01
-9.013856500181953793e-03
1.069962933329097858e-03
0.000000000000000000e+00
0.000000000000000000e+00
6.919663879179031168e-03
-7.161946965090049133e-02
-2.371528863188815742e-02
0.000000000000000000e+00
0.000000000000000000e+00
-1.932682528656121286e-03
-4.433372403038033510e-02
-2.683331866895460882e-02
-9.558126136654571461e-03
-7.737270834537915420e-02
0.000000000000000000e+00
-1.931629191856321648e-01
-9.258936764665001186e-04
0.000000000000000000e+00
0.000000000000000000e+00
0.000000000000000000e+00
5.815749227055752070e-03
-9.483195999454696991e-04
0.000000000000000000e+00
-3.715606086844583378e-03
5.325003952633103887e-01
0.000000000000000000e+00
5.496656924307342929e-02
1.288809189972845437e-01
3.813599984923400849e-04
1.488351204373194537e-03
0.000000000000000000e+00
-1.081317728091203273e-01
-8.558435761440409684e-02
0.000000000000000000e+00
9.651793954036700859e-03
0.000000000000000000e+00
6.314303561192970843e-03
-8.844404924048029915e-02
-1.719021189101504338e-02
-9.001660345216086490e-03
0.000000000000000000e+00
0.000000000000000000e+00
0.000000000000000000e+00
6.901014151331828772e-02
0.000000000000000000e+00
-5.679850722853006795e-02
-9.266212668211974701e-03
0.000000000000000000e+00
-2.043036052906212902e-02
-1.462410109013989948e-02
0.000000000000000000e+00
-1.780277775459220349e-02
-1.063441541876298906e-02
0.000000000000000000e+00
-5.122879269031743819e-04
1.903994769619408653e-02
-7.772490189822769437e-05
-1.889699678307501260e-04
-1.326860573252630106e-02
0.000000000000000000e+00
2.422182714154109268e-02
0.000000000000000000e+00
0.000000000000000000e+00
0.000000000000000000e+00
3.314123924148924035e-03
3.247021165694094491e-02
0.000000000000000000e+00
-2.568906757518397699e-01
0.000000000000000000e+00
8.474331297019477294e-02
0.000000000000000000e+00
-7.517270070069092397e-03
5.989757755172472366e-03
-9.115986414176671659e-03
5.131189154932390417e-02
3.579421317520687425e-03
2.028398761203851575e-04
0.000000000000000000e+00
1.873363742706726266e-03
-2.619744156116157567e-03
0.000000000000000000e+00
0.000000000000000000e+00
0.000000000000000000e+00
0.000000000000000000e+00
0.000000000000000000e+00
-1.073686744007933624e+00
2.199418642062146434e-01
-2.387199120130749537e-03
2.195630255441398740e-02
3.986182189592658853e-02
0.000000000000000000e+00
1.902335469576026117e-02
5.472805192020023871e-03
0.000000000000000000e+00
-7.299607231448419775e-02
-8.024696084664444291e-04
0.000000000000000000e+00
0.000000000000000000e+00
-9.743461767104140544e-05
0.000000000000000000e+00
-1.376657246169617210e-01
-1.344073579036381139e-02
-5.101111882342799358e-02
1.588847151701094917e-02
4.101118842863150926e-02
0.000000000000000000e+00
-3.523206122466609417e-03
0.000000000000000000e+00
-2.582368659269373284e-03
4.538136584227103060e-02
0.000000000000000000e+00
0.000000000000000000e+00
0.000000000000000000e+00
2.603035674705199698e-01
-4.500149992383902231e-01
0.000000000000000000e+00
0.000000000000000000e+00
0.000000000000000000e+00
0.000000000000000000e+00
7.175042826399886421e-03
2.864868549347115339e-04
0.000000000000000000e+00
3.049321788454953386e-01
1.006044424495846669e-02
0.000000000000000000e+00
0.000000000000000000e+00
0.000000000000000000e+00
-6.572505626032495996e-02
0.000000000000000000e+00
-4.516723032743561166e-04
-5.833169796472597451e-02
9.133829610677069236e-03
0.000000000000000000e+00
0.000000000000000000e+00
8.752051979271122106e-02
0.000000000000000000e+00
-6.113937755670884218e-03
-1.000123075624138793e-03
-8.327188723321813160e-03
0.000000000000000000e+00
0.000000000000000000e+00
0.000000000000000000e+00
0.000000000000000000e+00
2.528219717615911091e-03
0.000000000000000000e+00
-1.896227225785046544e-02
1.308229864934882993e-03
0.000000000000000000e+00
0.000000000000000000e+00
0.000000000000000000e+00
-7.157304751062911483e-04
0.000000000000000000e+00
0.000000000000000000e+00
0.000000000000000000e+00
-6.469321668834171479e-02
-2.477468462278526796e-04
0.000000000000000000e+00
-6.342059538263152517e-03
-2.966301650690332525e-03
4.921682347458614104e-03
1.071128007389719750e-02
-5.350371854817197528e-03
0.000000000000000000e+00
0.000000000000000000e+00
0.000000000000000000e+00
0.000000000000000000e+00
0.000000000000000000e+00
2.121396577845735890e-03
6.739807044555143865e-03
2.525374015232535047e-02
6.177079454400423789e-03
0.000000000000000000e+00
0.000000000000000000e+00
0.000000000000000000e+00
-1.183551747892151902e-02
0.000000000000000000e+00
0.000000000000000000e+00
0.000000000000000000e+00
0.000000000000000000e+00
0.000000000000000000e+00
0.000000000000000000e+00
9.251429875715823023e-03
1.991473700764714305e-01
-1.231008119714478797e-04
0.000000000000000000e+00
0.000000000000000000e+00
6.827942496227922507e-03
0.000000000000000000e+00
0.000000000000000000e+00
-1.688170605125967848e-04
-2.495545074946110137e-02
0.000000000000000000e+00
0.000000000000000000e+00
0.000000000000000000e+00
0.000000000000000000e+00
0.000000000000000000e+00
0.000000000000000000e+00
0.000000000000000000e+00
0.000000000000000000e+00
0.000000000000000000e+00
0.000000000000000000e+00
-5.748451288212125948e-03
3.846437360104226766e-02
6.400614390940875809e-02
-3.117029395836583999e-04
0.000000000000000000e+00
4.362741282825234428e-04
0.000000000000000000e+00
0.000000000000000000e+00
3.529090343199622285e-03
2.907636346952987942e-03
-8.778444896336534339e-03
0.000000000000000000e+00
0.000000000000000000e+00
0.000000000000000000e+00
0.000000000000000000e+00
0.000000000000000000e+00
-4.224666489122495816e-02
-1.163184725130466529e-02
-4.021950065916530745e-03
-2.720877701547629035e-03
-1.188254535181430260e-01
0.000000000000000000e+00
0.000000000000000000e+00
-1.031988507207487298e-02
1.653634387865538305e-02
0.000000000000000000e+00
0.000000000000000000e+00
0.000000000000000000e+00
0.000000000000000000e+00
-9.091167837132792381e-04
6.412918706797110513e-04
-3.517576571767164206e-02
-1.175062334868693346e-02
-8.690973794366139548e-04
0.000000000000000000e+00
0.000000000000000000e+00
0.000000000000000000e+00
8.191213894538652840e-02
9.306952909142504615e-03
0.000000000000000000e+00
0.000000000000000000e+00
0.000000000000000000e+00
4.066681664297858633e-04
0.000000000000000000e+00
4.646160004615616790e-02
1.136486502837970314e-01
0.000000000000000000e+00
1.607671133746515460e-05
-1.167702388603138013e-03
-6.186066004591798950e-02
0.000000000000000000e+00
0.000000000000000000e+00
4.379351875072838574e-02
3.999204774413301299e-04
1.351184097304303743e-02
3.115519929087254836e-01
-1.430224730670019706e-02
-5.611144214874497910e-02
0.000000000000000000e+00
5.670898596238053285e-02
4.084326681646480856e-02
-5.668377106403425184e-04
-2.252114668174900330e-02
8.998474918144424434e-03
0.000000000000000000e+00
0.000000000000000000e+00
-1.252481488292391254e-01
0.000000000000000000e+00
0.000000000000000000e+00
0.000000000000000000e+00
-1.859844170198247026e-03
0.000000000000000000e+00
0.000000000000000000e+00
0.000000000000000000e+00
-3.215181318501136309e-01
-1.447986883263798763e-01
-1.589080085596215539e-02
0.000000000000000000e+00
0.000000000000000000e+00
0.000000000000000000e+00
0.000000000000000000e+00
0.000000000000000000e+00
0.000000000000000000e+00
0.000000000000000000e+00
0.000000000000000000e+00
0.000000000000000000e+00
0.000000000000000000e+00
0.000000000000000000e+00
0.000000000000000000e+00
0.000000000000000000e+00
0.000000000000000000e+00
0.000000000000000000e+00
0.000000000000000000e+00
7.683426189591899269e-02
2.027020377689519870e-01
-3.274587479790562125e-03
2.275557984735998920e-02
8.162768050735150216e-02
0.000000000000000000e+00
0.000000000000000000e+00
0.000000000000000000e+00
0.000000000000000000e+00
0.000000000000000000e+00
6.877147624016569094e-02
-4.721572400148827536e-03
0.000000000000000000e+00
3.150156913574911344e-02
3.797986807458017533e-01
3.250045306938837211e-03
0.000000000000000000e+00
4.644558340926985968e-02
0.000000000000000000e+00
0.000000000000000000e+00
1.445195999495467731e-01
-3.654130125012285471e-03
0.000000000000000000e+00
6.895990091890287325e-03
5.424349221759040135e-03
-2.682752697482437831e-02
0.000000000000000000e+00
0.000000000000000000e+00
0.000000000000000000e+00
5.088864077751802627e-03
-1.745382175120360887e-03
-3.223517137609680124e-03
-5.542486053504720733e-03
0.000000000000000000e+00
-1.948372781197751230e-02
1.451459933829802040e-01
0.000000000000000000e+00
0.000000000000000000e+00
0.000000000000000000e+00
0.000000000000000000e+00
0.000000000000000000e+00
0.000000000000000000e+00
0.000000000000000000e+00
4.095193103339600516e-02
0.000000000000000000e+00
1.421879556380912547e-02
-3.022912334637511272e-02
0.000000000000000000e+00
1.928984735028667179e-03
9.571838713301620075e-03
2.471201777239849864e-03
-5.620038682930794324e-03
0.000000000000000000e+00
0.000000000000000000e+00
1.204707607488092642e-02
-8.718201211469306334e-04
2.642569636544353246e-03
0.000000000000000000e+00
-6.072069762811080351e-02
0.000000000000000000e+00
0.000000000000000000e+00
0.000000000000000000e+00
0.000000000000000000e+00
0.000000000000000000e+00
2.892054289625686954e-03
0.000000000000000000e+00
-5.080940874226487144e-04
8.126300259562192199e-04
0.000000000000000000e+00
-3.346118567943118238e-02
1.782854556276790986e-02
4.323348031006842354e-03
0.000000000000000000e+00
0.000000000000000000e+00
0.000000000000000000e+00
1.511342991977012752e-02
-7.848566637974391594e-03
-6.294843902729538310e-02
5.966379869333509472e-02
0.000000000000000000e+00
-6.485833981482286813e-05
0.000000000000000000e+00
0.000000000000000000e+00
8.650785238407010958e-04
-4.861460691002156970e-02
1.627894233918305844e-01
0.000000000000000000e+00
-1.799970394093660178e-02
0.000000000000000000e+00
1.380679370196257610e-02
4.509440162993993279e-03
-5.216415254690491554e-02
0.000000000000000000e+00
0.000000000000000000e+00
0.000000000000000000e+00
-5.951426530988420879e-03
5.062526949070448451e-03
-5.864355892465728838e-03
1.687771115140085723e-02
-1.745551991235342812e-02
2.902811188723897987e-03
0.000000000000000000e+00
0.000000000000000000e+00
0.000000000000000000e+00
1.100369980994597187e-02
-3.835217905637507401e-03
-1.133303882713272703e-03
3.798152346471313917e-02
0.000000000000000000e+00
3.421959758604664354e-03
0.000000000000000000e+00
-1.587561459258826288e-02
0.000000000000000000e+00
-2.755816751828494421e-02
-4.767880913330477255e-02
2.166918207548975545e-02
-1.289272241187170154e-01
0.000000000000000000e+00
2.396755899714814837e-04
0.000000000000000000e+00
0.000000000000000000e+00
-6.380081938863646496e-02
3.722362705087322032e-01
-1.817157637079068466e-01
0.000000000000000000e+00
0.000000000000000000e+00
6.831518653945329493e-04
3.002975569578757858e-02
-1.736763878765440472e-01
-5.785514356317239884e-03
0.000000000000000000e+00
1.344826760952314709e-02
-3.643602585160575502e-02
0.000000000000000000e+00
0.000000000000000000e+00
-1.177381320314477287e-02
0.000000000000000000e+00
0.000000000000000000e+00
1.798818372168364474e-02
-5.199572685874629188e-03
0.000000000000000000e+00
0.000000000000000000e+00
0.000000000000000000e+00
0.000000000000000000e+00
3.804261469372157214e-03
0.000000000000000000e+00
-4.361984141441511975e-02
-9.610140858019847535e-03
0.000000000000000000e+00
0.000000000000000000e+00
3.431819673737177001e-02
0.000000000000000000e+00
1.322241823227649805e-02
-1.256133641161094746e-04
-3.573573632945666045e-02
2.549540785728547643e-02
1.174699714488407903e-02
0.000000000000000000e+00
0.000000000000000000e+00
6.417158554567893580e-02
-1.083941682340934694e-02
-3.228666011816574283e-02
0.000000000000000000e+00
-2.064741356588404089e-02
-1.355887471937288087e-04
6.507302914084180925e-04
0.000000000000000000e+00
0.000000000000000000e+00
2.167661542090518288e-03
1.472231359978028783e-03
0.000000000000000000e+00
2.504060961163722121e-01
0.000000000000000000e+00
-1.306697085915490067e-02
0.000000000000000000e+00
0.000000000000000000e+00
0.000000000000000000e+00
6.782884983237965314e-03
3.567380242353344610e-01
-1.907804704524391874e-03
1.032197815792851858e-01
0.000000000000000000e+00
0.000000000000000000e+00
9.972605710435315629e+00
4.642889631665002292e-02
5.727092669429461116e-03
8.181600580845851955e-02
-7.550369897530117419e-03
0.000000000000000000e+00
0.000000000000000000e+00
-8.659081810015695907e-03
3.597549438132171401e-03
3.216224019292117098e-01
5.289844933311728781e+00
2.474732754989139930e-02
3.806976872474024387e-02
0.000000000000000000e+00
-1.561533154109321156e-02
1.180467302625739651e-01
-2.242631047296424901e-02
0.000000000000000000e+00
-3.480256519851312319e-02
3.727326000381662313e-02
1.531301457200394400e-02
2.218619071143077340e-03
-8.525763690173222831e-02
-1.688839540910205134e-02
1.083189134715794449e-02
-3.239633757463088876e-02
-5.492110089932471977e-04
0.000000000000000000e+00
0.000000000000000000e+00
4.554790008289248371e-06
3.088937454857579312e-02
-1.772825943710633692e-02
6.417313740489966056e-02
8.739494827111124464e-02
0.000000000000000000e+00
0.000000000000000000e+00
1.035591505287726394e-01
8.881927947380074784e+01
2.525177347305360698e+00
1.923911477722414887e+00
-1.596097101734892526e-03
-8.775796709332844836e-02
0.000000000000000000e+00
0.000000000000000000e+00
9.710675114723726908e-02
-8.524507724546992460e-03
-1.250279978755678041e-02
0.000000000000000000e+00
4.390198918874697355e-03
-6.013752478121395240e-02
-1.702861550555705150e-02
2.536129372114094560e-03
-4.874778559332608452e-02
9.266843433399809399e-03
2.234775702552992821e-02
-3.658373680331194339e-02
2.284324297234405568e-02
-1.499677054882999350e-01
0.000000000000000000e+00
0.000000000000000000e+00
0.000000000000000000e+00
0.000000000000000000e+00
-2.954755281845412584e-01
2.667255754415756575e-02
0.000000000000000000e+00
3.860839843775777658e-02
-5.557214779640255037e-02
-9.354944523587517546e-02
-2.304029231459058802e-01
-1.010679521876064191e-01
0.000000000000000000e+00
1.631793069862415901e+00
-3.974393164254683142e-02
-9.439063252069432308e-03
3.402977368108364153e-01
8.223595285813041755e+01
-1.418551454250492005e+00
-3.635993782330992213e-03
-2.060701576554770792e-02
1.562698319301711047e-01
0.000000000000000000e+00
0.000000000000000000e+00
9.025580821975428538e-04
7.722587292579443687e-03
0.000000000000000000e+00
0.000000000000000000e+00
5.569371545507666166e-02
1.539202722792043856e-02
-8.046043433027759602e-04
1.093103413990626910e-01
-3.258656891783469345e-02
-1.211567621179774051e-03
-2.202758885839608063e-02
-6.585909424931604694e-02
5.336173226611892273e-04
4.191719735224114229e-03
1.217981255008241948e-01
1.667891105335188653e-02
5.897180672078466968e-02
1.680475670848731798e-02
-2.069856686810134239e-02
6.145954981135039880e-02
0.000000000000000000e+00
-5.036655941279789828e-02
0.000000000000000000e+00
-7.035720732915126674e-02
1.733303074931722559e-03
0.000000000000000000e+00
-1.051360610861703515e-01
2.279579781086742862e+00
0.000000000000000000e+00
0.000000000000000000e+00
5.927201364507499876e-02
1.538743533421429721e-01
2.244125053413694587e-02
1.353948572625373048e+00
2.384972204009958296e-01
-1.530069289482585138e-01
-9.883149462206708424e-02
-7.757919470355026381e-02
0.000000000000000000e+00
2.908019401653087477e-01
4.254215995834980529e-02
0.000000000000000000e+00
-2.977152160272038967e-03
7.531381384213638175e-02
1.067223728661684246e-01
0.000000000000000000e+00
6.386979283042012664e-03
2.484936693516380263e-03
0.000000000000000000e+00
0.000000000000000000e+00
2.317503862571766021e-03
0.000000000000000000e+00
-7.490619049576493203e-05
1.459883545930995286e-01
9.507907855538190109e-03
-4.579595306967648716e-02
0.000000000000000000e+00
1.337834904583338341e-04
1.921611723043418693e-02
7.247519173613043222e-03
3.648664802595128626e-02
0.000000000000000000e+00
-1.215335591430904624e-02
0.000000000000000000e+00
0.000000000000000000e+00
0.000000000000000000e+00
0.000000000000000000e+00
1.451485069543411721e-01
0.000000000000000000e+00
3.128936399364930232e-02
0.000000000000000000e+00
-1.441572758226136513e-03
1.564215968030164411e-02
0.000000000000000000e+00
1.850352254335835799e-03
9.566413244770440027e-02
-5.359488232682702025e-01
1.340804921520873029e-04
-1.495245171774715540e-02
-3.189715566915410101e-03
5.234410493345007095e-04
0.000000000000000000e+00
1.527951401965958831e-03
7.211381853670928432e-02
1.153851818416377038e-02
0.000000000000000000e+00
-4.849970285544848506e-03
9.889004418130731278e-04
0.000000000000000000e+00
6.793274139840316250e-02
8.631701058543569602e-03
7.151304853310291821e-04
-4.764665712014581889e-02
0.000000000000000000e+00
0.000000000000000000e+00
7.442588451411448133e-03
9.162120322811048712e-02
9.302105280414679073e-03
2.479929801696721670e-02
-5.899757406663831000e-02
1.564117680151490275e-02
1.322873243225432954e-02
-3.562547261456374455e-03
-4.024535385022791519e-03
1.061863315780730010e-01
1.119783301287821387e-01
0.000000000000000000e+00
0.000000000000000000e+00
0.000000000000000000e+00
-2.025081443134524317e-02
-3.260724906485084618e-01
7.503084897346922605e-03
0.000000000000000000e+00
6.826441679916750438e-03
-5.581528055105990788e-02
-5.729867962129365777e-01
-1.199821181417054690e-02
-6.275654056919950825e-03
-3.343580895807204967e-02
0.000000000000000000e+00
7.038286126377794666e-04
0.000000000000000000e+00
7.772709182090373758e-01
1.562352955188939761e-02
6.916927329121255741e-02
-6.250195778608523545e-02
-1.073341601407930279e-02
0.000000000000000000e+00
1.988498912528331997e-01
-5.001991181189064523e-02
-4.517119126266411384e-03
1.270161006383636014e-02
0.000000000000000000e+00
9.523008164407147091e-03
0.000000000000000000e+00
-2.323595727119969184e-03
-1.015328738725733704e-01
9.828931020662817764e-02
0.000000000000000000e+00
-8.335019612952010437e-02
2.695340559712345422e-05
-2.226406580954801706e-01
-2.556381568004851279e-01
-1.079431721003039444e-03
1.359081285580352599e-03
-1.335344583289962278e-02
-4.111136785262878290e-02
0.000000000000000000e+00
-4.628042368661825640e-03
-3.627346518546954116e-03
-4.679505340048618206e-02
0.000000000000000000e+00
-8.723080486265202826e-02
-4.600558271791675355e-03
1.945765407932105798e-02
3.465314690310028478e-02
-3.707694004415090089e-02
-1.980013105155486661e-02
1.344033064684365883e-02
0.000000000000000000e+00
0.000000000000000000e+00
3.225410239793731482e-02
-3.408615305295279764e-03
-1.182130286322899924e-02
1.098570313712217243e-02
-6.556145429640686077e-03
0.000000000000000000e+00
0.000000000000000000e+00
-2.108073359696810423e-02
-5.784494135876783183e-03
1.115052320689394749e-01
5.566556717987709933e-04
-2.773301170953108852e-02
-2.824852168481208459e+00
6.526622353421002165e-02
9.927799082159750876e-02
-1.813649992378426473e-02
-4.788817273199512392e-02
1.783568847543584024e-01
1.737988403715814284e-02
5.239222060647537038e-01
-9.139341074466234005e-03
4.502694373359489299e-02
0.000000000000000000e+00
8.845240895511814749e-02
-1.001766372556106982e-01
-1.334922605074669207e-02
2.208294785631382401e-03
1.280343403910222666e-01
1.495548699207146504e-01
7.534344812900861665e-02
-1.167318793454983350e-01
1.943126321976200443e-02
3.601298818478849278e-02
1.861583774958647935e-02
3.526678127479246881e-03
-8.926229166961195671e-03
2.363054575702717708e-01
-4.498258558114837796e-02
-8.330239502648434380e-02
-2.807167160125638439e-02
1.169045947071672281e-02
6.819489824039775411e-04
-2.541865894119690189e-02
6.022060684703246661e-04
3.802821498918027010e-02
-1.493028688543648203e-02
-1.722879152991945995e-01
-4.030910542853239319e-03
8.371177423249234750e-02
7.382464464232043472e-03
1.299223436397523544e-03
9.672357435188613795e-03
1.512712755574509987e-02
4.983323704922627134e-02
1.412794573632966122e-01
4.062829900110895981e-02
-4.865498827745253635e-02
-3.792873879691451844e-01
-8.410096638660029961e-03
-1.188524173324588193e-02
2.512711802597209984e-03
1.386401907978812922e-02
6.073770007759075190e-02
9.431482939886629002e-02
-2.170141761922025209e-02
-2.720905486977222461e-03
1.559843636112034360e-01
4.654153506347261278e-03
-3.586021407315911902e-02
0.000000000000000000e+00
0.000000000000000000e+00
1.110054633541435049e-01
1.271923484562568693e-02
1.078318711114515868e-02
0.000000000000000000e+00
0.000000000000000000e+00
0.000000000000000000e+00
0.000000000000000000e+00
-1.407373220338790087e-01
-1.172158642646731863e+00
0.000000000000000000e+00
0.000000000000000000e+00
-1.578679523936007273e-02
1.540012426439350997e-02
-1.087209589847684399e-01
7.835841227530502759e-03
8.568374904515967463e-03
1.193278887413376163e-02
2.933200367558005690e-04
1.412383517103850232e-02
7.908915687178131107e-03
0.000000000000000000e+00
4.054024000021601293e-02
-1.292277029194055906e-03
-1.742037483198561937e-04
-1.347147187846746419e-01
4.645872917721897283e-02
1.407219946562392014e-02
-5.691982760870269165e-02
2.894511170692388169e-01
0.000000000000000000e+00
1.352172624317369842e-01
-4.849461226582032353e-02
4.212007351767314313e-03
1.497311168529843334e-02
-3.883631728773067476e-02
0.000000000000000000e+00
0.000000000000000000e+00
0.000000000000000000e+00
0.000000000000000000e+00
0.000000000000000000e+00
9.199253105778780470e-02
0.000000000000000000e+00
-5.207224450427549306e-03
-2.675466875937757699e-03
0.000000000000000000e+00
1.201457334821224437e-01
8.483465243210305123e-03
0.000000000000000000e+00
-3.923734955273185804e-02
6.053662187058713590e-02
5.144671848849869528e-02
6.621956704578187483e-03
6.212152411578274191e-02
-6.805801431260575206e-03
-7.042780995934300847e+00
-4.192224234796923521e-02
1.171186670479566587e-02
-7.853573664649136270e-04
-1.412467189320852287e-02
-1.330741745444715685e-01
1.491576478351699583e-02
-8.076142236707323230e-02
-5.037454984017137455e-02
8.159414984246476238e-03
-1.793476406131335821e-03
-2.489507436824681119e-02
-1.170788788483458596e-02
8.592243019782177527e-01
1.256263087926268174e-01
4.859220674316571537e-02
-9.229770613596001427e-02
-1.199909601010245574e-01
3.663912161488807207e-03
-7.715931461867996111e-02
-4.278870188608678571e-02
-1.607681537275395742e-02
0.000000000000000000e+00
4.998496026618630406e-02
0.000000000000000000e+00
9.356698256818857945e-03
-7.293027467082060199e-03
1.064059218757752001e+00
-8.327722096870617818e-01
-4.430314264423053372e-02
1.510293139082282722e-02
2.345886122193482567e-02
0.000000000000000000e+00
0.000000000000000000e+00
5.154288531877065233e-02
-1.803491527831979913e-01
-2.395835138768392381e-01
0.000000000000000000e+00
5.694648305165033939e-03
-2.336740479883022553e-02
0.000000000000000000e+00
-4.272434011611711893e-03
0.000000000000000000e+00
0.000000000000000000e+00
4.033538515471921798e-03
-6.972182955155838135e-02
2.172196704982191223e-02
-4.615569295664384564e-01
2.281466648166571076e+00
5.847115040171120288e-04
7.832510827611444126e-02
9.625290821629772786e-03
-8.984494373317963769e-04
-6.040061870950984985e-02
-1.480799488702942354e-03
-1.841390574247820516e-02
-1.673142825900682529e-01
2.156118448086390832e-02
0.000000000000000000e+00
-1.232852635281219411e-01
2.871667823814715026e-02
4.037750401383681173e-03
-2.680584755888281920e-02
2.098461976039222091e-02
-5.371020805686943164e-03
-6.011879310568049931e-04
0.000000000000000000e+00
5.350359557389617465e-02
4.447536839824335897e-01
