-1.415619814760014222e-02
1.400006717363617634e-02
2.181846890886930679e-02
4.729412372768270357e-04
0.000000000000000000e+00
9.834070138381070803e-02
-2.926894024500469038e-02
3.541474090469771182e-03
-6.893175662262386941e-03
0.000000000000000000e+00
-5.422947263022796088e-02
0.000000000000000000e+00
6.207682788667998053e-03
-5.913545346190481316e-04
0.000000000000000000e+00
1.359609448317951851e-02
1.155199152522331102e-01
-1.370621795111554020e-01
-5.520549099701943128e-04
2.280728160640115021e-03
4.336097571214737531e-03
8.304150260946342732e-02
-2.209342649820324189e-02
-6.509722708712964434e-02
0.000000000000000000e+00
1.563408391079858795e-01
-1.331386310005291127e-03
-3.312829091580172386e-02
-2.263200912812659595e-03
0.000000000000000000e+00
0.000000000000000000e+00
0.000000000000000000e+00
0.000000000000000000e+00
-8.257299669876609974e-03
-3.007098469451240097e-02
0.000000000000000000e+00
3.133814899228568734e-03
9.376038487466027693e-02
0.000000000000000000e+00
-1.087824146482368678e-02
-1.131908517220671937e-03
2.965788842767688727e-02
6.728374549960729201e-02
-1.065307304043079661e-02
-3.880033038561583880e-02
-1.262402044085320953e-02
0.000000000000000000e+00
0.000000000000000000e+00
0.000000000000000000e+00
2.054348955114255592e-03
0.000000000000000000e+00
2.151214375401986484e-02
0.000000000000000000e+00
0.000000000000000000e+00
0.000000000000000000e+00
0.000000000000000000e+00
0.000000000000000000e+00
0.000000000000000000e+00
0.000000000000000000e+00
0.000000000000000000e+00
-1.519388274500030550e-03
-3.917909846893315173e-02
-1.646507681593297953e-02
0.000000000000000000e+00
-2.218109094958640309e-02
-1.197996975685936558e-03
6.976208359172307583e-04
6.885747497999249178e-02
0.000000000000000000e+00
6.810972739629460315e-03
-7.135537670837239013e-03
6.064530075610628486e-04
6.337562563222550556e-05
-2.876816574908750562e-02
4.703716609058604045e-03
3.673879921133592699e-03
-4.278737841331640285e-02
0.000000000000000000e+00
0.000000000000000000e+00
0.000000000000000000e+00
0.000000000000000000e+00
2.594122618485865742e-02
-1.532011347757969155e-01
0.000000000000000000e+00
-4.572376551374052710e-03
6.268495197436707404e-03
8.835557563691094629e-02
0.000000000000000000e+00
-1.145153047813754358e-03
-1.159517742822273323e-01
2.724701289522421521e-02
-1.513611294367479994e-02
2.844706954927168907e-02
1.669239004988000430e-02
2.909209788707243019e-02
-9.500637191688636463e-02
1.693231981797942848e-02
-3.218600565754388410e-02
-4.650134043841807783e-04
2.610695797372456287e-02
-4.194976058780462702e-02
5.217339967816242820e-04
0.000000000000000000e+00
-2.162082493126710747e-01
-1.001695408396049763e-03
1.609257328260495570e-02
0.000000000000000000e+00
1.200890418703143454e-02
-5.831626832954168727e-01
-6.724695679384109503e-01
0.000000000000000000e+00
0.000000000000000000e+00
0.000000000000000000e+00
0.000000000000000000e+00
2.314398682122126988e-02
2.359619086799128514e-03
-1.798274413670913549e-02
-2.762031490688399149e-02
-1.462002834040845162e-02
-6.305651376559341659e-03
-1.373928718982930439e-02
2.413355585722614521e-02
0.000000000000000000e+00
7.096407943186310192e-03
8.904442565930270614e-02
6.361451945256401590e-05
4.300044490920406498e-02
5.294880932843241961e-02
-1.292844171427447175e-01
-2.059280850563380283e-04
-4.155834608317758756e-03
7.786824412219020553e-03
-1.800586557208093972e-03
-5.887014112508321545e-03
-9.116579091310394014e-04
-2.229802511491638106e-02
4.978786884249664259e-05
0.000000000000000000e+00
7.768767741509560612e-05
0.000000000000000000e+00
1.015309587277450354e-01
2.607334858281617346e-02
-2.140705477823969666e-02
-6.709614390973844822e-02
0.000000000000000000e+00
0.000000000000000000e+00
8.443863645819197572e+00
-1.304681990961593843e-03
2.027275479752306336e-04
-4.746944305716967183e-02
2.462955201219131085e-01
1.103349834660626028e-02
1.682164059149386381e-01
5.350162657318670301e-02
-2.913125178034954316e-03
0.000000000000000000e+00
7.337704042521724437e-03
6.951418925566815732e-02
1.886252180947522450e-01
-3.370279866478970709e-01
0.000000000000000000e+00
-8.748522855521123631e-02
-1.271463218920553797e-03
1.851985397383394683e-02
3.659537417803299802e-02
4.096759479530989040e-02
-4.841023582996635197e-03
-7.843615682574071879e-04
-4.867857672571879180e-02
4.819363182428293424e-02
6.934904484274605208e-02
0.000000000000000000e+00
-8.745470949971037578e-02
-1.757219248905552604e-03
0.000000000000000000e+00
5.527780544547823867e-03
0.000000000000000000e+00
3.645152486562316073e-04
0.000000000000000000e+00
3.490221490155401892e-04
1.006389369372078998e-02
1.545325181823789182e-02
7.681917029827775578e-05
4.055907538534644918e-03
-6.121917899832628185e-02
4.776651306074573594e-04
-5.634030804214346100e-02
1.528508581337275490e-02
-6.880668978742997613e-03
0.000000000000000000e+00
-1.714836595864437790e-02
-3.964587943321575686e-03
-7.503607565269132529e-02
8.823356577371289922e-02
-8.542434188143099849e-03
-4.623218150229120929e-03
2.704647698213873130e-03
0.000000000000000000e+00
-1.454698033413266180e-02
4.559725053183241172e-01
3.475503087895391641e+00
1.230933789585437858e-03
0.000000000000000000e+00
4.049285522881916274e-03
-1.661184097973340823e-02
-1.486353128373069099e-01
-1.729996119509815133e-01
0.000000000000000000e+00
1.202651429257708157e-04
0.000000000000000000e+00
6.914822033221851641e-03
-1.705083527527865433e-02
6.195545813687908243e-01
1.101092328575620401e-02
-4.080204619367442352e-03
1.023986027081347089e-01
1.113390570432116686e-02
0.000000000000000000e+00
2.764659713002879521e-02
-1.465238981367471272e-01
-1.277336898361627546e-02
-1.622017403873817539e-03
-4.787917024694580276e-02
4.036376584911864976e-03
-1.355645136251984895e-03
-8.379261959618813926e-03
-7.087275286619642602e-03
-2.785359707421235953e+00
6.562909402235443945e-01
1.967391971534083409e-03
-2.981100440828626623e-04
0.000000000000000000e+00
0.000000000000000000e+00
-8.765394255289028769e-03
4.793343597431401482e-02
1.103129261579677972e-02
8.757650395201481419e-02
2.393727123785132846e-02
0.000000000000000000e+00
-1.193100556391698202e-04
0.000000000000000000e+00
5.575844290759940369e-01
-1.158905336768192157e-01
-1.374820914441820391e-02
-2.311094208780358483e-01
0.000000000000000000e+00
-5.296292677950115158e-02
-1.401084317533873858e+00
0.000000000000000000e+00
0.000000000000000000e+00
1.267182479523775579e-02
0.000000000000000000e+00
-7.180867979723905281e-02
0.000000000000000000e+00
-5.039366102657648616e-01
0.000000000000000000e+00
0.000000000000000000e+00
1.428467890767902470e-03
0.000000000000000000e+00
-3.922768496613606576e-02
-1.240052133328377604e-01
6.391854742793094159e-03
-2.902676512020924224e-03
0.000000000000000000e+00
3.928567538834183692e-02
-4.554079855931322807e-01
2.853332929511426252e-03
0.000000000000000000e+00
0.000000000000000000e+00
-1.606765877887842732e-03
-1.679999004818507734e-03
1.768237414742477101e-02
0.000000000000000000e+00
8.651841050967773797e-04
-1.664479434625500045e-03
-1.365791168885355233e-02
0.000000000000000000e+00
-3.078669801433521133e-03
-1.281694326203961301e-02
4.521079470673105422e-03
1.544929051413142739e-04
8.971639654518265977e-03
0.000000000000000000e+00
-1.623604264759804378e-02
-1.886814947195596115e-02
2.846520487126402710e-02
4.260017032434353437e-04
0.000000000000000000e+00
0.000000000000000000e+00
7.378041134029438008e-02
-1.934205805010603138e-03
-2.638520678451720114e-01
-5.441066839852053139e-02
0.000000000000000000e+00
1.134990370054408991e-04
2.295222433116728133e-01
3.411483478580479289e-01
5.785694070710065140e-02
5.763916862707190412e-03
-1.474908395749184706e-04
0.000000000000000000e+00
0.000000000000000000e+00
6.867855158682819455e-03
1.567708380284990252e-03
0.000000000000000000e+00
0.000000000000000000e+00
-2.258859240238544897e-02
8.083207551895003895e-02
-3.400701312087720668e-02
3.625586095902485692e-03
0.000000000000000000e+00
-4.524749010916132019e-02
-3.075674905346272414e+00
-1.215904968768892654e-02
-1.890008661610459786e-02
9.798723397145049988e-03
-6.818867900206088128e-02
-4.455073924212777509e-02
-1.095340508178947569e+00
2.113589951719314908e-02
-1.368198703871974231e-02
3.162089938946134257e-05
6.041708127695071678e-02
0.000000000000000000e+00
0.000000000000000000e+00
2.966716102990386850e-02
0.000000000000000000e+00
-3.563473807467103238e-02
0.000000000000000000e+00
0.000000000000000000e+00
-1.627211083859427670e-02
-3.125811645293148644e-02
-3.168453540619903990e-04
-1.940404561985685809e-03
-1.435559462852985246e-02
-3.921473081029450830e-02
2.320115913366535814e-03
0.000000000000000000e+00
-1.431484367512826476e-02
6.043708259048284626e-03
0.000000000000000000e+00
-7.148643650395486437e-02
0.000000000000000000e+00
1.188723396420791945e+00
2.038071717022357440e-02
0.000000000000000000e+00
0.000000000000000000e+00
-1.276569482107982626e-03
-2.244177848038107770e-02
-1.395754417002793846e-02
-4.252488881039446361e-02
8.684360707666337331e-03
0.000000000000000000e+00
7.813097627550263241e-03
-6.294413013061434534e-04
4.421860212768306125e-02
1.011329118528965509e-01
-2.466586584578975283e-03
0.000000000000000000e+00
0.000000000000000000e+00
-3.624421606615261995e-03
0.000000000000000000e+00
-5.890318939121846767e-04
-3.241564746695457105e-02
0.000000000000000000e+00
0.000000000000000000e+00
0.000000000000000000e+00
0.000000000000000000e+00
-3.441347700579356662e-03
-4.490711956374800196e-02
0.000000000000000000e+00
0.000000000000000000e+00
2.807085529478591662e-02
-6.461540401939760980e-03
3.435372547012627287e-02
-1.227916978795646208e-01
0.000000000000000000e+00
0.000000000000000000e+00
2.781065434402515361e-03
-3.750465544305305043e-02
0.000000000000000000e+00
1.171864097268828951e-03
0.000000000000000000e+00
8.895191536287611056e-02
7.982826314650806609e-02
-2.733454339862097845e-03
1.407500506155688657e-03
0.000000000000000000e+00
0.000000000000000000e+00
0.000000000000000000e+00
0.000000000000000000e+00
2.952140541118279974e-04
-4.853175709006191108e-02
-1.931335997256995035e-04
0.000000000000000000e+00
-8.289325591010290317e-01
4.643670212100453054e-01
2.253781950815117799e-02
7.788857366151416203e-03
-3.238590447192018617e-03
-2.181535646245789106e-01
-5.742544944930291599e-04
0.000000000000000000e+00
5.441955578714339744e-04
-3.282729427509815251e-02
-2.177446357835981922e-02
6.699313617536308690e-04
6.892284290516126604e-04
2.367137670093964058e-02
4.476035762200422652e-02
3.719135427976812125e-02
1.767300780463921042e-02
4.156420317226712860e-03
-8.667872916651400139e-01
-3.455492592722128609e-02
0.000000000000000000e+00
0.000000000000000000e+00
0.000000000000000000e+00
0.000000000000000000e+00
0.000000000000000000e+00
0.000000000000000000e+00
3.104351449329396917e-04
1.312817466378715381e-01
-6.584624975520469992e-02
-3.237174675644954869e-02
3.379423701814640579e-02
-1.105876587692912749e-01
2.695494702471293996e-02
-5.951227726095994347e-02
4.493928062315940067e-03
0.000000000000000000e+00
-4.429558471713467005e-02
-5.060401586200266588e-02
2.325097948098148182e-02
0.000000000000000000e+00
1.944654995227325552e-03
-6.201208979218229876e-04
8.552803790514616755e-03
0.000000000000000000e+00
0.000000000000000000e+00
0.000000000000000000e+00
0.000000000000000000e+00
-2.998456152718169745e-03
0.000000000000000000e+00
-3.007282087331514253e-02
-5.554109522014929329e-03
0.000000000000000000e+00
1.190435279777438127e-02
1.098697025131534726e-04
0.000000000000000000e+00
-2.298537677946361699e-02
-4.390356105992187022e-03
3.273853082118206165e-02
2.574050053588073511e-02
-4.334812930330341906e-04
-3.261992298983041466e-02
8.570896703107647174e-02
8.782167596487880368e-03
0.000000000000000000e+00
0.000000000000000000e+00
-1.180287599474327473e-02
-2.387654862929741717e-01
-3.766801950515165365e-02
-1.506922939398340532e-03
1.222794259744231036e-03
2.425460934983419276e-02
9.078399172501309955e-02
-5.004233460584514015e-01
-2.613821598341701385e-02
3.016766830876484173e-02
0.000000000000000000e+00
0.000000000000000000e+00
-5.353956478963494726e-03
0.000000000000000000e+00
0.000000000000000000e+00
3.475701140473314282e-03
0.000000000000000000e+00
-2.137314789070374980e-04
1.925939706273559161e-03
0.000000000000000000e+00
-1.289482320967390550e+01
0.000000000000000000e+00
-5.024363819140771712e-04
-1.482247820304143371e-01
-3.015258682252167088e-02
-2.669878315464992158e-02
1.784368175321873404e-02
4.581226320099873739e-02
9.112484163505721324e-02
3.329739565302642767e-03
0.000000000000000000e+00
1.884737435674455411e-02
0.000000000000000000e+00
0.000000000000000000e+00
-1.180423939264466267e-02
5.514755150310593490e-02
8.962880374969530578e-03
2.677716318547243395e-03
0.000000000000000000e+00
3.533726621809897897e-03
4.752649705789396828e-02
1.826790104799197109e-02
0.000000000000000000e+00
6.974280579835189647e-05
-4.501701106797420526e-02
0.000000000000000000e+00
0.000000000000000000e+00
0.000000000000000000e+00
-2.364190280851990317e-02
0.000000000000000000e+00
0.000000000000000000e+00
-5.621042444148668937e-03
-1.244370773932965829e-02
-4.166961268589841616e-02
0.000000000000000000e+00
-7.010073505846590872e-04
-3.214810418883845555e-02
-7.804388794498356985e-01
-1.441197137427008279e-01
2.446570170421318025e-03
4.189862977007321326e-02
0.000000000000000000e+00
-2.231208995125417288e-02
1.353424189926769605e-01
3.329462054693449469e-03
0.000000000000000000e+00
0.000000000000000000e+00
-5.259372610842504405e-04
8.249437073211021154e-01
2.398359265534939604e-03
-1.401933978942282444e-04
-5.503000066079788665e-05
4.749899539447180463e-02
-1.962429226068920007e+00
-2.888906791958914533e-01
0.000000000000000000e+00
0.000000000000000000e+00
0.000000000000000000e+00
-2.758243709789562348e-02
7.606596810713683930e-05
-3.128756632195397319e-02
5.589646675287119823e-03
1.912129721652254923e-03
-1.750649990120378436e-03
0.000000000000000000e+00
0.000000000000000000e+00
2.840037736016234621e-03
-3.516767049743043088e-03
-2.594898352526892743e-02
0.000000000000000000e+00
6.448912683831914405e-01
1.924407203362265987e-03
3.208789863692432243e-02
8.943750596872492020e-02
-4.792901066424001127e-02
0.000000000000000000e+00
-1.764761120586876286e-01
5.637337680845720157e-03
-3.294466251274111301e-02
-4.862376583434965122e-03
0.000000000000000000e+00
-2.735179243014310840e-03
-5.207571029217003197e-03
9.125259258232464032e-02
-2.942117316736221622e-02
-3.474453330805746688e-03
8.889139813983315975e-04
-1.626064746986197879e-02
5.989824437977635425e-03
0.000000000000000000e+00
1.003361774535900400e-04
5.025540435710197304e-03
0.000000000000000000e+00
5.333905078766544832e-04
-8.939953123733605442e-03
1.188238955063948901e-02
4.467875593188818870e-03
-2.084066095113046996e-02
0.000000000000000000e+00
0.000000000000000000e+00
-1.177896683543320361e-02
0.000000000000000000e+00
0.000000000000000000e+00
4.305573232733596648e-04
0.000000000000000000e+00
3.514530907757434409e-03
-9.560643234570764468e-03
-8.835693236236247944e-03
-2.804403508905628159e-02
0.000000000000000000e+00
-4.925400197720697371e-01
-2.537953123063820676e-02
1.300011119446284336e-01
0.000000000000000000e+00
4.616948429699832546e-02
-1.259666250589255854e-02
0.000000000000000000e+00
0.000000000000000000e+00
2.742319345267223152e-02
-2.473045832505132435e-01
0.000000000000000000e+00
0.000000000000000000e+00
3.527378749462236479e-03
2.647399836019634911e-01
1.512487451966048474e-02
0.000000000000000000e+00
0.000000000000000000e+00
0.000000000000000000e+00
-1.736571257781369722e-03
-4.233171614435651126e-02
5.722371154547589538e-03
0.000000000000000000e+00
-3.704530078548228661e-02
-6.363813283039561688e-04
2.648430422389959696e-02
7.278330039162830833e-02
-4.659163228946731072e-01
2.726160799686298125e-02
0.000000000000000000e+00
1.641628365810369637e-03
-9.447879487889701902e-03
1.393564804208585490e-03
-1.676692598503597489e-02
0.000000000000000000e+00
-4.990603680211445903e-02
-1.324836041831416872e-02
-2.069503315919493625e-04
0.000000000000000000e+00
1.177499919857123295e-01
-7.655591592590020589e-02
0.000000000000000000e+00
2.701666323102159400e-02
-5.335894990097589385e-02
1.509080070383927302e-03
0.000000000000000000e+00
0.000000000000000000e+00
0.000000000000000000e+00
1.127937704172904260e-01
1.295644101015418315e+01
3.371234745248118808e-02
0.000000000000000000e+00
0.000000000000000000e+00
0.000000000000000000e+00
6.107592839505352291e-06
-9.542935329626273111e-04
0.000000000000000000e+00
0.000000000000000000e+00
0.000000000000000000e+00
1.351529806589518235e-03
4.374858752702619480e-01
1.554643654780375750e-02
-1.053065718283132529e-02
-1.962826881947349333e-02
6.766487245209416856e-03
7.731019972461262123e-03
9.018220400414976102e-04
0.000000000000000000e+00
-7.794216747729504693e-03
0.000000000000000000e+00
0.000000000000000000e+00
-2.172885477861881789e-04
0.000000000000000000e+00
1.453288808184885830e-03
-2.097844950685476828e-01
-3.919349691320431206e-02
-1.432528575678081867e-02
-1.959651157303242668e-03
0.000000000000000000e+00
2.133747788407491797e-02
0.000000000000000000e+00
0.000000000000000000e+00
0.000000000000000000e+00
5.653907858499546135e-01
-1.102699349495371399e-03
-5.543329692605425407e-02
0.000000000000000000e+00
0.000000000000000000e+00
0.000000000000000000e+00
-2.766391876534101540e-02
0.000000000000000000e+00
-6.560360343675325067e-04
8.858872887261590723e-01
-1.279685902939166169e-02
-7.706277625351304339e-02
1.690183368871903402e-01
1.252414438419169980e-03
6.029961485198403722e-04
-4.855187499750373420e-03
0.000000000000000000e+00
9.334305782162283282e-04
0.000000000000000000e+00
-4.302395415342468734e-04
0.000000000000000000e+00
8.808030603675849612e-02
0.000000000000000000e+00
2.320793474579530002e-02
1.541157544729957266e-02
-5.738793524429151860e-02
0.000000000000000000e+00
5.889961176104133861e-03
8.300933901255508514e-04
6.594065816973261607e-02
0.000000000000000000e+00
2.476900391116241586e-04
3.338597504243840525e-02
9.728102774977839817e-02
1.650486647660690757e-03
0.000000000000000000e+00
0.000000000000000000e+00
0.000000000000000000e+00
0.000000000000000000e+00
-2.685863950298430017e-02
1.181017135323415151e-02
-1.295121585316193549e-02
-3.183729435288836385e-03
-2.321888662159903374e-02
2.223994147051750955e-02
0.000000000000000000e+00
-1.810348489410544895e-03
-2.124753323650729192e-02
-3.340119162604411471e-05
6.207085510318299804e-02
6.356240034091220625e-01
-5.260349473390927955e+00
-3.238892188129865318e-02
4.127730596211850456e-01
-1.120583072691221788e-02
0.000000000000000000e+00
-3.745236892963131267e-03
7.248765932668130990e-03
1.807170280019109593e-02
-9.173767225462051145e-03
1.244304231503558407e-02
0.000000000000000000e+00
4.766891234519164688e-02
-2.190561298481349169e-03
0.000000000000000000e+00
0.000000000000000000e+00
9.913884688237638299e-04
0.000000000000000000e+00
0.000000000000000000e+00
1.136963123214073008e-03
2.975351884529685385e-04
9.238282471822359398e-02
0.000000000000000000e+00
0.000000000000000000e+00
-3.785420154320236208e-02
0.000000000000000000e+00
0.000000000000000000e+00
0.000000000000000000e+00
-3.084111958383614280e-02
-1.150610235073241255e-02
1.322116093126080583e-01
6.334711299665316030e-04
-4.912254044959757371e-02
0.000000000000000000e+00
2.156115607215478708e-02
-4.666338068191931698e-02
0.000000000000000000e+00
-9.801181447937748481e-02
-8.143154748877804924e-03
3.395368458169162329e-02
1.412835642845657567e-02
-2.269713710773451631e-01
0.000000000000000000e+00
4.505101326401474496e-03
-5.687518267003213615e-05
6.546982121692429372e-03
-3.519667326711505700e-02
2.252719036289104609e-02
-3.583842871204230285e-01
1.769039780367697434e-01
2.260235584683677884e-02
-2.771346098361936704e-03
-3.135611105896792677e-02
-2.909143681015244343e-02
-6.065736409200461060e-02
2.585641141744813090e-02
0.000000000000000000e+00
0.000000000000000000e+00
-6.976217975465054399e-02
4.549084839190211671e-01
2.626679717339884361e-03
-3.663334187430078437e-02
0.000000000000000000e+00
-1.249141375107643270e+01
1.258555799200328923e-03
-4.886856996119437989e-03
0.000000000000000000e+00
-1.016176401007502089e-04
3.122404816513736983e-02
-2.001410046858366487e-02
-4.332612161089303138e-01
-9.089786831337007137e-04
-6.821195544671799366e-03
4.809058805361755319e-03
4.869508064051551732e-02
-1.997121935051202404e-02
0.000000000000000000e+00
-7.851979846144734390e-03
0.000000000000000000e+00
4.995202856709238248e-02
2.303512872100225983e-03
-2.997651326383531795e-03
0.000000000000000000e+00
1.643141899470810796e-01
5.050151395502790186e-02
0.000000000000000000e+00
1.884599070436307824e-02
-2.614556098341421463e-03
-3.078649024790445880e-03
4.545452289542307837e-04
0.000000000000000000e+00
-3.308137131915069723e-02
2.321505365855091318e-01
3.654211768134880273e-02
0.000000000000000000e+00
-5.639750596276894151e-02
0.000000000000000000e+00
0.000000000000000000e+00
-1.436937722197389133e+00
0.000000000000000000e+00
-6.221273817593147015e-01
0.000000000000000000e+00
5.402512441957510458e-02
9.681259774701714282e-02
0.000000000000000000e+00
-5.720327803461178976e-04
6.270417679505135670e-03
-2.129817287939171958e-04
-6.276116358648666307e-03
-1.767819053565937715e-01
0.000000000000000000e+00
0.000000000000000000e+00
0.000000000000000000e+00
-2.534272091963352038e-03
-6.746516939947297224e-03
-4.732572172739112765e-02
-1.689842770164442787e-01
-3.739705868669514210e-03
0.000000000000000000e+00
8.716808863221134156e-05
0.000000000000000000e+00
0.000000000000000000e+00
3.084801747543310102e-02
-8.353923942621535592e-02
-1.491560130944072013e-02
0.000000000000000000e+00
0.000000000000000000e+00
1.096528212051545159e-01
3.803837674489642939e-01
3.511158263781510858e-03
-8.298683944718984956e-04
-7.835891881146492266e-02
-2.959964118093613705e-03
0.000000000000000000e+00
0.000000000000000000e+00
0.000000000000000000e+00
0.000000000000000000e+00
0.000000000000000000e+00
0.000000000000000000e+00
-1.399269693722819154e-02
5.971915214253253890e-02
7.408587148877412987e-02
1.667075350386321847e-02
2.854700843042001432e-02
-2.199882517618576198e-06
-3.091155363069455521e-03
0.000000000000000000e+00
0.000000000000000000e+00
-5.788147254117731628e-03
5.329600283916163458e-03
0.000000000000000000e+00
0.000000000000000000e+00
0.000000000000000000e+00
2.823309062324156488e-02
-9.441164327720506701e-04
0.000000000000000000e+00
0.000000000000000000e+00
0.000000000000000000e+00
0.000000000000000000e+00
0.000000000000000000e+00
0.000000000000000000e+00
0.000000000000000000e+00
0.000000000000000000e+00
3.028359093028970377e-03
-4.151202874138147647e-02
2.107239152763870985e-02
0.000000000000000000e+00
1.144849535805983129e-02
1.721736133086983081e-04
0.000000000000000000e+00
0.000000000000000000e+00
0.000000000000000000e+00
-4.196669162407070525e-02
5.972606619430803621e-03
4.574404183571081223e-02
0.000000000000000000e+00
0.000000000000000000e+00
0.000000000000000000e+00
0.000000000000000000e+00
4.627871663134283664e-02
1.562683499703793055e-01
5.142234077217671534e-02
0.000000000000000000e+00
0.000000000000000000e+00
-7.638096676534719557e-04
0.000000000000000000e+00
0.000000000000000000e+00
-3.518257391717299009e-04
0.000000000000000000e+00
0.000000000000000000e+00
-2.819848795708351005e-04
3.264535069838193655e-03
0.000000000000000000e+00
0.000000000000000000e+00
-1.279233213496192845e-01
-2.522194172987972660e-01
-3.049578561110723174e-02
0.000000000000000000e+00
0.000000000000000000e+00
-1.437090867960096330e-01
-5.901997596830896420e+00
-4.507085815030949238e-02
0.000000000000000000e+00
0.000000000000000000e+00
-9.747075307840480374e-02
1.205773648749491889e-03
5.337724130854667459e-01
6.697616523520480425e-02
0.000000000000000000e+00
0.000000000000000000e+00
0.000000000000000000e+00
0.000000000000000000e+00
9.168878041420072678e-02
-1.709381177236568138e-03
-2.689783318290915604e-04
-8.137721676851337668e-03
1.365172750250276124e-01
-9.935280053070847522e-03
-1.051139603538030556e-02
1.149020601654095718e-02
0.000000000000000000e+00
-7.424338402483045534e-04
-4.113970705618166974e-03
7.909920868304214526e-04
-3.129713349902005920e-02
2.651492698134041547e-04
3.572640457426223392e-03
7.514357650002145839e-02
-2.209633661041542074e-02
-1.332067632476294228e-02
2.400088041972872304e-05
0.000000000000000000e+00
8.952293889417428652e-02
0.000000000000000000e+00
7.686948446488831889e-03
8.934613505974121905e-02
3.129090621427028712e-04
0.000000000000000000e+00
0.000000000000000000e+00
0.000000000000000000e+00
0.000000000000000000e+00
-2.042722613515825930e-02
-4.810468597868258062e-02
-3.091229899354380750e-02
4.119986054911784629e-02
7.724010866187649288e-03
3.156601018092478235e-03
3.147109737452669607e-03
-3.879920452700713965e-03
2.311280343173679336e-02
2.347202566095119014e-01
-1.068692187486073170e-01
8.432665885056020438e-02
0.000000000000000000e+00
-3.807017988506273820e-01
-3.793179331642804186e-02
-1.207232013873204279e-01
-2.667865448295196704e-03
-4.948738869346864799e-01
0.000000000000000000e+00
-1.487997738990270687e-03
1.937940008622583005e-02
-5.652620698862304525e-04
-1.929932724704095520e-02
-3.262187472656018542e-04
0.000000000000000000e+00
2.700668191817937047e-02
-1.147426671786863986e-02
2.073170607949682484e-02
0.000000000000000000e+00
0.000000000000000000e+00
0.000000000000000000e+00
0.000000000000000000e+00
4.150090894939634234e-02
0.000000000000000000e+00
5.891014490722830399e-02
2.096726849758234756e-02
-3.912095019284703851e-02
3.373737468938273198e-01
0.000000000000000000e+00
3.035424469729917918e-02
2.084855231487853511e-01
1.523788030339509603e-01
-8.011143696524558599e-02
-3.110128492852376730e-04
2.566880606115490814e-03
0.000000000000000000e+00
-1.622027407495247806e-02
-1.054127305056624109e-01
-8.683276806321649222e-02
-4.732222696588382627e-02
-1.241902533606496252e-02
-5.386802733469838247e-03
-8.296114862825246239e-02
-2.145051901713927123e+00
0.000000000000000000e+00
-6.720409011796110200e-03
-1.791400521798974322e-03
6.500629938674691750e-03
5.568167265990470183e-02
1.577894443273648167e-02
2.971356469480645850e-04
0.000000000000000000e+00
0.000000000000000000e+00
0.000000000000000000e+00
-1.449878120721718837e-02
0.000000000000000000e+00
-1.071676361202046873e-04
0.000000000000000000e+00
0.000000000000000000e+00
-1.767173039581608311e-03
-2.139260408088119458e-01
-2.138179877187190974e-03
1.082096326487874127e-01
-2.569274110540668010e-01
-9.276009550806320336e-02
3.106694641749629254e-02
1.618169441834617708e-02
0.000000000000000000e+00
-1.509573585726453615e-03
-4.996563285970474777e-02
4.131721647031577627e-02
0.000000000000000000e+00
-4.258597476323025544e-03
-1.829923596051246867e-02
0.000000000000000000e+00
0.000000000000000000e+00
3.019046600897818539e-03
0.000000000000000000e+00
0.000000000000000000e+00
5.423205475856790470e-02
0.000000000000000000e+00
5.524400189183022170e-03
0.000000000000000000e+00
-1.284399483827049042e-03
-5.349833059964405335e-02
0.000000000000000000e+00
3.661637656887855446e-02
0.000000000000000000e+00
0.000000000000000000e+00
-5.942968741400321206e-03
1.844065169618236541e-03
2.277620110456681293e-02
7.349563314907789358e-02
-1.156486285217187548e-01
-3.486915875883507543e-02
5.867357213607619351e-04
-3.947363253795005411e-02
0.000000000000000000e+00
-3.655458231414157599e-02
-1.131451755972289960e-02
-5.564041889403396890e-02
5.350347969828359584e-01
0.000000000000000000e+00
3.576368358736684364e-03
0.000000000000000000e+00
-4.293216568087323583e-03
0.000000000000000000e+00
0.000000000000000000e+00
-2.063995651575502993e-02
4.609634827521223721e-02
7.854758319901158914e-02
8.484581846632808719e-03
0.000000000000000000e+00
0.000000000000000000e+00
0.000000000000000000e+00
0.000000000000000000e+00
0.000000000000000000e+00
-5.088138051466095657e-02
-1.825296427177506165e-03
3.865994497639275475e-03
0.000000000000000000e+00
-2.103397094422597077e-02
9.248665296030134531e-04
3.254169444335654405e-05
1.700062950470108622e-02
-1.205719107405127943e-01
1.775891501324908944e-02
6.568865530234771488e-02
-9.065970705260774712e-04
6.698209717242124828e-02
0.000000000000000000e+00
4.368458812737711222e-02
5.036244140224000604e-02
0.000000000000000000e+00
0.000000000000000000e+00
0.000000000000000000e+00
-1.816123948096457635e-02
0.000000000000000000e+00
4.555426540950929803e-02
-1.432024287256647779e-02
1.286826702094425161e-03
0.000000000000000000e+00
0.000000000000000000e+00
0.000000000000000000e+00
0.000000000000000000e+00
-5.444521628729709350e-02
-5.808119152218968462e-02
0.000000000000000000e+00
9.428177299866384586e-03
-1.768647393710759130e-01
-5.255932926559018364e-02
6.303417624438314437e-01
-3.027247244045885508e-02
5.031683283384573435e-02
8.356778465271414097e-04
-1.584643287183285648e-02
0.000000000000000000e+00
7.661162335102740702e-03
4.423515519485563680e-02
1.150370357569906188e-02
-2.122381154073471166e+00
-1.483757897830337682e-03
-2.789419351860005225e-01
6.925465793190502262e-02
-6.265877460410691768e-02
-3.443733591608631739e-02
-1.186377364721913179e-02
0.000000000000000000e+00
0.000000000000000000e+00
0.000000000000000000e+00
-1.533108667056241230e-03
1.496902459784577033e-01
2.390000044073286589e-01
8.142810599793944004e-03
1.939869898881722192e-03
5.278432553404567400e-04
-6.780334998730284946e-03
2.456373292431503035e-03
-8.056006588972202710e-04
-4.416568556485245961e-02
2.303665798901277303e-02
1.309973410675502260e-04
3.883586099935875183e-03
-1.053496699381091528e-02
0.000000000000000000e+00
4.222169831956235769e-02
-1.271796710225348848e-01
-1.273811612424058208e-02
0.000000000000000000e+00
-5.646306891000255589e-03
0.000000000000000000e+00
1.268709720773856207e-02
0.000000000000000000e+00
0.000000000000000000e+00
4.212864168313948908e-03
-9.479227778950450808e-03
0.000000000000000000e+00
-5.863295871787001234e-03
3.721487550733988247e-03
-5.663668853069222858e-04
0.000000000000000000e+00
0.000000000000000000e+00
-3.617548229518552979e-03
-8.325569943865779310e-02
0.000000000000000000e+00
4.038458747491045081e-02
0.000000000000000000e+00
-2.493471292819921664e-02
-9.184481356971876953e-02
1.087311549461290796e-03
1.182539114836782118e-01
0.000000000000000000e+00
0.000000000000000000e+00
0.000000000000000000e+00
0.000000000000000000e+00
0.000000000000000000e+00
0.000000000000000000e+00
9.480270425226110242e-04
-1.319654438435828841e-03
-3.865433418595052295e+00
-3.430837837908700273e-03
2.119375909298953573e-02
-1.251440776276502428e-03
-1.640468245933224961e-02
0.000000000000000000e+00
0.000000000000000000e+00
0.000000000000000000e+00
0.000000000000000000e+00
-2.231514744505318226e-02
-1.060508434508594527e-01
-6.265378123424251988e-02
3.527715845121388166e-02
-7.128374695655001307e-03
-2.909141679739860042e-02
0.000000000000000000e+00
0.000000000000000000e+00
0.000000000000000000e+00
-7.770313091461121058e-04
0.000000000000000000e+00
0.000000000000000000e+00
0.000000000000000000e+00
1.132098744285743282e-03
1.292000125169111280e-01
2.331613557805839801e-02
-1.703162286780246504e-02
0.000000000000000000e+00
0.000000000000000000e+00
0.000000000000000000e+00
0.000000000000000000e+00
1.222823543358497571e-03
0.000000000000000000e+00
4.753628510581633590e-03
0.000000000000000000e+00
0.000000000000000000e+00
8.665763657533978592e-03
0.000000000000000000e+00
0.000000000000000000e+00
6.384112254950252696e-03
-1.110856333841715726e-02
8.855699199943832187e-03
2.813060817242304523e+01
0.000000000000000000e+00
-5.864389043337373420e-04
0.000000000000000000e+00
2.344645493079323701e-03
0.000000000000000000e+00
0.000000000000000000e+00
7.430759542156661901e-03
-6.551248967174615190e-02
2.677084396673882760e-01
-4.049008734049419633e-02
0.000000000000000000e+00
-7.572555860498242884e-03
4.699151914822142020e-03
-1.250297879406893076e-01
-1.267611204599896138e-02
8.473541557907377647e-04
3.903088556498028952e-03
0.000000000000000000e+00
0.000000000000000000e+00
0.000000000000000000e+00
8.880527863894661575e-03
0.000000000000000000e+00
1.203007045122088739e-02
-3.791129173898653004e-01
-3.513062334126780817e-01
0.000000000000000000e+00
-2.715446534481672294e-03
0.000000000000000000e+00
1.248502249837194211e-01
0.000000000000000000e+00
-3.709145413206609704e-02
4.244414676832723721e-03
-8.882465484261822808e-02
6.832920549096344921e-03
-3.961157250055146184e-01
0.000000000000000000e+00
-1.613066438092156595e-04
1.401722199678909035e-02
4.262362526668765639e-02
0.000000000000000000e+00
-1.375233406640630901e-03
0.000000000000000000e+00
1.075205096837470176e-01
-7.255739079887743581e-02
-1.922842087461720112e-02
1.250140563901803569e-03
-3.756070268916721078e-02
-8.169286051215654543e-03
-3.960212631145315632e-01
-2.453425744366208652e-02
-1.087159676373573554e-03
-7.193226781523911714e-05
-2.925052944786653633e-02
6.664484857514170815e-03
-8.921956382031030752e-02
0.000000000000000000e+00
2.173923405786996887e-01
0.000000000000000000e+00
1.715392371853649480e-04
2.297010086485609139e-05
-2.232320367054079213e-01
2.463003531281458547e-01
-1.022173539413638588e-02
-1.890884754930921216e-02
7.697279070890554464e-02
0.000000000000000000e+00
-4.097558009881417142e-03
7.007371272708486955e-04
2.624763502503222462e-02
-2.496804991076779709e-02
-7.934019316448211873e-03
2.437583959700721503e-01
3.325213650757054967e-02
0.000000000000000000e+00
0.000000000000000000e+00
0.000000000000000000e+00
0.000000000000000000e+00
0.000000000000000000e+00
0.000000000000000000e+00
2.282535623108667561e-02
6.209676139450183430e-02
-1.247492153502428218e-03
5.469725940655724428e-02
0.000000000000000000e+00
-7.477810478396033911e-02
-1.639624261192303145e-03
0.000000000000000000e+00
0.000000000000000000e+00
-2.040251955492672353e-02
-7.080585724509641868e-03
0.000000000000000000e+00
-4.035425651917905199e-02
-5.913764854188666154e-02
4.348568221569883846e-02
-5.339805442744132574e-02
2.544532783827168493e-03
0.000000000000000000e+00
0.000000000000000000e+00
8.559871692466430870e-02
2.092663904873967237e-03
0.000000000000000000e+00
9.180070049640645137e-04
0.000000000000000000e+00
-6.115390941413862552e-02
1.002202980992111976e-02
6.407775563366537863e-01
-7.331493772014585956e-05
-3.094447230941850813e-01
1.730763399923662405e-01
-1.510283809689966054e-02
-3.758641043545660632e-05
0.000000000000000000e+00
0.000000000000000000e+00
3.866914478770461933e-02
4.939008452445066595e-03
1.277739423392817431e-01
0.000000000000000000e+00
2.159730063282895574e-02
2.440274669489295688e-03
0.000000000000000000e+00
0.000000000000000000e+00
-3.303407311865665628e-03
0.000000000000000000e+00
0.000000000000000000e+00
-2.343760692133011261e-02
-2.244915686602835889e-03
-1.379333672841087655e-02
1.355124079826688964e-03
-2.279147416020578173e-02
-3.701180578966940674e-04
0.000000000000000000e+00
-1.110067985447308996e-03
2.145999347510010868e-02
0.000000000000000000e+00
-4.216789665059485215e-02
-9.185088614380767721e-03
4.741298399274335943e-04
-2.858153826904431816e-02
-9.548629859777441400e-03
0.000000000000000000e+00
-3.039487596921874849e-05
0.000000000000000000e+00
0.000000000000000000e+00
-4.446167152736904549e-02
2.353510107551173569e-01
0.000000000000000000e+00
0.000000000000000000e+00
-7.722725074777591833e-03
-1.922183854953649594e-03
0.000000000000000000e+00
1.060599765595698629e-01
-5.169770947661118249e-02
-3.842401341440686985e-03
0.000000000000000000e+00
-6.070562080423375778e-02
0.000000000000000000e+00
1.457808566900379264e-02
-2.131178469951122700e-02
0.000000000000000000e+00
1.412528042567272649e-04
0.000000000000000000e+00
0.000000000000000000e+00
0.000000000000000000e+00
0.000000000000000000e+00
2.844802250298088947e-02
0.000000000000000000e+00
1.441679104969394686e-03
0.000000000000000000e+00
-7.829158214115982664e-04
8.469635935949182404e-03
2.900261092500470983e-02
2.540412485206502828e-04
0.000000000000000000e+00
0.000000000000000000e+00
-1.692105728527533394e-04
-6.409811244384444606e-03
-4.418864864675595833e-02
4.464306698445334037e-03
0.000000000000000000e+00
5.409788005296825575e-02
1.223572506298016040e-02
2.130540791279949175e+01
0.000000000000000000e+00
-3.262101970379669563e-02
3.696835953251485980e-04
5.979924244470994190e-04
0.000000000000000000e+00
0.000000000000000000e+00
8.610207308055511585e-03
0.000000000000000000e+00
-2.981388315904448527e-02
-2.345516099082266270e-02
0.000000000000000000e+00
-2.938231732407851730e-03
3.873909826443961563e-02
-1.965030179852264580e-02
0.000000000000000000e+00
0.000000000000000000e+00
0.000000000000000000e+00
-2.331066314956389222e-03
2.120141252055926795e-01
0.000000000000000000e+00
0.000000000000000000e+00
-7.938439926068054098e-03
2.657182973298467549e-03
0.000000000000000000e+00
0.000000000000000000e+00
-6.085184998025860298e-03
0.000000000000000000e+00
-3.870989656506142879e-02
0.000000000000000000e+00
0.000000000000000000e+00
6.053991982635563082e-03
-1.489445359683365605e-03
-2.368010779919871994e-03
0.000000000000000000e+00
0.000000000000000000e+00
0.000000000000000000e+00
6.260399357321166924e-02
7.061206177209525259e-03
0.000000000000000000e+00
0.000000000000000000e+00
0.000000000000000000e+00
0.000000000000000000e+00
0.000000000000000000e+00
0.000000000000000000e+00
0.000000000000000000e+00
6.444599662316855134e-05
0.000000000000000000e+00
0.000000000000000000e+00
0.000000000000000000e+00
0.000000000000000000e+00
-2.316624979983255769e-02
-7.875889302133740402e-03
0.000000000000000000e+00
0.000000000000000000e+00
0.000000000000000000e+00
0.000000000000000000e+00
0.000000000000000000e+00
0.000000000000000000e+00
8.171320212168194097e-02
1.170898744144979395e-02
0.000000000000000000e+00
0.000000000000000000e+00
0.000000000000000000e+00
0.000000000000000000e+00
0.000000000000000000e+00
0.000000000000000000e+00
0.000000000000000000e+00
0.000000000000000000e+00
0.000000000000000000e+00
0.000000000000000000e+00
0.000000000000000000e+00
-3.301518819118681985e-03
0.000000000000000000e+00
0.000000000000000000e+00
0.000000000000000000e+00
0.000000000000000000e+00
0.000000000000000000e+00
0.000000000000000000e+00
8.935678342687541356e-07
0.000000000000000000e+00
-3.747953301415975214e-02
-1.095389795573111814e-02
-1.367796819631438877e-02
2.791173724358617103e-02
-1.250134146974103168e-02
-4.327218661985011159e-04
-9.407588695606639712e-03
0.000000000000000000e+00
0.000000000000000000e+00
0.000000000000000000e+00
0.000000000000000000e+00
0.000000000000000000e+00
0.000000000000000000e+00
0.000000000000000000e+00
0.000000000000000000e+00
0.000000000000000000e+00
0.000000000000000000e+00
0.000000000000000000e+00
0.000000000000000000e+00
-4.762744861058672567e-04
0.000000000000000000e+00
0.000000000000000000e+00
-1.961631622028132960e-02
0.000000000000000000e+00
-7.901780896441407392e-04
-1.242559701321128973e-02
0.000000000000000000e+00
5.141943956940961402e-02
0.000000000000000000e+00
0.000000000000000000e+00
3.772434237004561319e-02
-3.309865017018791961e-02
0.000000000000000000e+00
0.000000000000000000e+00
0.000000000000000000e+00
5.528650907228402356e-02
-3.556866609250521755e-02
-5.871040850100749803e-02
6.372928452189959014e-03
1.794990103212817587e-02
-6.688157587921032821e-02
2.549773747161393489e-03
0.000000000000000000e+00
0.000000000000000000e+00
0.000000000000000000e+00
0.000000000000000000e+00
0.000000000000000000e+00
0.000000000000000000e+00
-5.561143142977537958e-03
-6.814143338547667961e-02
-1.647436024034524063e-02
-6.200058318698856846e-03
-3.177904702504000777e-03
1.164210714784697093e-01
0.000000000000000000e+00
-2.068303091242993177e-02
1.502575592569920133e-03
-2.207331340800232355e-02
0.000000000000000000e+00
6.912644973604768761e-02
0.000000000000000000e+00
0.000000000000000000e+00
-5.088195007984842588e-01
5.972443058303815791e-03
-2.680330255057031675e-04
-2.308653806170669204e-02
5.747155434230875101e-04
-1.693492025658889510e-03
-9.696443335286331804e-04
0.000000000000000000e+00
0.000000000000000000e+00
0.000000000000000000e+00
0.000000000000000000e+00
0.000000000000000000e+00
-4.477041304217208896e-04
2.733557162841152195e-04
-2.007911255676745124e-02
-4.227481597896801668e-01
-1.590024299091762627e-01
-6.693978691613812829e-03
2.655237467063986667e-02
-2.695219505703290788e-02
2.144950755530772857e-01
-9.401133397016638417e-04
0.000000000000000000e+00
0.000000000000000000e+00
1.045831311188681959e-02
0.000000000000000000e+00
0.000000000000000000e+00
4.017718936324119784e-05
-8.052226330799681919e-02
2.730594123128501222e-02
0.000000000000000000e+00
3.156985078592153965e-02
1.569871968261613709e-03
0.000000000000000000e+00
-4.247757210236513536e-03
4.616357516701814073e-02
3.165941035910470325e-02
0.000000000000000000e+00
0.000000000000000000e+00
0.000000000000000000e+00
0.000000000000000000e+00
-1.720695406702710522e-03
-2.271414088004072157e-02
-1.643535340460207730e-02
-1.558261438288879308e-01
-5.096263859277584407e-01
-2.040600526766882597e-02
3.792428031195720084e-03
3.749194797617184938e-03
8.634982681337990962e-02
9.401479536624317290e-02
-3.010174942198709687e-03
1.800531539526225959e-03
-2.553598645541348914e-03
-1.414418610591999109e-02
-1.691516037794019156e-02
8.677674981522356251e-03
1.770482142674166884e-02
9.958952376705170612e-04
1.232324243642704022e-02
7.800823897459076154e-04
-1.993651344260997406e-04
0.000000000000000000e+00
0.000000000000000000e+00
0.000000000000000000e+00
1.087156823822407054e-02
5.163309840092221492e+00
0.000000000000000000e+00
0.000000000000000000e+00
0.000000000000000000e+00
0.000000000000000000e+00
0.000000000000000000e+00
0.000000000000000000e+00
0.000000000000000000e+00
1.010061994945262998e-01
0.000000000000000000e+00
1.050060627132262843e-02
2.276517916887654119e-02
1.569956046860694621e-02
4.321987900256282072e-03
-6.027777808114496115e-03
-4.823511031181426101e-01
-9.448371059020053975e-02
-1.418067796910252483e-03
-6.078272012351536475e-03
6.635208052119695443e-02
-7.604758965418584316e-02
-4.851311222359146191e-02
-1.154663181432673547e-01
0.000000000000000000e+00
0.000000000000000000e+00
-9.445824954345000829e-03
-4.931347509641891946e+00
0.000000000000000000e+00
0.000000000000000000e+00
0.000000000000000000e+00
0.000000000000000000e+00
0.000000000000000000e+00
0.000000000000000000e+00
1.544315968916295872e-04
0.000000000000000000e+00
0.000000000000000000e+00
0.000000000000000000e+00
0.000000000000000000e+00
-2.186895338792164902e-04
0.000000000000000000e+00
0.000000000000000000e+00
2.322691535775389393e-01
-2.351393661040534350e-02
-8.592999634943650211e-02
-2.475116790500758723e-02
-3.116686629532067882e-04
0.000000000000000000e+00
0.000000000000000000e+00
-2.059929592496612810e-03
-1.128410048357723525e-04
-2.234781138399515865e-01
0.000000000000000000e+00
4.485511971983993096e-01
4.511994298375450463e-02
0.000000000000000000e+00
3.961895698081094319e-02
-1.687145198047244887e-01
-1.809051418146679496e-02
0.000000000000000000e+00
0.000000000000000000e+00
0.000000000000000000e+00
-2.495364031204321133e-05
2.161444771117895791e-02
0.000000000000000000e+00
0.000000000000000000e+00
0.000000000000000000e+00
0.000000000000000000e+00
0.000000000000000000e+00
0.000000000000000000e+00
-7.000768705908266398e-04
0.000000000000000000e+00
3.982567786002810806e-04
6.292574066682759138e-04
-5.744790668269501854e-03
-5.472596153931064134e-02
-1.944439796356683958e-02
1.197449385494531865e-05
0.000000000000000000e+00
0.000000000000000000e+00
1.493775898178375042e-02
-8.790863536148578114e-03
0.000000000000000000e+00
-6.089609523768141873e-03
0.000000000000000000e+00
-1.333594425827339947e-01
2.022611252625609347e-03
-1.101621704020563225e-01
3.878483493274914595e-01
-4.738048630036447622e-04
-3.391082496793891565e-02
0.000000000000000000e+00
-1.249653082300484531e-02
2.177260846712524012e-02
-6.872412070543343354e-03
-1.163040574495539069e-02
0.000000000000000000e+00
0.000000000000000000e+00
0.000000000000000000e+00
-2.089229978370589838e-02
1.488550487357833373e-02
2.156347632872799777e-02
1.995050463638440089e-03
5.660311328180840477e-03
-6.620278450698872594e-04
-3.428360395432705765e-04
8.256332554132561619e-02
1.808309953191728631e-02
-1.115047960457921233e-01
-7.097870285869829592e-03
0.000000000000000000e+00
-2.694845714164931802e-04
5.315274829893309495e-03
1.236345638308271669e-02
2.183260898006115017e-03
-1.719386297559467522e-02
0.000000000000000000e+00
1.057376024579647494e-02
-1.870603260611396895e-02
0.000000000000000000e+00
0.000000000000000000e+00
-4.824860281390611592e-03
1.429039457144433249e-02
0.000000000000000000e+00
0.000000000000000000e+00
7.784438559833330162e-03
-1.746438828371412160e-05
0.000000000000000000e+00
0.000000000000000000e+00
-3.100739859000534258e-03
-5.677955318674698937e-02
1.381831231964224249e-01
0.000000000000000000e+00
-1.063227005774202653e-03
0.000000000000000000e+00
0.000000000000000000e+00
-6.055472552314181828e-02
9.025060615302109073e-04
0.000000000000000000e+00
7.490093365445260609e-02
1.557725223939297916e-02
0.000000000000000000e+00
-9.811234089516823915e-04
-4.164870567309303905e-03
0.000000000000000000e+00
0.000000000000000000e+00
1.554646156744743900e-02
-3.373655799364578822e-01
0.000000000000000000e+00
-1.454083402835726693e-02
1.148821877270598743e-02
0.000000000000000000e+00
2.391607410299925567e-03
-2.212989832418017777e-02
-1.630198261017913033e-03
-1.885788263758677100e-02
0.000000000000000000e+00
-6.338224957147371719e-03
-3.165607327885702760e-02
-9.429539577944564405e-04
-2.746228477203127571e-04
-1.133161728707478971e-02
-1.939008506004007533e-05
-3.885774204539429598e-04
-9.575903040192276783e-03
1.792516476369078807e-02
0.000000000000000000e+00
5.414428059179105662e-02
0.000000000000000000e+00
-9.031793005065035180e-04
1.644198708448149464e-04
0.000000000000000000e+00
0.000000000000000000e+00
0.000000000000000000e+00
0.000000000000000000e+00
0.000000000000000000e+00
-2.061485364674800480e-02
-3.667429850472719161e-02
-9.928392402585115711e-03
-8.473514418075753186e-04
-6.539955158687209280e-03
6.155949530388889895e-03
6.437133937787684577e-03
-6.363309618245516219e-02
-4.894016409533001599e-02
3.628001396782387926e-04
1.427209028696221644e-03
-5.171155169677105028e-03
-1.809665339237029880e-01
-8.425110130037020625e-03
-1.490937731781530329e-02
-1.364853869287210586e-01
-1.059711975749591929e-04
0.000000000000000000e+00
0.000000000000000000e+00
0.000000000000000000e+00
-8.032835971922387078e-05
2.625376163265536193e-04
0.000000000000000000e+00
0.000000000000000000e+00
0.000000000000000000e+00
0.000000000000000000e+00
-2.258726517676086509e-02
-6.312632485919088265e-03
-1.975185493490343447e+01
6.812916234162243179e-02
-5.064370434956398659e-02
-1.039400311649391617e-01
-3.719045613552617729e-02
-5.806079047811523418e-03
-8.474290511886235430e-03
-3.929530197753196979e-02
2.112885846508472804e-02
4.257394675374165938e-01
-3.336191236271658644e-02
-5.942628230260166289e-02
0.000000000000000000e+00
0.000000000000000000e+00
1.343977715904865443e-03
0.000000000000000000e+00
0.000000000000000000e+00
0.000000000000000000e+00
0.000000000000000000e+00
-9.814355916599867280e-01
-2.257410548202630485e-02
8.746552103603860706e-02
1.154476913158348356e-02
-1.379561048842924964e-01
0.000000000000000000e+00
0.000000000000000000e+00
-3.675322294370641108e-03
-7.804050091930757370e-04
-2.688823808458442460e-04
3.287135496334245570e-04
4.809207856120083502e-01
9.119773160800434889e-03
0.000000000000000000e+00
0.000000000000000000e+00
0.000000000000000000e+00
0.000000000000000000e+00
-4.780500155913057214e-01
-1.053928277454815182e-02
-8.376631635631535955e-02
0.000000000000000000e+00
1.317399259589636593e-02
9.623830934841395846e-02
1.800369594158441888e-01
0.000000000000000000e+00
0.000000000000000000e+00
-1.252196821243313669e-02
1.423360070752354989e-01
6.206263759624127546e-02
0.000000000000000000e+00
-3.162180703375357636e-03
-4.566072044942047492e-02
4.305769888805408008e-02
-1.877806895070082971e-01
-3.638060548262498500e-02
1.372618261621303716e-02
-9.872768925305356290e-04
-6.027240369936653908e-02
0.000000000000000000e+00
5.284585459243239247e-02
2.206244169516569792e-02
-2.040304012629820529e-01
1.554732775527714779e-02
5.302694383936743666e-03
1.378797035734746941e-03
0.000000000000000000e+00
-5.049602655289626707e-01
-5.997322417817275708e-01
-2.451193856657649661e-01
0.000000000000000000e+00
2.789118825513218006e-02
1.968803057007390833e-01
0.000000000000000000e+00
0.000000000000000000e+00
3.979499074820978463e-03
1.618864897921856449e-01
2.199982973049711618e-02
6.666744539715949505e-03
-2.544507403063153705e-03
1.985441144201613550e+00
-2.891443579172719991e-01
-6.852522703206089492e-03
0.000000000000000000e+00
-4.828687493974981489e-03
0.000000000000000000e+00
-5.226393566696838078e-02
-7.136674268934151133e-02
3.978606570858105318e-01
-2.783131375830082826e-02
6.989046813537805542e-04
7.232010132946585512e-02
0.000000000000000000e+00
-1.597595527551292083e-01
0.000000000000000000e+00
-6.516730289456115419e-03
-1.333436468416490550e+00
-2.435204992870137943e-03
0.000000000000000000e+00
6.582080707991129487e-02
6.514155344903643785e-01
0.000000000000000000e+00
0.000000000000000000e+00
-2.296998828449631880e+00
1.318631185271367662e-02
-1.781245448482972615e-01
1.047545625950675463e-01
2.353932107382367134e-01
0.000000000000000000e+00
2.009141401148633807e-02
0.000000000000000000e+00
0.000000000000000000e+00
6.992726369694418631e-02
0.000000000000000000e+00
1.623998004522253513e-01
1.741231534756010335e-01
4.159234079136637716e-03
2.948554110064739719e-02
-3.917109173656412383e-03
-1.546132600043770011e-01
6.274096219018820975e-02
3.347057900612281436e-03
0.000000000000000000e+00
2.810134448354992178e-03
-1.465612912372809551e-01
9.178444787208689740e-03
1.765738614390018613e-01
-5.911950929745164451e-01
1.350365729719472385e-01
9.596733260563591189e-03
2.504203744088455072e-02
-4.775585480752940655e-03
-2.074497680070779837e-01
-2.290144460366531562e-02
4.949723286522668929e-03
0.000000000000000000e+00
0.000000000000000000e+00
-2.370458534687499826e-04
6.030110945655692278e-02
-7.355410773213735169e-04
8.180457424388410184e-03
0.000000000000000000e+00
0.000000000000000000e+00
-1.292527681848763821e-01
-2.667696065011419641e-03
-2.590051980530067369e-02
0.000000000000000000e+00
0.000000000000000000e+00
0.000000000000000000e+00
-1.250272454157789811e-05
-2.661054289881818790e-04
2.848952238931482320e-04
-1.957380046549249963e-01
-1.094280613832868537e-01
1.367772483026425401e-01
4.978848614269680839e-01
8.864590205913256415e-01
2.352923000102950107e-02
9.296280698845770180e-05
0.000000000000000000e+00
-3.157073274558097435e-03
0.000000000000000000e+00
1.727023933728698279e-02
0.000000000000000000e+00
3.126931198123580891e-02
-1.384801791093673816e-03
8.408391534154872546e-03
0.000000000000000000e+00
0.000000000000000000e+00
0.000000000000000000e+00
0.000000000000000000e+00
0.000000000000000000e+00
0.000000000000000000e+00
0.000000000000000000e+00
0.000000000000000000e+00
4.851747925564665193e-02
7.406741737903799194e-02
8.530220789572381945e-02
-2.327464282052862845e-03
-9.689874752164968560e-03
4.307431451019574364e-01
0.000000000000000000e+00
0.000000000000000000e+00
-3.309061432565076066e-03
1.329733003457227343e-02
3.702901171540742137e-02
-5.695668716595459272e-03
7.415844174803145478e-03
1.676254649118049528e-02
1.032704730879214911e-01
3.626021874128565101e-04
0.000000000000000000e+00
0.000000000000000000e+00
0.000000000000000000e+00
0.000000000000000000e+00
0.000000000000000000e+00
0.000000000000000000e+00
0.000000000000000000e+00
0.000000000000000000e+00
0.000000000000000000e+00
0.000000000000000000e+00
0.000000000000000000e+00
-7.190392045232693770e-03
-4.853070320589369241e-02
2.371867717944128595e-01
-4.753566375644929787e-02
-6.145099068077993984e-03
0.000000000000000000e+00
-3.115577832899643282e-02
-2.078546650470393224e-04
-1.734919960925728269e-02
0.000000000000000000e+00
1.177273032657896734e-01
1.480226813785175642e-02
1.314125433862670111e-02
1.903338261925683825e-02
-1.658506064274481787e-02
-3.722668913076889602e-02
-1.774099381081546134e-01
2.013043754651134415e-02
-7.382266589180935812e-02
0.000000000000000000e+00
1.641424897931738069e-01
-4.157532692345120712e-03
0.000000000000000000e+00
2.430122832353854428e-02
1.566605777147924219e-02
0.000000000000000000e+00
0.000000000000000000e+00
0.000000000000000000e+00
4.020935189789174441e-02
9.739604146514650729e-02
-1.101820183652341134e-01
-6.050168408844094209e-02
-4.608395608446330671e-02
-7.544797901292077391e-02
-3.550902628700165764e-02
1.209095822387148966e-02
0.000000000000000000e+00
1.924474158653581221e-02
1.590909362202066823e+01
-5.873858935969292552e-04
-5.153377802604792307e-03
0.000000000000000000e+00
0.000000000000000000e+00
-4.718060453202617410e-02
-1.096270718902999930e-01
8.567778484423162200e-02
-2.036718519854596732e-03
0.000000000000000000e+00
0.000000000000000000e+00
3.686037638373611432e-03
0.000000000000000000e+00
1.089858770460560428e-02
5.257468415067407391e-02
0.000000000000000000e+00
0.000000000000000000e+00
0.000000000000000000e+00
-5.234704258741023145e-04
-1.537035551644023827e-02
-1.709845336740418997e-02
-1.288585522909118340e-02
0.000000000000000000e+00
0.000000000000000000e+00
0.000000000000000000e+00
7.838825901178821109e-02
0.000000000000000000e+00
3.567124215529229869e-02
9.785522279694582048e-02
6.523478012455986574e-01
-1.872757179848969500e-01
0.000000000000000000e+00
0.000000000000000000e+00
0.000000000000000000e+00
0.000000000000000000e+00
2.931931727326066162e-04
0.000000000000000000e+00
3.073356978653892213e+01
7.516928787743554609e-04
-3.626047530891591819e-01
-2.248108815613548278e-02
-6.992374308492132866e-03
0.000000000000000000e+00
-3.593038071390722548e-03
-2.971276600312472167e-04
0.000000000000000000e+00
9.658498485672869713e-03
1.287020635414256597e-01
6.630598209237801265e-03
0.000000000000000000e+00
0.000000000000000000e+00
1.189360972073467831e-01
1.132770531094181611e-03
8.837721658369651970e-03
0.000000000000000000e+00
-1.725900935723144181e-01
-1.821854178068033764e-03
8.056972998738669289e-02
0.000000000000000000e+00
0.000000000000000000e+00
0.000000000000000000e+00
0.000000000000000000e+00
-5.108707884617976619e-03
4.372350595571512788e-02
0.000000000000000000e+00
-2.814550834704024188e-04
0.000000000000000000e+00
-3.413866989705227062e-01
-3.847836542615630517e-02
0.000000000000000000e+00
0.000000000000000000e+00
0.000000000000000000e+00
1.543424403503884873e-03
5.430955248322077988e-01
-1.295217440337032445e-03
-2.598063575979552096e-03
1.906763492012754635e-01
0.000000000000000000e+00
0.000000000000000000e+00
-5.009970506911687771e+00
0.000000000000000000e+00
0.000000000000000000e+00
8.182972436443614050e-03
0.000000000000000000e+00
0.000000000000000000e+00
0.000000000000000000e+00
0.000000000000000000e+00
-4.730659559252743738e-04
0.000000000000000000e+00
0.000000000000000000e+00
2.701570537209876596e-02
0.000000000000000000e+00
-1.796165141061935311e-03
0.000000000000000000e+00
4.238423226203211214e-02
-4.240731407742531767e-03
5.842512448602875559e-03
-1.764691834129777492e-03
2.702611659170051778e-02
1.364979290563892713e-03
8.989717865929941487e-02
1.654697614349094116e-04
0.000000000000000000e+00
1.121165736708287786e-02
-5.181533369666435629e-02
0.000000000000000000e+00
-1.925128031492356895e-02
0.000000000000000000e+00
-2.593197270540149087e-03
0.000000000000000000e+00
0.000000000000000000e+00
-6.081412097407729034e-03
8.346487092253068729e-02
0.000000000000000000e+00
-5.168818584284310541e-03
0.000000000000000000e+00
0.000000000000000000e+00
0.000000000000000000e+00
-2.660336700995342973e-02
0.000000000000000000e+00
-9.552310009690315185e-02
6.807298376941647855e-02
-3.093782503633862521e-02
0.000000000000000000e+00
0.000000000000000000e+00
-3.756183064667922671e-03
-4.130677921194533114e-02
0.000000000000000000e+00
0.000000000000000000e+00
0.000000000000000000e+00
3.824355094841194735e-02
3.750560378847441617e-02
1.626467702211506161e+00
0.000000000000000000e+00
-9.936356192524853186e-04
0.000000000000000000e+00
0.000000000000000000e+00
0.000000000000000000e+00
2.964832899543779279e-02
7.866470707729924117e-04
0.000000000000000000e+00
-1.911586091624803939e-03
0.000000000000000000e+00
0.000000000000000000e+00
1.987960609320514604e-02
0.000000000000000000e+00
-3.561596676848570453e-02
2.409296803754117783e-02
0.000000000000000000e+00
0.000000000000000000e+00
-2.570174554920677925e-04
0.000000000000000000e+00
0.000000000000000000e+00
0.000000000000000000e+00
1.452233442766448328e-03
0.000000000000000000e+00
0.000000000000000000e+00
0.000000000000000000e+00
-1.879312342520898099e-02
-6.227336395710233552e-05
0.000000000000000000e+00
0.000000000000000000e+00
0.000000000000000000e+00
8.256055945379747133e-04
2.017885979711271649e-01
0.000000000000000000e+00
0.000000000000000000e+00
-1.488436124579207726e-03
0.000000000000000000e+00
0.000000000000000000e+00
0.000000000000000000e+00
-5.971168748557766082e-02
0.000000000000000000e+00
0.000000000000000000e+00
-8.877094775593181719e-01
0.000000000000000000e+00
0.000000000000000000e+00
2.534215981498075775e-03
0.000000000000000000e+00
0.000000000000000000e+00
0.000000000000000000e+00
0.000000000000000000e+00
2.094935263528282122e-03
0.000000000000000000e+00
0.000000000000000000e+00
0.000000000000000000e+00
0.000000000000000000e+00
0.000000000000000000e+00
0.000000000000000000e+00
0.000000000000000000e+00
-4.380061624612363591e-01
0.000000000000000000e+00
-2.099930248071531225e-01
0.000000000000000000e+00
0.000000000000000000e+00
-2.770776008004533636e-02
-5.279059635282457030e-02
-6.983658124633209362e-03
3.279855468132922974e-02
0.000000000000000000e+00
0.000000000000000000e+00
0.000000000000000000e+00
5.374059756361504285e-03
0.000000000000000000e+00
0.000000000000000000e+00
0.000000000000000000e+00
0.000000000000000000e+00
0.000000000000000000e+00
-2.964226636547119265e-01
3.167601881141721577e-04
0.000000000000000000e+00
0.000000000000000000e+00
0.000000000000000000e+00
0.000000000000000000e+00
0.000000000000000000e+00
0.000000000000000000e+00
0.000000000000000000e+00
0.000000000000000000e+00
1.222884453052655931e-02
-1.582138548222850440e-03
-4.412958020175525853e-01
-8.096301997570147513e-02
0.000000000000000000e+00
1.064295048138663539e-02
0.000000000000000000e+00
0.000000000000000000e+00
0.000000000000000000e+00
0.000000000000000000e+00
0.000000000000000000e+00
0.000000000000000000e+00
0.000000000000000000e+00
0.000000000000000000e+00
0.000000000000000000e+00
0.000000000000000000e+00
0.000000000000000000e+00
-1.017865724253842578e-02
0.000000000000000000e+00
1.228998186479667715e-02
0.000000000000000000e+00
-9.716112889473539366e-04
2.087833387121532103e-01
0.000000000000000000e+00
0.000000000000000000e+00
0.000000000000000000e+00
0.000000000000000000e+00
0.000000000000000000e+00
0.000000000000000000e+00
0.000000000000000000e+00
-4.751815041788784617e-03
0.000000000000000000e+00
1.932448957006449369e-03
3.090979689572613195e-02
6.504779192645898656e-02
1.134712222233863130e-02
0.000000000000000000e+00
0.000000000000000000e+00
0.000000000000000000e+00
0.000000000000000000e+00
0.000000000000000000e+00
0.000000000000000000e+00
0.000000000000000000e+00
2.562824792550322359e-04
-1.139190675934139557e-02
0.000000000000000000e+00
0.000000000000000000e+00
0.000000000000000000e+00
0.000000000000000000e+00
-3.548796035639068631e-04
2.804489922849853420e-02
0.000000000000000000e+00
0.000000000000000000e+00
0.000000000000000000e+00
0.000000000000000000e+00
0.000000000000000000e+00
2.602479173796835160e-02
8.158801421941023601e-04
2.109392544173332778e-04
0.000000000000000000e+00
1.186561633846980324e-02
-3.289464135033966230e-02
0.000000000000000000e+00
0.000000000000000000e+00
0.000000000000000000e+00
0.000000000000000000e+00
0.000000000000000000e+00
-9.878415346009325471e-02
-2.060759191947621541e-03
0.000000000000000000e+00
-3.043226197020522383e-02
1.002728476068694835e-02
0.000000000000000000e+00
2.665231526635949803e-03
1.844453446323770281e-03
0.000000000000000000e+00
0.000000000000000000e+00
-1.068319930998757336e-03
1.901919416943364128e-03
0.000000000000000000e+00
0.000000000000000000e+00
0.000000000000000000e+00
2.561412835086186723e-03
1.891935387134197066e-03
0.000000000000000000e+00
-3.032418714553963834e-01
2.163321326818726242e-02
4.370468303789044190e-02
0.000000000000000000e+00
-1.057213287273968925e-03
1.754116226406411639e-03
0.000000000000000000e+00
0.000000000000000000e+00
0.000000000000000000e+00
-1.006656960828917688e-02
-2.686243677012623097e-03
1.754518687863499890e-02
0.000000000000000000e+00
-1.689724120487557102e-01
2.077048495299131659e-02
-1.942040681681809870e-03
-5.722219437405585279e-02
1.064118067381081799e-02
-6.322694963544341767e-03
1.226469861598786931e-02
-6.734868528941476140e-02
-2.920574090076771823e-02
0.000000000000000000e+00
-1.396543534613553690e-02
0.000000000000000000e+00
-1.901426659896990334e-02
4.636995809098178739e-02
3.799253109056964506e-02
1.534889105540596446e-02
-3.344003633046202170e-03
0.000000000000000000e+00
0.000000000000000000e+00
0.000000000000000000e+00
0.000000000000000000e+00
4.938501653907987898e-01
0.000000000000000000e+00
0.000000000000000000e+00
5.755195258089711163e-02
9.839376807134905811e-02
0.000000000000000000e+00
1.858287620965673112e-02
0.000000000000000000e+00
0.000000000000000000e+00
1.285529549290916618e-01
1.071328472806341858e-02
-1.926879071192978687e-02
-5.819345364901888293e-03
-7.272359420916222561e+00
-1.666848211654926859e-01
-8.587265466664864566e-02
0.000000000000000000e+00
-2.302307722694113198e-02
-2.506077480896808096e-02
0.000000000000000000e+00
0.000000000000000000e+00
0.000000000000000000e+00
-2.582865331439054835e-01
-1.794850975967815856e-02
0.000000000000000000e+00
0.000000000000000000e+00
0.000000000000000000e+00
0.000000000000000000e+00
0.000000000000000000e+00
0.000000000000000000e+00
0.000000000000000000e+00
0.000000000000000000e+00
0.000000000000000000e+00
1.320171741910206422e-03
5.428737443005783418e-04
4.913928888983805539e-03
8.439105470796849987e-03
0.000000000000000000e+00
0.000000000000000000e+00
3.331111323072610819e-02
5.737458799792235012e-03
-7.835866819985930209e-03
1.437461476241507496e-01
0.000000000000000000e+00
0.000000000000000000e+00
0.000000000000000000e+00
0.000000000000000000e+00
1.875610053171683153e-02
1.265346353343548523e-02
-2.262979920808440640e-02
-1.561851657522168035e-01
5.035294414358192083e-02
0.000000000000000000e+00
0.000000000000000000e+00
1.277230101426198895e-03
0.000000000000000000e+00
0.000000000000000000e+00
0.000000000000000000e+00
0.000000000000000000e+00
0.000000000000000000e+00
1.434622226538711497e-05
0.000000000000000000e+00
2.474582824275357081e-03
0.000000000000000000e+00
0.000000000000000000e+00
3.389106400231044203e-02
-1.168724464068670102e-03
0.000000000000000000e+00
1.842613343619972990e-02
1.401706088010826667e-03
-3.334937532919394869e-03
0.000000000000000000e+00
1.114994794796811926e-02
-2.249295414979161911e-02
-3.315833206832678043e-02
2.609111236018854529e-02
0.000000000000000000e+00
-1.616467873543785475e-02
4.786534654446588342e-04
-7.799596005386238984e-03
0.000000000000000000e+00
-2.190561408876021132e-02
-1.324478724992859680e-01
0.000000000000000000e+00
0.000000000000000000e+00
5.565213466150325215e-03
9.513218597580372707e-03
0.000000000000000000e+00
2.426035438192483597e-03
0.000000000000000000e+00
0.000000000000000000e+00
-3.987237070530309790e-02
-6.431474946540245707e-02
6.399849461924723981e-02
0.000000000000000000e+00
4.011795506860282336e-03
0.000000000000000000e+00
-3.791571868775511691e-04
-6.112581222229836544e-05
-3.055883731192486283e-02
0.000000000000000000e+00
0.000000000000000000e+00
1.341658023596732363e-01
-4.713819984306577560e-02
2.257953791863367022e-03
0.000000000000000000e+00
0.000000000000000000e+00
-8.587122371045918801e-03
1.028562637557401543e-01
-9.694511883762286716e-03
-8.819820196741212648e-03
1.078960388092805450e-02
6.163213150397419196e-03
1.593657427541118193e-02
4.597431473001369756e-03
-2.760545114458097526e-02
0.000000000000000000e+00
0.000000000000000000e+00
-1.283754018152393761e-01
2.085456753317653338e-03
6.348071815765606030e-02
0.000000000000000000e+00
0.000000000000000000e+00
4.818048481857770821e-03
5.696694706625946968e-04
2.197266631552450833e-01
0.000000000000000000e+00
0.000000000000000000e+00
0.000000000000000000e+00
0.000000000000000000e+00
0.000000000000000000e+00
0.000000000000000000e+00
1.318905260756101649e-01
-6.123475664721774736e-01
0.000000000000000000e+00
0.000000000000000000e+00
0.000000000000000000e+00
3.422421876568449567e-02
-2.093042867767972229e-02
0.000000000000000000e+00
0.000000000000000000e+00
9.459568013479830546e-04
-4.512717990588096758e-04
-3.613182090151274839e-02
-3.425881591697629847e-01
0.000000000000000000e+00
-5.423445175970269261e-02
-1.744774369648849008e-03
-5.538002911499806391e-02
7.044895001996356876e-02
9.340626283542886529e-03
3.571863735539813900e-02
2.007975615116450285e+01
0.000000000000000000e+00
-2.006809812158075537e-02
6.127064562610050613e-01
0.000000000000000000e+00
0.000000000000000000e+00
0.000000000000000000e+00
0.000000000000000000e+00
1.093743979223884832e-01
1.663073782471455623e-03
0.000000000000000000e+00
0.000000000000000000e+00
0.000000000000000000e+00
0.000000000000000000e+00
0.000000000000000000e+00
0.000000000000000000e+00
-3.861563209049959089e-02
-6.256445484670820623e-01
-1.723641217192271174e-02
2.538592722752349394e-03
1.029856842894918273e-01
0.000000000000000000e+00
3.144306798790164059e-02
-2.841833987049019114e-02
-5.694640101408070254e-03
-3.345294330290803780e-02
-7.022914341523714410e-02
-1.674686421822242921e-01
-1.788539430244770381e-03
-7.675261870302492462e-02
0.000000000000000000e+00
8.997440226568908378e-03
-6.642541976771017265e-02
-1.354043976013142303e-01
-3.466378898514494572e-02
1.893173704734713719e-02
0.000000000000000000e+00
0.000000000000000000e+00
-1.179574423066411491e-02
0.000000000000000000e+00
-1.198441875111975335e-02
-6.401180694334600296e-02
-5.864300020294532095e-02
0.000000000000000000e+00
3.290814028932734225e-02
6.714891177717038744e-03
0.000000000000000000e+00
-4.451454729871318419e-03
-3.002111047550153067e-04
0.000000000000000000e+00
9.837454178022514081e-04
4.281091651233901452e-01
-2.090309696369817283e-01
-1.825478384152668943e-01
-3.038195351622578477e-01
-7.824554699318167494e-02
-1.961392881936734889e-01
1.781954165345000368e-02
-3.077491597983268278e-03
-1.074893376098648434e-01
1.080849526566721869e-02
7.685127321413391666e-02
1.904198861559347694e-03
-6.120177899979848540e-04
-1.357088685932415599e-02
-7.510765649151818213e-03
4.601769322898929294e-03
-1.123854688694088388e-01
-2.103626326285650341e-02
-9.120407187268116458e-03
2.954753737368496017e-02
-3.797873403322838889e-03
1.280841753513021521e-03
1.272410638798199148e-04
-6.252192369704375786e-03
0.000000000000000000e+00
-8.602696843468451426e-01
3.940026247926461001e-05
2.375557940600066600e-02
0.000000000000000000e+00
0.000000000000000000e+00
0.000000000000000000e+00
0.000000000000000000e+00
-1.273779740157257589e-01
0.000000000000000000e+00
0.000000000000000000e+00
-6.946611787532426530e-03
1.901723195379260989e-02
-9.694987346150946150e-01
-2.304534241497241398e-01
-5.399907787256182090e-02
-1.748243291281855183e-01
-9.724203932995983957e-02
-1.503793303082108790e-01
0.000000000000000000e+00
1.683521714017912618e-01
1.610340985626945998e-01
1.974605240168347153e+00
0.000000000000000000e+00
-7.445337972617769098e-04
9.605696961743803025e-03
-2.636564895724032020e-02
1.131831050224280377e-01
5.697109355970993994e-01
0.000000000000000000e+00
-2.337486111615357520e-01
9.127081139749466943e-02
-3.397719686313870335e-01
-3.036432711434644549e-01
5.720772711705587876e-02
0.000000000000000000e+00
-3.586709787498100488e-02
-7.480330165516143638e-03
0.000000000000000000e+00
0.000000000000000000e+00
0.000000000000000000e+00
-7.324474209380716916e-01
-6.682725172550099679e-02
-4.195828764727831811e-02
-2.630870908253107529e-02
-1.796280076808575571e-02
0.000000000000000000e+00
0.000000000000000000e+00
2.120195446077450044e-02
1.140185898165827078e-01
5.933933352624769231e-02
2.100383545763948728e-02
3.036064119970960026e-03
-1.423967246539551085e-03
-7.125390461612981022e-03
-2.440451990193602594e+00
0.000000000000000000e+00
5.666811629376911075e-02
4.577249812964687692e-01
3.022477131159160071e-02
7.718391666819038321e-02
2.013223071747677687e-02
-3.235327942131518975e-01
-1.333810513892490501e-01
-1.444814770208247556e-01
2.025094448866152419e+00
-1.048669071356985068e-02
2.991810583953497665e-03
-3.220417762362387526e-02
-2.811148731561003040e-03
-4.958323854169081057e-01
-2.529643273031730311e-01
0.000000000000000000e+00
0.000000000000000000e+00
2.061153851416545890e-01
2.606976745330051859e-01
-5.826163659959528304e-04
4.315039769142483411e-02
-3.558811096891431776e-03
-1.804356003721301061e-02
0.000000000000000000e+00
-1.859594597491211893e-02
0.000000000000000000e+00
-1.916023008126643444e-03
-4.903586186167770226e-05
0.000000000000000000e+00
3.848088625670422619e-02
-8.389047831654539459e-04
-8.478175489773286610e-05
-1.386889997930171856e-04
3.538030532461830524e-02
4.515777854039415562e-01
1.125028007822588716e+00
-1.982267526539939484e-03
0.000000000000000000e+00
-2.427236666994549708e-01
2.544121932907400171e-02
-3.028726305420627318e-02
7.114552142492685735e-03
-9.051546346831359363e-03
4.648129248991723222e-02
-2.199738198573925399e-02
-1.363969280658433814e+00
-1.135840879010514273e-03
2.322415238956584416e-01
7.119537569149460010e-01
-6.904200024897932941e-02
4.533137426298013140e-02
-9.939810279910521462e-02
0.000000000000000000e+00
9.216913024246585831e-03
-3.386156976231723820e-02
-5.051143409464491085e-03
0.000000000000000000e+00
3.647498865350971104e-04
3.495574539205712622e-02
-2.066857494900726372e-02
7.511899788805775913e-02
0.000000000000000000e+00
-6.961508761952985014e-02
-1.004198735976153051e-03
2.624570079810802613e-03
-1.890643107094830758e-02
-6.714949420543306347e-02
0.000000000000000000e+00
-7.371051259371912134e-02
-6.596949785629727114e-02
-3.318602075198305856e-01
5.120429290907788002e-04
0.000000000000000000e+00
-5.563856096480387231e-02
-4.290782750845607840e-02
4.403607646711676926e-02
-1.308495088636329323e-02
-2.011853829948499761e-02
3.933581084396967943e-03
0.000000000000000000e+00
-8.129277970724427260e-02
9.189756507353968873e-02
0.000000000000000000e+00
-5.317199783666150953e-04
2.331299274791427956e-01
1.257667107300160225e+01
0.000000000000000000e+00
0.000000000000000000e+00
-2.363184265446122978e-01
-7.373784310485004441e-03
0.000000000000000000e+00
-9.113454210671356748e-02
-1.806002146164128623e-06
3.905333704643515480e-01
0.000000000000000000e+00
-1.023010869755883352e-02
5.192931873080847832e-02
1.622391323070968699e-02
-2.946789053447407963e-03
1.956624981496888488e-02
-1.808637219034592639e-02
2.564820686715227338e-02
-3.064865909041094086e-02
-6.958556300345987433e-02
-1.743971625013471527e-01
-1.557897353421483153e-02
-9.229318769120378740e-03
0.000000000000000000e+00
0.000000000000000000e+00
0.000000000000000000e+00
0.000000000000000000e+00
6.600309647173893419e-04
8.362122978479446384e-03
-4.569390346992842633e-01
4.821637020729981071e-02
1.002531843290369873e-01
2.218068103347871634e-01
4.272883436399707580e-02
4.175440376064441100e-02
-4.793018719503271650e-03
-4.999086515377499165e-03
0.000000000000000000e+00
3.988514230218205558e-02
0.000000000000000000e+00
0.000000000000000000e+00
-7.885328657894762061e-02
-5.653740021727803738e-02
-1.375877763699548950e-01
-4.703684187636029967e-02
-1.579652360315349224e-02
4.248449552978212501e-02
0.000000000000000000e+00
-1.134148294137957234e-03
0.000000000000000000e+00
0.000000000000000000e+00
-1.264558991081311898e-03
0.000000000000000000e+00
-7.363669476203323072e-02
5.689977197801493469e-02
-2.975522333055253266e-01
1.550028437835314910e-01
2.059457705916364206e-03
0.000000000000000000e+00
6.567908744205554726e-04
1.853083574756589358e-01
0.000000000000000000e+00
0.000000000000000000e+00
0.000000000000000000e+00
1.259737317480678909e-02
-1.438179194714692133e-02
2.954530200081529473e-02
0.000000000000000000e+00
0.000000000000000000e+00
-1.871502743697759166e-02
-9.906325251631627540e-03
-4.009499124172317686e-01
-6.007250343125860453e-02
-4.730877946706402160e-03
2.789263894396909818e-02
-1.248974199067450358e-01
0.000000000000000000e+00
-2.898995499674296428e-03
4.616185245112727070e-03
-4.283363626407932570e-03
-6.582770961054197623e-02
0.000000000000000000e+00
0.000000000000000000e+00
0.000000000000000000e+00
9.644740652055812380e-02
1.831792707557462208e-01
9.449295740313726211e-02
5.403456064315454999e-01
-9.989551664386756707e-03
0.000000000000000000e+00
0.000000000000000000e+00
0.000000000000000000e+00
1.046234266895011145e-01
4.389856204291479186e-02
-5.272027846991951539e-02
2.905298912507271736e-04
8.110837117904019095e-03
2.963801665310953348e-01
7.438194087691789302e-02
-1.792853883229940659e-01
-1.429731917829092647e-02
0.000000000000000000e+00
-2.913652576504336400e-01
-1.245123748644210056e-02
-4.897931445087704005e-03
-2.801919579503272389e-02
0.000000000000000000e+00
3.973239672451136378e-03
5.854755990559575018e-02
-3.680955052218875395e-02
2.259800419860698989e-02
8.863002781384443640e-02
-4.039079866017879217e-02
7.178668165264136258e-02
-2.013533529777599210e-02
0.000000000000000000e+00
0.000000000000000000e+00
3.186011968686040981e-03
0.000000000000000000e+00
-2.106172615370114146e-03
-8.465728122883295348e-02
0.000000000000000000e+00
3.459960247093003599e-05
1.398228577580040710e-01
0.000000000000000000e+00
1.592559347256341639e-03
-6.989229417263029265e-03
7.241749306412267884e-02
-1.123038135151966689e-02
5.280352060030214616e-03
5.680943842184180831e-02
1.125533633026025437e-02
-4.961496037269339660e-03
0.000000000000000000e+00
0.000000000000000000e+00
-7.688625486595967659e-03
5.628586809263764340e-02
1.808520311090027616e-02
-2.981910790859291713e-02
1.951755927493545317e-02
-3.297628890403925817e-01
0.000000000000000000e+00
-4.966983659903415060e-02
-1.360018939986823439e-01
-2.405625370413339570e-01
-1.283510232782409527e-02
-2.181820288351015921e-02
3.674311042992614226e-03
0.000000000000000000e+00
0.000000000000000000e+00
3.681232114978305603e-02
-4.008183272590898870e-03
2.423939385794514345e-03
3.077134966949880424e-01
9.920048127831395095e-04
3.249522386835006216e-03
2.693284393102308716e-01
2.322169399669532508e-02
-7.462714205831486036e-02
-9.029077088269237342e-03
-1.967562481648473124e-04
0.000000000000000000e+00
0.000000000000000000e+00
0.000000000000000000e+00
6.996140663615993405e-02
0.000000000000000000e+00
0.000000000000000000e+00
0.000000000000000000e+00
1.727690635423324503e-02
0.000000000000000000e+00
0.000000000000000000e+00
3.115094596123979716e-03
-1.885474201802457561e-01
2.509247439089460907e-01
2.066912531261616906e-03
2.056643703335289675e-03
-7.340652790031695907e-03
-2.133873394953038627e-01
-1.257922621084120451e-02
3.789958991036169750e-03
-5.420853991591562115e-02
-2.895809301326675647e-02
-4.338075281555478502e-02
5.011209469238300102e-04
0.000000000000000000e+00
3.678107924868423070e-03
2.628807681742986735e-02
-4.168981286395020414e-01
1.649796566731147607e-01
-2.739005975938280796e-02
-2.019423554049759150e-04
0.000000000000000000e+00
0.000000000000000000e+00
0.000000000000000000e+00
1.473538224164599661e-02
-1.301268482244859670e-03
0.000000000000000000e+00
0.000000000000000000e+00
0.000000000000000000e+00
0.000000000000000000e+00
4.598997895950448882e-03
8.521854329973972339e-03
-1.581464108437329388e-02
-1.562524164086367354e-03
3.264260338481341645e-02
1.339132904693290244e-02
-1.244861320857612932e-03
-1.097220466052228546e-02
1.653112024208219788e-01
8.087322440150482850e-01
0.000000000000000000e+00
2.241419416844778190e-01
0.000000000000000000e+00
1.644473722228370887e-03
0.000000000000000000e+00
2.156355064723947459e-02
0.000000000000000000e+00
-3.289272093593778763e-03
-6.951505868033201925e-03
-1.518914849273532083e-02
-6.724213401269945808e-04
0.000000000000000000e+00
0.000000000000000000e+00
5.304626609932652130e-04
0.000000000000000000e+00
0.000000000000000000e+00
-3.756011731944231425e-05
0.000000000000000000e+00
0.000000000000000000e+00
0.000000000000000000e+00
-6.394628801177073760e-04
6.047450862834927859e-03
1.020184492644725383e-01
0.000000000000000000e+00
8.495202267504479380e-05
0.000000000000000000e+00
-1.336175534532382976e-02
2.100205915865338885e-05
4.257617194711082576e+00
0.000000000000000000e+00
1.240368125501870120e-03
0.000000000000000000e+00
6.904350533872768113e-03
5.297233024818549518e-01
1.571835206716697630e+00
-1.040829536819449369e-01
0.000000000000000000e+00
-1.808586574836414844e-03
-1.269167436934761349e-04
-7.913743620720670169e-03
-7.030489101708697897e-02
-3.886583300747855317e-03
-2.864244179336285501e-01
-4.050284967686153259e-02
1.175808343143552349e-02
0.000000000000000000e+00
0.000000000000000000e+00
3.354251023326280251e-02
2.549415739126308089e-02
1.130873993975319057e-03
0.000000000000000000e+00
-4.650599749466215876e-02
-2.087340956547441631e-02
-1.053269683194394844e-03
0.000000000000000000e+00
0.000000000000000000e+00
1.389600468021858631e-02
5.395186919717813445e-02
5.667848892431052166e-01
0.000000000000000000e+00
0.000000000000000000e+00
-1.932682528656121286e-03
-6.852048826745299470e-02
-1.879629099143722420e-02
-4.032100116641096355e-03
8.149101228988289702e-02
0.000000000000000000e+00
-2.531846994384086003e-01
-9.258936764665001186e-04
0.000000000000000000e+00
0.000000000000000000e+00
0.000000000000000000e+00
6.759701557804758884e-03
-7.557162501951733080e-04
0.000000000000000000e+00
-2.318646709197692835e-02
-5.606858174432314712e+00
0.000000000000000000e+00
1.210100010521793050e-03
1.163467072847425010e-01
-5.848745435609034767e-03
-4.209072341973679201e-04
0.000000000000000000e+00
1.686447887642924734e-02
9.719307462040830889e-04
0.000000000000000000e+00
-8.545797565436097191e-04
0.000000000000000000e+00
1.326835419212848421e-01
-2.117653424258246833e-02
-2.158752932778650394e-02
1.171095776358885808e-02
0.000000000000000000e+00
0.000000000000000000e+00
0.000000000000000000e+00
3.591865351419059466e-02
0.000000000000000000e+00
-9.483314187468523671e-02
-5.351709923938787611e-02
0.000000000000000000e+00
-3.680630650582848717e-03
4.218663181528721495e-02
0.000000000000000000e+00
9.401236659092299108e-02
5.388474577762743245e-02
0.000000000000000000e+00
9.588052150825323583e-01
-3.440201277028145932e-02
-1.080291719761369397e-05
-1.889699678307501260e-04
1.004202574649092940e-02
0.000000000000000000e+00
-2.469510090957556178e-02
0.000000000000000000e+00
0.000000000000000000e+00
0.000000000000000000e+00
3.314123924148924035e-03
7.120884353546681755e-02
0.000000000000000000e+00
-3.377304966528811569e-02
0.000000000000000000e+00
9.718701397280106328e-04
0.000000000000000000e+00
1.331514738956105642e-02
-3.035019426997188213e-02
-2.988396135655940755e-02
-4.753446437742575581e-02
-7.953160164807572020e-04
2.028398761203851575e-04
0.000000000000000000e+00
3.382530569265446759e-03
-1.469600424762283059e-02
0.000000000000000000e+00
0.000000000000000000e+00
0.000000000000000000e+00
0.000000000000000000e+00
0.000000000000000000e+00
-8.174275379601423155e-03
1.315268895881285260e-01
-2.063482341982232626e-03
9.302659568476553877e-05
3.756136813177709394e-02
0.000000000000000000e+00
1.884890745322110595e-01
5.472805192020023871e-03
0.000000000000000000e+00
8.043238829066678974e-02
-2.306055855950262055e-03
0.000000000000000000e+00
0.000000000000000000e+00
-7.213690089668674211e-04
0.000000000000000000e+00
1.565906909096042091e-02
-9.697701048060440587e-03
-6.882028071429194260e-02
1.976965257567047524e-02
3.028990107100039408e-02
0.000000000000000000e+00
-3.523206122466609417e-03
0.000000000000000000e+00
1.001337252596671418e-01
-4.520882227231169150e-03
0.000000000000000000e+00
0.000000000000000000e+00
0.000000000000000000e+00
9.898961645608495008e-03
8.849705171614844976e-03
0.000000000000000000e+00
0.000000000000000000e+00
0.000000000000000000e+00
0.000000000000000000e+00
7.175042826399886421e-03
2.864868549347115339e-04
0.000000000000000000e+00
-6.522122348478051612e-02
4.262506753427529728e-05
0.000000000000000000e+00
0.000000000000000000e+00
0.000000000000000000e+00
3.818323826542893359e-03
0.000000000000000000e+00
-5.753645580259022358e-05
-6.503101796131484369e-02
-1.194423872165462953e-02
0.000000000000000000e+00
0.000000000000000000e+00
-2.115191339458183384e-02
0.000000000000000000e+00
6.733791778561207253e-02
-1.093314061343524969e-02
-8.327188723321813160e-03
0.000000000000000000e+00
0.000000000000000000e+00
0.000000000000000000e+00
0.000000000000000000e+00
4.564933272541855588e-03
0.000000000000000000e+00
6.347765718876084706e-02
3.682123523975948604e-04
0.000000000000000000e+00
0.000000000000000000e+00
0.000000000000000000e+00
-7.157304751062911483e-04
0.000000000000000000e+00
0.000000000000000000e+00
0.000000000000000000e+00
1.367323922307257800e-02
-3.278956498606427601e-04
0.000000000000000000e+00
-6.342059538263152517e-03
-9.982154572419685290e-02
-3.480781396956713625e+00
-2.249641465617703062e+01
-5.350371854817197528e-03
0.000000000000000000e+00
0.000000000000000000e+00
0.000000000000000000e+00
0.000000000000000000e+00
0.000000000000000000e+00
4.708895669305664979e-03
4.143478654098179392e-01
2.525374015232535047e-02
9.140365400656047523e-03
0.000000000000000000e+00
0.000000000000000000e+00
0.000000000000000000e+00
-2.821542481398199315e-03
0.000000000000000000e+00
0.000000000000000000e+00
0.000000000000000000e+00
0.000000000000000000e+00
0.000000000000000000e+00
0.000000000000000000e+00
9.251429875715823023e-03
1.813683015031792300e-01
-9.367093123877186234e-03
0.000000000000000000e+00
0.000000000000000000e+00
6.827942496227922507e-03
0.000000000000000000e+00
0.000000000000000000e+00
-2.009575906483091704e-03
3.709165919283190314e-03
0.000000000000000000e+00
0.000000000000000000e+00
0.000000000000000000e+00
0.000000000000000000e+00
0.000000000000000000e+00
0.000000000000000000e+00
0.000000000000000000e+00
0.000000000000000000e+00
0.000000000000000000e+00
0.000000000000000000e+00
9.771709782499908570e-04
-1.686127667807314490e-01
-1.853121075451957811e-02
-8.773142680018013574e-05
0.000000000000000000e+00
1.142835416011533413e-03
0.000000000000000000e+00
0.000000000000000000e+00
3.071254394877809615e-02
1.270648145002222298e-02
4.486876007536323881e-03
0.000000000000000000e+00
0.000000000000000000e+00
0.000000000000000000e+00
0.000000000000000000e+00
0.000000000000000000e+00
1.105516189354117419e-03
-1.182891518044243591e-02
-2.214720079855086836e-03
-1.982334228825363420e-01
-1.390633923748883227e-01
0.000000000000000000e+00
0.000000000000000000e+00
-1.715852377492129918e-02
1.447912889090563742e-03
0.000000000000000000e+00
0.000000000000000000e+00
0.000000000000000000e+00
0.000000000000000000e+00
-9.091167837132792381e-04
2.415800580866144312e-02
-3.304007255217652865e-03
-4.539914504672109587e-03
-5.375121943145058645e-02
0.000000000000000000e+00
0.000000000000000000e+00
0.000000000000000000e+00
5.045943702235950595e-02
1.259505465471712042e-02
0.000000000000000000e+00
0.000000000000000000e+00
0.000000000000000000e+00
9.248248602273425722e-04
0.000000000000000000e+00
1.731950373694592094e-03
-7.220959475751208279e-02
0.000000000000000000e+00
-1.235774257315457817e-03
-1.240663242507181793e-03
-1.884819663175427151e-02
0.000000000000000000e+00
0.000000000000000000e+00
2.697764128541730796e-02
2.366311712221559789e-03
-3.702558245953134097e+00
3.573002615406803244e-03
-9.839190320468030326e-02
4.744241540926715482e-03
0.000000000000000000e+00
4.518035340973033387e-01
3.610930419513002504e-02
-6.041322251913167421e-03
8.394564659451618505e-03
1.208081641009746063e-02
0.000000000000000000e+00
0.000000000000000000e+00
-3.806850414653042969e-02
0.000000000000000000e+00
0.000000000000000000e+00
0.000000000000000000e+00
-1.100461539505123362e-02
0.000000000000000000e+00
0.000000000000000000e+00
0.000000000000000000e+00
-5.646280270236940513e-03
-1.076240344748852495e-01
-1.543351693182842474e-02
0.000000000000000000e+00
0.000000000000000000e+00
0.000000000000000000e+00
0.000000000000000000e+00
0.000000000000000000e+00
0.000000000000000000e+00
0.000000000000000000e+00
0.000000000000000000e+00
0.000000000000000000e+00
0.000000000000000000e+00
0.000000000000000000e+00
0.000000000000000000e+00
0.000000000000000000e+00
0.000000000000000000e+00
0.000000000000000000e+00
0.000000000000000000e+00
6.160218003868073861e-02
8.116951219375768273e-03
-6.336350455172337463e-03
-1.857345811685313375e-01
-1.374688188687418593e-02
0.000000000000000000e+00
0.000000000000000000e+00
0.000000000000000000e+00
0.000000000000000000e+00
0.000000000000000000e+00
2.563596257024251292e-03
-8.964110309008591071e-02
0.000000000000000000e+00
1.334689084450556480e-04
1.908009936539436791e-01
-1.011028025465721819e-02
0.000000000000000000e+00
-8.085463681033383532e-03
0.000000000000000000e+00
0.000000000000000000e+00
-4.308279947420261546e-01
-3.894549925177791250e-02
0.000000000000000000e+00
1.683389953836796635e-03
5.424349221759040135e-03
-7.171282554282987221e-02
0.000000000000000000e+00
0.000000000000000000e+00
0.000000000000000000e+00
-1.182744468296451947e-02
-1.569993458158614559e-03
-9.599834854316778576e-03
2.444247479008220675e-02
0.000000000000000000e+00
3.369993330936545822e-02
1.198240870443517542e-01
0.000000000000000000e+00
0.000000000000000000e+00
0.000000000000000000e+00
0.000000000000000000e+00
0.000000000000000000e+00
0.000000000000000000e+00
0.000000000000000000e+00
9.996834156259537876e-03
0.000000000000000000e+00
2.583388092835428845e-03
-3.550934517028363213e-02
0.000000000000000000e+00
-5.483875098583954610e-01
-2.721160360388054755e+00
-5.743521908657561216e-03
2.478448344312207674e-02
0.000000000000000000e+00
0.000000000000000000e+00
1.447906824915664269e-02
-4.498936326117326107e-03
2.642569636544353246e-03
0.000000000000000000e+00
3.047884196266859372e-03
0.000000000000000000e+00
0.000000000000000000e+00
0.000000000000000000e+00
0.000000000000000000e+00
0.000000000000000000e+00
-6.031145650149445647e-02
0.000000000000000000e+00
7.770631322371311135e-04
8.067873077902651055e-03
0.000000000000000000e+00
1.258545916136903555e-03
-2.752682289036594357e-03
-2.358303169366765192e-02
0.000000000000000000e+00
0.000000000000000000e+00
0.000000000000000000e+00
1.511342991977012752e-02
-7.059885481351392024e-03
-6.294843902729538310e-02
-1.649935607186198486e-02
0.000000000000000000e+00
-3.346946623125615292e-04
0.000000000000000000e+00
0.000000000000000000e+00
8.588587068947625344e-03
-1.544839107328814520e-01
-1.430362710006237992e-01
0.000000000000000000e+00
9.504025870869578854e-03
0.000000000000000000e+00
3.316699228276268757e-02
-9.139459536899306735e-02
2.062822463807779394e-01
0.000000000000000000e+00
0.000000000000000000e+00
0.000000000000000000e+00
-1.523810973235546415e-02
-1.718799758343456628e-03
-7.287081061405280280e-02
8.070957899053658041e-04
9.399756968981644312e-02
-3.855071975249333392e-03
0.000000000000000000e+00
0.000000000000000000e+00
0.000000000000000000e+00
-1.206311507423043876e-02
-2.270833652826481294e-02
8.095027733666263024e-05
2.339734154126743224e-02
0.000000000000000000e+00
-4.396253567712007232e-02
0.000000000000000000e+00
-9.393530681276077154e-02
0.000000000000000000e+00
-1.878891378782644728e-02
-5.691645858579251482e-02
-6.143562911444891417e-02
9.397386934154729893e-03
0.000000000000000000e+00
-9.336750724369598589e-03
0.000000000000000000e+00
0.000000000000000000e+00
4.080364843756133057e-03
3.618810648204096592e-01
2.369800846656678131e-02
0.000000000000000000e+00
0.000000000000000000e+00
1.789540327226621288e-03
1.847739230921747328e-02
-2.936902229514230453e-02
-5.150273605814886108e-02
0.000000000000000000e+00
-2.385875907464448178e-02
-3.277466851887290977e-02
0.000000000000000000e+00
0.000000000000000000e+00
-4.954892686569756580e-03
0.000000000000000000e+00
0.000000000000000000e+00
1.798818372168364474e-02
-6.189502389044117259e-02
0.000000000000000000e+00
0.000000000000000000e+00
0.000000000000000000e+00
0.000000000000000000e+00
6.703129216322413920e-04
0.000000000000000000e+00
3.598286933466227772e-02
5.864902741365806381e-03
0.000000000000000000e+00
0.000000000000000000e+00
5.792130535397482100e-02
0.000000000000000000e+00
-1.135664730147870893e-01
2.697267808010646827e-03
3.922369792726512067e-02
2.874634812168613135e-02
2.273052442949394930e-02
0.000000000000000000e+00
0.000000000000000000e+00
1.096969901992344565e-01
-5.611406835778196683e-02
-1.457655300391122566e+00
0.000000000000000000e+00
-7.851299778108659921e-03
-1.610342093124875120e-04
9.629004588100546595e-04
0.000000000000000000e+00
0.000000000000000000e+00
2.471467996884678300e-03
-7.035312517850461633e-02
0.000000000000000000e+00
-7.349507146151998405e-02
0.000000000000000000e+00
-1.297302081353242376e-01
0.000000000000000000e+00
0.000000000000000000e+00
0.000000000000000000e+00
6.769474398484226670e-03
-2.671281988532960283e-01
6.837312234042643025e-04
-1.288132839220280657e-01
0.000000000000000000e+00
0.000000000000000000e+00
3.889210710630115753e-02
-3.806199269731352225e-02
4.472349256162238412e-02
-9.734424288382657886e-02
-5.501718418667835009e-02
0.000000000000000000e+00
0.000000000000000000e+00
4.793507745994948083e-02
-7.583260697566758524e-02
3.429284551459547969e-02
1.353107192282121674e-01
2.316239846824560272e-02
2.589455224760088548e-02
0.000000000000000000e+00
2.844903730093386804e-02
2.370833858769520464e-01
-2.674128825969606174e-02
0.000000000000000000e+00
-2.331727804246602059e-02
3.486066491974024878e-02
-1.125191282765982959e-01
-4.782934052370327871e-01
-1.473143310906803016e-03
-3.856792025401267754e-02
-1.016907870624320434e-02
-2.526002768019916522e-01
2.312441330619744839e-03
0.000000000000000000e+00
0.000000000000000000e+00
4.554790008289248371e-06
1.619214199337611348e-01
8.480365059909240888e-03
2.084042709104134139e-01
3.257823948525275220e-03
0.000000000000000000e+00
0.000000000000000000e+00
6.897835429856016831e-02
4.799909192427381233e-01
-1.010276364538262826e-02
-2.147261412056386543e-03
-1.154276921486894689e-03
-1.031514404699023502e-01
0.000000000000000000e+00
0.000000000000000000e+00
1.482016447829203054e-01
-1.310907553397655002e-02
-2.775265143192059275e-02
0.000000000000000000e+00
5.894019556112779432e-03
-1.352711874209237553e-01
-7.924281905097783213e-03
3.715772341584656635e-01
-1.661421227133485501e-01
-2.426494433384054558e-02
1.281464650499771984e+00
5.901975112821951974e+00
-1.404590328905379049e-01
-6.130481942427117303e-01
0.000000000000000000e+00
0.000000000000000000e+00
0.000000000000000000e+00
0.000000000000000000e+00
2.413220866303811621e-02
3.367880250746468213e-02
0.000000000000000000e+00
2.092318976546420906e-01
1.650268381174311016e-01
-9.589251490949385337e-03
4.641597414187755288e-01
1.008282266302723967e-01
0.000000000000000000e+00
4.837915061417898469e-05
6.181246867285617591e-02
4.030590078650131414e-02
4.255514606431214930e-01
1.421097593396547232e-01
1.752063904545548070e-02
-8.248565301509657756e-04
-5.177593018785775492e+00
-6.507698409165192655e-02
0.000000000000000000e+00
0.000000000000000000e+00
-6.591317230998350318e-02
1.419358153990179887e-03
0.000000000000000000e+00
0.000000000000000000e+00
3.818809215086682585e-02
-2.572157690672073616e-03
5.297443328794150252e-01
1.037994099098472622e-01
-1.630332351204782579e-02
2.976147193967356233e-02
5.154650769221347240e-01
8.157104639791284972e-02
5.336173226611892273e-04
-1.053207226726725690e-02
1.000861026350483296e-01
9.183133715164005714e-03
3.615199752589212234e-03
1.244160544013067499e-01
5.948292966092837142e-02
-4.530260476049035923e+00
0.000000000000000000e+00
8.768045462628624998e-03
0.000000000000000000e+00
-1.383999687938416295e-02
2.777063548869145720e-02
0.000000000000000000e+00
3.677748046468498622e-02
-7.456042533964875318e-02
0.000000000000000000e+00
0.000000000000000000e+00
5.391079487483901866e-02
5.894254675694111656e-01
2.473525819099001849e-02
4.395387960912527370e-01
5.584661585625705360e-02
-1.319644598862184937e-01
-1.111119201333445883e-01
-7.757919470355026381e-02
0.000000000000000000e+00
1.162291841039854445e-01
4.883173112791451553e-02
0.000000000000000000e+00
-2.977152160272038967e-03
1.518733055719890257e-01
1.793594028631848403e+01
0.000000000000000000e+00
2.184141911791439086e-02
5.629102799967335841e-03
0.000000000000000000e+00
0.000000000000000000e+00
-3.784197247324452905e-04
0.000000000000000000e+00
-1.869173427515002928e-02
1.542930533137524263e-01
8.325070180772370983e-04
1.422391514682606818e-04
0.000000000000000000e+00
8.358446516062227952e-03
-6.446427057565419505e-02
1.589079990940548692e-01
-8.487254987501403197e-03
0.000000000000000000e+00
-1.631637170775333823e-02
0.000000000000000000e+00
0.000000000000000000e+00
0.000000000000000000e+00
0.000000000000000000e+00
2.661465066030642701e-01
0.000000000000000000e+00
1.427924126189463946e-02
0.000000000000000000e+00
4.083221104207539025e-03
-6.299118638180664642e-02
0.000000000000000000e+00
-1.202768818904846777e-02
-3.844791536175804630e-02
-2.246884868694670745e-01
1.340804921520873029e-04
1.676239512681608826e-02
2.278368262082442950e-04
2.287457298612638208e-03
0.000000000000000000e+00
-8.876695701587509969e-05
1.199228887006264088e+01
1.153851818416377038e-02
0.000000000000000000e+00
-2.035868544448967421e-01
9.889004418130731278e-04
0.000000000000000000e+00
4.157495001565615460e-03
1.900286244093866810e-04
-9.351706346636539128e-04
1.007036246353277230e-02
0.000000000000000000e+00
0.000000000000000000e+00
-4.542082999242793781e-03
1.120318505417277483e-02
-2.244802162451270400e-02
-3.456655998301562671e-01
7.314532375090249117e-03
-7.150472687386648651e-01
-4.595866451734364859e-04
1.524984644139942662e-02
-6.874760433852001792e-04
1.061863315780730010e-01
-3.917096385610219222e-02
0.000000000000000000e+00
0.000000000000000000e+00
0.000000000000000000e+00
-4.022276957243945544e-03
-5.577072912175355945e-01
3.611797959573278399e-02
0.000000000000000000e+00
-2.902813042280751130e-04
-1.362514755651006784e-02
-3.660007140766911027e-01
-6.226005754201893727e-02
-2.016432872338847718e-03
-1.416640836328030256e-04
0.000000000000000000e+00
4.067455252127352011e-02
0.000000000000000000e+00
7.129102463598807138e-04
1.562352955188939761e-02
6.279167720611665837e-01
1.209898942927339210e-01
1.595323654002567867e-03
0.000000000000000000e+00
9.560125556630515165e-02
-6.487625441013088190e-02
-2.882268704234935280e-02
-1.734814414915124975e-02
0.000000000000000000e+00
-2.327035736236755456e-03
0.000000000000000000e+00
2.686983670737309871e-03
1.288393633222855439e-01
-7.272917297686948279e-03
0.000000000000000000e+00
-1.364287481537782565e-01
2.424493103332023687e-05
-1.482121882100356225e-01
-3.675085907733623147e-02
8.323876725158385614e-03
3.903505932150478502e-02
-8.172330920427478811e-04
1.083933402885588898e-02
0.000000000000000000e+00
-4.027637176198335667e-02
-6.900347159026603769e-03
-5.147597068017127631e-02
0.000000000000000000e+00
-1.949455472250707089e-01
-3.629386722780757191e-02
-9.926968122248751303e-02
3.505735678025701657e-02
3.435694652559791867e-02
2.552671205137577778e-03
-8.805205272735347477e-02
0.000000000000000000e+00
0.000000000000000000e+00
9.078189725479586525e-03
1.623301230559027336e-02
-3.369455628110918245e-03
1.048698940241485009e-02
-7.518849277255730936e-05
0.000000000000000000e+00
0.000000000000000000e+00
-5.933350641244532729e-03
-5.784494135876783183e-03
3.044846139243108374e-02
-2.325362551050458304e-02
2.484477025595301531e-05
4.127213077921028095e-01
1.186766488792377894e-01
4.922720300177646502e-02
9.340022365183813652e-03
1.608507147886291053e-02
-2.245377639804729472e-02
2.129432286743309505e-02
5.771920958733759432e-01
7.861911660142364977e-02
-2.246572287925727995e-01
0.000000000000000000e+00
-1.456141366338938314e-01
-1.780289438872763863e-01
-3.258698566250921563e-03
-4.868964584137558567e-03
-5.062355429950057828e-02
-2.209479698326444197e-01
-2.304953036644749598e-02
6.781585921457874977e-03
1.943126321976200443e-02
-4.387800491752155141e-01
-2.357969670461882439e-01
-1.802570690293153885e-03
3.357343452263492111e-04
3.761576622564308803e-01
-8.790435345425740010e-02
6.328729513639113832e-03
4.221485041700057811e-02
2.115375144311295620e-03
-1.420240181075084658e-02
-6.282239478869991456e-02
9.979661436226158408e-03
7.463903576823419095e-02
-1.512976767092010129e-02
-1.815884227767749215e-01
-1.585751584361024674e-02
3.372288100354587509e-02
-4.505390369817276371e-03
2.460853539579890576e-03
4.037784885773554322e-02
1.599563628469682225e-02
6.217142463262255100e-03
8.265860426781802828e-02
5.454981977928120666e-03
-1.911164162608616768e-01
-3.801934511608610900e-02
1.146989654851879453e-01
-6.717502749946253730e-03
3.015115132778061185e-03
9.442350171161403849e-02
1.673299563175764670e-02
-1.413402402019921233e-01
1.437281843608674281e-01
4.751514912815700499e-04
-4.546371734755324384e-02
4.654153506347261278e-03
4.708225739956137072e-03
0.000000000000000000e+00
0.000000000000000000e+00
3.682805152808661941e-01
1.955432054553054785e-02
1.888480261621995615e-02
0.000000000000000000e+00
0.000000000000000000e+00
0.000000000000000000e+00
0.000000000000000000e+00
-7.429951931167885770e-02
1.135379551270927290e-03
0.000000000000000000e+00
0.000000000000000000e+00
2.746619395375958506e-02
1.540012426439350997e-02
-1.026780811955673722e-01
-2.189502108536360916e-02
5.841841888649107820e-03
4.420326684593413324e-02
-7.784661807315019588e-05
-3.836404130725344641e-02
-2.248411042665487969e+00
0.000000000000000000e+00
-6.619719910388688518e-03
7.156303795079324570e-02
4.952406206973164471e-02
1.241010762452076921e-01
1.407350915423197790e-01
1.192203808402094722e-01
-1.070690420176844126e-01
-1.054345604610626777e-02
0.000000000000000000e+00
-2.116816469041937210e-01
-1.801927410995282919e-01
-7.610395417891986473e-03
1.497311168529843334e-02
-1.267134403399986127e-02
0.000000000000000000e+00
0.000000000000000000e+00
0.000000000000000000e+00
0.000000000000000000e+00
0.000000000000000000e+00
2.859732906923217327e-02
0.000000000000000000e+00
-1.823700463442751510e-02
-2.675466875937757699e-03
0.000000000000000000e+00
8.311719428101826956e-04
1.531767689546453814e-02
0.000000000000000000e+00
-5.236323923804466623e-02
-1.620474029998222321e-01
-1.619849841908315824e+00
1.512508077472046915e-02
1.463530653960905953e-02
-2.537000516653132903e-04
-1.134018547120465153e-01
-3.629834635138710630e-01
5.515700539814480385e-02
1.201100879182415539e-03
1.535130446828012439e-02
1.970046368186907648e-01
1.491576478351699583e-02
-5.268523290591461405e-01
8.909356928353276417e-02
-2.854232145338150319e-03
9.847434589844381025e-02
-2.676257122368186359e-02
-1.170788788483458596e-02
-9.609741093225689090e-02
-3.292263066931957471e-01
-8.610031091256398206e-02
-5.643487310383478173e-01
-3.817718308428973417e-01
5.559703614226540330e-03
-5.332754478115205032e-02
-1.010064911131267340e-01
-1.607681537275395742e-02
0.000000000000000000e+00
-9.909628570930252914e-03
0.000000000000000000e+00
1.971780842622666147e-02
1.378711409324070427e-03
1.804244352623729786e-01
1.701523266564797243e-01
-1.750502237998789647e-04
-1.962352394673139849e-02
1.483393495559069859e-02
0.000000000000000000e+00
0.000000000000000000e+00
-1.683009213588196676e-02
-3.390530550511615671e-01
-6.447965565566490809e-02
0.000000000000000000e+00
1.875381009077382258e-03
-3.509084982108769818e-02
0.000000000000000000e+00
-1.018532065387261955e-03
0.000000000000000000e+00
0.000000000000000000e+00
-3.970608422036600582e-03
-5.357993834408792955e-01
3.788571509026038286e-02
4.931959669004722102e-02
6.262507719986143417e-02
-1.056476254509250900e-03
-1.905999600317051512e-03
1.462602501416682479e-02
-4.522297650570272776e-03
-2.374616512783016969e-03
-1.480799488702942354e-03
-2.753822785646848834e-02
-1.210434296470652704e-02
-4.304045998470322314e-03
0.000000000000000000e+00
-3.032677667196092552e-01
2.613292621010934215e-03
1.085263554099114187e-02
-9.558286705748798850e-03
2.531004271797984359e-02
-2.370584303350928377e-03
-9.473899449218801949e-03
0.000000000000000000e+00
-4.376835522691893687e-02
4.996334598111181191e-01
