1.527599695950423737e-03
1.466113449356211754e-02
-5.791379131671776925e-04
4.729412372768270357e-04
0.000000000000000000e+00
-9.374058429652437630e-01
-3.256073867034127434e-02
-2.360982726979847166e-03
-5.702926216118397139e-03
0.000000000000000000e+00
-5.481138100337825531e-02
0.000000000000000000e+00
-4.747051544275526953e-03
2.306961248348760995e-03
0.000000000000000000e+00
2.607360943518650248e-02
2.534949891862337545e-01
-1.808609946787387568e-01
2.586130874141144521e-04
2.280728160640115021e-03
4.336097571214737531e-03
8.355517430542155899e-02
-4.052955302977541939e-03
-5.636517108251926089e-01
0.000000000000000000e+00
-2.350258649179993303e-02
-1.099530531555027463e-03
-1.219249555159085813e-01
1.686935556636591504e-02
0.000000000000000000e+00
0.000000000000000000e+00
0.000000000000000000e+00
0.000000000000000000e+00
-8.953281240405999361e-03
-1.442894701853012634e-02
0.000000000000000000e+00
1.052873909432692871e-02
-6.700254184349252462e-02
0.000000000000000000e+00
4.367441129616089074e-02
-1.131908517220671937e-03
2.498133597045314874e-02
-1.638245578886126930e-01
2.664336665519288425e-02
-1.398189311874774125e-02
-3.897964520851085468e-02
0.000000000000000000e+00
0.000000000000000000e+00
0.000000000000000000e+00
2.913973352242351430e-03
0.000000000000000000e+00
1.900846814389613518e-02
0.000000000000000000e+00
0.000000000000000000e+00
0.000000000000000000e+00
0.000000000000000000e+00
0.000000000000000000e+00
0.000000000000000000e+00
0.000000000000000000e+00
0.000000000000000000e+00
-1.521776025542134455e-03
-2.339179178217369939e-03
-1.666424257594537744e-02
0.000000000000000000e+00
4.581308356907979329e-01
-1.197996975685936558e-03
9.162773454963387201e-03
1.846588732471566088e-02
0.000000000000000000e+00
-1.595445298243878055e-02
-2.370491244090650873e-01
-9.588971278373654809e-04
3.428812945142700915e-03
-2.876816574908750562e-02
7.376741844318663623e-03
3.466601966303771432e-02
3.941855785784117300e-02
0.000000000000000000e+00
0.000000000000000000e+00
0.000000000000000000e+00
0.000000000000000000e+00
-3.053421624994610006e-01
1.395404160632135807e-02
0.000000000000000000e+00
7.843939966929419205e-04
-3.817087035775084541e-03
3.305994793876061060e-04
0.000000000000000000e+00
-5.595054491330041235e-03
1.557002364468399944e-02
8.385449056320437577e-02
5.892991274754840608e-02
8.491634797536229406e-02
1.782598719569898280e-03
1.906318277384156171e-02
3.931753524424568269e-01
-9.930858467950279267e-02
2.097968356213793517e-01
-4.650134043841807783e-04
5.216517260696573732e-01
8.523288443761836697e-02
3.801278706317245525e-03
0.000000000000000000e+00
5.635783082960885669e-03
-1.001695408396049763e-03
2.181061423963723545e-01
0.000000000000000000e+00
-9.030569923308660873e-02
-6.208745813580676121e+00
2.204000245303432484e-02
0.000000000000000000e+00
0.000000000000000000e+00
0.000000000000000000e+00
0.000000000000000000e+00
-4.709107358169475899e-02
2.342727591011826462e-03
-2.506049489976575409e-02
6.907848790701999475e-02
3.616735488813797861e-02
2.073892470909348418e-02
7.065646578067033556e-03
6.791617176027209962e-03
0.000000000000000000e+00
1.594456646644220460e-02
-4.630263032132368034e-02
4.588631291819590761e-04
1.548574913408327924e-01
-1.177974023620306787e-01
-4.339370058984886452e-02
-9.751239678403104960e-02
2.990609784503606844e-02
-6.565198410677716180e-03
-1.800586557208093972e-03
-5.887014112508321545e-03
-5.780409774015244501e-02
1.688981743014633663e-02
2.693674224044494830e-03
0.000000000000000000e+00
-9.562816561496509035e-03
0.000000000000000000e+00
-2.871482693291557003e-02
1.301605947832232442e-02
-1.416781647091962595e-02
-4.034457289433249910e-02
0.000000000000000000e+00
0.000000000000000000e+00
4.255140617922911067e-02
1.149633419304776569e-02
2.027275479752306336e-04
-5.078331085905599118e-02
-3.800138072197011274e-01
1.585822081499903280e-02
-2.281007948728259321e-02
-3.798852568015029796e-01
1.410717462841972088e-02
0.000000000000000000e+00
7.463922559710796378e-02
2.193548283796981635e-01
-2.045549595114138364e-01
1.387596507297382542e-01
0.000000000000000000e+00
-7.183244564894755713e-02
-1.271463218920553797e-03
-6.830203425792215691e-03
1.907995385473216371e-02
8.788667394190043461e-03
-7.735639446639342581e-03
2.846003233005196895e-03
-1.166422446952910044e-02
2.757510649150791970e-02
6.934904484274605208e-02
0.000000000000000000e+00
4.818268408161321403e-01
6.239257850356799088e-04
0.000000000000000000e+00
7.337956968656592083e-03
0.000000000000000000e+00
3.645152486562316073e-04
0.000000000000000000e+00
-7.562796346426974015e-03
4.906873308493743535e-03
-8.006377555376243543e-03
9.724143455746457262e-04
1.946144284269246075e-03
3.166691001321815524e-02
3.161153028554600404e-03
1.318578091409710468e-02
-7.511115168679383114e-01
-6.880668978742997613e-03
0.000000000000000000e+00
1.248042740178902099e-03
-3.964587943321575686e-03
-7.503607565269132529e-02
1.113498881112015282e-01
-1.156139429445440965e-02
1.387908782758735457e-02
3.030327993207107551e-02
0.000000000000000000e+00
1.062788210552698641e-02
-5.092173100798998153e-02
-1.796636860873096764e-01
-3.078568987532690447e-03
0.000000000000000000e+00
4.275525787131970352e-03
-1.661184097973340823e-02
-5.141722632513317376e-03
7.868959377462700008e-03
0.000000000000000000e+00
1.522374555719804541e-03
0.000000000000000000e+00
6.914822033221851641e-03
-1.930848701145458993e-02
2.709376239119817287e-01
1.101092328575620401e-02
-1.113917123753641741e-04
-9.801710151915214719e-03
-2.599854670695203596e-02
0.000000000000000000e+00
-8.054374378972867232e-02
7.782779803357117721e-02
3.069604012025815565e-01
3.537708834065327740e-03
1.263410237750106808e-02
4.036376584911864976e-03
-4.746848227123698881e-03
-8.332181688914537532e-03
6.282511682131468669e-03
1.312026694901796686e-03
-1.339023016437701219e-01
1.967391971534083409e-03
-2.981100440828626623e-04
0.000000000000000000e+00
0.000000000000000000e+00
-6.324436908989243371e-03
-1.686086291713708688e-04
1.103129261579677972e-02
6.853701707602873061e-02
3.672048093776028588e-02
0.000000000000000000e+00
-2.404362313075471096e-03
0.000000000000000000e+00
1.477399693643754175e-01
2.101980359513266547e-02
7.606592461685538452e-03
5.561022465129558667e-03
0.000000000000000000e+00
-4.530439396833068483e-02
1.109601153057976439e-03
0.000000000000000000e+00
0.000000000000000000e+00
1.267182479523775579e-02
0.000000000000000000e+00
-2.165082584407747035e-01
0.000000000000000000e+00
1.235085562966358463e-01
0.000000000000000000e+00
0.000000000000000000e+00
1.428467890767902470e-03
0.000000000000000000e+00
-2.751166263503928566e-01
-3.614333605187185910e-02
1.557038796140449918e-02
6.793591689511043396e-04
0.000000000000000000e+00
1.667652886391520484e-01
4.427802135544344209e-01
2.853332929511426252e-03
0.000000000000000000e+00
0.000000000000000000e+00
1.207553000958405502e-02
-1.679999004818507734e-03
-2.702967507484615312e-02
0.000000000000000000e+00
1.653866895522630807e-03
5.355982530198222930e-02
3.005556594844024237e-02
0.000000000000000000e+00
3.401183878246537562e-01
3.275739515240756045e-02
2.064259356746753378e-03
1.005193431702489006e-03
8.971639654518265977e-03
0.000000000000000000e+00
-2.950463524627609455e-02
-1.963587629699046697e-02
1.431544046158249317e-02
4.260017032434353437e-04
0.000000000000000000e+00
0.000000000000000000e+00
-1.475608226805887394e-02
-8.933781811472443074e-03
-5.106408106309903022e-02
-1.431494866136552024e-01
0.000000000000000000e+00
2.337530812701024468e-04
5.425903922157102599e-01
7.646858203793713282e-02
8.552104972267805805e-03
-6.027708633082812240e-02
6.145351525471832294e-05
0.000000000000000000e+00
0.000000000000000000e+00
1.447132974293540049e-02
1.774577831835882132e-03
0.000000000000000000e+00
0.000000000000000000e+00
-4.066220351628492546e-02
3.252338465174212101e-02
-1.526917653555654245e-02
3.625586095902485692e-03
0.000000000000000000e+00
-2.171108276429990422e-02
1.508669000031778729e-02
4.044661166432760024e-02
-1.890008661610459786e-02
-2.563916592124266137e-03
-7.487542695294540501e-03
-6.261944330838122019e-02
-7.188191463748356581e-03
5.864674658395046397e-02
-1.691607111515123010e-02
2.786710426871575491e-05
-2.517337372679811711e-02
0.000000000000000000e+00
0.000000000000000000e+00
2.153550048704509778e-02
0.000000000000000000e+00
3.550821697673858801e-02
0.000000000000000000e+00
0.000000000000000000e+00
-3.656099746413203622e-02
7.697182732135839089e-02
3.900147488086030262e-02
-1.602490609553768172e-03
-5.083020386160821795e-03
-6.607600896550674952e-02
2.237895220891653221e-03
0.000000000000000000e+00
-9.946387958575931415e-03
-1.708021752788154183e-03
0.000000000000000000e+00
-7.053861113701695440e-02
0.000000000000000000e+00
-2.893761016995003398e-03
2.038071717022357440e-02
0.000000000000000000e+00
0.000000000000000000e+00
-1.551781315822287717e-03
-2.244177848038107770e-02
-2.083539641989713351e-02
-4.252488881039446361e-02
-1.650235003604760137e-02
0.000000000000000000e+00
7.813097627550263241e-03
7.576802678009729626e-04
3.512188096019889377e-02
-6.224870438079491836e-02
1.795159659719446771e-04
0.000000000000000000e+00
0.000000000000000000e+00
8.743382402533127207e-02
0.000000000000000000e+00
-2.789221865579933901e-01
-3.241564746695457105e-02
0.000000000000000000e+00
0.000000000000000000e+00
0.000000000000000000e+00
0.000000000000000000e+00
-4.276476474283683916e-03
-5.756807610811649767e-02
0.000000000000000000e+00
0.000000000000000000e+00
-7.773964590299184060e-03
9.284492803449001866e-03
5.437440600056463180e-02
-9.567208271569899170e-01
0.000000000000000000e+00
0.000000000000000000e+00
4.221564941180634863e-03
-2.252064268128559088e-02
0.000000000000000000e+00
-1.067370708067811246e-04
0.000000000000000000e+00
7.491017396903186520e-02
1.929994346074780653e-01
2.112367076598915469e-02
1.407500506155688657e-03
0.000000000000000000e+00
0.000000000000000000e+00
0.000000000000000000e+00
0.000000000000000000e+00
-1.107604661272841053e-03
2.075412418627919225e-03
-1.266735350604694492e-02
0.000000000000000000e+00
7.530639056115406849e-02
-8.131804893511909160e-01
2.582025629796506905e-02
1.568796933487258752e-02
-4.095348802889593742e-04
1.736285637670020518e-02
7.566580415989275499e-02
0.000000000000000000e+00
-1.085277698185521276e-03
-2.210728142306109256e-02
-2.755262138001958114e-02
-5.034819555573218780e-03
6.892284290516126604e-04
4.284443534113835383e-02
4.476035762200422652e-02
3.719135427976812125e-02
-2.847128296533323055e-03
3.464938776891570565e-02
6.129994445033239148e-02
-1.658047451715459822e-02
0.000000000000000000e+00
0.000000000000000000e+00
0.000000000000000000e+00
0.000000000000000000e+00
0.000000000000000000e+00
0.000000000000000000e+00
1.679547985451478390e-02
-3.422050033499403603e-03
-1.782356345226248848e-02
5.376520022566888546e-02
1.276878303245549962e-01
1.596282582185055698e-01
2.515126391702493178e-02
1.168434247975621149e-01
4.493928062315940067e-03
0.000000000000000000e+00
-3.611996731527942345e-02
-1.201709224085372452e-01
-3.051423559213654046e-01
0.000000000000000000e+00
1.944654995227325552e-03
-5.121292410747810709e-04
1.748876899565291083e-03
0.000000000000000000e+00
0.000000000000000000e+00
0.000000000000000000e+00
0.000000000000000000e+00
-1.438747862914226388e-03
0.000000000000000000e+00
1.253013788257640107e-02
-5.089621501792368843e-03
0.000000000000000000e+00
-1.267249057418461111e-02
7.925101994218485685e-04
0.000000000000000000e+00
3.405572445876996895e-02
-4.390356105992187022e-03
4.212934182199787325e-02
5.502956653836778983e-02
-5.269342411165746842e-04
1.577169837339220948e-01
8.007760157973389803e-02
-2.995506691968612412e-01
0.000000000000000000e+00
0.000000000000000000e+00
-4.032870238390524886e-02
-2.700281564878566520e+00
-9.080625759603877523e-02
-1.506922939398340532e-03
-7.053613237125447993e-03
3.497140395069389673e-03
1.337723377835438043e+00
1.500179443700515661e-02
4.503000510105786662e-03
-6.033533661752969041e-03
0.000000000000000000e+00
0.000000000000000000e+00
-5.353956478963494726e-03
0.000000000000000000e+00
0.000000000000000000e+00
3.946528654795763980e-03
0.000000000000000000e+00
-1.882915444957532214e-02
2.923512493541505913e-03
0.000000000000000000e+00
3.453457052748375167e-02
0.000000000000000000e+00
6.149887641921293613e-03
-1.335305132597923439e-02
-6.248046254630527929e-02
-1.998816896672508253e-02
-2.218119695603694604e-03
1.499632124037758030e-01
4.376400537452475314e-02
3.329739565302642767e-03
0.000000000000000000e+00
2.998285453190312807e-03
0.000000000000000000e+00
0.000000000000000000e+00
-1.180423939264466267e-02
-1.518532867193907565e+00
-5.170182240541489060e-02
1.463434990183722605e-02
0.000000000000000000e+00
3.533726621809897897e-03
-1.052012956856598486e-01
1.826790104799197109e-02
0.000000000000000000e+00
1.405472262764133643e-03
-4.501701106797420526e-02
0.000000000000000000e+00
0.000000000000000000e+00
0.000000000000000000e+00
-2.364190280851990317e-02
0.000000000000000000e+00
0.000000000000000000e+00
-2.262982146815657909e-03
7.509904069760269148e-03
1.269138890630518546e+00
0.000000000000000000e+00
-7.010073505846590872e-04
-3.768968614892449775e-02
-9.401089264729016112e-03
5.679591984197966941e-04
9.932697166017342982e-02
1.085884529826149636e-01
0.000000000000000000e+00
2.862312155702080238e-02
7.267928019043518040e-02
-1.482167311024765871e-02
0.000000000000000000e+00
0.000000000000000000e+00
-5.259372610842504405e-04
-1.220922833133669949e-01
-3.522604231422297311e-02
-1.769900054219326196e-02
1.454073726565092550e-03
-4.180305066893962723e-02
7.744990553761228053e-03
1.915103544327134699e-01
0.000000000000000000e+00
0.000000000000000000e+00
0.000000000000000000e+00
1.981174771887856539e-02
-5.716681522968663099e-04
1.967177116805613607e-02
-1.665722318073699360e-02
1.912129721652254923e-03
-9.567714224847036555e-03
0.000000000000000000e+00
0.000000000000000000e+00
2.349646440632954542e-03
-2.562265787495101102e-02
-1.351064576543318380e-02
0.000000000000000000e+00
1.018694209202934686e-02
-3.804531720561386918e-03
5.581762682643464091e-01
1.987807553576884212e+00
5.478967981209806881e-01
0.000000000000000000e+00
8.367532289286438996e-03
1.228677934809138846e-02
1.313802710001652288e-02
-4.862376583434965122e-03
0.000000000000000000e+00
4.562658829070819627e-03
1.517138853549862554e-02
4.033754956979454520e-03
1.366179514586310026e-02
2.792090888959235760e-03
6.476499154896881924e-03
-1.710334022435171242e-02
5.989824437977635425e-03
0.000000000000000000e+00
-6.689078496905999957e-05
-7.177046909905812448e-03
0.000000000000000000e+00
-8.429806112450918126e-03
-5.067760617428440119e-03
1.113495300005075753e-02
2.210361483414376854e-02
4.629553598608770332e-02
0.000000000000000000e+00
0.000000000000000000e+00
-1.177896683543320361e-02
0.000000000000000000e+00
0.000000000000000000e+00
4.305573232733596648e-04
0.000000000000000000e+00
4.981646713961663392e-03
-5.610830500255951925e-03
1.133489162574484628e-02
-3.450876435031683710e-03
0.000000000000000000e+00
-1.319915321072855363e-01
-2.708563819406285822e-02
-6.394930654039955586e-02
0.000000000000000000e+00
-2.291486983604093530e-02
-9.121053874729579194e-03
0.000000000000000000e+00
0.000000000000000000e+00
2.321658841732438666e-02
-5.734519862172649668e-02
0.000000000000000000e+00
0.000000000000000000e+00
3.527378749462236479e-03
1.495170805235317979e-01
7.584770770391630057e-03
0.000000000000000000e+00
0.000000000000000000e+00
0.000000000000000000e+00
-6.582854278402133340e-04
-1.031189333867215258e-01
-2.767613030578208386e-02
0.000000000000000000e+00
2.773452795566183279e-02
-1.546382855344256325e-02
-1.103494697246803352e-02
-7.672600957402160582e-02
-6.348454191920910317e-01
4.362531302562848434e-02
0.000000000000000000e+00
1.641628365810369637e-03
-9.447879487889701902e-03
1.393564804208585490e-03
1.605424048125510348e-03
0.000000000000000000e+00
-1.622744217339962963e-02
-8.065703451657767198e-03
-3.947870675653873153e-03
0.000000000000000000e+00
6.029296419794187567e-02
-1.531283873467689099e-02
0.000000000000000000e+00
3.545363016993041683e-03
2.209148991661187209e-02
1.509080070383927302e-03
0.000000000000000000e+00
0.000000000000000000e+00
0.000000000000000000e+00
-3.461039139289931454e-02
-3.494541683188084891e-02
-3.630849526989084978e-03
0.000000000000000000e+00
0.000000000000000000e+00
0.000000000000000000e+00
7.731287478116824659e-05
3.580384980355800703e-03
0.000000000000000000e+00
0.000000000000000000e+00
0.000000000000000000e+00
-1.424515203312212014e-02
-7.095999721890733358e-01
-3.973340248111527362e-02
-1.053065718283132529e-02
2.412497652135750775e-03
4.929965085742274433e-02
1.064584032258672139e-02
9.032392725896492202e-04
0.000000000000000000e+00
-7.794216747729504693e-03
0.000000000000000000e+00
0.000000000000000000e+00
-4.362587054353833627e-04
0.000000000000000000e+00
6.928541788012774691e-03
-9.214832960954896790e-02
-3.287269709005108398e-02
-7.868962421389441575e-02
1.784911960534986809e-04
0.000000000000000000e+00
1.696260469437740892e-02
0.000000000000000000e+00
0.000000000000000000e+00
0.000000000000000000e+00
1.225049809746615814e+00
1.725020955527835353e-02
-8.588645459935217996e-01
0.000000000000000000e+00
0.000000000000000000e+00
0.000000000000000000e+00
2.544073870687197508e-02
0.000000000000000000e+00
-4.829263782174827817e-03
-1.149642131599309725e+00
2.196745302696829355e-03
1.430811606051521911e-01
7.790694527144821357e-01
1.252414438419169980e-03
6.029961485198403722e-04
1.361526738202492939e-02
0.000000000000000000e+00
9.334305782162283282e-04
0.000000000000000000e+00
-4.302395415342468734e-04
0.000000000000000000e+00
-9.021622744013467476e-02
0.000000000000000000e+00
4.005861795715200957e-01
2.019555391554587326e-02
-7.460296865649934661e-02
0.000000000000000000e+00
5.889961176104133861e-03
-3.979914892193951834e-04
-1.097162987399088845e-02
0.000000000000000000e+00
2.476900391116241586e-04
2.616546961534450821e-02
6.701840583485800529e-02
-5.963944895768435658e-03
0.000000000000000000e+00
0.000000000000000000e+00
0.000000000000000000e+00
0.000000000000000000e+00
-2.685863950298430017e-02
2.430607467652490944e-02
-1.295121585316193549e-02
-3.183729435288836385e-03
3.967555605909380174e-03
2.390348940002747294e-02
0.000000000000000000e+00
-9.219576637485618065e-01
-1.414866811667770362e-02
-2.311088924869470818e-04
1.005065394372675613e-02
-3.655483710962260657e-01
-4.779683214055501644e-02
3.660784787698531662e-02
3.207042964994785000e-02
2.604823977222548229e-02
0.000000000000000000e+00
9.882733157162136052e-04
2.710954201182327189e-02
-4.224770355263036264e-02
-2.120527294080360933e-02
1.168160223464083519e-01
0.000000000000000000e+00
-4.564272442978370425e-03
-1.525077627707368058e-02
0.000000000000000000e+00
0.000000000000000000e+00
8.736982933737138949e-04
0.000000000000000000e+00
0.000000000000000000e+00
3.889200710801793501e-03
-1.902525600897406015e-03
-1.288332173611534542e-02
0.000000000000000000e+00
0.000000000000000000e+00
-7.843930723627870472e-02
0.000000000000000000e+00
0.000000000000000000e+00
0.000000000000000000e+00
-7.741827368004064458e-02
-1.257962305088524552e-02
1.049003023428064785e-02
5.231545818238856867e-04
-3.052906032104818479e-02
0.000000000000000000e+00
2.366235441827122671e-02
1.082573788444645031e-02
0.000000000000000000e+00
-2.206752140001212448e-01
-4.514384723069922271e-03
1.516009715095637533e-01
-7.406000217130821461e-01
-2.679749914792520782e-01
0.000000000000000000e+00
4.505101326401474496e-03
6.961597440494721135e-04
4.009972904565222152e-01
-3.521048576910387057e-02
-1.939774980469932686e-02
-1.024648551266491125e+00
-4.452290008277652866e-01
-1.421649178725715654e-02
-2.771346098361936704e-03
-5.627147535648881899e-02
2.757291375254636214e-03
-1.604181960520249806e-02
-1.203988758510145772e-03
0.000000000000000000e+00
0.000000000000000000e+00
1.402039978150202426e-01
-4.524857747996093305e-01
2.579425912854710866e-03
1.716108574221573285e-02
0.000000000000000000e+00
8.914642677610039659e-03
1.258555799200328923e-03
-1.187487994887994197e-01
0.000000000000000000e+00
-2.319119478157504171e-03
1.508610993532438597e-02
5.754558014657533763e-03
1.094058943261992933e-01
-1.407045872050311517e-03
2.537053416566621526e-03
2.633099683298632376e-03
-5.897167065385825260e-03
-4.227671711086585654e-02
0.000000000000000000e+00
-7.851979846144734390e-03
0.000000000000000000e+00
2.829220733818793576e-01
-9.098457195962819100e-01
-2.997651326383531795e-03
0.000000000000000000e+00
3.156704947452759237e-03
8.611649419257358939e-01
0.000000000000000000e+00
-6.452662112715650683e-03
4.962322724111401656e-02
-3.078649024790445880e-03
-1.119298948338621298e-03
0.000000000000000000e+00
-3.191946235361261403e-02
1.259402827219106569e-01
4.737069561324565997e-02
0.000000000000000000e+00
2.319072218566079011e-03
0.000000000000000000e+00
0.000000000000000000e+00
-3.642290952362138567e-02
0.000000000000000000e+00
2.611892204965848147e-02
0.000000000000000000e+00
1.316037645918640975e-01
-1.458038420563557633e-02
0.000000000000000000e+00
-5.720327803461178976e-04
-8.401410852774722146e-03
-2.129817287939171958e-04
-2.311843108139581895e-02
-2.981315546084871079e-02
0.000000000000000000e+00
0.000000000000000000e+00
0.000000000000000000e+00
-2.534272091963352038e-03
-5.372050357661676927e-03
-9.810204011462640983e-01
1.768088598016082308e-03
-6.381032428525919287e-02
0.000000000000000000e+00
6.287593187654694259e-04
0.000000000000000000e+00
0.000000000000000000e+00
-2.700835408725652975e+00
-1.234861205708208398e-01
-1.906795747757411216e-02
0.000000000000000000e+00
0.000000000000000000e+00
-1.723023595442544909e-01
-1.397950517759216985e-02
-8.022956829962717834e-03
4.869117775367415302e-03
7.398940362640463175e-02
-2.959964118093613705e-03
0.000000000000000000e+00
0.000000000000000000e+00
0.000000000000000000e+00
0.000000000000000000e+00
0.000000000000000000e+00
0.000000000000000000e+00
-1.399269693722819154e-02
-2.113599900944546084e-02
1.170287953480594499e-03
-2.918432323169305870e-02
-7.253937528963891150e-03
2.707903450430843018e-04
-4.062759060438124112e-03
0.000000000000000000e+00
0.000000000000000000e+00
-3.358716849406657295e-03
-5.968312183045852704e-03
0.000000000000000000e+00
0.000000000000000000e+00
0.000000000000000000e+00
-4.152265471551875274e-03
-4.751719663321654174e-04
0.000000000000000000e+00
0.000000000000000000e+00
0.000000000000000000e+00
0.000000000000000000e+00
0.000000000000000000e+00
0.000000000000000000e+00
0.000000000000000000e+00
0.000000000000000000e+00
8.492627302233412764e-03
9.778405037376697653e-03
-3.052391152841447963e-02
0.000000000000000000e+00
-4.243882219175598713e-02
-4.549393503792959273e-03
0.000000000000000000e+00
0.000000000000000000e+00
0.000000000000000000e+00
3.538280081407867150e-02
-8.791999227204816154e-04
4.547826426586172241e-03
0.000000000000000000e+00
0.000000000000000000e+00
0.000000000000000000e+00
0.000000000000000000e+00
-4.047906510409938347e-02
1.146419643268801851e-02
4.566217922104659488e-02
0.000000000000000000e+00
0.000000000000000000e+00
-7.638096676534719557e-04
0.000000000000000000e+00
0.000000000000000000e+00
-3.518257391717299009e-04
0.000000000000000000e+00
0.000000000000000000e+00
-1.335273013211666915e-01
2.160445521681250702e-02
0.000000000000000000e+00
0.000000000000000000e+00
-9.314734986372311815e-03
-3.385269454699203068e-02
1.698895843659108951e-01
0.000000000000000000e+00
0.000000000000000000e+00
-2.998240564557346222e-01
-1.395953044065078863e-01
-4.507085815030949238e-02
0.000000000000000000e+00
0.000000000000000000e+00
1.433510938970488854e-02
8.029210257066265576e-04
1.778747582789672044e-01
-2.088262090057628473e-03
0.000000000000000000e+00
0.000000000000000000e+00
0.000000000000000000e+00
0.000000000000000000e+00
-2.551920257210048004e-01
6.069401946267119225e-04
-1.218280901511606439e-03
1.134981745996406152e-02
-2.986711779412976053e-01
-8.205089443842664490e-03
-1.350489572515324414e-02
1.445373854349137890e-03
0.000000000000000000e+00
-4.913373056177838816e-03
-8.290563665144602690e-02
-1.855120578564621375e-03
1.304025983209641457e-02
1.223399358625345797e-03
3.572640457426223392e-03
-7.650717869922765701e-02
-3.128795442790279629e-02
-8.773458937925858458e-02
2.544090775056800230e-02
0.000000000000000000e+00
2.818151540606776695e-02
0.000000000000000000e+00
2.635662624069953427e-02
2.134617687755219206e-03
3.129090621427028712e-04
0.000000000000000000e+00
0.000000000000000000e+00
0.000000000000000000e+00
0.000000000000000000e+00
-1.667955992873266374e-02
7.681754493941434468e-03
1.097585314343498507e-02
1.976676506669263270e-02
-1.343564538138818099e-01
2.250829690872037728e-03
3.147109737452669607e-03
-4.753511963464290314e-03
-1.044919271923272150e-02
-1.507746399943685200e-01
-3.228514180829792496e-02
-1.382735989816288175e-02
0.000000000000000000e+00
-4.963735941484571645e-01
-7.689281184554358495e-02
-2.911361868328887423e-02
-2.667865448295196704e-03
-7.817211794013068094e-03
0.000000000000000000e+00
-1.487997738990270687e-03
8.557564884562829377e-01
6.424200085010864369e-04
1.302380294564514304e-02
-1.243074659554505891e-04
0.000000000000000000e+00
3.148394019577478720e-02
-3.612059973424179733e-03
-5.298585429811576708e-02
0.000000000000000000e+00
0.000000000000000000e+00
0.000000000000000000e+00
0.000000000000000000e+00
-8.300181789879269856e-03
0.000000000000000000e+00
3.152477386833429929e-02
3.094450492137638953e-02
-1.588940735084898581e-01
-1.494518457239350090e-02
0.000000000000000000e+00
-1.128609230994407908e-01
7.430417496048402626e-02
9.041133852537436288e-03
-1.718609006645343065e-02
-3.110128492852376730e-04
2.566880606115490814e-03
0.000000000000000000e+00
5.045156373764052293e-02
-1.142845697748681444e-01
-4.725399645483680661e-02
1.001560413849546527e-01
-1.241902533606496252e-02
-1.568006097963923345e-02
1.534497018470310781e-01
-6.324982539913984181e-02
0.000000000000000000e+00
-6.720409011796110200e-03
-5.587638972146475105e-04
6.500629938674691750e-03
2.314462712155256844e-03
4.702696711941381502e-02
-1.155906080572227830e-02
0.000000000000000000e+00
0.000000000000000000e+00
0.000000000000000000e+00
8.363532477393552378e-02
0.000000000000000000e+00
-1.071676361202046873e-04
0.000000000000000000e+00
0.000000000000000000e+00
6.830822269407945562e-05
-1.151419140247502138e-01
4.689894110656859377e-02
2.140732568510414144e-02
-1.397598570371181015e-01
1.324525178634227973e-01
-7.971266406913506131e-02
7.265593947928123027e-03
0.000000000000000000e+00
-1.509573585726453615e-03
-4.996563285970474777e-02
-2.111150050485696150e-01
0.000000000000000000e+00
-4.258597476323025544e-03
-7.781794116055470653e-03
0.000000000000000000e+00
0.000000000000000000e+00
2.280385942901617946e-02
0.000000000000000000e+00
0.000000000000000000e+00
8.627365159807890566e-03
0.000000000000000000e+00
5.524400189183022170e-03
0.000000000000000000e+00
-8.552777314722439855e-04
1.055815451287046153e-02
0.000000000000000000e+00
-3.220920020261280881e-03
0.000000000000000000e+00
0.000000000000000000e+00
4.325239507193961996e-04
1.844065169618236541e-03
9.451915333619010859e-03
1.379297749624524005e-01
1.570740045498139614e-01
3.278182965596894427e-02
-1.279057337385883231e-02
-6.892285027513710659e-03
0.000000000000000000e+00
-1.259204749620682628e-01
-4.712686295378706869e-02
-7.672153865443121813e-03
-1.882015796376461424e-03
0.000000000000000000e+00
-1.269840651467553459e-03
0.000000000000000000e+00
-4.293216568087323583e-03
0.000000000000000000e+00
0.000000000000000000e+00
-7.528764788111988460e-02
1.280195638881065356e-01
-2.282040982069611507e-02
-1.211695392828205167e-02
0.000000000000000000e+00
0.000000000000000000e+00
0.000000000000000000e+00
0.000000000000000000e+00
0.000000000000000000e+00
-5.088138051466095657e-02
3.416631545175927848e-02
-2.009110784650733859e-03
0.000000000000000000e+00
-8.238242769526116227e-03
9.248665296030134531e-04
-3.644156804579897591e-05
1.575207364996748099e-02
8.519894995595231335e-02
-3.034576289723589938e-03
-1.221596718318110342e-02
5.089494433786199631e-03
4.414457444091747507e-02
0.000000000000000000e+00
-2.715103735961454934e-03
3.721727548716365769e-02
0.000000000000000000e+00
0.000000000000000000e+00
0.000000000000000000e+00
3.632247896192914924e-03
0.000000000000000000e+00
1.537056421274211881e-02
4.884486988445041478e-01
6.093464907061529878e-01
0.000000000000000000e+00
0.000000000000000000e+00
0.000000000000000000e+00
0.000000000000000000e+00
-1.210080838232024725e+00
-6.048128435453276053e-02
0.000000000000000000e+00
7.800207354062015791e-03
-5.520149436177934285e-03
-3.491367176054804844e-03
1.864856589091872685e+00
5.678732879163194552e-02
5.325409171064571928e-02
8.356778465271414097e-04
-4.852443606541004609e-03
0.000000000000000000e+00
7.661162335102740702e-03
4.429662889133174214e-02
1.565952538124347482e-02
7.465598275893289490e-03
-1.483757897830337682e-03
-1.367418948397134126e-01
-7.215841410737991457e-02
1.721720748551337820e-03
6.320713975107339344e-02
-1.855312941512035629e-02
0.000000000000000000e+00
0.000000000000000000e+00
0.000000000000000000e+00
-6.681609530697579444e-03
-1.782755571924431737e-01
-5.741246326261092991e-02
-4.704958029640775308e-02
8.439598598315506406e-01
1.661632539784063819e-04
3.028218320478678338e-01
2.456373292431503035e-03
-1.163474394394263403e-03
1.429233263976879276e-01
-5.910313804878719601e-03
-9.528911050370660052e-02
1.122006579857375702e-02
-1.053496699381091528e-02
0.000000000000000000e+00
5.890375099711542273e-02
3.649803471948923073e-02
-1.273811612424058208e-02
0.000000000000000000e+00
4.065193346407418307e-02
0.000000000000000000e+00
-9.017172667466592795e-03
0.000000000000000000e+00
0.000000000000000000e+00
-2.430164700809632830e-02
1.210104440971222078e-02
0.000000000000000000e+00
-5.863295871787001234e-03
2.249215930773221239e-02
1.018446414573155210e-03
0.000000000000000000e+00
0.000000000000000000e+00
2.632819252858173420e-04
2.642042828423353876e-02
0.000000000000000000e+00
-8.894283747826237790e-03
0.000000000000000000e+00
6.174182292964883190e-02
1.826973228298406360e-02
-8.328595954664187164e-04
2.462532442919915354e+00
0.000000000000000000e+00
0.000000000000000000e+00
0.000000000000000000e+00
0.000000000000000000e+00
0.000000000000000000e+00
0.000000000000000000e+00
9.480270425226110242e-04
-3.206710988857641720e-02
5.352066269708054547e-01
2.709921847983075976e-02
8.417732985742686080e-02
-1.890567021433265868e-03
3.503561373336462094e-03
0.000000000000000000e+00
0.000000000000000000e+00
0.000000000000000000e+00
0.000000000000000000e+00
-1.945668693077993727e-01
-9.448860503512511444e-02
-9.815066743603208244e-02
5.435477046739634055e-03
-3.200646033001052545e-03
-1.253661060756636365e-02
0.000000000000000000e+00
0.000000000000000000e+00
0.000000000000000000e+00
7.871403755079039077e-05
0.000000000000000000e+00
0.000000000000000000e+00
0.000000000000000000e+00
8.551116970761718505e-03
2.454588942382180117e-01
2.331613557805839801e-02
-1.703162286780246504e-02
0.000000000000000000e+00
0.000000000000000000e+00
0.000000000000000000e+00
0.000000000000000000e+00
4.367836565520773380e-03
0.000000000000000000e+00
9.779692344232397347e-03
0.000000000000000000e+00
0.000000000000000000e+00
7.169440206753201379e-03
0.000000000000000000e+00
0.000000000000000000e+00
-6.728867482232689379e-02
-1.110856333841715726e-02
-2.048878128469264204e-02
-9.981696465063617796e-02
0.000000000000000000e+00
2.811704028105480664e-04
0.000000000000000000e+00
2.344645493079323701e-03
0.000000000000000000e+00
0.000000000000000000e+00
8.365546922726904699e-02
-2.552708195141472833e-02
1.627285449434344999e-01
-4.049008734049419633e-02
0.000000000000000000e+00
-1.708853458766194655e-01
4.699151914822142020e-03
-1.647103688262248344e-02
-1.267611204599896138e-02
8.992664327308486777e-03
-2.706542890055944200e-02
0.000000000000000000e+00
0.000000000000000000e+00
0.000000000000000000e+00
9.938572466890605722e-04
0.000000000000000000e+00
-5.355392816983538945e-02
-1.308693525932970170e+00
-8.341835539198987348e+00
0.000000000000000000e+00
-2.720974755308745718e-02
0.000000000000000000e+00
1.162118730341188677e-01
0.000000000000000000e+00
1.030253548011883340e-02
-4.064003979313505349e-04
-1.801387812116821419e-01
-1.350860822371338296e-02
-9.775055990389928118e-01
0.000000000000000000e+00
-3.250686735043630156e-03
-3.750135891184742248e-02
-4.314260130259518072e-02
0.000000000000000000e+00
-9.861852040059845143e-03
0.000000000000000000e+00
1.200587298557169794e-03
4.843125586261308804e-03
5.729410734642286125e-03
1.197991371049313700e-03
-5.742352561441106396e-01
-2.815293898363806918e-02
-5.319882826805014120e-02
9.876537601112099496e-02
-9.904737151524333275e-04
-1.235065625449223697e-03
1.218752203739394482e-02
-8.111095670154902515e-03
5.407155015477273403e-03
0.000000000000000000e+00
-2.689538322642610196e-02
0.000000000000000000e+00
4.768914407007731303e-03
-1.726300926189471853e-04
3.164868975906598436e-02
-2.486197381808660095e-03
-1.056441007455082848e-01
-4.716160186096689765e-03
-2.733028840843425983e-02
0.000000000000000000e+00
-4.097558009881417142e-03
-1.207651744303624283e-03
-6.719448323231694276e-04
6.273977454261862527e-03
-1.278920290951268413e-01
-3.940436874360497832e-01
-1.212389562467281329e-01
0.000000000000000000e+00
0.000000000000000000e+00
0.000000000000000000e+00
0.000000000000000000e+00
0.000000000000000000e+00
0.000000000000000000e+00
-3.310868240513823585e-02
5.253918840307174321e-02
1.397511572259643384e-02
7.213412454382599204e-02
0.000000000000000000e+00
-3.052119622279343414e-01
1.772972040866548635e-04
0.000000000000000000e+00
0.000000000000000000e+00
-1.388792912302127744e-03
-7.080585724509641868e-03
0.000000000000000000e+00
-1.730980530071456192e-02
-1.088140442890927692e-02
-1.527978950052623353e-02
1.199715632298790219e-02
2.105166534505227734e-03
0.000000000000000000e+00
0.000000000000000000e+00
-2.329867746049014143e-01
3.281881685527103781e-03
0.000000000000000000e+00
9.180070049640645137e-04
0.000000000000000000e+00
-2.745907636243707581e-02
-8.969577106530572663e-02
-7.762003680697479244e-03
-6.461154025816942753e-05
4.485158860881616194e-02
6.103104408856037388e-02
2.021850418721492515e-01
1.501137077708396890e-04
0.000000000000000000e+00
0.000000000000000000e+00
-2.814305779198389423e-03
4.939008452445066595e-03
1.384374539008960125e+00
0.000000000000000000e+00
5.086579219462494111e-03
-5.327829864977651859e-04
0.000000000000000000e+00
0.000000000000000000e+00
-3.303407311865665628e-03
0.000000000000000000e+00
0.000000000000000000e+00
-1.054594981825203101e-02
-2.234435472265552079e-03
-1.324467895474787729e-02
3.651568491071567526e-03
1.243247692980057814e-02
-4.321381793229299093e-03
0.000000000000000000e+00
-9.803420392619456233e-03
-4.857124016348551149e-02
0.000000000000000000e+00
5.649860067805718283e-02
1.230662885835800274e-02
4.741298399274335943e-04
2.189290494739812645e-02
-9.548629859777441400e-03
0.000000000000000000e+00
-3.039487596921874849e-05
0.000000000000000000e+00
0.000000000000000000e+00
2.057733526446206898e-02
4.331703285926025854e-02
0.000000000000000000e+00
0.000000000000000000e+00
-1.782335062642515650e-02
7.211783341329616737e-03
0.000000000000000000e+00
3.059820662996788621e-02
-5.886671230628052684e-03
-8.392116578794104470e-03
0.000000000000000000e+00
3.431462548622819797e-02
0.000000000000000000e+00
-3.769809512942343122e-02
-2.246436006190116047e-02
0.000000000000000000e+00
-1.738724468086086383e-02
0.000000000000000000e+00
0.000000000000000000e+00
0.000000000000000000e+00
0.000000000000000000e+00
-1.289111822039066754e-02
0.000000000000000000e+00
1.441679104969394686e-03
0.000000000000000000e+00
4.697255021434146131e-03
-1.897716813266947869e-02
3.537325094595301922e-02
4.758370653667786721e-04
0.000000000000000000e+00
0.000000000000000000e+00
-1.692105728527533394e-04
-6.409811244384444606e-03
-7.001663134001068212e-02
3.237168852442076031e-03
0.000000000000000000e+00
7.861198291118736553e-03
1.223572506298016040e-02
-3.360886984549668610e-02
0.000000000000000000e+00
-3.850340454119056260e-02
-2.003667641733849342e-02
-2.328250774315532724e-03
0.000000000000000000e+00
0.000000000000000000e+00
-3.580734783006429139e-02
0.000000000000000000e+00
-1.430558210476572112e-02
5.302832103558622126e-03
0.000000000000000000e+00
3.290356370263498604e-03
2.038095882482594563e-03
-4.876704272420886305e-02
0.000000000000000000e+00
0.000000000000000000e+00
0.000000000000000000e+00
-2.331066314956389222e-03
3.016483903042681963e-02
0.000000000000000000e+00
0.000000000000000000e+00
-1.076121526901294492e-02
2.657182973298467549e-03
0.000000000000000000e+00
0.000000000000000000e+00
-1.393386156614231236e-02
0.000000000000000000e+00
-2.000503973584116107e-02
0.000000000000000000e+00
0.000000000000000000e+00
8.068221975148358750e-04
-1.489445359683365605e-03
-1.576851216038331529e-03
0.000000000000000000e+00
0.000000000000000000e+00
0.000000000000000000e+00
-3.889475085773198837e-02
7.019513031973239822e-03
0.000000000000000000e+00
0.000000000000000000e+00
0.000000000000000000e+00
0.000000000000000000e+00
0.000000000000000000e+00
0.000000000000000000e+00
0.000000000000000000e+00
1.303004560684982568e-03
0.000000000000000000e+00
0.000000000000000000e+00
0.000000000000000000e+00
0.000000000000000000e+00
-7.271182835634248942e-02
-7.875889302133740402e-03
0.000000000000000000e+00
0.000000000000000000e+00
0.000000000000000000e+00
0.000000000000000000e+00
0.000000000000000000e+00
0.000000000000000000e+00
-1.315878046332938922e-01
4.144871902950961196e-02
0.000000000000000000e+00
0.000000000000000000e+00
0.000000000000000000e+00
0.000000000000000000e+00
0.000000000000000000e+00
0.000000000000000000e+00
0.000000000000000000e+00
0.000000000000000000e+00
0.000000000000000000e+00
0.000000000000000000e+00
0.000000000000000000e+00
-3.301518819118681985e-03
0.000000000000000000e+00
0.000000000000000000e+00
0.000000000000000000e+00
0.000000000000000000e+00
0.000000000000000000e+00
0.000000000000000000e+00
-2.043113096942062464e-06
0.000000000000000000e+00
2.161983735884188962e-01
-1.095389795573111814e-02
1.334739484048501693e-02
-8.272555790665940822e-01
-8.776996612473348530e-03
-4.334018978298474485e-04
-7.783173798450050869e-03
0.000000000000000000e+00
0.000000000000000000e+00
0.000000000000000000e+00
0.000000000000000000e+00
0.000000000000000000e+00
0.000000000000000000e+00
0.000000000000000000e+00
0.000000000000000000e+00
0.000000000000000000e+00
0.000000000000000000e+00
0.000000000000000000e+00
0.000000000000000000e+00
-4.762744861058672567e-04
0.000000000000000000e+00
0.000000000000000000e+00
-1.785721821750825902e-02
0.000000000000000000e+00
-7.901780896441407392e-04
-1.400834440599631886e-02
0.000000000000000000e+00
5.049119495349329440e-02
0.000000000000000000e+00
0.000000000000000000e+00
-2.092315691658099830e-01
-3.234222573585143062e-02
0.000000000000000000e+00
0.000000000000000000e+00
0.000000000000000000e+00
5.019539940586415644e-02
-7.708299854064866626e-03
-5.928110637043132458e-02
8.118249693578566406e-02
-4.645153107084012273e-02
-1.631557770500480231e-01
-3.641368729816527820e-03
0.000000000000000000e+00
0.000000000000000000e+00
0.000000000000000000e+00
0.000000000000000000e+00
0.000000000000000000e+00
0.000000000000000000e+00
9.126591676653210417e-02
-6.972726977100116019e-02
-6.504406995000965030e-02
-6.200058318698856846e-03
-1.959794348346825116e-02
1.867574769992942918e-01
0.000000000000000000e+00
3.302837601523812838e-03
-1.296386285608601592e-02
-2.647303576084152066e-02
0.000000000000000000e+00
2.088306865686300612e-02
0.000000000000000000e+00
0.000000000000000000e+00
-1.723618561070268118e+00
5.972443058303815791e-03
8.624799875930734896e-03
5.910613536351177338e-02
5.747155434230875101e-04
-1.085967048700036131e-01
-4.591522470796719491e-01
0.000000000000000000e+00
0.000000000000000000e+00
0.000000000000000000e+00
0.000000000000000000e+00
0.000000000000000000e+00
-4.484077070004729819e-04
-4.247463927427331913e-03
-1.473715384441392530e-02
-5.410488309664147621e-01
3.167779606113163907e-03
-1.844184872964644076e-02
1.068975202237933478e-02
-4.705982158384450567e-03
-1.028946724189900956e-02
-1.894536945682314538e-02
0.000000000000000000e+00
0.000000000000000000e+00
1.166147333587524704e-01
0.000000000000000000e+00
0.000000000000000000e+00
-2.320393625645509380e-04
-1.581982773430083422e-01
-7.175469692158620858e-04
0.000000000000000000e+00
3.011998634227716631e-02
-2.122415065509423299e-02
0.000000000000000000e+00
-4.247757210236513536e-03
-1.915498119592510054e-02
-3.423421495129369205e-03
0.000000000000000000e+00
0.000000000000000000e+00
0.000000000000000000e+00
0.000000000000000000e+00
6.346000178084967858e-04
-3.030333665391577933e-02
-1.273387045584646084e-02
-5.206974031232833866e+00
-5.790127482402886994e-01
8.502402853963619486e-03
1.526798100699803748e-03
-8.342616842344729999e-01
-5.318962424911082287e-01
-6.144678525260412194e-02
6.660813582075557696e-03
1.800531539526225959e-03
4.892899940121692983e-04
-6.835648884011744086e-02
-1.452018960464494975e-02
-6.399975222760903928e-03
-2.603863660244599976e-03
-1.049675634270900819e-02
7.134755053387818692e-04
-3.043216443452863035e-03
2.454047118809128680e-02
0.000000000000000000e+00
0.000000000000000000e+00
0.000000000000000000e+00
4.710482857225310738e-02
-1.856367298847024644e-02
0.000000000000000000e+00
0.000000000000000000e+00
0.000000000000000000e+00
0.000000000000000000e+00
0.000000000000000000e+00
0.000000000000000000e+00
0.000000000000000000e+00
-1.626565071583521149e-01
0.000000000000000000e+00
3.615013841961594449e-02
3.446542109208848570e-02
-5.825798841757363900e-02
-1.080930430766844155e-02
-3.820053656189649482e-02
-1.164867830695756501e+00
-3.670918480119136906e-02
-4.396010170421798396e-02
-6.028021795433225090e-03
9.958399600343230407e-02
3.007955837248602604e-01
1.716408602496030666e-02
-1.674819800266049707e-01
0.000000000000000000e+00
0.000000000000000000e+00
-1.024198354728715968e-02
3.519313493542017626e-03
0.000000000000000000e+00
0.000000000000000000e+00
0.000000000000000000e+00
0.000000000000000000e+00
0.000000000000000000e+00
0.000000000000000000e+00
8.355216272481699041e-03
0.000000000000000000e+00
0.000000000000000000e+00
0.000000000000000000e+00
0.000000000000000000e+00
-2.186895338792164902e-04
0.000000000000000000e+00
0.000000000000000000e+00
-3.740373306848034374e-01
-1.352477042695637149e-02
7.103149077820359973e-03
1.894473902282920591e-02
3.897346595605350188e-04
0.000000000000000000e+00
0.000000000000000000e+00
-9.249100615466370693e-04
-2.626823280508307473e-03
1.306167678100656621e-02
0.000000000000000000e+00
3.337109315004599397e-02
2.665919738093767977e-02
0.000000000000000000e+00
5.512483999737998429e-03
5.827237181397324634e-02
-4.552576657438714425e-02
0.000000000000000000e+00
0.000000000000000000e+00
0.000000000000000000e+00
-2.199133199517708744e-05
-7.362162400483393543e-02
0.000000000000000000e+00
0.000000000000000000e+00
0.000000000000000000e+00
0.000000000000000000e+00
0.000000000000000000e+00
0.000000000000000000e+00
-7.000768705908266398e-04
0.000000000000000000e+00
-2.812829394043024969e-02
-1.796475150068381835e-03
4.181007277703381597e-04
3.623776990847861479e-02
1.626755921461992991e-03
4.540787968281637284e-03
0.000000000000000000e+00
0.000000000000000000e+00
6.707674178588029189e-03
-1.534926816549313016e-03
0.000000000000000000e+00
-2.331763726776393320e+00
0.000000000000000000e+00
-3.215989282358893558e-02
4.083865055887345163e-02
1.045607264011677362e+00
-8.958520933493903105e-01
-2.495487864543127960e-04
-3.106450176580796067e-04
0.000000000000000000e+00
-1.009026397856068423e-02
-1.286564123761425524e-02
1.657868020951883958e-01
-2.625229628039248142e-02
0.000000000000000000e+00
0.000000000000000000e+00
0.000000000000000000e+00
-2.040325279776877138e-02
-2.193331694521728076e-02
-8.328538659262035848e-02
2.444250175288795873e-03
5.933162527278888591e-03
4.230758721428478850e-03
-5.964067166801953479e-02
-4.071211569162318245e-02
2.442114798996903868e-01
7.644498388753295792e-02
-9.754948826993931066e-03
0.000000000000000000e+00
-3.191200724457444061e-03
3.889582780414896357e-02
5.880161518990650003e-03
-1.310901886365971047e-01
4.088275472604407587e-03
0.000000000000000000e+00
1.057376024579647494e-02
2.987134145299460627e-03
0.000000000000000000e+00
0.000000000000000000e+00
2.010325697235671415e-03
-5.251870926067961310e-04
0.000000000000000000e+00
0.000000000000000000e+00
-5.518246902758470324e-02
-1.390657763244221301e-03
0.000000000000000000e+00
0.000000000000000000e+00
1.486661728482030790e-03
-5.677955318674698937e-02
7.833155872258770747e-02
0.000000000000000000e+00
-8.030905907049723166e-03
0.000000000000000000e+00
0.000000000000000000e+00
-2.995126868646951282e-02
1.438591507227047605e-03
0.000000000000000000e+00
2.802563334946247056e-04
4.256699409125723477e-02
0.000000000000000000e+00
-5.167489301685943091e-04
-2.193600101996687549e-03
0.000000000000000000e+00
0.000000000000000000e+00
1.554646156744743900e-02
1.599603113691323159e-02
0.000000000000000000e+00
4.596317450300155955e-02
-1.577230354747435337e-01
0.000000000000000000e+00
-1.797394844616949025e-02
-3.568040202461164601e-02
1.310036796703712651e-03
-2.649541512164978879e-02
0.000000000000000000e+00
-1.012806943812346282e-02
-2.665260423486283045e-02
7.086700664798311483e-03
1.249781669843123277e-01
-4.712714610025426493e-02
4.225655620078885274e-05
2.838908775977612474e-04
-8.682235385793813515e-03
1.792516476369078807e-02
0.000000000000000000e+00
-9.579927789334719002e-02
0.000000000000000000e+00
-4.756964649185528820e-04
1.644198708448149464e-04
0.000000000000000000e+00
0.000000000000000000e+00
0.000000000000000000e+00
0.000000000000000000e+00
0.000000000000000000e+00
-4.443199600711381786e-02
-2.318374963440271788e-02
-7.079488435276249172e-03
-8.473514418075753186e-04
-6.539955158687209280e-03
-3.182961167778018685e-05
6.437133937787684577e-03
1.350670123164939007e-02
-4.841688493134840149e-02
-2.105234679896271846e-02
1.427209028696221644e-03
-7.025076438518198152e-05
-5.077447464266668375e-02
-8.152214235656797536e-03
1.089264581108728355e-02
-2.989977896139749958e-01
-7.013096637965268634e-04
0.000000000000000000e+00
0.000000000000000000e+00
0.000000000000000000e+00
1.339988597214489523e-04
5.898827275677285186e-04
0.000000000000000000e+00
0.000000000000000000e+00
0.000000000000000000e+00
0.000000000000000000e+00
-3.401822648189035264e-02
-9.562079894592082074e-02
-5.820252592795863156e-02
6.470081298037407003e-02
6.630588041172946756e-03
-3.337141131574243857e-01
-1.821879718391017366e-02
-2.345758962555662217e-03
-7.632245045489225409e-03
1.137475616115967564e-02
-2.175782522441981753e-02
4.813460001858218401e-02
-6.658615386794279889e-01
1.385473810441186296e-03
0.000000000000000000e+00
0.000000000000000000e+00
1.096183999446012983e-02
0.000000000000000000e+00
0.000000000000000000e+00
0.000000000000000000e+00
0.000000000000000000e+00
-1.123843999707782506e-03
-9.153748132097125345e-02
-7.900744855816474455e-02
-7.309885702585131040e-02
-1.975961261114672074e-01
0.000000000000000000e+00
0.000000000000000000e+00
-3.675322294370641108e-03
-9.486502137276518884e-04
-3.268499369586994703e-04
3.287135496334245570e-04
3.813650612476804369e-01
9.119773160800434889e-03
0.000000000000000000e+00
0.000000000000000000e+00
0.000000000000000000e+00
0.000000000000000000e+00
-9.662059602635728606e-01
1.316355098034857965e-02
-1.750427271123293216e-01
0.000000000000000000e+00
-8.745534997351745582e-03
-1.138135420529247516e-01
4.729413545431079835e-02
0.000000000000000000e+00
0.000000000000000000e+00
-1.252196821243313669e-02
3.135878386595184475e-01
2.213552489167175397e-02
0.000000000000000000e+00
-3.213428943778579537e-03
1.010078016618144170e-01
-7.116029677073694160e-01
-1.158870650210028774e-01
-8.085829496112184600e-01
2.242684182669615889e-02
-9.872768925305356290e-04
-1.787565648305299293e-01
0.000000000000000000e+00
2.321266510134880473e-02
-6.321555710552943796e-02
5.318349727649575136e-03
2.302428809162787582e-02
1.190415408523379237e-02
7.262000749700261515e-04
0.000000000000000000e+00
-1.230387133987031145e+00
-1.738912744387439924e+00
-3.642461554422828374e-01
0.000000000000000000e+00
2.818831700423590769e-02
9.227889923251880733e-02
0.000000000000000000e+00
0.000000000000000000e+00
-6.468931611126840786e-03
-3.634306174690046104e-02
2.199982973049711618e-02
6.666744539715949505e-03
-3.833042704238364545e-02
-1.697245197988607457e-02
-1.006635156716406687e-01
-4.463893411089533969e-02
0.000000000000000000e+00
1.304319483711101953e-03
0.000000000000000000e+00
4.539237853284391194e-02
2.864856678990598468e-02
1.521084221396755032e+00
7.403672707996739044e-02
2.106494204611343698e-04
-1.312128556316267611e-02
0.000000000000000000e+00
-3.196769681180013922e-01
0.000000000000000000e+00
4.344486859637408833e-03
2.462466149861078368e-03
-2.959356809872507391e-03
0.000000000000000000e+00
-1.423527290518768196e-02
6.906825851116444870e-01
0.000000000000000000e+00
0.000000000000000000e+00
-5.936186231949461267e-02
1.318631185271367662e-02
-3.104170448021190132e-02
-2.792319140913948183e-03
6.666693010260767160e-02
0.000000000000000000e+00
-3.313538299505877638e-02
0.000000000000000000e+00
0.000000000000000000e+00
1.131345446146652875e-02
0.000000000000000000e+00
1.582813461244265973e-01
2.649353028672879473e-01
-3.746786306817342371e-01
-1.075589645596774224e-01
-8.975205654280525580e-03
2.018332634624543653e-02
2.467371018726487175e-01
5.640118579737231699e-03
0.000000000000000000e+00
2.810134448354992178e-03
-3.144139771893431773e-02
1.737181702862476695e-02
5.152268077504130322e-02
1.317639902277735198e-01
1.367875497017361219e-01
2.668459498447815076e-02
7.133413627359656839e-02
6.820082627150397467e-03
2.346793444719444954e-01
-5.224753606405261458e-03
-1.328934400160693662e-02
0.000000000000000000e+00
0.000000000000000000e+00
2.654539890106882545e-04
-1.293012960516258872e-02
-7.355410773213735169e-04
8.180457424388410184e-03
0.000000000000000000e+00
0.000000000000000000e+00
-6.956376632824542994e-02
-1.272588700063144018e-03
-2.181774382989374803e-02
0.000000000000000000e+00
0.000000000000000000e+00
0.000000000000000000e+00
1.530349988901584123e-04
9.655456639763131121e-04
2.510746077176879152e-04
4.191974204108673274e-01
2.044702553354052921e-03
-1.757240463102991979e-01
-1.772323743676799089e-03
9.992269230960736381e-01
1.056464339736065856e-02
-1.453054897632102133e-02
0.000000000000000000e+00
6.880168077823633696e-03
0.000000000000000000e+00
1.386428157425934234e-02
0.000000000000000000e+00
1.378498408856775742e-02
-1.384801791093673816e-03
8.376417984223375260e-03
0.000000000000000000e+00
0.000000000000000000e+00
0.000000000000000000e+00
0.000000000000000000e+00
0.000000000000000000e+00
0.000000000000000000e+00
0.000000000000000000e+00
0.000000000000000000e+00
1.313293275276462141e-02
2.748933905131560954e-02
2.103511200034042378e-02
-2.415004269247982959e-03
-9.690132943091357351e-03
-2.183425473600019220e-02
0.000000000000000000e+00
0.000000000000000000e+00
-3.309061432565076066e-03
1.304401527528547752e-02
-1.300981983181083379e+00
-1.720658898432968339e-03
1.612248906271245008e-02
-1.075033165725250081e-02
-1.369350575553417507e-02
-2.142650781725071189e-04
0.000000000000000000e+00
0.000000000000000000e+00
0.000000000000000000e+00
0.000000000000000000e+00
0.000000000000000000e+00
0.000000000000000000e+00
0.000000000000000000e+00
0.000000000000000000e+00
0.000000000000000000e+00
0.000000000000000000e+00
0.000000000000000000e+00
-8.758584923789418664e-01
6.534668398559710933e-01
5.007200362559052070e-02
1.358086742537560898e-01
2.878704661003829955e-03
0.000000000000000000e+00
5.236721625935438634e-05
-1.375567027630951195e-03
-5.241185218757272481e-03
0.000000000000000000e+00
2.576316900699266443e-01
9.796033194623314511e-02
-4.128425404221340855e-01
3.609180973940126491e-02
1.735237858995327190e-02
1.715493701419102540e-02
-7.344491505753850125e-02
-2.960601156530896089e-03
2.437900388946006094e-02
0.000000000000000000e+00
-4.641551157820270612e-01
3.037452879512168337e-03
0.000000000000000000e+00
3.515482916475617947e-02
-4.003912901921721779e-02
0.000000000000000000e+00
0.000000000000000000e+00
0.000000000000000000e+00
9.273637301991927151e-02
1.367859227392328736e-01
1.191429296281272532e-02
1.084041407530475683e-02
-1.272167807685999352e-01
-2.106597743558029021e-02
1.211176223857772571e+00
-1.163580094668667693e-02
0.000000000000000000e+00
5.060625683985111624e-03
-1.365530139720667613e-01
-5.873858935969292552e-04
-2.684840331974507055e-02
0.000000000000000000e+00
0.000000000000000000e+00
7.994579433274025954e-03
4.400645645338525924e-02
-9.642266904727730265e-03
-3.882737156368688547e-01
0.000000000000000000e+00
0.000000000000000000e+00
2.685593898780991653e-02
0.000000000000000000e+00
-1.079734663624189010e-02
-5.673350336430162122e-03
0.000000000000000000e+00
0.000000000000000000e+00
0.000000000000000000e+00
-2.705263407911276765e-04
4.856407000385141171e-01
-6.725670183653221779e-01
-7.523250486615161783e-03
0.000000000000000000e+00
0.000000000000000000e+00
0.000000000000000000e+00
-1.898222480114679367e-02
0.000000000000000000e+00
3.041869713407432257e-02
7.533950950827522641e-02
-2.294671063637482300e-03
-5.937106213974663316e-02
0.000000000000000000e+00
0.000000000000000000e+00
0.000000000000000000e+00
0.000000000000000000e+00
2.931931727326066162e-04
0.000000000000000000e+00
-7.831565888857699997e-02
7.516928787743554609e-04
5.816727889113852967e-01
9.478557719251878844e-04
-2.107497109445745712e-03
0.000000000000000000e+00
-3.593038071390722548e-03
-8.499269765833296353e-03
0.000000000000000000e+00
-1.294092644964669504e-02
-1.669303817672371888e-03
2.773532152497786840e-01
0.000000000000000000e+00
0.000000000000000000e+00
5.790215015350490269e-02
1.132770531094181611e-03
-1.744885935022447432e-01
0.000000000000000000e+00
-2.356769279630073488e-01
-5.064885900050587059e-02
2.930158940721435193e-02
0.000000000000000000e+00
0.000000000000000000e+00
0.000000000000000000e+00
0.000000000000000000e+00
-5.108707884617976619e-03
-7.674606532913910706e-02
0.000000000000000000e+00
-1.311539846751162046e-03
0.000000000000000000e+00
2.464233752964482133e-02
-5.350289112411268228e-02
0.000000000000000000e+00
0.000000000000000000e+00
0.000000000000000000e+00
-4.023160619795283907e-05
3.147699310668261585e-02
3.417751322327226555e-04
-1.230251843607183204e+00
4.662372817208472464e-02
0.000000000000000000e+00
0.000000000000000000e+00
4.792613954846639511e-03
0.000000000000000000e+00
0.000000000000000000e+00
-2.383972364698179469e-02
0.000000000000000000e+00
0.000000000000000000e+00
0.000000000000000000e+00
0.000000000000000000e+00
-5.750528442402127278e-04
0.000000000000000000e+00
0.000000000000000000e+00
-4.314091484581827722e-03
0.000000000000000000e+00
1.246436848776451001e-01
0.000000000000000000e+00
-1.334452405004063202e-01
-1.047074588586817748e-02
-6.911887884883340452e-03
-1.167860197128198219e-02
1.597257395714447858e-02
1.295350794720638056e-03
-1.525943209441157633e-01
-8.068129250642997949e-03
0.000000000000000000e+00
-1.301227723222331267e-02
-3.426322391460977917e-02
0.000000000000000000e+00
-1.482567007955073318e-02
0.000000000000000000e+00
-3.532979599225620406e-03
0.000000000000000000e+00
0.000000000000000000e+00
1.520962934147002642e-02
-1.681685169503064348e-01
0.000000000000000000e+00
-5.168818584284310541e-03
0.000000000000000000e+00
0.000000000000000000e+00
0.000000000000000000e+00
-6.635267590300001836e-03
0.000000000000000000e+00
-2.539358876032549173e-01
-1.597535870453540077e-02
2.722644292605274838e-02
0.000000000000000000e+00
0.000000000000000000e+00
1.221023609080517519e-02
-4.130677921194533114e-02
0.000000000000000000e+00
0.000000000000000000e+00
0.000000000000000000e+00
-1.410483960192246596e-02
6.548657795571299206e-03
-1.292299321244818333e-01
0.000000000000000000e+00
-4.213553694065376876e-04
0.000000000000000000e+00
0.000000000000000000e+00
0.000000000000000000e+00
-6.939066087356120412e-03
1.356440121181576863e-01
0.000000000000000000e+00
-1.233841931866920538e-02
0.000000000000000000e+00
0.000000000000000000e+00
-3.952010493963438453e-02
0.000000000000000000e+00
1.037611713561877036e-01
1.081776223401675202e-02
0.000000000000000000e+00
0.000000000000000000e+00
9.478916558794562100e-05
0.000000000000000000e+00
0.000000000000000000e+00
0.000000000000000000e+00
1.014903642456855670e-03
0.000000000000000000e+00
0.000000000000000000e+00
0.000000000000000000e+00
1.073872550948946902e-01
2.336415466382199947e-04
0.000000000000000000e+00
0.000000000000000000e+00
0.000000000000000000e+00
8.256055945379747133e-04
6.096024259445947252e-02
0.000000000000000000e+00
0.000000000000000000e+00
2.482918164381428365e-03
0.000000000000000000e+00
0.000000000000000000e+00
0.000000000000000000e+00
-5.832418215755280633e-03
0.000000000000000000e+00
0.000000000000000000e+00
1.449720533024418702e-02
0.000000000000000000e+00
0.000000000000000000e+00
2.534215981498075775e-03
0.000000000000000000e+00
0.000000000000000000e+00
0.000000000000000000e+00
0.000000000000000000e+00
2.094935263528282122e-03
0.000000000000000000e+00
0.000000000000000000e+00
0.000000000000000000e+00
0.000000000000000000e+00
0.000000000000000000e+00
0.000000000000000000e+00
0.000000000000000000e+00
2.076785727284166660e-02
0.000000000000000000e+00
3.088385886650644313e-02
0.000000000000000000e+00
0.000000000000000000e+00
-2.770776008004533636e-02
-6.113160937615848972e-02
-6.983658124633209362e-03
3.313837826084231608e-02
0.000000000000000000e+00
0.000000000000000000e+00
0.000000000000000000e+00
5.149882662418879889e-03
0.000000000000000000e+00
0.000000000000000000e+00
0.000000000000000000e+00
0.000000000000000000e+00
0.000000000000000000e+00
8.383379407125526872e-02
-1.871766051729414882e-04
0.000000000000000000e+00
0.000000000000000000e+00
0.000000000000000000e+00
0.000000000000000000e+00
0.000000000000000000e+00
0.000000000000000000e+00
0.000000000000000000e+00
0.000000000000000000e+00
-2.631522251876856552e-02
-1.582138548222850440e-03
-2.910982336990857733e-01
-1.997946568272497281e-01
0.000000000000000000e+00
-5.267634747276175172e-03
0.000000000000000000e+00
0.000000000000000000e+00
0.000000000000000000e+00
0.000000000000000000e+00
0.000000000000000000e+00
0.000000000000000000e+00
0.000000000000000000e+00
0.000000000000000000e+00
0.000000000000000000e+00
0.000000000000000000e+00
0.000000000000000000e+00
-5.893110240470072472e-04
0.000000000000000000e+00
-1.238529610592811487e-03
0.000000000000000000e+00
-6.506531713423866284e-04
-2.473671519602448424e-02
0.000000000000000000e+00
0.000000000000000000e+00
0.000000000000000000e+00
0.000000000000000000e+00
0.000000000000000000e+00
0.000000000000000000e+00
0.000000000000000000e+00
-4.751815041788784617e-03
0.000000000000000000e+00
1.932448957006449369e-03
-1.873289401511984238e-03
1.646371277080112966e-02
1.007605489713327140e-02
0.000000000000000000e+00
0.000000000000000000e+00
0.000000000000000000e+00
0.000000000000000000e+00
0.000000000000000000e+00
0.000000000000000000e+00
0.000000000000000000e+00
2.562824792550322359e-04
-9.001883138284528380e-03
0.000000000000000000e+00
0.000000000000000000e+00
0.000000000000000000e+00
0.000000000000000000e+00
-1.059555109684723155e-02
-2.364511103571761280e-02
0.000000000000000000e+00
0.000000000000000000e+00
0.000000000000000000e+00
0.000000000000000000e+00
0.000000000000000000e+00
1.632851338560850629e-02
8.158801421941023601e-04
9.265556035153891883e-05
0.000000000000000000e+00
-1.894799846979928863e-03
-2.419871652982671928e-02
0.000000000000000000e+00
0.000000000000000000e+00
0.000000000000000000e+00
0.000000000000000000e+00
0.000000000000000000e+00
5.937516240426530395e-02
-2.060759191947621541e-03
0.000000000000000000e+00
-7.364621258162773465e-02
-2.745804410293610151e-02
0.000000000000000000e+00
2.665231526635949803e-03
-1.412815629451332194e-03
0.000000000000000000e+00
0.000000000000000000e+00
-1.068319930998757336e-03
1.258676411504308125e-02
0.000000000000000000e+00
0.000000000000000000e+00
0.000000000000000000e+00
-4.303024215928152180e-02
-9.879430633116625948e-01
0.000000000000000000e+00
7.833425202012724020e-02
2.163321326818726242e-02
-2.986798017699466429e-02
0.000000000000000000e+00
-1.723783822295210438e-03
-5.160871667684931684e-03
0.000000000000000000e+00
0.000000000000000000e+00
0.000000000000000000e+00
6.682676961576074215e-03
-2.686243677012623097e-03
-4.804456307021357647e-02
0.000000000000000000e+00
5.059030513178181671e-02
2.077048495299131659e-02
-1.293199016015244987e-03
-2.815050895802251318e-01
-1.329893302100221969e-02
-2.627202974828385038e-03
-7.286558576049531263e-03
3.518732528793282188e-02
-8.802591482100231499e-03
0.000000000000000000e+00
-1.846708092688499094e-03
0.000000000000000000e+00
-1.374683010152518391e-02
-8.740815225953429968e-02
5.944537772841938100e-02
-9.787365292801884428e-03
6.950800178440299029e-03
0.000000000000000000e+00
0.000000000000000000e+00
0.000000000000000000e+00
0.000000000000000000e+00
-4.728588486623820641e-02
0.000000000000000000e+00
0.000000000000000000e+00
1.334525116410430201e-01
1.082897041302525842e+00
0.000000000000000000e+00
-6.338427208370785992e-01
0.000000000000000000e+00
0.000000000000000000e+00
-2.181524317655042788e-01
1.594611572893452631e-03
5.024033326115484588e-02
-2.577611026738642341e-02
1.056051148098519077e-02
-6.303243526130394847e-02
-1.503336686530648003e-01
0.000000000000000000e+00
1.503733503659581208e-02
6.171112818137938771e-02
0.000000000000000000e+00
0.000000000000000000e+00
0.000000000000000000e+00
4.827593323095852318e-01
-1.804781189302349931e-02
0.000000000000000000e+00
0.000000000000000000e+00
0.000000000000000000e+00
0.000000000000000000e+00
0.000000000000000000e+00
0.000000000000000000e+00
0.000000000000000000e+00
0.000000000000000000e+00
0.000000000000000000e+00
3.637595886193024930e-02
6.871959365662901401e-03
1.613819432015491107e-02
-1.270776981743058087e-01
0.000000000000000000e+00
0.000000000000000000e+00
2.364444996091420725e-02
-4.113528677116892046e-03
2.359265698338504705e-02
-5.072759878111562232e-02
0.000000000000000000e+00
0.000000000000000000e+00
0.000000000000000000e+00
0.000000000000000000e+00
4.136022664601437734e-04
2.711190211138593195e-02
1.621574526489111961e-02
-1.143484913061166598e-02
8.950315084088649592e-03
0.000000000000000000e+00
0.000000000000000000e+00
1.277230101426198895e-03
0.000000000000000000e+00
0.000000000000000000e+00
0.000000000000000000e+00
0.000000000000000000e+00
0.000000000000000000e+00
-1.765920882681661737e-03
0.000000000000000000e+00
2.474582824275357081e-03
0.000000000000000000e+00
0.000000000000000000e+00
1.066879119594334006e-02
4.738553138527603834e-03
0.000000000000000000e+00
1.841030607730010423e-03
2.725543967676490563e-03
4.205753093946702423e-03
0.000000000000000000e+00
-5.223252997580238310e-03
1.078433393821526601e-02
-4.697204917741977862e-03
-9.602634767596408827e-03
0.000000000000000000e+00
2.165822347104670934e-02
-1.264759985235151124e-02
8.307581647923822921e-02
0.000000000000000000e+00
3.453114311311210067e-03
7.488583885726454725e-02
0.000000000000000000e+00
0.000000000000000000e+00
1.751910191641142811e-03
9.513218597580372707e-03
0.000000000000000000e+00
6.006911697525256066e-04
0.000000000000000000e+00
0.000000000000000000e+00
1.460567469298587953e-02
-1.492057234410756050e-01
-1.892615933715888765e-01
0.000000000000000000e+00
2.654977033874183351e-02
0.000000000000000000e+00
-3.085820310768051106e-02
-6.112581222229836544e-05
1.273264143269671120e-02
0.000000000000000000e+00
0.000000000000000000e+00
5.929005552900851184e-02
-8.355929677418250101e-02
-5.162736154464721630e-03
0.000000000000000000e+00
0.000000000000000000e+00
-1.259372407664215675e-02
-1.565626391304046350e-01
-7.367495872349777430e-03
3.575965760913651925e-02
-1.072731801993324560e-03
-8.116860471649455649e-03
3.088110723977706584e+00
-3.064954315334245637e-03
-2.714104741684955635e-02
0.000000000000000000e+00
0.000000000000000000e+00
2.121672519791449607e-02
6.088548351065845715e-02
4.526523447473142225e-02
0.000000000000000000e+00
0.000000000000000000e+00
-4.221217431914902479e-03
-1.851826338269602426e-03
-2.394898330358146907e-02
0.000000000000000000e+00
0.000000000000000000e+00
0.000000000000000000e+00
0.000000000000000000e+00
0.000000000000000000e+00
0.000000000000000000e+00
-8.496402829208886398e-02
-3.375483949927823302e-01
0.000000000000000000e+00
0.000000000000000000e+00
0.000000000000000000e+00
-3.276950341629384332e-03
-2.680931890401827208e-02
0.000000000000000000e+00
0.000000000000000000e+00
9.459568013479830546e-04
-2.376808230761324927e-04
-1.420862361585562179e-02
1.089952973971179823e-01
0.000000000000000000e+00
1.074333365795663957e-02
1.704979666096776911e-02
1.984388054472610227e-02
5.386675859209251460e-02
-1.454649743528267127e-02
-1.712543894827582569e-02
2.328794362184693351e-02
0.000000000000000000e+00
-9.661196215763716288e-03
-4.574114836416635910e-02
0.000000000000000000e+00
0.000000000000000000e+00
0.000000000000000000e+00
0.000000000000000000e+00
1.077123338170003775e-01
-1.558720682715049669e-02
0.000000000000000000e+00
0.000000000000000000e+00
0.000000000000000000e+00
0.000000000000000000e+00
0.000000000000000000e+00
0.000000000000000000e+00
1.150055174664649238e-02
1.703319461075227581e+00
4.087818408302512467e-03
-7.705109820872790664e-03
-1.996297548560437285e-01
0.000000000000000000e+00
4.215669908613244553e-03
-3.644354923403541474e-02
-1.716360855922109772e-03
2.385270723098196870e-03
-1.901966316454262174e-01
-3.476157743910218006e-02
-1.304780960673444616e-02
2.316448595774264763e-02
0.000000000000000000e+00
2.366301325699692731e-02
-5.006353899138034358e-02
8.574314370370237498e-03
2.798288665080125165e-02
1.832457930093003493e-02
0.000000000000000000e+00
0.000000000000000000e+00
-2.479164790462932630e-02
0.000000000000000000e+00
-3.817879138022820529e-01
-1.038872125100924471e-01
-2.131013144345630939e-02
0.000000000000000000e+00
-2.404236668186618756e-02
3.536673165296675379e-03
0.000000000000000000e+00
-4.245740454294982293e-03
-1.986775215924089025e-03
0.000000000000000000e+00
-2.657281750065648642e-04
-1.475697989289829870e+00
-7.752623851483093631e-01
-9.141347747015375613e-02
1.680249724977245229e+00
-2.576171453275941658e-01
-3.420443205014207788e-02
5.310700198738479427e-01
-3.024055516098950874e-02
-7.788316534672847652e-03
2.239674451825229146e-02
8.732852148823666560e-02
1.907191350636939110e-03
-4.610149811492452246e-03
-3.783475835484972124e-03
-1.569373187491890712e-02
-9.097646968420490532e-03
-9.641247503188003776e-02
3.424744592792468290e-03
-9.120407187268116458e-03
-1.212886829511412301e-01
4.458859787796554466e-03
1.059677915187652196e-03
1.272410638798199148e-04
1.810594068018011454e-02
0.000000000000000000e+00
-4.614744315771027061e+00
-1.478246505190974783e-04
-2.388448240474009415e-02
0.000000000000000000e+00
0.000000000000000000e+00
0.000000000000000000e+00
0.000000000000000000e+00
-5.095502215128016044e-01
0.000000000000000000e+00
0.000000000000000000e+00
6.497942271413581494e-02
-4.726364992763775960e-03
-1.760012624492713340e-01
-9.119882695257979233e-01
-5.399907787256182090e-02
-2.506045388855103195e-01
-1.118119351405480466e-01
-2.887919254452410822e+00
0.000000000000000000e+00
3.600779891245313724e-01
3.177883504113335200e-01
-2.161287098894592792e-02
0.000000000000000000e+00
-2.069857608396072010e-02
9.605696961743803025e-03
6.561723392787929821e-02
1.781518345439035422e-01
2.085680253553955144e+00
0.000000000000000000e+00
4.067565355150217221e-01
9.273581000454822476e-02
-3.874114627028719671e-01
7.995585596101160153e-01
-2.282413005517148694e-02
0.000000000000000000e+00
-3.586709787498100488e-02
-1.977993703140622055e-03
0.000000000000000000e+00
0.000000000000000000e+00
0.000000000000000000e+00
-7.485454217373046504e-01
-4.288921442788653504e-01
-1.491544705045518282e-01
-4.596778510845954402e-02
-2.175302158438127687e-02
0.000000000000000000e+00
0.000000000000000000e+00
9.666872229708203812e-03
9.360507165474579727e-02
6.024101715018690545e-02
-5.642444037944358004e-02
-4.465166206208826395e-04
-1.423967246539551085e-03
-2.868619400037799964e-03
1.629336535612042614e-01
0.000000000000000000e+00
5.213265936050026639e-01
4.553915997621841294e-01
3.188229810034676204e-02
3.365882866083733105e-03
-5.865189213694981668e-02
5.198271617080832407e-02
-4.097172988319078279e-01
-2.031811818919332380e-02
1.370439314792277173e-02
2.582304496794754836e-02
1.837320744886908053e-01
7.537251656026473616e-03
-2.811148731561003040e-03
-3.154009155957570032e-01
-6.031487202327263653e-01
0.000000000000000000e+00
0.000000000000000000e+00
1.855503674788275270e-01
8.579429404282739036e-01
4.455301622321991627e-04
-8.989886732057116026e-02
-8.647778023765731459e-02
-4.342724992863986402e-03
0.000000000000000000e+00
-7.351200147855634082e-02
0.000000000000000000e+00
-5.774880996222324717e-04
-4.903586186167770226e-05
0.000000000000000000e+00
-1.189012870823472068e-03
-2.647257186348638425e-03
-2.628234401829728471e-03
-2.856322123537689741e-04
3.231485613192050521e-02
7.232818130959814407e-02
7.470143420736032880e-01
-1.270151028885716515e+00
0.000000000000000000e+00
-8.477635231980876207e-02
-9.792346221644602361e-03
-1.349464050566563933e-01
-3.167165279243516762e-02
7.631506060049766949e-03
3.998505350483677612e-02
-2.199738198573925399e-02
-4.970999414022092555e-01
8.700321223255767181e-04
4.711503571763543397e-01
6.048262196302067739e-01
-2.187055575454777134e-01
-6.512872993920204578e-02
-1.225575228241129050e-02
0.000000000000000000e+00
-1.314685201360766831e-01
1.197013927806012124e-02
-2.330598764919209961e-02
0.000000000000000000e+00
2.354294722181084730e-03
1.078914696216598523e-01
-9.844086409662056170e-02
3.194147650235654723e-01
0.000000000000000000e+00
-1.358577325393922619e-01
-8.846658134783531857e-03
-9.166845606885963213e-04
-1.671938236042728662e-02
2.021129185803133971e-02
0.000000000000000000e+00
-1.016456786816718506e-02
3.066196123984096800e-02
-1.526529959379261614e+00
3.388662793925977662e-03
0.000000000000000000e+00
-7.116113382576397250e-02
-4.168293557105058611e-02
-1.092097649194530423e-01
-5.060049274410137465e-02
-2.131608138431712388e-02
-6.561759530176390111e-03
0.000000000000000000e+00
-8.129277970724427260e-02
-3.965908126861540373e-01
0.000000000000000000e+00
2.074318049923872236e-03
-5.744360714165060167e-02
9.702232780957926669e-03
0.000000000000000000e+00
0.000000000000000000e+00
-2.462261514480452163e-01
-1.254026021385819603e-02
0.000000000000000000e+00
-1.984569177007198260e-01
2.223063915420997092e-04
1.408541231636164515e-01
0.000000000000000000e+00
2.149479601457000844e-02
-1.766323344535380632e-02
1.691276053423707709e-02
2.214637498625162543e-02
2.588717109294947499e-02
-1.326860592052798715e-01
-1.446980135593974870e-01
9.369076842975233507e-03
-1.475429578264365882e-01
-1.165062396992388311e-01
-1.557897353421483153e-02
-6.598036030650052640e-03
0.000000000000000000e+00
0.000000000000000000e+00
0.000000000000000000e+00
0.000000000000000000e+00
6.600309647173893419e-04
1.024491406531108373e-02
-1.371064592980669072e+00
1.271212482542424471e+00
8.659927892272488437e-02
9.881512084596240364e-02
7.592172115136340028e-03
8.976807720945913921e-03
-4.793018719503271650e-03
1.664881540232840407e-01
0.000000000000000000e+00
-3.818980692822195044e-03
0.000000000000000000e+00
0.000000000000000000e+00
-7.885328657894762061e-02
-5.696502662892585084e-02
-1.628327755187591042e-01
-6.455657076439963449e-02
7.780589188627375086e-03
-2.399539384005108800e-01
0.000000000000000000e+00
-5.285236000503583387e-02
0.000000000000000000e+00
0.000000000000000000e+00
-9.082095599665365639e-04
0.000000000000000000e+00
-2.724237880475715579e-01
4.311498040572253609e-01
2.704733561290646460e-01
1.333487107678330008e-01
-1.116820276900472919e+00
0.000000000000000000e+00
6.567908744205554726e-04
1.382099761936678994e-01
0.000000000000000000e+00
0.000000000000000000e+00
0.000000000000000000e+00
-1.467510015773670212e-02
-4.307728218474441914e-03
-1.831880400851346180e-02
0.000000000000000000e+00
0.000000000000000000e+00
-2.517377962915041262e-02
4.409971106188043805e-02
-1.988443476799837961e-01
-3.319386876884843074e-02
1.682529937960065489e-02
-3.048402630747501507e-03
-5.736445770126222810e-01
0.000000000000000000e+00
-3.156969329199914211e-03
-6.865982762115502291e-03
2.545565518589070625e-02
1.700804703145263053e-02
0.000000000000000000e+00
0.000000000000000000e+00
0.000000000000000000e+00
1.277728618521664639e-01
-1.293397854874628328e-02
-2.592766530097986077e+00
-8.930612593008396827e-02
-1.392836277547400692e-01
0.000000000000000000e+00
0.000000000000000000e+00
0.000000000000000000e+00
1.077526438129444708e-03
-3.701159220990470761e-02
7.183020720774938028e-02
2.905298912507271736e-04
-7.074891497711234024e-03
-6.701875712631369386e-02
3.073770328425716285e-03
-5.847473546542841794e-02
-1.209099204301754965e-02
0.000000000000000000e+00
-6.530358293356445902e-04
-3.589896953798139834e-03
4.960461212690692526e-03
6.406495813657231420e-02
0.000000000000000000e+00
2.833137850632759004e-03
1.017769210762757975e-01
4.593466278985537665e-02
-1.506691193848007371e-01
-8.726916966785222551e-02
-5.233951181101802880e-02
-9.256000021239347425e-03
-2.013533529777599210e-02
0.000000000000000000e+00
0.000000000000000000e+00
-7.845423554767139152e-03
0.000000000000000000e+00
-2.106172615370114146e-03
-8.839767341179355364e-02
0.000000000000000000e+00
6.246406021139338030e-03
8.418117110248091173e-02
0.000000000000000000e+00
1.338359493019884369e-03
-1.995522722684207537e-02
-2.253923120272369462e-01
-1.253043497414645796e-02
-3.065709537649148955e-02
-1.136188768436836513e-02
2.735004683219520727e-01
-1.050557681707363217e-01
0.000000000000000000e+00
0.000000000000000000e+00
-7.688625486595967659e-03
4.489463248857729349e-02
-4.351356775181712024e-03
1.700834721166282620e-02
1.951755927493545317e-02
6.043913632582561535e-01
0.000000000000000000e+00
1.508795406118996485e-01
-3.167710588249424974e-01
3.218932411909419811e-02
4.894852606172252901e-03
3.799872730667305104e-02
-2.865654291194973807e-02
0.000000000000000000e+00
0.000000000000000000e+00
1.109520986611575895e-02
-3.494447408392419626e-03
-2.786420948000654929e-03
-4.622788729889452108e-01
9.769749739520368868e-04
6.712947468450546941e-03
6.216046057454362866e-02
1.591827435245009303e-02
-1.019645327501431248e-01
-1.985359276675331339e-02
-9.168555649576469110e-04
0.000000000000000000e+00
0.000000000000000000e+00
0.000000000000000000e+00
5.770647165118886202e-02
0.000000000000000000e+00
0.000000000000000000e+00
0.000000000000000000e+00
5.422696639344233571e-02
0.000000000000000000e+00
0.000000000000000000e+00
9.314185747779516258e-03
4.048821183665529677e-01
6.191480059791293344e-01
4.927270851991210308e-03
-1.277541416601859492e-01
1.278808968470881990e-01
-1.417970748161666295e-02
1.782511248288028149e-02
-1.090242570075197238e-02
7.573748398233021151e-03
1.796437351995922374e-02
9.262700522325128041e-03
-7.503848930920702966e-03
0.000000000000000000e+00
3.678107924868423070e-03
3.449413271360540767e-02
1.162787384828775378e-03
-2.656769073673266313e-01
-2.493331953261706396e-02
-2.019423554049759150e-04
0.000000000000000000e+00
0.000000000000000000e+00
0.000000000000000000e+00
1.050713589260893026e-02
-1.303313453386656731e-03
0.000000000000000000e+00
0.000000000000000000e+00
0.000000000000000000e+00
0.000000000000000000e+00
-1.315357369660116738e-02
1.026483514980305531e-02
2.310376780264920826e-02
2.205272243748648484e-02
1.945297871952924793e-02
5.651448361847855734e-02
-2.305928873943424468e-04
-1.097220466052228546e-02
-1.154487624152003011e-01
-2.033829863020797379e-01
0.000000000000000000e+00
-1.821608885565015434e+00
0.000000000000000000e+00
-1.015578516719545417e-02
0.000000000000000000e+00
1.542399135664085097e-01
0.000000000000000000e+00
-3.289272093593778763e-03
-6.951505868033201925e-03
6.995302881918272209e-02
-8.841277259901142308e-04
0.000000000000000000e+00
0.000000000000000000e+00
-1.809353366793261739e-02
0.000000000000000000e+00
0.000000000000000000e+00
8.587995748619617320e-05
0.000000000000000000e+00
0.000000000000000000e+00
0.000000000000000000e+00
-3.288598962117668112e-01
6.185336296692745678e-02
-9.768211057162667563e-03
0.000000000000000000e+00
5.791423675930226257e-03
0.000000000000000000e+00
7.895588203741253294e-03
2.100205915865338885e-05
-4.136605424935927387e-03
0.000000000000000000e+00
-2.836060414278680861e-03
0.000000000000000000e+00
-7.605904742696992238e-02
-2.486004983173314642e+00
1.685691909237722885e-01
3.428433219809241539e-01
0.000000000000000000e+00
7.332852057066577105e-03
-1.963910146342977368e-03
1.581245382452592038e-02
2.340530192967868461e-02
-3.886583300747855317e-03
-7.535978593724653507e+00
1.917601622621754875e-02
3.063768024057818562e-01
0.000000000000000000e+00
0.000000000000000000e+00
-3.906794279336362960e-03
-4.775253453038611484e-01
1.083699965944726583e-03
0.000000000000000000e+00
4.574846350121167804e-01
3.513054129942489584e-02
8.464136386549347794e-04
0.000000000000000000e+00
0.000000000000000000e+00
-4.732973875926162199e-02
-1.619463419653409397e-01
-3.138167621022016490e-02
0.000000000000000000e+00
0.000000000000000000e+00
-1.932682528656121286e-03
-9.530501923420271748e-02
-2.949611999156810660e-02
-2.054266410251134184e-02
-3.429534540686921540e-01
0.000000000000000000e+00
-4.414579168822261312e-01
-9.258936764665001186e-04
0.000000000000000000e+00
0.000000000000000000e+00
0.000000000000000000e+00
-5.240703358119171672e-03
-3.885109257256959530e-03
0.000000000000000000e+00
1.368364667726268587e-02
-7.163705412416154772e-02
0.000000000000000000e+00
-7.737727633610146788e-03
-1.254558268935012766e+00
2.173447373425938661e-02
-2.936979260189367599e-03
0.000000000000000000e+00
-9.474226236123747813e-03
-8.601033291333433362e-02
0.000000000000000000e+00
-3.750561320731292114e-01
0.000000000000000000e+00
6.314303561192970843e-03
-2.304362725419801389e-02
-2.337619307094930543e-02
-9.001660345216086490e-03
0.000000000000000000e+00
0.000000000000000000e+00
0.000000000000000000e+00
7.433744065187164463e-02
0.000000000000000000e+00
8.638091841374720414e-02
-3.161263023868525479e-02
0.000000000000000000e+00
-1.373986862453882053e-02
1.443780054163953074e-02
0.000000000000000000e+00
-1.799752369849120029e-02
-1.063441541876298906e-02
0.000000000000000000e+00
-1.848027790217923565e-03
-5.497216910165270143e-02
-7.792341170299955174e-05
-1.889699678307501260e-04
5.814005064871541209e-04
0.000000000000000000e+00
-2.499207702192467184e-02
0.000000000000000000e+00
0.000000000000000000e+00
0.000000000000000000e+00
3.314123924148924035e-03
6.600584490133848403e-02
0.000000000000000000e+00
4.513754307221212736e-01
0.000000000000000000e+00
9.718701397280106328e-04
0.000000000000000000e+00
1.331514738956105642e-02
5.989757755172472366e-03
-2.684473654748445806e-02
1.538001206270679655e-02
2.245354960964878008e-04
2.028398761203851575e-04
0.000000000000000000e+00
4.144131232534642266e-03
-1.469600424762283059e-02
0.000000000000000000e+00
0.000000000000000000e+00
0.000000000000000000e+00
0.000000000000000000e+00
0.000000000000000000e+00
-3.453402595559239285e-02
-5.674138160167789824e-01
-2.387199120130749537e-03
5.033020066381618980e-03
-4.113423289723278087e-03
0.000000000000000000e+00
8.280307916022268400e-02
5.472805192020023871e-03
0.000000000000000000e+00
4.237710618587082201e-01
-3.140422505893679297e-03
0.000000000000000000e+00
0.000000000000000000e+00
-1.494779522967985656e-03
0.000000000000000000e+00
7.962108513628815554e-02
-2.886929029233310448e-02
-1.003499270208424582e-01
-6.575741375522510535e-02
2.068929600353692361e-02
0.000000000000000000e+00
-3.523206122466609417e-03
0.000000000000000000e+00
-3.680020154663727998e-03
-4.520882227231169150e-03
0.000000000000000000e+00
0.000000000000000000e+00
0.000000000000000000e+00
-3.222423515263189708e-02
1.593185839566428098e-03
0.000000000000000000e+00
0.000000000000000000e+00
0.000000000000000000e+00
0.000000000000000000e+00
7.175042826399886421e-03
2.864868549347115339e-04
0.000000000000000000e+00
1.151693418426193161e-01
2.306145018547766951e-03
0.000000000000000000e+00
0.000000000000000000e+00
0.000000000000000000e+00
8.812345863246633104e-03
0.000000000000000000e+00
-9.651340776371524367e-04
-5.972143322263575443e-02
9.133829610677069236e-03
0.000000000000000000e+00
0.000000000000000000e+00
4.044060774724487356e-02
0.000000000000000000e+00
-9.184293363632990963e-04
-8.939762086807622257e-04
-8.327188723321813160e-03
0.000000000000000000e+00
0.000000000000000000e+00
0.000000000000000000e+00
0.000000000000000000e+00
5.592760260932530363e-03
0.000000000000000000e+00
6.588875192477790244e-02
-1.534200209607030404e-04
0.000000000000000000e+00
0.000000000000000000e+00
0.000000000000000000e+00
-7.157304751062911483e-04
0.000000000000000000e+00
0.000000000000000000e+00
0.000000000000000000e+00
-1.709807839902729998e-02
-4.195724676872587128e-04
0.000000000000000000e+00
-6.342059538263152517e-03
6.242708866073728297e-02
4.997889185997203901e-03
6.006383068643480344e-02
-5.350371854817197528e-03
0.000000000000000000e+00
0.000000000000000000e+00
0.000000000000000000e+00
0.000000000000000000e+00
0.000000000000000000e+00
-9.309434568415014821e-03
-3.104700348599102183e-02
2.525374015232535047e-02
-7.001342930439150014e-03
0.000000000000000000e+00
0.000000000000000000e+00
0.000000000000000000e+00
-2.821542481398199315e-03
0.000000000000000000e+00
0.000000000000000000e+00
0.000000000000000000e+00
0.000000000000000000e+00
0.000000000000000000e+00
0.000000000000000000e+00
9.251429875715823023e-03
-1.844743966510594413e-01
-3.281712725128547482e-03
0.000000000000000000e+00
0.000000000000000000e+00
6.827942496227922507e-03
0.000000000000000000e+00
0.000000000000000000e+00
1.468176578619347170e-03
2.454698977972773893e-02
0.000000000000000000e+00
0.000000000000000000e+00
0.000000000000000000e+00
0.000000000000000000e+00
0.000000000000000000e+00
0.000000000000000000e+00
0.000000000000000000e+00
0.000000000000000000e+00
0.000000000000000000e+00
0.000000000000000000e+00
1.187496575179739031e-03
2.479802792082973564e-02
-4.372430508175537307e-03
3.655433407096079807e-05
0.000000000000000000e+00
1.142835416011533413e-03
0.000000000000000000e+00
0.000000000000000000e+00
5.362557059108019261e-03
-2.769106715337097888e-02
1.090294108817039809e-01
0.000000000000000000e+00
0.000000000000000000e+00
0.000000000000000000e+00
0.000000000000000000e+00
0.000000000000000000e+00
2.067123476767994406e-02
1.689304468432457212e-02
2.929197524952113080e-02
-1.719776587723288730e-02
-4.273907891215464327e-02
0.000000000000000000e+00
0.000000000000000000e+00
-5.159415413642542969e-02
2.270731951689655258e-03
0.000000000000000000e+00
0.000000000000000000e+00
0.000000000000000000e+00
0.000000000000000000e+00
-9.091167837132792381e-04
-2.174601874850313199e-01
-2.074596060559793717e-02
-1.682159403127352071e-02
2.548588921947762993e-03
0.000000000000000000e+00
0.000000000000000000e+00
0.000000000000000000e+00
-1.721119297858701991e+00
1.244632078796737047e-02
0.000000000000000000e+00
0.000000000000000000e+00
0.000000000000000000e+00
-7.797348933401136066e-04
0.000000000000000000e+00
-2.889133750277143690e-03
7.028244443556327936e-02
0.000000000000000000e+00
-1.235774257315457817e-03
7.546780238866466865e-03
-1.800231385073068277e-02
0.000000000000000000e+00
0.000000000000000000e+00
-9.201794900420035006e-01
-5.211554486567099081e-04
1.351184097304303743e-02
3.573002615406803244e-03
1.290145664806645678e-02
2.131420435638216038e+00
0.000000000000000000e+00
-4.109825258420878036e-02
4.558374396686708935e-02
-9.610680131402075986e-04
-3.956031186957196383e-02
3.802999744920048004e-03
0.000000000000000000e+00
0.000000000000000000e+00
-9.406520327761288408e-03
0.000000000000000000e+00
0.000000000000000000e+00
0.000000000000000000e+00
2.423651644828387491e-03
0.000000000000000000e+00
0.000000000000000000e+00
0.000000000000000000e+00
3.670201080950433875e-02
1.236776614137529567e-01
-2.035804783228067558e-02
0.000000000000000000e+00
0.000000000000000000e+00
0.000000000000000000e+00
0.000000000000000000e+00
0.000000000000000000e+00
0.000000000000000000e+00
0.000000000000000000e+00
0.000000000000000000e+00
0.000000000000000000e+00
0.000000000000000000e+00
0.000000000000000000e+00
0.000000000000000000e+00
0.000000000000000000e+00
0.000000000000000000e+00
0.000000000000000000e+00
0.000000000000000000e+00
-1.026191715892972867e-01
-1.660311100668550588e-01
-3.274587479790562125e-03
-1.028863750497514828e-02
-3.264796111174003146e-01
0.000000000000000000e+00
0.000000000000000000e+00
0.000000000000000000e+00
0.000000000000000000e+00
0.000000000000000000e+00
-4.276434579619763608e-03
2.336625979531722821e-03
0.000000000000000000e+00
7.221071452709573735e-03
-1.584227648862338023e-02
-2.142152362800391757e-02
0.000000000000000000e+00
2.022176818026459599e-02
0.000000000000000000e+00
0.000000000000000000e+00
-1.819345121456066028e-02
-6.195543297629346052e-03
0.000000000000000000e+00
1.683389953836796635e-03
5.424349221759040135e-03
1.911564426900630442e-03
0.000000000000000000e+00
0.000000000000000000e+00
0.000000000000000000e+00
-3.564784203729561094e-03
-1.394127952671858715e-03
-2.556338558754183126e-03
2.444247479008220675e-02
0.000000000000000000e+00
6.381030295475377534e-02
-2.231207181892213426e-02
0.000000000000000000e+00
0.000000000000000000e+00
0.000000000000000000e+00
0.000000000000000000e+00
0.000000000000000000e+00
0.000000000000000000e+00
0.000000000000000000e+00
9.996834156259537876e-03
0.000000000000000000e+00
2.643290682350720160e-03
1.383039864790152826e-02
0.000000000000000000e+00
1.928984735028667179e-03
9.571838713301620075e-03
-1.731093801118947610e-03
2.478448344312207674e-02
0.000000000000000000e+00
0.000000000000000000e+00
-1.031789203491532622e-02
1.085302014315765590e-01
2.642569636544353246e-03
0.000000000000000000e+00
-3.870630314652686622e-03
0.000000000000000000e+00
0.000000000000000000e+00
0.000000000000000000e+00
0.000000000000000000e+00
0.000000000000000000e+00
-5.796348709393177312e-02
0.000000000000000000e+00
7.770631322371311135e-04
3.543832099639481793e-03
0.000000000000000000e+00
3.498848339205556934e-02
-1.814078327645518018e-01
-5.241484322394724948e-01
0.000000000000000000e+00
0.000000000000000000e+00
0.000000000000000000e+00
-2.672352083483660323e-03
-6.269060320644871676e-03
-6.294843902729538310e-02
-8.477184477849054600e-01
0.000000000000000000e+00
8.074014941706134096e-03
0.000000000000000000e+00
0.000000000000000000e+00
3.772556936827461786e-03
-4.880032207991800985e-02
8.477299521040458641e-02
0.000000000000000000e+00
-2.487781636965014087e-02
0.000000000000000000e+00
2.450579778223621955e-02
1.308432840452305179e-01
1.765221322013587613e-01
0.000000000000000000e+00
0.000000000000000000e+00
0.000000000000000000e+00
-4.782780246728371432e-02
3.941008557299394317e-03
-1.249505805174055267e-01
1.741351487191478489e-02
-1.122147769309637333e+00
-3.855071975249333392e-03
0.000000000000000000e+00
0.000000000000000000e+00
0.000000000000000000e+00
-1.206311507423043876e-02
-4.144109441501200169e-03
-2.138972742503545462e-03
-7.980591624005284324e-01
0.000000000000000000e+00
1.243341557411752583e-02
0.000000000000000000e+00
2.068827057477977405e-02
0.000000000000000000e+00
1.083826898506559944e-01
-6.570793093648624739e-02
-6.996255980540308506e-03
-1.123486117681723184e-01
0.000000000000000000e+00
-2.113353492946974665e-02
0.000000000000000000e+00
0.000000000000000000e+00
-2.731949974232301265e-02
-1.618176351687278913e+00
-6.252437612163680436e-03
0.000000000000000000e+00
0.000000000000000000e+00
1.789540327226621288e-03
4.593201786533718245e-02
1.213587780820271286e-02
9.193619519935425366e-02
0.000000000000000000e+00
2.567097453743140412e-02
-2.910335790526515781e-02
0.000000000000000000e+00
0.000000000000000000e+00
1.610688522524643396e-02
0.000000000000000000e+00
0.000000000000000000e+00
9.152447761954746880e-03
4.521990143087699365e-02
0.000000000000000000e+00
0.000000000000000000e+00
0.000000000000000000e+00
0.000000000000000000e+00
2.792628288636891422e-03
0.000000000000000000e+00
6.580297662037551225e-03
-6.567766552645127633e-03
0.000000000000000000e+00
0.000000000000000000e+00
-1.372961628492094799e-01
0.000000000000000000e+00
-1.217509448881108451e-02
-6.167213023079001766e-03
7.706023473824666348e-03
-1.020928323269580315e-02
1.174699714488407903e-02
0.000000000000000000e+00
0.000000000000000000e+00
7.403073678237363786e-02
2.632984132183795525e-02
7.929722042452479192e-03
0.000000000000000000e+00
-7.851299778108659921e-03
-1.610342093124875120e-04
-7.375631087486408423e-04
0.000000000000000000e+00
0.000000000000000000e+00
2.196421340951457656e-03
9.487435255320401939e-02
0.000000000000000000e+00
-7.669142757455392478e-02
0.000000000000000000e+00
-5.698429703140409086e-02
0.000000000000000000e+00
0.000000000000000000e+00
0.000000000000000000e+00
8.724020116527949481e-03
3.968104466187335339e-03
-1.907804704524391874e-03
9.163022054739342059e-02
0.000000000000000000e+00
0.000000000000000000e+00
-4.171225748367851649e-02
1.202156709422727704e-01
-2.642753674001635175e-02
-1.079215017070577765e-01
-2.599340325402887952e-02
0.000000000000000000e+00
0.000000000000000000e+00
-8.659081810015695907e-03
2.544184973561506441e-02
9.486990666693553842e-02
-1.838781760543599653e-01
2.157316080841887446e-02
2.589455224760088548e-02
0.000000000000000000e+00
-1.561533154109321156e-02
8.313922751326374011e-04
6.834507483556602481e-02
0.000000000000000000e+00
8.279132508138591778e-03
4.639352687914890389e-02
5.031487559978927576e-02
1.730469786421949541e-02
-3.585864830108669021e-02
-1.389850611823580931e-03
3.783801910915087982e-03
1.615608203489556777e-02
1.648897524750806472e-03
0.000000000000000000e+00
0.000000000000000000e+00
4.554790008289248371e-06
1.469430252906734485e-02
-8.274274099673803798e-03
-5.534891995250956764e-01
-5.434502780854656885e-03
0.000000000000000000e+00
0.000000000000000000e+00
-6.860712867810547788e-02
-6.273651056985868335e-01
-8.073502992460548366e-01
-3.279916463887572187e-02
1.023248748422014853e-02
-1.098523300860509699e-01
0.000000000000000000e+00
0.000000000000000000e+00
1.350639993568224506e-01
-2.501558846576942136e-02
5.486668440959321241e-02
0.000000000000000000e+00
1.855417225752695881e-03
-1.481832933011200393e-01
7.489524591812785070e-02
1.011415503381258851e+00
1.272680768726113659e-02
-7.815043209257814538e-02
-5.960549185673210196e-03
-6.231894237139706805e-02
-2.867760822836257911e-03
9.254873188471346435e-01
0.000000000000000000e+00
0.000000000000000000e+00
0.000000000000000000e+00
0.000000000000000000e+00
-2.132294594592367976e-01
-3.418457590601436946e-02
0.000000000000000000e+00
-1.189702183810720237e-02
2.528161737117083641e-03
-2.116183588331884552e-02
-1.615501166135725197e-01
1.447499790226402239e-01
0.000000000000000000e+00
1.437573245704175662e-01
-7.415781492282298021e-03
6.359813821546162448e-03
7.348641390417136599e-01
7.202675671139216473e-02
-1.678668263306287711e-01
-7.088453963383782239e-03
-1.279533539301789813e-01
-1.190015944021936833e-01
0.000000000000000000e+00
0.000000000000000000e+00
-6.275021550039684703e-02
1.419358153990179887e-03
0.000000000000000000e+00
0.000000000000000000e+00
-2.156782295128762961e-01
-1.896990480176690905e-02
7.951097115884508959e-02
1.083913966135661822e+00
-5.210313390562799386e-03
-3.413303072796413772e-03
4.351352763210822316e-02
7.293033166809746726e-02
5.336173226611892273e-04
9.610863602792381853e-04
5.621055509167725839e-02
-4.954672155734394373e-03
3.731917653318379130e-02
2.578078183784107136e-01
-3.358425059675324703e-02
1.324974722793549331e-01
0.000000000000000000e+00
-2.192890720110633740e-02
0.000000000000000000e+00
8.725982384477917742e-02
-4.018801866648856469e-02
0.000000000000000000e+00
1.651311862503765382e-02
-5.079943764575364784e-02
0.000000000000000000e+00
0.000000000000000000e+00
7.294787871270980162e-02
1.169177289313433121e+00
-6.505346025495925555e-02
-1.157287364125273665e+00
-5.431830483665885112e-02
1.827520098285511985e+00
-5.620515156751958868e-02
-7.757919470355026381e-02
0.000000000000000000e+00
-1.668866056251614993e-01
-8.352859922220123856e-03
0.000000000000000000e+00
-2.977152160272038967e-03
-3.542639971970572288e-02
1.040632932520908771e-01
0.000000000000000000e+00
2.567145089122297927e-03
2.484936693516380263e-03
0.000000000000000000e+00
0.000000000000000000e+00
1.373070537372424009e-03
0.000000000000000000e+00
-8.705432277515451518e-04
6.561796542287959277e-02
1.305603603778417252e-03
1.507733494663179019e-01
0.000000000000000000e+00
1.292773022684186139e-02
1.518465090888812888e-02
-8.633217360758994180e-03
-1.791664574453281755e+00
0.000000000000000000e+00
-5.136338086451067500e-03
0.000000000000000000e+00
0.000000000000000000e+00
0.000000000000000000e+00
0.000000000000000000e+00
-2.707177308410999017e-01
0.000000000000000000e+00
1.804821102478998754e-02
0.000000000000000000e+00
4.083221104207539025e-03
-1.467480864620485548e+00
0.000000000000000000e+00
-1.963383772546585873e-02
1.682064922545544183e-01
-2.489213495159741663e-01
1.340804921520873029e-04
-1.019178665883915813e-02
-6.020198781669098415e-03
-4.985025470307546079e-03
0.000000000000000000e+00
-2.048661040779463751e-04
-2.000109331852853445e-01
1.153851818416377038e-02
0.000000000000000000e+00
-2.055279749154900193e-01
9.889004418130731278e-04
0.000000000000000000e+00
5.053797035317465595e-03
-1.215097698937631565e-03
7.151304853310291821e-04
-1.259276197095692516e-02
0.000000000000000000e+00
0.000000000000000000e+00
5.086416965001165635e-03
8.284693146135896011e-03
1.919145253245301344e-02
9.150849682633949156e-01
5.329262868744297915e-02
2.301866830540003073e-02
-7.827617918591680407e-03
1.577951627893851502e-02
8.414797525658906929e-03
2.277986673886217214e-02
-1.758779461344534001e-02
0.000000000000000000e+00
0.000000000000000000e+00
0.000000000000000000e+00
4.061590258430725943e-03
-9.694963973672290902e-02
-3.341729797213574549e-02
0.000000000000000000e+00
-3.674521651138247524e-03
-1.362514755651006784e-02
1.276184191432405413e-01
-6.618235064445293636e-02
-2.016432872338847718e-03
-7.664455206181700758e-03
0.000000000000000000e+00
-1.500095348299632439e-02
0.000000000000000000e+00
9.743398542187439813e-04
1.562352955188939761e-02
3.213480813371030753e-02
-5.041163462093196934e-02
1.055773569647345395e-02
0.000000000000000000e+00
-2.153035903082375357e-01
-1.564547235808378400e-01
-3.471174015484888853e-02
1.074062612878584795e-02
0.000000000000000000e+00
-1.757687204949380869e-02
0.000000000000000000e+00
2.686983670737309871e-03
2.040121842560481402e-01
2.994890077075278989e-01
0.000000000000000000e+00
3.124402317820929378e-02
2.152909356947035497e-05
8.628068532075135189e-02
-3.496560607574791812e-04
-1.709741609456248571e-03
-1.126428868890377577e-01
-9.934179538817614671e-04
8.951705915019545282e-03
0.000000000000000000e+00
-7.032447135206321663e-03
-1.161141040017515860e-03
3.119703135967215064e-03
0.000000000000000000e+00
8.374614610200024900e-02
-1.059108131930908310e-02
5.274235255137352946e-02
-2.955592539079177072e-03
3.764390501288640209e-03
1.557783630465605501e-02
4.058090444461901619e-03
0.000000000000000000e+00
0.000000000000000000e+00
-3.782534857669307693e-03
-6.666022791204408160e-04
6.953614011933526018e-02
1.093849246574559245e-02
-7.518849277255730936e-05
0.000000000000000000e+00
0.000000000000000000e+00
2.472200549002775451e-03
-5.784494135876783183e-03
-2.913319312566020852e-04
-7.024909566614364123e-03
2.900797071376807123e-04
8.688920423026708084e-01
5.836372385287587339e-02
-1.887381929633096034e+00
3.396024453924489667e-03
-1.101094733525293662e-01
-2.035312281096336995e-01
-6.496562337707122159e-02
-6.302417980725685820e-02
2.242966189648722478e-02
1.492309421518066559e-01
0.000000000000000000e+00
-8.849039784580789991e-01
-2.788592919900904910e-02
-3.258698566250921563e-03
-4.379943516191264069e-03
-2.041197621467213397e-01
-2.802890086752445331e-01
4.801095674656274959e-02
1.565128662628887529e-02
1.943126321976200443e-02
5.634494078741453943e-02
-1.162652434492876807e-01
-4.380179441223348152e-02
9.333656731533157905e-03
9.259860889393341232e-02
-1.388569829020715445e-03
6.569529120564744640e-02
1.142690840909592852e-02
-1.692191315750379409e-04
2.782019524237154887e-02
2.763329979257902330e-03
1.550904761486861759e-02
5.522255171151928266e-02
-1.494917070826710069e-02
-2.367986491897662027e-01
-1.585751584361024674e-02
-3.000977230499864146e-02
5.045327004110630731e-03
-1.821118177287299189e-01
-1.239840499499784698e+00
-2.316524254510832562e-02
-5.847935857892540279e-04
-9.023409213671114426e-02
-1.078739865261850450e-02
-5.928490669722183970e-01
-6.242129746793582956e-02
-2.716889158146658205e-03
3.312281151774308652e-02
1.196758458846148947e-02
-4.713666314964656823e-03
-1.514396753210775666e-02
-1.443989353156685529e-01
-2.170141761922025209e-02
7.556669196614513098e-03
2.062973973600998878e-01
4.654153506347261278e-03
1.024434332207940085e-02
0.000000000000000000e+00
0.000000000000000000e+00
-1.672717044231841407e-02
-8.543157691251974939e-03
-4.297632660430650287e-03
0.000000000000000000e+00
0.000000000000000000e+00
0.000000000000000000e+00
0.000000000000000000e+00
2.940157819607686629e-01
1.135379551270927290e-03
0.000000000000000000e+00
0.000000000000000000e+00
4.611835861984088167e-04
3.544471199428614241e-03
-4.565279789462621807e-01
-1.406517257041289652e-02
-3.369830447485765851e-02
2.751743888352151460e-02
-3.591844800812257180e-04
1.264596783379770828e-01
7.908915687178131107e-03
0.000000000000000000e+00
2.401920877945456709e-02
1.532104478030826486e-02
-1.742037483198561937e-04
9.887239183749438332e-02
4.492932557824581563e-01
1.049867675072438722e+00
-1.241304942784291487e-01
-6.174369481566630014e-02
0.000000000000000000e+00
-1.009367253211533866e-01
-1.189820892011537838e-02
-1.216091473008828333e-02
1.497311168529843334e-02
-9.131131503011657990e-02
0.000000000000000000e+00
0.000000000000000000e+00
0.000000000000000000e+00
0.000000000000000000e+00
0.000000000000000000e+00
-4.152645142722777988e-02
0.000000000000000000e+00
-6.301025838545481345e-03
-2.675466875937757699e-03
0.000000000000000000e+00
3.289152576641282688e-02
1.876656010418669904e-02
0.000000000000000000e+00
-3.568166810297646041e-01
-3.833054688504111684e-01
2.243803070732894311e-02
8.463424931601720019e-03
-2.279249752297605666e-02
4.232069191161262254e-04
-5.837821859006241121e-02
-2.042534684564262792e-01
-5.483859689964641626e-03
1.201100879182415539e-03
4.036580721394719684e-03
-1.076797577562025460e-01
1.491576478351699583e-02
-2.918601845342572720e-01
1.325434304135693520e+00
-1.281552553460605509e-03
3.028886994822092837e-02
-3.335923604814056836e-02
-1.170788788483458596e-02
-7.081860133503622978e-02
-1.268808125993422298e+00
5.174338016696702347e-01
-1.233517956870866794e-01
-1.424363844254269984e-01
-2.800963958366101819e-02
-9.008847427127773810e-02
-1.046910922333557314e+00
-1.607681537275395742e-02
0.000000000000000000e+00
-1.421075538067462229e-02
0.000000000000000000e+00
-6.470165143913766959e-02
3.100694076888760742e-03
3.737857929091054077e-01
3.953393828105424002e-02
1.808625565249167427e-02
-9.283746663722552972e-02
5.700783147081191042e-03
0.000000000000000000e+00
0.000000000000000000e+00
-2.268493620381374365e-01
-4.623549588746740935e-01
-7.702872186705772561e-02
0.000000000000000000e+00
-3.013204375548363904e-03
4.701642882316588862e-02
0.000000000000000000e+00
-1.018532065387261955e-03
0.000000000000000000e+00
0.000000000000000000e+00
3.190804003754519474e-03
-4.665163145347512419e+00
3.165003684206829648e-02
5.103835386048214406e-01
1.130073831893769476e-01
-1.688180040585690904e-03
1.241025340307587432e-02
-1.261413818347039036e-02
-2.556291760949717332e-03
-1.139986734144326531e-02
-1.480799488702942354e-03
-3.639939672579343977e-02
-2.364743378671552154e-01
-9.729252862526009682e-04
0.000000000000000000e+00
-1.091759039770472395e-01
-5.137063785290987283e-01
-6.199517328393779059e-03
-1.954544572294679081e-02
-7.000649382374619922e-02
-5.693014553396347557e-03
-1.535371207206794909e-03
0.000000000000000000e+00
