-1.353331187186296129e-03
-4.381832332049675927e+00
-9.753022091178901176e-01
2.912295025759978860e-03
0.000000000000000000e+00
4.821515323476373294e-02
-5.571060026643243068e-02
-5.229429419969550824e-02
-3.100782855423176582e-03
0.000000000000000000e+00
-2.417510928774948553e-01
0.000000000000000000e+00
1.341740956599033960e-02
-3.405210821198736970e-02
0.000000000000000000e+00
-2.204944127692693573e-02
-1.541854407748575184e-01
1.272451566257462030e+00
2.586130874141144521e-04
5.796956506510368180e-04
1.102111573930946407e-03
-6.355305627894740350e-02
-1.518371662564101110e-01
2.264628969245114087e-01
0.000000000000000000e+00
7.318368350920199938e-02
8.062281302034162572e-03
-5.091574688122651321e-02
-3.227417822256568591e-01
0.000000000000000000e+00
0.000000000000000000e+00
0.000000000000000000e+00
0.000000000000000000e+00
1.332281887571813983e-01
4.962242130692492287e-02
0.000000000000000000e+00
2.102144957983032025e-01
3.771137382632029911e-01
0.000000000000000000e+00
4.306098601319488517e-01
-1.189322565908952981e-03
4.879608832962948305e-03
8.339523563963849861e-01
1.107680956495657627e-02
1.598281825844957982e-01
-9.131654114583092480e-03
0.000000000000000000e+00
0.000000000000000000e+00
0.000000000000000000e+00
-6.394578143730755837e-01
0.000000000000000000e+00
-3.743959749542241089e-01
0.000000000000000000e+00
0.000000000000000000e+00
0.000000000000000000e+00
0.000000000000000000e+00
0.000000000000000000e+00
0.000000000000000000e+00
0.000000000000000000e+00
0.000000000000000000e+00
6.026193946964564230e-02
-1.451437256074191232e-03
-1.035400011555443062e-01
0.000000000000000000e+00
1.232968567250989217e-01
-9.478894811960780764e-02
3.066504020997062874e-04
2.171166713371994739e-01
0.000000000000000000e+00
1.231110870283142963e-02
3.629496396289690757e-02
1.181647266729822683e-02
4.733845414309952732e-02
-2.876816574908750562e-02
1.116969151576428440e-02
-3.866458372916592889e+00
8.035216865814462373e-02
0.000000000000000000e+00
0.000000000000000000e+00
0.000000000000000000e+00
0.000000000000000000e+00
5.134133154393392962e-02
-1.974607545979173429e-02
0.000000000000000000e+00
-2.152163826160195109e-02
-9.351509827650139606e-01
2.598353295809718161e-05
0.000000000000000000e+00
3.287076889776822941e-02
-1.029043161981026078e+00
-4.140667029146750250e-02
-6.272321387053663155e-01
5.950483768767353410e-02
1.501764934946071550e-01
-2.507270722571767196e-01
-2.868041738310573088e-02
-1.160950190402278703e-01
-4.516158729721668486e-02
3.296517722285580957e-04
2.992173577608149282e-01
1.850770589223555695e-01
3.580479471642206753e-03
0.000000000000000000e+00
9.548759956080092245e-03
1.101864949235655325e-02
3.255978471912112093e-01
0.000000000000000000e+00
2.173421800112314284e-01
6.667278013932708802e+00
3.537706935801374186e+00
0.000000000000000000e+00
0.000000000000000000e+00
0.000000000000000000e+00
0.000000000000000000e+00
1.719646053755258253e-01
2.573779407872795865e-03
1.379570819852695696e+00
2.871894027071395655e-02
2.781823464777459162e-02
-8.552829870957865399e-01
1.516072626806563850e-01
-1.824100403994300540e-02
0.000000000000000000e+00
-1.083095841424478942e-02
-7.769776586998126122e-01
-1.308172255456033217e-02
-3.793820514455978898e-01
1.699334480347327592e-01
-5.285299763669634721e-03
1.156629171357436434e-04
3.495346241084985039e-01
-4.203847154815411324e-02
1.446757416357855874e-01
-5.174025939733496379e-03
1.988591044881755920e-02
4.433090435758257897e-01
3.718907265326852618e-02
0.000000000000000000e+00
-1.232370375635998645e-03
0.000000000000000000e+00
-3.077522269490798323e-02
-1.109138699891447886e-02
5.996703779713079996e+00
2.629919097067405431e+01
0.000000000000000000e+00
0.000000000000000000e+00
-6.530880181044416144e-01
-4.772510283540257192e-02
-9.463706278270303529e-02
-6.073020244383970506e-02
-1.215142092124533307e-02
8.438608878904898733e-03
8.622411054469147906e-02
5.067846601491464709e-01
-1.514981181507506269e+00
0.000000000000000000e+00
-1.468654838936272355e+00
-5.712391144075545935e-01
-3.545800385694491408e-01
3.900626618237350296e-02
0.000000000000000000e+00
1.625904659218019077e+01
1.800449207412092800e+00
-6.830203425792215691e-03
-1.041499567519853786e-01
-1.570383734354300481e-02
2.679286134557873865e-03
-1.578719409870195101e-01
-2.632136014817852004e-03
-1.688919638481376773e-01
6.357833603547252341e-04
0.000000000000000000e+00
3.781194083304750375e+00
2.371157091153115910e-03
0.000000000000000000e+00
8.409386560659715126e-02
0.000000000000000000e+00
-3.821836550358115314e-02
0.000000000000000000e+00
-1.046286291449970429e-01
-5.565802505263644194e-03
-1.320917525474131146e-02
-1.806528971389638385e-03
-6.692961826947659530e-03
-3.586638985515124278e-01
1.277918351487512989e-03
2.051850447217248852e-02
4.725925098128586771e-02
1.169713726386307356e-01
0.000000000000000000e+00
3.693030745622055688e-02
6.796856952353496073e-01
7.127227776997990816e-01
-1.525511849579280592e-02
3.771805039697188194e-02
-4.956468515208323211e-02
-1.847470931392839189e-01
0.000000000000000000e+00
2.496689886166772454e-02
1.802682698526908434e-01
6.046886073429738606e-02
-1.279895399436483967e-03
0.000000000000000000e+00
-4.260784817911106859e-01
-1.240615977979487305e-01
1.120834843318069124e-01
8.991661611251672293e-03
0.000000000000000000e+00
-2.828232381319945206e-03
0.000000000000000000e+00
3.089311634901677900e-02
2.691846796625974592e-01
4.822014995535259807e-01
-4.392832837092365272e-01
-9.778646183340727882e-02
-1.521636928067576430e-02
2.361948854256630537e-02
0.000000000000000000e+00
-6.706682291164053344e-01
1.581918313269753407e-01
-1.106399092145603086e-01
-2.369313021423967436e-02
1.622357099821466683e-02
4.036376584911864976e-03
3.010421389123531591e-02
-2.349276494729983233e-01
-8.532976334951369424e+00
2.917823979929597047e-03
1.391188711859301930e-01
-1.394700118254291145e-03
3.279210484911492321e-03
0.000000000000000000e+00
0.000000000000000000e+00
7.514427386782387107e-03
-4.967766074068945590e-05
1.038736737020632891e-02
-2.296312913554460522e+01
1.608317841241593826e-02
0.000000000000000000e+00
1.071915531095080348e-03
0.000000000000000000e+00
-2.035669043217335883e+00
-5.957303828970357262e-01
1.683951586847795209e-02
1.144518835213354624e+00
0.000000000000000000e+00
-5.522433726610258276e-03
2.926868857651965510e-03
0.000000000000000000e+00
0.000000000000000000e+00
-2.061299659415075092e-01
0.000000000000000000e+00
3.094625652569794383e+00
0.000000000000000000e+00
6.415376651165541344e-02
0.000000000000000000e+00
0.000000000000000000e+00
1.428467890767902470e-03
0.000000000000000000e+00
1.840789923889755375e+00
8.444445035182318593e-02
-5.560896500177979832e-03
9.521514392194002554e-04
0.000000000000000000e+00
5.954116248756075036e-01
3.777397739379528274e-01
-2.292631009924651631e-01
0.000000000000000000e+00
0.000000000000000000e+00
-2.215739038673374822e-03
-1.679999004818507734e-03
-5.982251003199388961e+00
0.000000000000000000e+00
2.691151011028110741e-04
8.643158684749998634e-04
9.045422345118838900e-03
0.000000000000000000e+00
7.475102984013340390e-02
9.806239595896522679e-03
-1.103847774484303110e-03
1.210448049067155106e-02
8.971639654518265977e-03
0.000000000000000000e+00
1.264249401324247124e+00
3.695771840185662072e+00
-2.958649983909275583e-01
-9.685713357437447657e-02
0.000000000000000000e+00
0.000000000000000000e+00
-2.704925499382389645e-02
-2.544430476136045477e-02
1.295371237645559226e-01
1.923006127871059942e-02
0.000000000000000000e+00
7.380517613908671687e-05
-2.404121691464958799e-01
7.929882579526589814e-02
-6.413805473520656220e-01
-6.446453934542427433e+00
3.023748418529823129e-05
0.000000000000000000e+00
0.000000000000000000e+00
-4.704990017509833033e-02
-8.426781110033842656e-03
0.000000000000000000e+00
0.000000000000000000e+00
-7.816047162057615516e-01
1.404645587834272430e-02
4.156412714773877887e-02
-4.943942314632274876e-02
0.000000000000000000e+00
7.466632835895990750e-02
1.358248811554241819e-01
7.405609619573043367e-02
1.340640961027735756e+01
4.278928818875032958e-02
3.205008934706762153e-03
6.248077933128783762e-03
-1.151752428186940402e-02
-5.242138034204631841e-02
3.223176260315194774e-01
-5.290731546461785884e-04
-1.238626442766782576e-02
0.000000000000000000e+00
0.000000000000000000e+00
-4.394337428348881192e-01
0.000000000000000000e+00
1.597004200598158008e-02
0.000000000000000000e+00
0.000000000000000000e+00
2.483546002650786899e-02
7.075398124371004571e-02
5.026161689936472013e-03
1.175022403408730945e-02
1.139413964653453459e-01
-7.191325366207690188e-03
-9.843919672175208690e-01
0.000000000000000000e+00
1.002063159464811927e-02
-1.972907428401096154e-03
0.000000000000000000e+00
2.443589044933982407e-02
0.000000000000000000e+00
-3.462964069304941966e-02
2.038071717022357440e-02
0.000000000000000000e+00
0.000000000000000000e+00
-3.425346444939436630e-01
-8.050927144395367274e-02
-4.033120643365857738e+00
-4.252488881039446361e-02
-1.983365054851592569e-04
0.000000000000000000e+00
-5.021934780626716513e-03
1.692523786503358565e-02
3.065706290350435737e+00
-1.321420973905807102e-02
5.311981395520180317e-03
0.000000000000000000e+00
0.000000000000000000e+00
-9.952737077632929294e-03
0.000000000000000000e+00
3.308395118482082759e-04
-3.241564746695457105e-02
0.000000000000000000e+00
0.000000000000000000e+00
0.000000000000000000e+00
0.000000000000000000e+00
-7.079320448689725709e-02
5.686955608018920416e-03
0.000000000000000000e+00
0.000000000000000000e+00
-1.545498404237068829e-02
-1.209321122579613741e-03
-6.603153315739851426e-03
6.248292011795136824e-03
0.000000000000000000e+00
0.000000000000000000e+00
-2.791509549630655403e-03
2.432539692756696126e-01
0.000000000000000000e+00
1.510414196810942180e-04
0.000000000000000000e+00
-7.557640008141389143e-02
-1.353305615792210048e+01
-9.184599369029455840e-01
-6.528115437859139947e-01
0.000000000000000000e+00
0.000000000000000000e+00
0.000000000000000000e+00
0.000000000000000000e+00
-1.107604661272841053e-03
-1.120035390014045285e-01
-5.504469476564408104e-02
0.000000000000000000e+00
3.348806218057018280e-02
-5.610779988835119803e-02
-1.139423043421326255e-02
-1.475735393226966854e-02
7.189021998203816780e-03
1.736285637670020518e-02
-8.262225002963819506e-04
0.000000000000000000e+00
1.905713559362392506e-01
-4.234883724459619081e-03
2.239494388112546822e-02
9.238390557686155038e-04
-7.226359970963937285e-02
-4.083587952751329908e+00
-4.243480323646937791e+01
-1.288369814128357063e-02
-1.362996659659662058e+01
-3.708456846835733955e+00
-4.374429897062602490e-02
5.702171412108994475e-02
0.000000000000000000e+00
0.000000000000000000e+00
0.000000000000000000e+00
0.000000000000000000e+00
0.000000000000000000e+00
0.000000000000000000e+00
2.318796812846291300e-01
-5.798011358239571304e-03
2.052703609422817585e-02
-1.220477667931627180e-01
1.287821718556023398e-01
-1.837269009260704689e-01
-1.138834073589769735e+00
1.061615342066865239e-02
4.493928062315940067e-03
0.000000000000000000e+00
1.313899666874429162e+00
2.217708642900107829e+00
-1.015501250270976819e+00
0.000000000000000000e+00
-4.856455568797835715e-02
3.755175400816521819e-03
-1.023781156398216041e-01
0.000000000000000000e+00
0.000000000000000000e+00
0.000000000000000000e+00
0.000000000000000000e+00
4.947980785866139784e-03
0.000000000000000000e+00
6.165307948513493522e-03
4.370073065638959038e-03
0.000000000000000000e+00
1.027842466850309444e-03
-2.259366222990817977e-02
0.000000000000000000e+00
9.455117122626677251e-02
-2.242900470519092193e-02
-2.197873349890738792e-02
-6.232308857449981448e-02
-1.163135753164476621e-01
2.567715545816540157e-01
-4.175362735175932727e+01
1.775755647933018738e-02
0.000000000000000000e+00
0.000000000000000000e+00
3.744640483771047128e-03
3.192800885863689153e-02
1.110029371335139681e+00
-3.823747845268540835e-02
-1.066834788958410279e-04
1.379094746056964693e-01
3.896874091268992535e-02
4.344386243705096462e-03
-5.221471801096234586e-03
-1.106002172974093582e-02
0.000000000000000000e+00
0.000000000000000000e+00
3.952444915598092301e+00
0.000000000000000000e+00
0.000000000000000000e+00
9.319784972645286381e-01
0.000000000000000000e+00
-1.064663767348292128e-01
-1.933172450949735381e-03
0.000000000000000000e+00
6.944125705552396666e-02
0.000000000000000000e+00
2.984258845832292451e-02
3.161480735761823535e-01
8.387972024559514628e-03
2.525961212862163491e-02
-1.980151813377502457e+00
-1.069720541818174553e+01
1.080127579909623547e-01
-3.823667089588757978e-02
0.000000000000000000e+00
-1.686475420388577244e-03
0.000000000000000000e+00
0.000000000000000000e+00
3.152789661122478160e-01
-2.295935318619842305e-02
-7.819723160370530002e-04
-2.384579018684793855e-02
0.000000000000000000e+00
2.578978049193440987e-03
-9.188095982654868044e-01
-9.362515261692538893e-01
0.000000000000000000e+00
-6.265892368996434439e-04
-2.011209766392094700e-01
0.000000000000000000e+00
0.000000000000000000e+00
0.000000000000000000e+00
2.613052415678514609e-02
0.000000000000000000e+00
0.000000000000000000e+00
4.188578761458398858e-02
8.693493394091299578e-03
-4.907192653114815506e-02
0.000000000000000000e+00
3.407178276152740722e-03
-1.688415931788946334e-01
-1.056219171261655460e-01
1.456722172265779644e-02
1.305008023969987663e-01
-1.910774615256159770e+00
0.000000000000000000e+00
1.593290308872021520e-03
7.228221292128461650e-01
3.541580864972645321e-02
0.000000000000000000e+00
0.000000000000000000e+00
8.120427111114264518e-02
-6.448451499015715738e-02
-1.673291906729743594e-01
-1.692576219585938124e-01
1.868670078110338953e-03
-2.412962855962366010e-02
-1.127830233722687276e-03
2.274811716250484117e-03
0.000000000000000000e+00
0.000000000000000000e+00
0.000000000000000000e+00
5.724558989094803430e-01
1.048953910267391232e-04
-8.001531251458880722e-03
2.306737986468599191e-02
4.851941470849835403e-02
1.559001305174345653e-02
0.000000000000000000e+00
0.000000000000000000e+00
1.277544741650133049e-03
-2.413435257396701061e-02
-3.866481053242570853e-01
0.000000000000000000e+00
-2.740820059108765860e-02
7.946103951513135361e-04
3.980540411231445024e-03
8.767578879975701511e-05
9.801635273960997499e-03
0.000000000000000000e+00
8.367532289286438996e-03
8.047792941542841749e-02
3.082093281446180444e-01
5.348614241778467532e-02
0.000000000000000000e+00
5.149741109256853779e-03
1.263284744859023423e-01
1.239326905177990101e-01
6.898075362287560408e-02
9.715264718921833237e-04
6.100308360362852872e-03
1.126069353222580553e-02
5.640182804254201959e-03
0.000000000000000000e+00
-1.481589148640328731e-03
1.713707690386842911e-02
0.000000000000000000e+00
-1.721385072157565269e-03
-3.670322623573573501e-02
-7.255932983230350963e-02
7.945797450876453463e-03
4.238155408542776392e-02
0.000000000000000000e+00
0.000000000000000000e+00
8.059597928973519232e-02
0.000000000000000000e+00
0.000000000000000000e+00
-7.184741942301934303e-01
0.000000000000000000e+00
-2.161009279423361379e-03
-1.550267036279216193e-01
6.309505042431025898e-04
2.594364640639865716e-01
0.000000000000000000e+00
4.445528614828331282e-01
3.278413671033903576e+00
5.220093430836977508e-03
0.000000000000000000e+00
-6.784152620639169462e-02
-2.119002179013631082e+00
0.000000000000000000e+00
0.000000000000000000e+00
-5.620183362838225560e-02
6.973763368286850506e-01
0.000000000000000000e+00
0.000000000000000000e+00
-2.197027872300802709e-01
8.644101567795201557e-01
7.716774997704231587e-02
0.000000000000000000e+00
0.000000000000000000e+00
0.000000000000000000e+00
3.190148366730409801e-01
3.682847962386804480e-02
-1.800120317990355490e-01
0.000000000000000000e+00
6.693626272161001811e-02
-2.086174725337183213e-03
-5.429616730346243508e-03
5.896262793138256075e-01
5.640432969886168380e+00
1.110102718866204548e-02
0.000000000000000000e+00
-1.154297059988053320e+00
-9.447879487889701902e-03
1.224787355334314241e-03
1.605424048125510348e-03
0.000000000000000000e+00
-9.071992410801445889e-04
1.106693644591572739e-02
-9.700194466945661481e-03
0.000000000000000000e+00
-5.678952250110839373e+00
4.011565773985418214e-03
0.000000000000000000e+00
-3.011255682441545990e-03
2.997437611342392352e-02
-3.637458707253580781e-01
0.000000000000000000e+00
0.000000000000000000e+00
0.000000000000000000e+00
-5.324514593417196684e-01
-1.348783539469848858e+00
6.891342076567623723e-03
0.000000000000000000e+00
0.000000000000000000e+00
0.000000000000000000e+00
-1.436300778461504298e-04
3.580384980355800703e-03
0.000000000000000000e+00
0.000000000000000000e+00
0.000000000000000000e+00
1.086415824204241959e-01
5.283109610406835355e-01
-1.189457412218470657e-02
-1.053065718283132529e-02
-2.348086387608271375e-01
4.643605520447165874e-02
2.609172633220023171e-03
-3.576804303511950389e-02
0.000000000000000000e+00
5.600029546730286335e-03
0.000000000000000000e+00
0.000000000000000000e+00
-1.677280270807399165e-02
0.000000000000000000e+00
-5.676863178138670356e-03
6.036225450245396446e-02
5.441940287747390137e+00
2.277579748175431740e-02
-2.525791971685265773e-04
0.000000000000000000e+00
-9.606419107107064814e-01
0.000000000000000000e+00
0.000000000000000000e+00
0.000000000000000000e+00
-1.926625427178485239e+01
8.268353875513936857e-02
-1.104970031109195686e-02
0.000000000000000000e+00
0.000000000000000000e+00
0.000000000000000000e+00
-1.952985658166866700e-01
0.000000000000000000e+00
-4.069947109144282128e-03
-1.628449969652963625e-01
5.496954129858401886e-03
-3.067684828476255898e-01
-5.466606370603603438e+00
-4.338570048027402403e-04
-3.875808898327068124e-04
1.007905770572241622e+00
0.000000000000000000e+00
-2.046518708411278545e-02
0.000000000000000000e+00
1.431408870518161795e-03
0.000000000000000000e+00
8.120801354714679565e-02
0.000000000000000000e+00
5.172242563125892256e-02
2.624446589310537592e-02
-6.243186363246384929e-02
0.000000000000000000e+00
3.866181513930122202e-03
3.036580093402664604e-04
-1.150313566802445980e-02
0.000000000000000000e+00
2.476900391116241586e-04
-9.977995408379644604e-02
-2.785460577972669682e+01
5.990101717341311111e-02
0.000000000000000000e+00
0.000000000000000000e+00
0.000000000000000000e+00
0.000000000000000000e+00
6.722999360162700277e-01
8.565740398165442096e-03
9.106537565946496215e+00
2.046369102928404220e-03
-3.770066779306742270e-03
-1.611611143435185767e+01
0.000000000000000000e+00
1.338392876858611859e-03
-6.262593218806862538e-02
6.150969929299041419e-03
-5.992195222438169433e-02
-1.993849972275940283e-02
-1.160789426563192672e-01
-9.505731727380641871e-01
-2.041013960286413263e-03
2.177711044085532954e-01
0.000000000000000000e+00
1.269051162013322236e-03
1.028741533703653871e-01
-1.038324737518490776e-01
7.539930583831644384e-02
-1.716760767178927694e+01
0.000000000000000000e+00
-4.564272442978370425e-03
-1.590672270296497257e-02
0.000000000000000000e+00
0.000000000000000000e+00
-1.658766938347254125e-02
0.000000000000000000e+00
0.000000000000000000e+00
-7.029560226600510553e-02
1.351498917126604457e-02
4.213929640148798145e-02
0.000000000000000000e+00
0.000000000000000000e+00
1.053043924308530443e-02
0.000000000000000000e+00
0.000000000000000000e+00
0.000000000000000000e+00
4.202109658131485126e-02
-2.120717248192419482e-02
5.200069329735901302e-01
-3.836018447934412285e-03
9.587741829554766171e-02
0.000000000000000000e+00
-4.106423106073330276e-01
-8.104955609815592266e-02
0.000000000000000000e+00
4.156749929249967113e-02
2.659969798079972123e-02
5.058359721515706120e-01
1.248504103588770342e-01
-8.878231096676030276e-01
0.000000000000000000e+00
4.505101326401474496e-03
3.378144439794904946e-03
3.256696612232442001e-01
1.275472773180196384e+01
9.878267416830425418e+00
7.604981364552890000e+01
1.286346847599254417e+01
1.303746239421048170e+00
1.293716898974787144e+00
1.750359088102577676e-01
-2.083401300134300749e-02
-6.699318175919637408e-01
-4.287951872655770130e-02
0.000000000000000000e+00
0.000000000000000000e+00
-2.543762717318528987e-01
1.949074950578964627e+00
5.982979059486556728e-02
1.716108574221573285e-02
0.000000000000000000e+00
8.914642677610039659e-03
-4.943011776379434008e-01
-1.602001362738313811e-02
0.000000000000000000e+00
-9.788207965025309820e-02
-8.139942959032874653e-03
5.769612092924221620e-03
1.126531196730085727e+00
1.199110711102527533e-03
1.443740224754733528e-02
3.693819491982214178e-03
8.314430706157047157e-03
4.551739086256463840e-01
0.000000000000000000e+00
8.637177830759215635e-02
0.000000000000000000e+00
-5.403107868617556164e+01
-5.335223086778028367e+00
2.843987466571801931e-02
0.000000000000000000e+00
-1.309986389092810954e-01
-3.886005278072524050e-02
0.000000000000000000e+00
1.679558905119172413e-02
2.066720370525467310e+00
1.978827777656384877e-03
-1.028881079647695493e-03
0.000000000000000000e+00
1.243800470416947190e+00
-2.014324172831121612e-02
-2.977282777171802453e-01
0.000000000000000000e+00
5.399548974736048557e+00
0.000000000000000000e+00
0.000000000000000000e+00
-1.808177009658286649e-01
0.000000000000000000e+00
2.733896453759432008e-02
0.000000000000000000e+00
-4.700171349250888836e-02
-4.628649599903773143e-02
0.000000000000000000e+00
-5.720327803461178976e-04
-1.628996336470655767e-04
-2.129817287939171958e-04
-6.901796405326007106e-03
7.265117924829581075e-02
0.000000000000000000e+00
0.000000000000000000e+00
0.000000000000000000e+00
4.228958609716665151e+00
4.408701958062817283e+00
2.684192545563196357e-03
1.386635139440320907e-01
4.496502822255316056e-01
0.000000000000000000e+00
-1.792529065551171086e-02
0.000000000000000000e+00
0.000000000000000000e+00
-7.162604574038274885e-01
1.416522005035112108e-01
1.656787828845456834e-01
0.000000000000000000e+00
0.000000000000000000e+00
-1.725572403998789084e-01
3.286461201461200743e-02
4.892678025479152426e-02
8.912027569163068208e-02
7.758748307683094314e-02
1.025380359093138252e-03
0.000000000000000000e+00
0.000000000000000000e+00
0.000000000000000000e+00
0.000000000000000000e+00
0.000000000000000000e+00
0.000000000000000000e+00
7.569268029659571850e-02
-1.636757121742137833e-01
-3.148686493803345803e-03
3.142580948253367867e-01
-1.050074255143839189e-02
3.489704075083959389e-05
-9.847557278843043979e-04
0.000000000000000000e+00
0.000000000000000000e+00
2.680551296545318971e-02
-9.208297959285537126e-03
0.000000000000000000e+00
0.000000000000000000e+00
0.000000000000000000e+00
1.433266379497274631e-02
1.060590338549760869e-01
0.000000000000000000e+00
0.000000000000000000e+00
0.000000000000000000e+00
0.000000000000000000e+00
0.000000000000000000e+00
0.000000000000000000e+00
0.000000000000000000e+00
0.000000000000000000e+00
-3.068059732078446622e+00
-5.358034187004325766e-01
-1.291899910655041478e-02
0.000000000000000000e+00
-9.657064816758101355e-02
-5.846550528197643447e-03
0.000000000000000000e+00
0.000000000000000000e+00
0.000000000000000000e+00
2.265641907939084099e-01
3.219623858547373096e+00
-2.743109096752343809e-02
0.000000000000000000e+00
0.000000000000000000e+00
0.000000000000000000e+00
0.000000000000000000e+00
1.496160515128655555e-02
-6.946633792220711090e-01
-7.016451670071428559e-01
0.000000000000000000e+00
0.000000000000000000e+00
-7.182762792471102499e-04
0.000000000000000000e+00
0.000000000000000000e+00
-2.828207887646187746e-02
0.000000000000000000e+00
0.000000000000000000e+00
1.583814745347205733e-04
8.733753015455439361e-03
0.000000000000000000e+00
0.000000000000000000e+00
-3.595014163084445658e-01
-2.357287702507251670e-01
-3.413919362591263940e-01
0.000000000000000000e+00
0.000000000000000000e+00
1.275977941634967028e+00
1.215563331451155360e+00
9.570881115353170321e-01
0.000000000000000000e+00
0.000000000000000000e+00
-4.948149504275504290e-02
3.553951318499440001e-03
-1.609180279546019166e-01
-6.547679662564220848e-02
0.000000000000000000e+00
0.000000000000000000e+00
0.000000000000000000e+00
0.000000000000000000e+00
2.778870647370726074e-02
2.306605338185664135e-03
4.455739672264232704e-02
-7.676482177144692276e-01
-3.130168983871299548e-02
6.016362193331233066e-02
9.606672019686987585e-02
-1.157734933953851256e-02
0.000000000000000000e+00
-1.986265625066842982e-03
3.696108488255989144e-02
-2.613965845181647103e-03
6.416307493734799139e-03
3.882117722185660265e-03
-6.073488777624568707e-02
-5.834387242909577775e-02
2.522558492601960009e-02
-1.652144000205808816e-01
-8.453129201522070063e-03
0.000000000000000000e+00
-2.473542149695280926e-02
0.000000000000000000e+00
9.350301983820877294e-02
-1.270526085626898505e+00
-3.355884108036453206e-01
0.000000000000000000e+00
0.000000000000000000e+00
0.000000000000000000e+00
0.000000000000000000e+00
9.160814664289510315e-03
7.204935727677232171e-02
4.171244823777044836e-02
-4.945005740014554174e-01
-2.211828087189870451e-01
-7.534345984083645103e-04
-2.528678410112928376e-01
-1.868085563772612853e-02
-9.625259525746696770e-03
-4.719117243305356091e+00
-3.758500897163577492e-03
1.595093883937326318e-01
0.000000000000000000e+00
6.399287958913157937e-02
4.477886360342863137e-01
1.160113048753235176e+00
4.119161831295105047e-01
2.103238704782352253e-02
0.000000000000000000e+00
4.225719739020287191e-01
1.884529466883730076e-01
-7.034448928675543500e-02
-4.402570897243217318e-02
1.325431702894538100e-01
0.000000000000000000e+00
-5.671225065261499054e+00
3.170369819632985319e-03
-1.586182234646940289e-02
0.000000000000000000e+00
0.000000000000000000e+00
0.000000000000000000e+00
0.000000000000000000e+00
-1.521499607084205938e-02
0.000000000000000000e+00
-4.836848796685777607e-02
-3.714853350084627581e-01
-8.811941316025977411e-01
4.707965202368963986e+00
0.000000000000000000e+00
6.327452531057303764e-02
-2.252726260928024260e+01
1.643035894449288159e-01
3.070858764702830840e-02
-1.915166415041676421e-03
-2.062468776597418119e-01
0.000000000000000000e+00
6.927552921196224567e+00
1.143586736382665237e+01
1.523368118774071078e+01
2.341246776499962490e+00
5.760056970847136526e+00
2.553361148844247863e-02
-1.869221929685654926e-02
1.908563932790455914e-02
0.000000000000000000e+00
-6.328121256035537309e-03
1.152024553765275752e-02
6.500629938674691750e-03
-9.427849700689251711e-03
3.532609655111713098e-01
-3.182322675920204458e-02
0.000000000000000000e+00
0.000000000000000000e+00
0.000000000000000000e+00
1.264955577448579086e-03
0.000000000000000000e+00
-1.914650841352440571e-04
0.000000000000000000e+00
0.000000000000000000e+00
6.935157769207707086e-05
2.210955804966965310e+00
-1.849320118434086627e-02
-1.675099317015921407e+00
7.632092044370955009e-01
-4.216631057666014870e-02
-2.090866391767648783e-02
-1.977762651131198188e-02
0.000000000000000000e+00
3.769911405829780987e-02
-2.232297667200990321e-01
5.641209631793084878e-01
0.000000000000000000e+00
-4.258597476323025544e-03
-1.829923596051246867e-02
0.000000000000000000e+00
0.000000000000000000e+00
-3.088736990731635185e-02
0.000000000000000000e+00
0.000000000000000000e+00
-4.852719833347114535e-03
0.000000000000000000e+00
-1.216249247331790739e+00
0.000000000000000000e+00
-3.785696630342837675e-03
2.083506012107569708e-02
0.000000000000000000e+00
-4.520446908206158382e-02
0.000000000000000000e+00
0.000000000000000000e+00
1.279863418776561353e-02
-6.053626086168694895e-03
1.969216361357781914e-02
-1.948702315600691071e-01
7.235436991788112948e+00
2.152964548283463897e-01
7.673860485845736268e-02
-8.000415988176245996e-03
0.000000000000000000e+00
1.212156710987193264e+01
5.674831839617477947e-02
4.691824358020449393e-02
-5.545038987653622912e-04
0.000000000000000000e+00
-4.825881118520522137e-03
0.000000000000000000e+00
-4.293216568087323583e-03
0.000000000000000000e+00
0.000000000000000000e+00
4.004860679683583391e-02
-6.990723236709590616e+00
-1.683959849215420856e+00
2.893239711489153584e-02
0.000000000000000000e+00
0.000000000000000000e+00
0.000000000000000000e+00
0.000000000000000000e+00
0.000000000000000000e+00
2.679678007129835879e-02
-1.846142486933248228e-01
-2.009110784650733859e-03
0.000000000000000000e+00
-4.757928865345434355e-01
-1.543331627888990143e+00
-5.622440756744136680e-05
-1.133120730432799067e-01
1.612576471800768185e-02
2.883527389539028950e-03
-2.334459187642974054e-01
4.372983274567859846e-01
-4.261889667662497466e-02
0.000000000000000000e+00
-9.342714719787814648e-02
-1.237999839469928753e-01
0.000000000000000000e+00
0.000000000000000000e+00
0.000000000000000000e+00
6.658244224998280218e-03
0.000000000000000000e+00
-1.228139683241555036e-01
-2.895555326329915524e-02
-7.227675145509684842e-04
0.000000000000000000e+00
0.000000000000000000e+00
0.000000000000000000e+00
0.000000000000000000e+00
-5.337276831077122224e-05
-4.335942804960648544e-01
0.000000000000000000e+00
4.241112073984285719e-03
-7.127699305572505750e+00
-1.426357276055477408e-02
-1.933219747785063092e+01
3.106289140702330615e-02
2.541119003717883240e-01
8.356778465271414097e-04
6.957188958477698026e-01
0.000000000000000000e+00
-1.061260524022974661e+00
-8.623005020221688466e-02
-5.217727391451720820e-02
2.199611373384416022e-03
-1.483757897830337682e-03
8.197187776379599722e-02
3.290838331991632892e-02
5.907309097357719280e-02
-1.509785992810220856e-01
1.235249963238353732e-02
0.000000000000000000e+00
0.000000000000000000e+00
0.000000000000000000e+00
2.913030566842095936e+00
1.495233932101566587e+01
-3.028744029466243215e-01
-3.772575548585107574e-01
-1.213373081662734790e-02
-1.458444680933003489e-04
4.540257935219259577e-01
2.312988393609604308e-03
4.776878047829502538e-03
3.768499672542557216e-02
6.569119955898874812e-04
-1.007535993788163942e-02
-4.752162345075007510e-02
-9.414842171152617567e-01
0.000000000000000000e+00
-1.111480668166903336e-02
3.718704989467734590e-02
-1.273811612424058208e-02
0.000000000000000000e+00
3.177886077419789755e-03
0.000000000000000000e+00
-5.373141978426144993e-02
0.000000000000000000e+00
0.000000000000000000e+00
-3.675540688957560417e-04
-2.554700256596293961e+00
0.000000000000000000e+00
2.554443153100510955e+00
-1.878430392309115042e-03
-4.488928521689183708e-03
0.000000000000000000e+00
0.000000000000000000e+00
7.790664642684573191e-03
3.477288552933954779e-02
0.000000000000000000e+00
-1.274422566898341172e-02
0.000000000000000000e+00
1.862964684223931966e-02
-1.033428643173008379e-02
3.696859268168386625e-03
-5.648390712521878659e-02
0.000000000000000000e+00
0.000000000000000000e+00
0.000000000000000000e+00
0.000000000000000000e+00
0.000000000000000000e+00
0.000000000000000000e+00
9.480270425226110242e-04
-4.326069312845905526e-03
4.799312645626083174e-02
1.358340737954103483e-01
-6.339592876247668318e-02
1.142039992127497636e-03
1.316762064903839215e-03
0.000000000000000000e+00
0.000000000000000000e+00
0.000000000000000000e+00
0.000000000000000000e+00
7.254371549179444711e-01
7.726592311792045420e-01
9.876957612528017294e-02
3.055644131096139082e-01
8.712457961356105673e-03
4.565773722842362409e-02
0.000000000000000000e+00
0.000000000000000000e+00
0.000000000000000000e+00
-6.378143017751079433e-03
0.000000000000000000e+00
0.000000000000000000e+00
0.000000000000000000e+00
-1.158231631004413148e-02
-6.679441613608455564e-01
2.569135261308328616e-02
4.836759025511716104e+00
0.000000000000000000e+00
0.000000000000000000e+00
0.000000000000000000e+00
0.000000000000000000e+00
2.151642039791261743e-02
0.000000000000000000e+00
2.951801943830845154e-02
0.000000000000000000e+00
0.000000000000000000e+00
3.898152708560377253e-03
0.000000000000000000e+00
0.000000000000000000e+00
5.131814735759429036e-01
3.646676370945230172e-02
8.214144338417959934e-03
1.543821938712029995e-01
0.000000000000000000e+00
-2.145263080130486186e-04
0.000000000000000000e+00
2.344645493079323701e-03
0.000000000000000000e+00
0.000000000000000000e+00
-1.148445242553462059e-02
1.272833097398622798e-02
-4.952671751317808457e+00
2.283444911668566085e-02
0.000000000000000000e+00
-3.162166970781556119e-02
4.699151914822142020e-03
4.947252711213821069e-02
-1.267611204599896138e-02
-2.833759539373278610e-02
1.273066365623312934e-01
0.000000000000000000e+00
0.000000000000000000e+00
0.000000000000000000e+00
-1.337328233758556389e-03
0.000000000000000000e+00
1.279650184156836956e-01
5.048024445890560985e-01
4.446447244177202662e-02
0.000000000000000000e+00
2.065667036235527276e-01
0.000000000000000000e+00
8.275351170013364177e-01
0.000000000000000000e+00
-7.520138440007438918e-01
-4.064003979313505349e-04
1.400654453357135787e-01
2.821393355870162496e-03
6.106289476592106219e-02
0.000000000000000000e+00
1.449224843971612907e-03
2.575588931295811831e-02
-1.678915253854730213e-02
0.000000000000000000e+00
1.381858224657134537e-01
0.000000000000000000e+00
-3.473445069114527300e-02
8.565988861679606214e-03
1.666118251004437556e-01
6.964117776268984560e-03
2.477789425231509690e-01
1.332115285302599428e-01
-2.849195899214648220e-01
-2.860095612617487570e-01
-5.970007781542096409e-02
-2.333515731147342955e-04
5.996727824863989920e-03
2.132981585089282692e-02
6.172846750421803752e-03
0.000000000000000000e+00
-2.436172833978536567e-01
0.000000000000000000e+00
2.581975115596842063e-02
3.167589622666818015e-05
-3.675559866195311082e-02
1.521509184662074793e-03
1.315708382565038637e+00
1.165422527550873666e-01
-1.038655697796057320e-01
0.000000000000000000e+00
-4.097558009881417142e-03
1.956720333322494506e-03
-6.262758639464232648e-03
5.351608005724357575e-01
2.932061099848487373e+01
-1.651383997573380724e-01
-3.161437412101788386e-02
0.000000000000000000e+00
0.000000000000000000e+00
0.000000000000000000e+00
0.000000000000000000e+00
0.000000000000000000e+00
0.000000000000000000e+00
-7.495624593087767129e-02
-1.931095136958958847e+01
-1.130527069115375427e-01
4.175482565913254084e-03
0.000000000000000000e+00
-5.310669007920292527e-04
2.513558197763800608e-04
0.000000000000000000e+00
0.000000000000000000e+00
2.708873482770272900e-02
3.850874270297392765e-03
0.000000000000000000e+00
2.245662565842166947e-01
3.567531943013676266e+00
-2.665236856735625492e-02
4.300085034838779796e-02
1.144616649528982892e-03
0.000000000000000000e+00
0.000000000000000000e+00
8.738895037589446968e-01
4.969349177754786226e-03
0.000000000000000000e+00
9.180070049640645137e-04
0.000000000000000000e+00
-3.494020086878269621e-02
-1.894842020431403151e-02
-1.368841642392726321e-01
1.226687606337134107e-03
1.974766758314636661e-01
3.979486656044290901e-03
2.968380320261579906e-04
2.677559193901246550e-03
0.000000000000000000e+00
0.000000000000000000e+00
-8.327693784486579764e-02
4.939008452445066595e-03
-2.083902503039268550e-01
0.000000000000000000e+00
3.315791776124389807e-03
9.113738359497833980e-03
0.000000000000000000e+00
0.000000000000000000e+00
-8.396313440878899878e-04
0.000000000000000000e+00
0.000000000000000000e+00
2.975865583284388952e-03
-2.234435472265552079e-03
-5.856816726814649196e-03
8.800598380253757957e-01
4.584729192435831324e-01
4.972632815746341750e-02
0.000000000000000000e+00
3.468149928611449773e-02
1.787206262300219395e-01
0.000000000000000000e+00
1.095482831789828040e-03
2.386200803160172263e-04
-5.240382441303211014e-04
-9.717723011475062900e-02
1.754627228811367345e+00
0.000000000000000000e+00
2.883679150528487456e-04
0.000000000000000000e+00
0.000000000000000000e+00
1.610667218268915096e-02
-1.030834011614450013e-01
0.000000000000000000e+00
0.000000000000000000e+00
1.660793274219955484e-01
7.211783341329616737e-03
0.000000000000000000e+00
3.345467032132157792e-01
1.719223663877377309e-02
7.384690506202865046e-02
0.000000000000000000e+00
8.693143422054398772e-03
0.000000000000000000e+00
2.278443799716375118e+00
2.984300266789874811e+00
0.000000000000000000e+00
-2.240712777541168776e-03
0.000000000000000000e+00
0.000000000000000000e+00
0.000000000000000000e+00
0.000000000000000000e+00
-1.176134395158080423e-02
0.000000000000000000e+00
-5.662233488695378458e-01
0.000000000000000000e+00
1.562501348007873547e+00
3.543995344818734683e+00
-7.495669265050706187e+00
-4.753368229662101596e-01
0.000000000000000000e+00
0.000000000000000000e+00
-1.692105728527533394e-04
4.425498012999103947e-01
1.765445224908107624e-02
-4.525334587229455641e-02
0.000000000000000000e+00
8.439188928480823720e-03
-5.947055561228226095e-02
-5.860922375388510214e-02
0.000000000000000000e+00
2.875259796603442108e+00
-1.805921089935845145e-02
-4.192829599817442937e-02
0.000000000000000000e+00
0.000000000000000000e+00
2.581317811028673026e-02
0.000000000000000000e+00
4.919815848875472297e-02
2.032392096911145394e-05
0.000000000000000000e+00
5.076574569220513103e-03
-9.647668973230450959e-03
4.389606941146162455e-02
0.000000000000000000e+00
0.000000000000000000e+00
0.000000000000000000e+00
-2.331066314956389222e-03
-9.675255898602358684e+00
0.000000000000000000e+00
0.000000000000000000e+00
-8.506582802451367886e-03
2.657182973298467549e-03
0.000000000000000000e+00
0.000000000000000000e+00
-4.402583452950976639e-01
0.000000000000000000e+00
-2.000503973584116107e-02
0.000000000000000000e+00
0.000000000000000000e+00
-3.393493206508291227e-02
-1.489445359683365605e-03
-6.979581152934580257e-03
0.000000000000000000e+00
0.000000000000000000e+00
0.000000000000000000e+00
-1.252578715354288053e-01
-4.797403615854838044e-02
0.000000000000000000e+00
0.000000000000000000e+00
0.000000000000000000e+00
0.000000000000000000e+00
0.000000000000000000e+00
0.000000000000000000e+00
0.000000000000000000e+00
-3.228334896212702032e-02
0.000000000000000000e+00
0.000000000000000000e+00
0.000000000000000000e+00
0.000000000000000000e+00
4.060036588847554251e-02
-7.875889302133740402e-03
0.000000000000000000e+00
0.000000000000000000e+00
0.000000000000000000e+00
0.000000000000000000e+00
0.000000000000000000e+00
0.000000000000000000e+00
-5.407131971228701763e-04
-3.279704152264729666e-01
0.000000000000000000e+00
0.000000000000000000e+00
0.000000000000000000e+00
0.000000000000000000e+00
0.000000000000000000e+00
0.000000000000000000e+00
0.000000000000000000e+00
0.000000000000000000e+00
0.000000000000000000e+00
0.000000000000000000e+00
0.000000000000000000e+00
-3.301518819118681985e-03
0.000000000000000000e+00
0.000000000000000000e+00
0.000000000000000000e+00
0.000000000000000000e+00
0.000000000000000000e+00
0.000000000000000000e+00
7.485811652766324146e-06
0.000000000000000000e+00
3.269926185438942236e-03
2.843577555175387517e-02
-1.506029546512774667e-02
6.906531657706249661e-02
1.195054380561807669e-02
1.716260375684875578e-02
-4.231850625526618892e-03
0.000000000000000000e+00
0.000000000000000000e+00
0.000000000000000000e+00
0.000000000000000000e+00
0.000000000000000000e+00
0.000000000000000000e+00
0.000000000000000000e+00
0.000000000000000000e+00
0.000000000000000000e+00
0.000000000000000000e+00
0.000000000000000000e+00
0.000000000000000000e+00
-4.762744861058672567e-04
0.000000000000000000e+00
0.000000000000000000e+00
6.564284238840595309e-02
0.000000000000000000e+00
-4.865787836953139496e-03
-4.701764048460650020e-02
0.000000000000000000e+00
-3.653155557346008209e+01
0.000000000000000000e+00
0.000000000000000000e+00
3.960792235545315121e-01
-5.255488536164235613e-01
0.000000000000000000e+00
0.000000000000000000e+00
0.000000000000000000e+00
-2.433701713730006588e+01
1.349719725850300443e-02
-1.274255001768693010e-02
-1.894568488020881986e-02
-5.865698501429519318e+00
1.028697342987786381e-02
8.694720369192414020e-03
0.000000000000000000e+00
0.000000000000000000e+00
0.000000000000000000e+00
0.000000000000000000e+00
0.000000000000000000e+00
0.000000000000000000e+00
3.045586426307731603e-02
1.739943960178201721e+01
5.699274715985315487e-02
-6.200058318698856846e-03
-1.091610861104738428e-01
-6.221687931059187271e+00
0.000000000000000000e+00
3.097825198228227467e-02
3.498774001369217568e-02
-1.955271992994328523e-02
0.000000000000000000e+00
2.431119328773552468e-03
0.000000000000000000e+00
0.000000000000000000e+00
2.003441900039473200e-01
-4.068587841400737593e-01
1.391817720307660252e-04
-8.213191066416697383e-02
-8.402919175485286385e-02
3.294498925382891574e-01
5.446167877945503428e-04
0.000000000000000000e+00
0.000000000000000000e+00
0.000000000000000000e+00
0.000000000000000000e+00
0.000000000000000000e+00
1.775682994306505141e-02
5.246574738284701112e-02
2.030845229351824210e-02
2.121232182679980927e+00
1.626425914384668436e+00
-2.943748344896707225e-01
-1.978578061218898565e-01
-5.462602714442984370e-03
2.128044881880155476e-02
8.446246080577977586e-03
0.000000000000000000e+00
0.000000000000000000e+00
-1.970358210732838788e+00
0.000000000000000000e+00
0.000000000000000000e+00
1.563676539602908751e-03
7.363698131818989523e-02
-2.351434502760522266e-02
0.000000000000000000e+00
-1.997938461627452966e+01
-8.523884440330290246e+00
0.000000000000000000e+00
2.986774449952118715e+00
-3.765643331290077223e-01
-4.853415037090778178e-03
0.000000000000000000e+00
0.000000000000000000e+00
0.000000000000000000e+00
0.000000000000000000e+00
6.346000178084967858e-04
2.192206973989478946e-01
-3.463206381974957559e-01
2.021072508794630185e-03
-1.398630637089230688e-01
1.723969246523468779e-01
-2.825967543148790589e-02
-1.906383466306419416e+00
2.727026043454601756e-01
1.166581759960845510e-01
6.234307674677553451e-02
1.800531539526225959e-03
-8.974105495370698904e-03
1.689158284676290506e-02
5.558748548321544192e+00
2.620695390258349633e-01
8.987937468334561766e-03
8.005419785636308516e-02
4.792395163702888039e-02
4.491966898842767592e-02
3.162556711390024540e-03
0.000000000000000000e+00
0.000000000000000000e+00
0.000000000000000000e+00
-2.665587962621919216e-01
-1.482112797555170183e-03
0.000000000000000000e+00
0.000000000000000000e+00
0.000000000000000000e+00
0.000000000000000000e+00
0.000000000000000000e+00
0.000000000000000000e+00
0.000000000000000000e+00
-6.683789600679960943e-04
0.000000000000000000e+00
-2.018959555108277085e-02
1.429044941078409098e-02
4.675655101424253113e-02
-4.493899246864578242e-03
9.998646177873360061e-03
5.505614023412517266e-01
4.267654880720636035e-01
7.964246918493735894e-01
-5.961863333143298076e-03
-4.050523680942891280e-02
8.292013389128577217e+00
4.516968791866181332e-02
1.799885063292205878e-01
0.000000000000000000e+00
0.000000000000000000e+00
1.524045632709336850e-01
3.519313493542017626e-03
0.000000000000000000e+00
0.000000000000000000e+00
0.000000000000000000e+00
0.000000000000000000e+00
0.000000000000000000e+00
0.000000000000000000e+00
1.153527558074746440e-01
0.000000000000000000e+00
0.000000000000000000e+00
0.000000000000000000e+00
0.000000000000000000e+00
-2.186895338792164902e-04
0.000000000000000000e+00
0.000000000000000000e+00
-1.536973137301756625e-03
4.900155202658377715e-03
1.144468064211786873e-01
-1.087846331721111781e-01
-3.621443320738419020e-04
0.000000000000000000e+00
0.000000000000000000e+00
2.517691724162524503e-03
8.768637209616299277e-02
-6.660377111140797224e-02
0.000000000000000000e+00
-3.448886114289081428e-01
1.300830644194555630e+00
0.000000000000000000e+00
7.337061638131508329e-03
-1.982763773033246135e+00
2.394038296688071749e-02
0.000000000000000000e+00
0.000000000000000000e+00
0.000000000000000000e+00
4.175182064618577788e-04
3.032444347856673161e-01
0.000000000000000000e+00
0.000000000000000000e+00
0.000000000000000000e+00
0.000000000000000000e+00
0.000000000000000000e+00
0.000000000000000000e+00
3.402655768337756355e-03
0.000000000000000000e+00
-1.227391820773527514e-02
-1.676819431525025314e-03
1.237184266783580150e-02
-7.076327066916673902e-02
-7.318470944133358413e-01
-8.500616465654296794e-02
0.000000000000000000e+00
0.000000000000000000e+00
-1.929564152480190559e-02
-1.781709983667265941e-03
0.000000000000000000e+00
-1.188970918976539311e-03
0.000000000000000000e+00
4.351748698148943939e-02
-1.295297854940552496e-01
-1.515194088063962496e-01
2.319192001101076650e-01
-1.853690294544756492e-02
-3.937205287693581243e-04
0.000000000000000000e+00
3.756830747125207814e+00
9.952323709167620880e-02
-1.887178641205178656e-02
-1.441199165509551156e-02
0.000000000000000000e+00
0.000000000000000000e+00
0.000000000000000000e+00
-4.418687609398398997e-01
-2.316001783265496383e-02
2.858581419732843937e-02
9.605673661496359761e-03
5.605675387214324040e-03
-1.128356078560508902e+00
-1.477561317601326085e-01
-2.229491553916242152e-02
-2.181867805255904152e-02
1.233163712740818624e-01
1.477547101987270795e+00
0.000000000000000000e+00
-3.619547146525663975e-04
1.926572052181648453e-01
1.245704078315597735e-01
-7.790491660087524028e-01
3.948223620924043789e-03
0.000000000000000000e+00
1.057376024579647494e-02
2.801717959589449317e-02
0.000000000000000000e+00
0.000000000000000000e+00
9.891572715654385964e-04
1.234669597695827164e-03
0.000000000000000000e+00
0.000000000000000000e+00
1.099039221360512131e-02
9.899100051706433059e-04
0.000000000000000000e+00
0.000000000000000000e+00
-1.134287423880956693e-03
1.770377036803004600e+01
-5.540894615228758591e-02
0.000000000000000000e+00
1.087770086524334108e-02
0.000000000000000000e+00
0.000000000000000000e+00
-5.061779490885962018e-02
-2.220259961144332439e-01
0.000000000000000000e+00
2.202680322292759150e-05
2.039205278024985857e-01
0.000000000000000000e+00
-3.838497835152886173e-02
-1.629442994677954004e-01
0.000000000000000000e+00
0.000000000000000000e+00
-2.642898466466059859e-01
1.599603113691323159e-02
0.000000000000000000e+00
-4.609687853928959994e-03
-3.120345322490111067e-03
0.000000000000000000e+00
3.298039855780390134e-03
9.625583997263190694e-01
4.558359587015139839e-04
-3.588547928441231105e-03
0.000000000000000000e+00
3.507918925460320851e-03
2.653906969990111470e-02
-1.300338726823885641e-03
-2.637287643175721730e+00
-1.814115661110709751e-02
8.174461935595766983e-05
6.669131966610147193e-04
9.955979323765051792e-01
1.792516476369078807e-02
0.000000000000000000e+00
-3.001635650578863418e-02
0.000000000000000000e+00
-3.533553229000413465e-02
-2.795137804361848451e-03
0.000000000000000000e+00
0.000000000000000000e+00
0.000000000000000000e+00
0.000000000000000000e+00
0.000000000000000000e+00
-2.248822127257635306e-02
-8.989025776323454620e-03
2.369762380423594186e-03
-7.978893339412655673e-04
-5.747887976664619106e-03
-5.910261085599330944e-01
-4.563336434300204608e-03
2.629184988205237813e-02
2.539111672124418106e+01
3.479751379727855781e-02
8.788520491307544313e-03
3.865951351955182469e-02
3.121675520068292187e-01
-9.480808397973206764e-03
2.558887872494891580e-02
9.669263416993585658e-02
-2.835093655212585369e-04
0.000000000000000000e+00
0.000000000000000000e+00
0.000000000000000000e+00
1.512406389240410838e-04
-4.007004709105124437e-04
0.000000000000000000e+00
0.000000000000000000e+00
0.000000000000000000e+00
0.000000000000000000e+00
-8.235579953309293821e-02
9.443197736008181881e-03
9.193846254614496116e-02
9.467211176224625546e-02
-5.957088123501030896e-02
6.117756820572255172e-02
2.422073705055149517e+00
8.359529796413378122e+00
7.571581421162819348e-02
9.586166276775397177e-02
-3.224616764397431057e-02
-1.422095604526520118e-01
-3.384316370310211375e-03
2.415428823093430065e-03
0.000000000000000000e+00
0.000000000000000000e+00
-7.745759082698654846e-03
0.000000000000000000e+00
0.000000000000000000e+00
0.000000000000000000e+00
0.000000000000000000e+00
-2.586263277681520589e-02
-5.733372959165409372e-02
-1.183358987326889496e-02
2.001392855429724449e+00
1.634005259792046250e+00
0.000000000000000000e+00
0.000000000000000000e+00
2.362344583412026317e-03
-2.094016472521558203e-01
-7.214768332204712920e-02
3.287135496334245570e-04
-6.341167634209558912e+01
2.317984636431329008e-03
0.000000000000000000e+00
0.000000000000000000e+00
0.000000000000000000e+00
0.000000000000000000e+00
4.650252584307191128e+00
2.317599626572290628e-01
-1.074679495642505422e-02
0.000000000000000000e+00
-1.857843805282718627e-03
-1.347481369110047900e-01
-6.844726348468368471e+00
0.000000000000000000e+00
0.000000000000000000e+00
-1.252196821243313669e-02
-1.383984558317947533e+00
-3.730821908782336216e+00
0.000000000000000000e+00
6.517678034541228571e-02
-2.436852533968452555e-03
8.899646445597098054e-01
3.662695708892918511e-02
-3.566398959981313330e-05
-3.736764028530104725e-02
-9.872768925305356290e-04
-2.603442890873821636e+00
0.000000000000000000e+00
-1.520558000850240170e-02
-5.219626946503387599e-02
9.010929655072778127e-03
-5.865831805874321958e+00
-2.692995687110341763e+00
5.394336113576188307e-02
0.000000000000000000e+00
1.408118666213131291e+02
6.134753468355072670e+01
6.565182037316633412e+00
0.000000000000000000e+00
-3.492169683988027296e-01
-1.282794456787212667e+01
0.000000000000000000e+00
0.000000000000000000e+00
-4.923977291507032443e-03
-1.598586362391215410e+01
-7.363828631824897997e+00
4.376063564241172363e-03
1.505695755237186073e-01
1.311638380283709944e-02
1.784140794199043700e+00
-3.712195312413982956e-02
0.000000000000000000e+00
-4.828687493974981489e-03
0.000000000000000000e+00
-3.766647849193022202e-02
8.591840369986054882e-02
-8.163167837186408704e+00
-2.347229301906321286e+00
-1.138449477086166508e-03
-1.600316427575882924e-02
0.000000000000000000e+00
6.666377628031820712e-02
0.000000000000000000e+00
9.622767307375101886e-02
8.667926329578443806e-03
-4.206436232500944394e-02
0.000000000000000000e+00
-9.449122518041644270e+00
-4.713427029591016115e+00
0.000000000000000000e+00
0.000000000000000000e+00
-4.312259823871165444e-03
-3.623793302895318702e-02
7.615558151664389430e-02
-8.901470362680162507e-02
-4.296055697422229702e-01
0.000000000000000000e+00
5.113741158957678667e-01
0.000000000000000000e+00
0.000000000000000000e+00
-1.345087182124742389e-02
0.000000000000000000e+00
-8.005433079083680070e+00
-1.689351858679992269e+00
-9.960623992023107109e-02
4.603363000768959101e-02
5.024250984461752639e-03
1.020765310905280727e-02
2.009734106763446174e-02
-2.634381722333857534e-03
0.000000000000000000e+00
-3.091147893190493434e-02
5.618037109450678412e-02
2.193392011241692210e-02
-5.677142429926802514e+00
-3.174970400911886870e+00
-5.426793980450237420e-01
-6.953503711133251386e+00
-1.010970311998216520e+00
-1.628473130235500235e-02
2.852736160616316852e+01
3.903366838906744962e-01
5.137420449120804200e-01
0.000000000000000000e+00
0.000000000000000000e+00
4.095595790439815866e-04
5.983426111959114918e-02
-7.355410773213735169e-04
-1.483138845255188021e-01
0.000000000000000000e+00
0.000000000000000000e+00
4.141315485287769604e+01
3.683290185221886615e-02
-1.837370221455515013e-02
0.000000000000000000e+00
0.000000000000000000e+00
0.000000000000000000e+00
7.426087690558412155e-04
-5.356022309313473312e-02
-4.766797205616895607e-03
5.506976698979368368e-02
2.824807247228779961e-01
1.272734538424797179e+01
9.928751279040281749e-03
2.722528070299576886e-01
-2.875794777903602911e-02
1.393211751082888694e-03
0.000000000000000000e+00
1.330957302706567251e-02
0.000000000000000000e+00
2.176765745416270326e-01
0.000000000000000000e+00
1.199133999344582646e-01
1.460726377857944236e+00
3.632590309968499430e-03
0.000000000000000000e+00
0.000000000000000000e+00
0.000000000000000000e+00
0.000000000000000000e+00
0.000000000000000000e+00
0.000000000000000000e+00
0.000000000000000000e+00
0.000000000000000000e+00
-1.512493196779068905e-02
-3.750532597323267270e-01
-6.722659775858860765e-02
9.455322356964256103e-02
-4.214711049625044503e-02
-2.718811295258762861e-01
0.000000000000000000e+00
0.000000000000000000e+00
2.126927307401308212e-03
6.979978981148417250e-02
8.684937377991194807e-02
-2.003118974007612324e-04
-1.379373253646454245e-02
-3.454391522277829196e+00
-1.139576366086092751e-01
1.657465320351436027e-03
0.000000000000000000e+00
0.000000000000000000e+00
0.000000000000000000e+00
0.000000000000000000e+00
0.000000000000000000e+00
0.000000000000000000e+00
0.000000000000000000e+00
0.000000000000000000e+00
0.000000000000000000e+00
0.000000000000000000e+00
0.000000000000000000e+00
-3.438617789097553334e-02
6.494503645230594868e-01
-1.373616535131071403e-01
-4.207615895771836811e-01
2.878704661003829955e-03
0.000000000000000000e+00
4.876758471394483652e-02
-5.560826484614967997e-04
-6.101568165278008216e-04
0.000000000000000000e+00
-2.151403532235680149e+00
3.960115337065454183e-02
4.817317731880280118e-02
-1.002900414803884477e-01
-1.563315850160632015e-02
6.629909016075379302e-01
1.510106242599475657e+01
1.021931311913582691e-02
-9.423627070857861637e-03
0.000000000000000000e+00
1.727199123945412640e-01
7.135549499596313683e-03
0.000000000000000000e+00
3.468122574925153190e-02
-1.198609628594354479e-02
0.000000000000000000e+00
0.000000000000000000e+00
0.000000000000000000e+00
-8.329778483162447733e-02
-8.999527111212363195e+01
1.689099887474853484e-02
1.916384008419140875e-02
6.382336293694537178e-03
-1.598924119401018418e-01
-7.179930613822718688e-02
1.277892016808575559e-01
0.000000000000000000e+00
-4.778928405536918278e-02
-9.722371662220204991e-01
3.775472660551938762e-04
-1.537956763136476973e-02
0.000000000000000000e+00
0.000000000000000000e+00
-2.731225352805606230e-03
2.369774155867506504e+00
-1.600260051436548925e-01
-7.705179288216046363e-01
0.000000000000000000e+00
0.000000000000000000e+00
2.529599791715560209e-02
0.000000000000000000e+00
3.289501183584721267e-02
5.026134769781977554e-03
0.000000000000000000e+00
0.000000000000000000e+00
0.000000000000000000e+00
-2.705263407911276765e-04
-3.988308114854536429e-02
-4.142455083612424892e-03
1.995582010960285368e-02
0.000000000000000000e+00
0.000000000000000000e+00
0.000000000000000000e+00
-2.278912439884230728e-02
0.000000000000000000e+00
-2.437959519342572712e+00
-2.995258395616576585e+00
-6.760857446684917895e-04
1.335506630987356669e+00
0.000000000000000000e+00
0.000000000000000000e+00
0.000000000000000000e+00
0.000000000000000000e+00
2.757148935519558803e-04
0.000000000000000000e+00
-3.880091331270903859e-02
1.907386204277137023e-02
1.195505770856017724e+00
7.406552980418925625e-01
1.138991494473061417e-02
0.000000000000000000e+00
-3.593038071390722548e-03
2.833255607290610101e-01
0.000000000000000000e+00
-2.509188295445488690e-04
-2.276462990916094942e+00
1.001823381753811082e-01
0.000000000000000000e+00
0.000000000000000000e+00
-4.100972218474273345e-02
1.132770531094181611e-03
6.952808114573680309e-02
0.000000000000000000e+00
-1.483030582035234912e-01
-2.742219348296792703e-01
-2.520414130420519094e-01
0.000000000000000000e+00
0.000000000000000000e+00
0.000000000000000000e+00
0.000000000000000000e+00
7.352559285701409930e-01
3.116283548687222987e-02
0.000000000000000000e+00
5.358148467344468757e-03
0.000000000000000000e+00
2.245367163635602736e+00
9.842332421202601989e-01
0.000000000000000000e+00
0.000000000000000000e+00
0.000000000000000000e+00
-6.816478643283189467e-05
-7.616390098581560242e-02
4.388766971744695127e-04
1.459245406082933412e-03
-3.238039868654780107e-01
0.000000000000000000e+00
0.000000000000000000e+00
-7.963426256164694503e-03
0.000000000000000000e+00
0.000000000000000000e+00
-1.985075995807473737e-01
0.000000000000000000e+00
0.000000000000000000e+00
0.000000000000000000e+00
0.000000000000000000e+00
-1.269351032640029242e-01
0.000000000000000000e+00
0.000000000000000000e+00
-4.046308938178973247e-02
0.000000000000000000e+00
4.620216973552963569e-01
0.000000000000000000e+00
7.141256769759353473e-02
6.662839256263568544e+00
5.744949176665419769e-05
-4.721157009486328521e-03
-1.350236552783139719e-02
8.994160430627607533e-03
5.738364821553378070e-02
3.892701011967408115e-02
0.000000000000000000e+00
1.111512066965804763e-01
1.072490006492202719e+00
0.000000000000000000e+00
-4.055638874554144679e-03
0.000000000000000000e+00
1.405437723023940551e-02
0.000000000000000000e+00
0.000000000000000000e+00
6.323306282924390405e-03
-1.312566295870412603e+01
0.000000000000000000e+00
2.593182747290299517e+00
0.000000000000000000e+00
0.000000000000000000e+00
0.000000000000000000e+00
2.222761834860745300e-02
0.000000000000000000e+00
5.147918915054614658e-02
9.092727109489692761e-02
1.650248046733008428e-02
0.000000000000000000e+00
0.000000000000000000e+00
-1.597066546580342208e-02
-8.659378612643623407e-01
0.000000000000000000e+00
0.000000000000000000e+00
0.000000000000000000e+00
-1.170892086231108742e+00
7.601540899663476042e-03
7.081196632137737312e-01
0.000000000000000000e+00
2.498074290524571861e+00
0.000000000000000000e+00
0.000000000000000000e+00
0.000000000000000000e+00
-9.725403091439238645e-03
2.254384739338750280e-03
0.000000000000000000e+00
-1.233841931866920538e-02
0.000000000000000000e+00
0.000000000000000000e+00
-4.954419606528107090e-01
0.000000000000000000e+00
8.639941200917039543e-01
-2.944696093477253140e-02
0.000000000000000000e+00
0.000000000000000000e+00
9.478916558794562100e-05
0.000000000000000000e+00
0.000000000000000000e+00
0.000000000000000000e+00
-2.664250401229174336e+00
0.000000000000000000e+00
0.000000000000000000e+00
0.000000000000000000e+00
4.970759296007595807e-02
2.336415466382199947e-04
0.000000000000000000e+00
0.000000000000000000e+00
0.000000000000000000e+00
-4.348068255752800520e-04
7.096735948785543036e-03
0.000000000000000000e+00
0.000000000000000000e+00
2.802397948443482480e-03
0.000000000000000000e+00
0.000000000000000000e+00
0.000000000000000000e+00
3.408524114266342497e-01
0.000000000000000000e+00
0.000000000000000000e+00
-4.923587819234713503e-02
0.000000000000000000e+00
0.000000000000000000e+00
-2.717893524848724596e+00
0.000000000000000000e+00
0.000000000000000000e+00
0.000000000000000000e+00
0.000000000000000000e+00
3.742799328329219494e-03
0.000000000000000000e+00
0.000000000000000000e+00
0.000000000000000000e+00
0.000000000000000000e+00
0.000000000000000000e+00
0.000000000000000000e+00
0.000000000000000000e+00
2.076785727284166660e-02
0.000000000000000000e+00
-1.066039656803515201e-01
0.000000000000000000e+00
0.000000000000000000e+00
7.765439711809697165e+00
2.226692985592632112e+01
1.346770451918846978e-01
7.886407661677555248e-02
0.000000000000000000e+00
0.000000000000000000e+00
0.000000000000000000e+00
2.993710160335910295e-02
0.000000000000000000e+00
0.000000000000000000e+00
0.000000000000000000e+00
0.000000000000000000e+00
0.000000000000000000e+00
8.984918097989648411e-02
1.447920186067312275e-03
0.000000000000000000e+00
0.000000000000000000e+00
0.000000000000000000e+00
0.000000000000000000e+00
0.000000000000000000e+00
0.000000000000000000e+00
0.000000000000000000e+00
0.000000000000000000e+00
-1.937197760956384796e-01
-1.582138548222850440e-03
2.997881638900027346e-01
1.248078795316343026e-02
0.000000000000000000e+00
2.113712380556850845e-02
0.000000000000000000e+00
0.000000000000000000e+00
0.000000000000000000e+00
0.000000000000000000e+00
0.000000000000000000e+00
0.000000000000000000e+00
0.000000000000000000e+00
0.000000000000000000e+00
0.000000000000000000e+00
0.000000000000000000e+00
0.000000000000000000e+00
-3.958385789598542481e-02
0.000000000000000000e+00
-1.269396020395613910e-02
0.000000000000000000e+00
-1.526765662180284630e-02
-3.074716053467546270e-02
0.000000000000000000e+00
0.000000000000000000e+00
0.000000000000000000e+00
0.000000000000000000e+00
0.000000000000000000e+00
0.000000000000000000e+00
0.000000000000000000e+00
-1.467565016540633982e-04
0.000000000000000000e+00
-1.388436016991274977e-03
-2.138560548314922399e-03
-2.215435572410287546e-02
-1.548286862711447942e-01
0.000000000000000000e+00
0.000000000000000000e+00
0.000000000000000000e+00
0.000000000000000000e+00
0.000000000000000000e+00
0.000000000000000000e+00
0.000000000000000000e+00
-1.647277376514276893e-04
-5.158678740624277059e-03
0.000000000000000000e+00
0.000000000000000000e+00
0.000000000000000000e+00
0.000000000000000000e+00
1.599764355561294690e-02
-1.514050703953286892e-01
0.000000000000000000e+00
0.000000000000000000e+00
0.000000000000000000e+00
0.000000000000000000e+00
0.000000000000000000e+00
-5.357294851923998236e-01
-7.036052532300620665e-01
-6.069451870376068757e-05
0.000000000000000000e+00
-1.777186595206894926e-02
1.352962569556671012e-02
0.000000000000000000e+00
0.000000000000000000e+00
0.000000000000000000e+00
0.000000000000000000e+00
0.000000000000000000e+00
1.920737983247983172e-02
-2.060759191947621541e-03
0.000000000000000000e+00
-2.469685575070132075e-02
2.896925744568694307e-03
0.000000000000000000e+00
-2.931754679299546779e-02
6.271141717500815747e-03
0.000000000000000000e+00
0.000000000000000000e+00
-1.068319930998757336e-03
5.088287945304770590e-03
0.000000000000000000e+00
0.000000000000000000e+00
0.000000000000000000e+00
-1.260889973868600626e-02
1.989728932373215464e+00
0.000000000000000000e+00
-7.873251159365985075e+00
-1.533146265482294801e+01
-2.053203183144039490e-01
0.000000000000000000e+00
-5.473093823134089764e-02
-5.538274247136221184e-02
0.000000000000000000e+00
0.000000000000000000e+00
0.000000000000000000e+00
1.419623842283997388e-03
-2.686243677012623097e-03
5.068880038319017664e-03
0.000000000000000000e+00
-3.039645457365547809e+00
2.077048495299131659e-02
-5.724057785141180646e-03
1.623824911406182570e-01
-4.732797653701640629e-04
4.778502059589195827e-02
1.201703818958895553e+00
4.363902279445702054e-02
4.757338352919477514e-02
0.000000000000000000e+00
1.501039995288415141e-01
0.000000000000000000e+00
-2.010350479885871650e-02
-1.468739943022366323e-01
-4.050930293615877947e-02
-2.109490856879431275e-02
2.468725895309579338e-02
0.000000000000000000e+00
0.000000000000000000e+00
0.000000000000000000e+00
0.000000000000000000e+00
-4.728588486623820641e-02
0.000000000000000000e+00
0.000000000000000000e+00
-1.166870102749172633e-01
-7.339681894179572730e-02
0.000000000000000000e+00
3.757460447160528016e-02
0.000000000000000000e+00
0.000000000000000000e+00
-3.548778177457958982e+00
-1.782620664668904328e-02
-1.420704889888858291e-01
8.990519560143007960e-02
1.436381643057615398e-01
2.757476096047454561e+01
1.202001464646061057e+00
0.000000000000000000e+00
3.370189232316506689e-01
5.672605364614913964e-02
0.000000000000000000e+00
0.000000000000000000e+00
0.000000000000000000e+00
3.184319144581075622e-02
8.860390155772023268e-01
0.000000000000000000e+00
0.000000000000000000e+00
0.000000000000000000e+00
0.000000000000000000e+00
0.000000000000000000e+00
0.000000000000000000e+00
0.000000000000000000e+00
0.000000000000000000e+00
0.000000000000000000e+00
4.290847759528175140e-03
-1.276656781214610681e-02
-1.751745179943458575e-01
1.336033823067755630e-02
0.000000000000000000e+00
0.000000000000000000e+00
5.588064129110560663e-02
-3.957666082519568744e-03
2.911469568955945067e-02
-1.447028737573613499e-02
0.000000000000000000e+00
0.000000000000000000e+00
0.000000000000000000e+00
0.000000000000000000e+00
-7.101981079961810009e-03
2.805427442454967377e-02
6.897709243163274717e-01
1.052856245079885955e+00
1.432872137306575588e-01
0.000000000000000000e+00
0.000000000000000000e+00
-1.339138678791401416e-01
0.000000000000000000e+00
0.000000000000000000e+00
0.000000000000000000e+00
0.000000000000000000e+00
0.000000000000000000e+00
-2.275761087268293292e-04
0.000000000000000000e+00
-3.374404692754049556e-02
0.000000000000000000e+00
0.000000000000000000e+00
-9.364189373500404409e-03
-4.406844824537045342e-05
0.000000000000000000e+00
-1.736005501239059473e-04
-2.565846425652685073e-02
6.277408451777617866e-03
0.000000000000000000e+00
-5.223252997580238310e-03
-8.228189457423042488e-03
4.836021071559361978e-02
-2.109713449156927212e-01
0.000000000000000000e+00
4.199433560274725731e-04
-1.625377790150450696e-02
2.169726877474269233e-02
0.000000000000000000e+00
3.609795742928178022e-03
5.477525862918006805e-01
0.000000000000000000e+00
0.000000000000000000e+00
-1.537682995064230517e-03
-8.571379289698292103e-01
0.000000000000000000e+00
-5.165754558066986551e-03
0.000000000000000000e+00
0.000000000000000000e+00
1.270616665519869182e-01
5.208048789611344903e-02
8.781988680602119679e-01
0.000000000000000000e+00
1.073293144532468449e-02
0.000000000000000000e+00
-2.545847392621027397e-02
-3.122733320131700595e-04
6.264947454387966366e-03
0.000000000000000000e+00
0.000000000000000000e+00
-4.331753058483824026e-02
2.600797083060473369e+01
1.891587427200852253e-02
0.000000000000000000e+00
0.000000000000000000e+00
1.527604637513433561e+00
-2.655349211903081375e-01
1.915412769291311434e+00
-3.325640917282339862e-04
-4.573427859383339582e-04
2.982865502842689705e-03
9.052587933504057105e-01
-6.788682561847622643e-02
5.546564110953333682e+00
0.000000000000000000e+00
0.000000000000000000e+00
4.091672488275520034e-03
6.986212089807178338e-02
-1.515192104344273080e-02
0.000000000000000000e+00
0.000000000000000000e+00
-1.128593853983405476e-03
2.422139811984364531e-03
4.849670275901642180e-02
0.000000000000000000e+00
0.000000000000000000e+00
0.000000000000000000e+00
0.000000000000000000e+00
0.000000000000000000e+00
0.000000000000000000e+00
3.279701836789826186e-01
1.249297965336375000e+02
0.000000000000000000e+00
0.000000000000000000e+00
0.000000000000000000e+00
-3.276950341629384332e-03
2.769278654482332236e+00
0.000000000000000000e+00
0.000000000000000000e+00
9.459568013479830546e-04
-1.765533069487790901e-02
2.000374059951266770e-01
-1.628533013614343744e-02
0.000000000000000000e+00
5.672816104905605700e-03
-3.422346921862644553e-01
-1.058412032756984519e-02
2.669641757719322106e-01
-4.946156637203558137e-02
1.306630126767615273e-02
-1.298832048302063849e-02
0.000000000000000000e+00
-3.030918570315375288e-02
-1.146649126691361570e-01
0.000000000000000000e+00
0.000000000000000000e+00
0.000000000000000000e+00
0.000000000000000000e+00
-6.147907089503664574e-02
-1.990838624878037977e-01
0.000000000000000000e+00
0.000000000000000000e+00
0.000000000000000000e+00
0.000000000000000000e+00
0.000000000000000000e+00
0.000000000000000000e+00
6.148298123313034654e-04
1.693594603796786169e+00
-2.736926822999299208e-02
1.230120869930033042e-02
-1.434051691162603268e-02
0.000000000000000000e+00
4.615326689335281021e-04
3.390581749011244844e-02
9.276028932993011372e-03
-2.682418187848095367e-03
9.754461107725390101e-02
-8.034529318380000118e-02
-1.120246791250796396e-02
9.205470729884582259e-02
0.000000000000000000e+00
-7.095511211086286130e-01
7.594360607175207001e+00
1.857075968692472939e-03
-2.675845762047364573e+00
-9.287893948837662710e-04
0.000000000000000000e+00
0.000000000000000000e+00
1.130698196009499501e+00
0.000000000000000000e+00
-5.728765945640672264e-02
1.649919965957865470e-02
1.089552907463819248e-02
0.000000000000000000e+00
-5.648005231720799185e-02
2.627100221418057768e-01
0.000000000000000000e+00
2.951040786575794689e-02
-8.031678586186187258e-04
0.000000000000000000e+00
9.837454178022514081e-04
5.641592245822875107e-01
6.959714414514693637e+00
7.655156392348032302e-03
9.135084243774014290e-01
4.110818148865441835e+00
1.597880236996882530e+00
1.328534732321865475e+00
-5.544021928715233728e-03
5.824395116914872494e-02
-3.006752171866179831e-03
-9.196639117604799019e-02
-7.552428728016699622e-02
-3.825759492338443035e-02
-7.513942179926744180e-02
-8.417915122603569777e-02
1.900124741621828399e-03
-1.022961987648744187e-01
3.015373715349607409e-01
9.250031766396892702e-03
-7.687410936963594565e-01
6.795916489485008018e-03
5.761658115789013157e-04
3.234102712821348806e-05
-9.133085540548337156e-02
0.000000000000000000e+00
-5.947937846102625770e+00
-1.478246505190974783e-04
2.359094727118445783e-02
0.000000000000000000e+00
0.000000000000000000e+00
0.000000000000000000e+00
0.000000000000000000e+00
-8.191294428952067275e-01
0.000000000000000000e+00
0.000000000000000000e+00
4.317727715407747802e+00
-2.084654819197279824e-02
7.603252998620535053e+00
7.003723947159885554e+00
5.968319133283147421e-02
1.079521348017073029e-01
7.102437422981816573e-01
5.730254134377785746e-01
0.000000000000000000e+00
-4.545824653717101427e+00
-9.306166095871593047e-02
-1.334356468215890795e-02
0.000000000000000000e+00
-1.120657739181517704e-01
-2.727892804852802833e+00
-1.851672443371561227e+00
-8.348756379833590646e-01
-8.019200137447796806e+00
0.000000000000000000e+00
4.082756974917811643e-01
4.242116763166324800e-01
2.122102049350092656e+01
9.455142225272149759e+00
1.342658529273850210e-01
0.000000000000000000e+00
-3.586709787498100488e-02
-1.152989743033461245e-02
0.000000000000000000e+00
0.000000000000000000e+00
0.000000000000000000e+00
1.039775358941510319e+02
8.702085207278321022e+00
2.558925391807773231e+00
2.984814722588385316e-01
1.803565239204780665e-02
0.000000000000000000e+00
0.000000000000000000e+00
-4.093049070952745061e-01
-4.346378828950023254e-02
1.308400565116301165e-02
4.526915608605812727e-03
1.541272504388945105e-03
-1.423967246539551085e-03
5.309559472492222237e-02
-8.350788790447763454e-02
0.000000000000000000e+00
-2.125330051331858483e-01
-2.186150600712003289e+00
-7.553084082220111739e+00
-8.255789368420302310e+00
-4.883800874281045146e-01
1.654713420367411869e+00
9.618649507989841752e+00
3.214640029539201027e+00
2.149043623206677717e-02
2.373703863998895963e-02
-1.482965166639674814e-01
1.056378619740236217e-02
1.806889694909301217e-03
7.249413560901056996e+01
3.954285933950980880e-03
0.000000000000000000e+00
0.000000000000000000e+00
-1.112561908279483305e+02
-4.650535489820880031e+01
-1.259278650108664561e-03
-1.054631698516418220e-01
-1.166643556681838494e-02
-1.238658722115004301e-01
0.000000000000000000e+00
7.864343808608986741e-02
0.000000000000000000e+00
3.121019861337406831e-03
5.258993409095567839e-02
0.000000000000000000e+00
-7.501025599581855052e-02
-1.267675482180952509e-02
4.761569451474499670e-02
-9.018548816221855224e-05
-6.397148432780237925e+00
-7.507579346638221907e+00
-5.196504802026261416e+01
-5.548761432429288876e-02
0.000000000000000000e+00
7.808000382714755716e+00
1.674676188531566967e-01
1.491919264010956425e+00
7.567817658466199915e-02
4.886628404911382006e-02
1.058382033755900231e-02
-6.723568971243079617e-02
3.049279070893001631e+01
-3.861858988635746750e-03
-8.272635425495286654e+01
-6.209040055192005525e+00
1.480069435054122695e-01
-4.724288489319682788e-02
-5.073179637897684557e-02
0.000000000000000000e+00
-6.084823739247885444e-02
-8.176351831965315842e-02
-7.395507202785475687e-02
0.000000000000000000e+00
2.354294722181084730e-03
-1.731946380871645097e-01
-8.452770212904432867e+00
-2.226484287026004871e-01
0.000000000000000000e+00
-1.645660926142074876e-01
-4.475635147421688081e-02
-3.544613588491519682e-03
-5.376994647095713342e-03
1.471572176670604137e-01
0.000000000000000000e+00
4.926099315619753005e-01
1.324244712991585471e-01
2.347219196741004432e-01
1.369890774740821536e-03
0.000000000000000000e+00
1.909172260960733070e+01
-1.280066705488697859e-02
5.911862602759429541e-03
-5.826680261907341007e-01
1.067047717517367877e-02
-7.406068274556670827e-03
0.000000000000000000e+00
2.816115882566156206e-02
2.679009938811795499e-01
0.000000000000000000e+00
-3.061815743660377051e-02
-1.003359572551022344e-01
-8.452015531341315890e-01
0.000000000000000000e+00
0.000000000000000000e+00
8.299078857589498037e-02
-1.855566740485380377e-03
0.000000000000000000e+00
6.281197493463767934e-02
2.864886192150772562e-05
-2.975463471276796890e-01
0.000000000000000000e+00
1.291695202696854609e-02
-1.463809850104870469e-01
-2.072522446789427431e+00
-4.063638414478789457e-03
2.394862020004018821e-01
-2.837734550343443130e-02
-2.907567229249885532e-02
3.094475988081183959e-01
9.251361005314266694e-02
1.460581660678317018e-01
5.396813217825125429e-03
-3.978285433836713236e-02
0.000000000000000000e+00
0.000000000000000000e+00
0.000000000000000000e+00
0.000000000000000000e+00
6.600309647173893419e-04
4.026155022769914438e-02
2.998038794654356853e-01
-2.150918443963015392e+01
-5.899704674745574806e+00
-1.100686917451957347e-01
-8.244903164807002721e-03
-1.268201994282056599e-01
-4.793018719503271650e-03
-4.845920505239706411e-02
0.000000000000000000e+00
-3.818980692822195044e-03
0.000000000000000000e+00
0.000000000000000000e+00
4.152823993732401853e-02
2.930052140736083208e-02
1.816559586640310586e-01
1.735563828479292248e+00
1.310643758038611793e-02
3.190920941684526335e-01
0.000000000000000000e+00
3.464374356508718045e-03
0.000000000000000000e+00
0.000000000000000000e+00
4.018787235916625872e-02
0.000000000000000000e+00
-3.958751702371137715e-01
2.313393888056142433e+00
-3.032687732059158758e+00
1.373817005702981930e-02
-6.166388440071812055e-02
0.000000000000000000e+00
6.567908744205554726e-04
-8.318961251364229703e-01
0.000000000000000000e+00
0.000000000000000000e+00
0.000000000000000000e+00
-2.845893891157514344e-01
-1.151297621031951469e-03
-3.271730324807369250e-01
0.000000000000000000e+00
0.000000000000000000e+00
2.681845096429698837e-03
-1.053745361173793887e-01
2.875397356463517684e-01
2.961777146234657376e+00
5.247703973235690045e-02
-4.673931446270455231e-02
3.389122299395789795e-01
0.000000000000000000e+00
1.243077348202376697e+00
8.408207098706277360e-02
2.941491404091522641e-02
1.975978042513451549e-01
0.000000000000000000e+00
0.000000000000000000e+00
0.000000000000000000e+00
-1.798987341738799706e-01
-1.560585508821062284e+01
-2.850127131678722670e+00
-5.164392585529586910e-02
-1.721516200345518388e-01
0.000000000000000000e+00
0.000000000000000000e+00
0.000000000000000000e+00
-2.327642655795299498e-01
-2.369937157630163937e-01
-1.512516808412347862e-02
2.905298912507271736e-04
9.742169457634992924e-02
-1.731217646650727859e-01
-1.434329946498624775e-02
1.998907835543601852e-01
8.535087632835559879e-02
0.000000000000000000e+00
4.561212361355465594e-01
2.150097064495494481e-02
5.061602402200730301e-03
-2.347291546760318370e-01
0.000000000000000000e+00
-9.483543279100912181e-04
-4.718696204598993305e-02
-7.465361299689834973e-02
-4.382584014438321157e-02
-2.812601002542073486e-02
4.972004134529686703e-02
-7.189101665425082111e+00
2.225484427648925095e-02
0.000000000000000000e+00
0.000000000000000000e+00
-7.211663934200582445e-03
0.000000000000000000e+00
7.621451705144213218e-01
1.445679398250199865e+00
0.000000000000000000e+00
8.027811612667336283e-03
-6.639646012330524538e-01
0.000000000000000000e+00
2.206753139826338542e-02
-5.476022683588155360e-03
-1.047396993370583651e+01
3.660950866964030603e-01
2.042501560415648787e-01
-2.082738436955703515e-02
3.689705705215665793e-02
6.007623898743642832e-02
0.000000000000000000e+00
0.000000000000000000e+00
-7.688625486595967659e-03
-4.220217752445176274e+00
-2.228436802096993297e-02
-1.030821103545342399e-01
-1.227459859214026139e+01
-7.331414714647902287e+00
0.000000000000000000e+00
5.216845687790712560e+00
7.441746888223235712e-02
2.202128097089800729e+00
-5.424924134533802740e-03
-1.042996706454256232e-02
3.878117070123361654e-02
0.000000000000000000e+00
0.000000000000000000e+00
-5.996378173075152251e-02
2.730325156930905606e-01
9.504914411699831936e-03
-2.026015788645343929e-01
2.601163328212340638e-03
-3.887495479404470128e-02
-9.739489959142967612e-02
-3.198872687189045078e-02
3.371369044586337793e+00
4.904636697989836591e+00
3.745710244582555783e-03
0.000000000000000000e+00
0.000000000000000000e+00
0.000000000000000000e+00
6.098750456417559307e-02
0.000000000000000000e+00
0.000000000000000000e+00
0.000000000000000000e+00
-3.027890683488474594e-02
0.000000000000000000e+00
0.000000000000000000e+00
-3.009352420638587766e+00
-4.682832312508455885e+00
-2.954495103822080831e-02
-1.147151696315211120e-03
4.220149618096183386e-01
9.817737474520132901e-01
1.924218191283436630e+00
2.800290806800471988e-02
-4.443584718683666474e-02
1.025151416838521595e-01
3.071521254837480605e-02
6.557009596926055561e-02
-4.649904915542490969e-02
0.000000000000000000e+00
3.458842938005839834e-03
-1.030486937239163958e-02
-2.644361033624220616e-03
-1.091704587553827838e-03
3.970406880646712433e-01
4.591427110000639855e-02
0.000000000000000000e+00
0.000000000000000000e+00
0.000000000000000000e+00
-3.517120706099650853e-03
5.161087776368501745e-02
0.000000000000000000e+00
0.000000000000000000e+00
0.000000000000000000e+00
0.000000000000000000e+00
-1.009200122402403310e-01
-3.103058370297653336e-03
3.337384649960210836e-02
-9.612141406261862087e-02
-2.358978902725958449e+01
-8.627945134949714934e-01
2.387436274182143294e-03
7.674521752005190045e+00
1.878640802722627429e-02
4.871376933499776268e-02
0.000000000000000000e+00
1.526307415289375191e-01
0.000000000000000000e+00
4.339554868602427118e-02
0.000000000000000000e+00
-1.467856443072138306e-01
0.000000000000000000e+00
-3.097268725135565552e-03
-6.545728387623809576e-03
-1.787632395607265112e-02
-5.955105785106686866e-01
0.000000000000000000e+00
0.000000000000000000e+00
1.072596321952541112e-03
0.000000000000000000e+00
0.000000000000000000e+00
-3.146576601419898795e-04
0.000000000000000000e+00
0.000000000000000000e+00
0.000000000000000000e+00
6.412558623486013529e-04
2.381239889589158998e-01
-9.768211057162667563e-03
0.000000000000000000e+00
5.791423675930226257e-03
0.000000000000000000e+00
-6.107697877365160510e-02
2.100205915865338885e-05
-3.649686965504797875e+00
0.000000000000000000e+00
1.039111056991020438e-02
0.000000000000000000e+00
-3.791983305475004618e-01
5.306226835818079746e-01
-1.751883490112970510e+00
-9.198980825267440153e-03
0.000000000000000000e+00
-6.819537566021854251e-05
7.008868931709821186e-04
4.647594022354380183e-05
4.155765074772526546e+00
6.607191611271341636e-02
1.581956089437265955e+00
5.777185829811588569e+00
5.652580956091476233e-02
0.000000000000000000e+00
0.000000000000000000e+00
-1.630823933601602271e-02
5.808685215483454234e-02
6.299723336377103383e-03
0.000000000000000000e+00
2.599818998781328397e-02
-1.279797988539285725e-01
2.945152177443532775e-04
0.000000000000000000e+00
0.000000000000000000e+00
-7.851311934234066550e-03
-1.358144954450937747e-02
-1.677728659556996238e-01
0.000000000000000000e+00
0.000000000000000000e+00
6.993655907419618067e-01
2.635233910743530750e+00
2.095983532852546682e-01
1.763889642407031888e-01
6.004210711500648223e+00
0.000000000000000000e+00
2.372755186279936090e+00
8.784310530289825975e-03
0.000000000000000000e+00
0.000000000000000000e+00
0.000000000000000000e+00
2.959076061641808045e-02
-8.990153713983696027e-04
0.000000000000000000e+00
4.775500243553163493e-01
3.084189635033138255e-01
0.000000000000000000e+00
5.496656924307342929e-02
-4.272937885991339585e-02
1.313849049775030198e-02
2.933121258464579245e-02
0.000000000000000000e+00
3.330603640863693538e-01
1.865870183632752644e-01
0.000000000000000000e+00
1.039302493126415330e-03
0.000000000000000000e+00
6.314303561192970843e-03
-2.108865651625184065e-02
-1.782614625004640130e-02
2.545605356032309974e-02
0.000000000000000000e+00
0.000000000000000000e+00
0.000000000000000000e+00
1.455161898971277235e-02
0.000000000000000000e+00
7.744027721301122824e+00
1.112870133466856926e+00
0.000000000000000000e+00
-5.316426402166424259e-02
-6.223503983096070891e-02
0.000000000000000000e+00
-3.671413190877996502e-02
-2.098555048918138155e-02
0.000000000000000000e+00
9.847533191580618451e-04
1.903994769619408653e-02
2.221517458203086260e-03
2.576843013627536268e-03
3.905251062740294071e-02
0.000000000000000000e+00
-2.407058949553651447e-02
0.000000000000000000e+00
0.000000000000000000e+00
0.000000000000000000e+00
3.314123924148924035e-03
-1.277663513169942533e+00
0.000000000000000000e+00
1.149151771988111292e+01
0.000000000000000000e+00
9.718701397280106328e-04
0.000000000000000000e+00
3.384328374907992487e-03
1.181995989806453908e-02
1.573207563428430378e-01
-2.128005624056934775e-01
-1.744614524049124815e-02
-2.231238637324238060e-03
0.000000000000000000e+00
1.628604658908907460e-02
4.824347650049325836e-02
0.000000000000000000e+00
0.000000000000000000e+00
0.000000000000000000e+00
0.000000000000000000e+00
0.000000000000000000e+00
-3.098806652716583065e-01
7.585575841559215327e-02
-5.041616725447067154e-02
6.948626052967443734e-02
-6.560672904023917562e-02
0.000000000000000000e+00
-5.026264516255769810e-02
-9.160808837631548296e-02
0.000000000000000000e+00
-5.969132083552598500e-01
2.276370391364915813e-01
0.000000000000000000e+00
0.000000000000000000e+00
2.006734315106525218e-04
0.000000000000000000e+00
-1.183417356977483209e-01
-2.870190872046668451e-02
-2.070900239369050100e-01
5.441253602367741860e-02
-9.119774250084067280e-02
0.000000000000000000e+00
-1.799899707231212773e-02
0.000000000000000000e+00
8.651410264709169518e-03
-1.147153130603345839e-01
0.000000000000000000e+00
0.000000000000000000e+00
0.000000000000000000e+00
-1.074917281072746561e-02
-4.554110999930816028e-02
0.000000000000000000e+00
0.000000000000000000e+00
0.000000000000000000e+00
0.000000000000000000e+00
-1.791848774006278844e-01
-4.660222707038596396e-03
0.000000000000000000e+00
4.268370396484572615e-01
3.183881476022526469e-02
0.000000000000000000e+00
0.000000000000000000e+00
0.000000000000000000e+00
-8.211410439337524236e-02
0.000000000000000000e+00
1.500719173623582259e-01
2.112631246718121858e-02
-2.581651613625519232e-02
0.000000000000000000e+00
0.000000000000000000e+00
1.502777876302082392e-02
0.000000000000000000e+00
2.918139542240454354e-01
-3.069592944492582128e-03
-1.487730762048856611e-02
0.000000000000000000e+00
0.000000000000000000e+00
0.000000000000000000e+00
0.000000000000000000e+00
2.197902263713887722e-02
0.000000000000000000e+00
-7.725799450363147747e-01
-3.110784121619671050e-03
0.000000000000000000e+00
0.000000000000000000e+00
0.000000000000000000e+00
-7.157304751062911483e-04
0.000000000000000000e+00
0.000000000000000000e+00
0.000000000000000000e+00
1.588766107829361895e-02
-2.477468462278526796e-04
0.000000000000000000e+00
2.960593627697714947e+00
7.073433153942590423e-02
-2.149183881918054467e-03
1.188968124741290530e-02
-5.350371854817197528e-03
0.000000000000000000e+00
0.000000000000000000e+00
0.000000000000000000e+00
0.000000000000000000e+00
0.000000000000000000e+00
1.944358471520909537e-03
-3.104700348599102183e-02
-1.814443908807999994e-02
3.107724236223054562e-02
0.000000000000000000e+00
0.000000000000000000e+00
0.000000000000000000e+00
-2.821542481398199315e-03
0.000000000000000000e+00
0.000000000000000000e+00
0.000000000000000000e+00
0.000000000000000000e+00
0.000000000000000000e+00
0.000000000000000000e+00
1.652855156325769639e-02
-2.651987372886800975e-01
9.654548717035751904e-02
0.000000000000000000e+00
0.000000000000000000e+00
6.429377731255138916e-03
0.000000000000000000e+00
0.000000000000000000e+00
3.449023595246309554e-03
9.923293314159364886e-03
0.000000000000000000e+00
0.000000000000000000e+00
0.000000000000000000e+00
0.000000000000000000e+00
0.000000000000000000e+00
0.000000000000000000e+00
0.000000000000000000e+00
0.000000000000000000e+00
0.000000000000000000e+00
0.000000000000000000e+00
1.687910225337792974e-02
-8.559707932998887603e-02
-3.442071476528842794e-02
7.411851549248068150e-04
0.000000000000000000e+00
-7.819695972261725761e-03
0.000000000000000000e+00
0.000000000000000000e+00
6.224740715441903077e-03
-5.356791815349865038e-02
1.470880257846480382e-02
0.000000000000000000e+00
0.000000000000000000e+00
0.000000000000000000e+00
0.000000000000000000e+00
0.000000000000000000e+00
7.545114624658463831e-02
-4.033656314774667490e-02
3.748397916417552100e-02
3.315546850575572246e-02
6.737229322168941659e-02
0.000000000000000000e+00
0.000000000000000000e+00
-5.164277921203925398e-02
3.438289688136083461e-03
0.000000000000000000e+00
0.000000000000000000e+00
0.000000000000000000e+00
0.000000000000000000e+00
-9.091167837132792381e-04
-4.040194841600361873e-03
9.364722247449783765e-01
5.527446479637562193e-01
2.548588921947762993e-03
0.000000000000000000e+00
0.000000000000000000e+00
0.000000000000000000e+00
1.020290597959086498e-01
5.409609736206925923e-02
0.000000000000000000e+00
0.000000000000000000e+00
0.000000000000000000e+00
-4.992821401325726709e-03
0.000000000000000000e+00
-3.260881736137518326e-03
8.630690493400816621e-03
0.000000000000000000e+00
-1.235774257315457817e-03
-3.498911138826145795e+00
-6.787439945605222569e-01
0.000000000000000000e+00
0.000000000000000000e+00
5.454883245413007925e-02
-7.467405846957206285e-04
4.295582046116000821e-03
3.573002615406803244e-03
6.835845075140888072e-02
1.067163423520090621e-03
0.000000000000000000e+00
-1.453215936751325987e+00
-1.249697546443328811e-01
5.405814779103244264e-04
-3.555585536191473162e-03
-3.337961081509031695e-03
0.000000000000000000e+00
0.000000000000000000e+00
-7.223748202444693275e-03
0.000000000000000000e+00
0.000000000000000000e+00
0.000000000000000000e+00
3.472743211306332164e-03
0.000000000000000000e+00
0.000000000000000000e+00
0.000000000000000000e+00
4.732888807615858590e-02
1.591177810498492495e-01
2.130650376471571406e+00
0.000000000000000000e+00
0.000000000000000000e+00
0.000000000000000000e+00
0.000000000000000000e+00
0.000000000000000000e+00
0.000000000000000000e+00
0.000000000000000000e+00
0.000000000000000000e+00
0.000000000000000000e+00
0.000000000000000000e+00
0.000000000000000000e+00
0.000000000000000000e+00
0.000000000000000000e+00
0.000000000000000000e+00
0.000000000000000000e+00
0.000000000000000000e+00
5.065807877076508037e-01
-3.096324586464410666e-01
-3.274587479790562125e-03
-7.906072308188115752e-03
9.055676293158704260e-02
0.000000000000000000e+00
0.000000000000000000e+00
0.000000000000000000e+00
0.000000000000000000e+00
0.000000000000000000e+00
-4.826688073936115028e-03
3.958967237959570319e-03
0.000000000000000000e+00
9.969466555834843868e-02
-3.494228771828095770e+00
1.190402025823231354e-02
0.000000000000000000e+00
8.407071001886035067e-03
0.000000000000000000e+00
0.000000000000000000e+00
-1.215667336756194317e-01
3.484868819373839952e-03
0.000000000000000000e+00
-1.082013173458996457e-03
-8.823677239889232693e-02
6.093764084158470595e-02
0.000000000000000000e+00
0.000000000000000000e+00
0.000000000000000000e+00
1.926578627074706368e-02
2.142217381799658982e-02
6.950662457225943724e-02
1.092008173052127218e-01
0.000000000000000000e+00
-5.917585935541298109e-02
-1.688751809139558135e-01
0.000000000000000000e+00
0.000000000000000000e+00
0.000000000000000000e+00
0.000000000000000000e+00
0.000000000000000000e+00
0.000000000000000000e+00
0.000000000000000000e+00
-6.425549959653818234e-03
0.000000000000000000e+00
-7.632925662109583953e-02
6.289053201295599638e-02
0.000000000000000000e+00
5.683424965357232374e-04
2.820179243499444915e-03
9.355652763519394302e-03
1.107287977882922270e-01
0.000000000000000000e+00
0.000000000000000000e+00
-1.266249386882801198e-01
-1.235417267713322630e-02
-8.791840948004657832e-03
0.000000000000000000e+00
-2.323968165200183955e-02
0.000000000000000000e+00
0.000000000000000000e+00
0.000000000000000000e+00
0.000000000000000000e+00
0.000000000000000000e+00
6.500952651863960152e-02
0.000000000000000000e+00
-2.206758068454865163e-01
-2.321406107075403048e-03
0.000000000000000000e+00
1.894338747577661020e-01
-1.289321964169568013e-02
-2.311849915353223275e-05
0.000000000000000000e+00
0.000000000000000000e+00
0.000000000000000000e+00
-1.502331717100047204e-02
9.633039751263766659e-02
2.220222442941543681e-02
-6.369694389382410393e-02
0.000000000000000000e+00
-9.190785004713904974e-04
0.000000000000000000e+00
0.000000000000000000e+00
-2.471233530880842522e-03
1.555554643940452730e-01
-4.447492523433865114e-02
0.000000000000000000e+00
-2.284926969287796594e-01
0.000000000000000000e+00
-1.174099665891955441e-01
-8.279364727632085419e+00
-1.212894740800212479e-01
0.000000000000000000e+00
0.000000000000000000e+00
0.000000000000000000e+00
2.670578259010415040e-02
-2.564908033473641685e-03
7.938425238362710468e-03
2.061867072286879474e-02
4.135186107799839195e-01
2.809512970208810634e-01
0.000000000000000000e+00
0.000000000000000000e+00
0.000000000000000000e+00
8.356895173623000161e+00
9.926544311031328116e-03
-2.748852612344520122e-03
4.730946082734645980e-02
0.000000000000000000e+00
1.332555944166898855e-02
0.000000000000000000e+00
2.964330758735015531e-02
0.000000000000000000e+00
1.639250979129252151e-03
-5.024945603795294424e-02
3.297673073802575683e+00
5.075319671263319776e+01
0.000000000000000000e+00
2.256872006800469777e+01
0.000000000000000000e+00
0.000000000000000000e+00
-2.468152641684702719e-01
-7.166803113429761618e-01
-2.497443118621824054e-01
0.000000000000000000e+00
0.000000000000000000e+00
-1.224468641149699735e-02
-4.269776560633838258e+00
-1.966728804451187695e+00
-1.308023617481750278e-02
0.000000000000000000e+00
-8.124258162449079015e-04
4.472022747546909871e-01
0.000000000000000000e+00
0.000000000000000000e+00
-2.106737934594184875e-02
0.000000000000000000e+00
0.000000000000000000e+00
1.798818372168364474e-02
1.062300742847116924e-01
0.000000000000000000e+00
0.000000000000000000e+00
0.000000000000000000e+00
0.000000000000000000e+00
-7.045452872748514395e-02
0.000000000000000000e+00
1.475647611871567788e-01
-1.013317492264987144e-02
0.000000000000000000e+00
0.000000000000000000e+00
-8.286811220033787895e-03
0.000000000000000000e+00
3.149834110907971940e-01
2.259620144491991320e-02
-1.079484878722319213e-03
-1.020928323269580315e-02
1.174699714488407903e-02
0.000000000000000000e+00
0.000000000000000000e+00
-3.623390099430474187e+00
-2.701325004623909898e+00
9.891362548251383946e-02
0.000000000000000000e+00
-7.626805919595581497e-03
-9.916224042088358365e-04
3.273861559954184455e-03
0.000000000000000000e+00
0.000000000000000000e+00
2.462558216768648278e-02
2.055991213762725991e-02
0.000000000000000000e+00
3.526829740732340124e-01
0.000000000000000000e+00
3.732786752215423026e-02
0.000000000000000000e+00
0.000000000000000000e+00
0.000000000000000000e+00
-1.060319190017851576e-01
-2.552921771876695445e+00
-2.160439280308235760e-02
-1.168315960995270075e-01
0.000000000000000000e+00
0.000000000000000000e+00
-1.815209671045877882e-01
-5.461507449356350907e-01
2.044324069161868318e-01
6.739696865417391103e-02
4.631419362076807933e-02
0.000000000000000000e+00
0.000000000000000000e+00
-3.080632118361907937e-02
3.070354563567154749e-01
-1.108295692072287952e+00
-1.802654804596171001e-01
-3.936509100879713174e-01
-5.698918234367745583e+00
0.000000000000000000e+00
6.473415720282185704e-02
-6.181120733612241458e-02
2.045975194055625265e-02
0.000000000000000000e+00
3.146387635533683114e-02
-2.976548778730348649e-02
2.451905084860729889e-01
3.260325940896645347e-02
3.061054074428018801e+00
1.789369584856793649e-01
7.785172506532683778e-03
2.301672892715054056e-02
-5.519459999196352391e-04
0.000000000000000000e+00
0.000000000000000000e+00
-1.002780343499229485e-03
3.195608045884594239e-01
6.561648155176982161e-03
-2.388597971216179644e-03
-6.133766171738351536e-03
0.000000000000000000e+00
0.000000000000000000e+00
-9.282669520320574463e-02
-2.659827413137336549e+01
-1.642221514634620405e+00
9.433703997106470673e-01
2.346971846002959827e-01
1.265632706237686866e+00
0.000000000000000000e+00
0.000000000000000000e+00
-9.933913974488534082e-01
-3.668490064064233724e-02
-1.145939657796206032e-02
0.000000000000000000e+00
-1.628532975264282987e-03
9.248637827954235036e+01
-1.093051154059645758e-01
-1.284274220413891721e+00
1.076666312375435808e-01
2.013007963375465503e-01
-1.523243467908771409e-01
-8.080743762633461058e-01
-1.303080547369769859e-02
1.412262374361017425e-01
0.000000000000000000e+00
0.000000000000000000e+00
0.000000000000000000e+00
0.000000000000000000e+00
9.147698059646947044e-02
-6.050992254777977086e-01
0.000000000000000000e+00
1.553434834018871669e-01
7.716321391730801560e-02
-1.534512998967099348e-02
-1.640052953715621931e-01
-1.508208106040831442e-01
0.000000000000000000e+00
-2.567286540328544975e-01
-4.372794907755252897e-02
-1.309444486905608253e-02
-1.367081531571615827e+01
-1.418374401241536908e+01
-3.617329323968975885e+00
1.752014666015620087e-02
7.395305322427149441e+00
2.284449493961304700e-01
0.000000000000000000e+00
0.000000000000000000e+00
3.322598553603100385e-02
6.581335855855052763e-01
0.000000000000000000e+00
0.000000000000000000e+00
-2.591633034250024128e-03
4.403156650658956117e+00
-6.659014066221462524e-01
-3.149299955921590666e+01
1.233864816892887989e-01
-9.218020835832919924e-02
-3.892435675000179007e-02
-8.238330016901872499e-01
5.336173226611892273e-04
-2.310019168319889238e-03
-4.264345610603562792e-02
-2.025425039955639633e-02
-5.229089264124989894e-02
-3.461057553260232789e-02
-1.240498759298373610e+00
-2.219048135828881030e+01
0.000000000000000000e+00
-9.116803149459243305e-03
0.000000000000000000e+00
-4.659137106736870731e-02
-1.840734760968499584e-01
0.000000000000000000e+00
-4.495025390128162823e-02
-4.844481442358867795e-01
0.000000000000000000e+00
0.000000000000000000e+00
-1.283344004773907462e-02
-2.808242710538484488e+01
-3.456112627418483907e-02
-1.147115262376771083e-01
9.369721640255400663e-01
4.756130792366364268e+00
6.677435815962437005e+01
3.179683875955408578e-01
0.000000000000000000e+00
-7.527857399876949351e-01
-1.142891316895977838e-01
0.000000000000000000e+00
-2.803368044236708139e-03
-2.052795353765521025e+00
-7.193267879310207835e-01
0.000000000000000000e+00
8.614287930915516533e-03
2.149416199725427412e-01
0.000000000000000000e+00
0.000000000000000000e+00
-7.616622087185054291e-02
0.000000000000000000e+00
-7.038994070328322139e-02
-7.597781278171498176e-01
1.976914714360863620e-03
-5.009674244648636837e-02
0.000000000000000000e+00
-2.866982369339397541e-01
-1.288401062410141906e-01
-4.910032964001415090e-03
-1.571142489997649078e-02
0.000000000000000000e+00
4.508256056800416349e-03
0.000000000000000000e+00
0.000000000000000000e+00
0.000000000000000000e+00
0.000000000000000000e+00
5.321042505350002082e-03
0.000000000000000000e+00
1.344312537393619611e-01
0.000000000000000000e+00
-2.558941734268048052e+00
-4.320346812508277234e-02
0.000000000000000000e+00
1.214888195472335966e-02
4.883365357498105630e-01
1.116382628904255512e+02
1.340804921520873029e-04
-4.574470735048379727e-02
-7.736722782383455461e-03
-9.643450536142768661e-03
0.000000000000000000e+00
1.908957832338514706e-03
-3.200567751708145003e+00
-3.975994294792895706e-02
0.000000000000000000e+00
1.580377070685945462e-02
2.984187069245137991e+00
0.000000000000000000e+00
1.115557039633323644e+00
8.631701058543569602e-03
-2.021296488002689157e-03
1.170128768654904970e-02
0.000000000000000000e+00
0.000000000000000000e+00
7.847652991736231431e-03
-2.475931793206709308e-01
-7.035125138237910414e-02
-1.100369046649025462e+00
5.019709885732207694e-02
-1.348168000759677909e+01
1.322873243225432954e-02
2.670626057815114404e-02
4.083315893555094361e-02
-4.070370466075024646e-02
4.787562249079154592e-02
0.000000000000000000e+00
0.000000000000000000e+00
0.000000000000000000e+00
-7.925346412351605419e-02
6.177792522365194855e-02
4.227996447304775696e-02
0.000000000000000000e+00
6.826441679916750438e-03
8.757679177581589175e-03
2.859929162484794674e+00
2.622993009348922655e+01
-4.046804758338971679e-03
-1.058160556187975054e-01
0.000000000000000000e+00
-1.500095348299632439e-02
0.000000000000000000e+00
3.250397030090311778e-01
1.562352955188939761e-02
-2.821946245425688282e-02
-2.480445582791014625e-02
4.268038932252277151e-03
0.000000000000000000e+00
4.030106744471284586e+00
5.690293679398298110e+00
7.338507723879308942e-02
-2.974731401035858938e-02
0.000000000000000000e+00
2.380752041101786426e-02
0.000000000000000000e+00
-1.982531681650608890e+00
-7.049805990978273940e+01
-2.075009082020693008e+00
0.000000000000000000e+00
1.448514510059912552e-01
-3.308161088838457858e-04
2.140863082818970572e-02
3.496237119023015150e-01
5.064452829729279744e-03
-7.288601704221836508e-02
-2.192835177207144159e-01
-6.563816933569054102e-02
0.000000000000000000e+00
-8.163113143451181108e-03
8.931914125526567716e-01
3.561475361814855998e-03
0.000000000000000000e+00
6.668189616909842243e+01
4.087552502974867608e+00
6.047372337510872192e-03
-6.138876030653291072e-02
-1.235653837782107445e+01
-7.865932169965173415e+00
-3.516987942259439809e-02
0.000000000000000000e+00
0.000000000000000000e+00
-7.669565745740911100e-02
-2.719745641670606034e-02
-2.804793083874068116e-01
-7.946950509789402206e-01
-7.518849277255730936e-05
0.000000000000000000e+00
0.000000000000000000e+00
5.012697928953550874e-02
-5.784494135876783183e-03
-4.383391615809809849e+00
-8.178105292331976084e-04
-3.337959800624310490e-03
-5.905124271043079887e+01
-4.886368477395734544e+01
9.078069009412165213e-02
-6.043308259746795093e-03
1.463344071474857455e-01
-5.226778551521212846e-01
1.405111041359101594e-02
3.129841100146140143e+00
-8.483553850048421163e-02
-6.118790827703900204e-02
0.000000000000000000e+00
-4.091043777152407468e-03
5.976187372871098052e-02
2.094556147836723788e-03
1.832927926030097562e-02
3.102478960625302262e-01
5.654512244100187712e-02
-5.494292098699742749e-02
-1.458398710020936129e-01
-7.031448093029961655e+00
-1.596066526416715980e+00
-2.832990775967655361e-01
-5.909157367557227661e-03
5.053407832803340910e-02
-1.460495312821055336e+01
3.735978870274547781e-03
3.046102356072536987e-01
-1.316013837452784455e-02
-1.087784587725515104e-02
-1.640746826499261263e-02
1.084608133103054817e+00
-2.994315159911279944e-01
-2.175338444318092035e-01
-4.331693476826645184e-03
6.973866735025444075e-02
-1.491219339137503028e-02
-7.188275951249664120e-01
7.784256743113331968e-03
1.041379683329832218e-01
4.459252315881985507e-02
-3.028424894461877875e-03
-8.983914497174404212e-02
-6.002722001167417470e-02
5.973234044554225075e-02
4.218781014841260557e+00
-2.694577241422678182e-01
-5.577453849873303254e-04
-9.110994682858468419e-03
-1.234589221025976347e+00
3.468511011414390777e-02
-1.673266323585527807e-03
4.554575644439041310e-02
-2.170141761922025209e-02
-4.554333085134048414e-02
-8.782419694616672157e-01
-6.346523251738352134e-02
6.877999847403329890e-03
0.000000000000000000e+00
0.000000000000000000e+00
-9.021924633359874879e-02
1.383180865053678932e-01
6.632605295565085178e-03
0.000000000000000000e+00
0.000000000000000000e+00
0.000000000000000000e+00
0.000000000000000000e+00
-7.616427549933119101e-02
-8.048797684105181470e-04
0.000000000000000000e+00
0.000000000000000000e+00
-5.419604751533339815e-02
1.540012426439350997e-02
2.794654410776979070e+00
6.837949655574958319e-02
-5.096752874607840328e-04
-6.162653892658272348e+00
-1.139772083274721588e-03
-7.896332859397576343e+00
2.330227297767890893e-03
0.000000000000000000e+00
-1.332380465000697622e+00
1.770692973135784554e-03
-5.132616729832051105e-05
-9.953812868134441771e-01
-5.356473694641984418e-01
1.120950150680709301e-01
2.970888641443021269e-02
-4.977407265361629557e-02
0.000000000000000000e+00
2.352605206146375361e-01
1.922944441082589245e-02
4.212007351767314313e-03
1.409909220680120173e-02
4.347269528057223553e+00
0.000000000000000000e+00
0.000000000000000000e+00
0.000000000000000000e+00
0.000000000000000000e+00
0.000000000000000000e+00
1.958828920346602880e-03
0.000000000000000000e+00
5.202624664610393246e-02
-2.675466875937757699e-03
0.000000000000000000e+00
-6.709542717413559398e-02
7.375081893504442654e-02
0.000000000000000000e+00
3.220031287941731851e-02
-4.202914519370413299e-03
-1.743318340972078648e-02
-4.895786109475297465e-02
-1.914040990818840354e-02
4.776614142631586003e-04
3.312612375623509742e+00
6.714672326562993732e-01
-2.337959649973129269e-03
-3.410970030881840254e-01
-3.080563580719477418e-03
-1.013907362796351713e-01
1.491576478351699583e-02
9.492121446971142351e-01
3.325266593024136519e-01
3.488505955413291702e-03
-1.260179028039118410e-02
5.723471175567973468e-01
4.598304479470736617e+00
5.992097128836024744e-01
1.865818734513577937e+00
1.828740389941528044e-01
1.332974309707159188e-01
-1.988219115972566509e-01
-3.499273785922364655e-02
1.036038354922684812e-01
1.423303446668512606e+00
2.192275833573991417e-01
0.000000000000000000e+00
7.803922227400497680e-02
0.000000000000000000e+00
2.549296507764635678e+00
-2.037074752759419211e-02
-6.369954767082138858e+01
-2.478880047141024168e+00
9.631074931517391580e-02
-2.878514883428312694e-03
-7.402208582967261669e-03
0.000000000000000000e+00
0.000000000000000000e+00
2.826138883360609810e+00
4.347085351160420164e-01
3.088123617323555031e-02
0.000000000000000000e+00
2.766843322894236845e-01
9.116277212127543716e-04
0.000000000000000000e+00
-1.018532065387261955e-03
0.000000000000000000e+00
0.000000000000000000e+00
1.110261334444811879e-03
5.602860614316756305e+00
-1.513765368342040452e-01
-2.129915275970722249e-02
-3.587715398850900572e-02
5.847115040171120288e-04
8.195977302092524730e-04
5.169254053849271779e-02
1.328197526220388891e+00
5.681030510322340632e+00
1.063932548698396470e-03
-2.018732973431122679e-02
3.228794775938710337e+00
1.053541263127011768e-01
0.000000000000000000e+00
3.111195903618759438e-03
9.751685531990315903e-03
2.070124439455818532e-02
3.452445645537176311e-02
5.208291107464129155e-01
1.404957548674969914e+00
1.223878239423584757e+00
0.000000000000000000e+00
-1.500841544216428569e-01
-1.031285626772786301e+01
-5.931654181507920454e-01
4.583834500800675407e-03
-9.664609876833710200e-02
