-6.404263497064858202e-01
2.640319661060222534e-02
1.667460891786911106e-02
-3.580840796524546472e-03
0.000000000000000000e+00
1.012212167682298158e-01
1.530879444055958417e-02
-2.360982726979847166e-03
1.452225099212166130e-02
0.000000000000000000e+00
7.827315905706015708e-02
0.000000000000000000e+00
5.085670234440920368e+00
2.533402163636909715e-03
0.000000000000000000e+00
-4.216496609185004241e-01
-5.800995783432922437e+00
2.071809889309232378e-01
2.586130874141144521e-04
6.216931782478849269e-03
1.181956853413357669e-02
4.632039426238280383e-02
-1.701186916838087412e-02
-1.829003713542885490e-01
0.000000000000000000e+00
-6.434214787529122681e+00
-1.141875780969249868e-03
-1.862117475998620320e-02
-4.639460569251084403e-03
0.000000000000000000e+00
0.000000000000000000e+00
0.000000000000000000e+00
0.000000000000000000e+00
-7.407519379214484896e-03
8.562782061539570000e-03
0.000000000000000000e+00
-9.097343674477933462e-01
8.766270926414201914e-02
0.000000000000000000e+00
-4.890822616311994893e-03
-1.131908517220671937e-03
5.217884370854488502e-02
-6.128968553116282553e-02
-2.098203133017111956e-03
-5.685103304644973932e-01
-2.046252574189009674e-02
0.000000000000000000e+00
0.000000000000000000e+00
0.000000000000000000e+00
2.054348955114255592e-03
0.000000000000000000e+00
1.254295934464618179e-01
0.000000000000000000e+00
0.000000000000000000e+00
0.000000000000000000e+00
0.000000000000000000e+00
0.000000000000000000e+00
0.000000000000000000e+00
0.000000000000000000e+00
0.000000000000000000e+00
-1.696242240254553814e-03
-1.970371322279295401e-01
1.066122010825834160e-01
0.000000000000000000e+00
-9.064579149949734960e-02
-7.606983962143135450e-03
9.234632456578041604e-02
-1.247035584478938322e-02
0.000000000000000000e+00
-1.898483127050305114e-02
-4.610932735173192687e-02
1.247578917867677405e-02
4.012659619092542873e-03
-2.502730734347944491e-02
4.703716609058604045e-03
7.702737157181978669e-03
2.035766344632085334e-02
0.000000000000000000e+00
0.000000000000000000e+00
0.000000000000000000e+00
0.000000000000000000e+00
5.201379769031531930e-02
1.395404160632135807e-02
0.000000000000000000e+00
3.698326243853975685e-03
-3.388021735247451899e-02
1.970521253058642522e-02
0.000000000000000000e+00
-5.578595701192256597e-03
1.999363322810835883e-02
3.549019144518173949e-03
-1.485334678717223529e-03
-3.736898609646066571e-02
-1.000348131704705823e-01
1.000984749392815759e-01
9.053955209132970305e-02
2.203587085108242860e+00
-2.668084427155888172e-02
-3.083839159557479536e-04
7.757464369728309106e-02
5.352575734554315678e-02
-2.328065717530785911e-04
0.000000000000000000e+00
-1.093785798404654265e-02
-1.001695408396049763e-03
9.405531654109819395e-02
0.000000000000000000e+00
-2.266995320682131318e-02
5.203106516181191799e-01
2.204000245303432484e-02
0.000000000000000000e+00
0.000000000000000000e+00
0.000000000000000000e+00
0.000000000000000000e+00
-4.149711252224333458e-02
2.342727591011826462e-03
-1.987761601398513669e-02
-5.440029468736246737e-03
2.196686689607827564e-02
4.748200579060039006e-01
5.287859107050145446e-02
-3.290006833365371336e-02
0.000000000000000000e+00
7.096407943186310192e-03
-6.457275194053857525e-02
9.643389773497062015e-03
-1.712186594278015117e-01
-2.877884543467137957e-01
-3.314069286754019877e-02
1.829921752531839339e-03
2.964985625652028986e-02
7.786824412219020553e-03
-1.800586557208093972e-03
-5.887014112508321545e-03
4.185524034801770682e-02
1.548981397086545975e-01
3.152343962398316581e-03
0.000000000000000000e+00
2.432041299178383520e-02
0.000000000000000000e+00
-1.573881483699725650e-02
-5.808065189739424206e-01
5.206253418933824359e-03
-3.099709579275414933e-02
0.000000000000000000e+00
0.000000000000000000e+00
-1.716126702256412506e-02
-5.414568378963592089e-03
2.027275479752306336e-04
2.548700364886147263e+00
1.417036317788921036e-03
8.304158510161058215e-03
1.684041155671038570e-02
-2.055471011891018274e-01
4.422396069972388266e-02
0.000000000000000000e+00
2.809692327365680420e+00
4.382509379308432429e+00
4.379746055011458084e-01
-2.746396142022951015e-01
0.000000000000000000e+00
-4.118385295340368235e-02
-1.271463218920553797e-03
-6.830203425792215691e-03
-3.663487535898164033e-02
1.319255994889939230e-04
8.755118100192882738e-03
4.803557651162620318e-03
4.311501751406456029e-02
-4.715791153689259663e-03
6.693662745241882317e-02
0.000000000000000000e+00
1.937086741589909011e-01
1.445480531087513579e-02
0.000000000000000000e+00
-7.847657937839569095e-03
0.000000000000000000e+00
3.645152486562316073e-04
0.000000000000000000e+00
-2.106403133040318093e-04
4.583231197745303576e-02
4.946544529858287222e-03
-1.806528971389638385e-03
-1.154929001063451045e-03
-7.062397849908946812e-02
2.078373892185932451e-03
3.180321298634074534e-01
-2.163890218504730539e-02
-6.880668978742997613e-03
0.000000000000000000e+00
-1.154132412110704664e-01
-3.964587943321575686e-03
-7.503607565269132529e-02
1.013972378729759150e-01
1.952947019466882289e-02
3.256481655656354168e-03
1.249838851303869403e-01
0.000000000000000000e+00
1.270976287430733084e-02
-1.561470087411056910e-02
1.970265114269361961e-01
2.424416995962272816e-04
0.000000000000000000e+00
-8.139221791142823431e-03
-4.343129161448877965e-03
6.092201925456968148e-01
2.580391863698763277e-01
0.000000000000000000e+00
-2.828232381319945206e-03
0.000000000000000000e+00
-8.649980743135471384e-03
6.590460792636797238e-02
-2.139007129793044015e+01
1.101092328575620401e-02
3.917098375766646434e+00
4.415729811122057757e-01
6.532242478210454451e+00
0.000000000000000000e+00
1.714646915635669941e-02
-1.972970561696704012e-02
7.771206629209133354e-02
1.626839162904001202e-03
1.199602413088520121e-02
4.036376584911864976e-03
1.444876220015623436e-01
-3.389508867974869773e-03
6.282511682131468669e-03
4.149975134869031065e-03
1.000307806323622734e-01
1.304719465463692303e-03
-2.981100440828626623e-04
0.000000000000000000e+00
0.000000000000000000e+00
-2.422319537919132015e-03
-1.616931090150556616e-04
1.103129261579677972e-02
1.098530371991408849e-01
3.010890845707401425e-02
0.000000000000000000e+00
1.313006617492225997e-03
0.000000000000000000e+00
5.045908976249031258e-03
-5.228865704085902504e-03
-1.480391556292011065e-02
-2.842341215163071144e-01
0.000000000000000000e+00
-2.671983224448723840e-02
2.172471597281749704e-03
0.000000000000000000e+00
0.000000000000000000e+00
1.267182479523775579e-02
0.000000000000000000e+00
4.445603331103019362e-02
0.000000000000000000e+00
-4.832524155963356660e-02
0.000000000000000000e+00
0.000000000000000000e+00
1.428467890767902470e-03
0.000000000000000000e+00
-4.434507632892954049e-02
6.131885196181165176e-04
8.849152979596132396e-03
2.154284981360998774e-03
0.000000000000000000e+00
-9.596004067296796947e-02
6.955602159018488273e-02
2.853332929511426252e-03
0.000000000000000000e+00
0.000000000000000000e+00
-6.037765004792031848e-03
-1.498752795017541106e-02
1.293619079016137055e-02
0.000000000000000000e+00
1.569740232373671111e-03
-5.007057725569933476e-02
1.089335534416215889e-01
0.000000000000000000e+00
1.922183828427156960e-02
-1.847726690258283400e-02
1.193565867194934082e-03
1.152775640433794952e-03
8.971639654518265977e-03
0.000000000000000000e+00
1.752365697745887282e-02
-1.172941518413493991e-02
1.320018745036028417e-02
4.260017032434353437e-04
0.000000000000000000e+00
0.000000000000000000e+00
-1.475608226805887394e-02
1.565439935619586734e-02
1.686486229305078632e-02
-6.202704136182762840e-02
0.000000000000000000e+00
2.337530812701024468e-04
8.098879078904117068e-02
1.073109349396660431e-02
8.664613276671159769e-03
4.715974475968090496e-02
-1.200926955176972294e-04
0.000000000000000000e+00
0.000000000000000000e+00
1.713459056477563414e-02
1.821727794813047391e-03
0.000000000000000000e+00
0.000000000000000000e+00
-7.447571032221034226e-02
2.676605712138154652e-02
-2.880848746976585710e-03
1.157605940591607471e-02
0.000000000000000000e+00
1.288432688761001824e-02
-4.045454898360641982e-01
1.207823880872966604e-01
-2.176052892898525104e-02
4.677308017606395668e-02
-1.117720081950775504e-02
-1.224407592302349801e-01
-2.892905286789634444e-04
1.604702744388811553e+00
8.280354750160892618e-02
-5.814738045012307101e-04
4.919390361308016713e-02
0.000000000000000000e+00
0.000000000000000000e+00
1.726863049415841220e-02
0.000000000000000000e+00
-1.233937458436754758e-02
0.000000000000000000e+00
0.000000000000000000e+00
-1.627211083859427670e-02
6.917531158262819890e-02
-9.918960280074298752e-02
-1.664205916767233940e-03
1.175429547887944515e-01
2.878197124338555568e+01
4.397562708464034659e-03
0.000000000000000000e+00
-3.500705016821305943e-02
-1.195433860461543899e-03
0.000000000000000000e+00
-7.593841513838124613e-02
0.000000000000000000e+00
3.472397526294227280e-03
1.818194935575837279e-01
0.000000000000000000e+00
0.000000000000000000e+00
4.487764703508905742e-04
5.474080597459130698e-02
8.312948482996327826e+00
5.817164755086510652e+00
2.327508163830350085e+00
0.000000000000000000e+00
1.990968691726581127e-02
-6.441988163395108158e-01
-3.104101891161994864e+00
-1.673708863583089554e-02
-1.660080926314148539e-02
0.000000000000000000e+00
0.000000000000000000e+00
3.260237821655492807e-02
0.000000000000000000e+00
5.234265521917738292e-03
5.342527051850381525e+01
0.000000000000000000e+00
0.000000000000000000e+00
0.000000000000000000e+00
0.000000000000000000e+00
-2.253940122429505619e-03
-2.639710059144741161e-02
0.000000000000000000e+00
0.000000000000000000e+00
-4.617146937991657707e-02
-2.957684603303119188e-03
-1.435713192906020071e-03
-1.119312181464439671e-01
0.000000000000000000e+00
0.000000000000000000e+00
4.221564941180634863e-03
4.371887757221720738e-02
0.000000000000000000e+00
-1.067370708067811246e-04
0.000000000000000000e+00
1.039209511770432387e-01
2.072671685627769100e-01
7.342701195714660400e+00
1.407500506155688657e-03
0.000000000000000000e+00
0.000000000000000000e+00
0.000000000000000000e+00
0.000000000000000000e+00
1.640250571936425735e-03
1.391533031747012317e-02
1.105083189454118209e+00
0.000000000000000000e+00
-3.193723838179748920e-02
2.108707726344657973e-02
-5.984597599435158982e-03
3.867411090313263577e-02
6.769895080550097574e-03
1.736285637670020518e-02
-2.169352056911095887e-03
0.000000000000000000e+00
3.344913816519907816e-03
5.328164910243149421e-02
-1.488587514510392867e-02
2.517409777786610691e-03
6.892284290516126604e-04
2.367137670093964058e-02
4.476035762200422652e-02
3.719135427976812125e-02
2.194748941468620956e-02
8.252311416209297951e-03
7.118536971325521712e-03
9.839594641589330393e-03
0.000000000000000000e+00
0.000000000000000000e+00
0.000000000000000000e+00
0.000000000000000000e+00
0.000000000000000000e+00
0.000000000000000000e+00
1.965535737111752043e-02
6.641472308237518669e-03
2.465421312205293147e-02
-6.187021806013409675e-02
-1.129383538488401673e+00
-3.473755070128480504e+00
2.536062719036950852e-02
-3.472203579253470979e-02
4.493928062315940067e-03
0.000000000000000000e+00
4.172486626421533229e-01
2.591573714331014133e-01
4.579055634509540340e+00
0.000000000000000000e+00
1.944654995227325552e-03
-5.318524227630220483e-04
4.222418427819944753e-02
0.000000000000000000e+00
0.000000000000000000e+00
0.000000000000000000e+00
0.000000000000000000e+00
8.538172865850146044e-04
0.000000000000000000e+00
-2.448644357104495448e-02
-3.195694276438975669e-03
0.000000000000000000e+00
-9.440252777422507985e-03
1.665526006877357176e-02
0.000000000000000000e+00
1.037139058827534106e-02
-1.927706933457042733e-03
-1.952020075468020865e-02
-1.275532495289298796e-01
1.523898286595963254e-04
7.491021536293461514e-02
2.002033672533269026e+00
8.782167596487880368e-03
0.000000000000000000e+00
0.000000000000000000e+00
3.434727516211100173e-02
1.349538397719234895e-01
-3.392753755698786622e-03
-1.506922939398340532e-03
-4.234027077760230996e-03
2.244926756773794607e-01
-9.797646943579255918e+00
-4.673036455273021222e-02
4.694080570257081614e-02
-6.033533661752969041e-03
0.000000000000000000e+00
0.000000000000000000e+00
-5.353956478963494726e-03
0.000000000000000000e+00
0.000000000000000000e+00
-5.197571886060149519e-04
0.000000000000000000e+00
2.506811373097802501e-03
2.923512493541505913e-03
0.000000000000000000e+00
-6.104456464517439562e-02
0.000000000000000000e+00
3.658587094474312958e-04
-6.685900895970896263e-02
8.387972024559514628e-03
-1.318781091242498225e-02
-2.040758674049599278e-02
-1.227947496411865430e-01
-1.172451466207452275e-01
3.329739565302642767e-03
0.000000000000000000e+00
9.728159497786868781e-02
0.000000000000000000e+00
0.000000000000000000e+00
2.725230813163632138e-01
-1.982812612052287787e-02
-3.103472059991882123e-02
4.117820962257071667e-04
0.000000000000000000e+00
2.163517076126818175e-03
-1.553279249724701661e-01
1.826790104799197109e-02
0.000000000000000000e+00
-7.675192593376652019e-04
5.631327559562084029e-02
0.000000000000000000e+00
0.000000000000000000e+00
0.000000000000000000e+00
-2.364190280851990317e-02
0.000000000000000000e+00
0.000000000000000000e+00
-1.998307290752052590e-03
7.299504514677305177e-03
-4.104960695717917163e-02
0.000000000000000000e+00
3.826824396680714472e-04
-1.597857596011329970e-02
1.455526556248196157e-02
3.097046232700766399e-01
-2.341453859971994941e-02
-2.362579506324532508e-01
0.000000000000000000e+00
7.791800581488823874e-02
-3.030791577890989408e-01
-2.551565726169279218e-03
0.000000000000000000e+00
0.000000000000000000e+00
-8.550983639486573352e-04
2.965544686691811566e-02
-1.996732905428308044e-03
-4.904298743837923524e+00
-6.744431384874315311e-04
4.387939497076766315e+01
3.450781665591781330e-03
5.422995052774436109e-02
0.000000000000000000e+00
0.000000000000000000e+00
0.000000000000000000e+00
1.565379672266378752e-02
2.858340761484332634e-04
-3.005533532416376774e-02
1.427519832461249163e-03
1.912129721652254923e-03
-2.692168388772374962e-04
0.000000000000000000e+00
0.000000000000000000e+00
-5.983271404980887442e-03
1.569241194852691139e-03
-6.920128290578322905e-02
0.000000000000000000e+00
1.048698386313214048e-02
6.027022831806418818e-03
3.382925471558333452e-01
-1.639608810057593957e-02
-5.647946599867180451e-02
0.000000000000000000e+00
8.367532289286438996e-03
-6.191970055709983267e-02
8.680587054519618706e-02
-4.862376583434965122e-03
0.000000000000000000e+00
5.111566474557375714e-03
-3.229744898153151349e-03
9.114831218168195637e-03
3.752229493524795838e-04
-4.401667457213498946e-01
-3.966485179598979414e-04
6.983940899298355376e-01
5.989824437977635425e-03
0.000000000000000000e+00
-6.689078496905999957e-05
-9.177657720840316780e-03
0.000000000000000000e+00
-8.696886678186859995e-03
-4.900872727182938732e-02
-3.469955487096939434e-02
7.415433227962962837e-02
-4.536312044055855128e-03
0.000000000000000000e+00
0.000000000000000000e+00
1.521772643540243025e-03
0.000000000000000000e+00
0.000000000000000000e+00
4.305573232733596648e-04
0.000000000000000000e+00
4.981646713961663392e-03
2.230430531138106673e-02
3.085589913198273984e-02
-5.960619899910866645e-04
0.000000000000000000e+00
-1.876258822985685804e-01
1.565186182126168841e-03
1.210001731048341717e-01
0.000000000000000000e+00
-2.895701775212777829e-01
-4.460299102203925045e-03
0.000000000000000000e+00
0.000000000000000000e+00
6.390361439330914661e-02
3.470908251362435620e-03
0.000000000000000000e+00
0.000000000000000000e+00
3.527378749462236479e-03
-1.931403678492628340e-02
-3.948968966180376405e+00
0.000000000000000000e+00
0.000000000000000000e+00
0.000000000000000000e+00
-1.317769134002801145e-03
-5.860581116500131194e-02
-1.137407222122428785e-02
0.000000000000000000e+00
3.235818094217474822e-02
-3.423359068835683848e-04
2.156453575235941708e-02
1.137502540619700492e-01
2.322775980168944709e+00
1.257028415936542985e-02
0.000000000000000000e+00
1.641628365810369637e-03
-8.428597724671457736e-02
1.393564804208585490e-03
1.605424048125510348e-03
0.000000000000000000e+00
-8.930712008700707194e-02
-1.541450796139746948e-02
5.711065987555694751e-05
0.000000000000000000e+00
1.749497339151538655e-01
-8.590276775796750613e-03
0.000000000000000000e+00
2.326540545871691179e-01
1.521721269758287420e-02
1.509080070383927302e-03
0.000000000000000000e+00
0.000000000000000000e+00
0.000000000000000000e+00
-6.236199403157915294e-02
-9.903812962967222688e+00
1.946109920337268234e-02
0.000000000000000000e+00
0.000000000000000000e+00
0.000000000000000000e+00
-1.436300778461504298e-04
-5.302188332281257410e-03
0.000000000000000000e+00
0.000000000000000000e+00
0.000000000000000000e+00
1.677585484090918233e-02
7.946412951681804115e-02
2.241218140745098591e-02
-9.161306846679949378e-03
8.993250605282943066e-03
-3.019321547158991016e-03
7.992647292271356715e-03
1.006792446133814847e-03
0.000000000000000000e+00
1.899427584119008777e-02
0.000000000000000000e+00
0.000000000000000000e+00
5.315367995690167130e-03
0.000000000000000000e+00
2.919136256021122831e-03
6.036225450245396446e-02
1.903419627201092812e-01
1.527426932714471552e-01
1.784911960534986809e-04
0.000000000000000000e+00
4.337593676997614917e-02
0.000000000000000000e+00
0.000000000000000000e+00
0.000000000000000000e+00
3.374396936105065747e-01
4.070159375746921918e-04
4.705529997818283516e-01
0.000000000000000000e+00
0.000000000000000000e+00
0.000000000000000000e+00
-2.983814388697722531e-02
0.000000000000000000e+00
3.311039931896326161e-03
-9.411960861413665169e-02
-1.111832709055954882e-01
-1.044110455236180002e+01
1.441842154111219743e-01
1.252414438419169980e-03
1.536581916884527908e-03
7.322798220552298801e-03
0.000000000000000000e+00
9.334305782162283282e-04
0.000000000000000000e+00
3.403800014700750776e-01
0.000000000000000000e+00
-2.428505168354357091e-02
0.000000000000000000e+00
2.525519277306705057e-02
-1.264076703315857421e-03
5.538622616165810031e-02
0.000000000000000000e+00
5.889961176104133861e-03
1.470219409922400230e-02
-7.034103428438382745e-03
0.000000000000000000e+00
-2.992294689491740711e-01
3.265867994177906047e-02
-2.250327426428186395e-02
-2.893375305635082287e-02
0.000000000000000000e+00
0.000000000000000000e+00
0.000000000000000000e+00
0.000000000000000000e+00
4.821396500349592884e-01
2.906991974735195328e+00
-1.295121585316193549e-02
-8.112922595817959048e-03
-1.284375089320203937e-02
7.536701255384189307e-03
0.000000000000000000e+00
1.743679515072846242e-02
-1.414866811667770362e-02
-4.379022946759682580e-03
1.167087074647708972e-01
7.299633614239403379e+00
-4.381702447001875611e-02
6.106957814896839948e-02
2.104594734009247042e-02
-1.577527784477452677e+00
0.000000000000000000e+00
9.383611268144976744e-04
3.858260574841717805e+00
-1.395716800633575380e-02
1.329404048171467512e-01
-3.328622364343806345e-02
0.000000000000000000e+00
-4.564272442978370425e-03
3.953478470183177836e-04
0.000000000000000000e+00
0.000000000000000000e+00
-1.823055118089808233e-02
0.000000000000000000e+00
0.000000000000000000e+00
5.037426313443126068e-04
-5.255504661830248114e-01
6.120616085945372944e-03
0.000000000000000000e+00
0.000000000000000000e+00
1.053043924308530443e-02
0.000000000000000000e+00
0.000000000000000000e+00
0.000000000000000000e+00
-8.926541899137777070e-02
-3.011059134479877608e-01
-1.084930704786887823e+01
5.433023727344258539e-04
-2.624412874101092127e-02
0.000000000000000000e+00
1.382867852194205431e-02
3.006485467363137487e-02
0.000000000000000000e+00
-4.166951129109318364e-02
7.678406454884276547e-03
9.659229051753945305e-02
2.296303705090862124e+01
8.979786306286294462e+01
0.000000000000000000e+00
4.505101326401474496e-03
4.141475753004553498e-05
9.494701864331137053e-02
-3.519667326711505700e-02
-1.069558234799934324e-02
-6.994163266415320823e-02
2.930191304181185563e-01
-1.421649178725715654e-02
-2.771346098361936704e-03
1.368015990727221472e-02
8.988248766984201499e-01
9.670670824576914626e-01
-1.909249347448553624e-02
0.000000000000000000e+00
0.000000000000000000e+00
-3.115561237821358812e-02
4.471976014037218339e-02
1.776471059506647392e-03
1.716108574221573285e-02
0.000000000000000000e+00
8.914642677610039659e-03
1.258555799200328923e-03
-2.628843033524399034e-03
0.000000000000000000e+00
4.544104135622011736e-02
1.316282461365922765e-02
4.797067296662448424e-03
2.138945649474493782e-01
1.199110711102527533e-03
-1.442477600312755230e-02
1.944564693874465669e-03
-2.494051891661092091e-02
1.983589792620779058e-01
0.000000000000000000e+00
-7.851979846144734390e-03
0.000000000000000000e+00
1.166618357532251543e-01
2.205813932123749238e-02
-3.423041189273892063e-03
0.000000000000000000e+00
-8.788167075477759660e-01
-1.916970518486194042e-02
0.000000000000000000e+00
-1.611591720003383715e-02
1.832834512777586564e-02
-7.845151965794907450e-03
-1.005924585656124345e-03
0.000000000000000000e+00
-1.873038306776204920e-01
-6.797598171038912729e-02
3.416390058699368681e-02
0.000000000000000000e+00
1.435619375288079147e-01
0.000000000000000000e+00
0.000000000000000000e+00
-6.970402941483568298e-04
0.000000000000000000e+00
-3.527153911194117614e-02
0.000000000000000000e+00
7.479465819675780447e-02
-8.612160624990175539e-02
0.000000000000000000e+00
-5.720327803461178976e-04
3.477252801972734002e-03
3.623394093993616560e-01
7.163949934612032049e-03
-5.540288768627166238e-02
0.000000000000000000e+00
0.000000000000000000e+00
0.000000000000000000e+00
-2.534272091963352038e-03
-7.903422636936845505e-03
3.454821139478053915e+00
4.571615953567549795e+00
-2.184701795947741748e-02
0.000000000000000000e+00
1.321389930671356717e-02
0.000000000000000000e+00
0.000000000000000000e+00
5.266934044624727917e+00
-8.510457811093656566e-03
2.536382488188337198e-03
0.000000000000000000e+00
0.000000000000000000e+00
1.424991464229128355e-04
3.286461201461200743e-02
3.643394297992735148e-02
5.921682867342004802e-03
-3.290059299658540382e-02
-2.959964118093613705e-03
0.000000000000000000e+00
0.000000000000000000e+00
0.000000000000000000e+00
0.000000000000000000e+00
0.000000000000000000e+00
0.000000000000000000e+00
-5.458336805816721427e-01
-1.166990078670083752e-01
1.204757106941016032e-03
-1.520897189698701760e-02
-4.162444446809047960e-02
-6.886813088261136773e-04
-3.091155363069455521e-03
0.000000000000000000e+00
0.000000000000000000e+00
-5.788147254117731628e-03
-8.053132082956187014e-04
0.000000000000000000e+00
0.000000000000000000e+00
0.000000000000000000e+00
2.569814291834688919e-03
-3.325900616247590841e-03
0.000000000000000000e+00
0.000000000000000000e+00
0.000000000000000000e+00
0.000000000000000000e+00
0.000000000000000000e+00
0.000000000000000000e+00
0.000000000000000000e+00
0.000000000000000000e+00
8.492627302233412764e-03
9.778405037376697653e-03
-2.126960949375455209e-03
0.000000000000000000e+00
-1.124220722025443160e-02
2.110145570239146170e-03
0.000000000000000000e+00
0.000000000000000000e+00
0.000000000000000000e+00
-4.196669162407070525e-02
-7.538395957044537354e+00
-7.780816942536259405e-03
0.000000000000000000e+00
0.000000000000000000e+00
0.000000000000000000e+00
0.000000000000000000e+00
3.305882723462261197e-02
4.322900629218252855e-02
2.956427377544461055e-01
0.000000000000000000e+00
0.000000000000000000e+00
-7.638096676534719557e-04
0.000000000000000000e+00
0.000000000000000000e+00
-3.518257391717299009e-04
0.000000000000000000e+00
0.000000000000000000e+00
2.505778970705097638e-03
1.420435368738040723e-02
0.000000000000000000e+00
0.000000000000000000e+00
-9.314734986372311815e-03
1.599897275258246182e-02
-5.636951227636646106e-02
0.000000000000000000e+00
0.000000000000000000e+00
-6.957069294341251819e-02
1.912789095682523866e-01
7.121434499627681269e-01
0.000000000000000000e+00
0.000000000000000000e+00
-8.871920458137071835e-03
8.029210257066265576e-04
2.448779413927125059e+00
3.067679373334607218e-02
0.000000000000000000e+00
0.000000000000000000e+00
0.000000000000000000e+00
0.000000000000000000e+00
-5.764182724315250472e-02
1.406129151750328682e-02
1.727311152378342620e-03
-1.347694650564929431e+00
-2.717151798030993937e-01
-8.521084815498364967e-03
-1.244688975411201853e-02
-1.157734933953851256e-02
0.000000000000000000e+00
-3.230411875124900804e-03
4.527422882931279868e-02
-6.458815250262764200e-04
-2.548332584387633104e-02
6.101518255275804376e-05
3.572640457426223392e-03
-3.474631971847672723e-02
-1.187140575297490619e-02
-5.578686616765592826e-02
-4.417804976556269012e-03
0.000000000000000000e+00
-1.319650281276700587e+00
0.000000000000000000e+00
2.332124775717079809e-02
-1.930059954209987083e+01
3.129090621427028712e-04
0.000000000000000000e+00
0.000000000000000000e+00
0.000000000000000000e+00
0.000000000000000000e+00
-6.127067283091482477e-03
2.781685598648028779e-02
2.542831601358434002e-01
-7.426653591023237022e-02
2.158568746226665128e-03
7.518539805609872513e-03
3.147109737452669607e-03
-2.637825565361457195e-03
8.502750823674951053e-03
-1.781799646010134575e-01
-2.339636937860543886e-02
-6.848743690200370660e-02
0.000000000000000000e+00
7.196022705205321057e-02
9.748663595517447433e+00
1.091643076836999349e+01
-4.337565616418517615e-03
-8.047456557414296718e-03
0.000000000000000000e+00
1.842003688474927827e-04
-6.769635764782873377e-02
6.836309243775499402e-03
-1.561510454598963094e+00
-6.133014021694341636e-04
0.000000000000000000e+00
5.186981071356303596e-01
1.691412222243812435e-01
2.988741221249684860e-02
0.000000000000000000e+00
0.000000000000000000e+00
0.000000000000000000e+00
0.000000000000000000e+00
-8.300181789879269856e-03
0.000000000000000000e+00
6.364565338446975806e-02
-1.024942344155684373e-02
1.420066992425614849e-01
1.663669316279933058e-02
0.000000000000000000e+00
2.142420593602311629e-01
2.408387790346167290e-01
2.363401546831207511e-01
-2.579782728366254328e-04
2.354811573159655644e-03
2.566880606115490814e-03
0.000000000000000000e+00
-8.062813000973315450e-03
-7.614269520001219760e-02
-2.783484845145677866e+01
3.677489876398790658e-01
-1.241902533606496252e-02
-1.002838229514854641e-03
2.117568389674241713e-02
-3.306906269892566363e-02
0.000000000000000000e+00
-6.720409011796110200e-03
-4.737347451252572460e-04
-3.514357927877894382e-03
-4.179914277185821890e-03
4.220835942691666953e-02
-4.989271209772952465e-02
0.000000000000000000e+00
0.000000000000000000e+00
0.000000000000000000e+00
5.020323880054783361e-02
0.000000000000000000e+00
-1.038688429651482754e-04
0.000000000000000000e+00
0.000000000000000000e+00
1.947286577046374934e-06
8.672962033730240439e-01
-1.070780529650621621e-02
-2.685025272965702731e-03
2.226446379365626949e-01
5.112881394395165646e-01
5.202642910171191570e-02
1.370805895929503877e-03
0.000000000000000000e+00
-1.509573585726453615e-03
6.250367109645563191e-02
-1.144605302505688205e-01
0.000000000000000000e+00
-4.258597476323025544e-03
-1.829923596051246867e-02
0.000000000000000000e+00
0.000000000000000000e+00
2.854291687352525364e-02
0.000000000000000000e+00
0.000000000000000000e+00
2.799212604355499900e-01
0.000000000000000000e+00
5.524400189183022170e-03
0.000000000000000000e+00
-8.552777314722439855e-04
-3.056162605354976677e-02
0.000000000000000000e+00
-1.496860611050307259e-02
0.000000000000000000e+00
0.000000000000000000e+00
-3.999782174670298007e-02
-3.015707297934595247e-04
2.216833350356443855e-02
9.052628214186073108e-02
-1.246248784237953544e-02
-4.142975323191853271e-02
3.208493257743758043e-02
4.654497334515071520e-03
0.000000000000000000e+00
-1.282290088955311685e-02
1.834147315772975684e-02
-1.133858508653494690e-01
-1.804824502915930917e-03
0.000000000000000000e+00
-2.941904283014792898e-02
0.000000000000000000e+00
-3.830044132515193767e-02
0.000000000000000000e+00
0.000000000000000000e+00
-8.910840817631696109e-02
-4.047881514492557287e-02
1.408032656750147105e+00
-1.549457000475751300e-02
0.000000000000000000e+00
0.000000000000000000e+00
0.000000000000000000e+00
0.000000000000000000e+00
0.000000000000000000e+00
-5.088138051466095657e-02
-1.671875658302875850e-02
-2.006572664740012037e-03
0.000000000000000000e+00
-1.580159564379240711e-01
9.248665296030134531e-04
-4.917114785257205428e-06
-2.209283928539671621e-03
1.696128057455872917e-02
9.823514980754450079e-03
4.012211926707063420e-02
-4.117450722480718639e+00
-5.709776364752183042e+01
0.000000000000000000e+00
2.848287789770190814e-01
1.620339732965551602e-02
0.000000000000000000e+00
0.000000000000000000e+00
0.000000000000000000e+00
3.632247896192914924e-03
0.000000000000000000e+00
3.072501125916109188e-02
-1.432024287256647779e-02
-1.143502195563646413e-02
0.000000000000000000e+00
0.000000000000000000e+00
0.000000000000000000e+00
0.000000000000000000e+00
9.981143293660225957e-03
-4.008354529353370249e-02
0.000000000000000000e+00
-1.986288524409169851e-02
-6.386816951691215438e-02
5.901513614477880282e-02
2.498721922416022867e-01
1.549427209393336446e-02
-8.820218344815183853e-02
8.356778465271414097e-04
1.828182673486328583e-03
0.000000000000000000e+00
7.661162335102740702e-03
4.248663729474815021e-02
-2.713934841871416814e-02
7.159395114111942807e-03
-1.483757897830337682e-03
8.040667654221345106e-02
-3.055959358330872372e-02
1.565425585152705745e-01
-8.857436141905178362e-02
1.725332313596134731e-02
0.000000000000000000e+00
0.000000000000000000e+00
0.000000000000000000e+00
3.094723832878414418e-02
-6.323566887484849408e-02
2.517023293270014284e-01
2.601122112616591903e-02
2.634814460616784204e-02
-7.780894025423602464e-03
-2.350396755489957482e-02
2.456373292431503035e-03
2.617459498088633204e-03
3.658427417406140969e-01
1.435659836169405658e-02
7.454215621121941249e-01
3.594946471638841512e+00
-1.053496699381091528e-02
0.000000000000000000e+00
7.834203010653411833e-03
1.900515879586619702e-02
1.707823897329703300e+00
0.000000000000000000e+00
-2.780076341561524278e-02
0.000000000000000000e+00
6.053145689258284355e-03
0.000000000000000000e+00
0.000000000000000000e+00
-1.458739344041253168e-02
8.036377721290432694e-03
0.000000000000000000e+00
-5.863295871787001234e-03
-2.069476490087052700e-01
-4.488928521689183708e-03
0.000000000000000000e+00
0.000000000000000000e+00
-2.434709915877670411e-02
7.158026648544324466e-02
0.000000000000000000e+00
-4.905717685669612471e-02
0.000000000000000000e+00
-3.617509217329188675e-02
-1.628384155668628069e-02
-6.625276610829379520e-03
-1.758661815747047594e-02
0.000000000000000000e+00
0.000000000000000000e+00
0.000000000000000000e+00
0.000000000000000000e+00
0.000000000000000000e+00
0.000000000000000000e+00
-1.612849893873511631e+00
-7.098968477891576777e-04
2.527258303932571892e-01
5.541000491667176509e-04
-1.258715021833392567e-01
4.245295285896483195e-03
8.890168196780300763e-03
0.000000000000000000e+00
0.000000000000000000e+00
0.000000000000000000e+00
0.000000000000000000e+00
2.663571418584113060e-01
1.158175485380479763e+00
2.134549360280010966e+00
4.041449039105389496e-02
-6.038686560611288435e-04
-1.056439086694441719e-03
0.000000000000000000e+00
0.000000000000000000e+00
0.000000000000000000e+00
7.871403755079039077e-05
0.000000000000000000e+00
0.000000000000000000e+00
0.000000000000000000e+00
1.070318038189962961e-02
-5.469715588208054480e-02
4.550416207845480177e-01
2.108357514339691003e-03
0.000000000000000000e+00
0.000000000000000000e+00
0.000000000000000000e+00
0.000000000000000000e+00
1.560409851309973138e-02
0.000000000000000000e+00
2.592174580164610404e-03
0.000000000000000000e+00
0.000000000000000000e+00
-1.825666442276781612e-02
0.000000000000000000e+00
0.000000000000000000e+00
7.924275140284978147e-02
1.816648135931585566e-03
-6.819142097555079725e-03
3.627998517638820530e+00
0.000000000000000000e+00
-1.038670913588024720e-02
0.000000000000000000e+00
2.039760333648015303e-03
0.000000000000000000e+00
0.000000000000000000e+00
1.035208188040238203e-02
-7.846172773492281205e-02
-1.153795215224888843e-01
-4.051018393649849503e-02
0.000000000000000000e+00
-1.498313580397776068e+00
4.699151914822142020e-03
-1.375184766658464230e+00
-1.130855334104729215e-01
4.306013687250608013e-02
3.837967830935035910e-03
0.000000000000000000e+00
0.000000000000000000e+00
0.000000000000000000e+00
4.797498048647354241e-02
0.000000000000000000e+00
-9.219361849601618794e-03
3.043684957159597526e-01
1.097629945056144696e-01
0.000000000000000000e+00
-1.049436573017451836e-02
0.000000000000000000e+00
2.471038846481204143e-01
0.000000000000000000e+00
-1.900453158362343242e-02
-4.064003979313505349e-04
1.357123820079729204e-01
2.139992413527173551e-02
-1.391178909014066101e-01
0.000000000000000000e+00
1.775178878530571727e-03
-1.168056079191908481e+01
3.107394439700357502e-02
0.000000000000000000e+00
1.616888984248392447e+00
0.000000000000000000e+00
-4.230663208679159848e-02
3.172695187508710931e-03
5.398141008843671679e-02
-3.573844826669962584e-03
-3.318905311619151088e-03
-2.259956837659687912e-02
1.455024739643925979e+00
2.052498385214777260e-02
7.822273968083029785e-03
-2.643747664278136081e-03
-2.381690237060279242e-02
-1.053354799966911212e-02
6.034893754466415065e-03
0.000000000000000000e+00
-2.436993578747855341e-02
0.000000000000000000e+00
-4.294198003945312548e-04
8.631504630947364688e-05
-1.011490056188688383e-02
4.493666399403552919e-02
-1.056680936801093484e-01
-5.512217315939474047e-03
-6.331746619694409439e-01
0.000000000000000000e+00
-4.810822636601493896e-01
1.533603113975374299e+00
9.614420776020917714e+00
1.487976123029985942e-01
-4.965086232443098602e-02
-1.898335207860977342e-02
2.523117371440969370e-01
0.000000000000000000e+00
0.000000000000000000e+00
0.000000000000000000e+00
0.000000000000000000e+00
0.000000000000000000e+00
0.000000000000000000e+00
2.394859464222742762e-02
5.026763181901455768e-02
-1.571424089898692047e-02
7.328397592100197033e-02
0.000000000000000000e+00
-3.347908216047949109e-02
4.546591069720272091e-03
0.000000000000000000e+00
0.000000000000000000e+00
3.546581761309991476e-01
2.549186933263768218e+00
0.000000000000000000e+00
-1.977945854140132909e-01
-3.592651937534239615e+00
1.959706865928614525e-02
1.335776971284181824e+00
-5.360714067787472614e-03
0.000000000000000000e+00
0.000000000000000000e+00
-5.134945173580566374e-02
2.092663904873967237e-03
0.000000000000000000e+00
9.180070049640645137e-04
0.000000000000000000e+00
-3.195089753510438335e-02
1.236031785462253507e-02
-6.175511709028606508e-03
1.348181632591767109e-03
-4.937134497326232108e+00
-3.090807489655098550e+00
-5.347869444570311874e-03
-1.014977519868827394e-02
0.000000000000000000e+00
0.000000000000000000e+00
2.602540291927596949e-01
-5.966719056048067849e+00
3.181932909636524254e-02
0.000000000000000000e+00
-8.369864136922896061e-03
2.501940457404558046e-03
0.000000000000000000e+00
0.000000000000000000e+00
-9.004605749177356164e-03
0.000000000000000000e+00
0.000000000000000000e+00
-5.382147118245230732e-01
-2.234435472265552079e-03
-4.335182097680594787e-02
-2.327443648944275967e-02
-1.990907885188974324e+00
-4.321381793229299093e-03
0.000000000000000000e+00
-2.222562712856440692e-02
-4.415229003166708938e-02
0.000000000000000000e+00
-2.338415784658696289e-02
-5.093580165339801208e-03
4.741298399274335943e-04
1.741548658149019158e-01
-9.548629859777441400e-03
0.000000000000000000e+00
-3.470814349547046381e-05
0.000000000000000000e+00
0.000000000000000000e+00
4.174317006586860529e-02
-8.465947386046576359e-03
0.000000000000000000e+00
0.000000000000000000e+00
2.491086758365779891e-02
-1.067992232598917457e-02
0.000000000000000000e+00
-9.783747777442193261e-01
-5.133056208024195516e-02
3.690233102292175826e-02
0.000000000000000000e+00
3.923276576375418767e-02
0.000000000000000000e+00
-1.373829255894356595e-02
-1.990451205331640258e-02
0.000000000000000000e+00
4.421970961257859489e-02
0.000000000000000000e+00
0.000000000000000000e+00
0.000000000000000000e+00
0.000000000000000000e+00
-3.562842754176132054e-02
0.000000000000000000e+00
1.441679104969394686e-03
0.000000000000000000e+00
1.317129200194984695e-01
-8.044664851978065023e-01
-2.054079378260971755e-01
5.326661597629864242e-02
0.000000000000000000e+00
0.000000000000000000e+00
-1.660264276413345066e-04
-6.409811244384444606e-03
-4.693200026684857251e-02
-2.971356974478672197e-01
0.000000000000000000e+00
2.149396860869620673e-02
-6.679526419093562671e-03
-7.877903857655871311e-02
0.000000000000000000e+00
-7.989251516234938122e-02
9.659103343752691723e-03
1.579294348121130787e-01
0.000000000000000000e+00
0.000000000000000000e+00
-8.657481782314320820e-03
0.000000000000000000e+00
8.489571807925871613e-03
-1.171838431256119195e+00
0.000000000000000000e+00
4.439726615675371321e-04
-4.875741685499422259e-03
2.796744822035539951e-02
0.000000000000000000e+00
0.000000000000000000e+00
0.000000000000000000e+00
-2.331066314956389222e-03
-5.764636913126687245e-01
0.000000000000000000e+00
0.000000000000000000e+00
-9.214053972104094964e-03
2.657182973298467549e-03
0.000000000000000000e+00
0.000000000000000000e+00
-3.700569025143283231e-01
0.000000000000000000e+00
-2.000503973584116107e-02
0.000000000000000000e+00
0.000000000000000000e+00
1.321823259174581501e-03
-1.328756975122440467e-02
-1.576851216038331529e-03
0.000000000000000000e+00
0.000000000000000000e+00
0.000000000000000000e+00
8.503783272011172789e-02
-9.909418287530249309e-04
0.000000000000000000e+00
0.000000000000000000e+00
0.000000000000000000e+00
0.000000000000000000e+00
0.000000000000000000e+00
0.000000000000000000e+00
0.000000000000000000e+00
5.888905358547510553e-05
0.000000000000000000e+00
0.000000000000000000e+00
0.000000000000000000e+00
0.000000000000000000e+00
1.054372576336472800e-01
-7.026201248313772296e-02
0.000000000000000000e+00
0.000000000000000000e+00
0.000000000000000000e+00
0.000000000000000000e+00
0.000000000000000000e+00
0.000000000000000000e+00
-1.132099330499487062e-03
-1.070757761365818683e-01
0.000000000000000000e+00
0.000000000000000000e+00
0.000000000000000000e+00
0.000000000000000000e+00
0.000000000000000000e+00
0.000000000000000000e+00
0.000000000000000000e+00
0.000000000000000000e+00
0.000000000000000000e+00
0.000000000000000000e+00
0.000000000000000000e+00
-3.301518819118681985e-03
0.000000000000000000e+00
0.000000000000000000e+00
0.000000000000000000e+00
0.000000000000000000e+00
0.000000000000000000e+00
0.000000000000000000e+00
-1.808727042602100864e-06
0.000000000000000000e+00
1.297760080072289102e-01
-1.502407520516555427e-02
4.600277391466638388e-01
1.418056436879612699e-02
-1.647634351727291641e-02
-4.830898856115017990e-04
1.981951004327179439e-02
0.000000000000000000e+00
0.000000000000000000e+00
0.000000000000000000e+00
0.000000000000000000e+00
0.000000000000000000e+00
0.000000000000000000e+00
0.000000000000000000e+00
0.000000000000000000e+00
0.000000000000000000e+00
0.000000000000000000e+00
0.000000000000000000e+00
0.000000000000000000e+00
-4.762744861058672567e-04
0.000000000000000000e+00
0.000000000000000000e+00
3.731245480707311157e-02
0.000000000000000000e+00
5.982776964448491101e-03
-1.499182374190175748e+00
0.000000000000000000e+00
6.876196936784734204e-02
0.000000000000000000e+00
0.000000000000000000e+00
5.452441197333795717e-03
-4.369624418239330399e-02
0.000000000000000000e+00
0.000000000000000000e+00
0.000000000000000000e+00
5.014993777828818944e-02
-2.004448808251258168e-04
-5.151838397586443186e-02
-6.700636366137759266e-03
-1.353860160478644048e-02
1.699672459963677273e-01
-4.656404821807933608e-03
0.000000000000000000e+00
0.000000000000000000e+00
0.000000000000000000e+00
0.000000000000000000e+00
0.000000000000000000e+00
0.000000000000000000e+00
-2.230843732776301991e-01
-6.452193809168087213e-02
-9.995879651209314820e-02
2.916642428204307080e+00
-4.771508226321881201e-03
-1.076023317800702678e-02
0.000000000000000000e+00
1.196010077916196193e-02
1.225414786377728404e+01
-2.647303576084152066e-02
0.000000000000000000e+00
1.513352460880837413e-02
0.000000000000000000e+00
0.000000000000000000e+00
-1.506708245150864822e-01
5.972443058303815791e-03
-8.062922275565253052e-03
-8.172054048844201724e-02
-4.659930469036311154e-03
-1.097726953553519735e-01
8.616470442377247019e-03
0.000000000000000000e+00
0.000000000000000000e+00
0.000000000000000000e+00
0.000000000000000000e+00
0.000000000000000000e+00
-4.998160574904065732e-04
-4.600668551985674648e-03
-5.855973390915205634e-01
4.614621416719991709e-01
-1.131145980988210037e-01
2.592652681306372581e-02
9.439495328193688375e-03
3.178043468172912951e-03
1.805952657489190080e-02
1.034594301048798529e-02
0.000000000000000000e+00
0.000000000000000000e+00
-2.888202312215493346e-03
0.000000000000000000e+00
0.000000000000000000e+00
-6.330157340941530708e-02
-8.399594348562187951e-02
-6.102731045700973515e-03
0.000000000000000000e+00
9.304147217262288827e-02
6.466931220298327565e-02
0.000000000000000000e+00
-4.247757210236513536e-03
-1.199329938242532090e-01
-8.778986492102941464e-02
0.000000000000000000e+00
0.000000000000000000e+00
0.000000000000000000e+00
0.000000000000000000e+00
6.346000178084967858e-04
1.626335523663247074e-02
-5.262514857650901073e-03
6.219104734222918873e-02
7.683654615521039455e-01
5.471541910039835754e-02
1.348226180408898869e-03
1.995966605492847101e-01
6.732964675583100189e-02
2.939569165209989302e-02
2.189579036566162082e-02
1.800531539526225959e-03
1.205223024130652298e+00
2.692272963849354284e+01
2.856933646979012767e-03
-6.399975222760903928e-03
1.611516916230474857e-03
1.236154309172963345e-02
4.792395163702888039e-02
-3.341924849313018375e-03
-6.241198819084655541e-02
0.000000000000000000e+00
0.000000000000000000e+00
0.000000000000000000e+00
2.544376958866850433e-02
4.260710570093952099e-03
0.000000000000000000e+00
0.000000000000000000e+00
0.000000000000000000e+00
0.000000000000000000e+00
0.000000000000000000e+00
0.000000000000000000e+00
0.000000000000000000e+00
-1.399395053124582750e-03
0.000000000000000000e+00
8.303610909518104391e-03
9.570079147649465767e+00
2.350879797833670182e+00
8.512481345770484854e-04
-8.617421419758249101e-02
2.164694757164574435e-01
-5.392452998145866143e-03
-1.227197808207212059e-03
1.151378922832271945e+00
-9.982960308717677214e-03
-3.329731376925421094e-02
-4.215198366598837509e+01
-6.337219379653629137e-01
0.000000000000000000e+00
0.000000000000000000e+00
-8.473730420277207631e-03
3.519313493542017626e-03
0.000000000000000000e+00
0.000000000000000000e+00
0.000000000000000000e+00
0.000000000000000000e+00
0.000000000000000000e+00
0.000000000000000000e+00
9.777914246639346496e-03
0.000000000000000000e+00
0.000000000000000000e+00
0.000000000000000000e+00
0.000000000000000000e+00
-2.186895338792164902e-04
0.000000000000000000e+00
0.000000000000000000e+00
-3.217983709281688285e-03
4.762366593480726190e-02
9.756304078874478591e+00
5.189245709000818607e+00
2.437164627937322414e-01
0.000000000000000000e+00
0.000000000000000000e+00
-1.745035814909806984e-04
-3.581828279833229600e-02
3.544383916241808374e-02
0.000000000000000000e+00
-1.708508973318760393e+00
-5.176846785996647160e-01
0.000000000000000000e+00
1.774799485005519317e-01
2.424616917514864703e-02
-6.644378422421000352e-02
0.000000000000000000e+00
0.000000000000000000e+00
0.000000000000000000e+00
4.588701918211382405e-04
2.366906288856454599e-03
0.000000000000000000e+00
0.000000000000000000e+00
0.000000000000000000e+00
0.000000000000000000e+00
0.000000000000000000e+00
0.000000000000000000e+00
3.821744872852538585e-04
0.000000000000000000e+00
-7.924515444987473983e-03
1.463854790963298874e-03
-3.866402855543610989e-02
3.585179135732958766e-01
1.123851935795294604e-01
1.939181054688808581e-01
0.000000000000000000e+00
0.000000000000000000e+00
3.737174691604847401e-03
1.036566646298678904e-03
0.000000000000000000e+00
5.086406280296471016e-02
0.000000000000000000e+00
2.051195825123269117e-02
5.287158137927299578e-02
-2.765275898800712007e-03
1.792037815931130096e-01
-2.383670095127956516e-04
-3.709066298479342383e-03
0.000000000000000000e+00
-8.148040391660456294e-03
2.249105903458966521e-02
6.181868499374482823e-02
-5.540268474412717303e-01
0.000000000000000000e+00
0.000000000000000000e+00
0.000000000000000000e+00
-2.049257046210821789e-02
-9.934972604511661809e-02
7.328558189155018332e-02
1.356366755794837864e-03
5.933162527278888591e-03
-2.884930141823170355e-02
-4.483846632584918002e-01
6.697795801748804290e-02
2.486830657582535936e-03
3.313968131106774517e-02
-1.052569791188855131e-02
0.000000000000000000e+00
5.377262498732739843e-02
3.310381845099998055e-02
3.410303804872620581e-02
-3.280168863374091082e-01
-1.052602160670650447e-02
0.000000000000000000e+00
1.057376024579647494e-02
1.081688830300783603e-02
0.000000000000000000e+00
0.000000000000000000e+00
-3.928586198020453737e-03
1.234669597695827164e-03
0.000000000000000000e+00
0.000000000000000000e+00
2.570706914323385786e-02
-6.182634963101810762e-04
0.000000000000000000e+00
0.000000000000000000e+00
-5.491873541039909296e-02
-2.948313259856415874e-02
1.445446366370773950e-01
0.000000000000000000e+00
-1.005204756841954726e-02
0.000000000000000000e+00
0.000000000000000000e+00
4.460823787058448148e-02
9.025060615302109073e-04
0.000000000000000000e+00
1.670453512142318700e-02
9.057593567367908105e-02
0.000000000000000000e+00
-4.935944546289157625e-04
-2.095309313297914148e-03
0.000000000000000000e+00
0.000000000000000000e+00
1.554646156744743900e-02
1.599603113691323159e-02
0.000000000000000000e+00
-8.772918222883754336e-01
-1.202206493913180047e-01
0.000000000000000000e+00
8.986974223084748595e-03
-4.383679329114703593e-02
-2.065243061608349195e-01
-2.024236818267965976e-02
0.000000000000000000e+00
1.146284604774952358e-02
-3.634240788475619904e-02
-3.543350332399157476e-03
9.570971575612408078e-01
6.561176109799967682e-01
1.413740321089937868e-04
3.395018594128109638e-04
-1.266283538609326575e-02
1.559427221172858882e-02
0.000000000000000000e+00
4.180326329352320736e-01
0.000000000000000000e+00
-4.543814674057867218e-04
1.644198708448149464e-04
0.000000000000000000e+00
0.000000000000000000e+00
0.000000000000000000e+00
0.000000000000000000e+00
0.000000000000000000e+00
1.698572258601127594e-01
2.633086122958184713e-02
-2.364790895545605676e-02
-8.473514418075753186e-04
-6.539955158687209280e-03
-1.105305040944524683e-03
4.268927632087289245e-03
-3.810846970235694242e-02
1.791625176187010629e-02
-8.580499195804935919e-02
-1.080601121727138916e-02
4.465681066554528372e-02
6.120115573012184507e-02
-8.152214235656797536e-03
1.302639076705035259e-02
8.914796765307755888e-02
-4.610924186225993362e-04
0.000000000000000000e+00
0.000000000000000000e+00
0.000000000000000000e+00
1.501195037018718422e-04
2.625376163265536193e-04
0.000000000000000000e+00
0.000000000000000000e+00
0.000000000000000000e+00
0.000000000000000000e+00
-5.483755800668749458e+00
-2.882486730865919597e-02
6.713716226493031403e-02
1.757652305638770507e-01
-5.870088927341320095e-02
-5.474240500762046074e-02
-3.181478571144677470e-02
-2.257991566016885263e-02
-3.719007477120286898e-02
3.261066670739185547e-01
5.547668395049725615e-02
-8.958991399732688099e-02
1.899763191492482954e-03
4.101866073326091745e-03
0.000000000000000000e+00
0.000000000000000000e+00
-1.683372974035611102e-03
0.000000000000000000e+00
0.000000000000000000e+00
0.000000000000000000e+00
0.000000000000000000e+00
2.691606102065004225e-02
5.823799478188850659e-02
-7.011693005612569252e-01
-3.593215897162627570e+00
-6.704588154775628639e-02
0.000000000000000000e+00
0.000000000000000000e+00
-9.365621638073634916e-03
2.743504449843941410e-04
9.452527849583574780e-05
3.287135496334245570e-04
-5.271651104060444126e-01
2.485916936127324089e-02
0.000000000000000000e+00
0.000000000000000000e+00
0.000000000000000000e+00
0.000000000000000000e+00
6.009601637147438113e-01
-2.339074957051253800e-03
1.789484395147335205e-02
0.000000000000000000e+00
-2.471923199543161944e-03
-3.914776160672556737e-01
-1.722886198738731167e-01
0.000000000000000000e+00
0.000000000000000000e+00
-1.252196821243313669e-02
-7.519657699239932214e-01
-5.475193368339652533e-01
0.000000000000000000e+00
5.482087623078511079e-02
-2.234488336502778172e-02
3.593637353023075853e-01
-1.101548412953430936e-03
6.669457138641624386e-03
4.867338062549383254e-02
-8.588966859404575894e-04
-2.344809682740414680e-01
0.000000000000000000e+00
-1.520558000850240170e-02
-6.930167667539837595e+00
-1.032178726083297741e-02
-2.341760411992859642e-02
1.905241564762475553e-02
6.936605167994458173e-04
0.000000000000000000e+00
-1.089421641744532110e+01
3.112624921614413953e+00
7.672154574532565885e-01
0.000000000000000000e+00
1.477201642873889054e-01
8.225946847258916450e-02
0.000000000000000000e+00
0.000000000000000000e+00
-7.308117379179816277e-03
-2.644344882419381371e+00
2.199982973049711618e-02
6.666744539715949505e-03
2.952039534242027058e-02
2.771881495217599856e+00
6.465525125966072040e-02
-4.642536398306374920e-03
0.000000000000000000e+00
-4.828687493974981489e-03
0.000000000000000000e+00
5.406489036083969579e-02
-6.184571271968320599e-02
-2.524700526031717018e+00
9.887529711676296823e-03
-4.679708984711417313e-04
-2.171274764707590565e-01
0.000000000000000000e+00
-3.805800137337117528e-01
0.000000000000000000e+00
4.344486859637408833e-03
4.853647492054440592e-03
1.080838952816544352e-02
0.000000000000000000e+00
-5.426489657792186658e-03
-1.254616498819232184e+01
0.000000000000000000e+00
0.000000000000000000e+00
-1.379656821496387797e-01
2.945192232380415207e-02
-1.584289068253946775e-02
-2.346359364872564052e-02
1.424771903953571221e-02
0.000000000000000000e+00
-2.919874106121749663e-03
0.000000000000000000e+00
0.000000000000000000e+00
7.822594681702890740e-03
0.000000000000000000e+00
2.345067967597529446e-01
9.675332330672851977e-02
-7.491330060115203304e-02
4.189015684473775675e-02
-5.555949149807894519e-03
-1.630226086749712033e-01
-7.104116216599596356e-01
-5.444291020346886043e-03
0.000000000000000000e+00
2.810134448354992178e-03
-4.719629332638507809e-04
3.054538754497236608e-02
-4.545060115550672575e-02
-4.643452834919635785e-01
3.247880301433344052e-01
4.235814929800715833e-02
4.301291803667856017e-02
8.721189197390545600e-03
3.017440779008850882e-02
6.700108150302258592e-02
-1.826195128135444518e-02
0.000000000000000000e+00
0.000000000000000000e+00
3.581810015775191262e-05
3.729307773537941881e-03
-7.355410773213735169e-04
8.180457424388410184e-03
0.000000000000000000e+00
0.000000000000000000e+00
-4.053360771253609190e-02
2.948784004637279924e-02
-3.705790136097551063e-02
0.000000000000000000e+00
0.000000000000000000e+00
0.000000000000000000e+00
9.104099205420728230e-06
1.629672871749630143e-03
-5.238912014520055380e-03
1.115394050199297382e+01
2.087944777908179450e-02
3.220001394529600769e-01
-1.700489181055214565e-03
-7.742584446972382295e-02
1.993240409701732031e-03
1.393211751082888694e-03
0.000000000000000000e+00
2.301837135349317151e-02
0.000000000000000000e+00
6.014626410149801622e-03
0.000000000000000000e+00
2.145440232851417717e-01
-1.384101366736431799e-03
3.186259399332491433e-03
0.000000000000000000e+00
0.000000000000000000e+00
0.000000000000000000e+00
0.000000000000000000e+00
0.000000000000000000e+00
0.000000000000000000e+00
0.000000000000000000e+00
0.000000000000000000e+00
-1.816595900541695396e-02
1.640660744887750822e-02
2.564040914599315268e+00
-4.630403859523315319e-03
-4.365886202141692519e-03
1.910316252273337040e-02
0.000000000000000000e+00
0.000000000000000000e+00
-8.432299230468807971e-03
-6.893338056751217163e-03
5.877229790942600784e-02
-1.246925641564788998e-03
7.415844174803145478e-03
8.718989410839343354e-03
-1.158879321234237564e-01
3.745673016390163026e-04
0.000000000000000000e+00
0.000000000000000000e+00
0.000000000000000000e+00
0.000000000000000000e+00
0.000000000000000000e+00
0.000000000000000000e+00
0.000000000000000000e+00
0.000000000000000000e+00
0.000000000000000000e+00
0.000000000000000000e+00
0.000000000000000000e+00
1.508864033894278395e-02
3.090203317475037625e-01
-1.239228609519066673e-02
4.258702228677479162e+00
2.878704661003829955e-03
0.000000000000000000e+00
-4.414521103488676657e-01
-9.043986707872829749e-04
-3.798177690773380140e-03
0.000000000000000000e+00
-5.879401668992560379e-03
6.440630825139502524e-02
1.985825308285568344e-02
1.903338261925683825e-02
-9.489328642546215886e-03
-3.347360798238056129e-02
-3.306520881329735873e-02
1.832299793113156437e-03
1.012189087711818161e-02
0.000000000000000000e+00
3.607377584338162246e-01
3.632455220820065504e-03
0.000000000000000000e+00
2.982326341169655795e-02
2.258463073736350149e-02
0.000000000000000000e+00
0.000000000000000000e+00
0.000000000000000000e+00
-1.359218683529860028e-01
-7.782018192048378857e-02
3.055288901244029298e-01
4.843421000962055273e-02
-1.317982612891712389e-02
-9.120768387363074936e+00
-3.550902628700165764e-02
6.648633442064569993e-03
0.000000000000000000e+00
3.414293608445845285e-02
2.661272686410283139e-01
-1.496803162921700328e-03
-1.255775755616330390e-02
0.000000000000000000e+00
0.000000000000000000e+00
-2.183317775650581855e-02
-5.900526029655907279e-02
-6.483720639486044712e-01
5.489716444551970276e-02
0.000000000000000000e+00
0.000000000000000000e+00
-1.644772606799768926e-03
0.000000000000000000e+00
1.431911828947753790e-02
2.378478508602654085e+00
0.000000000000000000e+00
0.000000000000000000e+00
0.000000000000000000e+00
-2.705263407911276765e-04
-1.315985501886792960e-02
-1.030824176335809125e-02
-5.347260903533844478e-03
0.000000000000000000e+00
0.000000000000000000e+00
0.000000000000000000e+00
-9.685379375987086120e-03
0.000000000000000000e+00
-5.883457174376821586e-02
-2.608123794874018381e-02
-2.200554623270901001e-03
-3.417587519851157662e-02
0.000000000000000000e+00
0.000000000000000000e+00
0.000000000000000000e+00
0.000000000000000000e+00
2.931931727326066162e-04
0.000000000000000000e+00
9.894480717843923828e-03
7.516928787743554609e-04
-9.178552565191543389e-01
-1.494621393500679962e-01
4.681937000698401137e-03
0.000000000000000000e+00
7.196581796104748463e+00
-7.300678703611167275e-03
0.000000000000000000e+00
5.356109056646754518e-03
-6.054602427515092845e-03
-3.059317959406458343e+00
0.000000000000000000e+00
0.000000000000000000e+00
-4.763966228459803887e-02
1.329952644946372498e-01
1.010295518412965277e-02
0.000000000000000000e+00
-2.516013683215436170e-01
4.560707336296029868e-03
-6.629062637920909475e-03
0.000000000000000000e+00
0.000000000000000000e+00
0.000000000000000000e+00
0.000000000000000000e+00
-5.509319314336323832e-03
-1.022613404232866618e-02
0.000000000000000000e+00
7.412227350385743388e-03
0.000000000000000000e+00
2.583643357590665462e-02
1.760932741519741218e-01
0.000000000000000000e+00
0.000000000000000000e+00
0.000000000000000000e+00
7.808100286785805066e-05
1.381829261091925207e-02
3.245139710836473742e-04
2.308695800694192737e-02
-9.962115515592620540e-02
0.000000000000000000e+00
0.000000000000000000e+00
4.965219464508861813e-03
0.000000000000000000e+00
0.000000000000000000e+00
5.075094190756608906e-03
0.000000000000000000e+00
0.000000000000000000e+00
0.000000000000000000e+00
0.000000000000000000e+00
1.663057694225502780e-04
0.000000000000000000e+00
0.000000000000000000e+00
-1.562201208509861328e-02
0.000000000000000000e+00
-1.028472704030073182e+01
0.000000000000000000e+00
-2.159544602348469899e-01
-1.047074588586817748e-02
-1.926340677729993997e-02
-7.678369637626164534e-03
-7.033970989686182396e-01
-5.075903652062735069e-03
-7.600459794891226140e-03
-2.502243529579591900e-03
0.000000000000000000e+00
3.729714401534271404e-03
-2.330673285450121646e-02
0.000000000000000000e+00
1.429916231118199543e-01
0.000000000000000000e+00
-2.257973564133780413e-03
0.000000000000000000e+00
0.000000000000000000e+00
-1.197780008409014005e-03
-1.722350306589681690e-03
0.000000000000000000e+00
-5.168818584284310541e-03
0.000000000000000000e+00
0.000000000000000000e+00
0.000000000000000000e+00
-1.576042917504924534e-02
0.000000000000000000e+00
5.282384442883641257e-02
-6.169848091923983702e-02
-4.093270773966171561e+00
0.000000000000000000e+00
0.000000000000000000e+00
-2.323075377454473459e-03
-3.995001529884603109e-01
0.000000000000000000e+00
0.000000000000000000e+00
0.000000000000000000e+00
-9.778904015695133456e-02
-4.422439021668469333e-03
-1.314646150361288846e-01
0.000000000000000000e+00
-1.807318403140316951e-03
0.000000000000000000e+00
0.000000000000000000e+00
0.000000000000000000e+00
-2.200415706428572246e-02
-2.193025661974697203e-03
0.000000000000000000e+00
-1.233841931866920538e-02
0.000000000000000000e+00
0.000000000000000000e+00
2.972422816695735603e-01
0.000000000000000000e+00
-2.208908650845701344e-02
2.040996559597499198e-03
0.000000000000000000e+00
0.000000000000000000e+00
9.478916558794562100e-05
0.000000000000000000e+00
0.000000000000000000e+00
0.000000000000000000e+00
4.193922238158471344e-03
0.000000000000000000e+00
0.000000000000000000e+00
0.000000000000000000e+00
7.063711177396217802e-04
-3.459995194143089732e-04
0.000000000000000000e+00
0.000000000000000000e+00
0.000000000000000000e+00
8.256055945379747133e-04
4.417661726927265414e-02
0.000000000000000000e+00
0.000000000000000000e+00
2.781623988025919755e-03
0.000000000000000000e+00
0.000000000000000000e+00
0.000000000000000000e+00
4.770576360544859229e-02
0.000000000000000000e+00
0.000000000000000000e+00
-9.071795733212531174e-03
0.000000000000000000e+00
0.000000000000000000e+00
2.534215981498075775e-03
0.000000000000000000e+00
0.000000000000000000e+00
0.000000000000000000e+00
0.000000000000000000e+00
2.030449768113771949e-03
0.000000000000000000e+00
0.000000000000000000e+00
0.000000000000000000e+00
0.000000000000000000e+00
0.000000000000000000e+00
0.000000000000000000e+00
0.000000000000000000e+00
2.076785727284166660e-02
0.000000000000000000e+00
-1.911385060659221563e-02
0.000000000000000000e+00
0.000000000000000000e+00
-2.949983841086088049e-02
-5.778575945560684296e-02
4.264883851994048791e-02
-1.074453573212362512e-03
0.000000000000000000e+00
0.000000000000000000e+00
0.000000000000000000e+00
-1.536311692706293641e-02
0.000000000000000000e+00
0.000000000000000000e+00
0.000000000000000000e+00
0.000000000000000000e+00
0.000000000000000000e+00
4.594993955746173864e-02
3.272126121884114114e-04
0.000000000000000000e+00
0.000000000000000000e+00
0.000000000000000000e+00
0.000000000000000000e+00
0.000000000000000000e+00
0.000000000000000000e+00
0.000000000000000000e+00
0.000000000000000000e+00
1.302830775629584131e-02
-1.582138548222850440e-03
2.845007523967801530e-02
-2.843463126810033895e-02
0.000000000000000000e+00
3.069891469205900808e-02
0.000000000000000000e+00
0.000000000000000000e+00
0.000000000000000000e+00
0.000000000000000000e+00
0.000000000000000000e+00
0.000000000000000000e+00
0.000000000000000000e+00
0.000000000000000000e+00
0.000000000000000000e+00
0.000000000000000000e+00
0.000000000000000000e+00
-3.958385789598542481e-02
0.000000000000000000e+00
-1.328275623541844749e-03
0.000000000000000000e+00
4.803190832545792439e-03
-5.824062946521640916e-01
0.000000000000000000e+00
0.000000000000000000e+00
0.000000000000000000e+00
0.000000000000000000e+00
0.000000000000000000e+00
0.000000000000000000e+00
0.000000000000000000e+00
-1.849796308159068828e-02
0.000000000000000000e+00
-4.709320990989001275e-03
-2.090767229186777081e-03
-7.684583036896375317e-04
6.523807024478445182e-02
0.000000000000000000e+00
0.000000000000000000e+00
0.000000000000000000e+00
0.000000000000000000e+00
0.000000000000000000e+00
0.000000000000000000e+00
0.000000000000000000e+00
6.530705448190096294e-04
2.518941035326722686e-02
0.000000000000000000e+00
0.000000000000000000e+00
0.000000000000000000e+00
0.000000000000000000e+00
1.565888320240614462e+01
2.804489922849853420e-02
0.000000000000000000e+00
0.000000000000000000e+00
0.000000000000000000e+00
0.000000000000000000e+00
0.000000000000000000e+00
1.632851338560850629e-02
-8.507370923244245912e-05
-6.069451870376068757e-05
0.000000000000000000e+00
-6.861371905105226668e-03
-7.856602392745948293e-02
0.000000000000000000e+00
0.000000000000000000e+00
0.000000000000000000e+00
0.000000000000000000e+00
0.000000000000000000e+00
2.347248191012605428e-02
-2.060759191947621541e-03
0.000000000000000000e+00
-1.080161105275515010e-02
-6.083657344912203092e-03
0.000000000000000000e+00
2.665231526635949803e-03
-1.123874227561266065e-02
0.000000000000000000e+00
0.000000000000000000e+00
2.553554716434517147e+00
8.275462050557440968e-03
0.000000000000000000e+00
0.000000000000000000e+00
0.000000000000000000e+00
-4.559184230562465800e-03
-2.345966595254483922e-01
0.000000000000000000e+00
-1.636655785598291057e-01
2.163321326818726242e-02
-8.497784955804657536e-02
0.000000000000000000e+00
-3.173094461204344790e-04
8.438808808558767582e-03
0.000000000000000000e+00
0.000000000000000000e+00
0.000000000000000000e+00
1.888856910569185980e-03
-2.686243677012623097e-03
-1.064484629383882427e-02
0.000000000000000000e+00
3.861064598787199847e-02
1.806960218199233845e-02
-1.293199016015244987e-03
-5.121847217910805578e-02
-3.647282283752291410e-02
2.108535353942057322e-01
-5.430300356118186733e-02
9.265529353776794097e-03
1.955550903361209791e-02
0.000000000000000000e+00
-7.384808743387684393e-03
0.000000000000000000e+00
-6.121681784993902690e-03
-1.935689507932234488e-01
-3.093815414779823789e-02
-6.009531416012456329e-02
8.483573472972921574e-04
0.000000000000000000e+00
0.000000000000000000e+00
0.000000000000000000e+00
0.000000000000000000e+00
-4.728588486623820641e-02
0.000000000000000000e+00
0.000000000000000000e+00
8.465387423257721144e-02
3.802060003030963697e-01
0.000000000000000000e+00
1.858287620965673112e-02
0.000000000000000000e+00
0.000000000000000000e+00
7.440114317430219337e+00
-8.086075340341683515e-03
-6.212856546287956472e-02
-2.024616957286210980e-02
-3.241990556942777046e-01
-7.979236073991885503e-02
-1.943405138121468562e-02
0.000000000000000000e+00
1.503733503659581208e-02
5.546037646007506705e-02
0.000000000000000000e+00
0.000000000000000000e+00
0.000000000000000000e+00
1.726282766458999973e-01
7.090656230572322388e-03
0.000000000000000000e+00
0.000000000000000000e+00
0.000000000000000000e+00
0.000000000000000000e+00
0.000000000000000000e+00
0.000000000000000000e+00
0.000000000000000000e+00
0.000000000000000000e+00
0.000000000000000000e+00
1.339387328154877446e-02
-1.276656781214610681e-02
-5.066661923411285018e-02
-5.453610740192028905e-02
0.000000000000000000e+00
0.000000000000000000e+00
-2.365329231509849875e-02
-5.095124033748926751e-03
-6.814041730171110922e-03
-1.643550495927980082e-01
0.000000000000000000e+00
0.000000000000000000e+00
0.000000000000000000e+00
0.000000000000000000e+00
-4.072306156027585312e-03
9.835130261871603483e-03
-5.707603953056376855e-02
-1.354276338275157629e-02
4.804815797242449615e-02
0.000000000000000000e+00
0.000000000000000000e+00
1.277230101426198895e-03
0.000000000000000000e+00
0.000000000000000000e+00
0.000000000000000000e+00
0.000000000000000000e+00
0.000000000000000000e+00
4.491137616354362594e-03
0.000000000000000000e+00
7.901044692069444583e-03
0.000000000000000000e+00
0.000000000000000000e+00
-4.995853877885379490e-01
-1.012238561863538708e-03
0.000000000000000000e+00
-3.630938954667533441e-02
-9.689846237880314628e-02
-6.430021560809987165e-03
0.000000000000000000e+00
-5.223252997580238310e-03
-3.983838224819077345e-01
-5.336508897439383725e-01
7.268647672263300191e-03
0.000000000000000000e+00
-8.964103716648481185e-03
5.866337299762271543e-03
-2.493217460947792785e-03
0.000000000000000000e+00
-2.193393204116203185e-03
1.486449066076790670e-03
0.000000000000000000e+00
0.000000000000000000e+00
-8.203635410865717237e-02
9.059442585242619139e-03
0.000000000000000000e+00
5.519238003566400742e-03
0.000000000000000000e+00
0.000000000000000000e+00
1.571633926728075933e-02
-1.120436290730042056e-01
-1.395350946234332444e-02
0.000000000000000000e+00
1.745576661968941540e-02
0.000000000000000000e+00
-5.396496202844733303e-02
-2.683897369356750211e-05
-2.488217678638749222e-02
0.000000000000000000e+00
0.000000000000000000e+00
-1.312154542880487607e-01
-5.928554505014832499e-01
-4.570466759953779184e-03
0.000000000000000000e+00
0.000000000000000000e+00
5.947030969124190297e-02
7.403034250134826744e-02
-9.251503748938960658e-03
-7.638893842235643106e-03
1.200817365376475633e-02
1.013783891217566457e-02
-1.701380176438685443e-01
-3.064954315334245637e-03
-3.176242034989917862e-02
0.000000000000000000e+00
0.000000000000000000e+00
-1.212864651286431616e-01
5.306213478641352843e-04
1.512013408160966521e-01
0.000000000000000000e+00
0.000000000000000000e+00
-2.434885077622265387e-02
3.523217845882054434e-04
4.849670275901642180e-02
0.000000000000000000e+00
0.000000000000000000e+00
0.000000000000000000e+00
0.000000000000000000e+00
0.000000000000000000e+00
0.000000000000000000e+00
-1.037745552753435732e+02
-2.911896363032510315e+00
0.000000000000000000e+00
0.000000000000000000e+00
0.000000000000000000e+00
-3.276950341629384332e-03
-8.316512825549997601e-01
0.000000000000000000e+00
0.000000000000000000e+00
9.281561180429134111e-04
-2.270308255959800896e-04
-2.843411900461096514e-02
-4.943986570269467862e+00
0.000000000000000000e+00
-9.539363355748059839e-03
2.743347214586470961e-02
5.486579308556810419e-02
-1.629809048374029207e-02
1.370222870273473878e-03
6.326304312330801594e-01
-3.629995941368608481e+00
0.000000000000000000e+00
-6.954696953455971088e-03
4.199935999276560583e-02
0.000000000000000000e+00
0.000000000000000000e+00
0.000000000000000000e+00
0.000000000000000000e+00
1.093743979223884832e-01
-1.827736736442878152e-02
0.000000000000000000e+00
0.000000000000000000e+00
0.000000000000000000e+00
0.000000000000000000e+00
0.000000000000000000e+00
0.000000000000000000e+00
-1.742591012321950683e-03
-8.922731140826009599e-02
-2.790604767761045713e-01
-2.031318261520094481e-03
2.963530567237885379e-03
0.000000000000000000e+00
-4.777036976278088432e+00
9.111474179142413365e-02
3.813003283314339575e-03
-5.222866410629617429e-02
6.404327629596140437e-03
-9.935704915753224009e-01
1.773755666821278873e-04
1.577108225756735371e-01
0.000000000000000000e+00
2.992763541689020396e-02
2.679849328164211064e-01
2.716485593206882741e-03
-1.628880834226710886e-02
-3.929188915733150891e-03
0.000000000000000000e+00
0.000000000000000000e+00
1.048210560090245685e-01
0.000000000000000000e+00
-1.484128931679485480e-02
-4.021499672553108251e-02
7.989908122602756846e-01
0.000000000000000000e+00
-2.875199182956258981e-02
3.378201986128521236e-03
0.000000000000000000e+00
6.547596670485010539e-04
-1.306251769882444498e-03
0.000000000000000000e+00
9.837454178022514081e-04
4.046013776139183449e-01
1.952356342426512903e+00
-7.426921867522767506e+00
-2.327708495719978121e-01
4.248145873561259833e-01
-6.037630661371190532e-02
-2.200271660416074582e+01
-4.229316361492092113e+00
2.224386131967619473e-01
-3.006752171866179831e-03
1.764935397743426504e-02
2.125844063055216428e-03
-4.610149811492452246e-03
2.999113361440882558e-02
-1.569373187491890712e-02
1.441221417554482478e-02
-4.944859841291433966e+00
9.520703994694674002e-03
-9.120407187268116458e-03
-2.362417536228569176e-02
6.548525273719234046e-04
-2.698423243083356102e-03
3.468405519441019745e-04
1.639438099447224767e-02
0.000000000000000000e+00
-1.753709894100356770e-01
2.189133686757962951e-04
2.730551471655797910e-02
0.000000000000000000e+00
0.000000000000000000e+00
0.000000000000000000e+00
0.000000000000000000e+00
1.111237927032568251e+01
0.000000000000000000e+00
0.000000000000000000e+00
1.179051696866330150e-02
-5.845229743170922143e-01
-1.271293345547420017e+00
1.285567263185464215e+00
-5.399907787256182090e-02
-2.296013713981397697e-01
5.868994636220331573e-01
1.042800048592852358e-01
0.000000000000000000e+00
2.820577202259930694e-01
3.801603123911692084e-01
-1.334356468215890795e-02
0.000000000000000000e+00
1.863815881737007412e-03
-1.189096513406744365e-03
1.239485040336081034e-01
-1.033854572072529843e+00
-1.682081231949382527e+00
0.000000000000000000e+00
3.772223126670491700e-02
-4.365753075630571939e-02
-2.055207817197174380e-01
4.329447555077361454e-01
-2.222164612343073553e-01
0.000000000000000000e+00
-3.120313230482137448e-02
2.260999856376505468e-02
0.000000000000000000e+00
0.000000000000000000e+00
0.000000000000000000e+00
-3.277806016599627448e+00
-2.685653063237482541e-01
6.059563613518279546e-01
-1.082288568524794048e-01
2.108009561679241584e-01
0.000000000000000000e+00
0.000000000000000000e+00
-2.530643910726094514e+00
4.026807379426555755e-02
6.149425675140480357e-02
-5.110749901509151205e-02
2.763466837741509747e-04
-1.423967246539551085e-03
-2.533110157123689369e-03
-2.151686220954975304e-01
0.000000000000000000e+00
-1.022264134825697918e-01
-1.008161928843514521e-01
-3.645682046917735238e-03
-7.188223392167483738e-02
1.248604562153985721e-02
-5.384848755111507623e-01
-3.669389539601666250e-01
8.957263752075961261e-01
8.217294333134979659e-03
2.320741554195008757e-02
1.167495549506488983e-01
2.390103613142639458e-02
-7.163495682671656810e-03
8.191826018582581970e-01
-1.104064555952968124e-01
0.000000000000000000e+00
0.000000000000000000e+00
1.720566144864523472e-01
-1.225855890444651930e+00
-4.773109083557945942e-01
-3.980101783138100302e+01
-1.914432070985796434e-03
7.290384950720971702e+00
0.000000000000000000e+00
-1.012136685943722525e-01
0.000000000000000000e+00
1.282926030582031253e-03
-4.903586186167770226e-05
0.000000000000000000e+00
1.660249200796035107e-02
-1.624893401259150383e-02
-7.337024648127146611e-05
-2.856322123537689741e-04
2.741442533861245673e-02
-1.271942961516361326e-01
-1.562498232813034349e+00
6.298079470225129151e-02
0.000000000000000000e+00
5.159485635277568649e-01
8.371276022014090268e-02
6.786004363611050638e-02
-5.452306440386797855e-03
-9.051546346831359363e-03
-7.508248553892636623e-02
-2.621308726493567359e-02
-6.948872494258530319e-02
6.920978640446372523e-03
2.151690282874954452e+00
-4.502737482176901729e+00
-2.639863018266004890e-01
-1.188364597407543677e+01
-6.403177697192727336e-02
0.000000000000000000e+00
-1.751358757616593709e-01
4.066075359328269988e-03
-1.162350691916015297e-03
0.000000000000000000e+00
2.354294722181084730e-03
-1.735079543395555390e+01
-1.077155098206834458e-02
-1.376388741236744540e-01
0.000000000000000000e+00
-1.398593597059540061e-01
2.095076313439952565e-05
-2.153412200086126521e-02
-2.106931100423478642e-02
1.919999019766330944e-02
0.000000000000000000e+00
-1.942407307072438982e+01
-1.221907546373492970e-01
-4.024413559810121055e-01
2.227955501267800918e-03
0.000000000000000000e+00
-2.448651413931656612e-02
1.473316442716799193e-02
-4.344535351071379670e-02
-6.788839222431518328e-02
-3.063495555347630073e-01
-7.351167660148621996e-03
0.000000000000000000e+00
-8.129277970724427260e-02
1.027225345726653569e-02
0.000000000000000000e+00
2.277923757717919932e-03
-1.604684876061292176e+00
1.950044118959124925e-02
0.000000000000000000e+00
0.000000000000000000e+00
-2.556573361067761008e-01
-1.254026021385819603e-02
0.000000000000000000e+00
-6.717602809355717852e+00
-5.653756106528279052e-04
-5.763232681649358424e-01
0.000000000000000000e+00
4.731457212799558901e-03
-9.155163969826984882e+00
1.538284374467707022e-02
-1.107318749312581792e-02
8.793142198470645099e-02
-2.013048478938649910e-01
-5.295679319263670720e-02
9.995519288270393599e-02
2.237218713810622539e-01
-1.168532096648798035e-01
-1.557897353421483153e-02
-6.875621830140399293e-03
0.000000000000000000e+00
0.000000000000000000e+00
0.000000000000000000e+00
0.000000000000000000e+00
6.476107335210688244e-04
5.685122167382502742e-03
-5.444503364172502691e-01
-3.449688991122633830e+00
3.656536199349298688e-02
-6.565455635546858515e-01
-1.020040493695086384e-02
-5.933091785284937136e-02
-4.793018719503271650e-03
1.732035211843045014e-02
0.000000000000000000e+00
-3.818980692822195044e-03
0.000000000000000000e+00
0.000000000000000000e+00
-7.885328657894762061e-02
-5.696502662892585084e-02
-2.157106472600750224e-01
-1.759286123245794309e-01
8.553848717701699467e-03
8.640360255294096681e-02
0.000000000000000000e+00
2.493757613566081499e+00
0.000000000000000000e+00
0.000000000000000000e+00
4.468607986506045737e-02
0.000000000000000000e+00
1.937939298322594317e-01
-8.894479200820913645e-02
-1.112235015363577828e+00
1.007530588700015356e-03
-7.052842335348293856e-01
0.000000000000000000e+00
-7.934561489368476828e-01
-5.870297780257844877e-01
0.000000000000000000e+00
0.000000000000000000e+00
0.000000000000000000e+00
9.950515260174127088e-03
2.170458472808943495e-01
7.301011269284736482e-03
0.000000000000000000e+00
0.000000000000000000e+00
-2.517377962915041262e-02
7.591808997707829784e-03
-1.904650237531559376e-01
-4.087478051441600924e-01
3.792705567590572147e-02
2.078566400751716836e-01
2.356872145736084612e+00
0.000000000000000000e+00
-2.898995499674296428e-03
5.395922246118935561e+00
4.768825557055467700e-04
-2.611429810564889695e-02
0.000000000000000000e+00
0.000000000000000000e+00
0.000000000000000000e+00
-2.481620352428454829e-02
-1.892310031997681108e+00
1.153467700583210576e-02
8.625382577316906274e-02
8.099097009767095012e-02
0.000000000000000000e+00
0.000000000000000000e+00
0.000000000000000000e+00
-5.564479126277920712e-02
4.389856204291479186e-02
3.070255964296180612e-02
2.850628016569518560e-04
9.333244657525253951e-03
-2.470588168726323630e+01
-6.019502370121105478e-02
-6.668044408615173002e-02
-3.288371276861598580e-02
0.000000000000000000e+00
1.576518954519192176e-02
8.838310083007385951e-03
5.092751081388509175e-03
5.671542238078846471e-02
0.000000000000000000e+00
9.463647912210423896e-03
9.273780774198123189e-02
2.444418039682192401e-01
1.319375629455607490e-02
-3.424410810728757693e-03
6.208213159254048069e-03
-2.213191567189648837e-02
-2.013533529777599210e-02
0.000000000000000000e+00
0.000000000000000000e+00
-7.050756592186485650e-03
0.000000000000000000e+00
-2.106172615370114146e-03
3.341720943851797188e+00
0.000000000000000000e+00
3.407691323648333846e-03
6.886924707087044295e-03
0.000000000000000000e+00
1.305822834678236569e-03
4.786068482060417545e-02
-2.772452605589312974e-02
-1.253043497414645796e-02
-2.306439310998430539e-02
-1.136188768436836513e-02
6.054712164746059097e-03
9.076730202118544755e-01
0.000000000000000000e+00
0.000000000000000000e+00
-6.859140335695430857e-02
-4.936305210001159030e-03
-1.375286626846523030e-01
3.258811385550704209e-02
1.951755927493545317e-02
1.632230944661328467e-02
0.000000000000000000e+00
4.193566855851532660e-02
-1.621882240663422015e-02
-3.496932605669325511e+01
-7.514008382218352426e-03
-2.023363095077447549e-02
5.397203761641206077e-02
0.000000000000000000e+00
0.000000000000000000e+00
-2.464870455568168861e-02
-2.909549507444415904e-03
6.180366811634850910e-01
3.986345887509744834e+00
-3.983086125650053886e-04
1.397192568098692966e-02
6.158593548977461113e-03
7.314915902263547931e-01
-8.020893438867504610e-02
-3.152088290556034900e-02
5.181651104056645904e-03
0.000000000000000000e+00
0.000000000000000000e+00
0.000000000000000000e+00
6.191754638080979034e-02
0.000000000000000000e+00
0.000000000000000000e+00
0.000000000000000000e+00
-7.863290960442179123e-02
0.000000000000000000e+00
0.000000000000000000e+00
7.158995661829288884e-03
3.189327717003870299e-02
9.839227187578933331e-02
6.349970090433975332e-03
1.542479456670086020e-02
-2.558010803489604257e+01
-1.207323677185641664e+01
-9.594398283483462908e-03
-1.945320460767048232e-01
-2.347963487300822050e-01
-3.933641717616533778e-02
2.708319638114265598e-02
6.211430920069831510e-03
0.000000000000000000e+00
3.678107924868423070e-03
-1.787978499842236141e-02
1.605034436235185602e+00
-2.285718268481729855e-03
7.329739498507932549e-02
-2.019423554049759150e-04
0.000000000000000000e+00
0.000000000000000000e+00
0.000000000000000000e+00
3.509742197372835160e-02
-1.452733710362472293e-03
0.000000000000000000e+00
0.000000000000000000e+00
0.000000000000000000e+00
0.000000000000000000e+00
-5.819741001958481097e-02
-1.815422210246716780e-02
2.432246531914331045e-02
3.997430922956604973e-03
5.568180110456974127e-03
4.356528682536316144e-02
-3.285823334009373847e-02
-1.097220466052228546e-02
-6.397753694102327644e-03
7.996788074799310309e-01
0.000000000000000000e+00
1.272780730181345965e-01
0.000000000000000000e+00
-7.016458017023908915e-03
0.000000000000000000e+00
-3.982767706748646663e-02
0.000000000000000000e+00
-3.289272093593778763e-03
-6.951505868033201925e-03
-4.787252312086098111e-02
6.547990450901972721e-04
0.000000000000000000e+00
0.000000000000000000e+00
5.304626609932652130e-04
0.000000000000000000e+00
0.000000000000000000e+00
7.602780372525146861e-05
0.000000000000000000e+00
0.000000000000000000e+00
0.000000000000000000e+00
6.227562396833961379e-03
-4.562870828162921555e-01
-9.768211057162667563e-03
0.000000000000000000e+00
5.791423675930226257e-03
0.000000000000000000e+00
-1.380266534123283928e-02
2.060684977561941787e-05
4.799602341554943391e-02
0.000000000000000000e+00
-2.510707397175787527e-03
0.000000000000000000e+00
-3.924453197569436995e-03
-1.335198121531185333e-01
-9.566944287685119619e+00
-1.054657359333266431e+00
0.000000000000000000e+00
-1.566426587105777292e-03
6.243595612762780625e-04
7.272212089046904519e-03
3.344616456070526045e-02
-3.886583300747855317e-03
4.589393561574343083e-01
6.047912381162230677e-02
5.915453606911790993e-03
0.000000000000000000e+00
0.000000000000000000e+00
-9.219969671332081673e-02
2.707564954237892674e-03
-3.232890996169412133e-03
0.000000000000000000e+00
1.026001601301423510e-01
3.053979878300235040e-02
-1.334351751707422984e-01
0.000000000000000000e+00
0.000000000000000000e+00
-1.426081290519405241e-03
3.967723334738975510e-03
2.674126844364307365e-01
0.000000000000000000e+00
0.000000000000000000e+00
-1.932682528656121286e-03
-1.719126219108144810e-02
5.231033409205585460e-01
2.916992223737848583e-02
8.871228360534560986e-02
0.000000000000000000e+00
4.187309839402160172e-01
-1.057285136379320853e-03
0.000000000000000000e+00
0.000000000000000000e+00
0.000000000000000000e+00
-3.178323788611867474e-03
1.987309755164405872e-03
0.000000000000000000e+00
-4.303695773787805656e+00
-1.908522304392279434e+00
0.000000000000000000e+00
-2.137456843220884029e+00
9.280564428178121605e-02
4.019520488656106588e-02
1.335640184475064135e-02
0.000000000000000000e+00
1.476107075707126966e-02
9.853291861234129101e+01
0.000000000000000000e+00
6.965587732997122715e-03
0.000000000000000000e+00
6.314303561192970843e-03
-1.881182334561755376e-01
2.998521555823881002e+01
9.636431669514704978e+00
0.000000000000000000e+00
0.000000000000000000e+00
0.000000000000000000e+00
1.336875324748043048e-01
0.000000000000000000e+00
1.098652882953075893e-02
-3.767712164424651816e-02
0.000000000000000000e+00
-3.430846946643579393e-02
-2.412997790788157237e-02
0.000000000000000000e+00
-6.201266403455378551e-02
3.078237081396707070e-02
0.000000000000000000e+00
-1.848027790217923565e-03
6.221694224875402163e-02
-1.637625217071486412e-03
-6.033583303993477658e-04
3.905251062740294071e-02
0.000000000000000000e+00
-2.214107889355156414e-02
0.000000000000000000e+00
0.000000000000000000e+00
0.000000000000000000e+00
3.314123924148924035e-03
-2.085302108160422274e-01
0.000000000000000000e+00
-3.340145288270033319e-01
0.000000000000000000e+00
9.718701397280106328e-04
0.000000000000000000e+00
3.629514662164707445e-02
-1.733794825997132805e-02
-2.347505456907561516e-02
-5.472050247922743103e-03
5.469169845463481630e-03
2.028398761203851575e-04
0.000000000000000000e+00
2.299667150395904528e-03
2.403323265913047402e-03
0.000000000000000000e+00
0.000000000000000000e+00
0.000000000000000000e+00
0.000000000000000000e+00
0.000000000000000000e+00
-3.149778874016433139e-02
-4.818829665449094191e-01
1.031007873918432693e+01
5.890025704394753585e-03
1.241144455646290001e-01
0.000000000000000000e+00
-5.415511976178002257e-02
5.472805192020023871e-03
0.000000000000000000e+00
-1.119497748307852203e-01
-4.474242043347374971e-03
0.000000000000000000e+00
0.000000000000000000e+00
2.006734315106525218e-04
0.000000000000000000e+00
-8.324248677134427066e-02
-1.424381775318291354e-01
-2.831990093213423640e-02
3.039209696656067217e-02
-8.399820452537685611e+00
0.000000000000000000e+00
-1.546960817371398431e-03
0.000000000000000000e+00
8.651410264709169518e-03
-4.520882227231169150e-03
0.000000000000000000e+00
0.000000000000000000e+00
0.000000000000000000e+00
1.132592997747765284e-01
-2.786099115988954211e-01
0.000000000000000000e+00
0.000000000000000000e+00
0.000000000000000000e+00
0.000000000000000000e+00
7.175042826399886421e-03
2.864868549347115339e-04
0.000000000000000000e+00
-1.082681663570710801e-02
2.698827594199053673e-03
0.000000000000000000e+00
0.000000000000000000e+00
0.000000000000000000e+00
-1.231660564289540488e-02
0.000000000000000000e+00
-4.476158064134369520e-04
-3.190636414823767586e-01
-9.785367810781732345e+00
0.000000000000000000e+00
0.000000000000000000e+00
-5.054935315304646959e-03
0.000000000000000000e+00
8.223427401579134696e-03
-2.047997774737323959e-03
-8.070864387395008943e-03
0.000000000000000000e+00
0.000000000000000000e+00
0.000000000000000000e+00
0.000000000000000000e+00
3.103542414664266832e-03
0.000000000000000000e+00
-1.774632724029561182e-01
-9.873021649807473942e-04
0.000000000000000000e+00
0.000000000000000000e+00
0.000000000000000000e+00
-7.022621100593894918e-04
0.000000000000000000e+00
0.000000000000000000e+00
0.000000000000000000e+00
-1.069210316752340617e+01
-2.477468462278526796e-04
0.000000000000000000e+00
-6.342059538263152517e-03
3.745225114834875579e-02
2.398842441237278040e-03
-2.869393917149244688e-02
-5.249690433830275088e-03
0.000000000000000000e+00
0.000000000000000000e+00
0.000000000000000000e+00
0.000000000000000000e+00
0.000000000000000000e+00
1.474772161625348757e-02
-3.104700348599102183e-02
-6.154261832848537811e-02
-5.569466187810094560e-02
0.000000000000000000e+00
0.000000000000000000e+00
0.000000000000000000e+00
-2.517141181707498176e-02
0.000000000000000000e+00
0.000000000000000000e+00
0.000000000000000000e+00
0.000000000000000000e+00
0.000000000000000000e+00
0.000000000000000000e+00
8.966655902402979189e-03
-2.539787149701396851e-01
3.169392305707906948e-02
0.000000000000000000e+00
0.000000000000000000e+00
6.827942496227922507e-03
0.000000000000000000e+00
0.000000000000000000e+00
1.755775608590876913e-03
1.613899176316318379e-02
0.000000000000000000e+00
0.000000000000000000e+00
0.000000000000000000e+00
0.000000000000000000e+00
0.000000000000000000e+00
0.000000000000000000e+00
0.000000000000000000e+00
0.000000000000000000e+00
0.000000000000000000e+00
0.000000000000000000e+00
-4.337065914149757818e-03
-1.534736326395015268e-02
3.350233010874527069e-04
2.352377019745893077e-04
0.000000000000000000e+00
-1.476475565686849022e-04
0.000000000000000000e+00
0.000000000000000000e+00
-3.621441573899506893e-03
-9.264356040447732643e-02
2.413676672770669485e-03
0.000000000000000000e+00
0.000000000000000000e+00
0.000000000000000000e+00
0.000000000000000000e+00
0.000000000000000000e+00
-2.679184853378207415e-02
2.160200203813723158e-02
1.296555291247579629e-02
-2.626374873522423214e-02
-2.381958417988218335e-02
0.000000000000000000e+00
0.000000000000000000e+00
-1.103988764966325718e-02
1.447912889090563742e-03
0.000000000000000000e+00
0.000000000000000000e+00
0.000000000000000000e+00
0.000000000000000000e+00
-8.920093429388769798e-04
-1.143071326926263682e-02
-3.517576571767164206e-02
-1.072618418261538954e-02
2.548588921947762993e-03
0.000000000000000000e+00
0.000000000000000000e+00
0.000000000000000000e+00
5.045943702235950595e-02
1.179220611666663247e-02
0.000000000000000000e+00
0.000000000000000000e+00
0.000000000000000000e+00
9.248248602273425722e-04
0.000000000000000000e+00
-3.236709070670610363e-03
1.211263594161800655e-01
0.000000000000000000e+00
-1.450886297762177535e-01
1.861153891786909449e-03
3.876056829083779576e+01
0.000000000000000000e+00
0.000000000000000000e+00
2.697764128541730796e-02
-2.874477106808231812e-03
1.297759013609304200e-02
3.573002615406803244e-03
-1.137344015866187108e-01
-3.992058509038661634e-02
0.000000000000000000e+00
1.904978219886940849e+01
1.615083029392028191e-02
-3.118256438892719196e-02
1.725195022330706582e-02
-1.780823213643933922e-01
0.000000000000000000e+00
0.000000000000000000e+00
2.395232511759753241e-03
0.000000000000000000e+00
0.000000000000000000e+00
0.000000000000000000e+00
1.336785633901405555e-02
0.000000000000000000e+00
0.000000000000000000e+00
0.000000000000000000e+00
9.872261260347681144e-02
7.139537027507622535e-02
3.916247128771705999e-01
0.000000000000000000e+00
0.000000000000000000e+00
0.000000000000000000e+00
0.000000000000000000e+00
0.000000000000000000e+00
0.000000000000000000e+00
0.000000000000000000e+00
0.000000000000000000e+00
0.000000000000000000e+00
0.000000000000000000e+00
0.000000000000000000e+00
0.000000000000000000e+00
0.000000000000000000e+00
0.000000000000000000e+00
0.000000000000000000e+00
0.000000000000000000e+00
-1.837965045668635167e+00
-7.815304566819281096e-01
-3.274587479790562125e-03
-5.190327718453879163e-02
4.090564036774019946e-02
0.000000000000000000e+00
0.000000000000000000e+00
0.000000000000000000e+00
0.000000000000000000e+00
0.000000000000000000e+00
-4.790908206536640193e-03
-4.534894751932914622e-03
0.000000000000000000e+00
8.450651082006956777e-03
-8.891807679890351146e-02
-1.878039333906558403e-04
0.000000000000000000e+00
-1.592493092186128686e-03
0.000000000000000000e+00
0.000000000000000000e+00
-1.892689469739968899e+01
-2.010189967424594604e-01
0.000000000000000000e+00
4.289690022863542306e-03
5.424349221759040135e-03
1.606269508702183255e-02
0.000000000000000000e+00
0.000000000000000000e+00
0.000000000000000000e+00
7.919391674675172951e-03
-9.026371753145212909e-03
-3.261667488298948536e-02
-3.057590422906000804e-02
0.000000000000000000e+00
-9.507299352210916155e+00
-6.815909655040243431e-02
0.000000000000000000e+00
0.000000000000000000e+00
0.000000000000000000e+00
0.000000000000000000e+00
0.000000000000000000e+00
0.000000000000000000e+00
0.000000000000000000e+00
2.547438259482776718e-02
0.000000000000000000e+00
8.124590187689850751e-03
2.795770828991664403e-02
0.000000000000000000e+00
1.849867000177998939e-03
9.179247634896272462e-03
3.845733445048451701e-03
-3.100373422216283134e-02
0.000000000000000000e+00
0.000000000000000000e+00
2.544817903550792085e-02
4.046880843237535968e-02
-2.090644327028097216e+00
0.000000000000000000e+00
-4.531954378139423784e-02
0.000000000000000000e+00
0.000000000000000000e+00
0.000000000000000000e+00
0.000000000000000000e+00
0.000000000000000000e+00
-1.868063684131672231e-01
0.000000000000000000e+00
-9.619323458985678231e-05
-2.321406107075403048e-03
0.000000000000000000e+00
-3.150559282893734304e-03
1.316603773836735013e-02
4.323348031006842354e-03
0.000000000000000000e+00
0.000000000000000000e+00
0.000000000000000000e+00
1.228037647972238106e-01
-4.058943720953524931e-02
-6.294843902729538310e-02
-5.341220806783121902e-03
0.000000000000000000e+00
3.010643670112788522e-03
0.000000000000000000e+00
0.000000000000000000e+00
-2.471233530880842522e-03
-1.011957399348457770e-01
-1.199586267115494570e-01
0.000000000000000000e+00
-1.231544262104550952e-02
0.000000000000000000e+00
-3.659340014357324866e-02
-2.835802012912283399e+00
3.588675410358949103e-02
0.000000000000000000e+00
0.000000000000000000e+00
0.000000000000000000e+00
6.935367250126793504e-02
8.514344930907983156e-05
-5.746805356488664251e-02
3.220888906337315144e-02
4.690019255701248502e-02
-3.855071975249333392e-03
0.000000000000000000e+00
0.000000000000000000e+00
0.000000000000000000e+00
-1.206311507423043876e-02
9.326932142517639635e-03
9.921199064651287265e-04
2.339734154126743224e-02
0.000000000000000000e+00
6.814849553843522686e-03
0.000000000000000000e+00
1.141079121401087637e-01
0.000000000000000000e+00
6.505818056097155411e-02
-5.024945603795294424e-02
-1.361265075633235344e-01
-1.700526200962156897e-01
0.000000000000000000e+00
4.264703661874740259e-01
0.000000000000000000e+00
0.000000000000000000e+00
-3.737751761698375041e-03
-1.333848652439431959e+00
-1.795753710229129607e-02
0.000000000000000000e+00
0.000000000000000000e+00
-2.311979949118671274e-04
-8.262806099738615948e-03
2.922578253168269316e-02
-6.429877406868670375e-01
0.000000000000000000e+00
-6.327532292042296024e-04
-1.884315763228893437e-01
0.000000000000000000e+00
0.000000000000000000e+00
-3.064437755010504354e-03
0.000000000000000000e+00
0.000000000000000000e+00
1.798818372168364474e-02
5.407796385764471192e-02
0.000000000000000000e+00
0.000000000000000000e+00
0.000000000000000000e+00
0.000000000000000000e+00
5.261854873219334178e-02
0.000000000000000000e+00
-4.530003496945312486e-02
-8.861984748170587600e-04
0.000000000000000000e+00
0.000000000000000000e+00
7.950415204522319479e-02
0.000000000000000000e+00
2.495960712057728736e-01
-5.459709983273221615e-03
-2.277299118442510997e-02
-1.020928323269580315e-02
1.174699714488407903e-02
0.000000000000000000e+00
0.000000000000000000e+00
-3.905537023056848689e-02
3.067654487336649721e-02
-2.410309030231051058e-02
0.000000000000000000e+00
-3.957886405910689132e-02
1.219259013365976609e-03
-5.867206957814301641e-03
0.000000000000000000e+00
0.000000000000000000e+00
2.182707062156970419e-03
1.362435355659199522e-02
0.000000000000000000e+00
8.033256525633158951e-02
0.000000000000000000e+00
3.732786752215423026e-02
0.000000000000000000e+00
0.000000000000000000e+00
0.000000000000000000e+00
2.565429869435301158e-02
-1.313828007577207413e-01
3.145198327619429968e+00
-1.089663473057216614e-01
0.000000000000000000e+00
0.000000000000000000e+00
-1.670912624902397975e-02
2.367304741903869525e-02
4.619927432926884681e-02
-7.411045769121801796e-02
-3.042532950499308719e-01
0.000000000000000000e+00
0.000000000000000000e+00
1.330129670098559314e-02
8.138792722814466862e-02
-3.613266658857531866e+01
-3.168147063561327359e-01
9.117546117843625120e-02
3.388663978065328819e-02
0.000000000000000000e+00
2.487247504319541846e+01
2.000717160030299757e-01
-3.855099538099070189e-02
0.000000000000000000e+00
1.918068645636067659e-01
3.293124173533894250e-02
-1.670112515189531993e-02
3.260325940896645347e-02
1.606380078720692217e-01
1.740233510567745157e+01
-4.201494977985649748e-01
-6.582533041457309811e-04
5.507880816343526352e-03
0.000000000000000000e+00
0.000000000000000000e+00
4.554790008289248371e-06
9.816431636982247966e-02
1.921248019089702788e-02
-3.320963524188630389e-02
-6.088297034946752416e-03
0.000000000000000000e+00
0.000000000000000000e+00
5.912016128957922612e-02
6.485768127084275136e-02
-7.152278680658576138e-03
-3.131981645541753956e+00
-1.757041968997107712e-02
8.900574859450556264e-01
0.000000000000000000e+00
0.000000000000000000e+00
-3.916333734008542677e+00
8.244099304280233520e-02
-8.691812394544601306e-02
0.000000000000000000e+00
-8.688325764493820547e-02
-1.265140739225567856e-01
2.288436696341688767e-02
1.137404499539858421e-01
-1.736317568873876893e-01
-9.831347420166182405e-02
3.786472704032829706e-02
1.618928544371132006e+01
2.518044600924426724e-02
1.375156248253562863e-01
0.000000000000000000e+00
0.000000000000000000e+00
0.000000000000000000e+00
0.000000000000000000e+00
-1.153471908420036773e-04
2.443621954566296481e-02
0.000000000000000000e+00
1.442201539393996035e-01
5.603894135011465438e-03
-1.020612271264235288e-02
4.616129977731395218e-01
2.293097141781648141e-01
0.000000000000000000e+00
-2.468993307340322865e-02
-5.821557960211896920e-02
3.850387690161915372e-02
7.785805793151282517e-01
7.241035695534683847e-02
-3.393347559026409048e-03
2.057945603509674440e-02
-1.531290235350081463e+00
-1.128604316598031509e+00
0.000000000000000000e+00
0.000000000000000000e+00
-6.298651534721466660e-02
1.419358153990179887e-03
0.000000000000000000e+00
0.000000000000000000e+00
-1.486413885266751445e+00
-4.249473735130198104e-01
1.678595439480869839e-02
-5.131741713162741858e-01
-2.870684317408787184e-02
1.812028191745006234e-02
1.558913034722367134e-02
1.687847586423744550e+00
5.336173226611892273e-04
-6.145949224358151358e-03
1.983179404274623345e-02
7.247809185900008777e-02
-5.406223305625064057e+01
-3.461057553260232789e-02
3.451866294888729314e+00
-8.763180711317097860e-02
0.000000000000000000e+00
1.726932725449509091e-03
0.000000000000000000e+00
1.089097052339233623e-01
-2.055220671285947626e-02
0.000000000000000000e+00
3.115544377186118749e-03
-5.878881407016542382e-02
0.000000000000000000e+00
0.000000000000000000e+00
7.334542086258889759e-02
5.243185340476728129e-01
2.244125053413694587e-02
4.671846756018480790e-02
-2.472908466077105571e-01
-2.165533484223235161e-02
-8.263243598776955079e-02
-7.757919470355026381e-02
0.000000000000000000e+00
3.512730781493932919e-01
3.524525595243653830e-01
0.000000000000000000e+00
-2.977152160272038967e-03
-8.794530314068937926e-01
-4.124284529069095129e+01
0.000000000000000000e+00
-1.419160933397781849e-02
2.484936693516380263e-03
0.000000000000000000e+00
0.000000000000000000e+00
2.317503862571766021e-03
0.000000000000000000e+00
-1.191067844795606206e-02
-4.425278245020222018e-02
8.325070180772370983e-04
-2.618174084568525642e-02
0.000000000000000000e+00
1.298769599723018087e-02
8.255072965823129216e-02
-8.778915901963297436e-03
3.072648249254293293e-02
0.000000000000000000e+00
2.405182937415059619e-01
0.000000000000000000e+00
0.000000000000000000e+00
0.000000000000000000e+00
0.000000000000000000e+00
1.225334107118501541e-02
0.000000000000000000e+00
-1.469560817965541097e-02
0.000000000000000000e+00
4.083221104207539025e-03
3.030415588931602289e-02
0.000000000000000000e+00
-1.665370167017657388e-02
-7.775807664323083346e-01
-2.001755104349364767e-01
1.315574124778504605e-04
-3.850925600755205833e-03
2.792349305573784118e-03
-1.667795992542938158e-02
0.000000000000000000e+00
2.863318181879459089e-04
-1.596254441272449559e-02
-3.571072337740806985e-02
0.000000000000000000e+00
-7.478515412094984688e-03
9.889004418130731278e-04
0.000000000000000000e+00
-1.461562381409226919e-03
-3.356565408809073503e-01
-7.661424758227168841e-01
-7.874751010920421734e+00
0.000000000000000000e+00
0.000000000000000000e+00
6.863177794972398493e-04
-1.248588456274851843e+01
3.025356569009210114e-02
1.490001748697883377e-01
-3.263868593432707119e-03
1.236884497927930315e-01
1.436878129253698136e-02
-3.795737133003984631e-02
5.005988958258770138e-04
3.419457627660907068e-04
-3.318304425666831863e-03
0.000000000000000000e+00
0.000000000000000000e+00
0.000000000000000000e+00
-9.447897743605073589e-03
3.085887971990375345e-01
-3.807805525306871830e-02
0.000000000000000000e+00
6.826441679916750438e-03
-3.472021405378498959e-02
-4.147028387057932086e+00
-6.511285474693414566e-01
2.681864852379266945e-03
-8.969532721741682590e-03
0.000000000000000000e+00
-1.500095348299632439e-02
0.000000000000000000e+00
-7.675852701074592846e-04
1.562352955188939761e-02
8.468111289047156043e-02
9.851460997776140260e-02
6.941429925707530424e-03
0.000000000000000000e+00
5.257146338074234274e-03
-6.830077029390710375e-02
9.610623281232105741e-03
-1.379536169579026428e+01
0.000000000000000000e+00
-2.200045125549766542e-02
0.000000000000000000e+00
2.686983670737309871e-03
-2.434854538331830964e-01
-5.966197836302975510e-01
0.000000000000000000e+00
3.373916059831688630e-01
1.393915111549503378e-04
-2.084517117147183463e+00
-1.217332031114078728e+00
2.377648079314843323e-03
1.244270771492969487e+02
2.872973133395535740e-04
9.296455068204204780e-03
0.000000000000000000e+00
4.749151597078355574e-03
-7.498702325141643962e-03
3.481882231441079788e-03
0.000000000000000000e+00
-4.957756844672204899e+00
-3.210677340480393993e-01
-2.246620185005225590e-02
2.380575278788552851e-01
3.336911329437829143e-02
2.502455738848078422e-03
-1.561142124332970671e-01
0.000000000000000000e+00
0.000000000000000000e+00
-2.434170475735110764e-02
-3.915927466475344065e-03
1.925882941133022497e-02
1.096100515133369320e-02
-7.518849277255730936e-05
0.000000000000000000e+00
0.000000000000000000e+00
1.590932486524832684e-02
-5.784494135876783183e-03
-1.294863595591920664e-02
-5.090805549119986791e-03
2.900797071376807123e-04
-9.320900987309740926e-02
3.680701013638262159e-02
5.194136822081352883e-02
4.270174868505217936e-02
-1.196347836454272721e-02
-1.008537061439602478e-01
3.200779079580077374e-02
-1.534742624246345118e-02
-3.458446000066102421e-02
8.265604957372088557e-02
0.000000000000000000e+00
-6.595316896758032787e-02
2.162238106394540615e+00
-8.303962308498807898e-03
-7.659968078952453588e-03
-3.429894700853304101e+01
-3.227706552833152776e-01
1.724808174382920153e-02
-2.187507482926942179e-02
1.943126321976200443e-02
2.609522791506958123e-02
-4.093022821038940218e-01
-9.696775259385159978e-04
-8.404548013519305867e-04
2.246344882795099640e-02
-1.429468162105896993e-03
-8.652111016168205992e+00
-1.580612294497533293e-02
-1.387322976248093753e-01
-5.286893712874664253e+00
-4.152891576651476413e+01
-6.747779912722715046e-02
-6.332754476069960003e-02
3.574897926203635112e-02
-2.489614372102847140e-01
-1.585751584361024674e-02
-4.645608442455036180e-02
6.807734501762136578e-04
-1.451388143076724584e-02
3.185900140065516695e+00
2.216760508836052024e-02
4.480387854193366298e-02
-2.042205770800277209e-01
-4.671183335388242597e+00
-6.453785166348758873e-01
-1.386399396129420480e-01
-2.829074930463454374e-02
1.413949425253785940e-02
2.974948794055429311e-03
-7.624346985060467929e+00
1.164611513737871112e-02
-1.460268780559629553e-01
-2.170141761922025209e-02
-1.019703397539177200e-02
-1.075550250238420631e+02
1.486015117241821538e-02
1.291917997992418805e-03
0.000000000000000000e+00
0.000000000000000000e+00
-3.473721933114209404e-01
-3.289586881558318243e+00
-5.441236977047184120e-02
0.000000000000000000e+00
0.000000000000000000e+00
0.000000000000000000e+00
0.000000000000000000e+00
-1.049524622629372459e+02
7.529520414162916035e-04
0.000000000000000000e+00
0.000000000000000000e+00
-1.460997360290111277e-02
1.540012426439350997e-02
-1.401891209135728844e-01
-4.776468718506384770e-01
-2.022786461698630744e-02
6.969180698124477491e-02
-1.791377972185527790e-05
1.040420525059859297e-01
7.584529763883019783e-03
0.000000000000000000e+00
4.054024000021601293e-02
1.108585716581654383e-02
-1.670587431161949746e-04
-1.930351477218112421e+01
7.534378529750912490e-02
1.441262263145834388e-02
-1.231086780588338259e-01
-5.191646503966445420e-02
0.000000000000000000e+00
-2.373349665355267391e+01
1.422291288169695189e+00
1.376359968723115008e-02
1.497311168529843334e-02
-8.406332936721180871e-02
0.000000000000000000e+00
0.000000000000000000e+00
0.000000000000000000e+00
0.000000000000000000e+00
0.000000000000000000e+00
-1.934040668795605072e-02
0.000000000000000000e+00
-1.159436616785415097e+01
-2.675466875937757699e-03
0.000000000000000000e+00
-2.476850983388424049e-02
1.041396601022521844e-02
0.000000000000000000e+00
-6.581714620642105384e-02
-3.728941431825377073e+00
-9.931099829238030363e-01
-1.452476099856092953e-02
-3.385804052952862131e-02
4.741205469432937906e-04
2.904606760387438147e-01
6.110408860616066695e-01
6.138639623400087703e-02
-1.486851889429486521e-04
-1.960350851274934164e-02
9.924184017079841491e-02
1.491576478351699583e-02
1.029269533465315967e-01
9.276317706806955221e-02
-2.417916289869558250e-04
3.338199000891398094e-02
-3.352285675259572204e-03
-1.170788788483458596e-02
-2.684905605955430208e-02
1.375879870587827902e+00
3.306409545088908608e-01
-1.891473779904852617e-02
-1.664561448656790010e-01
2.957440797052883139e-02
3.227821169419349268e-01
4.662202856028744291e-01
-5.133133371822987123e-02
0.000000000000000000e+00
3.986661274066374480e-03
0.000000000000000000e+00
-1.042316002573912825e-01
5.137582587789906938e-03
-9.277911424785976191e-01
-2.847422242395201974e-02
-1.720269683678194534e-03
-3.162811689269736104e-01
-3.329665081759856093e+01
0.000000000000000000e+00
0.000000000000000000e+00
4.569673502926759057e-03
4.023592795929010757e-01
-1.398230718353805739e-02
0.000000000000000000e+00
-2.073079082873000023e-02
-1.945958979141106798e-02
0.000000000000000000e+00
-9.086480262403847860e-03
0.000000000000000000e+00
0.000000000000000000e+00
-5.030229567816142389e-01
1.191909932384804582e+00
5.368494984560175098e-02
-3.384516478802503114e-02
-9.833079779045290625e-01
1.910665011169468321e-03
-1.526756924054766939e-03
-9.478722219426991002e-02
-3.384989171119331518e-03
-5.581325678845529270e-02
3.608664586099737028e-03
8.756624673974734707e-02
1.286847106249745298e+00
3.245812685508159962e-02
0.000000000000000000e+00
-5.539409288640663453e-02
5.247142650413724740e-02
-4.015358335315358934e-02
2.280506665477342876e-02
3.714833733490847945e-02
-1.973768783117640924e-01
-5.626805751919958798e-01
0.000000000000000000e+00
6.166872590990159914e-02
-7.509943003582462140e+00
-2.152680291569192050e+00
