-1.403897213829928244e-03
1.400006717363617634e-02
2.850863988269090182e-02
7.589875756882993180e-03
0.000000000000000000e+00
4.094686540073474434e-01
-1.732413887484213211e-02
-4.391078891611491924e-02
5.836075788660215202e-02
0.000000000000000000e+00
-4.557504960432243873e-02
0.000000000000000000e+00
-4.747051544275526953e-03
2.306961248348760995e-03
0.000000000000000000e+00
-1.297985871814849416e-02
-2.774787776925254773e-02
-1.685475993577485010e+00
2.586130874141144521e-04
-1.417828053891464525e-03
-2.695560517459225699e-03
-8.224736279052748955e+00
2.992142618638514700e-03
1.854072949186467978e-01
0.000000000000000000e+00
1.048597866722321414e-01
-1.099530531555027463e-03
-1.237423198998807705e-01
-2.697398390106969454e-03
0.000000000000000000e+00
0.000000000000000000e+00
0.000000000000000000e+00
0.000000000000000000e+00
2.029202831630286599e-02
4.962242130692492287e-02
0.000000000000000000e+00
-6.166537159894955322e-02
-2.921426271856501500e-01
0.000000000000000000e+00
7.388813255402981728e-02
-1.131908517220671937e-03
-3.077033518164099535e-01
-5.402173742828585146e-02
-3.625014889753079561e-02
3.160407486690026690e-01
-1.254729229191834348e-02
0.000000000000000000e+00
0.000000000000000000e+00
0.000000000000000000e+00
2.054348955114255592e-03
0.000000000000000000e+00
-1.034558481221762027e-01
0.000000000000000000e+00
0.000000000000000000e+00
0.000000000000000000e+00
0.000000000000000000e+00
0.000000000000000000e+00
0.000000000000000000e+00
0.000000000000000000e+00
0.000000000000000000e+00
-1.521776025542134455e-03
-1.996997082136231505e-01
-9.667361447673195052e-02
0.000000000000000000e+00
4.352125106682585454e+00
-1.002989626290292117e-03
-1.247982530927878475e+00
-1.773444104498289375e+00
0.000000000000000000e+00
7.616844135872844444e-03
1.902699043707235110e-02
2.654010317294797690e-03
-1.543076682012637160e-02
-2.876816574908750562e-02
-7.066297085961570357e-01
-3.036037301898165675e-01
-1.081613511748115430e-01
0.000000000000000000e+00
0.000000000000000000e+00
0.000000000000000000e+00
0.000000000000000000e+00
2.220033618035896217e-01
-7.507935475665120095e-02
0.000000000000000000e+00
-1.880424529805360678e-02
-5.524533763916412710e-01
-1.346297452564511610e-01
0.000000000000000000e+00
1.825900901209221994e-01
-4.920125680337828628e-02
2.574721866640477419e+00
-1.594957065043409283e+00
-7.930446331040851005e-02
-3.265408199689237012e-01
-4.808058886193561365e-02
6.446744182005270662e-02
3.275447853608187687e-01
1.453790282776301346e-01
-4.650134043841807783e-04
-5.444424874651491164e-01
-4.215868900814411013e+00
1.773494583697653726e-01
0.000000000000000000e+00
6.740805761847148969e-02
-1.001695408396049763e-03
-2.480603104115631369e-02
0.000000000000000000e+00
-8.675032349117041131e-01
6.703019907989999915e-01
1.633973488054894785e-01
0.000000000000000000e+00
0.000000000000000000e+00
0.000000000000000000e+00
0.000000000000000000e+00
-3.428215774825563944e+00
2.351880126712840077e-03
7.788327554420219206e-03
-9.398607558319571620e-02
-1.263264741913148678e-02
-1.863530040329656468e-01
-5.951491291706814679e-03
-2.524859304552993719e-02
0.000000000000000000e+00
7.096407943186310192e-03
1.766309413781157689e+00
-6.477976489379857691e-03
-1.262221959226480905e+01
-2.244601523867454373e-01
3.806549601878642108e-02
-2.943326301383827198e-03
-9.814729723806669970e-02
-6.497457744436163640e-03
8.020794663926961512e-03
-5.887014112508321545e-03
-3.776659189210802847e-02
-3.118111818794957676e-02
-1.212240489802676041e-02
0.000000000000000000e+00
1.603485515476081244e-02
0.000000000000000000e+00
4.185846808677910064e-02
-2.771055296608738311e-02
-1.244430163810749945e-01
1.115304244105509657e+00
0.000000000000000000e+00
0.000000000000000000e+00
-1.392724911374033057e-02
-4.056826325009094646e-03
2.027275479752306336e-04
7.980779957039069172e-02
-5.004330599527223632e-04
-1.152433928747352218e-02
2.329248703843660173e-01
-3.143939417541495862e-01
-6.982340558295729166e-03
0.000000000000000000e+00
4.451423361550175262e-01
-6.314477979116439599e-03
1.842523889570045481e-02
7.069107612201044333e-01
0.000000000000000000e+00
-9.822416641529185810e-02
-1.474099991590645080e-03
-1.750250683574321869e-02
7.392267002419925515e-01
-3.962439496595546173e-02
-5.362345194531477864e-03
5.060564660590055781e-03
9.707651739222855972e-03
-8.164790879985227290e-02
1.316250424176719155e-02
0.000000000000000000e+00
-1.077657735953890944e-01
2.255623488864435047e-04
0.000000000000000000e+00
2.063887517507452529e-02
0.000000000000000000e+00
3.439959834828797049e-04
0.000000000000000000e+00
-7.986135097483773593e-02
1.186116810102945309e-03
-1.735385511238807937e-02
-1.151023514447472185e-03
-6.692961826947659530e-03
1.887332515171503133e-01
-1.813119496827737820e-02
3.149841619619729860e-01
1.889776528266312594e-01
2.653807515843639719e-02
0.000000000000000000e+00
9.966420279848932362e-03
-4.220015854406304091e-03
3.477357215322825039e-03
-4.997766397166758523e-02
-1.117087291691681861e-02
-4.281047739866106899e-02
1.398671972944476143e-02
0.000000000000000000e+00
-1.101657520252281169e-01
-8.309050069459467114e-01
8.061694836697122502e-02
4.188606704011622536e-03
0.000000000000000000e+00
4.271273725558952239e-03
9.071751414537387870e-02
-1.232151858314679327e+00
2.083280125302646585e-02
0.000000000000000000e+00
-1.801998211363807067e-03
0.000000000000000000e+00
6.914822033221851641e-03
4.246459975463454800e-02
-5.439220063154639323e-03
-1.722534987998502673e-02
1.628898205247308328e-01
3.498319433584047289e-01
1.479856629179583660e-02
0.000000000000000000e+00
3.560585783804719462e-01
-2.435406211858067493e+00
9.270642411973874231e-02
-6.947924560323966159e-02
-9.861048279970001662e-01
4.036376584911864976e-03
4.696055241747219139e-02
1.860704017005380129e-01
6.831468237967398653e-03
6.229712134746976694e-03
8.846840109010024877e-02
1.967391971534083409e-03
-2.981100440828626623e-04
0.000000000000000000e+00
0.000000000000000000e+00
1.683110111563070177e+01
-2.004418607586631992e-04
1.103129261579677972e-02
2.566673915315312859e-01
8.900343383294678778e-02
0.000000000000000000e+00
-6.456095958539868158e-04
0.000000000000000000e+00
-3.075209968572806263e-01
-1.451584146593049018e-02
-1.090496717362207484e-02
-1.628760851583956337e-01
0.000000000000000000e+00
3.214818400491410988e-01
2.037552638526013513e-03
0.000000000000000000e+00
0.000000000000000000e+00
5.399460827855292154e-03
0.000000000000000000e+00
3.768217330205263227e-02
0.000000000000000000e+00
2.334205738960206181e-02
0.000000000000000000e+00
0.000000000000000000e+00
1.428467890767902470e-03
0.000000000000000000e+00
9.614568427791652105e-01
3.256838250315123862e-01
-2.304437250081019239e-02
-1.246723493394757444e-02
0.000000000000000000e+00
-8.266295088849824335e-01
-1.674219836444613141e-01
-1.271030123145998510e-02
0.000000000000000000e+00
0.000000000000000000e+00
-4.573940147444039046e-03
-1.679999004818507734e-03
1.581237363385440409e-01
0.000000000000000000e+00
1.817019172754342311e-03
8.643158684749998634e-04
8.562010510904147220e-03
0.000000000000000000e+00
-7.822106636838965787e-02
-1.343319517444193333e-02
-2.076442480689844397e-02
-3.762048657171287048e-03
8.971639654518265977e-03
0.000000000000000000e+00
1.476964603844841198e-02
-1.407771398391213270e-02
5.616622233199881908e-02
4.752247374730371216e-04
0.000000000000000000e+00
0.000000000000000000e+00
-1.694731245180550877e-02
-2.506742975610226458e-03
1.037547005418331530e-01
7.924138895101060509e-01
0.000000000000000000e+00
2.337530812701024468e-04
7.061731950933905488e-02
-3.682182932839020983e-01
9.555354204370819374e-04
-9.446829194837542271e-03
3.092163788055846260e-04
0.000000000000000000e+00
0.000000000000000000e+00
5.791743402142342234e-03
1.774577831835882132e-03
0.000000000000000000e+00
0.000000000000000000e+00
5.002781247612295701e-01
4.587632793470082515e-04
3.918833263903644115e-02
3.625586095902485692e-03
0.000000000000000000e+00
7.466632835895990750e-02
4.841598654460230189e-02
1.116527116703227018e-01
3.891706979111045905e-01
-2.753794987690864806e-03
1.014115820125946477e-01
-1.273294608259267942e-03
-1.957739138437087148e-02
-2.520247182450714371e-02
-6.008861015621905352e-04
1.336884960613211686e-04
-1.266651620148370461e-01
0.000000000000000000e+00
0.000000000000000000e+00
-6.660626379248515971e-02
0.000000000000000000e+00
-2.180467850888583373e-02
0.000000000000000000e+00
0.000000000000000000e+00
-1.627211083859427670e-02
6.167978905181806422e-03
-6.539736452277711276e-02
-1.602490609553768172e-03
7.942303468620628970e-02
-7.191325366207690188e-03
4.397562708464034659e-03
0.000000000000000000e+00
-2.121963748716959031e-01
4.443370153829052883e-04
0.000000000000000000e+00
6.373143125590087499e-02
0.000000000000000000e+00
-4.441341241271344609e-03
2.038071717022357440e-02
0.000000000000000000e+00
0.000000000000000000e+00
-1.923675641713391282e-01
-2.448539065403510309e-02
-1.519624843605379451e-02
-4.252488881039446361e-02
-7.831330056910060927e-03
0.000000000000000000e+00
7.813097627550263241e-03
6.527673642096923053e-04
3.887799957191104272e-02
1.404622549321467573e-01
1.433549914775352364e-03
0.000000000000000000e+00
0.000000000000000000e+00
-1.543305342251444223e-03
0.000000000000000000e+00
-8.419021937834997651e-03
-3.241564746695457105e-02
0.000000000000000000e+00
0.000000000000000000e+00
0.000000000000000000e+00
0.000000000000000000e+00
5.758872981703195421e-02
-8.701191150792365187e-03
0.000000000000000000e+00
0.000000000000000000e+00
6.532619457121979778e-02
-8.397382184586843316e-04
-6.099021344128449651e-02
1.568610477024432182e-01
0.000000000000000000e+00
0.000000000000000000e+00
2.781065434402515361e-03
-1.454963813268840556e-02
0.000000000000000000e+00
5.742960090614740833e-04
0.000000000000000000e+00
9.234265904524079733e-04
-6.656266982202837523e-01
-3.331501553714110581e-02
6.234407687973285081e-03
0.000000000000000000e+00
0.000000000000000000e+00
0.000000000000000000e+00
0.000000000000000000e+00
-7.158444093393093524e-03
2.275668093697468253e-01
-3.305845471524326840e-01
0.000000000000000000e+00
1.114877761529353001e-02
-2.021270955438671801e-01
1.018381372963420850e-01
1.732797329552925036e-02
-7.440502256250394048e-03
3.225286277133106866e-02
1.570509398017004869e-03
0.000000000000000000e+00
1.072961357961038087e-01
-9.705285671990815377e-02
2.332437294384758220e-01
1.907076814193262894e-03
6.504304337609949143e-04
-7.719647370954990304e-03
-8.972161524529453924e-01
-3.154378753320952883e-02
-1.072257329771775458e+00
-9.962823562045879378e-01
4.936305478812512415e-02
5.702171412108994475e-02
0.000000000000000000e+00
0.000000000000000000e+00
0.000000000000000000e+00
0.000000000000000000e+00
0.000000000000000000e+00
0.000000000000000000e+00
-7.558508947952000123e-02
-4.093020303226974077e-02
-1.203433727738706729e-02
-1.157858738201263463e-02
-6.115887158189287076e-02
-4.348388060506742647e-01
9.034841552846566148e-02
3.234792769329475903e-01
4.493928062315940067e-03
0.000000000000000000e+00
1.940788944388202930e+00
1.005920786605362549e+00
2.957698913504794636e+00
0.000000000000000000e+00
1.897096016284722381e-02
-5.121292410747810709e-04
1.083325218016680880e-03
0.000000000000000000e+00
0.000000000000000000e+00
0.000000000000000000e+00
0.000000000000000000e+00
4.947980785866139784e-03
0.000000000000000000e+00
6.304804283246380481e-02
-3.739686544916140300e-03
0.000000000000000000e+00
1.082562875627903987e+00
-1.118822174403269129e-02
0.000000000000000000e+00
-7.628017117029769478e-01
-4.390356105992187022e-03
2.137004893428405550e-02
2.094862467838805586e-01
-6.532174051106892643e-02
-1.539918600942969673e-01
5.777995792858169055e-02
6.917335733489914096e-02
0.000000000000000000e+00
0.000000000000000000e+00
-2.062010094709931241e-01
1.222475712799421022e+00
2.225505562031650578e-02
3.578708520346648905e-03
5.703872794275197501e-04
8.954837468019850588e-01
1.535846806330834757e-01
1.307188621644704840e-01
-1.615744765873351058e-02
-6.929493770548408177e-03
0.000000000000000000e+00
0.000000000000000000e+00
-5.353956478963494726e-03
0.000000000000000000e+00
0.000000000000000000e+00
5.238817767916257306e-01
0.000000000000000000e+00
-2.491729401843608208e-02
1.925939706273559161e-03
0.000000000000000000e+00
2.170360169742314993e-01
0.000000000000000000e+00
-1.039460946301136099e-02
-5.025316988095103188e-01
8.387972024559514628e-03
8.176528482835938583e-01
2.076394518689420599e-01
3.902414443838324309e-02
2.080157684315479538e-01
2.957826618441618434e-03
0.000000000000000000e+00
1.798618365881829483e-03
0.000000000000000000e+00
0.000000000000000000e+00
3.152789661122478160e-01
3.091252572135310572e+00
4.180844743237925598e-03
4.284346109675577635e-02
0.000000000000000000e+00
3.989101131398812942e-03
2.082480507652043067e-02
9.727396128907885367e-03
0.000000000000000000e+00
3.773916995007644192e-04
-4.501701106797420526e-02
0.000000000000000000e+00
0.000000000000000000e+00
0.000000000000000000e+00
3.066346483824985425e-01
0.000000000000000000e+00
0.000000000000000000e+00
-2.262982146815657909e-03
-3.218136980265434710e-01
-2.975022148041422398e-01
0.000000000000000000e+00
7.579233308176505472e-03
5.934276817236500828e-02
-7.123495375770402815e-02
2.480844150662339653e-02
-2.280966626947817932e-01
-7.938179220575544009e-03
0.000000000000000000e+00
2.439691464082145017e-02
3.711329712045858820e-01
4.080963754900132634e-02
0.000000000000000000e+00
0.000000000000000000e+00
-2.294644723314057805e-02
-9.331213183208532103e-01
5.886061839249248639e-02
-7.166272544722861008e-03
-2.190049288768305177e-03
-2.591574975422983318e-02
4.538222631591968571e-03
-4.468651067730391446e-01
0.000000000000000000e+00
0.000000000000000000e+00
0.000000000000000000e+00
-2.457806030225909155e-01
2.165350846489143830e-04
7.466985817869262188e-02
8.874568096006183460e-01
-4.541011851353946721e-03
-2.801039984192597171e-02
0.000000000000000000e+00
0.000000000000000000e+00
-2.404505018026162344e-02
-1.195430497786057256e+00
-1.487614879536370283e-01
0.000000000000000000e+00
-2.393486458788050483e-02
7.946103951513135361e-04
4.847405175752665836e-03
1.739483311464565946e-02
-1.220961943257876936e-02
0.000000000000000000e+00
2.005386411552143033e-02
1.284988077896244141e-01
-3.437267388181400318e-02
-4.862376583434965122e-03
0.000000000000000000e+00
8.632057244188042671e-04
-6.706794072187524658e-02
1.274577016402698992e-01
-3.915289188044455970e-02
4.699911542552128173e-05
3.021624316429023516e-01
1.260852301262522235e-01
5.989824437977635425e-03
0.000000000000000000e+00
-1.244069728102969400e-03
4.250176611399095750e-01
0.000000000000000000e+00
1.667540323971657135e-03
-3.730628983056153564e-02
1.854209420199271277e-02
7.945797450876453463e-03
-2.842980243486143734e-03
0.000000000000000000e+00
0.000000000000000000e+00
-6.695941590675776045e-04
0.000000000000000000e+00
0.000000000000000000e+00
4.305573232733596648e-04
0.000000000000000000e+00
3.514530907757434409e-03
-2.100062742337810776e-02
9.661293681940463784e-03
1.730021992200317035e-02
0.000000000000000000e+00
1.157407170503240434e-01
-1.074499099110603484e-01
-2.773172474752435002e-01
0.000000000000000000e+00
3.826245151921855436e-01
-9.035034446704974173e-03
0.000000000000000000e+00
0.000000000000000000e+00
-4.754601025613937604e-01
7.850589111483308180e-02
0.000000000000000000e+00
0.000000000000000000e+00
1.530040323156613537e-03
-1.204274011605229872e-01
-6.370466728718215954e-02
0.000000000000000000e+00
0.000000000000000000e+00
0.000000000000000000e+00
-1.931969247001283536e-03
1.526173348242950423e-01
-5.366692665692426867e-02
0.000000000000000000e+00
-2.813108172360741510e-01
5.379106672910985432e-03
-5.552467306377938117e-02
-1.871999869790535731e-01
3.537674566145028621e+00
-3.516828391483624999e-02
0.000000000000000000e+00
1.641628365810369637e-03
-9.447879487889701902e-03
1.393564804208585490e-03
2.359783262703079188e-03
0.000000000000000000e+00
-3.622705393089846737e-01
-9.471970336708219812e-04
-1.102402979531156568e-01
0.000000000000000000e+00
-1.304444548702585194e-02
-1.379710579995546867e-02
0.000000000000000000e+00
3.129131594369958039e-03
-1.189297665414177807e+00
2.213146153322896516e-03
0.000000000000000000e+00
0.000000000000000000e+00
0.000000000000000000e+00
4.581508170077529252e-02
-2.306093432356875361e+00
3.371234745248118808e-02
0.000000000000000000e+00
0.000000000000000000e+00
0.000000000000000000e+00
-9.151339369645953691e-05
2.314001250703276447e-02
0.000000000000000000e+00
0.000000000000000000e+00
0.000000000000000000e+00
7.888281413819473939e-03
-7.127582004262952853e-02
1.629392532556876022e-02
-1.053065718283132529e-02
-5.064462192369066640e-02
2.300085590370485988e+00
-1.245594786964922263e-01
9.032392725896492202e-04
0.000000000000000000e+00
-7.423400541385407995e-03
0.000000000000000000e+00
0.000000000000000000e+00
5.315367995690167130e-03
0.000000000000000000e+00
-1.610624789465365733e-02
6.036225450245396446e-02
-2.495616720829694490e-01
1.281713976187829306e-02
-9.603671973694549290e-04
0.000000000000000000e+00
-6.904742540086781233e-01
0.000000000000000000e+00
0.000000000000000000e+00
0.000000000000000000e+00
-4.722041621264671529e-01
-3.118648166030934740e-02
3.495734709726217027e-01
0.000000000000000000e+00
0.000000000000000000e+00
0.000000000000000000e+00
2.032621479123947195e-01
0.000000000000000000e+00
-2.032304767140955329e-02
2.647476344004144333e-01
5.502155980380061401e-02
-3.260778693607887524e-01
-8.907827484730324041e-02
-1.062233298950051880e-03
6.029961485198403722e-04
-3.399211135723739612e-03
0.000000000000000000e+00
2.221999456180234376e-04
0.000000000000000000e+00
-3.829525773826665145e-04
0.000000000000000000e+00
-8.412279170907127623e-02
0.000000000000000000e+00
-2.637920238483238422e-01
-1.555199796584655125e+00
-1.434347351887204358e-01
0.000000000000000000e+00
-4.768092787608890250e-03
8.870555929752297741e-04
-2.373467143985693306e-01
0.000000000000000000e+00
2.476900391116241586e-04
5.429152360564398760e-02
-1.158827439890839139e+00
5.150829052280250092e-02
0.000000000000000000e+00
0.000000000000000000e+00
0.000000000000000000e+00
0.000000000000000000e+00
5.809769959619011104e-01
9.887016339309608395e-03
-1.295121585316193549e-02
-3.183729435288836385e-03
-2.321888662159903374e-02
3.985283072721222675e-02
0.000000000000000000e+00
-2.771963637220919291e-02
-1.414866811667770362e-02
2.859767792828790071e-03
5.193399392416798710e-01
3.698691154295921657e-01
-8.664760110533723525e-01
1.527201008101032251e-02
7.505368905119311207e-05
-8.061117877897175377e-02
0.000000000000000000e+00
-7.713575993683838283e-02
1.154157650938894220e+00
3.487744492451981190e-03
-1.473248433573904670e+00
-1.325833782779372444e-02
0.000000000000000000e+00
-6.708940064734354204e-03
-7.630645099074953031e-01
0.000000000000000000e+00
0.000000000000000000e+00
4.191444138801353123e-03
0.000000000000000000e+00
0.000000000000000000e+00
1.494937892470293850e-01
9.657050157134212248e-03
1.169892989707502634e-01
0.000000000000000000e+00
0.000000000000000000e+00
1.053043924308530443e-02
0.000000000000000000e+00
0.000000000000000000e+00
0.000000000000000000e+00
-3.138842956316911272e-03
1.382422825730499127e+00
1.934377767914043089e-02
5.231545818238856867e-04
1.415872360599012447e+00
0.000000000000000000e+00
-5.832656143429340578e-02
1.653748725196094171e-02
0.000000000000000000e+00
-7.321253838267783969e-03
-7.065101782399380373e-03
-1.262161573374231072e+00
1.409062390303780221e-01
-5.350815572301732825e-02
0.000000000000000000e+00
4.505101326401474496e-03
-1.176657052063394184e-03
5.498633207724839878e+00
-4.089425664191188858e-02
3.672887813150161468e-02
-8.103548565570745099e-01
-6.358777175907812662e-01
-2.697593299904343586e-02
-2.771346098361936704e-03
-5.159861992588940516e-02
9.652205146378590311e-03
2.374412178307604149e-01
2.448951231529962816e-02
0.000000000000000000e+00
0.000000000000000000e+00
-4.385185746823853647e-01
6.882506837710160585e-01
-7.905013376592785398e-03
1.716108574221573285e-02
0.000000000000000000e+00
8.914642677610039659e-03
2.233470266241477202e-03
4.130687672349858675e-02
0.000000000000000000e+00
3.836434887159310969e-02
-1.087889893346517811e-01
2.144139844560514346e-02
1.515305875676294656e-01
1.199110711102527533e-03
-1.359572617494360629e-03
2.633099683298632376e-03
5.793211647461226493e-02
2.159669076441475544e-01
0.000000000000000000e+00
-7.851979846144734390e-03
0.000000000000000000e+00
-8.508908738687267492e-01
1.637418530205017944e-02
-2.997651326383531795e-03
0.000000000000000000e+00
-1.380576897636446032e-01
1.797094998444158376e-02
0.000000000000000000e+00
8.067145098464749420e-02
-5.205233697784684282e-03
-3.078649024790445880e-03
-8.969271670167442930e-05
0.000000000000000000e+00
-3.357241251762040773e-02
-3.549054306260671088e-02
-1.531374475999433926e+01
0.000000000000000000e+00
-5.193292319892768051e-03
0.000000000000000000e+00
0.000000000000000000e+00
-4.395062156244496782e-02
0.000000000000000000e+00
1.874333258473246666e-01
0.000000000000000000e+00
-1.947752478153594591e-01
4.037384972043291942e-01
0.000000000000000000e+00
-5.720327803461178976e-04
3.477252801972734002e-03
-2.129817287939171958e-04
-8.791303241623771650e-03
6.153325575885645882e-03
0.000000000000000000e+00
0.000000000000000000e+00
0.000000000000000000e+00
-2.534272091963352038e-03
-5.268012685123688553e-03
-1.173820890801295994e-02
1.386635139440320907e-01
1.080720482739509769e-02
0.000000000000000000e+00
-8.876477157148206579e-03
0.000000000000000000e+00
0.000000000000000000e+00
1.514310332509711143e+00
2.861451671748105330e-01
1.669474359853390655e-01
0.000000000000000000e+00
0.000000000000000000e+00
-8.072598044723357019e-04
3.286461201461200743e-02
7.334335349239348711e-02
-2.893159703673340438e-02
-1.445543208652064204e-01
2.510488823416165503e-03
0.000000000000000000e+00
0.000000000000000000e+00
0.000000000000000000e+00
0.000000000000000000e+00
0.000000000000000000e+00
0.000000000000000000e+00
-8.076574389122142053e-03
3.903201360413560694e-02
-2.749665546572851310e-03
1.854738610586653014e+00
1.393535802825372205e-01
-4.540591082293077155e-04
-1.981501654966153023e-03
0.000000000000000000e+00
0.000000000000000000e+00
-5.788147254117731628e-03
-1.524014070909299537e-02
0.000000000000000000e+00
0.000000000000000000e+00
0.000000000000000000e+00
3.920333205221006312e-02
8.376058944653208549e-02
0.000000000000000000e+00
0.000000000000000000e+00
0.000000000000000000e+00
0.000000000000000000e+00
0.000000000000000000e+00
0.000000000000000000e+00
0.000000000000000000e+00
0.000000000000000000e+00
-1.133990893477896805e-01
2.237601083388201725e-02
6.064888837444598613e-02
0.000000000000000000e+00
-1.912372996667806649e-02
6.852056966083210424e-03
0.000000000000000000e+00
0.000000000000000000e+00
0.000000000000000000e+00
3.501771596047553031e-02
9.956319760130862700e-03
-5.744895691603488230e-02
0.000000000000000000e+00
0.000000000000000000e+00
0.000000000000000000e+00
0.000000000000000000e+00
5.415083621285856630e-01
4.312661832989107130e-02
-1.420977088726632920e-01
0.000000000000000000e+00
0.000000000000000000e+00
-3.972016977588119593e-04
0.000000000000000000e+00
0.000000000000000000e+00
-1.287666982694042703e-03
0.000000000000000000e+00
0.000000000000000000e+00
-4.030404655131547553e-03
-1.239150987570353940e-01
0.000000000000000000e+00
0.000000000000000000e+00
-2.905913214925706090e-01
-3.089111553644055888e-02
1.967433865159771700e-01
0.000000000000000000e+00
0.000000000000000000e+00
5.980330836509931691e-01
1.106645028456731822e-01
8.111790907743618995e-01
0.000000000000000000e+00
0.000000000000000000e+00
-1.353439603656453605e-01
8.029210257066265576e-04
-3.204436047020401412e-01
-5.514868564798835332e-02
0.000000000000000000e+00
0.000000000000000000e+00
0.000000000000000000e+00
0.000000000000000000e+00
-2.542250022144919575e-01
2.194216992102149266e-04
1.010825052656488896e-03
-4.324199366049883558e-02
-3.383178728306102806e-02
-8.205089443842664490e-03
9.029362626700529124e-03
-1.231108937428667185e-02
0.000000000000000000e+00
2.818127563858384421e-02
-2.226148458636128050e-02
-4.026698997665402978e-03
6.561482947316314707e-02
-2.252256120504913042e-02
-1.377932890917364477e-02
-6.378900931033371080e-02
5.254924075245694798e-02
-9.666014931107227981e-02
1.931857688243601365e-03
0.000000000000000000e+00
-5.918924409522456631e-02
0.000000000000000000e+00
-2.027288634378793253e-01
2.902697048084720843e-01
-1.077209502947234013e-02
0.000000000000000000e+00
0.000000000000000000e+00
0.000000000000000000e+00
0.000000000000000000e+00
-2.167677651075241435e-02
-2.846411248837386193e-02
3.968002726356750776e-03
2.462301682745887399e-01
4.647429384597905333e-01
-5.750230805046979699e-02
-1.401894337592552407e-02
6.248158649428110778e-02
-4.107213963447453597e-02
-3.613007467302303821e-01
1.721961902395991589e-02
3.362902430657207509e-01
0.000000000000000000e+00
7.803900484638562340e-02
-2.176730892062570533e-01
-1.399746379012503927e-01
-1.163979779797691821e-01
1.836703340945489149e-02
0.000000000000000000e+00
-8.759370949362792202e-03
-3.979465282576900576e-01
-1.511836384399855605e-02
-8.342330979885620446e-02
-1.559536396392654199e-02
0.000000000000000000e+00
3.589871365218188365e-02
7.586359227778147890e-03
2.172850798909813433e-02
0.000000000000000000e+00
0.000000000000000000e+00
0.000000000000000000e+00
0.000000000000000000e+00
-9.532731767452699498e-03
0.000000000000000000e+00
1.208915460766775557e-01
3.189981549015900170e-02
-1.444262556150952559e-01
-1.105775264792945162e-01
0.000000000000000000e+00
4.324308548478972725e+00
1.095420291239757316e-01
-7.170194669683238597e-01
7.748483247458175238e-02
-4.991209686981529746e-03
-1.143428633633264066e-02
0.000000000000000000e+00
-1.100723301986905045e-01
-2.041023222223861122e-01
8.332826033160897761e-02
-4.972997474252077721e-01
-5.500905093367982474e-02
-4.203829413597746922e-02
-6.116152013446159164e-02
7.698386398691201005e-02
0.000000000000000000e+00
-6.720409011796110200e-03
-6.421155132960269536e-04
6.500629938674691750e-03
-2.171595173439999291e-02
-2.409989261398288285e+00
2.038040173076368158e-02
0.000000000000000000e+00
0.000000000000000000e+00
0.000000000000000000e+00
-6.763133128813724609e-03
0.000000000000000000e+00
-8.841556341899067470e-05
0.000000000000000000e+00
0.000000000000000000e+00
6.275501774247492026e-04
1.585986889557142954e+00
1.542669471748381663e-03
-6.104197544564762823e-02
2.471934069215666607e-01
4.611562055758931106e-02
3.358254219226172732e-02
-1.864714261365370274e-02
0.000000000000000000e+00
-1.472655068790506248e-02
-4.996563285970474777e-02
-2.996703314993065526e-01
0.000000000000000000e+00
-4.258597476323025544e-03
-2.035193479982173870e-02
0.000000000000000000e+00
0.000000000000000000e+00
2.770035916601517462e-03
0.000000000000000000e+00
0.000000000000000000e+00
5.175403632462122032e-03
0.000000000000000000e+00
3.723237575929110726e-03
0.000000000000000000e+00
-8.552777314722439855e-04
1.055815451287046153e-02
0.000000000000000000e+00
-4.297394114628437511e-02
0.000000000000000000e+00
0.000000000000000000e+00
3.453980649214155683e-03
-2.932197776838190340e-04
2.442501386236314506e-02
-1.436432206770882625e-01
-4.856029020099250637e-02
3.226918438877952877e-02
5.646367935522150772e-01
9.704494079514340565e-03
0.000000000000000000e+00
1.969356982472281747e-01
1.443974178736242252e-02
1.015994271823675715e-01
-2.237339512555318148e-03
0.000000000000000000e+00
-4.590742151169991542e-04
0.000000000000000000e+00
-4.293216568087323583e-03
0.000000000000000000e+00
0.000000000000000000e+00
2.978330593675807686e-03
8.978118979286245360e-02
9.416673648870481361e-02
7.175540975816281364e-01
0.000000000000000000e+00
0.000000000000000000e+00
0.000000000000000000e+00
0.000000000000000000e+00
0.000000000000000000e+00
-5.088138051466095657e-02
-1.821374245958697902e-01
-2.009110784650733859e-03
0.000000000000000000e+00
-5.381962522829501772e-02
9.248665296030134531e-04
-9.305388318252062502e-05
-7.512736168518953025e-04
-1.705753493739789461e-01
1.775891501324908944e-02
-2.632527957791954559e-02
-1.040619770793505330e-02
-1.365220909135574784e-02
0.000000000000000000e+00
-2.767458802975994100e-02
-5.225182025407267838e-01
0.000000000000000000e+00
0.000000000000000000e+00
0.000000000000000000e+00
4.171624885315321565e-03
0.000000000000000000e+00
2.183812499181291694e-02
-1.127943946028462097e-01
1.839259019264579895e-02
0.000000000000000000e+00
0.000000000000000000e+00
0.000000000000000000e+00
0.000000000000000000e+00
-1.058913082325323857e-02
-9.276985618300372105e-02
0.000000000000000000e+00
-7.982323382846587267e-02
4.948018183897524014e-01
2.003713413037834512e-02
1.007394099110585084e-01
1.196228948950624593e+00
1.240849663139060172e-01
8.356778465271414097e-04
-2.377102300400820573e-02
0.000000000000000000e+00
7.661162335102740702e-03
-4.019013737247391083e-01
1.512194383026202460e-02
8.875099794422650068e-03
-1.483757897830337682e-03
8.837808098424583536e-02
1.099130357018323068e-01
-7.021180615624427433e-03
-9.296090093726406822e-01
4.818264787578239311e-02
0.000000000000000000e+00
0.000000000000000000e+00
0.000000000000000000e+00
-3.373872340167050066e-02
1.867361740978394080e-01
-8.709400079308277087e-02
3.336828630082899205e-01
2.408856770491253629e-02
-3.489903668298513029e-04
-8.704101191850714681e-02
2.456373292431503035e-03
-1.649839781027393967e-03
2.875902358365087230e-03
2.726433562441434380e-02
1.581425027885249301e-01
9.012385668105034331e-03
-1.053496699381091528e-02
0.000000000000000000e+00
-2.174748836239293395e-02
-5.214227475911002718e-02
-1.273811612424058208e-02
0.000000000000000000e+00
-6.085768864351816243e-02
0.000000000000000000e+00
-1.007988476346310600e-02
0.000000000000000000e+00
0.000000000000000000e+00
1.965141815488155846e-03
3.426271145402210588e-02
0.000000000000000000e+00
-7.215200570399270319e+00
-6.745016971538400519e+00
-1.287620524499631181e-03
0.000000000000000000e+00
0.000000000000000000e+00
2.102474727035476536e-03
-3.761069785782399366e-01
0.000000000000000000e+00
1.365259182365815560e-01
0.000000000000000000e+00
-2.653513509409010165e-02
-7.732379999651550762e-02
1.040074924337257116e-02
2.457982449969358524e-02
0.000000000000000000e+00
0.000000000000000000e+00
0.000000000000000000e+00
0.000000000000000000e+00
0.000000000000000000e+00
0.000000000000000000e+00
9.480270425226110242e-04
1.115457302093606808e-02
-3.308457934575037562e-02
-4.882979919165891802e-02
-1.572127502025064821e-02
-1.307729746627666473e-03
-3.348966897567480228e-01
0.000000000000000000e+00
0.000000000000000000e+00
0.000000000000000000e+00
0.000000000000000000e+00
-1.139215767528035661e-01
4.429959385174107034e-01
8.787222933750347964e-02
-1.586229130755668904e-01
8.214456169851730091e-03
3.792875942406136180e-02
0.000000000000000000e+00
0.000000000000000000e+00
0.000000000000000000e+00
-3.150010793283228999e-03
0.000000000000000000e+00
0.000000000000000000e+00
0.000000000000000000e+00
1.038723344607665397e-03
3.592876062074562560e-02
2.337646748716663836e-02
-1.002597642856414284e-01
0.000000000000000000e+00
0.000000000000000000e+00
0.000000000000000000e+00
0.000000000000000000e+00
2.151642039791261743e-02
0.000000000000000000e+00
-1.359013922454089529e-01
0.000000000000000000e+00
0.000000000000000000e+00
-7.336829343964072769e-02
0.000000000000000000e+00
0.000000000000000000e+00
3.726123819018093558e-02
1.766342386452442051e-03
-4.534736362985174879e-02
1.484190569884567823e-01
0.000000000000000000e+00
-6.266811857745635105e-04
0.000000000000000000e+00
2.344645493079323701e-03
0.000000000000000000e+00
0.000000000000000000e+00
1.921477322383718656e-01
-7.418381748991710600e-02
-1.113265717916008396e-01
-4.060432694619422328e-02
0.000000000000000000e+00
-2.982967182140829010e+00
-1.123216106631855737e+01
1.088246327437712435e-01
-1.267611204599896138e-02
-1.742310152128889511e+00
-8.243099608480923823e-01
0.000000000000000000e+00
0.000000000000000000e+00
0.000000000000000000e+00
3.968904919765738493e-04
0.000000000000000000e+00
1.474540952077248446e-01
1.341655363686200531e-02
-5.210319608816078862e-02
0.000000000000000000e+00
8.835157675565727398e-02
0.000000000000000000e+00
-2.082779893889674661e+00
0.000000000000000000e+00
-3.819539016549027693e-02
-5.973604656751078630e-04
9.749226234831351312e-02
2.821393355870162496e-03
4.131057936986026052e-02
0.000000000000000000e+00
-8.728611897825724192e-04
1.232193505482269760e-02
-2.458843070993737071e-02
0.000000000000000000e+00
-1.540715345157240568e-01
0.000000000000000000e+00
-2.532825978320549232e-02
2.888542959322359382e-01
-2.850780322661079086e-02
-3.137553753733994533e-02
-4.357614666646456025e-03
1.048116006432432856e+00
-3.098554534079329612e-02
-2.544696733266581523e-01
5.823755573105816180e-02
-1.155515816155950953e-03
6.132409863611290590e-02
5.152146164557023233e-01
3.296036217180589589e-01
0.000000000000000000e+00
-3.436409087109870697e-01
0.000000000000000000e+00
6.190360942339646205e-03
6.538841033562081977e-05
-1.841151264530595189e+00
-4.456763520952469748e-01
-6.252884026950598917e-02
-5.683413520868561830e-04
-9.880476487757028359e-03
0.000000000000000000e+00
-4.097558009881417142e-03
-1.207651744303624283e-03
3.186087125314855661e-02
-3.648021441838477513e-02
1.426068261857648345e+00
-2.397814613267909567e-01
5.643751864685675468e-02
0.000000000000000000e+00
0.000000000000000000e+00
0.000000000000000000e+00
0.000000000000000000e+00
0.000000000000000000e+00
0.000000000000000000e+00
1.629725993056986566e-02
-2.587563868703568470e-02
-7.379452671406655853e-03
6.772003354172269340e-02
0.000000000000000000e+00
-6.569201163163461421e-02
-6.944158023572670913e-05
0.000000000000000000e+00
0.000000000000000000e+00
2.660339811781674002e-01
-6.051607712180358603e-03
0.000000000000000000e+00
-8.859872756849124578e-03
5.930744190376549541e-03
-2.791069891694777580e-02
1.304905614392677105e-01
-2.154317095739298471e-02
0.000000000000000000e+00
0.000000000000000000e+00
-4.432270779719454240e-02
-3.143766107088539208e-01
0.000000000000000000e+00
9.180070049640645137e-04
0.000000000000000000e+00
1.676182426778733614e+01
-1.559217777551908171e-02
4.283521848457090275e-01
-3.099647369898130651e-04
-7.125112823447543597e-01
3.100126377789783616e-01
-8.656423361086849899e-02
3.378138259771358760e-04
0.000000000000000000e+00
0.000000000000000000e+00
-2.247403337122740735e-02
4.939008452445066595e-03
-7.405731518865782403e-01
0.000000000000000000e+00
4.993739301446893653e-02
-5.002451053783421066e-03
0.000000000000000000e+00
0.000000000000000000e+00
2.053582553599373785e-03
0.000000000000000000e+00
0.000000000000000000e+00
8.855538735044134538e-03
-2.234435472265552079e-03
-1.269602118108488324e-02
-1.220614278824982794e-02
-7.062524122689768646e-02
-2.180417910744851095e-03
0.000000000000000000e+00
-7.494505492288910942e-02
-2.671851730445972545e-02
0.000000000000000000e+00
-2.338415784658696289e-02
-5.093580165339801208e-03
-6.149447357570822503e-03
-2.733985605813431530e-01
-6.947847295600361080e-03
0.000000000000000000e+00
-3.039487596921874849e-05
0.000000000000000000e+00
0.000000000000000000e+00
-1.395377598813521969e-01
-2.462110331578821198e-01
0.000000000000000000e+00
0.000000000000000000e+00
-1.146635568408414380e-01
4.660972427043140465e-02
0.000000000000000000e+00
-2.454434447903500072e+00
-3.293054388378512387e-01
-3.224609697685204557e-01
0.000000000000000000e+00
-7.400342266952698866e-02
0.000000000000000000e+00
-8.307710338297052965e-02
2.596712819559742272e-02
0.000000000000000000e+00
2.915479432289339728e-02
0.000000000000000000e+00
0.000000000000000000e+00
0.000000000000000000e+00
0.000000000000000000e+00
-3.161458759150641284e-02
0.000000000000000000e+00
2.558446289355374107e-03
0.000000000000000000e+00
-7.553533470458947963e-02
-1.556727148331273347e-01
3.620271531538633569e-01
-6.895241646764947241e-04
0.000000000000000000e+00
0.000000000000000000e+00
-1.692105728527533394e-04
9.817318170351992720e-04
-2.800055856477556837e-02
3.237168852442076031e-03
0.000000000000000000e+00
-1.590513207591733424e+00
-1.322916441171176904e-01
-2.643387963709915578e-01
0.000000000000000000e+00
6.449378547663531247e-03
2.229349383510843829e-02
-5.211824885699704868e-03
0.000000000000000000e+00
0.000000000000000000e+00
-2.394635719573012453e-02
0.000000000000000000e+00
4.919815848875472297e-02
-7.239453023343640683e-05
0.000000000000000000e+00
8.401955616250135137e-03
2.026540821952179661e-01
6.739288402571678993e-02
0.000000000000000000e+00
0.000000000000000000e+00
0.000000000000000000e+00
-2.661299180321778125e-03
-3.603947111834762684e-02
0.000000000000000000e+00
0.000000000000000000e+00
-1.076207909096761096e-02
2.657182973298467549e-03
0.000000000000000000e+00
0.000000000000000000e+00
3.184408000354230772e-01
0.000000000000000000e+00
-2.000503973584116107e-02
0.000000000000000000e+00
0.000000000000000000e+00
4.073545058674829349e-03
-1.489445359683365605e-03
-1.576851216038331529e-03
0.000000000000000000e+00
0.000000000000000000e+00
0.000000000000000000e+00
-1.686458231262804031e-01
4.782484377897403514e-04
0.000000000000000000e+00
0.000000000000000000e+00
0.000000000000000000e+00
0.000000000000000000e+00
0.000000000000000000e+00
0.000000000000000000e+00
0.000000000000000000e+00
7.790526463961671907e-05
0.000000000000000000e+00
0.000000000000000000e+00
0.000000000000000000e+00
0.000000000000000000e+00
1.746758966916387226e-02
-7.875889302133740402e-03
0.000000000000000000e+00
0.000000000000000000e+00
0.000000000000000000e+00
0.000000000000000000e+00
0.000000000000000000e+00
0.000000000000000000e+00
-1.780802010116690421e-03
1.297249724350532096e-01
0.000000000000000000e+00
0.000000000000000000e+00
0.000000000000000000e+00
0.000000000000000000e+00
0.000000000000000000e+00
0.000000000000000000e+00
0.000000000000000000e+00
0.000000000000000000e+00
0.000000000000000000e+00
0.000000000000000000e+00
0.000000000000000000e+00
-3.301518819118681985e-03
0.000000000000000000e+00
0.000000000000000000e+00
0.000000000000000000e+00
0.000000000000000000e+00
0.000000000000000000e+00
0.000000000000000000e+00
-1.093499005268647598e-06
0.000000000000000000e+00
-1.748278477740976972e-02
-1.448773202873674705e-02
3.652970657858249370e-01
1.025118878365294944e-01
-6.133431178164759634e-02
-4.334018978298474485e-04
7.964892134793472023e-02
0.000000000000000000e+00
0.000000000000000000e+00
0.000000000000000000e+00
0.000000000000000000e+00
0.000000000000000000e+00
0.000000000000000000e+00
0.000000000000000000e+00
0.000000000000000000e+00
0.000000000000000000e+00
0.000000000000000000e+00
0.000000000000000000e+00
0.000000000000000000e+00
-4.762744861058672567e-04
0.000000000000000000e+00
0.000000000000000000e+00
-4.231283433318383524e-02
0.000000000000000000e+00
-1.268096975586788071e-02
-1.005707088113515744e-02
0.000000000000000000e+00
-6.611649124453832238e-01
0.000000000000000000e+00
0.000000000000000000e+00
-1.064584617212475937e-02
-3.658195646960315378e-02
0.000000000000000000e+00
0.000000000000000000e+00
0.000000000000000000e+00
1.985054351716643295e-02
3.420750520882127887e-02
-3.801602945987963555e-01
1.198832238076525530e-02
1.173519573455386600e-01
3.352414733781953204e-01
2.156382757870164979e-01
0.000000000000000000e+00
0.000000000000000000e+00
0.000000000000000000e+00
0.000000000000000000e+00
0.000000000000000000e+00
0.000000000000000000e+00
-2.543062446910533403e-01
-3.807007801576190592e-02
5.672677077364676745e-02
-6.200058318698856846e-03
4.666515358183131318e-02
-8.957296035507289478e-02
0.000000000000000000e+00
-1.223839437914240810e-02
-1.097464682233005931e-02
-1.787156755090725871e-02
0.000000000000000000e+00
-1.113820371171346003e-02
0.000000000000000000e+00
0.000000000000000000e+00
6.293598401731956282e-02
5.752954261602331171e-03
1.391817720307660252e-04
-9.270679879667552761e-03
2.606134272826200401e-03
-7.177079993110270506e-02
-1.385910847994251648e-02
0.000000000000000000e+00
0.000000000000000000e+00
0.000000000000000000e+00
0.000000000000000000e+00
0.000000000000000000e+00
-4.484077070004729819e-04
-4.247463927427331913e-03
5.968735910681977064e-01
5.882714777254606231e-01
1.507765603220808937e-01
6.132330013544023267e-02
1.068975202237933478e-02
6.626129913669068922e-03
1.893591686480648045e-02
-5.087133603703315396e-03
0.000000000000000000e+00
0.000000000000000000e+00
-3.847121551149579322e-01
0.000000000000000000e+00
0.000000000000000000e+00
1.109293036103909053e-03
2.470508026427871706e-01
-2.319018655680120389e-02
0.000000000000000000e+00
-9.344326089859439355e-02
-7.374799808405474444e-02
0.000000000000000000e+00
-4.247757210236513536e-03
4.798232344940393801e-02
1.340843470484435248e-03
0.000000000000000000e+00
0.000000000000000000e+00
0.000000000000000000e+00
0.000000000000000000e+00
1.626172817593306589e-03
3.028329093550735651e-01
-2.245510648409704824e-01
-8.477745405896222608e-02
6.935834796573542294e-02
-2.272386522691090607e-02
1.526798100699803748e-03
2.199276788209956379e+01
-1.760257409753678282e-01
4.366005218105116492e-03
-9.037050194486433499e-03
1.800531539526225959e-03
-3.733325962934357263e-03
-2.993970265357875915e-02
1.506753063663058001e-01
-9.946866272111401508e-02
2.458420165825777465e-02
5.812599807363061713e-03
7.126775121088417628e-04
-3.043216443452863035e-03
-4.114926793796456345e-02
0.000000000000000000e+00
0.000000000000000000e+00
0.000000000000000000e+00
-3.476971048303540424e-01
-9.250878126136669391e-03
0.000000000000000000e+00
0.000000000000000000e+00
0.000000000000000000e+00
0.000000000000000000e+00
0.000000000000000000e+00
0.000000000000000000e+00
0.000000000000000000e+00
-2.201260486968142915e-03
0.000000000000000000e+00
1.144426583068704380e-02
2.153317029222176146e-02
1.272625600837198057e-01
1.470680847892513743e-02
2.718924667014593899e-03
-2.856418770049738431e-01
1.062132157728636200e-01
-1.264130194481722855e-03
2.764633077642694031e-02
-3.887367653869634732e-02
2.472228391917652424e-02
3.408265299958995048e-02
8.695455813430769121e-02
0.000000000000000000e+00
0.000000000000000000e+00
2.321278809144554020e-02
3.519313493542017626e-03
0.000000000000000000e+00
0.000000000000000000e+00
0.000000000000000000e+00
0.000000000000000000e+00
0.000000000000000000e+00
0.000000000000000000e+00
-3.760117454497793887e-02
0.000000000000000000e+00
0.000000000000000000e+00
0.000000000000000000e+00
0.000000000000000000e+00
-2.186895338792164902e-04
0.000000000000000000e+00
0.000000000000000000e+00
-5.061916126638140584e-03
-3.567387526446041401e-01
-5.317608134216357529e-02
8.433516725050588247e-02
-3.621443320738419020e-04
0.000000000000000000e+00
0.000000000000000000e+00
2.373781131462973475e-03
2.758939480393494265e-02
4.326231595944188824e-01
0.000000000000000000e+00
-2.114630552639325423e+00
-1.640365532072287191e+00
0.000000000000000000e+00
-9.406499137195635518e-03
-3.650682845666104015e+00
-1.335420990505330457e-03
0.000000000000000000e+00
0.000000000000000000e+00
0.000000000000000000e+00
-1.055003086244930030e-04
-1.344940841461235159e-01
0.000000000000000000e+00
0.000000000000000000e+00
0.000000000000000000e+00
0.000000000000000000e+00
0.000000000000000000e+00
0.000000000000000000e+00
7.569173035690111677e-03
0.000000000000000000e+00
-1.739640728941509173e-01
-4.127542547009021012e-01
3.338801980189032986e-03
3.642808608372827273e-02
-2.402773362458067441e-03
5.710905586005577024e-03
0.000000000000000000e+00
0.000000000000000000e+00
-9.749759617714670590e-02
2.161211868665855948e-03
0.000000000000000000e+00
-8.153844400606388709e-02
0.000000000000000000e+00
3.639701582307222627e-01
1.731996003009050183e-02
-2.652185737650267328e+00
4.826626590844006470e-01
1.258401243203980391e-01
-2.884089085997447932e-04
0.000000000000000000e+00
7.541955442187344705e-01
-6.494047345627833312e-02
-2.926323538979144941e-03
2.058334287193640533e-01
0.000000000000000000e+00
0.000000000000000000e+00
0.000000000000000000e+00
4.062759211362895057e-02
-5.395977067038040635e-03
2.710403158210495378e-01
-3.212795716404762136e-02
5.933162527278888591e-03
-1.134024132668141061e+00
-1.490093230811040392e+00
-1.868901560137715689e-01
-7.490233746353864852e-01
-1.786164537756039783e-01
-4.882448760608096641e-03
0.000000000000000000e+00
4.331650141064864734e-02
4.927848288809981436e-02
-8.012811345222107737e-03
-1.299593245178871925e-04
3.359837067650933012e-02
0.000000000000000000e+00
1.057376024579647494e-02
-1.106858106396476499e-02
0.000000000000000000e+00
0.000000000000000000e+00
1.011537956360110055e-02
1.234669597695827164e-03
0.000000000000000000e+00
0.000000000000000000e+00
2.261300034503012715e-02
-3.496044885894414485e-03
0.000000000000000000e+00
0.000000000000000000e+00
-3.313517089771831660e-03
-2.758498215707292853e-02
1.392973587389603196e-01
0.000000000000000000e+00
-9.755321407160057797e-04
0.000000000000000000e+00
0.000000000000000000e+00
-1.091120909410999915e-02
9.025060615302109073e-04
0.000000000000000000e+00
-1.141285487042508207e-01
-4.653628528133467446e-02
0.000000000000000000e+00
2.605813097261999167e-01
1.106168110318736186e+00
0.000000000000000000e+00
0.000000000000000000e+00
-5.996119952860084340e-02
3.833653982047116604e-02
0.000000000000000000e+00
-6.335384764279375358e-02
1.670053233354529265e-02
0.000000000000000000e+00
6.808128863973221187e-03
1.088689876514115779e-02
2.205177878106562254e-05
3.198613801558198411e+00
0.000000000000000000e+00
-7.020777643016556414e-03
-2.072684403436282684e-04
-2.684283394427659786e-03
7.102622518426890408e-02
5.210368157501205078e-01
3.578579320822253291e-06
-2.942736070378019868e-03
-2.830276049007974248e-01
1.792516476369078807e-02
0.000000000000000000e+00
3.454736753351305811e+00
0.000000000000000000e+00
2.398797571194921374e-01
-6.341515488537910906e-04
0.000000000000000000e+00
0.000000000000000000e+00
0.000000000000000000e+00
0.000000000000000000e+00
0.000000000000000000e+00
-4.715879495582178671e-02
5.215581921463426779e-02
1.808608294514170711e-01
-8.473514418075753186e-04
-6.539955158687209280e-03
4.303839274728167574e-04
6.437133937787684577e-03
1.243465569867237101e-02
-1.251644876733595813e-01
1.697339420885398131e-01
2.290419687079533334e-02
-1.364429527427588051e-03
-1.623048214189734662e+00
-8.425110130037020625e-03
-1.129102210024354735e-01
1.524809089337483825e-02
4.022450711045120683e-03
0.000000000000000000e+00
0.000000000000000000e+00
0.000000000000000000e+00
2.535113562297683999e-05
2.625376163265536193e-04
0.000000000000000000e+00
0.000000000000000000e+00
0.000000000000000000e+00
0.000000000000000000e+00
-2.977616470457971065e-01
-1.814441702028261272e+00
5.881225879064411188e-02
3.288065201497105683e-01
1.796809866387105714e-01
4.886411463737093397e-02
-8.372551836406136316e-02
-1.530916137207109090e-02
-2.963800102388894700e-02
2.301684177608592785e-03
2.587627401854481878e-03
6.882283217974627387e-04
-9.358708289583385354e-03
-1.687590775258732481e-02
0.000000000000000000e+00
0.000000000000000000e+00
-1.553564989141269573e-02
0.000000000000000000e+00
0.000000000000000000e+00
0.000000000000000000e+00
0.000000000000000000e+00
-1.897793968881705817e-03
-1.491707872679503832e-01
1.262805530768955908e-01
5.073989707581797459e-01
-2.332762529641276283e-01
0.000000000000000000e+00
0.000000000000000000e+00
-3.675322294370641108e-03
-1.176000310125577264e-01
-4.051816166441157829e-02
3.287135496334245570e-04
9.354010535637177215e-01
-5.669360538294159271e-03
0.000000000000000000e+00
0.000000000000000000e+00
0.000000000000000000e+00
0.000000000000000000e+00
-2.383673508560404386e+00
-3.487378836263080317e-02
4.680094893326379457e-02
0.000000000000000000e+00
1.940297550037684698e-02
-7.554849806892610653e-02
4.221964341272033128e-03
0.000000000000000000e+00
0.000000000000000000e+00
-1.252196821243313669e-02
-7.003730622612186485e-01
2.217849998085489327e-01
0.000000000000000000e+00
6.383965782575842796e-03
-1.125279310441732183e-01
2.446692231426364217e-01
-2.619279163269764843e-01
-7.075717889554277058e-03
-2.890564834417998497e-01
-9.872768925305356290e-04
-6.300807546693980299e-05
0.000000000000000000e+00
-1.520558000850240170e-02
2.565761028397944496e-02
6.361132421161938555e-02
5.144660144743243846e-01
-3.857954128270225880e+00
-3.662013709389093097e-01
0.000000000000000000e+00
1.249828009427559783e+00
2.573294535097756963e+00
3.989180249526894095e-01
0.000000000000000000e+00
-7.288837285544921829e-02
-5.486560922143401964e-01
0.000000000000000000e+00
0.000000000000000000e+00
-1.574293418134529218e-03
-8.318175618624706891e-02
3.644911338829136260e-02
-5.396921237038823302e-03
2.175029044973080146e-03
2.344384618705096929e-02
-2.533627391922929628e-01
2.730286182696781139e-02
0.000000000000000000e+00
-5.587615989077606045e-03
0.000000000000000000e+00
-4.199679314454136669e-01
8.106254318288122485e-02
-3.964322467144198558e+00
1.401081676269901044e-01
-1.693790094373019521e-03
-6.634445202490468719e-04
0.000000000000000000e+00
5.927539901316346282e-02
0.000000000000000000e+00
8.080103393488385910e-02
5.919730899639466006e-03
1.080838952816544352e-02
0.000000000000000000e+00
-1.804457161721346459e-01
-2.135727754392495736e+00
0.000000000000000000e+00
0.000000000000000000e+00
3.320083700696011553e-01
1.318631185271367662e-02
2.273323974095704803e-02
-8.901470362680162507e-02
-1.272096607944620261e-01
0.000000000000000000e+00
4.087969410353397559e-01
0.000000000000000000e+00
0.000000000000000000e+00
-7.497257085502097296e-02
0.000000000000000000e+00
-2.920675849872514385e-02
4.836368383389673398e-02
-1.106865588128711775e-01
3.776440563769490472e-02
6.527325405129773966e-03
-4.930389744463086199e-01
-1.598623897677650119e-01
-5.738686668377430272e-02
0.000000000000000000e+00
2.810134448354992178e-03
1.417560029999930249e-01
1.223117910187018417e-02
-4.485824954911957207e-02
-8.299752058159286239e-02
-8.305753873623272776e-02
2.962847857000543150e-02
-1.581969582932230278e-01
-4.038785873019231643e-01
-5.609845166596030136e-02
1.019598514816119628e-02
7.534710935541174062e-03
0.000000000000000000e+00
0.000000000000000000e+00
6.778392316348836504e-04
8.465202098585536405e-02
-7.355410773213735169e-04
2.324672155057134516e-03
0.000000000000000000e+00
0.000000000000000000e+00
-1.383108618051212546e-02
8.518064390232510039e-03
-1.935746509007484420e-02
0.000000000000000000e+00
0.000000000000000000e+00
0.000000000000000000e+00
-2.586614813565290541e-04
1.716866027641497216e-03
1.204494962278718044e-03
-1.200917799349942791e-02
-2.397448976453419450e-02
-4.502479390703911788e-01
-2.061017260050187171e-03
8.802214602227502460e-02
-2.711415109416570601e-02
5.224544066560835856e-04
0.000000000000000000e+00
5.826605246790416770e-04
0.000000000000000000e+00
-3.454161771449826279e-02
0.000000000000000000e+00
1.258113738783265545e-01
4.687057344818543192e-02
9.277768602855238425e-03
0.000000000000000000e+00
0.000000000000000000e+00
0.000000000000000000e+00
0.000000000000000000e+00
0.000000000000000000e+00
0.000000000000000000e+00
0.000000000000000000e+00
0.000000000000000000e+00
8.867258369030062842e-03
-3.449113684990887801e-02
1.561487019719109103e-02
-9.424488901929316568e-04
-9.690132943091357351e-03
-7.241851098575052825e-02
0.000000000000000000e+00
0.000000000000000000e+00
-3.309061432565076066e-03
-5.080111464358374671e-05
2.993976854209097205e-01
9.177314715584428736e-04
-8.827693887162561467e-03
-1.578013131618714870e-02
3.343728033255678467e-01
-1.081522122736366335e-03
0.000000000000000000e+00
0.000000000000000000e+00
0.000000000000000000e+00
0.000000000000000000e+00
0.000000000000000000e+00
0.000000000000000000e+00
0.000000000000000000e+00
0.000000000000000000e+00
0.000000000000000000e+00
0.000000000000000000e+00
0.000000000000000000e+00
-3.162751878744628209e-02
-3.243318396586831742e-01
-2.096525894837752424e-01
6.590742621038860050e-02
2.878704661003829955e-03
0.000000000000000000e+00
1.444178089185539334e-03
7.889739517391983203e-03
2.795441111484103704e-03
0.000000000000000000e+00
-1.158626869357499700e-01
-5.618639343399461916e-01
9.282113221553087157e-02
-1.537646099720446982e-02
5.093877829274232050e-02
4.416430503079628700e+00
2.257373680656151183e-01
2.795231446756685917e-02
2.043801538314696520e-01
0.000000000000000000e+00
-2.943831574713071664e-01
-3.148541519280056294e-02
0.000000000000000000e+00
6.559379351171565342e-02
1.641929806162490887e-02
0.000000000000000000e+00
0.000000000000000000e+00
0.000000000000000000e+00
-2.188553018251324089e-02
-5.242710179151309768e-01
-4.666443190636799902e-03
1.004358523532759319e-02
-1.314587398977924704e-02
-2.503038182770557160e-02
-2.796893291978844176e-01
1.044162982086842620e-02
0.000000000000000000e+00
1.327543912101406508e-02
9.616288822845504847e-02
-5.873858935969292552e-04
-3.658414106493478989e-03
0.000000000000000000e+00
0.000000000000000000e+00
2.144682792659393863e-02
1.712165200969370249e-01
-1.945724067558787795e-02
3.148910594477684066e-01
0.000000000000000000e+00
0.000000000000000000e+00
1.252969487763219592e+00
0.000000000000000000e+00
-2.247839553665472584e-04
5.213931864158919544e-03
0.000000000000000000e+00
0.000000000000000000e+00
0.000000000000000000e+00
-2.705263407911276765e-04
-6.174202092215943516e-01
3.820036386346385704e-02
2.955865953560941201e-02
0.000000000000000000e+00
0.000000000000000000e+00
0.000000000000000000e+00
-1.421405992580007660e-02
0.000000000000000000e+00
-2.522929529866337894e-01
5.151303203467624270e-01
-2.727903904355182593e-03
2.995248739464068111e-02
0.000000000000000000e+00
0.000000000000000000e+00
0.000000000000000000e+00
0.000000000000000000e+00
1.524683843534676772e-04
0.000000000000000000e+00
1.210159333103339330e-03
-1.785154130726645605e-03
-1.504087473150847121e+00
1.261641425544640475e-02
1.694596510203830175e-02
0.000000000000000000e+00
-3.593038071390722548e-03
-1.036217584682636444e-01
0.000000000000000000e+00
5.356109056646754518e-03
-2.404298080651320335e-01
-7.576146120106500015e-02
0.000000000000000000e+00
0.000000000000000000e+00
-4.414598726545458651e-02
1.132770531094181611e-03
6.407087246839175687e-02
0.000000000000000000e+00
2.098748066953338709e-01
-6.574551182341888123e-02
-1.031995556586558227e-02
0.000000000000000000e+00
0.000000000000000000e+00
0.000000000000000000e+00
0.000000000000000000e+00
-3.128099869570050151e-03
-1.691913245265322274e+00
0.000000000000000000e+00
-1.096944419389975743e-02
0.000000000000000000e+00
7.166046504679984830e-02
-1.185772691483954477e-01
0.000000000000000000e+00
0.000000000000000000e+00
0.000000000000000000e+00
-4.811992208987723356e-04
-1.721977068488143559e+01
-2.667590446189357228e-02
-3.713407451808175413e-02
3.928541314212574687e-02
0.000000000000000000e+00
0.000000000000000000e+00
4.792613954846639511e-03
0.000000000000000000e+00
0.000000000000000000e+00
1.053879260056214684e-01
0.000000000000000000e+00
0.000000000000000000e+00
0.000000000000000000e+00
0.000000000000000000e+00
-7.128679394987558204e-02
0.000000000000000000e+00
0.000000000000000000e+00
1.598551286677050987e-02
0.000000000000000000e+00
-1.349994056835841783e-01
0.000000000000000000e+00
1.444277259200127950e-01
-5.241389166975490149e-02
-5.898328516873611177e-03
6.698410592132608699e-02
-3.412622126258703370e-02
-4.219613388872130166e-02
7.557153865409566018e-01
2.369863731036121052e-02
0.000000000000000000e+00
-1.803029714884902268e-01
1.147185651428662446e-02
0.000000000000000000e+00
-1.431497716784073393e-04
0.000000000000000000e+00
-6.847057107525057751e-02
0.000000000000000000e+00
0.000000000000000000e+00
-2.069375598962008150e-02
-5.739102796705629617e-01
0.000000000000000000e+00
-3.811127989876181548e-03
0.000000000000000000e+00
0.000000000000000000e+00
0.000000000000000000e+00
4.151002409424626310e-02
0.000000000000000000e+00
5.233994218001134652e-02
7.600092239820757101e-01
-3.324674486229361320e-02
0.000000000000000000e+00
0.000000000000000000e+00
-6.449728821165834347e-01
-4.263216631618448743e-02
0.000000000000000000e+00
0.000000000000000000e+00
0.000000000000000000e+00
4.244081556003852923e-02
-9.220659121349825127e-03
-7.075786906901437856e-02
0.000000000000000000e+00
-4.446633345096286105e-02
0.000000000000000000e+00
0.000000000000000000e+00
0.000000000000000000e+00
1.273420174291982065e-01
-4.000153652158855780e-03
0.000000000000000000e+00
-1.233841931866920538e-02
0.000000000000000000e+00
0.000000000000000000e+00
1.945029191883994590e-01
0.000000000000000000e+00
-4.586955289864256824e-01
-2.776378044025298863e-02
0.000000000000000000e+00
0.000000000000000000e+00
2.428987711248125681e-04
0.000000000000000000e+00
0.000000000000000000e+00
0.000000000000000000e+00
-3.011957224231773811e-01
0.000000000000000000e+00
0.000000000000000000e+00
0.000000000000000000e+00
-1.495331147942186370e-02
1.510024296558640060e-03
0.000000000000000000e+00
0.000000000000000000e+00
0.000000000000000000e+00
8.256055945379747133e-04
-3.251378480285842254e-02
0.000000000000000000e+00
0.000000000000000000e+00
4.697412743424325882e-04
0.000000000000000000e+00
0.000000000000000000e+00
0.000000000000000000e+00
-1.062660084152898671e-01
0.000000000000000000e+00
0.000000000000000000e+00
-1.437837492099739989e-01
0.000000000000000000e+00
0.000000000000000000e+00
-8.724200951858374076e-02
0.000000000000000000e+00
0.000000000000000000e+00
0.000000000000000000e+00
0.000000000000000000e+00
1.728365842122402997e-03
0.000000000000000000e+00
0.000000000000000000e+00
0.000000000000000000e+00
0.000000000000000000e+00
0.000000000000000000e+00
0.000000000000000000e+00
0.000000000000000000e+00
4.977283305537458236e-02
0.000000000000000000e+00
-2.915878530629534837e-01
0.000000000000000000e+00
0.000000000000000000e+00
-1.375481355608911271e-01
-4.101950165689936534e-01
-2.597026252552116481e-04
-3.822983664682859106e-01
0.000000000000000000e+00
0.000000000000000000e+00
0.000000000000000000e+00
-1.348760439285071611e-01
0.000000000000000000e+00
0.000000000000000000e+00
0.000000000000000000e+00
0.000000000000000000e+00
0.000000000000000000e+00
-1.222070466217135415e-01
-9.447906354121005795e-04
0.000000000000000000e+00
0.000000000000000000e+00
0.000000000000000000e+00
0.000000000000000000e+00
0.000000000000000000e+00
0.000000000000000000e+00
0.000000000000000000e+00
0.000000000000000000e+00
-4.376777058361921990e-02
-1.582138548222850440e-03
2.863439643084489394e-01
8.443565987397328929e-03
0.000000000000000000e+00
-4.468158443997084089e-02
0.000000000000000000e+00
0.000000000000000000e+00
0.000000000000000000e+00
0.000000000000000000e+00
0.000000000000000000e+00
0.000000000000000000e+00
0.000000000000000000e+00
0.000000000000000000e+00
0.000000000000000000e+00
0.000000000000000000e+00
0.000000000000000000e+00
-5.886519037212221365e-04
0.000000000000000000e+00
-4.601703487435112455e-02
0.000000000000000000e+00
1.611536445517299659e-02
7.963904986141676079e-03
0.000000000000000000e+00
0.000000000000000000e+00
0.000000000000000000e+00
0.000000000000000000e+00
0.000000000000000000e+00
0.000000000000000000e+00
0.000000000000000000e+00
-4.751815041788784617e-03
0.000000000000000000e+00
1.840511124843970418e-03
-1.141899889122940659e-01
-2.612055809231409453e-01
-3.135602241905001419e-02
0.000000000000000000e+00
0.000000000000000000e+00
0.000000000000000000e+00
0.000000000000000000e+00
0.000000000000000000e+00
0.000000000000000000e+00
0.000000000000000000e+00
2.562824792550322359e-04
1.006823660206149357e-01
0.000000000000000000e+00
0.000000000000000000e+00
0.000000000000000000e+00
0.000000000000000000e+00
-1.035138163958980277e-02
-2.340113736200351638e-02
0.000000000000000000e+00
0.000000000000000000e+00
0.000000000000000000e+00
0.000000000000000000e+00
0.000000000000000000e+00
-8.100831190052147157e-04
8.158801421941023601e-04
-6.069451870376068757e-05
0.000000000000000000e+00
7.021025734411018293e-03
6.121375239575329585e-01
0.000000000000000000e+00
0.000000000000000000e+00
0.000000000000000000e+00
0.000000000000000000e+00
0.000000000000000000e+00
-1.284601130692119564e-01
-2.060759191947621541e-03
0.000000000000000000e+00
2.018176872577539527e-01
-2.745804410293610151e-02
0.000000000000000000e+00
2.665231526635949803e-03
1.764323923147183976e-02
0.000000000000000000e+00
0.000000000000000000e+00
-1.068319930998757336e-03
-7.219298532153349546e-02
0.000000000000000000e+00
0.000000000000000000e+00
0.000000000000000000e+00
4.575007273568343358e-02
4.651064443608576227e+01
0.000000000000000000e+00
1.937477851496009068e-02
2.163321326818726242e-02
-1.285070750950106644e-01
0.000000000000000000e+00
-4.705311769868073153e-04
3.013675523781199003e-02
0.000000000000000000e+00
0.000000000000000000e+00
0.000000000000000000e+00
-1.482628763153508167e-02
-2.686243677012623097e-03
-4.804456307021357647e-02
0.000000000000000000e+00
-7.930430396468374221e-02
2.077048495299131659e-02
-1.293199016015244987e-03
1.362181660985256060e-01
-1.133955965433661520e-02
3.280445817364661953e-02
-6.537814409054300280e-03
-9.882110702770804389e-01
7.077988738138778213e-02
0.000000000000000000e+00
4.816153246279756411e-02
0.000000000000000000e+00
1.126773422394937718e+00
1.548326600724507784e-01
3.884308379422132113e-02
-8.334197898989158942e-03
-1.277797704215398455e-02
0.000000000000000000e+00
0.000000000000000000e+00
0.000000000000000000e+00
0.000000000000000000e+00
-6.950465193276471332e-02
0.000000000000000000e+00
0.000000000000000000e+00
-8.382256404110919323e-01
-5.964070666605645471e-02
0.000000000000000000e+00
1.463693242286616403e-01
0.000000000000000000e+00
0.000000000000000000e+00
3.245377888464330840e-01
-2.464715205233142942e-02
1.711405052075215538e-01
5.595061259802199816e-01
4.009434794391243673e-02
8.512334452226810733e-01
1.995960526037409560e-02
0.000000000000000000e+00
2.829601342942521525e-01
4.945094199837185567e-03
0.000000000000000000e+00
0.000000000000000000e+00
0.000000000000000000e+00
-1.827459395131669773e-01
-1.134804696662455870e-02
0.000000000000000000e+00
0.000000000000000000e+00
0.000000000000000000e+00
0.000000000000000000e+00
0.000000000000000000e+00
0.000000000000000000e+00
0.000000000000000000e+00
0.000000000000000000e+00
0.000000000000000000e+00
-9.723047631546769765e+00
-8.134173314289462262e-03
1.267229889093609008e-01
5.621549885432100026e-03
0.000000000000000000e+00
0.000000000000000000e+00
5.543556586086724469e-02
-9.452181121448820222e-03
-3.535894057369103061e-02
4.971399891309300489e-01
0.000000000000000000e+00
0.000000000000000000e+00
0.000000000000000000e+00
0.000000000000000000e+00
-6.356558317593768992e-02
-1.842298548993231933e+01
-5.388377325326150491e-02
-2.341934531737487057e-02
-5.329402405149103600e-02
0.000000000000000000e+00
0.000000000000000000e+00
1.205332359877209778e-03
0.000000000000000000e+00
0.000000000000000000e+00
0.000000000000000000e+00
0.000000000000000000e+00
0.000000000000000000e+00
2.961082165120661799e-03
0.000000000000000000e+00
2.474582824275357081e-03
0.000000000000000000e+00
0.000000000000000000e+00
-2.240751347820387623e-02
-1.012238561863538708e-03
0.000000000000000000e+00
1.841030607730010423e-03
-3.820584583921851629e-02
-1.400320350003455422e-02
0.000000000000000000e+00
-5.223252997580238310e-03
-2.403645302860472899e-02
-1.185780192799707963e-02
1.048840338715152920e-01
0.000000000000000000e+00
-8.964103716648481185e-03
1.904914899102166242e-02
-1.133814060830559689e-01
0.000000000000000000e+00
4.233324670477663088e-02
4.543918756903203571e-02
0.000000000000000000e+00
0.000000000000000000e+00
-3.679512562466135533e-03
9.053537933053665970e-03
0.000000000000000000e+00
1.460316461034176679e-03
0.000000000000000000e+00
0.000000000000000000e+00
-1.484021558500481230e+00
2.676915992619782400e-02
4.495106424863428152e-01
0.000000000000000000e+00
-1.522795821734769794e-01
0.000000000000000000e+00
-2.234057358410404016e-03
-6.112581222229836544e-05
6.406698233826645106e-02
0.000000000000000000e+00
0.000000000000000000e+00
-1.746122615530286382e+01
-8.124258656089216046e-01
-2.763159248414208315e-03
0.000000000000000000e+00
0.000000000000000000e+00
-7.153756195651386762e-02
1.055934037443795881e-01
-6.414977156498684330e-03
-7.638893842235643106e-03
3.587664569760821986e-02
-3.236025298772585677e-03
-8.759233210831456062e-02
-5.700361990802753354e-02
-3.509253325168836257e-01
0.000000000000000000e+00
0.000000000000000000e+00
-3.176729249187870696e-02
2.948469406025135076e+00
-1.156398223863098540e+00
0.000000000000000000e+00
0.000000000000000000e+00
-2.415170948507329007e-03
9.781774583970259673e-02
3.782713784196434226e-02
0.000000000000000000e+00
0.000000000000000000e+00
0.000000000000000000e+00
0.000000000000000000e+00
0.000000000000000000e+00
0.000000000000000000e+00
-4.943833179260496979e-02
-3.501937441311030241e+00
0.000000000000000000e+00
0.000000000000000000e+00
0.000000000000000000e+00
-4.816728999366283459e-03
3.948798160926118572e-01
0.000000000000000000e+00
0.000000000000000000e+00
9.459568013479830546e-04
1.198554589242649404e-01
1.100601605681978713e-02
-4.533778866237971328e-01
0.000000000000000000e+00
-1.136569290088202538e-01
-1.846700223558704265e-02
-1.092030932090418682e+00
-1.095733326271721986e-01
1.374538855918393688e-03
3.816970164618183059e-02
1.565812522468243706e-01
0.000000000000000000e+00
-2.031448314981648337e-02
-3.713938773119251913e-01
0.000000000000000000e+00
0.000000000000000000e+00
0.000000000000000000e+00
0.000000000000000000e+00
5.044173847718324000e-01
7.839726438147170962e-02
0.000000000000000000e+00
0.000000000000000000e+00
0.000000000000000000e+00
0.000000000000000000e+00
0.000000000000000000e+00
0.000000000000000000e+00
-1.024375806546134471e-01
-5.252975892862298268e-01
-3.947631648961105189e+00
-8.598786335572265477e-04
-1.286811374214489462e-02
0.000000000000000000e+00
1.224153632596012509e+00
3.816290600690637747e-01
1.380091627960044684e-02
1.067676991815248028e-01
-7.068189338907213126e-02
-7.107037744951502090e-01
-5.867123464046875014e-01
6.678787456837309566e-02
0.000000000000000000e+00
8.508675735596500644e-03
-9.894281663840506780e-02
-1.754716440050946985e-02
5.834623921507048339e-02
1.737770487510227960e-02
0.000000000000000000e+00
0.000000000000000000e+00
-2.691917738508173841e-01
0.000000000000000000e+00
1.296806754543038398e-01
1.785030685794850314e+01
9.976227251668674967e+00
0.000000000000000000e+00
2.492166717390156272e-01
-1.783440413095455757e+00
0.000000000000000000e+00
-3.479284871547144156e-04
1.139540176406200755e-02
0.000000000000000000e+00
1.138361435183440342e-03
6.167527864303854468e-01
2.638874216815215945e+00
5.169958849724649586e-01
-3.183571123625518751e-01
1.844852793207480968e+00
1.846002560588992703e+00
6.115706193485936026e+00
-1.672977852117933095e-01
-1.671272112572148860e-02
-3.006752171866179831e-03
-8.153485316422265372e-02
1.907191350636939110e-03
-3.275463536207867676e-02
-5.266856289745216330e-02
-6.733545030194462711e-02
1.900124741621828399e-03
-3.836525957079952143e+00
-1.248724752238593028e-01
1.127809263705867454e-01
-1.184808390293131120e-01
1.123489160404999784e-02
-1.084418838722741620e-02
-7.910015454238588533e-05
9.592862759817851609e-03
0.000000000000000000e+00
1.121209639168053579e-01
-9.553900713547663600e-04
3.021553512536055350e-02
0.000000000000000000e+00
0.000000000000000000e+00
0.000000000000000000e+00
0.000000000000000000e+00
1.806579620534515818e-01
0.000000000000000000e+00
0.000000000000000000e+00
-2.103430624750652483e-02
-2.377580119151422033e-02
1.213881642659828258e-01
2.579463657321756997e+01
7.003661418684583584e-01
1.724385653174393296e+00
6.925633953200629467e-01
-3.793456353207924625e-01
0.000000000000000000e+00
-5.386225883033450845e-01
-1.787311576055821208e-02
-1.334356468215890795e-02
0.000000000000000000e+00
-2.686809743616106264e-02
5.654569271871134895e-02
4.737448649953873714e-03
-7.319137389701322327e-01
-1.091646474939809153e+00
0.000000000000000000e+00
-1.274729502019934790e-01
-2.063850874252678436e-01
4.601043440042332233e-02
-1.304066996112415722e-01
1.540359478844379737e-01
0.000000000000000000e+00
-3.586709787498100488e-02
-2.124358489714216203e-02
0.000000000000000000e+00
0.000000000000000000e+00
0.000000000000000000e+00
2.301844228568702133e-01
-2.206923175310535057e-02
1.711271979663465115e-01
1.490801703033105241e+01
1.878976664054083923e-01
0.000000000000000000e+00
0.000000000000000000e+00
-2.629364877210781382e-01
-7.772042133545261494e-03
-2.975472598681615233e-02
8.062710823082493063e-04
4.215756305795360578e-03
-1.423967246539551085e-03
-2.868619400037799964e-03
-2.662728686849864454e-02
0.000000000000000000e+00
-3.757858168404209498e-01
-7.437305382296093004e-02
1.777232563276899824e-01
3.024750755577878980e+00
2.592815822930532033e-01
-1.304484196482254887e+00
-1.084300748146596882e-01
-1.459455465427160759e+00
-1.451984705586531810e+00
2.069276541466040942e-03
5.362801423047742176e-03
-1.383195980074138076e-01
-2.811148731561003040e-03
2.089948543189870389e-01
2.222500517524058153e-02
0.000000000000000000e+00
0.000000000000000000e+00
8.523607709150958778e-01
-1.168364435961082526e+00
4.455301622321991627e-04
1.319744203016014750e-01
3.008137364736594710e-02
1.007283387954894527e-01
0.000000000000000000e+00
3.289017244565686782e-02
0.000000000000000000e+00
4.643466953847652512e-03
1.688090975087117116e-03
0.000000000000000000e+00
3.163305195813402582e-02
-3.300720540433224365e-04
-7.557831617140641205e-05
-2.856322123537689741e-04
4.487502018745610083e-02
-1.927266849502604629e-01
-1.412188790667183724e+01
-2.430087188455580716e+01
0.000000000000000000e+00
5.234565321478013011e-01
-7.951004662896309083e-02
1.280150920041644436e-01
8.720396553230271020e-02
7.552763077340606673e-03
-3.096668648759983711e-01
-2.199738198573925399e-02
-4.186433312867184064e-02
-1.086495969698224318e-02
-6.163538302696441873e-01
-4.628725054935589611e+00
2.280540468071812654e+00
2.300762339405751367e-02
1.755678554217023346e-01
0.000000000000000000e+00
-2.796096560389988994e-01
-4.184691786432580274e-02
4.290590227731164719e-01
0.000000000000000000e+00
2.354294722181084730e-03
-2.350637887142968951e-01
1.415192792056401971e-01
3.060652439885258591e-01
0.000000000000000000e+00
-4.712177826305934125e-02
-1.127144104440773974e-02
-3.432837695162890140e-04
-1.982304874132920225e-02
-2.285198836005233325e+00
0.000000000000000000e+00
7.898476598767176227e-03
1.159589352978703664e-01
1.866328318323465751e+01
-1.943610614336896067e-02
0.000000000000000000e+00
6.852085019386598974e-01
1.719071310350594461e-01
2.878148253423009617e+00
-9.779925649842115265e-02
-1.261373554632476413e-02
-1.241413965168506770e-03
0.000000000000000000e+00
6.894834083695293436e-02
2.372498916201083025e-02
0.000000000000000000e+00
2.074318049923872236e-03
3.830617261211111124e-02
1.857231721443339256e-02
0.000000000000000000e+00
0.000000000000000000e+00
-1.307897925383906534e-01
-1.254026021385819603e-02
0.000000000000000000e+00
7.676770663064493364e-03
-3.727615985762745832e-04
-7.215520404821584854e-01
0.000000000000000000e+00
-1.377007749930526104e-01
6.116891163633846773e+00
-8.276426338067063848e-03
-8.388550530665768099e-03
2.744826213898876252e-02
-1.108023948819151366e-01
2.591483411717407370e-02
4.690213286369307455e-02
5.487572276082689632e-02
6.740086285450794246e-02
1.321328143772641101e-02
1.524375874262251795e-01
0.000000000000000000e+00
0.000000000000000000e+00
0.000000000000000000e+00
0.000000000000000000e+00
6.600309647173893419e-04
-1.346622222092195009e-01
-2.501031187868314465e-01
-3.005035825614614797e+00
1.644225212901559985e-01
-3.232347837845517269e-02
-2.472686363911672305e-02
1.713198820494619135e-01
-4.793018719503271650e-03
5.933313307723387525e-02
0.000000000000000000e+00
-5.613449437256390340e-03
0.000000000000000000e+00
0.000000000000000000e+00
-7.885328657894762061e-02
-5.696502662892585084e-02
-6.450278442409584923e-03
-5.494354904578899745e-01
-3.109566136739869840e-02
-3.541744454017672350e-01
0.000000000000000000e+00
3.848122543819072500e-04
0.000000000000000000e+00
0.000000000000000000e+00
2.955448947752534888e-02
0.000000000000000000e+00
-1.195759247519058821e+00
-5.242066026299404058e+01
-1.779878816591982549e+00
-1.202846010900558094e+00
1.772988657430284443e-01
0.000000000000000000e+00
6.567908744205554726e-04
-8.079427188925619729e-01
0.000000000000000000e+00
0.000000000000000000e+00
0.000000000000000000e+00
1.289786819478358493e-01
9.857179515400129460e-03
6.404174184812019832e-02
0.000000000000000000e+00
0.000000000000000000e+00
-2.517377962915041262e-02
-1.214230816632113491e-01
-2.726482029422038211e-01
-4.257711166507516243e-01
-2.690810604908013826e-01
9.574939068148359544e-03
-3.236292199235615841e-03
0.000000000000000000e+00
-1.160603446746686501e-02
4.464615986741376358e-02
-2.403885096620847830e-02
-1.736205671318323263e-01
0.000000000000000000e+00
0.000000000000000000e+00
0.000000000000000000e+00
-2.017920264706825340e-01
1.829906756074379248e-01
1.438724807344456735e+00
-3.603715439943072640e-01
1.550618344931534998e-01
0.000000000000000000e+00
0.000000000000000000e+00
0.000000000000000000e+00
-6.355751799162986417e-03
-3.662970125122753245e-02
1.353623387357754670e-01
2.905298912507271736e-04
-2.536131673373071341e-02
7.807998975723408064e-01
2.135016536585921110e-01
9.520959542349276272e-02
-7.725337969544715522e-02
0.000000000000000000e+00
1.634129389473358285e-01
5.057571725247938382e-04
5.065165491084255671e-03
3.428834561325606878e-02
0.000000000000000000e+00
-7.237862824415379481e-02
-1.413237058487239878e-02
1.292849596943858315e-01
1.122562572150025487e-02
1.172295113970473479e-01
6.061001817044429398e-03
1.507528828380239050e-01
2.611545910286138250e-01
0.000000000000000000e+00
0.000000000000000000e+00
-6.286768636268646798e-04
0.000000000000000000e+00
-2.106172615370114146e-03
5.492225890500681551e-01
0.000000000000000000e+00
1.134423308603423747e-02
-3.072914633475808399e-01
0.000000000000000000e+00
-1.415874288186005914e-01
-5.023109215289441043e-02
2.172507055677927568e+00
3.097887818175170879e-02
2.461393167487243780e-02
-1.304909102100320316e-02
-9.513738393506541990e-02
3.716634129136994064e-02
0.000000000000000000e+00
0.000000000000000000e+00
-7.688625486595967659e-03
1.075454384691657550e-01
-2.859790800145756151e-03
-1.267314684691620563e-01
1.951755927493545317e-02
-1.900888226438204598e-01
0.000000000000000000e+00
-6.279124345283839670e-01
-1.210088138158735976e-02
-2.838626993165204726e-01
-7.514008382218352426e-03
-2.023363095077447549e-02
-1.171949439545131449e-03
0.000000000000000000e+00
0.000000000000000000e+00
-8.921437583391808590e-02
-4.887479636689960431e-03
2.769583583097050619e-02
2.080018060030275340e-03
-8.714192487384123456e-03
-1.168971268113418388e-03
-2.527069068009665798e-01
1.057234851013330729e-01
4.720262999681785338e-02
-1.903211062598632319e-02
-7.668387642649737712e-03
0.000000000000000000e+00
0.000000000000000000e+00
0.000000000000000000e+00
5.146561757160048045e-02
0.000000000000000000e+00
0.000000000000000000e+00
0.000000000000000000e+00
-1.302696437946971632e-02
0.000000000000000000e+00
0.000000000000000000e+00
-3.478423718414995480e-03
-1.044338431632210740e-01
-3.859306856806331010e-01
3.200516117049397556e-04
-1.042727890452932321e-01
1.042129875373480896e-01
-8.507469130006651836e-01
-1.187854921104114850e-02
-5.360269531333439197e-02
-9.252283550317878802e-02
-3.796675904182797434e-02
-2.426426299625052130e-02
4.572263376483690772e-02
0.000000000000000000e+00
1.912715659630388884e-03
-1.319657199212375884e-02
6.294086442171764606e-01
-3.595454548389161870e-03
4.794614121061932521e-01
-2.252761012487696521e-04
0.000000000000000000e+00
0.000000000000000000e+00
0.000000000000000000e+00
-2.684274902162267495e-01
-1.303313453386656731e-03
0.000000000000000000e+00
0.000000000000000000e+00
0.000000000000000000e+00
0.000000000000000000e+00
6.418510227532249479e-02
-5.355226260712729613e-02
-1.375548586212254509e+00
7.361408845306272736e-03
4.959913721130109199e-01
1.245013539767140381e-03
-6.011403443476473008e-04
-1.094854993502805511e-02
-7.378231094759485700e-03
6.489442989750724422e-01
0.000000000000000000e+00
8.892066418763207303e-02
0.000000000000000000e+00
-4.504558741986471916e-03
0.000000000000000000e+00
1.011040349546606099e-01
0.000000000000000000e+00
-3.289272093593778763e-03
-6.951505868033201925e-03
-3.835045816118948236e-02
-1.586359571258956214e-01
0.000000000000000000e+00
0.000000000000000000e+00
4.178226252068228432e-03
0.000000000000000000e+00
0.000000000000000000e+00
4.596399887222312798e-05
0.000000000000000000e+00
0.000000000000000000e+00
0.000000000000000000e+00
-1.008929399035977080e-02
-9.622790919403645393e-01
-1.435811366234219892e-02
0.000000000000000000e+00
5.791423675930226257e-03
0.000000000000000000e+00
3.985368678458843517e-02
2.100205915865338885e-05
4.964419390764975848e-01
0.000000000000000000e+00
-1.517894063983609961e-03
0.000000000000000000e+00
1.302730092287997521e-01
5.870736962718047236e-01
2.303844137023846605e-01
-2.276766399559678952e-02
0.000000000000000000e+00
-1.566426587105777292e-03
-2.588504380614669058e-04
-4.130379018770702348e-02
-7.025478659439481077e-02
1.499017610982545691e-02
8.330829074467547279e-01
2.045991050717459736e-01
-1.034619712448377193e-01
0.000000000000000000e+00
0.000000000000000000e+00
-3.023068757923133565e-02
1.638502505864994685e+00
-2.838223194456811552e-02
0.000000000000000000e+00
-7.196680376042108307e-02
-1.083952354742366175e+00
1.424763515334816581e-05
0.000000000000000000e+00
0.000000000000000000e+00
2.152361275588026562e-04
-1.312250485882823225e-01
1.961148873719174290e-01
0.000000000000000000e+00
0.000000000000000000e+00
-1.932682528656121286e-03
-3.422439109420562231e-02
-2.502304357464038218e-02
1.849884862472542246e-02
-3.182112827658514220e-01
0.000000000000000000e+00
1.908504799142702879e+00
-9.258936764665001186e-04
0.000000000000000000e+00
0.000000000000000000e+00
0.000000000000000000e+00
4.886999508113398782e-01
-8.990153713983696027e-04
0.000000000000000000e+00
-1.173279440559146236e-01
4.369489706602453644e-02
0.000000000000000000e+00
3.927601490606489471e-02
-1.757031435239182413e-03
4.920729225329278228e-03
-1.209830617244656709e-03
0.000000000000000000e+00
-4.030886737460807057e-01
-7.518037502595585619e-02
0.000000000000000000e+00
-1.138151260647850965e-02
0.000000000000000000e+00
1.125647824500557908e-03
-2.110567852549325579e-02
-1.913530788539800562e-02
-8.998781568168464501e-03
0.000000000000000000e+00
0.000000000000000000e+00
0.000000000000000000e+00
-1.130020531555459229e+00
0.000000000000000000e+00
-8.363624782267554958e-02
-1.900471069680657599e-01
0.000000000000000000e+00
-5.171659189136561946e-02
-9.379650843720370446e-02
0.000000000000000000e+00
-1.872246874503580294e-02
-1.063441541876298906e-02
0.000000000000000000e+00
5.635985479701047587e-03
-3.810670712468156029e-02
1.100079733763330595e-03
-1.889699678307501260e-04
5.807502337523666328e-04
0.000000000000000000e+00
-2.428795272794365481e-02
0.000000000000000000e+00
0.000000000000000000e+00
0.000000000000000000e+00
3.314123924148924035e-03
-1.314875340829005368e-01
0.000000000000000000e+00
-1.196327437716279807e+00
0.000000000000000000e+00
9.718701397280106328e-04
0.000000000000000000e+00
-8.277439563565022057e-03
5.989757755172472366e-03
4.421142084346190576e-02
2.186669633630286824e-01
5.469169845463481630e-03
2.028398761203851575e-04
0.000000000000000000e+00
-5.447170345618720932e-02
2.336771589921912608e-03
0.000000000000000000e+00
0.000000000000000000e+00
0.000000000000000000e+00
0.000000000000000000e+00
0.000000000000000000e+00
7.687668318815323032e-02
-1.253606954424977757e-02
6.738541339431177411e-03
-2.265021752072261113e-02
-2.872334280325409411e-03
0.000000000000000000e+00
-8.097460557901406397e-02
-1.275710933410733813e-02
0.000000000000000000e+00
1.264106728443223013e-02
1.355187541588688711e-02
0.000000000000000000e+00
0.000000000000000000e+00
2.006734315106525218e-04
0.000000000000000000e+00
1.363754423538184046e-01
1.703379716516144060e-01
-5.255859962940393620e-02
4.172951906557781365e-02
2.737904965992949205e-02
0.000000000000000000e+00
-3.523206122466609417e-03
0.000000000000000000e+00
8.651410264709169518e-03
1.073639488993084930e-02
0.000000000000000000e+00
0.000000000000000000e+00
0.000000000000000000e+00
1.909205481017738348e-01
5.175949647239130348e-03
0.000000000000000000e+00
0.000000000000000000e+00
0.000000000000000000e+00
0.000000000000000000e+00
6.999568147585127909e-02
1.220719648441455959e-04
0.000000000000000000e+00
-2.450549180251476444e-01
-1.037839818150989614e-02
0.000000000000000000e+00
0.000000000000000000e+00
0.000000000000000000e+00
5.669275895259667797e-02
0.000000000000000000e+00
-3.623520385059508992e-04
9.233673058106456333e-02
9.133829610677069236e-03
0.000000000000000000e+00
0.000000000000000000e+00
-4.335250726375884656e-02
0.000000000000000000e+00
-9.647030577739507118e-02
-1.867773195116642334e-03
-6.870106585564180433e-03
0.000000000000000000e+00
0.000000000000000000e+00
0.000000000000000000e+00
0.000000000000000000e+00
-7.351291774819979086e-02
0.000000000000000000e+00
1.166667387599681915e-02
4.100365437043051184e-04
0.000000000000000000e+00
0.000000000000000000e+00
0.000000000000000000e+00
-7.157304751062911483e-04
0.000000000000000000e+00
0.000000000000000000e+00
0.000000000000000000e+00
1.588766107829361895e-02
-2.477468462278526796e-04
0.000000000000000000e+00
-6.342059538263152517e-03
-2.832645138757048930e-01
-1.033101009237409260e-02
-1.009092613698799913e-02
-5.350371854817197528e-03
0.000000000000000000e+00
0.000000000000000000e+00
0.000000000000000000e+00
0.000000000000000000e+00
0.000000000000000000e+00
1.944358471520909537e-03
-7.657841446403385044e-02
2.405227290777985777e-02
8.743275887405321800e-02
0.000000000000000000e+00
0.000000000000000000e+00
0.000000000000000000e+00
-2.821542481398199315e-03
0.000000000000000000e+00
0.000000000000000000e+00
0.000000000000000000e+00
0.000000000000000000e+00
0.000000000000000000e+00
0.000000000000000000e+00
7.632625058326565452e-03
-3.588899936718012440e-02
4.018534774004312721e-03
0.000000000000000000e+00
0.000000000000000000e+00
6.827942496227922507e-03
0.000000000000000000e+00
0.000000000000000000e+00
-1.521872140502134041e-02
-1.407923797298915036e-01
0.000000000000000000e+00
0.000000000000000000e+00
0.000000000000000000e+00
0.000000000000000000e+00
0.000000000000000000e+00
0.000000000000000000e+00
0.000000000000000000e+00
0.000000000000000000e+00
0.000000000000000000e+00
0.000000000000000000e+00
-4.337065914149757818e-03
-2.341288940894536152e-01
-1.305362774853292551e-01
-9.769658944127289878e-05
0.000000000000000000e+00
6.496630222566920172e-05
0.000000000000000000e+00
0.000000000000000000e+00
-7.550602307279295766e-03
-2.345072320036903791e-03
-3.792597865337589413e-02
0.000000000000000000e+00
0.000000000000000000e+00
0.000000000000000000e+00
0.000000000000000000e+00
0.000000000000000000e+00
-7.672426619563655903e-01
-1.000389496041044657e+00
-9.871615915890186166e-01
1.912234031758879016e-02
1.145072480016305627e-01
0.000000000000000000e+00
0.000000000000000000e+00
-3.096781662072333428e-03
-2.175169866569521271e-01
0.000000000000000000e+00
0.000000000000000000e+00
0.000000000000000000e+00
0.000000000000000000e+00
-9.091167837132792381e-04
5.532613410427035701e-03
-3.664165400380886561e-02
-1.876481132233893479e-03
6.108020161750955107e-03
0.000000000000000000e+00
0.000000000000000000e+00
0.000000000000000000e+00
3.974472850485562536e-01
-2.703195920106499228e-01
0.000000000000000000e+00
0.000000000000000000e+00
0.000000000000000000e+00
-7.716894759951119145e-04
0.000000000000000000e+00
-5.465928716740545926e-04
-8.400127781410571259e-02
0.000000000000000000e+00
-1.235774257315457817e-03
-5.464086205570952259e+00
-5.915623638924757399e-01
0.000000000000000000e+00
0.000000000000000000e+00
2.124912785125159798e-01
7.999657778991399459e-03
1.597108196054898566e-02
3.573002615406803244e-03
-5.414292027359979276e-01
4.345001424050165539e-02
0.000000000000000000e+00
-2.543764356521625580e-01
-5.068474250279693649e+01
-5.765276876677074636e-04
5.034019814960052353e-01
-7.987387369086756256e-03
0.000000000000000000e+00
0.000000000000000000e+00
-1.146001870047376747e-01
0.000000000000000000e+00
0.000000000000000000e+00
0.000000000000000000e+00
-3.720268834201142377e-02
0.000000000000000000e+00
0.000000000000000000e+00
0.000000000000000000e+00
-4.578154128209294127e-02
-5.850223920081345369e-02
2.899770960131002329e-01
0.000000000000000000e+00
0.000000000000000000e+00
0.000000000000000000e+00
0.000000000000000000e+00
0.000000000000000000e+00
0.000000000000000000e+00
0.000000000000000000e+00
0.000000000000000000e+00
0.000000000000000000e+00
0.000000000000000000e+00
0.000000000000000000e+00
0.000000000000000000e+00
0.000000000000000000e+00
0.000000000000000000e+00
0.000000000000000000e+00
0.000000000000000000e+00
-4.272417791146232435e-01
-3.585766612578876744e-01
-3.274587479790562125e-03
2.932334916580573991e-01
-3.818640567708841277e-02
0.000000000000000000e+00
0.000000000000000000e+00
0.000000000000000000e+00
0.000000000000000000e+00
0.000000000000000000e+00
-8.090551907388742782e-04
2.794774325812796750e-02
0.000000000000000000e+00
-3.249715617647823407e-02
3.872589873982143494e-02
9.487563914315352842e-02
0.000000000000000000e+00
-2.751311863071438657e-02
0.000000000000000000e+00
0.000000000000000000e+00
-3.535549403593638007e-02
-3.716596746942523420e-03
0.000000000000000000e+00
1.683389953836796635e-03
2.311313612109149995e-03
6.093764084158470595e-02
0.000000000000000000e+00
0.000000000000000000e+00
0.000000000000000000e+00
2.866372079086055777e-02
4.338434812561434324e-03
2.347720122183531016e-02
2.444247479008220675e-02
0.000000000000000000e+00
-6.653033598965649165e-02
5.999098774564383396e-02
0.000000000000000000e+00
0.000000000000000000e+00
0.000000000000000000e+00
0.000000000000000000e+00
0.000000000000000000e+00
0.000000000000000000e+00
0.000000000000000000e+00
9.996834156259537876e-03
0.000000000000000000e+00
2.053794289017808750e-02
1.348781226884941675e-02
0.000000000000000000e+00
2.293176165208124159e-03
1.137899745703973772e-02
1.391938096172829278e-02
2.478448344312207674e-02
0.000000000000000000e+00
0.000000000000000000e+00
-8.581926697119660746e-03
-1.915680133313748612e-03
2.352128885269564023e-03
0.000000000000000000e+00
3.350602304771155837e-01
0.000000000000000000e+00
0.000000000000000000e+00
0.000000000000000000e+00
0.000000000000000000e+00
0.000000000000000000e+00
-5.561551768636908283e-02
0.000000000000000000e+00
4.574324307076981302e-03
-2.321406107075403048e-03
0.000000000000000000e+00
4.541732615364364734e-02
-2.452113973808717207e-02
-4.586698792698865913e-03
0.000000000000000000e+00
0.000000000000000000e+00
0.000000000000000000e+00
-1.203784361551658161e-02
1.950890482111646701e-02
6.678895002494696954e-03
2.643718197178377416e-01
0.000000000000000000e+00
-1.425154456168240534e-04
0.000000000000000000e+00
0.000000000000000000e+00
-2.471233530880842522e-03
3.370080393617015391e-01
-4.806366896415615875e-01
0.000000000000000000e+00
-2.564130010216328914e-01
0.000000000000000000e+00
2.979206800305030101e-02
1.137107164496236472e-01
-1.629498888503880596e-02
0.000000000000000000e+00
0.000000000000000000e+00
0.000000000000000000e+00
1.148969084069885113e-02
-4.674548475334944740e-03
-1.796003999920005589e-01
7.498878961595296065e-03
1.081853886722567104e+00
-1.708264126057766358e-03
0.000000000000000000e+00
0.000000000000000000e+00
0.000000000000000000e+00
-1.206311507423043876e-02
1.342681846517593813e-01
3.221608126075289034e-03
1.842907971567319114e-01
0.000000000000000000e+00
-1.812456436651131014e-02
0.000000000000000000e+00
-3.175618427553498213e-01
0.000000000000000000e+00
-8.764317736557076383e-03
-5.166242369842530963e-02
5.881375214474335866e-01
2.060222109166536697e+00
0.000000000000000000e+00
-3.793447732922537036e-02
0.000000000000000000e+00
0.000000000000000000e+00
9.019417770505196164e-02
9.986265986492900426e-01
1.789410638264690434e-01
0.000000000000000000e+00
0.000000000000000000e+00
1.017292744998850361e-04
8.614264498163486106e-03
-1.255695435215420375e-01
-4.738120480342711965e-02
0.000000000000000000e+00
-3.327948864658144407e-02
9.056774226257578719e-02
0.000000000000000000e+00
0.000000000000000000e+00
-8.508028926214779020e-01
0.000000000000000000e+00
0.000000000000000000e+00
2.064435863679930580e-02
-4.687372703399248497e-01
0.000000000000000000e+00
0.000000000000000000e+00
0.000000000000000000e+00
0.000000000000000000e+00
-3.445522270570279544e-02
0.000000000000000000e+00
-2.743053072751018839e-01
-1.677085302124810273e-02
0.000000000000000000e+00
0.000000000000000000e+00
5.057909176323360789e-02
0.000000000000000000e+00
4.700863212460447693e-01
-3.300767498436713368e-03
-9.737788550854235836e-02
-2.660949530268091542e-02
1.174699714488407903e-02
0.000000000000000000e+00
0.000000000000000000e+00
1.036589960800654131e+00
-8.098145984955472387e-03
-2.410309030231051058e-02
0.000000000000000000e+00
-7.851299778108659921e-03
-2.584316073445424786e-03
9.210686875692306042e-03
0.000000000000000000e+00
0.000000000000000000e+00
-4.672763905276963392e+00
-9.256356993594834492e-02
0.000000000000000000e+00
-1.889425376662889067e-01
0.000000000000000000e+00
3.732786752215423026e-02
0.000000000000000000e+00
0.000000000000000000e+00
0.000000000000000000e+00
-6.050263584208828704e-02
5.420977676244700394e-01
5.036960234936348202e-03
3.599909247983947846e-01
0.000000000000000000e+00
0.000000000000000000e+00
7.015363150064221620e-03
3.907726040622668817e-01
-1.333953525116404748e-01
2.301378512643350027e-01
-4.552048770960746144e-02
0.000000000000000000e+00
0.000000000000000000e+00
-6.173494743952290253e-03
5.297034154727194022e-02
-6.248538266948784337e-01
-3.933900428526815873e-01
2.742443862019083856e-02
2.500054482691184063e-02
0.000000000000000000e+00
-1.265999349626499848e-01
-1.530331898267062347e-02
-2.802703710739104515e-02
0.000000000000000000e+00
2.993081260732083360e-03
-1.887716230394600458e+01
-2.964975996856598073e-01
6.063940026054515098e-02
4.380220444249194323e-02
-1.252634241847588870e-01
1.523447626381043210e-02
-7.627631953648195129e-01
-4.212465021071573612e-02
0.000000000000000000e+00
0.000000000000000000e+00
3.069756847545999639e-06
3.160288329443489141e-01
3.521679323294711530e-03
1.986661260923270889e-01
-1.028149174756287035e-03
0.000000000000000000e+00
0.000000000000000000e+00
6.622047096535431387e-02
3.764895595276497531e+00
-8.501732115500192435e-03
3.417932796569081444e-02
-7.823335030808504786e-01
1.205652063874302682e+00
0.000000000000000000e+00
0.000000000000000000e+00
-8.805032391448399665e-01
-1.168364256636732212e-01
-1.145939657796206032e-02
0.000000000000000000e+00
-3.896906943830111617e-03
-3.470821045604158273e-02
-2.684945182621136794e-01
-6.708508564027543919e+00
-6.891160275249598177e-01
-1.686145023251926778e-02
-5.130030680673183102e-02
-7.726575001457201830e-02
-3.078019319820849420e-01
-8.947480995765966227e-02
0.000000000000000000e+00
0.000000000000000000e+00
0.000000000000000000e+00
0.000000000000000000e+00
4.786320194893762398e-02
2.425059128014072640e-01
0.000000000000000000e+00
6.598853491376728275e-01
2.724552462097480365e-01
1.517147644024268383e+00
9.666104408174224005e+00
-4.072933498192505830e-01
0.000000000000000000e+00
-4.970981252858050481e-02
8.335166049649005426e-01
-1.100297824804979258e-02
1.508749702978164353e-01
1.793758957618015182e-01
1.427292270399465046e+00
-1.025944119461581414e-02
-6.194141947898341716e-01
1.869715365416793618e-01
0.000000000000000000e+00
0.000000000000000000e+00
-6.186949297531531278e-02
-3.683362335080573018e-03
0.000000000000000000e+00
0.000000000000000000e+00
1.817649166075124487e-02
-3.360740637201685144e-01
-1.514685456897560734e+00
-2.376859020893866692e+00
-2.482128548889394118e-02
-3.413303072796413772e-03
-8.331664533172089548e-02
-8.125183164197231911e-02
5.336173226611892273e-04
-1.053207226726725690e-02
-1.387635572062730360e-01
1.874664595934083609e-03
5.227717970216814308e-02
-3.461057553260232789e-02
3.948303518074467444e-01
-3.959306600625460137e-01
0.000000000000000000e+00
2.983579971284544899e-02
0.000000000000000000e+00
3.178825783941371386e-01
1.045264550316342600e+01
0.000000000000000000e+00
-4.238090928341325947e-02
-5.477500440374178936e-01
0.000000000000000000e+00
0.000000000000000000e+00
-3.223477383274180735e-02
5.169064770954918675e-01
2.244125053413694587e-02
2.942547972410317625e-01
1.713002647999898598e-01
-3.418631538957621618e-01
2.633347763886122905e+00
1.183897251997952094e-01
0.000000000000000000e+00
1.076372913498272466e-01
6.025357828570940266e-02
0.000000000000000000e+00
-2.977152160272038967e-03
9.986560407215525070e-02
-7.402504267863359022e-01
0.000000000000000000e+00
9.807676740364168477e-02
2.075404818685971757e-03
0.000000000000000000e+00
0.000000000000000000e+00
2.441498364212011957e-03
0.000000000000000000e+00
1.892156457331999053e-02
-1.503415090682848898e-01
-1.250658235777325211e-01
1.144898826741913393e-02
0.000000000000000000e+00
9.536956856099911006e-02
1.731582448467620938e-02
-2.928239906770252129e-02
-7.507423814592004696e-01
0.000000000000000000e+00
1.078777930760576806e-02
0.000000000000000000e+00
0.000000000000000000e+00
0.000000000000000000e+00
0.000000000000000000e+00
5.387769254417414111e-02
0.000000000000000000e+00
2.660256502102633647e-01
0.000000000000000000e+00
4.083221104207539025e-03
-2.160261001471435946e-02
0.000000000000000000e+00
-1.074933557730054640e-02
-6.900324601332541441e-02
-2.606732375880154162e-01
1.340804921520873029e-04
-1.654044200478340179e-02
9.067306436506205117e-03
-4.221666568626287119e-04
0.000000000000000000e+00
-1.317971949386201845e-03
-1.469738082870425400e-01
9.964675125108148762e-03
0.000000000000000000e+00
1.530064453440949657e-01
9.943675387834093049e-02
0.000000000000000000e+00
6.264971846146989432e-01
6.167727477056876226e-03
7.151304853310291821e-04
1.170128768654904970e-02
0.000000000000000000e+00
0.000000000000000000e+00
1.298821306163233311e-02
-1.249115419956151607e-01
-6.819934193713839132e-02
5.962514417551828538e-01
2.486378811717216752e+00
-1.121175194580894319e+00
5.751484166053186242e-03
-4.725718330214779411e-02
-1.422278569665257932e-02
-1.027048125099394582e-01
4.513906457848337883e-02
0.000000000000000000e+00
0.000000000000000000e+00
0.000000000000000000e+00
7.918901967362057537e-01
3.561493804209795444e-01
6.506169377758250216e-02
0.000000000000000000e+00
4.349443057945719115e-03
-1.362514755651006784e-02
-5.398570036891197965e+00
-3.920635908090237820e-02
-6.984077928873328074e-03
3.449252641717709400e-02
0.000000000000000000e+00
-3.844018611324979962e-02
0.000000000000000000e+00
1.822343336994864671e-01
1.562352955188939761e-02
-1.748006441719072157e-01
-2.536568175562257665e-01
-6.055523494344355884e-02
0.000000000000000000e+00
1.720322975262436258e-02
2.876223244429808035e-01
-9.356588850249572022e-04
1.340147991082717670e-02
0.000000000000000000e+00
-2.135102044027453391e-03
0.000000000000000000e+00
2.686983670737309871e-03
7.129664080481655786e-01
-1.073317383891675636e+00
0.000000000000000000e+00
1.414187922731311220e+00
-6.699712809407187136e-05
-3.690323613580881457e-01
-1.287634515601478125e+00
-1.656434592229016067e-01
-5.568981109196616153e+00
-1.231496925783293894e-01
8.951705915019545282e-03
0.000000000000000000e+00
9.901845515046289736e-03
-2.871396299990559321e-03
1.901675556474162199e-01
0.000000000000000000e+00
-5.703465437304104935e-01
-1.109904627683748313e+00
-7.563305852511362226e-02
-2.097030915573005680e-02
1.529683018371355563e-01
6.554220309645728253e-04
-8.374756289081512761e-02
0.000000000000000000e+00
0.000000000000000000e+00
1.010935541376992673e-02
-3.317982347054235226e-02
-2.381860221326825289e-01
2.039218226982523752e-01
-7.518849277255730936e-05
0.000000000000000000e+00
0.000000000000000000e+00
-6.607303024138097038e-03
-5.784494135876783183e-03
1.125281990913525321e-01
3.746809201989627965e-03
1.463640611384088260e-04
-1.443272340551668087e+00
-1.235849030060516940e+00
4.579082697832239091e-01
2.602689758451470770e-02
1.869820028583064619e+00
-6.184760206721255926e-01
2.246072173763690241e-02
1.674583063439027963e-01
-1.269321833868328475e-01
-1.683349054115720556e+00
0.000000000000000000e+00
8.424894212035225483e-01
1.161870387588179176e-01
-3.258698566250921563e-03
-4.379943516191264069e-03
-5.308424314343297423e-01
2.622219001299945854e-02
1.078878593190261137e-01
1.006899449671953273e-01
1.943126321976200443e-02
6.757304856916135360e-02
1.535184749567022333e-01
1.523649358850837077e-02
1.211569324775149323e-02
-5.868318456062506794e-01
3.262532615595382240e-03
2.196467529471512470e-01
7.715363440155114001e-03
-5.870843108174376296e-03
-2.434494670467894362e-01
-2.612697548447434626e-01
3.936074154419899086e-03
-1.499676574445088202e-03
8.729449366638825092e-02
2.912292924133124197e-02
-8.246337382282043979e-03
1.173170009352285381e-01
1.288328946405615724e-02
2.830654893691473412e-02
-2.064025687125580627e-02
1.787257266038393827e-02
7.722422507507413769e-01
9.111272982498208606e+00
4.404298396102237362e-02
8.221836637437855977e-01
4.685163921083874250e+00
-2.365665968827811855e-02
-3.858314170496444651e-01
5.087156380402349173e-03
1.033285600361520673e-01
-6.580101309544004670e-03
-1.363481128193589909e-01
-2.849387173599523398e-02
-5.344212662148643302e-03
5.487626427606173696e-02
4.654153506347261278e-03
4.791458875311451621e-02
0.000000000000000000e+00
0.000000000000000000e+00
-1.921103264256573961e-01
2.101207533998097787e+00
3.943832584781536421e-01
0.000000000000000000e+00
0.000000000000000000e+00
0.000000000000000000e+00
0.000000000000000000e+00
1.918674998506050833e-01
1.135379551270927290e-03
0.000000000000000000e+00
0.000000000000000000e+00
-5.421428922697010822e-02
1.686720117654913823e-02
-1.373400642706177899e-01
-4.342410704676528954e-02
2.724998318530918399e-03
-1.111788564216312225e-01
6.612521397447099214e-03
7.299967574583855756e-02
9.402115328926118065e-03
0.000000000000000000e+00
4.270928357178722240e-02
-8.296478210183554081e-03
-2.070933358272906359e-04
3.589379671079876311e-03
-1.066853154390270952e-01
-4.418824089521485310e-01
1.027655485495444256e-02
-3.407666814081724074e-03
0.000000000000000000e+00
1.103236555384009554e-01
-2.161128738927771409e-02
-8.429945981043119457e-03
1.497311168529843334e-02
-7.734110855160702958e-02
0.000000000000000000e+00
0.000000000000000000e+00
0.000000000000000000e+00
0.000000000000000000e+00
0.000000000000000000e+00
2.488336629860753213e+00
0.000000000000000000e+00
7.829365338316058784e-03
-2.675466875937757699e-03
0.000000000000000000e+00
-4.260931750063608192e-02
-2.466732927911510775e-01
0.000000000000000000e+00
-1.435047426395144321e-01
-7.691899459211590240e-02
-4.339303328697485806e-02
1.313763127907226561e-02
1.413471315654842297e-01
8.006617388683472938e-05
3.910732780508326123e-02
6.117213601531557021e-01
1.834032428111807278e-01
7.070500090614283834e-03
2.318466352907114558e+00
-4.178782559570057287e-01
1.491576478351699583e-02
1.283938546381862622e+01
-3.714727141616785966e-01
3.289103878160789564e-03
-2.380832391514917795e-02
-4.421974104124342525e-02
-2.077716338670225482e-02
3.678414272840193483e-02
3.707313222154862586e+00
-1.270884078252913774e-01
-2.389420950370148289e-01
1.247361557476256433e-02
1.382431079816141698e-03
-1.437072831934729789e-02
5.203372563235200143e-01
-1.607681537275395742e-02
0.000000000000000000e+00
3.704822022642152712e-02
0.000000000000000000e+00
-1.785019874175700627e-01
-1.834057598656294863e-01
5.010575949331612655e-01
-3.819066292178296962e-01
-6.791748668584310922e-01
-1.113418099510712911e-02
8.748832934833489228e-02
0.000000000000000000e+00
0.000000000000000000e+00
-9.677230158765003087e-03
1.311725702011266925e+00
2.022313045520905683e-02
0.000000000000000000e+00
8.680501793769376806e-03
-1.945958979141106798e-02
0.000000000000000000e+00
-1.018532065387261955e-03
0.000000000000000000e+00
0.000000000000000000e+00
5.371063179414413397e-05
1.669969983476664366e+00
-1.847104286919462601e-02
-5.838565628066293423e-01
-8.228654175954345229e-01
-1.170246388884040641e-03
-1.526756924054766939e-03
1.467494367128258925e-01
-3.014074269359613700e-02
-8.690482914900229949e-02
-1.410349247642214872e-03
-4.699027843960656425e-01
2.353123978413237116e-01
-3.367338311033035714e-02
0.000000000000000000e+00
-1.507254357797466637e+00
2.126123544387606076e-02
6.377433500903698094e-02
2.377966277104105741e-02
2.659890394934296895e-02
-7.140407860893800349e-03
-7.379439212566241309e-03
0.000000000000000000e+00
2.188225303374153607e-01
