1.527599695950423737e-03
2.735125341222150504e-03
-1.171298490461871247e-02
4.729412372768270357e-04
0.000000000000000000e+00
-6.766664434095386316e-01
-5.180012567597820639e-03
-2.360982726979847166e-03
1.555607979866243107e-01
0.000000000000000000e+00
-5.581339084041084253e-03
0.000000000000000000e+00
-4.747051544275526953e-03
-1.855077034091918708e-01
0.000000000000000000e+00
4.830581215862331072e-03
-2.563158688434457044e-01
-2.808438575276354765e+00
7.396632222962293800e-04
4.231067386978453436e-03
8.044063004498542765e-03
-3.541257223992009706e+00
-4.323781147217242715e-02
1.125180979691797201e-01
0.000000000000000000e+00
1.067605197521317661e+00
1.399651589256921652e-04
2.234812287217850246e-01
-2.400887084404427010e-03
0.000000000000000000e+00
0.000000000000000000e+00
0.000000000000000000e+00
0.000000000000000000e+00
4.324971464522812670e-01
4.962242130692492287e-02
0.000000000000000000e+00
-1.435498700065659071e-02
4.661167614417896510e-02
0.000000000000000000e+00
1.136539783312061402e+00
-2.425811245427189067e-01
-7.617764258618146656e+00
2.206391681045326847e-01
-7.912006832111843913e-03
2.158945244111447337e-02
2.020508675107093519e-02
0.000000000000000000e+00
0.000000000000000000e+00
0.000000000000000000e+00
-1.576191019496964510e-02
0.000000000000000000e+00
2.415375319619296815e-02
0.000000000000000000e+00
0.000000000000000000e+00
0.000000000000000000e+00
0.000000000000000000e+00
0.000000000000000000e+00
0.000000000000000000e+00
0.000000000000000000e+00
0.000000000000000000e+00
-7.403797465979265746e-03
1.702006729834112941e-02
-4.709554610985624418e-02
0.000000000000000000e+00
-7.845204275532451366e-01
-4.452897892332755347e+00
8.585253398971377792e-02
5.251238565871865077e-02
0.000000000000000000e+00
-8.758704752354880441e+00
-3.625031217842665521e-02
-6.867832592914288777e-04
-3.685881254812948312e-03
1.144808603316379431e-02
2.111363010913221150e-02
-7.801378296488528478e-03
5.465972556162016632e-02
0.000000000000000000e+00
0.000000000000000000e+00
0.000000000000000000e+00
0.000000000000000000e+00
-4.288933142420856548e+00
-9.608023132841402303e-01
0.000000000000000000e+00
7.836468528190920768e-03
-1.266182940249699525e-02
-9.900442117786077689e-02
0.000000000000000000e+00
7.027430211936050615e-04
-4.023548120192774746e+00
-4.113446933143553252e+00
-3.112447450862780227e-02
1.903196238984619648e-01
-9.580766391295863826e+00
4.010458557407907410e-02
7.343066666700080347e+00
-5.178724331930017327e-02
-5.167480525240886191e-02
-4.650134043841807783e-04
1.727503930348917305e-01
2.700987483553640156e-01
3.075885920602236794e-04
0.000000000000000000e+00
1.645183063572022014e-02
-1.001695408396049763e-03
4.777207808142221873e-02
0.000000000000000000e+00
-1.133299499671565624e-01
-1.022060076091063641e+00
-5.483796759787167019e-02
0.000000000000000000e+00
0.000000000000000000e+00
0.000000000000000000e+00
0.000000000000000000e+00
1.802116304144848677e-02
-3.096974623494582607e-02
-1.207871628484879882e-02
-2.051352876479568821e-02
4.587777990073611117e-02
-6.053924620044709437e-02
2.760301028578414015e-02
3.002542323601328889e+00
0.000000000000000000e+00
-2.630418154680343790e+00
-3.618859733564036008e-01
2.248719252491010803e-02
6.877402006235626419e-02
2.767959966929058324e-01
2.238423509893294749e-02
5.551883467779764221e-03
6.426052255907119953e-03
-4.203847154815411324e-02
-1.800586557208093972e-03
1.001540004737201883e+01
1.453028160976898575e-01
-1.954848117960484785e-02
-2.895626996230092880e-03
0.000000000000000000e+00
-4.842866727307617810e-04
0.000000000000000000e+00
-2.871482693291557003e-02
1.301605947832232442e-02
-3.462265502990552468e-02
2.976136551264224259e-02
0.000000000000000000e+00
0.000000000000000000e+00
-2.385304655745625405e-02
6.725646227870521986e-03
-8.549813979824947164e-04
-3.304671516689705602e+00
-1.459859771055873612e+00
-3.294627006828945714e-02
-3.342926534036663039e-02
-2.398469964434915269e+01
-6.088697411466117287e-02
0.000000000000000000e+00
1.046553215849237162e-01
3.826763194175754335e-02
-7.104660342249886906e-02
-3.771399027038134788e-01
0.000000000000000000e+00
4.629203622457622735e-02
1.150796678727264650e-03
5.080192942842927731e-03
1.699041538748956026e-01
-3.962439496595546173e-02
-3.337687727780146683e-03
-4.180720939701754180e-02
-1.011554519831344562e-01
-1.880087346356148714e+00
-2.135272361208130631e-02
0.000000000000000000e+00
9.918437114144229225e-03
6.012827905873594121e-03
0.000000000000000000e+00
7.810905400789313995e-03
0.000000000000000000e+00
3.645152486562316073e-04
0.000000000000000000e+00
9.730542972314054628e-02
-1.312193548652409308e-02
-4.045034079991885467e-02
-2.124343340320835206e-03
-6.692961826947659530e-03
1.294619594602485629e-03
3.366698727627020268e-03
2.946158937771550246e-01
4.846364770020811230e-02
-6.880668978742997613e-03
0.000000000000000000e+00
1.714836595864437790e-02
5.783683808930322606e-02
8.607139047841097512e-02
6.872617799014792139e-02
-1.544054643373092041e-02
-1.084293085157484078e-02
-8.741700965953700386e-01
0.000000000000000000e+00
9.385684842027047087e-03
2.893985393317403121e-01
6.479723048873956004e-02
9.142109995974889193e-04
0.000000000000000000e+00
1.561481285867705572e-03
-1.661184097973340823e-02
1.571642320915696972e-02
-4.277802580894079186e-03
0.000000000000000000e+00
-3.325790352266044369e-03
0.000000000000000000e+00
6.420284921931424709e-04
1.880431444430551480e+01
5.253802497553984319e-01
1.101092328575620401e-02
1.190183515946319215e-01
-1.148887211139577730e-01
-2.599854670695203596e-02
0.000000000000000000e+00
1.714646915635669941e-02
8.766492914346488141e-02
8.423021414716524990e-02
3.676090043852394684e-01
1.263410237750106808e-02
4.551956302582852998e-01
-5.758807887822938731e-01
-1.032008149862520888e-02
2.882564853122127416e-03
9.659395538733284853e-03
2.249759644941169701e-02
1.967391971534083409e-03
-2.981100440828626623e-04
0.000000000000000000e+00
0.000000000000000000e+00
-3.981455558677593834e-03
-1.686086291713708688e-04
-4.498055190919647561e-02
-7.650662323853504310e-01
6.319423734939138004e-01
0.000000000000000000e+00
1.071915531095080348e-03
0.000000000000000000e+00
-4.587388432419435835e-01
-3.274086951658545380e-02
4.508494842899606059e-02
-1.543218382719406812e-01
0.000000000000000000e+00
-9.831837792193311165e-02
1.109601153057976439e-03
0.000000000000000000e+00
0.000000000000000000e+00
1.267182479523775579e-02
0.000000000000000000e+00
-3.795063743892800046e-02
0.000000000000000000e+00
-2.393660662867394887e-02
0.000000000000000000e+00
0.000000000000000000e+00
-7.128340608274175150e-02
0.000000000000000000e+00
1.261127175928892785e-01
-1.509405690483952601e-02
-1.264577021484541378e-03
8.944278356922116054e-05
0.000000000000000000e+00
-1.375722240937201857e+00
1.977310155283339421e-01
2.853332929511426252e-03
0.000000000000000000e+00
0.000000000000000000e+00
9.076875522397588603e-03
-1.679999004818507734e-03
1.098305119460789037e+01
0.000000000000000000e+00
5.356544783411294752e-02
1.502370028083477825e-02
3.989741053984074276e-02
0.000000000000000000e+00
1.806980249033571517e-01
-1.314491596061451509e-02
-8.924195189962443996e-04
-7.841785299205910470e-03
8.971639654518265977e-03
0.000000000000000000e+00
3.142804644287413574e+00
-2.062235145758851626e-02
1.431544046158249317e-02
4.260017032434353437e-04
0.000000000000000000e+00
0.000000000000000000e+00
6.680652422908560373e-02
4.413768428990998312e-03
1.681671186044667810e+00
-7.697181991970944437e-02
0.000000000000000000e+00
3.878212829874722566e-03
3.790116569361808851e-01
-3.387691377408990623e-01
-2.564502203352393272e-03
-3.350517335813033015e-02
-1.651061741546015890e-04
0.000000000000000000e+00
0.000000000000000000e+00
-3.151983704580269691e-02
1.278510888937884130e-02
0.000000000000000000e+00
0.000000000000000000e+00
1.198426829180293668e-01
2.726859762020014330e-02
-2.563958054684084900e-02
3.625586095902485692e-03
0.000000000000000000e+00
7.466632835895990750e-02
7.222109518479669088e-02
-4.728329445765210304e-01
-1.890008661610459786e-02
-1.470040149193082568e-01
7.922969607018277849e-02
1.141067851881228667e-01
-5.018960488275660270e-02
-5.917172507034742374e-02
-2.396022146267861447e-02
2.786710426871575491e-05
6.763289958870964680e-02
0.000000000000000000e+00
0.000000000000000000e+00
-1.418449215552040510e+00
0.000000000000000000e+00
-4.560340555088615230e-03
0.000000000000000000e+00
0.000000000000000000e+00
6.031566407608572433e+00
1.488027979681536273e-01
1.975139267827637993e-03
2.039896541353089228e-04
1.338105024233150666e-03
-2.187327891403574240e-02
1.292357183503488847e-02
0.000000000000000000e+00
2.269607498720545985e-02
2.899091852342173745e-03
0.000000000000000000e+00
-1.054039028283478008e-02
0.000000000000000000e+00
-6.617325050707688339e-02
2.038071717022357440e-02
0.000000000000000000e+00
0.000000000000000000e+00
-3.579315205779041607e-04
5.461297336559692989e-02
-1.038549095772439007e-02
-4.252488881039446361e-02
-6.922909042322763010e-03
0.000000000000000000e+00
7.813097627550263241e-03
-9.557079775995742932e-04
4.173290133935753099e-02
-1.318648760377175710e-01
2.466586584578975283e-03
0.000000000000000000e+00
0.000000000000000000e+00
1.374075271801978269e-02
0.000000000000000000e+00
1.588047804606830538e-02
-3.241564746695457105e-02
0.000000000000000000e+00
0.000000000000000000e+00
0.000000000000000000e+00
0.000000000000000000e+00
-4.960705694951925149e-02
-5.862627771545642075e-02
0.000000000000000000e+00
0.000000000000000000e+00
2.014900450297491333e-02
-1.347852264301357354e-03
5.626631645730839626e-02
3.167770901955449525e-01
0.000000000000000000e+00
0.000000000000000000e+00
-2.876354404406982646e+00
-5.086428074241877012e-02
0.000000000000000000e+00
7.349356368399423411e-03
0.000000000000000000e+00
-2.750948989533920364e-02
-5.344373265903952508e-02
-2.581833829407974550e-03
1.407500506155688657e-03
0.000000000000000000e+00
0.000000000000000000e+00
0.000000000000000000e+00
0.000000000000000000e+00
-1.107604661272841053e-03
-1.236224872719532963e-01
-7.168441101742283050e-02
0.000000000000000000e+00
8.929631102061050263e-02
3.440800249687651913e-02
4.200078136382562680e-03
-1.064688829370361370e-02
-6.374281522213368772e-03
-8.673914183185392091e+00
-5.085525907158629060e-03
0.000000000000000000e+00
4.416829339393415002e-03
-1.072207266249267966e-02
-9.003310971782240157e-01
-3.784548615870271006e-03
6.892284290516126604e-04
2.367137670093964058e-02
4.476035762200422652e-02
5.921015257397833909e-03
-5.412708459538888295e-02
-1.956485945039397878e-01
-6.222501343594545098e+00
5.702171412108994475e-02
0.000000000000000000e+00
0.000000000000000000e+00
0.000000000000000000e+00
0.000000000000000000e+00
0.000000000000000000e+00
0.000000000000000000e+00
-1.805468695778273541e-02
-9.989558992840964768e-03
-1.198072134924407506e-01
2.163459286558888292e-02
5.809886259799627861e-02
-1.186922276422893718e-01
-2.418821549074153254e-01
-3.474274511509459096e+00
-5.813524001242411643e+00
0.000000000000000000e+00
-7.686760873331002775e-02
-9.338719972124980728e+00
-9.029939054673868926e-01
0.000000000000000000e+00
1.944654995227325552e-03
6.519168732509047169e-05
-2.934506542878604404e-03
0.000000000000000000e+00
0.000000000000000000e+00
0.000000000000000000e+00
0.000000000000000000e+00
4.947980785866139784e-03
0.000000000000000000e+00
-3.366452055422475276e-02
-5.346691116322103629e-03
0.000000000000000000e+00
4.521851380082327933e-03
3.883800701992571464e-02
0.000000000000000000e+00
-1.108410379260225953e-01
-4.390356105992187022e-03
7.650758857189521311e-03
-1.199682810675597316e-01
-1.215418514479775199e-04
5.067306045805397563e-02
-6.508111660409038324e-01
1.482502459302140543e-02
0.000000000000000000e+00
0.000000000000000000e+00
-6.603197576264616120e-02
-1.965555917365376271e+00
-1.481370819969717867e-01
-1.506922939398340532e-03
-2.418947757001435345e-03
2.037501975598393855e+00
4.834265955336166515e-02
1.276223847753534812e-01
-2.206905655935759158e-01
2.731615380278896305e-02
0.000000000000000000e+00
0.000000000000000000e+00
-5.353956478963494726e-03
0.000000000000000000e+00
0.000000000000000000e+00
9.599424181002985017e-04
0.000000000000000000e+00
-5.202041318998159580e-01
-1.991929096034516622e+00
0.000000000000000000e+00
3.886624566040331602e-02
0.000000000000000000e+00
-2.965549176207119692e-03
2.347871802055133128e-01
-9.281938056932606193e-03
-8.063092812414726640e-04
-8.816877320953871167e-02
5.467673752935436199e-02
-7.548451834258773641e-02
1.987251628879893248e-03
0.000000000000000000e+00
-7.911202808281964788e-03
0.000000000000000000e+00
0.000000000000000000e+00
-1.180423939264466267e-02
-4.375620866396543462e-01
-1.773048835201405590e-02
-1.827290774413695695e-01
0.000000000000000000e+00
3.533726621809897897e-03
4.481426835585575752e-01
-1.256061654355597988e-02
0.000000000000000000e+00
-6.265892368996434439e-04
-4.179746579182311295e-03
0.000000000000000000e+00
0.000000000000000000e+00
0.000000000000000000e+00
-8.828812376482138985e-03
0.000000000000000000e+00
0.000000000000000000e+00
-2.262982146815657909e-03
7.509904069760269148e-03
-6.253091199389256005e-02
0.000000000000000000e+00
-7.010073505846590872e-04
1.905183007016412189e-01
-6.521202558728026455e-01
-1.393398717138788268e+00
-5.035395691783235428e-01
1.447844607336433720e-01
0.000000000000000000e+00
7.334769769379269160e-03
7.967272887610071883e-04
-1.487695103721109295e-02
0.000000000000000000e+00
0.000000000000000000e+00
-5.259372610842504405e-04
-1.710204118788626548e+00
1.614833089908511085e-02
1.054197154407354731e-02
6.232735299854743130e-03
2.157634054715401040e-01
7.914268066585639083e-01
4.288233498000499910e-01
0.000000000000000000e+00
0.000000000000000000e+00
0.000000000000000000e+00
-6.240647159558265072e-02
-4.297087295049849026e-04
-3.367177231796850828e-02
-6.016657362746622578e-03
1.912129721652254923e-03
1.194654771312719937e-01
0.000000000000000000e+00
0.000000000000000000e+00
-6.409216276693725789e-02
-2.073312132440950466e-03
1.024936964827878605e-02
0.000000000000000000e+00
-4.879772239273574841e-02
7.946103951513135361e-04
2.077570172094761816e-02
3.477369298941444115e-02
-1.525919988065505550e-01
0.000000000000000000e+00
-3.640409459228797617e-03
5.710940718356850854e-02
5.737103366957544553e-02
-4.862376583434965122e-03
0.000000000000000000e+00
9.972785751389962039e-02
-3.229744898153151349e-03
-1.033722308113605592e+01
-3.324136252515904472e-02
4.327122692983537583e-05
5.240597731556347885e-04
-4.375166436483017562e-02
-2.442375689260658025e-02
0.000000000000000000e+00
-6.689078496905999957e-05
-9.830034375427142146e-03
0.000000000000000000e+00
7.051324407076293987e-02
1.592212467702099413e-02
-3.240021902936862652e-01
7.945797450876453463e-03
1.584739113612659844e-01
0.000000000000000000e+00
0.000000000000000000e+00
-1.177896683543320361e-02
0.000000000000000000e+00
0.000000000000000000e+00
4.305573232733596648e-04
0.000000000000000000e+00
-3.811866161483244753e+00
-2.179243226399220357e-02
2.904603548221694996e-03
6.874844050893076652e-02
0.000000000000000000e+00
2.342417850687811276e-01
2.460025786478738929e-01
1.774869006946745431e-01
0.000000000000000000e+00
-1.340096242450798669e-01
-3.624622581525336479e-02
0.000000000000000000e+00
0.000000000000000000e+00
-1.281547852117577158e-01
6.395385855989321744e-02
0.000000000000000000e+00
0.000000000000000000e+00
-3.682380321578863653e-03
3.423788159808370812e-01
7.792838288878795039e-02
0.000000000000000000e+00
0.000000000000000000e+00
0.000000000000000000e+00
3.074146891987390717e-02
8.374989368542397339e-03
-4.435329230682155677e-02
0.000000000000000000e+00
2.352064279017587745e-02
2.397991598700311908e-03
2.964741510833612467e-02
-2.452802253111565495e-02
-1.348222126466562365e+00
-3.250395752709883368e+01
0.000000000000000000e+00
-1.149139856067258637e-02
-9.447879487889701902e-03
-2.370829887502994282e+00
-3.066678310924417488e-03
0.000000000000000000e+00
4.147997381992555438e-02
4.260871070001976714e-03
5.419034652297983080e-04
0.000000000000000000e+00
-2.782229979331503067e-01
-7.173189038267109574e-02
0.000000000000000000e+00
-1.056944718023846569e-02
1.708889414128306194e-02
-3.504772555978609427e-02
0.000000000000000000e+00
0.000000000000000000e+00
0.000000000000000000e+00
8.268001704348906106e-03
5.549462059036728290e-01
2.447645077299227118e-02
0.000000000000000000e+00
0.000000000000000000e+00
0.000000000000000000e+00
-1.688982596872084586e-04
3.580384980355800703e-03
0.000000000000000000e+00
0.000000000000000000e+00
0.000000000000000000e+00
-1.204930513371316875e-02
-7.684567313627336027e+00
1.594425423674586048e-02
4.190599792363587650e-03
1.912037587207040812e-01
3.989186631091950000e-03
-4.746768154827352149e+00
4.394471016317794826e-03
0.000000000000000000e+00
1.899427584119008777e-02
0.000000000000000000e+00
0.000000000000000000e+00
1.174455292482141505e-01
0.000000000000000000e+00
-3.113987883390036820e-03
-1.835503042191002632e-01
2.476319438623407976e+00
-1.037759871315564908e+01
-1.228997009664678508e-02
0.000000000000000000e+00
-5.441074436400529513e-02
0.000000000000000000e+00
0.000000000000000000e+00
0.000000000000000000e+00
-3.168002308842002179e+00
-1.468510882931362525e-02
2.258734196263257471e-02
0.000000000000000000e+00
0.000000000000000000e+00
0.000000000000000000e+00
1.628725338494707020e-01
0.000000000000000000e+00
-1.945443538680145801e-02
3.030792589039854601e-02
1.348659970433317007e-02
1.049245817337150832e+00
-1.065962882752262475e+00
1.993894855960986080e-04
6.029961485198403722e-04
1.474471170373234212e-02
0.000000000000000000e+00
9.334305782162283282e-04
0.000000000000000000e+00
-4.302395415342468734e-04
0.000000000000000000e+00
1.699519012961387202e-02
0.000000000000000000e+00
-9.622826718413805824e-02
-7.605606132558927202e-02
-1.151096353818515938e+00
0.000000000000000000e+00
-3.322187209011826958e+00
-3.979914892193951834e-04
-4.479799090737023731e-02
0.000000000000000000e+00
2.476900391116241586e-04
-1.920715512661104463e-02
-6.687005984205312940e-03
-4.641423858706829157e-03
0.000000000000000000e+00
0.000000000000000000e+00
0.000000000000000000e+00
0.000000000000000000e+00
-2.908811683383370067e-02
-1.208906579237802870e+00
9.065851097213353804e-02
-3.183729435288836385e-03
-2.321888662159903374e-02
-7.626302845565041677e-02
0.000000000000000000e+00
5.263654402397574539e-02
-7.735796877701359153e-03
-1.048234171454953331e-02
-1.035634386731774659e-01
-9.264590065283880449e+01
-2.921825879894137112e-01
-2.306264915002297911e-01
2.119980544531689659e-01
4.845865618221413484e+00
0.000000000000000000e+00
9.882733157162136052e-04
-8.343884017442701126e-03
-2.124276409111546318e-02
2.761437304270739426e-02
9.084530155410887320e-02
0.000000000000000000e+00
8.718665527886432925e-03
-1.819263489656177801e-03
0.000000000000000000e+00
0.000000000000000000e+00
8.736982933737138949e-04
0.000000000000000000e+00
0.000000000000000000e+00
9.572494482122529801e-04
1.351498917126604457e-02
1.030159396125376048e-01
0.000000000000000000e+00
0.000000000000000000e+00
-1.165274329485414817e-02
0.000000000000000000e+00
0.000000000000000000e+00
0.000000000000000000e+00
2.491279417020879072e-01
-4.127625585696767518e-02
5.474684135496252768e-01
-6.659516228633226265e-05
1.751767134912170787e-01
0.000000000000000000e+00
-1.290501461519106385e+00
-1.159228013172127980e+00
0.000000000000000000e+00
9.880559333646541514e-03
-4.615051922543152857e-02
-7.672838240536884236e+00
9.315861306391986368e-03
-1.118376396080130453e-01
0.000000000000000000e+00
-2.248135707979687092e-01
-3.356965323076211241e-04
-3.837235286377496668e-02
1.677742427696400918e-01
1.092439309055035085e-01
-2.050895886743726582e-01
-1.218897425204556573e+00
1.900586474477249793e-02
1.168785093656991153e-02
3.407027540792742504e-01
-1.371725958316315046e-02
-1.604181960520249806e-02
-2.378173442073822363e-01
0.000000000000000000e+00
0.000000000000000000e+00
1.443710996018160664e+00
-1.279874637024210338e-01
-3.822866076202408384e-03
4.908268218407413341e-02
0.000000000000000000e+00
8.914642677610039659e-03
1.258555799200328923e-03
1.841449693688538419e-02
0.000000000000000000e+00
-4.064573859227355035e-02
8.255249555119616167e-03
6.004872552212243888e-04
-2.275988980492614999e+00
-1.407045872050311517e-03
-2.322188269538876665e-02
-2.192832873689436884e-02
-1.046579174167930337e-02
-4.388766611374041560e+00
0.000000000000000000e+00
-7.851979846144734390e-03
0.000000000000000000e+00
2.497545302696663472e-01
5.018162185492511806e-01
-2.997651326383531795e-03
0.000000000000000000e+00
-4.180205198146563772e-02
8.205265752928778134e-02
0.000000000000000000e+00
-1.894883273491642945e-04
2.174873870292556299e-01
-3.078649024790445880e-03
-2.163841252985071809e-03
0.000000000000000000e+00
-1.018519527394078084e-01
2.355953529239267208e-02
7.002589731561420505e-02
0.000000000000000000e+00
-8.185710392151681614e-01
0.000000000000000000e+00
0.000000000000000000e+00
-1.679402064187614577e-02
0.000000000000000000e+00
9.461219795310302216e-02
0.000000000000000000e+00
-1.068843609139720138e-02
-2.029118032258656751e-02
0.000000000000000000e+00
-5.720327803461178976e-04
-3.980478843572025915e-02
-2.129817287939171958e-04
6.800874112997336469e-03
1.005918523994824010e-01
0.000000000000000000e+00
0.000000000000000000e+00
0.000000000000000000e+00
-2.534272091963352038e-03
-4.425956412673567181e-03
-2.043986172352243308e-02
3.501836218791564564e-02
-1.488417523294513533e-03
0.000000000000000000e+00
3.081317925481804471e-02
0.000000000000000000e+00
0.000000000000000000e+00
-3.191186919172624314e+00
-1.371464975062170188e-01
-1.679407566959073561e-02
0.000000000000000000e+00
0.000000000000000000e+00
6.083181856432962531e-04
6.261927810297868158e-02
-2.176678396507316163e-02
-2.856122580746792670e-03
1.485542524281325827e+00
-4.712383575156981613e-04
0.000000000000000000e+00
0.000000000000000000e+00
0.000000000000000000e+00
0.000000000000000000e+00
0.000000000000000000e+00
0.000000000000000000e+00
-1.711241317354265587e-02
-8.521980406353446558e-02
-5.605940051253644786e-03
3.712599889085359262e-02
-1.068125416687118684e-03
1.371354917928152735e-05
2.908590543247354110e-01
0.000000000000000000e+00
0.000000000000000000e+00
4.591012564505002613e-01
-3.814970679716019053e-02
0.000000000000000000e+00
0.000000000000000000e+00
0.000000000000000000e+00
8.564513825839130748e-03
6.848848668252777161e-03
0.000000000000000000e+00
0.000000000000000000e+00
0.000000000000000000e+00
0.000000000000000000e+00
0.000000000000000000e+00
0.000000000000000000e+00
0.000000000000000000e+00
0.000000000000000000e+00
5.925311607038309322e-03
-5.755482160266413294e-02
1.112287352440466913e-02
0.000000000000000000e+00
-5.445893096128549826e-02
-1.950050053583090442e-02
0.000000000000000000e+00
0.000000000000000000e+00
0.000000000000000000e+00
2.265641907939084099e-01
7.933776423758892582e-03
-5.867778828879884057e-02
0.000000000000000000e+00
0.000000000000000000e+00
0.000000000000000000e+00
0.000000000000000000e+00
-3.221398140046401876e-02
2.383297420594479299e-01
5.716688596396348604e-02
0.000000000000000000e+00
0.000000000000000000e+00
6.662386146076868876e-04
0.000000000000000000e+00
0.000000000000000000e+00
1.932136909843579220e-02
0.000000000000000000e+00
0.000000000000000000e+00
7.602397655593620511e-03
2.300922835196471047e-02
0.000000000000000000e+00
0.000000000000000000e+00
-1.970896357230194490e-02
-3.571187629335819541e-02
-1.729485202711298492e-02
0.000000000000000000e+00
0.000000000000000000e+00
1.213649646520657877e+00
-4.537602876944934333e-02
-4.891592646112626064e-02
0.000000000000000000e+00
0.000000000000000000e+00
-2.956777291919110429e-02
4.389977849844837717e-04
-2.752077170647505844e-02
-2.025527731188446479e-02
0.000000000000000000e+00
0.000000000000000000e+00
0.000000000000000000e+00
0.000000000000000000e+00
-9.585061742835137774e-03
5.849136270653003053e-03
2.064184335080907189e-03
3.811470494920945334e-02
-3.178929216558905313e-02
1.044469994282721604e-03
5.322171131810881306e+00
2.357147665000355108e+00
0.000000000000000000e+00
-5.232852274840482480e-03
3.696108488255989144e-02
-2.037897109357949821e-01
-3.503505701724782956e-02
2.571094250374311892e-03
3.572640457426223392e-03
3.544503810050834980e-02
3.312791065618436726e-03
-1.043370760712462354e-02
-2.500154399230163083e-02
0.000000000000000000e+00
2.818151540606776695e-02
0.000000000000000000e+00
-5.633438781305672577e-02
3.147824547937428524e-02
3.129090621427028712e-04
0.000000000000000000e+00
0.000000000000000000e+00
0.000000000000000000e+00
0.000000000000000000e+00
-3.279020157025729770e-03
-4.810468597868258062e-02
1.057752663128712495e-01
3.027068446892641873e+00
-3.915913643763782037e-01
-1.589482470934996602e-02
3.147109737452669607e-03
-5.217184016391401141e-02
8.553596011822961032e+00
4.338232908292022572e+00
-2.417224466225860458e-02
3.088009600824887999e-02
0.000000000000000000e+00
7.549626458814659435e-02
5.352857411780830299e-01
-5.932138244013891726e-02
-2.667865448295196704e-03
3.744618626112931892e-02
0.000000000000000000e+00
-2.516414569092917126e-03
-9.813047304395283721e-02
7.818830535167557716e-02
3.705258744555610384e-02
1.083538626569439250e-02
0.000000000000000000e+00
1.683601584452141392e-02
-3.612059973424179733e-03
2.126220960517695435e-02
0.000000000000000000e+00
0.000000000000000000e+00
0.000000000000000000e+00
0.000000000000000000e+00
3.757815155664134821e-02
0.000000000000000000e+00
-2.580726483222809536e-02
1.751561483238265465e-02
-9.234841340725188918e-02
-3.212256038604659192e-02
0.000000000000000000e+00
-1.079113084006127210e-01
8.113934734839277352e-02
3.034371968952243925e+00
7.748483247458175238e-02
-3.110128492852376730e-04
2.566880606115490814e-03
0.000000000000000000e+00
-3.538641698187763862e-02
-3.468644967545002344e-02
4.687982237434966670e-01
-2.304375254960518149e-02
-1.241902533606496252e-02
1.984915699713040438e-01
-2.982816825533975980e-01
-3.507026321726968709e-01
0.000000000000000000e+00
2.740274571025807029e-02
-7.603291382063545817e-04
-1.004633119973437871e+01
-1.242444456577705518e-02
4.425670581995398006e-02
-3.781894563129676451e-02
0.000000000000000000e+00
0.000000000000000000e+00
0.000000000000000000e+00
2.868168050428079874e-02
0.000000000000000000e+00
-1.071676361202046873e-04
0.000000000000000000e+00
0.000000000000000000e+00
3.088938194015177462e-04
-1.342387877124762152e+00
-5.042024180854477733e-02
-1.100202161146518032e+00
1.196141447262644708e-01
5.066154979021295635e-01
2.385005716517700491e-02
1.220018517794630754e-02
0.000000000000000000e+00
-1.509573585726453615e-03
-4.639216999695584820e-03
-1.049470844199223540e+00
0.000000000000000000e+00
4.441108796736868702e-02
3.042229626447901403e+00
0.000000000000000000e+00
0.000000000000000000e+00
-7.140354167675794228e-02
0.000000000000000000e+00
0.000000000000000000e+00
-2.276395511565518573e-02
0.000000000000000000e+00
5.524400189183022170e-03
0.000000000000000000e+00
-4.676238604318940471e-04
1.055815451287046153e-02
0.000000000000000000e+00
1.020979537644224777e+00
0.000000000000000000e+00
0.000000000000000000e+00
5.942968741400321206e-03
2.596820515488885203e-03
-1.422050598623270989e+00
-5.101856321938149641e-01
-5.344919381361466076e-02
2.141888424496760090e-01
-1.693013074556744268e-02
1.948408895970649840e-02
0.000000000000000000e+00
-1.037027993026158057e-01
-4.561349065129690489e-02
-5.854200090101804865e-02
-1.882015796376461424e-03
0.000000000000000000e+00
-1.223756653160307413e-02
0.000000000000000000e+00
-4.293216568087323583e-03
0.000000000000000000e+00
0.000000000000000000e+00
3.434212251790096371e-01
1.483136719929981362e-01
-3.718537108424604942e-02
-1.659597256861772979e-02
0.000000000000000000e+00
0.000000000000000000e+00
0.000000000000000000e+00
0.000000000000000000e+00
0.000000000000000000e+00
4.606229296953068264e-02
3.207014335819083697e-03
-5.495396412813288375e-03
0.000000000000000000e+00
-1.368053946587856340e-01
9.248665296030134531e-04
-2.329360619113096502e-04
1.219564065613414246e-02
2.161800340958114908e-01
1.775891501324908944e-02
-6.786320487173505556e-02
-3.638464675834900196e-04
1.241504975660357724e-01
0.000000000000000000e+00
-5.925244823798829497e-02
-1.141557857824413574e-03
0.000000000000000000e+00
0.000000000000000000e+00
0.000000000000000000e+00
-1.644459909310184292e-02
0.000000000000000000e+00
3.354958749357103698e-02
-2.417375328258807368e-02
-3.469323716238631450e-02
0.000000000000000000e+00
0.000000000000000000e+00
0.000000000000000000e+00
0.000000000000000000e+00
-2.116853791270502383e-02
-4.772821752711020049e-01
0.000000000000000000e+00
-2.127691003663217395e-01
2.575538642042271564e-01
-3.146354385342224891e-01
-1.186811657054030356e+00
6.612053477439408522e-02
-3.381821638836493386e-03
-1.096212704562073495e-02
-1.751467281487848957e-02
0.000000000000000000e+00
-3.567365479774017162e-02
-5.469928725472136821e-02
2.099946512199312235e-02
7.465598275893289490e-03
-1.483757897830337682e-03
-2.493329965612161303e-01
2.160501968372458351e-02
-8.983530731365343414e-01
5.357181504131486999e-02
1.417900634674080340e+00
0.000000000000000000e+00
0.000000000000000000e+00
0.000000000000000000e+00
-2.009528004517598457e-02
-4.988127377130618378e-01
-1.351052498394132440e-01
-4.028998784960772378e-02
-3.934916035995972977e-02
1.661632539784063819e-04
1.097129642201787603e-01
-1.001596369861126878e-02
8.492047118416168328e-03
1.523455588340373312e-01
1.058588300739346511e-02
-5.431331326397317340e-03
-3.152419538183066916e-02
-1.053496699381091528e-02
0.000000000000000000e+00
-2.229936451597439376e-02
3.664747271134695394e-02
-1.273811612424058208e-02
0.000000000000000000e+00
3.152205176213302568e-02
0.000000000000000000e+00
1.825900608912291515e-02
0.000000000000000000e+00
0.000000000000000000e+00
-8.333943547155929846e-03
4.456847410975502133e-02
0.000000000000000000e+00
6.756509330625341293e-03
1.759367444219858689e-02
6.513497730724562493e-03
0.000000000000000000e+00
0.000000000000000000e+00
3.617548229518552979e-03
8.358144546341580994e-03
0.000000000000000000e+00
-3.734740219022863496e-03
0.000000000000000000e+00
-5.285225768394549717e-02
-5.752061902855840625e-01
-4.993525280718737712e-04
4.608234348815776898e-02
0.000000000000000000e+00
0.000000000000000000e+00
0.000000000000000000e+00
0.000000000000000000e+00
0.000000000000000000e+00
0.000000000000000000e+00
9.480270425226110242e-04
4.972679297474956808e-03
9.344797360149154075e-02
-1.878256723596254986e-03
-1.374407130165231430e-02
3.661562039974468764e-03
3.503561373336462094e-03
0.000000000000000000e+00
0.000000000000000000e+00
0.000000000000000000e+00
0.000000000000000000e+00
-1.223059650326549785e-01
-2.775164922273745116e-01
-9.815066743603208244e-02
-1.024047768363384181e-02
-5.374436635398164436e-03
-2.287797860124238941e-02
0.000000000000000000e+00
0.000000000000000000e+00
0.000000000000000000e+00
-1.007347802631108458e+00
0.000000000000000000e+00
0.000000000000000000e+00
0.000000000000000000e+00
-2.677529384467700752e-02
-7.636684016185266155e-02
-1.004586056587533638e-02
-2.880288242166101700e-02
0.000000000000000000e+00
0.000000000000000000e+00
0.000000000000000000e+00
0.000000000000000000e+00
1.179026042288379705e-01
0.000000000000000000e+00
1.712814051137995508e-01
0.000000000000000000e+00
0.000000000000000000e+00
-1.955634348780013465e-01
0.000000000000000000e+00
0.000000000000000000e+00
-5.691633006739624245e-02
-1.564312674523393037e-02
-1.017114952786092874e-01
-2.888748869175618295e-02
0.000000000000000000e+00
2.811704028105480664e-04
0.000000000000000000e+00
-9.330349232603836300e-04
0.000000000000000000e+00
0.000000000000000000e+00
-2.277437019284357309e-02
1.765268671401077905e-01
2.450035401298680804e-01
3.789909976567748529e-02
0.000000000000000000e+00
3.455159919867148433e-02
4.699151914822142020e-03
1.141717175699890480e-01
-1.267611204599896138e-02
3.180560685084515143e-02
7.760136686930661602e-03
0.000000000000000000e+00
0.000000000000000000e+00
0.000000000000000000e+00
-3.738472828375422573e-03
0.000000000000000000e+00
-5.375365934107072252e-02
-1.904472690115963096e-01
-1.046422641402778186e+00
0.000000000000000000e+00
-4.568483116323613508e-02
0.000000000000000000e+00
-2.133899394649075987e+01
0.000000000000000000e+00
-3.709145413206609704e-02
7.763053551753517235e-04
-3.091842543720549341e-02
2.821393355870162496e-03
5.119230433915909761e-02
0.000000000000000000e+00
1.449224843971612907e-03
2.575588931295811831e-02
-1.131435183716469894e-01
0.000000000000000000e+00
-1.963067702818519722e+00
0.000000000000000000e+00
8.361979773244043734e-01
1.527067291559679532e-02
2.069240015271816766e-02
1.018292665391916547e-02
3.003954090553353010e-02
-1.270810335889360418e-02
-5.690753217877832920e-02
8.959006270208891287e-02
-1.273646851096053509e-02
-2.974566628680951758e-02
-3.274402005611082994e-02
-7.612788339785709901e-01
3.140837134460285063e-02
0.000000000000000000e+00
-7.446505303418880783e-02
0.000000000000000000e+00
3.184896967057226826e-03
-1.297617463480697385e-04
2.601558061162101421e-02
-1.924604184532719697e-01
-7.886938452187933213e-02
-1.837121744833498937e-02
-2.633844036569342739e-01
0.000000000000000000e+00
-4.097558009881417142e-03
-1.207651744303624283e-03
-1.707195923556706352e-02
3.458078016138974586e-01
6.289901243381370577e+00
-7.078323004068577673e-02
4.307984865357858406e-02
0.000000000000000000e+00
0.000000000000000000e+00
0.000000000000000000e+00
0.000000000000000000e+00
0.000000000000000000e+00
0.000000000000000000e+00
1.767932097349209780e-02
3.815985961196838305e-02
1.283327499646900668e-02
4.779909296855547884e-01
0.000000000000000000e+00
5.716808344657801910e-02
-2.522426586883279656e-02
0.000000000000000000e+00
0.000000000000000000e+00
5.429156899162089767e-01
-7.080585724509641868e-03
0.000000000000000000e+00
5.231054843954513651e-03
-9.687870686696024164e-03
-5.912014732456040422e-02
3.354171569556477217e-02
-5.742339521714250050e-02
0.000000000000000000e+00
0.000000000000000000e+00
2.120045187749047544e-01
9.393365991724585140e-03
0.000000000000000000e+00
1.035267072869670291e-01
0.000000000000000000e+00
8.797285811169287817e-02
1.663520022606053070e-02
-4.604523148982146707e-02
-6.461154025816942753e-05
3.731765954932574347e-01
4.804146234299103146e-02
1.058045015669705413e-03
-2.101591908791750063e-03
0.000000000000000000e+00
0.000000000000000000e+00
-3.866914478770461933e-02
4.939008452445066595e-03
9.405114640435038864e-02
0.000000000000000000e+00
-8.287445541739536098e-03
6.460263858510773005e-02
0.000000000000000000e+00
0.000000000000000000e+00
-6.128279197998842513e-03
0.000000000000000000e+00
0.000000000000000000e+00
-6.232165293776348314e-04
2.329083084561054187e-02
-1.982653837142593287e-02
-6.483007250868504101e-02
6.854759602792907802e-02
8.560091346944487603e-04
0.000000000000000000e+00
8.354614406416130401e-02
1.708176258169943548e-02
0.000000000000000000e+00
2.676829982861225199e-01
5.830720180790630036e-02
1.770586501735510227e-04
1.312619496951125848e-02
-9.548629859777441400e-03
0.000000000000000000e+00
-3.039487596921874849e-05
0.000000000000000000e+00
0.000000000000000000e+00
-1.051238698850690337e-03
-2.458197537063363525e-01
0.000000000000000000e+00
0.000000000000000000e+00
-1.779937581078207612e-02
7.211783341329616737e-03
0.000000000000000000e+00
9.692473034806395660e+00
-2.900594003956228351e-01
3.855995147445711452e-02
0.000000000000000000e+00
-9.150983927901339132e-02
0.000000000000000000e+00
-2.820565284022408248e-02
7.085965016331502442e-01
0.000000000000000000e+00
-8.805366933789658028e-04
0.000000000000000000e+00
0.000000000000000000e+00
0.000000000000000000e+00
0.000000000000000000e+00
1.095825911470066014e-02
0.000000000000000000e+00
1.441679104969394686e-03
0.000000000000000000e+00
-1.323222903893117933e-02
-1.936376001288726487e-02
4.702951326107605162e-02
-1.078456479239756375e-03
0.000000000000000000e+00
0.000000000000000000e+00
-1.692105728527533394e-04
2.615737001252379290e+00
3.683520815186025743e+01
-3.323082015202835724e-03
0.000000000000000000e+00
5.855876956136039230e-02
1.223572506298016040e-02
-7.066022137025371186e-02
0.000000000000000000e+00
-1.649390135013754227e-02
-6.486024545388267837e-02
3.275828454044764360e-02
0.000000000000000000e+00
0.000000000000000000e+00
2.312248534921289636e-02
0.000000000000000000e+00
4.919815848875472297e-02
5.302832103558622126e-03
0.000000000000000000e+00
2.103209867947289716e-02
-5.838593510322285240e+00
6.710141208109395017e-02
0.000000000000000000e+00
0.000000000000000000e+00
0.000000000000000000e+00
3.297010620899893940e-01
1.777431164165459432e+00
0.000000000000000000e+00
0.000000000000000000e+00
1.062133444330273790e-01
2.657182973298467549e-03
0.000000000000000000e+00
0.000000000000000000e+00
-1.914448252276027690e-02
0.000000000000000000e+00
1.887432009859796311e-01
0.000000000000000000e+00
0.000000000000000000e+00
-4.490123903908998810e-04
-1.489445359683365605e-03
-8.621448049410617397e-04
0.000000000000000000e+00
0.000000000000000000e+00
0.000000000000000000e+00
9.069465771783500330e-01
7.494110682348407819e-03
0.000000000000000000e+00
0.000000000000000000e+00
0.000000000000000000e+00
0.000000000000000000e+00
0.000000000000000000e+00
0.000000000000000000e+00
0.000000000000000000e+00
3.206358224083875018e-03
0.000000000000000000e+00
0.000000000000000000e+00
0.000000000000000000e+00
0.000000000000000000e+00
2.269356902100836890e-03
-7.875889302133740402e-03
0.000000000000000000e+00
0.000000000000000000e+00
0.000000000000000000e+00
0.000000000000000000e+00
0.000000000000000000e+00
0.000000000000000000e+00
-7.797040676521962239e-04
9.583076872299997051e-01
0.000000000000000000e+00
0.000000000000000000e+00
0.000000000000000000e+00
0.000000000000000000e+00
0.000000000000000000e+00
0.000000000000000000e+00
0.000000000000000000e+00
0.000000000000000000e+00
0.000000000000000000e+00
0.000000000000000000e+00
0.000000000000000000e+00
-3.723232726341695331e-01
0.000000000000000000e+00
0.000000000000000000e+00
0.000000000000000000e+00
0.000000000000000000e+00
0.000000000000000000e+00
0.000000000000000000e+00
7.506655729246811085e-07
0.000000000000000000e+00
7.414250729065928469e-02
9.160047925262328194e-02
4.389062558926488111e-01
7.009543054935905848e-02
9.160633062262146450e-03
-2.108601935531269952e-03
2.123044698585558054e-01
0.000000000000000000e+00
0.000000000000000000e+00
0.000000000000000000e+00
0.000000000000000000e+00
0.000000000000000000e+00
0.000000000000000000e+00
0.000000000000000000e+00
0.000000000000000000e+00
0.000000000000000000e+00
0.000000000000000000e+00
0.000000000000000000e+00
0.000000000000000000e+00
6.161276099130391648e-01
0.000000000000000000e+00
0.000000000000000000e+00
-2.551599412903247238e-02
0.000000000000000000e+00
-7.901780896441407392e-04
-4.333108292669737849e-02
0.000000000000000000e+00
5.451785554323666794e-02
0.000000000000000000e+00
0.000000000000000000e+00
1.592716374260103596e-01
-3.173529298232989904e-01
0.000000000000000000e+00
0.000000000000000000e+00
0.000000000000000000e+00
4.067757999089752219e-02
3.434605860715608805e-02
2.441860186261846088e-02
-9.928486572817997458e-02
-2.051157429040168650e-02
-3.701308368172985530e-02
-4.987396660080028674e-03
0.000000000000000000e+00
0.000000000000000000e+00
0.000000000000000000e+00
0.000000000000000000e+00
0.000000000000000000e+00
0.000000000000000000e+00
2.950835746920778616e-02
1.150830745204157665e-02
-1.735441253814287710e-02
-6.200058318698856846e-03
9.932957011555909599e-02
8.931300556560385628e-02
0.000000000000000000e+00
-2.068303091242993177e-02
-1.296386285608601592e-02
-1.262602800929583657e-01
0.000000000000000000e+00
1.563538570992727139e-02
0.000000000000000000e+00
0.000000000000000000e+00
3.454780961242846088e-02
-4.554956341634055876e-03
2.419283625134766805e-03
-2.781896422891393193e-03
-2.018985503304268105e-03
2.910487880709917152e-01
2.614190455600635607e-02
0.000000000000000000e+00
0.000000000000000000e+00
0.000000000000000000e+00
0.000000000000000000e+00
0.000000000000000000e+00
-2.181608718426845603e-03
2.961252310459225878e-01
-3.080208212940014831e-02
-4.414444298884809825e-01
2.892002355179191797e-01
1.302228532020311391e+01
1.068975202237933478e-02
1.330353789065956416e-02
5.079479000071804862e-01
8.446246080577977586e-03
0.000000000000000000e+00
0.000000000000000000e+00
3.230993047177174726e-02
0.000000000000000000e+00
0.000000000000000000e+00
1.624886631949663904e-03
3.164730187879054302e-02
-6.235957719208285246e-03
0.000000000000000000e+00
3.301578450575718554e-02
1.021355501572482893e+00
0.000000000000000000e+00
2.973430047165558088e-02
-7.859607013526642705e-02
4.870538958528342066e-01
0.000000000000000000e+00
0.000000000000000000e+00
0.000000000000000000e+00
0.000000000000000000e+00
-4.720050532938251412e-04
-3.713510166270198032e-02
9.059631076857625753e-02
4.507948472981265775e-02
-2.087549345504309173e+01
3.625047522354290369e-02
1.526798100699803748e-03
-4.321149054078678858e-03
2.127889271413365702e-01
3.542558539852087018e-01
1.967912184912267576e-02
1.800531539526225959e-03
-6.108698714611118623e-03
7.467286675527080517e-03
-6.304053708848472715e-02
-6.399975222760903928e-03
5.370761207719748458e-03
-8.878713248792158633e-03
-1.672809919005441293e-01
2.447115632332822477e-01
1.242795264606226134e-03
0.000000000000000000e+00
0.000000000000000000e+00
0.000000000000000000e+00
4.201203794927577118e-02
5.453736060378289868e-03
0.000000000000000000e+00
0.000000000000000000e+00
0.000000000000000000e+00
0.000000000000000000e+00
0.000000000000000000e+00
0.000000000000000000e+00
0.000000000000000000e+00
-9.637970677822007117e-04
0.000000000000000000e+00
-3.900214706778181384e+00
1.102241762731793528e+00
-5.825798841757363900e-02
3.209928033474699488e-03
2.156734685256891590e-02
1.157593937718641053e+00
4.113217703872991404e-02
-1.093365307528106900e-01
-1.589174999280218437e-02
3.084397356479336161e-02
4.493635890280130857e-02
1.691992548688555503e-02
4.830738091643455023e-02
0.000000000000000000e+00
0.000000000000000000e+00
4.947491918629870478e-01
3.519313493542017626e-03
0.000000000000000000e+00
0.000000000000000000e+00
0.000000000000000000e+00
0.000000000000000000e+00
0.000000000000000000e+00
0.000000000000000000e+00
-8.981631699178831488e-03
0.000000000000000000e+00
0.000000000000000000e+00
0.000000000000000000e+00
0.000000000000000000e+00
-2.186895338792164902e-04
0.000000000000000000e+00
0.000000000000000000e+00
-2.216302863334810181e-03
6.180884203866621879e-02
-8.592999634943650211e-02
-7.548172068729715356e+00
-3.621443320738419020e-04
0.000000000000000000e+00
0.000000000000000000e+00
-1.553083492510958039e-03
-1.010475530683441481e-01
-1.471504455709109038e+00
0.000000000000000000e+00
-6.299299940975200407e-02
5.805805419253008692e-02
0.000000000000000000e+00
-1.886467005459003393e-02
9.857970138689398087e-01
9.193257745884358956e-02
0.000000000000000000e+00
0.000000000000000000e+00
0.000000000000000000e+00
-2.199133199517708744e-05
1.858093681483814069e-02
0.000000000000000000e+00
0.000000000000000000e+00
0.000000000000000000e+00
0.000000000000000000e+00
0.000000000000000000e+00
0.000000000000000000e+00
-7.000768705908266398e-04
0.000000000000000000e+00
-1.006877069092483729e-01
3.103896624515581695e-03
5.744790668269501854e-03
-1.636799631457202808e-01
-2.275010968912657139e-01
-4.608555723747179700e-01
0.000000000000000000e+00
0.000000000000000000e+00
1.002492603030942508e-02
4.339148848444286319e-03
0.000000000000000000e+00
1.333444018312503476e-01
0.000000000000000000e+00
1.160422993860769358e-01
2.084486807114857676e+00
4.521448759295552122e+00
6.539813807139898572e+00
-2.260998205578932578e-04
-3.106450176580796067e-04
0.000000000000000000e+00
-1.873724416042344548e-02
1.784017670290877211e-03
2.605439573180828514e-02
-2.115684203929700524e-02
0.000000000000000000e+00
0.000000000000000000e+00
0.000000000000000000e+00
-1.778881879244294251e-02
-4.395895361822085151e-02
7.952282821535837376e-02
2.682669791217910660e-02
-1.528326749348975049e-02
6.242673753945052889e-03
-3.682952882975220055e-01
9.918413250888645505e-02
2.033838295601753388e-01
1.214853847262343522e-01
2.897001235301894032e-03
0.000000000000000000e+00
-1.357056012387275190e-01
2.732570798805008389e-02
6.674240087832282800e-03
2.485546247405231446e-01
-1.174072040972524641e-02
0.000000000000000000e+00
-1.367863662255460611e+01
-1.870603260611396895e-02
0.000000000000000000e+00
0.000000000000000000e+00
-5.401109819340715358e-03
2.352503625146494613e-03
0.000000000000000000e+00
0.000000000000000000e+00
-4.352081909527237558e-02
-2.940288313827905606e-03
0.000000000000000000e+00
0.000000000000000000e+00
1.486661728482030790e-03
-5.677955318674698937e-02
-1.412675067239541615e-01
0.000000000000000000e+00
2.514640674843373128e-02
0.000000000000000000e+00
0.000000000000000000e+00
4.428987949265720397e-02
-8.232677574011113691e-03
0.000000000000000000e+00
-8.392819048130976956e-02
-2.673351330392739408e-02
0.000000000000000000e+00
-4.681923805147130335e-04
-1.987477464764308716e-03
0.000000000000000000e+00
0.000000000000000000e+00
1.554646156744743900e-02
-6.959292303597815026e-03
0.000000000000000000e+00
2.303234932450219305e-02
-6.914449902638136747e-02
0.000000000000000000e+00
-1.351056993460212317e-02
4.139241038473389089e+00
2.030266985246001251e-05
-7.828390691015969793e-02
0.000000000000000000e+00
-4.369946828948412937e-03
1.218048250281058772e-02
5.326896603943118841e-03
-1.884649906490816484e-02
-3.465307657680065379e-02
-2.072801007881589679e-04
2.507094339401258584e-04
1.078896601831716602e-02
-7.133191256028455912e-03
0.000000000000000000e+00
-2.271594352271960049e-01
0.000000000000000000e+00
-4.309974289448208727e-04
1.644198708448149464e-04
0.000000000000000000e+00
0.000000000000000000e+00
0.000000000000000000e+00
0.000000000000000000e+00
0.000000000000000000e+00
-8.942458094883556224e-03
5.652687416242398871e-02
4.999366596545557623e-02
3.455110551503138682e-03
1.112622901089303085e+01
1.304942913512659348e-02
6.437133937787684577e-03
1.180295656367602933e-02
9.391017287402857183e-02
1.321951451339873837e-02
1.427209028696221644e-03
1.881762833292457693e-01
-5.115468376980704335e+00
-5.538638592494498081e-01
9.619502706519907076e-03
1.338481235560434468e-01
-7.469104884985227092e-04
0.000000000000000000e+00
0.000000000000000000e+00
0.000000000000000000e+00
2.928866630172111563e-03
-9.731454530244984524e-02
0.000000000000000000e+00
0.000000000000000000e+00
0.000000000000000000e+00
0.000000000000000000e+00
-2.837644771001981286e-03
-1.238541873934910498e-01
-1.334690709591815627e-01
3.821204291531706820e-01
6.475983991201618439e-02
8.182817614820515895e-03
2.068743552448042838e-02
-6.555816657416636828e-02
-1.089753116611854727e-01
3.649715576650287563e-01
7.544590532173785224e-02
1.870588067904106755e-01
2.942740958693474546e-03
-3.315495335904791174e-01
0.000000000000000000e+00
0.000000000000000000e+00
1.998565480281569440e-02
0.000000000000000000e+00
0.000000000000000000e+00
0.000000000000000000e+00
0.000000000000000000e+00
-1.468800005901909345e-01
-1.752267548825001825e-02
-7.659301314886449163e-02
7.786969435325662436e-01
8.155863346768135180e-01
0.000000000000000000e+00
0.000000000000000000e+00
-3.675322294370641108e-03
-2.188142169479363503e-04
-7.539070985297084573e-05
3.287135496334245570e-04
1.632102349386553186e+00
1.691844537337338500e-02
0.000000000000000000e+00
0.000000000000000000e+00
0.000000000000000000e+00
0.000000000000000000e+00
1.801718508678277209e+00
-3.790374280556629838e-02
-1.085662036361201011e-01
0.000000000000000000e+00
-1.956673856542017614e-02
4.099114771478994612e+00
8.513882610684913033e+00
0.000000000000000000e+00
0.000000000000000000e+00
6.248712699885855537e-01
8.283174735201667360e+00
6.301896077175135613e-02
0.000000000000000000e+00
5.129814289316822137e-03
-6.390595094239791274e-02
-1.471639307122213047e+01
-1.780414847219039323e-02
-1.414493832446750768e-02
9.228420556070773828e-03
3.928797860392847178e-04
3.556119564222345875e-01
0.000000000000000000e+00
4.623731932138187839e-02
-3.148552086414683204e-01
1.552518748376867375e-02
-1.769019995988899696e-01
6.661487001255007867e-02
6.579623526637026027e-04
0.000000000000000000e+00
-9.137505881043669120e+00
-1.748925782132663809e+00
-2.458702059631737991e-01
0.000000000000000000e+00
3.070980200160319806e-02
3.070114268513190581e+00
0.000000000000000000e+00
0.000000000000000000e+00
-1.084428644040214690e-01
-2.861788872247655879e-01
-1.818476115248392200e-01
-3.760325878793566279e+00
-1.948754653401375825e-02
1.163488786739632491e-02
2.300337937787400588e-01
-5.671757553982770261e-01
0.000000000000000000e+00
1.199429775714790036e+00
0.000000000000000000e+00
-4.206125926201940146e-01
-3.561436195964339663e-02
2.543278079989240936e+00
3.437681359955001015e-01
-9.468920586020789648e-03
8.693745005525183700e+00
0.000000000000000000e+00
4.375299154327843554e-01
0.000000000000000000e+00
4.344486859637408833e-03
1.556185609591673657e-03
6.516116911386535260e-02
0.000000000000000000e+00
8.750145865981721199e-03
6.615765775229222323e-02
0.000000000000000000e+00
0.000000000000000000e+00
5.004612304467996431e+00
1.318631185271367662e-02
-7.495420985741810260e-02
-2.373471269776855977e-02
-2.626261164947162996e+01
0.000000000000000000e+00
-2.542623466036023766e-02
0.000000000000000000e+00
0.000000000000000000e+00
-7.661568626370045265e-02
0.000000000000000000e+00
-2.323299409168469998e-01
-8.462338637687395249e+00
2.436897128605467616e-02
-2.838205865766588731e-01
-8.990609709469868371e-03
1.718535309104843867e-01
-1.529952274332816442e-01
-1.469301636142976951e-02
0.000000000000000000e+00
2.810134448354992178e-03
1.417560029999930249e-01
-7.548308109332059479e-02
2.866307002952220850e-01
4.157269653043159374e-03
-8.453421270282089617e-02
-2.060513140941709342e-01
-3.062158762404741275e+00
9.341118639702704687e-03
-5.760349752153354208e-02
1.811873221289719491e-02
-8.913599296467924343e-03
0.000000000000000000e+00
0.000000000000000000e+00
1.696793253821745782e-03
1.708040426367661221e-02
-7.355410773213735169e-04
8.180457424388410184e-03
0.000000000000000000e+00
0.000000000000000000e+00
3.511194078506878202e-02
-8.683007359739712550e-02
-2.181774382989374803e-02
0.000000000000000000e+00
0.000000000000000000e+00
0.000000000000000000e+00
-7.379530185169109731e-05
-1.418366967686657612e-02
2.510746077176879152e-04
-1.042216442597120041e-01
-5.196868887302543392e-03
8.644800760049129451e-01
-1.772323743676799089e-03
4.598993505594384801e-01
1.773985811903549398e-02
-2.825083924026232721e-02
0.000000000000000000e+00
-3.374912820236244254e-02
0.000000000000000000e+00
-5.365819948630907998e-02
0.000000000000000000e+00
-2.062741028875016980e+00
-1.384801791093673816e-03
8.376417984223375260e-03
0.000000000000000000e+00
0.000000000000000000e+00
0.000000000000000000e+00
0.000000000000000000e+00
0.000000000000000000e+00
0.000000000000000000e+00
0.000000000000000000e+00
0.000000000000000000e+00
8.827752555242321386e-02
-3.935236202460645760e-02
-1.296562033292180879e-02
-1.604924248040330570e-02
-1.032616431233990099e-02
2.065999204514616661e-02
0.000000000000000000e+00
0.000000000000000000e+00
-3.309061432565076066e-03
-2.164251689084004462e-02
8.499528857768248735e-02
-1.288276449896963959e-03
7.415844174803145478e-03
-3.342300490254892509e-01
-1.522863694234108736e-02
2.971112582157559148e-05
0.000000000000000000e+00
0.000000000000000000e+00
0.000000000000000000e+00
0.000000000000000000e+00
0.000000000000000000e+00
0.000000000000000000e+00
0.000000000000000000e+00
0.000000000000000000e+00
0.000000000000000000e+00
0.000000000000000000e+00
0.000000000000000000e+00
4.421037596695932825e-02
7.117827408303858960e-02
-2.355765337883020949e-01
2.471598207293971283e-01
8.233426957962442297e-03
0.000000000000000000e+00
2.960332755717785206e-03
-1.465009672058910665e-03
-3.924133651952924594e-03
0.000000000000000000e+00
1.990191550079973837e-01
1.043299460488637947e-01
2.600455668290042183e-02
1.903338261925683825e-02
-4.741680546476829961e-02
-4.352852694423593044e-02
9.726275238004442047e-02
6.106572354687989264e-03
3.056715202337406123e-01
0.000000000000000000e+00
1.014962914305740649e-02
2.682432413771602270e-03
0.000000000000000000e+00
-1.051309891005568209e-02
1.606693644733012821e-02
0.000000000000000000e+00
0.000000000000000000e+00
0.000000000000000000e+00
6.992365697933106139e-02
2.183514176153818487e-01
-1.695059405371483585e+00
-2.592810317804043474e-01
1.809298104805574098e-02
-7.102217628960218188e-03
-5.994217056271700095e-02
1.034718272341881261e-02
0.000000000000000000e+00
-4.476611416880450431e-03
4.888659211452564546e-02
-5.873858935969292552e-04
-5.801394399892590044e-03
0.000000000000000000e+00
0.000000000000000000e+00
-6.985115936661182023e-02
-1.410762172545729498e-01
-9.669511096047408993e-02
-1.719342382688702209e-01
0.000000000000000000e+00
0.000000000000000000e+00
2.173105709925368320e-03
0.000000000000000000e+00
9.836562600591827743e-02
-5.673350336430162122e-03
0.000000000000000000e+00
0.000000000000000000e+00
0.000000000000000000e+00
2.552357215290204824e-03
-2.115044254901828763e-02
-1.292063578558147983e-02
-1.743074440374499379e-02
0.000000000000000000e+00
0.000000000000000000e+00
0.000000000000000000e+00
7.831843869176809136e-02
0.000000000000000000e+00
-7.086353579498733124e-01
2.323901227148397752e-02
-2.294671063637482300e-03
-5.165547013713448626e-02
0.000000000000000000e+00
0.000000000000000000e+00
0.000000000000000000e+00
0.000000000000000000e+00
-2.557399067936713460e-04
0.000000000000000000e+00
7.138322631589297251e-04
7.516928787743554609e-04
7.185116807568489028e-01
4.969812646801330912e-03
9.473428752343535098e-02
0.000000000000000000e+00
-3.593038071390722548e-03
-5.121129681659708152e-03
0.000000000000000000e+00
-6.131242103465017745e-02
1.279511440115625558e-02
-1.492295065998617762e-02
0.000000000000000000e+00
0.000000000000000000e+00
1.189286291918927041e-01
1.132770531094181611e-03
1.149132768723583609e-01
0.000000000000000000e+00
-5.564001375037215258e-01
-3.382560131055813157e-02
7.376272982963646974e-02
0.000000000000000000e+00
0.000000000000000000e+00
0.000000000000000000e+00
0.000000000000000000e+00
-5.108707884617976619e-03
4.333138581949030205e-02
0.000000000000000000e+00
-2.548053458764203919e-03
0.000000000000000000e+00
-2.031449449754664169e-02
-6.059370080216861659e-02
0.000000000000000000e+00
0.000000000000000000e+00
0.000000000000000000e+00
-1.174430530111844384e-04
-1.911396684716012290e-02
3.417751322327226555e-04
7.004457994049465008e-02
5.097078888677042396e-01
0.000000000000000000e+00
0.000000000000000000e+00
4.792613954846639511e-03
0.000000000000000000e+00
0.000000000000000000e+00
5.075094190756608906e-03
0.000000000000000000e+00
0.000000000000000000e+00
0.000000000000000000e+00
0.000000000000000000e+00
-1.326408153345235601e-04
0.000000000000000000e+00
0.000000000000000000e+00
2.701570537209876596e-02
0.000000000000000000e+00
5.665676214564325797e-01
0.000000000000000000e+00
-2.978903013538309469e-02
-7.901172463024869197e-02
-1.581191239095275499e-03
-1.243797248725896261e-02
1.597257395714447858e-02
1.729171393275608093e-02
1.247703579525098611e-01
-8.093204061705773847e-03
0.000000000000000000e+00
1.395677383825966456e-01
-4.784334984700455706e-02
0.000000000000000000e+00
-1.065255329968526343e-01
0.000000000000000000e+00
-2.131071735190513683e-02
0.000000000000000000e+00
0.000000000000000000e+00
-4.516647344945994014e-03
9.201822920635727501e-03
0.000000000000000000e+00
-5.168818584284310541e-03
0.000000000000000000e+00
0.000000000000000000e+00
0.000000000000000000e+00
6.469063885084852528e-02
0.000000000000000000e+00
-2.061792324751388961e+01
-5.189941855743530619e-01
1.133395988223598674e-02
0.000000000000000000e+00
0.000000000000000000e+00
3.466826665840518681e-03
-4.130677921194533114e-02
0.000000000000000000e+00
0.000000000000000000e+00
0.000000000000000000e+00
-6.435205222290069083e-02
-1.851267475826004483e-02
3.019959103655910360e-01
0.000000000000000000e+00
5.892450590975968627e-02
0.000000000000000000e+00
0.000000000000000000e+00
0.000000000000000000e+00
-9.135806427433170026e-04
-9.445885795028021933e-04
0.000000000000000000e+00
-2.901584189829399252e-01
0.000000000000000000e+00
0.000000000000000000e+00
1.411472392219372332e-02
0.000000000000000000e+00
-2.208908650845701344e-02
1.816488829569589888e-02
0.000000000000000000e+00
0.000000000000000000e+00
-7.050262196575760726e-05
0.000000000000000000e+00
0.000000000000000000e+00
0.000000000000000000e+00
2.912009902414660050e-03
0.000000000000000000e+00
0.000000000000000000e+00
0.000000000000000000e+00
2.566506281106686327e+00
2.336415466382199947e-04
0.000000000000000000e+00
0.000000000000000000e+00
0.000000000000000000e+00
-7.474106714131701799e-04
4.564161146986760870e-02
0.000000000000000000e+00
0.000000000000000000e+00
5.427013462817491252e-02
0.000000000000000000e+00
0.000000000000000000e+00
0.000000000000000000e+00
-1.251014930167759687e+01
0.000000000000000000e+00
0.000000000000000000e+00
-3.208082808723474594e-02
0.000000000000000000e+00
0.000000000000000000e+00
2.534215981498075775e-03
0.000000000000000000e+00
0.000000000000000000e+00
0.000000000000000000e+00
0.000000000000000000e+00
2.094935263528282122e-03
0.000000000000000000e+00
0.000000000000000000e+00
0.000000000000000000e+00
0.000000000000000000e+00
0.000000000000000000e+00
0.000000000000000000e+00
0.000000000000000000e+00
-9.035340581926057033e-03
0.000000000000000000e+00
-6.370142710518990337e-02
0.000000000000000000e+00
0.000000000000000000e+00
-1.180383628153837232e-03
1.652049193295227481e-01
-8.050781382911539191e-03
-1.572738605356551189e-01
0.000000000000000000e+00
0.000000000000000000e+00
0.000000000000000000e+00
4.377400263056047125e-02
0.000000000000000000e+00
0.000000000000000000e+00
0.000000000000000000e+00
0.000000000000000000e+00
0.000000000000000000e+00
8.383379407125526872e-02
2.595489528476143575e-05
0.000000000000000000e+00
0.000000000000000000e+00
0.000000000000000000e+00
0.000000000000000000e+00
0.000000000000000000e+00
0.000000000000000000e+00
0.000000000000000000e+00
0.000000000000000000e+00
-1.001366455874445373e-02
2.075393507374679800e-02
8.749960155772551484e-02
1.046331487788278169e-02
0.000000000000000000e+00
4.712569233472661129e-02
0.000000000000000000e+00
0.000000000000000000e+00
0.000000000000000000e+00
0.000000000000000000e+00
0.000000000000000000e+00
0.000000000000000000e+00
0.000000000000000000e+00
0.000000000000000000e+00
0.000000000000000000e+00
0.000000000000000000e+00
0.000000000000000000e+00
1.381694702941476116e-01
0.000000000000000000e+00
-4.955849177522844533e-03
0.000000000000000000e+00
4.283510649505401641e-02
3.566111580248685797e+00
0.000000000000000000e+00
0.000000000000000000e+00
0.000000000000000000e+00
0.000000000000000000e+00
0.000000000000000000e+00
0.000000000000000000e+00
0.000000000000000000e+00
9.953768088264720176e-04
0.000000000000000000e+00
-4.709320990989001275e-03
-1.088131725282226112e-02
-2.344052352308922602e-02
1.261474356014870637e-02
0.000000000000000000e+00
0.000000000000000000e+00
0.000000000000000000e+00
0.000000000000000000e+00
0.000000000000000000e+00
0.000000000000000000e+00
0.000000000000000000e+00
2.562824792550322359e-04
2.809913977359937975e-01
0.000000000000000000e+00
0.000000000000000000e+00
0.000000000000000000e+00
0.000000000000000000e+00
-1.059555109684723155e-02
-1.514050703953286892e-01
0.000000000000000000e+00
0.000000000000000000e+00
0.000000000000000000e+00
0.000000000000000000e+00
0.000000000000000000e+00
-8.696607654901755691e-02
8.158801421941023601e-04
1.845606573898633384e-04
0.000000000000000000e+00
1.186561633846980324e-02
1.688471324862255707e-01
0.000000000000000000e+00
0.000000000000000000e+00
0.000000000000000000e+00
0.000000000000000000e+00
0.000000000000000000e+00
-5.913155410722367722e-02
2.703231175319526641e-02
0.000000000000000000e+00
3.479191194658822883e-03
-1.087475003249603568e-03
0.000000000000000000e+00
2.665231526635949803e-03
-8.470732163095120223e-04
0.000000000000000000e+00
0.000000000000000000e+00
-1.068319930998757336e-03
1.340518549664545742e-02
0.000000000000000000e+00
0.000000000000000000e+00
0.000000000000000000e+00
3.482693879600312105e-03
3.379551617630885962e-01
0.000000000000000000e+00
-1.754021005243923403e-01
3.020502545067590625e-02
-1.753271051175603334e-01
0.000000000000000000e+00
-2.069686203762721721e-02
-5.856931146532531884e-02
0.000000000000000000e+00
0.000000000000000000e+00
0.000000000000000000e+00
1.495142299057870480e-02
2.801368406027449076e-02
-1.902803462076144928e-03
0.000000000000000000e+00
-2.873800057807459396e+00
-8.265466097709790738e-03
-7.070577122764724800e-04
1.561903678350197833e+00
-3.293171837728893318e-03
6.253861039924736576e-02
3.333692793768013862e-01
9.431432436762114679e-02
3.956860622389831716e-01
0.000000000000000000e+00
3.267272592704335149e-02
0.000000000000000000e+00
-2.789001070659475473e-02
-1.130720551022209447e-02
-6.522824066887028538e-02
7.467961229362046538e+00
1.947605148080686424e-03
0.000000000000000000e+00
0.000000000000000000e+00
0.000000000000000000e+00
0.000000000000000000e+00
9.032541757517331682e-02
0.000000000000000000e+00
0.000000000000000000e+00
3.341485001479822803e-02
1.354453715992003926e-01
0.000000000000000000e+00
3.136943058652246624e-02
0.000000000000000000e+00
0.000000000000000000e+00
-8.872811688572963817e-02
-1.399495160092976420e-01
1.892230466753106188e-01
6.907263511609529338e-02
-4.626379207876475164e+00
-2.519492918603112586e-02
1.396979342344108477e-01
0.000000000000000000e+00
-5.845261620846205208e-03
1.193006436085032873e-01
0.000000000000000000e+00
0.000000000000000000e+00
0.000000000000000000e+00
4.131172322937860797e-02
2.538667661295473277e+00
0.000000000000000000e+00
0.000000000000000000e+00
0.000000000000000000e+00
0.000000000000000000e+00
0.000000000000000000e+00
0.000000000000000000e+00
0.000000000000000000e+00
0.000000000000000000e+00
0.000000000000000000e+00
8.644172095297546210e-03
-1.501253162279756956e-02
-2.283529363160691217e-02
-1.866729085175593272e-02
0.000000000000000000e+00
0.000000000000000000e+00
3.484786421114954846e-02
-1.580568624577050052e-02
-3.680489217748589281e-02
1.401881853795696256e-02
0.000000000000000000e+00
0.000000000000000000e+00
0.000000000000000000e+00
0.000000000000000000e+00
-5.941026285798312045e-02
2.179239117582714227e-02
-3.282368242465250052e-01
-5.811647106613303942e-02
-7.548917287743227289e-03
0.000000000000000000e+00
0.000000000000000000e+00
1.277230101426198895e-03
0.000000000000000000e+00
0.000000000000000000e+00
0.000000000000000000e+00
0.000000000000000000e+00
0.000000000000000000e+00
-8.943096869839335314e-05
0.000000000000000000e+00
2.474582824275357081e-03
0.000000000000000000e+00
0.000000000000000000e+00
1.066879119594334006e-02
1.518357842795308712e-03
0.000000000000000000e+00
-4.310968360114089681e-02
-1.191394399690028430e-02
2.808377279833820447e-02
0.000000000000000000e+00
-1.493910529312129400e-02
1.078433393821526601e-02
1.466902574732297827e-02
1.020525300512548431e-02
0.000000000000000000e+00
1.026138369216689494e-01
-5.421261702073677802e-02
-1.097442773016901185e+00
0.000000000000000000e+00
-1.750586098175876959e-02
4.720022885577429550e-01
0.000000000000000000e+00
0.000000000000000000e+00
1.751910191641142811e-03
9.513218597580372707e-03
0.000000000000000000e+00
-6.314597263364499832e-04
0.000000000000000000e+00
0.000000000000000000e+00
-1.194601553005474742e-02
2.876790081340870886e-01
2.709286326572066250e-02
0.000000000000000000e+00
2.827609964175066201e-02
0.000000000000000000e+00
2.445011966068644585e-02
-6.112581222229836544e-05
-3.420858359560662726e-02
0.000000000000000000e+00
0.000000000000000000e+00
-4.968592453131404074e-02
-5.075520430856136217e-02
1.896854510428565201e-03
0.000000000000000000e+00
0.000000000000000000e+00
-4.499413402910971797e-03
-1.091695136290223717e-01
-2.386783189730143882e-03
1.145834076335346986e-02
-1.101039399420187734e-02
8.224292274652256901e-03
1.179455493411972339e-01
-3.064954315334245637e-03
-2.760545114458097526e-02
0.000000000000000000e+00
0.000000000000000000e+00
5.680157228761207461e-02
9.371647060886253988e-02
-3.196523354571229603e-01
0.000000000000000000e+00
0.000000000000000000e+00
3.907240717687816556e+00
-5.257851594575934729e-04
7.095515257910159357e-02
0.000000000000000000e+00
0.000000000000000000e+00
0.000000000000000000e+00
0.000000000000000000e+00
0.000000000000000000e+00
0.000000000000000000e+00
2.135295665649694641e-01
1.453765555210894567e+00
0.000000000000000000e+00
0.000000000000000000e+00
0.000000000000000000e+00
6.259625019560905411e-03
-1.462381731170778534e-02
0.000000000000000000e+00
0.000000000000000000e+00
9.459568013479830546e-04
-2.153470357885492448e-04
1.299656645604027258e-02
-1.218637920827452037e+00
0.000000000000000000e+00
-1.185452469582843338e-01
1.278232630357846733e-01
1.486763324110060118e-02
-6.999393483194539523e-02
-1.317294638118923604e-02
-1.712543894827582569e-02
-9.904939547601451788e-02
0.000000000000000000e+00
1.132646689225123710e-01
-7.686211114222538665e-01
0.000000000000000000e+00
0.000000000000000000e+00
0.000000000000000000e+00
0.000000000000000000e+00
-8.757174865919528650e-02
1.400173624980196110e-02
0.000000000000000000e+00
0.000000000000000000e+00
0.000000000000000000e+00
0.000000000000000000e+00
0.000000000000000000e+00
0.000000000000000000e+00
3.453647648831254191e+00
9.265673113833889474e+00
6.705850129558323103e-02
-1.671896724053817417e-04
-4.375492591291354344e-02
0.000000000000000000e+00
-5.895461667584285873e-03
-2.361459878950707830e-02
7.715228746465840892e-02
1.643224073640135383e-02
4.263874327946392540e-01
-9.894013581932974144e-02
4.653022007657524502e-04
2.239728680581482001e-01
0.000000000000000000e+00
-2.089764635082121291e+00
-3.321316427800518473e-02
1.864769965315311168e-02
-2.545256897210185221e-01
1.871186920881275084e-02
0.000000000000000000e+00
0.000000000000000000e+00
-1.163542086046222973e-01
0.000000000000000000e+00
-6.886819092344911852e-02
1.167347898754914626e-01
-2.131013144345630939e-02
0.000000000000000000e+00
-2.123227133043724055e-02
3.204348053168722989e-03
0.000000000000000000e+00
-4.451454729871318419e-03
-2.115960072515357063e-03
0.000000000000000000e+00
-2.443590618169584894e-01
-9.062111476926819620e-01
4.209783057629001846e-01
6.648192514654368779e+00
1.003923606716095707e+00
-1.769725284239657137e-01
-5.531922481235762579e-02
-1.564042718992925962e-01
-3.122738167406879928e-03
-1.187860965381433154e+00
3.327203205982920322e-03
5.100110967498463349e-02
9.278933464570064335e-03
1.067780425523258067e-02
-1.151946502346654216e-01
7.560725805066335556e-03
1.900124741621828399e-03
3.615998830998295999e-02
1.917043404916925903e-02
-3.653063316603376125e-03
-8.080600921435186768e-02
2.797764609667281049e-02
-2.890522090738045433e-02
2.360498392387320597e-04
-6.112795824576944780e-03
0.000000000000000000e+00
-3.201237859877519715e-02
-1.478246505190974783e-04
2.958769159273755278e-02
0.000000000000000000e+00
0.000000000000000000e+00
0.000000000000000000e+00
0.000000000000000000e+00
-3.997320320921494918e+00
0.000000000000000000e+00
0.000000000000000000e+00
-8.356253217039399592e-03
-3.896642358575651277e-02
6.144471979814927209e+00
1.203737765867827658e+00
-2.016537039768598674e-02
-1.515047593245902324e-01
-1.113369930474070041e-01
-1.177174439352050711e-01
0.000000000000000000e+00
-6.033187626263525338e-01
-1.099607840003934967e-01
-1.808876875227272696e-01
0.000000000000000000e+00
-1.382344629531172958e-02
1.624459174059384586e-02
5.786027054152016735e-02
2.011772660246032851e-01
1.479717723434168297e+00
0.000000000000000000e+00
-2.943295713526212706e-02
1.572811081524373655e+00
1.971484752917224581e+00
-9.700532606938111480e-01
-1.801680868224575516e+00
0.000000000000000000e+00
1.427305535618700327e-02
-1.451442979942214667e-03
0.000000000000000000e+00
0.000000000000000000e+00
0.000000000000000000e+00
7.173488169249218060e+00
3.862445257333489756e+00
1.939722303168101902e+00
-2.253904143584559150e-02
1.283375594157290175e-02
0.000000000000000000e+00
0.000000000000000000e+00
6.526990877254489412e-03
-3.825469961836694299e+00
-1.494568170128890827e+01
-2.862705853372982199e-03
9.209906729169828809e-04
-1.423967246539551085e-03
-2.868619400037799964e-03
3.945326801788118405e-03
0.000000000000000000e+00
5.850313069480705952e-01
7.129037665416178005e-01
4.941548908841805060e-02
5.458573695851022256e-01
1.248604562153985721e-02
3.176976105292693031e+00
3.666549591229560257e+00
-1.975004187311799053e-02
4.190302828329118406e-02
4.992139951732450787e-02
7.530056129594031589e-02
9.923363066072789750e-04
-2.811148731561003040e-03
3.301896412867546360e+01
5.080971140581255069e-03
0.000000000000000000e+00
0.000000000000000000e+00
1.059255010492939492e-01
1.575837783566889527e+00
4.455301622321991627e-04
4.650455822130857009e-02
1.341019720746895218e-02
-1.365611195735407651e-02
0.000000000000000000e+00
2.542139018866488298e-01
0.000000000000000000e+00
2.595871824724000493e-02
-4.903586186167770226e-05
0.000000000000000000e+00
3.897921687579067318e-02
3.957295001962753134e-02
-6.536882772354431215e-03
-4.738942924546471827e-03
-4.857835539685456672e-01
-1.864343245009128514e-01
1.920235955966614227e+00
1.009116583690965185e-01
0.000000000000000000e+00
-1.122478352669549650e+00
-5.555892520531794387e-01
-3.841372797431212571e-02
-3.178977328374873318e-02
4.886628404911382006e-02
-8.401730473361417317e-01
-2.199738198573925399e-02
3.588766105214617752e-02
5.216398323942127591e-04
5.691448918726922379e-01
9.769209731750174708e-01
6.364027432485013236e-01
-3.056675654833260758e-01
8.799558305919025214e-03
0.000000000000000000e+00
-1.487910006048043521e-01
-3.806193777906208275e-01
-4.897982855856884699e-02
0.000000000000000000e+00
5.536514984332879807e-02
3.937432562136405911e-02
1.279432773312596562e-02
2.197338447781502335e+00
0.000000000000000000e+00
-3.167181563363585806e-01
-6.144552693975093710e-03
-8.954130407128928909e-03
1.863380938228438588e-02
2.005527349095264505e-02
0.000000000000000000e+00
-3.403742977756082144e+00
4.810157981904406022e-02
-8.847761718175596590e-02
3.609001719819956381e-03
0.000000000000000000e+00
-1.089982193612714367e-01
3.980062597415127690e-01
-7.323543577873432575e-01
6.136358751490772256e+00
2.555033523582218857e-02
-1.434230004874525455e-01
0.000000000000000000e+00
-1.294214201887015914e-02
-6.861234041382342497e-01
0.000000000000000000e+00
-1.668003647035850301e-01
-7.176089755683744131e-02
-5.883297855555803535e-01
0.000000000000000000e+00
0.000000000000000000e+00
1.414341292494480928e-01
-1.643587250680186018e-01
0.000000000000000000e+00
6.605403661355110922e-02
1.125819176749506317e-05
1.797131700739043048e+00
0.000000000000000000e+00
3.555021166201795257e-02
-8.643178346959065617e-02
-6.150506784593625653e-01
1.664687917325376187e-02
3.131462590474626967e-02
-2.314464485598527466e-02
-3.236111936649305187e-01
-2.103717157560764175e-02
-1.381088458241608655e-03
-2.051021446882838120e-02
-2.480236113393236019e-03
1.348537017433573161e-03
0.000000000000000000e+00
0.000000000000000000e+00
0.000000000000000000e+00
0.000000000000000000e+00
6.600309647173893419e-04
1.124423422548644358e-01
-1.649781393093802340e+00
-1.107462237943413363e+00
6.178248702662325620e-01
3.713521951928306919e-01
-1.141969983503972053e-01
2.388918800380219476e-01
5.850614103507127683e-02
3.943143293801139315e-02
0.000000000000000000e+00
7.295010482863611284e-03
0.000000000000000000e+00
0.000000000000000000e+00
7.138491824063768199e-02
3.702621697118888694e-02
2.211355523486815688e-01
1.224586493407589793e-01
6.350351777041044095e-04
-1.505125806987257508e-01
0.000000000000000000e+00
-1.013761952588478343e-01
0.000000000000000000e+00
0.000000000000000000e+00
-2.441459766265702269e-02
0.000000000000000000e+00
-1.570432574730739467e-02
2.770702601499447360e-03
4.703489649589835397e-01
1.074632179494469542e+00
1.873278792884999766e-01
0.000000000000000000e+00
6.567908744205554726e-04
1.282270435808172682e-01
0.000000000000000000e+00
0.000000000000000000e+00
0.000000000000000000e+00
9.950515260174127088e-03
-4.307728218474441914e-03
5.710487765460108001e-02
0.000000000000000000e+00
0.000000000000000000e+00
-1.968719266335298701e-01
4.426418241333007070e-02
7.210236458984897734e-02
6.880989677532838023e-02
4.073441609950004261e-02
5.588702550549877468e-02
-1.085697501311894575e+00
0.000000000000000000e+00
-2.898995499674296428e-03
-7.425714856314693559e-03
8.789786533163573834e-02
2.369763887629075701e-03
0.000000000000000000e+00
0.000000000000000000e+00
0.000000000000000000e+00
2.783202444970892322e-02
5.755671749763779932e-02
1.290185306058431736e-01
1.674084889376106777e-01
-4.554442987246510310e-01
0.000000000000000000e+00
0.000000000000000000e+00
0.000000000000000000e+00
2.239457098532242618e-01
-2.369937157630163937e-01
1.337995542634325130e-01
2.905298912507271736e-04
5.225396074011736669e-01
2.915316404712883447e+00
1.053980193132751653e-02
-1.227212846723801098e-01
8.092786327589496231e-01
0.000000000000000000e+00
-8.220930809617718049e-01
-5.072452190907584743e-03
1.034914687327996852e-01
-2.353827527999519456e-02
0.000000000000000000e+00
-2.000694663654691355e-02
-1.683650104550654947e-01
4.920959888005135840e-02
-6.342592412778708111e-02
-2.547521259940939697e-01
-8.398938592199155229e-02
-6.194879417619860579e-02
-7.519322743242073948e-03
0.000000000000000000e+00
0.000000000000000000e+00
-1.516686061408690014e-02
0.000000000000000000e+00
-2.106172615370114146e-03
-8.839767341179355364e-02
0.000000000000000000e+00
2.394034675667152876e-02
-1.610969247301034524e-01
0.000000000000000000e+00
1.311779505513707613e-03
-2.010452985746855048e-02
1.571142680074846965e+01
-4.725867770843160919e-03
1.414697827711531783e-02
5.143968507934830459e-02
-4.241199538717313477e-02
-3.767146679035966894e+00
0.000000000000000000e+00
0.000000000000000000e+00
-7.688625486595967659e-03
1.824933370455493475e-01
-4.478609625218603341e-02
-1.002842008735515232e-03
-6.956590182082086904e-02
-9.791286154561723576e-02
0.000000000000000000e+00
3.240850350055871631e-01
-1.936688281028136949e+00
6.964082290700862821e+00
5.356209264811792603e-02
1.370938464270737012e-01
-2.111672721343747783e-02
0.000000000000000000e+00
0.000000000000000000e+00
-4.987417524220932874e-01
-4.051494464897661268e-03
-1.881453700897111128e-03
-8.554002335780684640e-02
2.383797434359451184e-03
-2.135652123485444198e-01
-2.597193524345861593e-01
-9.714536084650435277e-02
-2.986173453930826005e-01
3.977077567772155375e-02
-1.781262688483750516e-03
0.000000000000000000e+00
0.000000000000000000e+00
0.000000000000000000e+00
8.964381768563751685e-01
0.000000000000000000e+00
0.000000000000000000e+00
0.000000000000000000e+00
-1.692439087927489951e-03
0.000000000000000000e+00
0.000000000000000000e+00
2.495210356606616508e-04
2.305187153477766260e-01
6.408875355559638665e-02
-1.768395972567555216e-03
4.868233290828707233e-02
1.288307295799831831e+00
8.839275277969555589e+00
1.910870213579487720e+00
-2.770965889515475834e-03
3.855219859012005978e-02
-2.274216150476340501e-03
1.461464564427561799e-02
-5.783406660879437944e-02
0.000000000000000000e+00
-3.208256758218518828e-03
-4.528280684523490862e+00
4.621889250909170799e-01
-1.574229207127816757e-03
1.069708096356980914e-01
-2.019423554049759150e-04
0.000000000000000000e+00
0.000000000000000000e+00
0.000000000000000000e+00
-7.419889824966459380e-02
-6.340925787763793293e-03
0.000000000000000000e+00
0.000000000000000000e+00
0.000000000000000000e+00
0.000000000000000000e+00
-9.677086594554674265e-03
-7.039332320736562884e-03
5.679914860906461888e-02
-5.104923469123714419e-01
-8.067547464653190489e-03
-1.491820219592582819e-01
4.213705219698965498e-02
-1.097220466052228546e-02
1.771937907004860480e-01
5.736427043500977874e-01
0.000000000000000000e+00
1.042358322093733580e+00
0.000000000000000000e+00
1.070259594359567260e-03
0.000000000000000000e+00
-3.134437662027609317e-01
0.000000000000000000e+00
1.341214301010360856e-02
2.834505270002454780e-02
-5.208954012027910280e-02
3.423985291634636411e-05
0.000000000000000000e+00
0.000000000000000000e+00
8.954648050726920008e-04
0.000000000000000000e+00
0.000000000000000000e+00
-3.155338174162310866e-05
0.000000000000000000e+00
0.000000000000000000e+00
0.000000000000000000e+00
1.872634358713619676e-02
1.680624138671385492e-02
1.865922029790780326e-02
0.000000000000000000e+00
1.288663717070901993e-01
0.000000000000000000e+00
-1.094843903437387909e-03
2.100205915865338885e-05
-2.890847640069584834e-01
0.000000000000000000e+00
1.042004438677378514e-03
0.000000000000000000e+00
3.762266886039962455e-02
-2.457836823593051889e+00
-5.479559835778538557e-03
8.812093483592634002e-02
0.000000000000000000e+00
2.349639880658667239e-03
2.112038332220399738e-03
-6.170009403733198519e-03
-3.652064777628100112e-01
-3.886583300747855317e-03
-2.184077456725739719e+00
3.331659060800506306e-02
-4.853436280494472649e-02
0.000000000000000000e+00
0.000000000000000000e+00
1.028526895094060922e+00
3.233477869401259891e-02
9.211449710530179857e-03
0.000000000000000000e+00
-1.102369320528851036e-03
5.794939585648582053e-02
1.311753739091123347e-05
0.000000000000000000e+00
0.000000000000000000e+00
-5.104252592010850810e-04
-2.877682121112935809e-02
1.229770736014674376e-03
0.000000000000000000e+00
0.000000000000000000e+00
-1.932682528656121286e-03
-4.782259526184559628e-02
-3.612244952126802966e-02
-2.100973834356171729e-02
-4.828754405481885253e-02
0.000000000000000000e+00
-2.922071676200092560e-01
-9.258936764665001186e-04
0.000000000000000000e+00
0.000000000000000000e+00
0.000000000000000000e+00
-2.240175679772799747e-03
9.524660127288718525e-03
0.000000000000000000e+00
-5.765658711174986850e-01
-2.170005767569757049e-01
0.000000000000000000e+00
5.496656924307342929e-02
-3.031454322948929914e+00
-8.599371138417807869e-02
-1.024185511935108176e-03
0.000000000000000000e+00
6.124959103320125609e-01
-8.601033291333433362e-02
0.000000000000000000e+00
2.128764829699937577e-02
0.000000000000000000e+00
3.845009542167120153e-02
-2.112277105593162591e-02
-1.719141411385777252e-02
-9.001660345216086490e-03
0.000000000000000000e+00
0.000000000000000000e+00
0.000000000000000000e+00
6.881698756609097578e-02
0.000000000000000000e+00
-1.454851306912255046e-02
-9.522115776006818688e-01
0.000000000000000000e+00
2.090067186806312982e+00
-5.356776337913551345e-01
0.000000000000000000e+00
-1.872345323463468422e-02
-1.063441541876298906e-02
0.000000000000000000e+00
8.008852403127322828e-02
-2.371878051526197725e-02
-3.818739510160838735e-03
-1.889699678307501260e-04
-1.363147756144324763e-01
0.000000000000000000e+00
-1.102087202624394413e+00
0.000000000000000000e+00
0.000000000000000000e+00
0.000000000000000000e+00
-4.045396295344645676e-02
1.116428884692592105e-01
0.000000000000000000e+00
1.839479873218138606e-01
0.000000000000000000e+00
9.718701397280106328e-04
0.000000000000000000e+00
2.470144704004150621e-02
5.989757755172472366e-03
3.793432909695434313e-02
-1.237888960734534055e-01
-3.270323433437181126e-01
2.028398761203851575e-04
0.000000000000000000e+00
4.548362430637764575e-02
-2.069497648710503374e-02
0.000000000000000000e+00
0.000000000000000000e+00
0.000000000000000000e+00
0.000000000000000000e+00
0.000000000000000000e+00
-8.543316441413321277e-03
-4.276705921084679729e-01
-2.387199120130749537e-03
-5.410360557595644479e-03
-4.118129855820459526e-03
0.000000000000000000e+00
1.648778528596253901e-01
5.472805192020023871e-03
0.000000000000000000e+00
-1.265280499425956551e+00
-3.941299056687509392e-03
0.000000000000000000e+00
0.000000000000000000e+00
-2.220606310441049084e-04
0.000000000000000000e+00
4.941846416242055839e-02
-2.753509679499462244e-03
2.235436862292405902e-02
2.038514242635464796e-02
3.748253103582128293e-02
0.000000000000000000e+00
-3.523206122466609417e-03
0.000000000000000000e+00
1.648414608113801458e-02
-4.520882227231169150e-03
0.000000000000000000e+00
0.000000000000000000e+00
0.000000000000000000e+00
-8.788994900475414207e-01
-4.178202903756840669e+01
0.000000000000000000e+00
0.000000000000000000e+00
0.000000000000000000e+00
0.000000000000000000e+00
7.175042826399886421e-03
2.864868549347115339e-04
0.000000000000000000e+00
1.612216456242340890e+00
-2.479043573020490217e-03
0.000000000000000000e+00
0.000000000000000000e+00
0.000000000000000000e+00
8.800492066960924689e-03
0.000000000000000000e+00
-3.266478611129688047e-04
-9.087236494401129683e-03
9.133829610677069236e-03
0.000000000000000000e+00
0.000000000000000000e+00
-6.715998911323025657e-03
0.000000000000000000e+00
-6.696444152450889420e-02
-2.843923964809680002e-03
-8.327188723321813160e-03
0.000000000000000000e+00
0.000000000000000000e+00
0.000000000000000000e+00
0.000000000000000000e+00
6.138295152113462660e-02
0.000000000000000000e+00
1.072181924202578074e+00
-6.541149324674418218e-04
0.000000000000000000e+00
0.000000000000000000e+00
0.000000000000000000e+00
-7.157304751062911483e-04
0.000000000000000000e+00
0.000000000000000000e+00
0.000000000000000000e+00
1.588766107829361895e-02
-3.729099690217161679e-03
0.000000000000000000e+00
2.674694674832721678e-02
-1.376375454953006505e+00
-1.519604544152343330e-03
3.456515245116146412e-02
-5.350371854817197528e-03
0.000000000000000000e+00
0.000000000000000000e+00
0.000000000000000000e+00
0.000000000000000000e+00
0.000000000000000000e+00
1.944358471520909537e-03
1.754636350612676088e-02
-6.154261832848537811e-02
-4.197752311726708589e-03
0.000000000000000000e+00
0.000000000000000000e+00
0.000000000000000000e+00
-2.821542481398199315e-03
0.000000000000000000e+00
0.000000000000000000e+00
0.000000000000000000e+00
0.000000000000000000e+00
0.000000000000000000e+00
0.000000000000000000e+00
9.251429875715823023e-03
-4.504483541377921618e-01
-6.892843434602625649e-03
0.000000000000000000e+00
0.000000000000000000e+00
-2.784121794075039569e-02
0.000000000000000000e+00
0.000000000000000000e+00
1.296574662998998791e-03
2.614309352061646580e-02
0.000000000000000000e+00
0.000000000000000000e+00
0.000000000000000000e+00
0.000000000000000000e+00
0.000000000000000000e+00
0.000000000000000000e+00
0.000000000000000000e+00
0.000000000000000000e+00
0.000000000000000000e+00
0.000000000000000000e+00
-2.614712254341390943e-02
-5.114871735359314414e-02
-2.049316468248240375e-01
1.558514697918293084e-04
0.000000000000000000e+00
1.142835416011533413e-03
0.000000000000000000e+00
0.000000000000000000e+00
-1.515963695263106842e-02
1.358323466590318773e-01
-1.690730147466397784e-02
0.000000000000000000e+00
0.000000000000000000e+00
0.000000000000000000e+00
0.000000000000000000e+00
0.000000000000000000e+00
-1.413905231845725974e-01
2.313753999898498365e-02
2.990654405278653921e-02
9.117000115060742288e-03
1.228381649110381335e-01
0.000000000000000000e+00
0.000000000000000000e+00
-4.717719408103908732e-03
6.499264243859607243e-03
0.000000000000000000e+00
0.000000000000000000e+00
0.000000000000000000e+00
0.000000000000000000e+00
-9.091167837132792381e-04
1.289477841047459786e-03
8.553678764977724613e-01
-1.412990297843265408e-02
-1.108798496185493549e-03
0.000000000000000000e+00
0.000000000000000000e+00
0.000000000000000000e+00
8.517969926987678519e-02
1.543323571540937689e-01
0.000000000000000000e+00
0.000000000000000000e+00
0.000000000000000000e+00
-4.992821401325726709e-03
0.000000000000000000e+00
-6.314895103496356854e-02
-4.839810891683882232e-02
0.000000000000000000e+00
-1.235774257315457817e-03
-1.167702388603138013e-03
-1.843125837669460504e-02
0.000000000000000000e+00
0.000000000000000000e+00
4.554048771261947487e-02
-2.188349584570893559e-04
1.104330083064759653e-02
3.573002615406803244e-03
1.192314471536893183e+00
-1.189080106362156580e-01
0.000000000000000000e+00
-5.087230308646278204e-02
2.044345519197609401e-02
2.535850599686771244e-03
-6.874577904409723272e-02
3.802999744920048004e-03
0.000000000000000000e+00
0.000000000000000000e+00
-1.412678986110498837e-02
0.000000000000000000e+00
0.000000000000000000e+00
0.000000000000000000e+00
1.017699629501221279e-03
0.000000000000000000e+00
0.000000000000000000e+00
0.000000000000000000e+00
-3.121641240398815784e-02
-8.450558193727755185e-01
-2.345633155272103948e-02
0.000000000000000000e+00
0.000000000000000000e+00
0.000000000000000000e+00
0.000000000000000000e+00
0.000000000000000000e+00
0.000000000000000000e+00
0.000000000000000000e+00
0.000000000000000000e+00
0.000000000000000000e+00
0.000000000000000000e+00
0.000000000000000000e+00
0.000000000000000000e+00
0.000000000000000000e+00
0.000000000000000000e+00
0.000000000000000000e+00
0.000000000000000000e+00
4.074312911202073728e-01
2.032624359706697650e-02
3.089502100498052461e-02
1.978297965929573243e-01
1.388142098069587327e+00
0.000000000000000000e+00
0.000000000000000000e+00
0.000000000000000000e+00
0.000000000000000000e+00
0.000000000000000000e+00
-9.347173970285325983e-02
6.821017471467958823e-03
0.000000000000000000e+00
-7.762456667375716365e-03
7.527394394987396709e-02
2.719869187985347186e-02
0.000000000000000000e+00
-6.005050715632884173e-03
0.000000000000000000e+00
0.000000000000000000e+00
1.202907699452783613e-01
1.634740931117296611e-02
0.000000000000000000e+00
1.683389953836796635e-03
5.424349221759040135e-03
1.624829762865535876e-02
0.000000000000000000e+00
0.000000000000000000e+00
0.000000000000000000e+00
1.602409275920340659e-01
-1.745382175120360887e-03
-1.070757874235780602e-02
2.269438773630097841e-03
0.000000000000000000e+00
-8.208381704806195882e-04
9.574447156046644869e-02
0.000000000000000000e+00
0.000000000000000000e+00
0.000000000000000000e+00
0.000000000000000000e+00
0.000000000000000000e+00
0.000000000000000000e+00
0.000000000000000000e+00
9.996834156259537876e-03
0.000000000000000000e+00
-7.677499738962884762e-03
-1.290597775645644596e+01
0.000000000000000000e+00
1.928984735028667179e-03
9.571838713301620075e-03
7.781454937718423892e-02
2.301193647258549697e-03
0.000000000000000000e+00
0.000000000000000000e+00
-7.737666131570647421e-02
1.705617564978188436e-02
2.642569636544353246e-03
0.000000000000000000e+00
1.171657182415382636e-01
0.000000000000000000e+00
0.000000000000000000e+00
0.000000000000000000e+00
0.000000000000000000e+00
0.000000000000000000e+00
2.788444905770095378e-02
0.000000000000000000e+00
1.314123627898387088e-03
7.058960946404761391e-03
0.000000000000000000e+00
2.336689341153639493e-02
-2.096040662760254025e-02
-9.169185734696095463e-03
0.000000000000000000e+00
0.000000000000000000e+00
0.000000000000000000e+00
-1.975286296770960293e-02
-7.848566637974391594e-03
1.731191951697637343e-02
1.039093420529324102e-01
0.000000000000000000e+00
1.268880138691389761e-03
0.000000000000000000e+00
0.000000000000000000e+00
7.514558064944035568e-03
4.913497104762497969e+01
5.428373065286715260e+00
0.000000000000000000e+00
-2.487781636965014087e-02
0.000000000000000000e+00
2.221668815406359354e-01
-1.595575779050008691e+00
-3.739019144034961606e+00
0.000000000000000000e+00
0.000000000000000000e+00
0.000000000000000000e+00
1.492719356602152528e-03
1.218575422117544604e-02
2.051722824357057107e+00
5.490102271510577218e-03
5.787540085779484256e-02
4.404018820085805683e-03
0.000000000000000000e+00
0.000000000000000000e+00
0.000000000000000000e+00
8.296783645626076842e-02
5.536466812907718527e-02
-9.168483464123824284e-03
3.949664589631925182e-02
0.000000000000000000e+00
1.243341557411752583e-02
0.000000000000000000e+00
8.687075695841268985e-03
0.000000000000000000e+00
3.716847744530848291e-02
2.928030155018438663e+00
5.466568143157939375e-01
1.279450463788015246e-01
0.000000000000000000e+00
-6.409920128271227924e+00
0.000000000000000000e+00
0.000000000000000000e+00
-5.771743100598281107e-02
7.418696767884873644e-01
3.858988095085358339e-02
0.000000000000000000e+00
0.000000000000000000e+00
1.789540327226621288e-03
8.701383078076950495e-02
5.300540914529644140e-03
4.374808964782327114e-02
0.000000000000000000e+00
3.189420927763568503e-02
-3.643602585160575502e-02
0.000000000000000000e+00
0.000000000000000000e+00
4.573194063345485151e-03
0.000000000000000000e+00
0.000000000000000000e+00
-3.288282136170656678e+00
3.993455508854597963e-02
0.000000000000000000e+00
0.000000000000000000e+00
0.000000000000000000e+00
0.000000000000000000e+00
1.210753011056316941e-01
0.000000000000000000e+00
-1.778935670712522010e-01
-4.198144477216970982e-02
0.000000000000000000e+00
0.000000000000000000e+00
-1.061303363664101683e-02
0.000000000000000000e+00
1.022437343481439886e-01
2.265912006656494500e-03
-2.253674308967069662e-01
8.093515964435879159e-03
-1.108303643669498045e-01
0.000000000000000000e+00
0.000000000000000000e+00
4.800236157891619726e-01
2.690922903888447182e-02
-1.505633217836751803e-01
0.000000000000000000e+00
1.167630095809213051e-02
-1.610342093124875120e-04
-4.422161970288957444e-04
0.000000000000000000e+00
0.000000000000000000e+00
2.167661542090518288e-03
-1.389050768920887746e+00
0.000000000000000000e+00
-9.566451123879879392e-02
0.000000000000000000e+00
-1.135070499936866872e-01
0.000000000000000000e+00
0.000000000000000000e+00
0.000000000000000000e+00
9.148961577210984464e-03
2.111730488146104090e+00
-1.907804704524391874e-03
-3.960708789149790521e-01
0.000000000000000000e+00
0.000000000000000000e+00
-2.036338456959725096e-01
-1.759643229792906827e-01
3.664581629138705630e-03
6.293921227881807412e-02
2.827280734944801616e-02
0.000000000000000000e+00
0.000000000000000000e+00
-8.659081810015695907e-03
1.821780608794493564e-02
2.854501106725385595e-01
-1.538975682717463322e-01
2.474732754989139930e-02
9.848327315182965613e-02
0.000000000000000000e+00
-3.487542363633423792e-02
2.274593464608306442e-02
-2.742557095445351603e-02
0.000000000000000000e+00
7.978673133137809126e-02
-5.976806664874483033e-02
-3.800037358548859906e-02
1.837200148434967430e-03
-5.371459733537773396e-01
-6.769346134750086286e+00
4.352770667716784198e-02
2.677915031744318788e-02
-1.164412270989769946e-02
0.000000000000000000e+00
0.000000000000000000e+00
4.554790008289248371e-06
-5.540219123775051713e-03
-7.957176059396110779e-02
1.475305781477750933e-01
-1.187840992043528027e-01
0.000000000000000000e+00
0.000000000000000000e+00
-5.599288589875428546e-01
-3.655738757641782133e+00
-1.534895544176934079e+00
8.005003228226947876e-02
3.776157551477695162e-01
-1.210230192808626065e-01
0.000000000000000000e+00
0.000000000000000000e+00
3.045602170524837060e-01
-6.996534537424292134e-03
-1.145939657796206032e-02
0.000000000000000000e+00
1.855417225752695881e-03
1.553199199105740613e-01
7.662927828658593066e-02
-1.355371307409242165e-02
1.492396803184569132e-01
1.037028314568028575e+00
2.515627537589339852e-02
-5.846862505777815855e+00
-2.295792005432715360e-02
-1.659240507577161849e-01
0.000000000000000000e+00
0.000000000000000000e+00
0.000000000000000000e+00
0.000000000000000000e+00
-1.389496446874789459e-01
2.627816638940821264e-02
0.000000000000000000e+00
7.124733417123250145e-01
4.444783007084995852e+00
4.955600953606872139e+00
-3.885105289656747840e-01
4.581511321140033788e-01
0.000000000000000000e+00
-8.622362782144959992e-02
-4.013863460200194772e-02
-1.293859263391173853e-01
-2.423725200614721587e+01
-5.485000769254537722e+00
1.359674139864465447e-03
7.423082673631898644e-03
1.537181553928655131e-01
-7.319839821758769571e-02
0.000000000000000000e+00
0.000000000000000000e+00
5.711430979758533311e-02
1.419358153990179887e-03
0.000000000000000000e+00
0.000000000000000000e+00
-7.351685357458187520e-02
3.016588939356958932e-01
1.202941022099692225e-01
4.947772380419248606e-01
-5.640873309534772187e-03
4.530850832921874162e-03
-2.981173001117404936e-02
-1.937584925724022966e+00
-2.662857215754065032e-02
-4.208591057660021747e-04
-3.709709522944616977e-01
-9.365491003571875528e-03
5.897180672078466968e-02
3.829927153640838577e-02
-1.515966376605595023e-01
6.031288319763328243e-01
0.000000000000000000e+00
6.512002249613746581e-03
0.000000000000000000e+00
1.231515782209174625e-01
-4.487966169616149914e-01
0.000000000000000000e+00
2.772837383078685311e-02
3.322859317701651327e-02
0.000000000000000000e+00
0.000000000000000000e+00
2.764805177870344743e-01
-2.045158727658704212e+00
-6.252554728012473806e-01
-3.493767574782765117e-01
-2.562099202528193564e-01
3.222008992218732715e+00
1.119895683889285745e-02
-2.704748331823193797e-02
0.000000000000000000e+00
-2.815569421590712051e-02
-5.471823870070335188e-02
0.000000000000000000e+00
1.213946107230701871e-02
1.071360659849512620e-01
3.745198778411145679e-01
0.000000000000000000e+00
1.789551393105523122e-02
-1.134041907841989646e-02
0.000000000000000000e+00
0.000000000000000000e+00
-2.017012728836191024e-02
0.000000000000000000e+00
7.457871355132416995e-03
-6.579606808596290268e-02
3.736884405214480238e-03
-1.481694979796722988e-01
0.000000000000000000e+00
-2.114940360932110464e-01
2.094379246060460581e-02
1.269415154150159430e-02
1.129877179279282912e-01
0.000000000000000000e+00
-5.136338086451067500e-03
0.000000000000000000e+00
0.000000000000000000e+00
0.000000000000000000e+00
0.000000000000000000e+00
-5.929374096341109845e-03
0.000000000000000000e+00
8.967341722255769976e-02
0.000000000000000000e+00
-2.490721090026126044e-02
-2.220573401851154080e-02
0.000000000000000000e+00
1.052152991217458755e+01
2.406492390318775598e+00
9.540631509650362441e-01
1.340804921520873029e-04
-2.839774877869571390e-01
-2.580495388448365499e-02
2.445292931603351705e-02
0.000000000000000000e+00
-2.045905314777248310e-04
5.291829218541618113e-02
-3.571072337740806985e-02
0.000000000000000000e+00
-5.517011428707579990e-02
-4.207281798405069356e-02
0.000000000000000000e+00
1.165701145579744764e-03
8.631701058543569602e-03
7.151304853310291821e-04
1.170128768654904970e-02
0.000000000000000000e+00
0.000000000000000000e+00
3.251259483612790185e-02
5.058462246254845363e-02
1.111436291350340749e-02
3.966051382051841157e-02
4.312286967518876891e-03
9.046915074297045070e-03
1.563684585360278906e-02
3.281471939911000113e-02
-4.057715737774262622e-03
-1.027048125099394582e-01
-2.953294014137803486e-02
0.000000000000000000e+00
0.000000000000000000e+00
0.000000000000000000e+00
2.102932812775248211e-02
-3.429474397081569426e-02
-2.620673552588793573e-02
0.000000000000000000e+00
8.027386302952316949e-03
-1.362514755651006784e-02
3.754161102145596729e+00
4.260400257737922969e-01
5.477024170507613920e-01
8.239082220229692125e-03
0.000000000000000000e+00
1.115746241648635229e-02
0.000000000000000000e+00
-1.597236037396793594e-04
1.562352955188939761e-02
-8.138833840951120724e-02
1.354401304895684610e-01
1.124422481761092399e-02
0.000000000000000000e+00
-3.433735026005697855e-02
3.071453070644691863e-02
-2.215471172338455419e-02
9.766492738208064003e-03
0.000000000000000000e+00
5.503677655266177998e-02
0.000000000000000000e+00
2.686983670737309871e-03
1.879287810730885688e+00
7.065260946912119144e-02
0.000000000000000000e+00
3.370918500219471925e-02
2.695340559712345422e-05
4.019868290137645905e-01
6.743345928969360692e+00
4.842192364816599176e-03
-4.665005714109296542e-02
-2.291402758731309985e-04
-1.139510823114479182e-03
0.000000000000000000e+00
1.988031908718396190e-02
1.376183677483086565e-01
1.812132152655356390e-02
0.000000000000000000e+00
3.168072206473234176e-01
7.947973187742807255e-02
-5.695274609894079854e-01
-3.726661828499983758e-02
-5.252011945254224379e-02
2.470722981791214856e+00
2.196645600098813891e-02
0.000000000000000000e+00
0.000000000000000000e+00
-1.612705119896866435e-02
-5.590147571973485413e-02
7.433812524713041825e-03
1.098570313712217243e-02
-7.518849277255730936e-05
0.000000000000000000e+00
0.000000000000000000e+00
1.054036679848406079e-02
-5.784494135876783183e-03
-5.430315064162478944e-02
-5.259627905081696447e-03
-5.746099071560773213e-05
-1.505643499335974411e+00
-5.208583883734116404e-03
1.137483429322781875e-01
6.249168193715239419e-03
-1.455498386991845861e-01
-3.462213242878675601e-02
2.191508683972517510e-02
6.165907430208914519e-01
-6.465210341924194637e-01
-5.227720648545868681e-02
0.000000000000000000e+00
1.060842341605227279e+00
8.242016996619954544e-03
-3.258698566250921563e-03
-1.765648067851868959e-03
1.711872659314940037e+01
-2.830646229738449371e-01
2.867534904944443186e-01
1.563023353030780840e-02
1.943126321976200443e-02
-1.404520766331154580e-01
6.187715858225190102e-01
6.792388744193036954e-03
6.233438572965570822e-03
-1.909781199758097125e-01
6.651558870890082395e-03
1.947498295159370493e-02
7.680989601175072790e-02
-2.100212837924839843e-02
1.082462240723470331e-02
-1.365691446846653556e-02
4.355763520374501818e-02
-8.260320579715950406e-02
3.575885822317593360e-02
5.801412150196012807e-02
1.383183512094462303e-02
-2.756274378590232998e-02
3.224994604829577866e-02
-1.504464343046146291e-01
4.050447215845394411e-02
-5.878510151691446889e-02
-2.465177055119022187e-01
1.292459573847408449e-02
5.973234044554225075e-02
2.296838357596309443e-01
-1.457683951246225296e-01
2.878464558765298498e-01
1.093036200140618322e-02
2.572528327899456513e-02
1.110388066134087026e+00
2.042365362273440010e-01
4.138846978188730208e-02
1.160586357088105730e-01
-2.129876831553978445e-01
2.949775060091903156e-01
4.654153506347261278e-03
2.451975984416162810e-02
0.000000000000000000e+00
0.000000000000000000e+00
-2.398971193794982026e-01
-1.093334900743105492e-01
-1.530899883649800182e-02
0.000000000000000000e+00
0.000000000000000000e+00
0.000000000000000000e+00
0.000000000000000000e+00
1.170562272591675751e-01
1.135379551270927290e-03
0.000000000000000000e+00
0.000000000000000000e+00
-4.012846874728940305e-01
-1.634540696117577685e+00
-2.600304176629171515e-02
2.484200353168521114e-02
-1.155640879133711628e-02
-1.009100052357105648e+00
-7.548615626202381671e-04
-3.034353012058748494e-02
7.908915687178131107e-03
0.000000000000000000e+00
-3.528372980564024042e-01
1.145282081794432409e-02
-1.742037483198561937e-04
1.120618424528397467e-01
-4.873123660532709955e-01
3.374388552043121048e-01
8.984307448408779262e-03
-4.116358641598495405e-01
0.000000000000000000e+00
2.550893228932940571e-01
-1.909712780671828147e+00
-5.247056320706626129e-03
-6.105348220373685297e-02
-1.889959542754312410e-02
0.000000000000000000e+00
0.000000000000000000e+00
0.000000000000000000e+00
0.000000000000000000e+00
0.000000000000000000e+00
-3.826184213282177171e-02
0.000000000000000000e+00
1.484842676172219156e-01
2.790129742049374945e-02
0.000000000000000000e+00
-2.953229769893276138e-02
2.059710760606922875e-01
0.000000000000000000e+00
1.553938930370188029e-02
2.923604161792115463e-01
2.243803070732894311e-02
8.429378488249054946e-02
-1.279020031034057980e-01
9.250202767649096103e-03
-1.101987592390027415e-01
-2.736858684321800683e-01
-5.628569571931846954e-02
2.031231413950893624e-03
-2.538141093347505775e-02
-1.101253495285652029e-01
1.491576478351699583e-02
-7.152031443726432069e-01
-2.834473377984645026e+01
-2.151947738828412487e-03
4.986652638376770641e-02
1.322820921487101131e+01
-1.170788788483458596e-02
1.859597206634220345e-01
-3.890159099023266265e+01
1.687316381368924589e-01
6.468941374775915021e-01
-9.135366975298340186e-01
-6.515274657796207847e-03
6.703688352959502605e-02
-2.437043607372981202e-01
-1.607681537275395742e-02
0.000000000000000000e+00
-1.005203817962557755e-02
0.000000000000000000e+00
-5.504444710323557616e-02
2.406350146554243549e-02
4.811257479731889664e-02
1.697949875781611340e+01
1.293733595682417803e-01
1.752749307122258501e-02
4.433759611978903975e-03
0.000000000000000000e+00
0.000000000000000000e+00
-3.843758371466307056e-01
-2.815354854879963398e-01
2.780483130923411261e-01
0.000000000000000000e+00
7.971835132862085949e-02
2.227577052360351362e-01
0.000000000000000000e+00
-1.018532065387261955e-03
0.000000000000000000e+00
0.000000000000000000e+00
4.945039743550587452e-05
-4.711215749172120937e+00
-2.442790054271132050e+01
-7.673187287705725279e-02
9.821131631653749749e-02
-7.283971600039014982e-04
4.606128783339432514e-03
-3.826324987959304515e-03
-1.259637456714620372e-02
-2.240337904612242081e-01
3.608664586099737028e-03
7.214799473980006983e-01
-1.162436583378917865e+00
-3.439981811350666281e-03
0.000000000000000000e+00
-1.375627969095801206e-01
-1.220616027552418714e+00
-4.212374638031772013e-03
1.984284258762009437e-02
2.599598184065272585e-02
-5.352543213723955605e-03
1.178596286906426344e-01
0.000000000000000000e+00
1.970129607000326716e-02
4.146501931367151395e-01
5.625824916779338380e-01
3.674340835444078073e-04
7.541268642511093911e-02
