1.527599695950423737e-03
1.372221530549388481e-02
-5.610974541258287318e-02
4.729412372768270357e-04
0.000000000000000000e+00
-2.208451280541157136e-01
1.122076030937913318e-02
-2.360982726979847166e-03
-4.276488235379697495e-02
0.000000000000000000e+00
3.336436252830596305e-02
0.000000000000000000e+00
-4.747051544275526953e-03
-2.037267219591628892e-03
0.000000000000000000e+00
9.810552148929375937e-03
4.114971421648641603e-02
2.264035309320909517e-02
1.241149353998818850e-04
2.280728160640115021e-03
4.336097571214737531e-03
-5.342158109800584920e-02
-5.025969730121935056e-03
1.719014277590056594e-01
0.000000000000000000e+00
-8.510679453627183200e-02
-4.588185116842758392e-03
5.013260130961157135e-02
2.214182983714091391e-02
0.000000000000000000e+00
0.000000000000000000e+00
0.000000000000000000e+00
0.000000000000000000e+00
-1.473810778178132486e-03
-6.363388159959779133e-02
0.000000000000000000e+00
2.411042827874722641e-02
-9.060401523794536782e-02
0.000000000000000000e+00
-9.922847113680148545e-02
-2.545791381895411154e-02
5.420467517156785098e-02
-6.125965181845813290e-02
1.189511029681478843e-01
3.965222410101385681e-02
1.323439418268054779e-02
0.000000000000000000e+00
0.000000000000000000e+00
0.000000000000000000e+00
2.260487877077558411e-03
0.000000000000000000e+00
2.519865981049187326e-02
0.000000000000000000e+00
0.000000000000000000e+00
0.000000000000000000e+00
0.000000000000000000e+00
0.000000000000000000e+00
0.000000000000000000e+00
0.000000000000000000e+00
0.000000000000000000e+00
-1.347309810829715095e-03
1.907365504218476795e-02
-8.609191674706540010e-02
0.000000000000000000e+00
-6.591579351381242347e-02
-1.254382871655079779e-03
6.503407997829209475e-02
1.376598213925131209e-01
0.000000000000000000e+00
-3.831239431788637569e-03
5.865061875481988179e-02
-1.526364018792898854e-02
7.295802785406887633e-03
9.539267756857511271e-03
2.814598603173117976e-03
1.258768425591546766e-02
-7.146216420023871960e-03
0.000000000000000000e+00
0.000000000000000000e+00
0.000000000000000000e+00
0.000000000000000000e+00
-6.659623351842477446e-01
1.395404160632135807e-02
0.000000000000000000e+00
-2.648985379665910658e-03
3.427399376094235339e-02
2.063886378152503601e-02
0.000000000000000000e+00
-1.058950868327675210e-02
2.168375556048416850e-02
1.515653636570641824e-02
5.672298471064697589e-02
6.322867808071536144e-02
1.079318842694177438e-01
3.410921290343194717e-02
-7.242386837265379906e-02
-1.061433928086766704e-01
-1.294052945393855958e-01
1.059196627891925615e-03
3.381807898281068980e-01
-2.472801714695096326e-02
-1.257343072236164925e-03
0.000000000000000000e+00
-1.551391199318105651e-02
-1.001695408396049763e-03
-4.279757059612869508e-02
0.000000000000000000e+00
-1.749272710365031708e-02
-3.625887623151724526e-01
-3.295552777031980629e-02
0.000000000000000000e+00
0.000000000000000000e+00
0.000000000000000000e+00
0.000000000000000000e+00
6.329016435486584102e-02
2.342727591011826462e-03
-1.381659073581628476e-02
3.084055567846332169e-01
7.267520566406404647e-02
7.837491620266059250e-03
2.934486578047096339e-02
-4.925149045714510496e-04
0.000000000000000000e+00
7.096407943186310192e-03
-7.412869508313846278e-02
-1.818971600224333213e-02
-3.521319876066854315e-02
1.425215197876562589e-01
1.618957252622578794e-02
4.566351040915564083e-03
4.850161188642788251e-02
1.456544001783450929e-03
-1.800586557208093972e-03
-5.887014112508321545e-03
-2.860461618431435742e-03
-2.689781999638230295e-02
5.731580060266211300e-03
0.000000000000000000e+00
-3.350395149212861620e-03
0.000000000000000000e+00
1.216694850728920752e-02
1.146306665202772787e-02
-2.333601253101231024e-02
-4.238972496422203917e-02
0.000000000000000000e+00
0.000000000000000000e+00
2.333397904822969229e-02
1.077807807182106642e-02
2.715561062205470067e-04
-6.189853872485429759e-02
-4.250608493710901492e-02
3.948141237314094915e-02
7.906050132077840908e-02
6.350940785135027189e-02
2.969273018180380863e-02
0.000000000000000000e+00
5.288470584721330359e-02
1.416487306407794577e-02
3.178256113186784387e-02
3.853447334764775051e-02
0.000000000000000000e+00
-1.001680041574022906e-01
-1.271463218920553797e-03
-5.194526692659387837e-04
5.258399270879583060e-02
-9.353346988196346162e-03
-7.163137970184292255e-03
-9.597027477338454515e-03
-3.367269749624287115e-03
8.793844285902359392e-02
-8.731913955677426953e-03
0.000000000000000000e+00
-3.335221690269986761e-03
-2.622764859892281163e-03
0.000000000000000000e+00
7.337956968656592083e-03
0.000000000000000000e+00
3.645152486562316073e-04
0.000000000000000000e+00
-5.971218376207705972e-03
-4.730559000358816775e-03
4.008839374198695793e-02
-1.806528971389638385e-03
8.582796430112527367e-03
4.289469964769729998e-02
-1.037674413668534363e-04
-4.718910509931110997e-02
-3.948524046838901291e-02
-6.880668978742997613e-03
0.000000000000000000e+00
6.927578098066200334e-03
-3.263092358847024567e-03
1.641506305382586448e-03
1.750729422389444290e-01
-1.748608695602866039e-02
3.135213426687660440e-03
9.312213810143718518e-02
0.000000000000000000e+00
2.203315040504563033e-02
1.196061003540797446e-01
2.899471864355851816e-02
-1.374447836753296855e-02
0.000000000000000000e+00
4.049285522881916274e-03
-8.311842124009122257e-03
-7.480858606898525311e-03
-2.895536010048880334e-03
0.000000000000000000e+00
-2.828232381319945206e-03
0.000000000000000000e+00
-4.298402885516295485e-03
-3.446159875400179283e-03
-6.325006474465798278e-02
1.101092328575620401e-02
5.123961303107538168e-02
7.590287480378717089e-02
-1.837425862182864508e-02
0.000000000000000000e+00
3.904645358355413737e-02
8.283817891335282235e-02
-2.086926025865877554e-01
-3.401622960910890558e-01
3.388618816552528643e-03
5.045070435596236968e-02
-3.918290783362964047e-02
-8.146408235022457173e-03
3.335092958415890926e-03
-2.291993075272599767e-03
-1.562935571656121347e-01
-4.481279297206940820e-03
-2.981100440828626623e-04
0.000000000000000000e+00
0.000000000000000000e+00
-4.474854105481105085e-03
-1.686086291713708688e-04
1.103129261579677972e-02
7.704352583179494007e-02
2.391901615460281794e-01
0.000000000000000000e+00
3.624944058989396437e-03
0.000000000000000000e+00
-9.462638367724579558e-02
-1.335207339073246451e-02
-8.288795092214548341e-03
6.343135944098876600e-02
0.000000000000000000e+00
-3.599889714753902181e-01
1.084969892099632224e-02
0.000000000000000000e+00
0.000000000000000000e+00
1.267182479523775579e-02
0.000000000000000000e+00
-1.722495400992035408e-01
0.000000000000000000e+00
2.462058065037700527e-02
0.000000000000000000e+00
0.000000000000000000e+00
4.720802028554574314e-02
0.000000000000000000e+00
-6.776148452695210378e-02
2.656488461636544174e-02
9.891246009631575725e-04
3.701920290116233157e-03
0.000000000000000000e+00
3.865517423393402541e-01
3.009922852446726971e-01
2.853332929511426252e-03
0.000000000000000000e+00
0.000000000000000000e+00
1.142004173535383221e-02
-1.679999004818507734e-03
-1.440295849633289188e-02
0.000000000000000000e+00
8.511129220390124209e-04
9.188131511546624493e-04
-5.956401217999161835e-02
0.000000000000000000e+00
2.215090265501477584e-01
4.531659114690342327e-02
-1.343284082700235910e-03
6.420461154841210737e-03
8.971639654518265977e-03
0.000000000000000000e+00
-3.124992178199857695e-02
-2.114253598317400451e-02
1.431544046158249317e-02
4.260017032434353437e-04
0.000000000000000000e+00
0.000000000000000000e+00
5.962671692160046444e-01
1.184319934216471366e-02
-2.368898279850768784e-01
-7.021631021813740103e-02
0.000000000000000000e+00
-1.746139030852936701e-05
-7.621814264898064614e-03
-8.312024699413338158e-02
2.855483874308754888e-02
1.139777649866974413e-01
1.743916225217187962e-05
0.000000000000000000e+00
0.000000000000000000e+00
1.645103249407478194e-02
5.117684950841757709e-03
0.000000000000000000e+00
0.000000000000000000e+00
-9.089439189416143039e-02
6.836394693431004435e-03
-3.400701312087720668e-02
3.625586095902485692e-03
0.000000000000000000e+00
-9.574922329732604709e-02
3.549488359101536650e-02
3.123051042156240603e-02
-1.890008661610459786e-02
3.077264062109252851e-02
-4.938279931442558779e-03
-1.193977623440745095e-01
6.291170405623798881e-03
5.983558145630448605e-02
-2.551806893096395662e-03
5.852091896430329943e-04
-7.143652353109072699e-03
0.000000000000000000e+00
0.000000000000000000e+00
-2.500616291821420537e-03
0.000000000000000000e+00
3.662770916297718171e-02
0.000000000000000000e+00
0.000000000000000000e+00
-1.627211083859427670e-02
7.442393849499254199e-02
1.366442108479938231e-02
-6.686966258441649075e-03
1.641541859363674456e-03
-5.264446858817142805e-02
4.572788828214861649e-03
0.000000000000000000e+00
-1.528221120139108997e-02
4.085593476662721657e-02
0.000000000000000000e+00
2.634060342132277070e-03
0.000000000000000000e+00
-5.395180131850533384e-02
2.038071717022357440e-02
0.000000000000000000e+00
0.000000000000000000e+00
1.024153330490529604e-02
-2.137515815206406100e-02
-1.947508446370734003e-02
-4.252488881039446361e-02
-1.171639836309593119e-02
0.000000000000000000e+00
7.813097627550263241e-03
8.085009532634134920e-04
4.156121378492201590e-02
1.156707952617137825e-01
9.964489468863673132e-04
0.000000000000000000e+00
0.000000000000000000e+00
-2.788767989554436985e-02
0.000000000000000000e+00
1.306148406693780246e-02
-3.241564746695457105e-02
0.000000000000000000e+00
0.000000000000000000e+00
0.000000000000000000e+00
0.000000000000000000e+00
1.834473663812615299e-02
-5.506397309188328787e-02
0.000000000000000000e+00
0.000000000000000000e+00
-1.677759881235163855e-04
-1.190509440776305397e-02
6.515894211977976691e-02
-1.881388853400004640e-02
0.000000000000000000e+00
0.000000000000000000e+00
4.221564941180634863e-03
-6.710639473275582800e-03
0.000000000000000000e+00
-1.067370708067811246e-04
0.000000000000000000e+00
2.144329604789864951e-01
1.363323597386100622e-02
-2.192301393873061569e-03
1.407500506155688657e-03
0.000000000000000000e+00
0.000000000000000000e+00
0.000000000000000000e+00
0.000000000000000000e+00
6.651519527740870803e-03
-3.923139536833268604e-02
4.048397637914851604e-02
0.000000000000000000e+00
-4.290933070618849210e-02
2.102881636803170251e-01
-4.041876459699184077e-02
1.001617140704907059e-02
-1.597503733949754172e-03
1.404211452084933552e-03
-4.313356789991628498e-03
0.000000000000000000e+00
-2.000717804747448314e-03
5.532571629935182506e-02
-3.516038703355709588e-03
-4.761517664979272868e-03
6.892284290516126604e-04
2.367137670093964058e-02
4.476035762200422652e-02
-1.468544735114206932e-04
2.737826740994108582e-02
5.984629300613081293e-02
2.034925505483275998e-02
-7.312244967943923313e-02
0.000000000000000000e+00
0.000000000000000000e+00
0.000000000000000000e+00
0.000000000000000000e+00
0.000000000000000000e+00
0.000000000000000000e+00
3.573729762027438167e-02
9.420054369459572932e-03
-9.048304153625198742e-02
1.392688861549644212e-02
1.301281311670570741e-02
-6.027525779608174095e-02
2.253732051728279603e-02
-5.203496582432927120e-01
2.884557820522950632e-03
0.000000000000000000e+00
-1.035144959212798560e-01
-2.388430336996255898e-01
-8.934038649626854095e-03
0.000000000000000000e+00
1.944654995227325552e-03
-2.137042759946036243e-03
-4.098825364422486496e-03
0.000000000000000000e+00
0.000000000000000000e+00
0.000000000000000000e+00
0.000000000000000000e+00
-6.345099960709726060e-03
0.000000000000000000e+00
3.555778813801182148e-03
9.887880340303273341e-03
0.000000000000000000e+00
2.465679266314441467e-02
-3.141576330629143599e-02
0.000000000000000000e+00
1.167082419307355207e-01
-4.390356105992187022e-03
6.115944231060987252e-02
4.618930734251509851e-02
3.477690138981170617e-03
-5.467217004560961935e-02
5.529093854280098946e-02
-1.717623927635660713e-02
0.000000000000000000e+00
0.000000000000000000e+00
-2.033194282392955174e-02
-8.205103139079743257e-02
-5.150962661800508047e-02
-1.506922939398340532e-03
1.559744542097647431e-03
2.435417754102816440e-02
-5.458252860930919159e-02
-3.325487293713152992e-02
-1.628235188270873730e-03
2.438044171555145967e-01
0.000000000000000000e+00
0.000000000000000000e+00
-5.353956478963494726e-03
0.000000000000000000e+00
0.000000000000000000e+00
-2.796314862470200557e-02
0.000000000000000000e+00
1.089758854240375184e-03
2.923512493541505913e-03
0.000000000000000000e+00
2.290176292531398428e-02
0.000000000000000000e+00
1.410871805705567758e-03
1.550424021175268730e-01
-4.631543995920169715e-02
2.434342125722952291e-02
2.542296161496267193e-02
1.752657174733458223e-01
9.422088233087175246e-02
3.329739565302642767e-03
0.000000000000000000e+00
-1.062337076812254304e-02
0.000000000000000000e+00
0.000000000000000000e+00
-1.180423939264466267e-02
-5.140637766787140017e-02
1.143267040626848481e-02
2.412820470052844286e-03
0.000000000000000000e+00
2.984017743043401814e-03
1.589373221194766844e-02
1.826790104799197109e-02
0.000000000000000000e+00
-2.118964476058692991e-03
2.798354742063266856e-02
0.000000000000000000e+00
0.000000000000000000e+00
0.000000000000000000e+00
1.244310674132621895e-03
0.000000000000000000e+00
0.000000000000000000e+00
-2.262982146815657909e-03
4.461303622922747902e-03
5.796792538931620775e-02
0.000000000000000000e+00
-2.765491375291502974e-04
-1.551527479480730755e-02
1.255797323245716815e-02
-6.688725439152810870e-02
2.087918444372537929e-01
4.179829458872322268e-02
0.000000000000000000e+00
1.592859906940168220e-03
-4.067818163827011113e-02
8.067161195052120065e-03
0.000000000000000000e+00
0.000000000000000000e+00
-5.259372610842504405e-04
2.516515121254390280e-02
-7.976624226503749651e-03
3.838740844347727360e-03
9.087960791031855540e-05
-3.375720529990530044e-02
1.814855281456219938e-01
-1.897942958558587190e-01
0.000000000000000000e+00
0.000000000000000000e+00
0.000000000000000000e+00
1.064017594068837891e-01
-5.406366555191642782e-04
4.221276921131711206e-03
1.064101489033652571e-02
1.912129721652254923e-03
-1.577465134302177135e-03
0.000000000000000000e+00
0.000000000000000000e+00
1.761943777611729017e-02
8.475166874190876928e-03
-1.906829580773868049e-02
0.000000000000000000e+00
1.925269799196236906e-02
7.946103951513135361e-04
5.756037084231824946e-03
-5.580023699907983928e-03
1.580479015855273950e-02
0.000000000000000000e+00
-2.273940228948890131e-03
8.062904703482861452e-03
4.805619163753469675e-02
-4.862376583434965122e-03
0.000000000000000000e+00
4.562658829070819627e-03
-7.354871904091410915e-03
-8.563634346486410642e-01
1.375230762625780923e-01
1.194588144070169410e-02
-2.142221598016485866e-03
2.981917626000855481e-03
5.989824437977635425e-03
0.000000000000000000e+00
-6.689078496905999957e-05
4.713627075049417817e-03
0.000000000000000000e+00
1.101870418306171405e-02
-1.301642243761861467e-02
6.885750445051484758e-03
7.945797450876453463e-03
2.547584150853764856e-02
0.000000000000000000e+00
0.000000000000000000e+00
-1.177896683543320361e-02
0.000000000000000000e+00
0.000000000000000000e+00
4.305573232733596648e-04
0.000000000000000000e+00
4.737379736388099699e-03
2.896400449201804155e-03
6.307800630407568070e-04
2.051526034392110731e-02
0.000000000000000000e+00
-3.818640575275609739e-01
-6.333008321555842757e-02
-3.007945160074307692e-02
0.000000000000000000e+00
3.841218786112526179e-02
1.336678534237894372e-02
0.000000000000000000e+00
0.000000000000000000e+00
3.690149866899024994e-02
9.833964612966684948e-03
0.000000000000000000e+00
0.000000000000000000e+00
3.527378749462236479e-03
8.121507096347281573e-02
-5.073399627430606740e-03
0.000000000000000000e+00
0.000000000000000000e+00
0.000000000000000000e+00
-8.481653500736397898e-04
-6.550734258562870664e-03
-1.694776673503211040e-01
0.000000000000000000e+00
5.618480989749346372e-02
-9.989769535406117784e-03
-3.131476367126248463e-03
-1.392919008954270760e-02
-1.164638674063577101e-01
8.002845748366788081e-02
0.000000000000000000e+00
1.641628365810369637e-03
-9.447879487889701902e-03
1.393564804208585490e-03
-2.444828107197723373e-03
0.000000000000000000e+00
-1.962028702060050755e-02
-2.674601835152339360e-02
4.489839391528115294e-04
0.000000000000000000e+00
-5.809271389991293999e-02
-4.253546758930005778e-01
0.000000000000000000e+00
-1.408213958734230373e-02
6.870598153814851811e-03
1.071807216278186040e-03
0.000000000000000000e+00
0.000000000000000000e+00
0.000000000000000000e+00
-9.148418702236915667e-02
1.451172916163071813e-01
-1.721855630928957256e-02
0.000000000000000000e+00
0.000000000000000000e+00
0.000000000000000000e+00
-1.436300778461504298e-04
-2.150135463162363564e-02
0.000000000000000000e+00
0.000000000000000000e+00
0.000000000000000000e+00
1.079806150701774839e-02
-7.394493586182174227e-02
-5.496720196262985109e-02
3.491872210375075031e-03
1.169413742997463257e-02
-1.630676918433482045e-02
1.889260551179031133e-02
7.996860990454835935e-04
0.000000000000000000e+00
-7.423400541385407995e-03
0.000000000000000000e+00
0.000000000000000000e+00
1.787317618022626203e-02
0.000000000000000000e+00
-1.769591537040424980e-03
-2.866945328244073776e-01
3.013633283790214668e-01
2.502211034449597360e-02
1.784911960534986809e-04
0.000000000000000000e+00
5.376642255114720548e-02
0.000000000000000000e+00
0.000000000000000000e+00
0.000000000000000000e+00
-1.672201486757766281e-02
5.684728418791022697e-03
-6.828579625388381258e-03
0.000000000000000000e+00
0.000000000000000000e+00
0.000000000000000000e+00
-5.309870258541698855e-03
0.000000000000000000e+00
-1.562045970857888627e-04
-7.090720741358060852e-01
1.394134041538915188e-02
-8.402576264910244924e-03
-1.155193579293390532e-02
-4.945306954638127020e-06
6.029961485198403722e-04
-5.607159293063370027e-03
0.000000000000000000e+00
9.334305782162283282e-04
0.000000000000000000e+00
-4.302395415342468734e-04
0.000000000000000000e+00
-9.381018382535950481e-03
0.000000000000000000e+00
2.649241496235785753e-01
3.931424341835832587e-02
-1.754902353568186801e-01
0.000000000000000000e+00
1.421522464646799398e-02
-1.458327357548049367e-04
-1.813542940515816288e-03
0.000000000000000000e+00
2.476900391116241586e-04
2.583078417785222153e-03
1.003146684682601208e-01
-2.191486435914492305e-03
0.000000000000000000e+00
0.000000000000000000e+00
0.000000000000000000e+00
0.000000000000000000e+00
-2.685863950298430017e-02
1.734782186654793557e-01
-1.295121585316193549e-02
-3.183729435288836385e-03
1.385962257715498552e-02
2.385515545004173593e-02
0.000000000000000000e+00
4.331717370045394533e-02
-1.414866811667770362e-02
8.429393018682555805e-03
-9.748700709727592395e-02
6.306536694737166493e-02
1.165879669972218480e-01
-4.618333887949430810e-02
2.762377876864272608e-01
-1.113341833982326237e-05
0.000000000000000000e+00
2.650668368412496161e-04
-2.812745823532006653e-02
-1.811444104408974770e-02
-1.565430524568497614e-03
1.201598916443783471e-01
0.000000000000000000e+00
6.950725305585526981e-03
3.736938804513025621e-03
0.000000000000000000e+00
0.000000000000000000e+00
1.834766416084806021e-02
0.000000000000000000e+00
0.000000000000000000e+00
-3.560620416294577278e-04
-2.420125967877871653e-02
1.010226661061100831e-02
0.000000000000000000e+00
0.000000000000000000e+00
-5.814539260254041053e-02
0.000000000000000000e+00
0.000000000000000000e+00
0.000000000000000000e+00
1.359414687329696392e-04
2.415864567712007818e-03
8.056282751052988578e-05
2.183049944722996721e-03
-1.290742350581019771e-01
0.000000000000000000e+00
1.416419120927962447e-03
6.897808859532281178e-02
0.000000000000000000e+00
2.497261255500373214e-02
-1.216697646249006309e-02
1.496355498604008682e-01
-6.702037118995160525e-02
-8.246492466825654233e-02
0.000000000000000000e+00
1.488846309950103142e-01
1.597089593070608949e-04
8.577926614053096865e-02
-3.187749811497241070e-02
-8.872329191515352168e-03
-1.860341475059509864e-01
7.160232225378154736e-02
-4.516628269011373036e-03
-3.712253036043344084e-03
1.674409367328529713e-02
-3.547255307731941171e-02
-1.662143949999154990e-02
-1.164168429235975036e-02
0.000000000000000000e+00
0.000000000000000000e+00
1.943865376060032180e-01
4.634280535082808683e-01
4.050813641571262592e-03
8.236037354429305221e-03
0.000000000000000000e+00
-1.137527584338589390e-03
1.258555799200328923e-03
-7.671277105792596862e-02
0.000000000000000000e+00
2.068522464445072748e-02
-2.021689499510377196e-03
-5.810798959159312570e-04
-7.149423725208117197e-01
-1.407045872050311517e-03
-1.022038569117814447e-02
2.654954724826956436e-03
1.611257895745810687e-01
-1.005509364946005180e+00
0.000000000000000000e+00
-7.851979846144734390e-03
0.000000000000000000e+00
-9.743141689462907207e-03
-4.637224228860993558e-02
-2.997651326383531795e-03
0.000000000000000000e+00
-1.622836974781934061e-02
1.554447274767338516e-02
0.000000000000000000e+00
-2.625554228816408958e-02
-3.018343719828126687e-02
-3.078649024790445880e-03
-1.082248388632814796e-03
0.000000000000000000e+00
-4.581967086924548099e-02
1.397464794948784055e-03
4.212552712515552078e-02
0.000000000000000000e+00
-2.332384340225870586e-02
0.000000000000000000e+00
0.000000000000000000e+00
6.593849213416711971e-04
0.000000000000000000e+00
-4.270634960331830959e-02
0.000000000000000000e+00
8.360261893271077674e-03
-1.374056117211782668e-01
0.000000000000000000e+00
-5.720327803461178976e-04
-1.159084267324244450e-03
-2.129817287939171958e-04
2.599742376953214848e-02
-5.519755004127696596e-02
0.000000000000000000e+00
0.000000000000000000e+00
0.000000000000000000e+00
-2.534272091963352038e-03
-4.190751458683394590e-03
-5.922821564779768080e-04
3.293901354421219230e-02
7.014196432599109632e-03
0.000000000000000000e+00
-2.492454223222766163e-02
0.000000000000000000e+00
0.000000000000000000e+00
-4.965144236140955902e-01
-9.392180830528683300e-02
-1.386825303467002779e-02
0.000000000000000000e+00
0.000000000000000000e+00
-2.237318647373685160e-02
-3.038169228711913583e-02
-2.535288272154931355e-02
1.184056884032998538e-02
3.300082875154122103e-02
1.168776939138772993e-05
0.000000000000000000e+00
0.000000000000000000e+00
0.000000000000000000e+00
0.000000000000000000e+00
0.000000000000000000e+00
0.000000000000000000e+00
-1.399269693722819154e-02
-3.974714445676030133e-02
2.211772711422682787e-03
-1.577374944570358317e-01
1.113945594889288564e-02
9.487316342958777241e-05
-6.746477485053831158e-04
0.000000000000000000e+00
0.000000000000000000e+00
-4.095689794762617797e-02
4.783319576865242492e-03
0.000000000000000000e+00
0.000000000000000000e+00
0.000000000000000000e+00
3.978205156261864842e-03
-4.964681130700462908e-03
0.000000000000000000e+00
0.000000000000000000e+00
0.000000000000000000e+00
0.000000000000000000e+00
0.000000000000000000e+00
0.000000000000000000e+00
0.000000000000000000e+00
0.000000000000000000e+00
7.132329209353829164e-03
1.731049063231167827e-03
-3.081861419509063921e-02
0.000000000000000000e+00
-1.461970231177979994e-02
-2.843370939870608219e-04
0.000000000000000000e+00
0.000000000000000000e+00
0.000000000000000000e+00
-7.849969348713835629e-03
-1.452688932240966220e-03
-1.869525336318392933e-02
0.000000000000000000e+00
0.000000000000000000e+00
0.000000000000000000e+00
0.000000000000000000e+00
-3.094482099490785190e-02
6.235924484858391958e-02
5.401440468354283542e-02
0.000000000000000000e+00
0.000000000000000000e+00
3.455737635396250194e-05
0.000000000000000000e+00
0.000000000000000000e+00
-3.518257391717299009e-04
0.000000000000000000e+00
0.000000000000000000e+00
6.252871957695614775e-03
-7.091839653831804625e-04
0.000000000000000000e+00
0.000000000000000000e+00
-1.852613025809762143e-02
-2.421564411000452603e-03
3.280135502333638570e-02
0.000000000000000000e+00
0.000000000000000000e+00
-1.070848643633978969e-01
-6.531492037246339200e-02
-4.507085815030949238e-02
0.000000000000000000e+00
0.000000000000000000e+00
-1.373419076415364343e-02
8.029210257066265576e-04
5.212901010464966733e-02
-1.558513045885271363e-02
0.000000000000000000e+00
0.000000000000000000e+00
0.000000000000000000e+00
0.000000000000000000e+00
-8.838576491183913753e-03
-2.551363403633156914e-03
1.727311152378342620e-03
-4.420127682720351864e-03
-6.726048100124587537e-02
-3.423867567857388772e-02
-8.385527336051084787e-03
-5.250340383245240272e-03
0.000000000000000000e+00
1.612855011810464235e-04
1.249929319728775717e-01
1.230560077290674403e-01
3.700540255180090592e-03
2.714595001445442059e-03
3.572640457426223392e-03
3.273556645588988900e-02
-4.194124738242857586e-02
-1.956055537969286079e-02
-5.386152462043001035e-03
0.000000000000000000e+00
2.897842845145049209e-02
0.000000000000000000e+00
1.705481424822934480e-02
8.720404682934484314e-03
3.129090621427028712e-04
0.000000000000000000e+00
0.000000000000000000e+00
0.000000000000000000e+00
0.000000000000000000e+00
7.809101727402126270e-02
1.613020954722627943e-03
-4.613863158467363529e-02
6.612014542224302627e-01
2.681029099620266254e-02
4.253361109299834582e-03
3.147109737452669607e-03
1.890954499303263564e-02
-5.942263354671805525e-03
-1.221247806499378141e-01
7.373155715887517829e-03
6.913060941642341917e-02
0.000000000000000000e+00
2.012387365657197780e-02
2.700249353338077252e-01
-2.033733275052134609e-02
-2.667865448295196704e-03
-1.477405255175630663e-02
0.000000000000000000e+00
-1.487997738990270687e-03
4.735803387761259864e-01
5.964862525263193646e-03
4.571682707031754500e-02
-5.593497689227238875e-03
0.000000000000000000e+00
5.259202151172702455e-02
-3.714201312243268441e-03
-7.330064813229300591e-02
0.000000000000000000e+00
0.000000000000000000e+00
0.000000000000000000e+00
0.000000000000000000e+00
3.353956565112446997e-01
0.000000000000000000e+00
4.250240780250532507e-02
2.629883469933105844e-02
1.074694864525015114e-01
1.864344925109373205e-02
0.000000000000000000e+00
-3.788647634821931676e-02
1.486554436679729807e-01
1.357304517429345214e-01
1.829031143768158202e-02
-3.110128492852376730e-04
2.566880606115490814e-03
0.000000000000000000e+00
-2.595059418334056019e-03
-1.043447904186350361e-01
-2.417796228480351139e-02
-5.921672498675070034e-02
-1.241902533606496252e-02
-3.172196847067194556e-03
5.028312690493151604e-02
5.681266247187224602e-04
0.000000000000000000e+00
-6.720409011796110200e-03
-5.587638972146475105e-04
3.719832665614621753e-03
-3.007693659581359234e-03
5.801298341319962443e-02
-3.949615740524095586e-02
0.000000000000000000e+00
0.000000000000000000e+00
0.000000000000000000e+00
-1.849403092532929740e-02
0.000000000000000000e+00
-1.071676361202046873e-04
0.000000000000000000e+00
0.000000000000000000e+00
-8.956218507451778462e-05
-3.561119637627096352e-02
-1.257604886535286168e-02
-2.877924757082428453e-03
1.096732846509944764e-01
1.228577173113219317e-01
-1.132130252511386465e-01
1.618169441834617708e-02
0.000000000000000000e+00
-1.509573585726453615e-03
3.105971772360031219e-02
2.381255519044819247e-01
0.000000000000000000e+00
-4.258597476323025544e-03
2.722792132457991787e-01
0.000000000000000000e+00
0.000000000000000000e+00
-6.253271001706407067e-03
0.000000000000000000e+00
0.000000000000000000e+00
-3.056803639129837546e-02
0.000000000000000000e+00
5.524400189183022170e-03
0.000000000000000000e+00
-8.552777314722439855e-04
-1.871669981471879018e-01
0.000000000000000000e+00
5.266185545474317831e-01
0.000000000000000000e+00
0.000000000000000000e+00
2.400834003059236152e-03
-1.257955366500257389e-05
-4.530205939028429940e-01
2.889148758623103636e-02
-1.087747947645217178e-02
3.575058522317446641e-02
-4.873206285657367964e-02
1.673602935964807470e-02
0.000000000000000000e+00
-8.077429175490588587e-02
-2.978519849744561826e-02
7.058606997541337982e-03
-1.882015796376461424e-03
0.000000000000000000e+00
5.337964094786308740e-03
0.000000000000000000e+00
-4.293216568087323583e-03
0.000000000000000000e+00
0.000000000000000000e+00
8.409837788691858218e-03
4.609402745186842731e-02
-2.454570733946952188e-02
7.957980882728579383e-03
0.000000000000000000e+00
0.000000000000000000e+00
0.000000000000000000e+00
0.000000000000000000e+00
0.000000000000000000e+00
3.756896077792593351e-04
-6.562868281245579083e-02
-1.034370439766412906e-03
0.000000000000000000e+00
-4.161667163359820260e-02
9.248665296030134531e-04
2.920619104682615688e-05
1.694025888516309877e-02
-7.327669297187762443e-02
-1.060050223228374208e-02
1.482765563022887291e-02
-1.395984174104325688e-02
-1.708800080668052349e-02
0.000000000000000000e+00
-1.703330674129650488e-02
-1.598894728810123025e-02
0.000000000000000000e+00
0.000000000000000000e+00
0.000000000000000000e+00
-1.467727091520642235e-01
0.000000000000000000e+00
1.282166034206821403e-01
2.800765475861657569e-02
-2.853473069969661088e-02
0.000000000000000000e+00
0.000000000000000000e+00
0.000000000000000000e+00
0.000000000000000000e+00
3.396847820599672996e-03
-5.564129516601586806e-02
0.000000000000000000e+00
5.849189296696292312e-02
-5.235312075014036948e-02
-3.513854594359661077e-01
-1.954564596902468032e-02
-3.971922155318897973e-02
-8.742628568610938400e-02
8.356778465271414097e-04
-6.048425834817954851e-03
0.000000000000000000e+00
7.661162335102740702e-03
-1.610205031110087392e-02
2.381530289637046396e-02
7.465598275893289490e-03
-1.483757897830337682e-03
-3.951644548933927470e-01
-1.213654274205444063e-02
-2.639476119044405905e-02
-3.057824748637380519e-02
-5.948556732065020392e-02
0.000000000000000000e+00
0.000000000000000000e+00
0.000000000000000000e+00
-6.085227912415848081e-03
1.139838322219655364e-01
-7.675121371873439013e-02
-8.532881948428686081e-02
-3.939426320027862582e-02
1.708619957902156555e-04
4.657437474497190533e-02
2.456373292431503035e-03
-3.881442505982393709e-03
-9.914979096524849378e-02
-1.265631539412518866e-02
-3.379959642366148209e-02
4.819939671523745806e-02
-1.156579925921873142e-02
0.000000000000000000e+00
-8.308950867806995377e-03
-1.461266668053644996e-02
-1.273811612424058208e-02
0.000000000000000000e+00
-1.940222877641542207e-02
0.000000000000000000e+00
-9.386256530643833501e-03
0.000000000000000000e+00
0.000000000000000000e+00
5.373751013928431720e-03
2.426769010123102852e-02
0.000000000000000000e+00
-6.684507605637175949e-03
3.456936532485513011e-03
-4.202005282853488871e-03
0.000000000000000000e+00
0.000000000000000000e+00
1.461413171607635168e-03
1.189663516361737228e-01
0.000000000000000000e+00
1.317837197941801666e-02
0.000000000000000000e+00
8.616695389346992751e-02
1.184233774642396743e-02
1.184610433409492543e-04
-3.846510626548900469e-03
0.000000000000000000e+00
0.000000000000000000e+00
0.000000000000000000e+00
0.000000000000000000e+00
0.000000000000000000e+00
0.000000000000000000e+00
9.480270425226110242e-04
-2.071563561030984393e-02
-3.641668485284760282e-02
5.350064371894023250e-03
-5.656870274199346516e-02
-1.307729746627666473e-03
4.618924451890464231e-04
0.000000000000000000e+00
0.000000000000000000e+00
0.000000000000000000e+00
0.000000000000000000e+00
-1.945668693077993727e-01
-1.122855773147656000e-01
-9.815066743603208244e-02
-1.584363169044817471e-02
-7.128374695655001307e-03
-2.990082485832669043e-02
0.000000000000000000e+00
0.000000000000000000e+00
0.000000000000000000e+00
2.600749015185188900e-03
0.000000000000000000e+00
0.000000000000000000e+00
0.000000000000000000e+00
-2.344886046676123922e-03
-1.825666957566332571e-02
-8.462371673911874004e-03
-1.703162286780246504e-02
0.000000000000000000e+00
0.000000000000000000e+00
0.000000000000000000e+00
0.000000000000000000e+00
1.298845677340852434e-01
0.000000000000000000e+00
-1.101705576032044331e-01
0.000000000000000000e+00
0.000000000000000000e+00
5.376192069920641969e-02
0.000000000000000000e+00
0.000000000000000000e+00
5.100593154553757086e-02
7.577864977821164281e-05
-5.900014202719343348e-03
-6.455114938682524062e-02
0.000000000000000000e+00
1.030269494846888562e-04
0.000000000000000000e+00
-7.774635806977823332e-04
0.000000000000000000e+00
0.000000000000000000e+00
-2.052157437967636749e-03
2.536000053400284601e-02
3.483497331118827756e-01
9.566612294094709468e-04
0.000000000000000000e+00
-9.176094732652521901e-02
4.699151914822142020e-03
6.284317466851258027e-02
-1.267611204599896138e-02
8.121226692749832811e-05
3.794635973678735924e-02
0.000000000000000000e+00
0.000000000000000000e+00
0.000000000000000000e+00
-5.121126842890745198e-03
0.000000000000000000e+00
2.914840773782829270e-02
-2.038481806977189836e-01
-2.203180213117390818e-02
0.000000000000000000e+00
-1.030497157589768849e-02
0.000000000000000000e+00
1.917910437434716953e-01
0.000000000000000000e+00
2.754732666518514700e-02
6.188888953040203207e-04
-1.344786540851853340e-01
2.821393355870162496e-03
6.661003159715388200e-02
0.000000000000000000e+00
4.900907614360104810e-03
4.572489467148300318e-02
4.864184172404106311e-03
0.000000000000000000e+00
-1.361633523729469664e-01
0.000000000000000000e+00
9.249083148871524440e-02
-5.442403781282719247e-03
3.260872956841003034e-02
2.185663112839628802e-02
-6.014524857728480514e-03
-1.306211546402751868e-02
-7.365609135700243101e-03
-7.860662614725516528e-02
-3.868999236146442033e-02
-4.018908514824492354e-04
3.458551937689435894e-03
6.079351204101186672e-03
-2.243455096043053387e-03
0.000000000000000000e+00
-7.149022252253131593e-02
0.000000000000000000e+00
-8.416650163670601724e-05
-1.632593236836551726e-04
-2.865669642955176455e-02
5.474669651682583654e-02
-5.183955693872981108e-02
-1.791060601999620028e-01
1.148869332981061891e-01
0.000000000000000000e+00
-4.097558009881417142e-03
-1.207651744303624283e-03
6.398187715374921251e-03
6.992029220100742792e-02
-7.342543395882213109e-02
-8.874329128200282579e-02
-1.663101632847024947e-01
0.000000000000000000e+00
0.000000000000000000e+00
0.000000000000000000e+00
0.000000000000000000e+00
0.000000000000000000e+00
0.000000000000000000e+00
-4.482337816324411667e-02
4.715076682798847313e-02
-9.558070082273637663e-03
-1.261606450332283368e-03
0.000000000000000000e+00
-1.589753285718098486e-02
-6.161952858865458191e-04
0.000000000000000000e+00
0.000000000000000000e+00
9.502746125035077193e-03
-7.080585724509641868e-03
0.000000000000000000e+00
4.569454740526753683e-02
1.274398490917370147e-02
1.332523103435236667e-01
2.132165171814590088e-02
1.578614131966485715e-02
0.000000000000000000e+00
0.000000000000000000e+00
-5.134945173580566374e-02
1.252203181676774012e-03
0.000000000000000000e+00
1.147417715613266789e-02
0.000000000000000000e+00
-1.292604137284954560e-02
1.550326080260473229e-02
-4.035903471481339100e-02
-1.356842345421562911e-03
-2.772191189948592371e-01
2.920183029645465056e-01
2.392835159730668723e-02
-3.758641043545660632e-05
0.000000000000000000e+00
0.000000000000000000e+00
-1.562151875859722414e-02
4.939008452445066595e-03
8.642142997148692662e-02
0.000000000000000000e+00
4.050409777899325291e-03
6.038854881118236283e-03
0.000000000000000000e+00
0.000000000000000000e+00
-3.303407311865665628e-03
0.000000000000000000e+00
0.000000000000000000e+00
1.302245581166583226e-03
-2.236929823296973478e-03
-1.379333672841087655e-02
-5.524459269262362721e-02
-3.701707489330964551e-02
-4.321381793229299093e-03
0.000000000000000000e+00
4.368038872537279710e-03
6.112879198403425168e-02
0.000000000000000000e+00
7.794719282195654297e-03
1.697860055113266852e-03
-2.495420210144377727e-05
-3.113917851160281913e-03
-9.548629859777441400e-03
0.000000000000000000e+00
-3.039487596921874849e-05
0.000000000000000000e+00
0.000000000000000000e+00
3.325162844769719017e-03
-6.524831205370651421e-02
0.000000000000000000e+00
0.000000000000000000e+00
-1.752987959287230502e-02
-4.330906089684084803e-02
0.000000000000000000e+00
1.172945459850006089e-01
-2.216891106984004642e-02
3.772873865476451816e-02
0.000000000000000000e+00
-3.706928972932013039e-02
0.000000000000000000e+00
1.393807191129309980e-02
-7.009392043065847469e-03
0.000000000000000000e+00
-6.091734570281984520e-03
0.000000000000000000e+00
0.000000000000000000e+00
0.000000000000000000e+00
0.000000000000000000e+00
1.636517625793539911e-03
0.000000000000000000e+00
1.441679104969394686e-03
0.000000000000000000e+00
5.801209130955074095e-02
-1.489490253870408981e-02
3.537325094595301922e-02
2.723850376352905320e-03
0.000000000000000000e+00
0.000000000000000000e+00
-1.692105728527533394e-04
-1.232155570995674757e-02
-5.957690856561645432e-02
2.170149224284537853e-02
0.000000000000000000e+00
2.414722808788378194e-01
4.827023868421362329e-03
7.011319268099448776e-02
0.000000000000000000e+00
-1.169806328038444643e-02
5.723777416732634717e-03
8.135622792099250246e-04
0.000000000000000000e+00
0.000000000000000000e+00
-7.698825866591403957e-03
0.000000000000000000e+00
-6.308982330442577946e-02
5.302832103558622126e-03
0.000000000000000000e+00
-2.637064811296874894e-03
1.106828314878063099e-03
-1.148235222716800785e-01
0.000000000000000000e+00
0.000000000000000000e+00
0.000000000000000000e+00
-1.302162716746779574e-02
-5.639110292700040550e-03
0.000000000000000000e+00
0.000000000000000000e+00
-8.743582896137087890e-03
2.657182973298467549e-03
0.000000000000000000e+00
0.000000000000000000e+00
-3.789205163731301871e-03
0.000000000000000000e+00
-2.445690278205514545e-02
0.000000000000000000e+00
0.000000000000000000e+00
2.832793564599510056e-03
-1.489445359683365605e-03
-1.576851216038331529e-03
0.000000000000000000e+00
0.000000000000000000e+00
0.000000000000000000e+00
-2.389974354419135971e-03
7.107385915146888743e-03
0.000000000000000000e+00
0.000000000000000000e+00
0.000000000000000000e+00
0.000000000000000000e+00
0.000000000000000000e+00
0.000000000000000000e+00
0.000000000000000000e+00
1.201210299369168425e-03
0.000000000000000000e+00
0.000000000000000000e+00
0.000000000000000000e+00
0.000000000000000000e+00
-8.307330848359674100e-03
-7.875889302133740402e-03
0.000000000000000000e+00
0.000000000000000000e+00
0.000000000000000000e+00
0.000000000000000000e+00
0.000000000000000000e+00
0.000000000000000000e+00
-1.816536822732813319e-02
3.890369658280244669e-02
0.000000000000000000e+00
0.000000000000000000e+00
0.000000000000000000e+00
0.000000000000000000e+00
0.000000000000000000e+00
0.000000000000000000e+00
0.000000000000000000e+00
0.000000000000000000e+00
0.000000000000000000e+00
0.000000000000000000e+00
0.000000000000000000e+00
-4.126571105670003015e-02
0.000000000000000000e+00
0.000000000000000000e+00
0.000000000000000000e+00
0.000000000000000000e+00
0.000000000000000000e+00
0.000000000000000000e+00
2.581842736348647670e-06
0.000000000000000000e+00
-4.780730412606933044e-02
-1.095389795573111814e-02
2.624378221662542615e-02
1.458315872014490609e-02
2.455567187877146645e-02
-3.837139100481930438e-04
-5.836416239949500373e-02
0.000000000000000000e+00
0.000000000000000000e+00
0.000000000000000000e+00
0.000000000000000000e+00
0.000000000000000000e+00
0.000000000000000000e+00
0.000000000000000000e+00
0.000000000000000000e+00
0.000000000000000000e+00
0.000000000000000000e+00
0.000000000000000000e+00
0.000000000000000000e+00
-3.057105664713781587e-04
0.000000000000000000e+00
0.000000000000000000e+00
-2.205965684722755241e-02
0.000000000000000000e+00
-7.901780896441407392e-04
-1.830976700116124234e-02
0.000000000000000000e+00
9.026812115886001520e-02
0.000000000000000000e+00
0.000000000000000000e+00
-3.815497626418670740e-02
-8.657432459144831505e-02
0.000000000000000000e+00
0.000000000000000000e+00
0.000000000000000000e+00
4.570012665722290174e-02
8.130949254864197617e-03
2.913774564238277853e-02
-9.550773005561768308e-03
2.436847283966613389e-02
-1.118855673124860839e-01
2.391520419270430717e-03
0.000000000000000000e+00
0.000000000000000000e+00
0.000000000000000000e+00
0.000000000000000000e+00
0.000000000000000000e+00
0.000000000000000000e+00
9.288837666888473399e-02
-6.329668194686720317e-02
-5.769391326480378945e-02
-6.200058318698856846e-03
-1.447749464310012658e-03
1.106821216976161121e-01
0.000000000000000000e+00
6.935324821309434180e-04
-6.558791223230487494e-03
1.449653815140770604e-03
0.000000000000000000e+00
-4.769194385048250266e-03
0.000000000000000000e+00
0.000000000000000000e+00
9.970838196124764963e-02
5.972443058303815791e-03
1.479575317395401691e-04
-7.046758747456706960e-03
5.747155434230875101e-04
6.909696368682609335e-02
2.150137224126087016e-02
0.000000000000000000e+00
0.000000000000000000e+00
0.000000000000000000e+00
0.000000000000000000e+00
0.000000000000000000e+00
-3.969993565105393906e-04
2.528703635144138873e-03
3.348658125235724151e-03
-5.263457176905010915e-01
-5.516686761129037109e-01
-7.000315119096929550e-02
1.068975202237933478e-02
1.142719072909750312e-02
-1.858759393083617845e-02
2.856304313388835156e-02
0.000000000000000000e+00
0.000000000000000000e+00
1.190385106521504727e-01
0.000000000000000000e+00
0.000000000000000000e+00
-2.917757493267358806e-03
-3.420632014095262297e-02
-5.832175321058408364e-03
0.000000000000000000e+00
3.222228757391511905e-02
-6.401076870316415590e-01
0.000000000000000000e+00
-4.247757210236513536e-03
-6.635632911709767046e-02
1.189807926057515411e-02
0.000000000000000000e+00
0.000000000000000000e+00
0.000000000000000000e+00
0.000000000000000000e+00
4.826278993712415557e-05
-8.641087519946596615e-03
-1.610972948861102982e-03
9.515383053876004527e-02
-3.400402457776207643e-01
3.040712585931172260e-02
1.526798100699803748e-03
4.883834392211836017e-02
-1.415035163990718131e-02
6.925050401340383799e-02
1.207195361684134174e-02
1.800531539526225959e-03
-1.005906904793953290e-02
6.315335972884018878e-02
-2.183554763071716628e-02
-6.399975222760903928e-03
2.494711359463362005e-03
7.956715403893706295e-03
4.248250119838131028e-02
2.687450908335094722e-03
8.597914129089199303e-03
0.000000000000000000e+00
0.000000000000000000e+00
0.000000000000000000e+00
6.015066358940511504e-02
9.995001025521622895e-03
0.000000000000000000e+00
0.000000000000000000e+00
0.000000000000000000e+00
0.000000000000000000e+00
0.000000000000000000e+00
0.000000000000000000e+00
0.000000000000000000e+00
-2.245432512030002062e-02
0.000000000000000000e+00
7.824649198283427365e-03
4.961213255072474682e-01
-3.465483496675326319e-02
-4.825886631954262596e-02
5.243992337756093330e-03
-1.261359118432450188e-01
-1.158815310124106449e-02
-4.046367041536164111e-02
-2.593439181309301067e-02
8.940053057285801685e-02
1.672278200062408404e-01
8.446839877308678912e-02
3.024835114270647482e-02
0.000000000000000000e+00
0.000000000000000000e+00
-1.685945670263612299e-03
-4.490719731138255195e-04
0.000000000000000000e+00
0.000000000000000000e+00
0.000000000000000000e+00
0.000000000000000000e+00
0.000000000000000000e+00
0.000000000000000000e+00
1.777816729250360911e-02
0.000000000000000000e+00
0.000000000000000000e+00
0.000000000000000000e+00
0.000000000000000000e+00
-2.186895338792164902e-04
0.000000000000000000e+00
0.000000000000000000e+00
-5.163492058850892991e-02
-5.963015464915009251e-02
-3.017471007099315795e-03
-9.139615488112557973e-01
-3.621443320738419020e-04
0.000000000000000000e+00
0.000000000000000000e+00
-2.059929592496612810e-03
7.284772930526113577e-02
3.926621944888816079e-02
0.000000000000000000e+00
2.827958441459816480e-02
1.655056359072922326e-02
0.000000000000000000e+00
-2.112750329698883170e-02
-3.735167834868007852e-01
-4.223533206471864060e-02
0.000000000000000000e+00
0.000000000000000000e+00
0.000000000000000000e+00
-4.618179718987205744e-04
-3.082884919199458534e-02
0.000000000000000000e+00
0.000000000000000000e+00
0.000000000000000000e+00
0.000000000000000000e+00
0.000000000000000000e+00
0.000000000000000000e+00
-2.761820608650213354e-04
0.000000000000000000e+00
-1.011865974262670248e-01
-1.110908078633915386e-02
2.320774242132221232e-03
-1.001703422353985129e+00
-1.551194980222349307e-01
-1.015299583285771828e-02
0.000000000000000000e+00
0.000000000000000000e+00
-6.506480569760208880e-04
3.727150018336841848e-03
0.000000000000000000e+00
1.091077753274563161e-01
0.000000000000000000e+00
3.760344668058680784e-02
-8.614275340851436282e-04
8.183557513262733618e-01
-7.906198660224389441e-01
-3.642682318837427765e-03
-3.106450176580796067e-04
0.000000000000000000e+00
-7.173575194130364305e-03
-1.286564123761425524e-02
-5.287895524730896329e-02
-1.281461761218882084e-02
0.000000000000000000e+00
0.000000000000000000e+00
0.000000000000000000e+00
-2.776177550233318442e-02
-2.110486765767027525e-02
-8.419117572485688983e-02
-9.723265454909505931e-03
5.615510754959138380e-03
4.505411322349367476e-02
9.547293988867194825e-03
-8.811706574687518806e-03
1.396553745873621299e-01
-1.272665701259283744e-01
-5.852608258758194154e-03
0.000000000000000000e+00
3.793285829244628232e-03
3.447526431916140242e-03
6.413008516082608496e-03
2.444702830122320869e-02
1.153967005339981162e-03
0.000000000000000000e+00
6.787074111201603192e-03
6.272408178021925476e-04
0.000000000000000000e+00
0.000000000000000000e+00
5.704864216227515088e-04
-1.141390373839733198e-03
0.000000000000000000e+00
0.000000000000000000e+00
-5.621038183298131263e-02
3.501322122778787859e-03
0.000000000000000000e+00
0.000000000000000000e+00
5.447451839528837580e-04
-5.677955318674698937e-02
-4.266994899741517744e-02
0.000000000000000000e+00
2.202233844771308083e-03
0.000000000000000000e+00
0.000000000000000000e+00
-1.269701952894956853e-02
9.025060615302109073e-04
0.000000000000000000e+00
1.749601149287851806e-02
-6.293142865752709807e-03
0.000000000000000000e+00
-7.543022821102416883e-03
-3.202014491705901938e-02
0.000000000000000000e+00
0.000000000000000000e+00
1.554646156744743900e-02
-4.347042526781564296e-03
0.000000000000000000e+00
2.070786385870644966e-02
4.991514423274709400e-02
0.000000000000000000e+00
-1.699828009548577656e-02
-1.591894637658273354e-02
5.604955167563553317e-03
-2.353023747215376993e-02
0.000000000000000000e+00
-9.378508300099640260e-03
-7.698015994657489425e-02
6.702017823956709502e-03
-1.475894313487162157e-01
-1.423066032885722532e-02
-1.027245884639505396e-05
5.885472140756041687e-04
-8.366463802729349336e-03
-5.943825121073546824e-03
0.000000000000000000e+00
-1.451937940197629562e-01
0.000000000000000000e+00
-6.943776912373496660e-03
1.644198708448149464e-04
0.000000000000000000e+00
0.000000000000000000e+00
0.000000000000000000e+00
0.000000000000000000e+00
0.000000000000000000e+00
-3.720260457553620920e-02
1.961227210151924097e-02
-1.337800940979937993e-02
-8.473514418075753186e-04
-6.539955158687209280e-03
-7.141776047896344730e-03
-1.466235273200940450e-02
-2.326255260530142310e-01
6.770238420278405431e-03
-4.417618808575231315e-02
1.427209028696221644e-03
-6.668630009311982652e-03
-3.608255798153781613e-01
-8.152214235656797536e-03
2.258204420048710165e-02
-1.765114293868611517e-01
2.302106502300157250e-05
0.000000000000000000e+00
0.000000000000000000e+00
0.000000000000000000e+00
1.339988597214489523e-04
2.625376163265536193e-04
0.000000000000000000e+00
0.000000000000000000e+00
0.000000000000000000e+00
0.000000000000000000e+00
-8.979308776725470481e-03
-4.225798265961124706e-02
-2.327777118059847217e-01
3.541109432183207895e-02
-6.052553945721697581e-02
1.594897855216171473e-02
2.417073475501652427e-03
-2.068998265181002175e-02
-4.255144842978906411e-02
-5.723155097500440269e-02
-6.147656883683151607e-02
3.398493301230810504e-01
-1.703937098795723758e-03
-2.723177106148836485e-03
0.000000000000000000e+00
0.000000000000000000e+00
1.456826348910656918e-03
0.000000000000000000e+00
0.000000000000000000e+00
0.000000000000000000e+00
0.000000000000000000e+00
-5.676965998141308284e-03
-3.428042243487485451e-03
5.151632222614059564e-02
1.670128698146172708e-04
-4.311624004395073206e-02
0.000000000000000000e+00
0.000000000000000000e+00
-3.675322294370641108e-03
6.260954852036589718e-03
2.157162533752321650e-03
3.287135496334245570e-04
5.599954262141665362e-01
9.119773160800434889e-03
0.000000000000000000e+00
0.000000000000000000e+00
0.000000000000000000e+00
0.000000000000000000e+00
2.479928332205089681e-01
1.020435690015374930e-01
-7.765856699143483532e-02
0.000000000000000000e+00
8.711739071569480838e-03
-7.958337671458844131e-02
2.430335836322593535e-01
0.000000000000000000e+00
0.000000000000000000e+00
-4.138261232247401611e-01
7.442751120700960010e-01
6.697602584354178656e-02
0.000000000000000000e+00
1.708830304434259817e-02
9.374954289083865799e-02
-1.010113882034535809e-01
5.150791129141243929e-02
2.269793176936727407e-03
-1.518506124399074788e-03
3.273722318672938475e-04
7.631876955906721771e-02
0.000000000000000000e+00
7.221991114802578382e-02
-8.392047585746403859e-02
-1.464009675481801886e-02
8.879835958765509851e-02
9.087787953344866887e-02
1.060039686274343550e-02
0.000000000000000000e+00
-2.187025346701946038e+00
-8.799602405047354248e-01
-3.196725654180068155e-01
0.000000000000000000e+00
2.916300816922280659e-02
8.203862257819886095e-01
0.000000000000000000e+00
0.000000000000000000e+00
-5.017471980449357029e-03
-2.981466392166068347e-01
1.956151623720027780e-02
1.608996535956123963e-02
7.046581198595400219e-03
-6.581196589287872933e-03
-3.974715034790288204e-02
-7.888523087155261890e-03
0.000000000000000000e+00
2.669261019345663399e-01
0.000000000000000000e+00
7.583707852556204054e-02
-6.847972195579735133e-02
5.535856541674389897e-01
-3.640110997242813895e-02
6.374324152670751806e-05
2.434860074327221957e-02
0.000000000000000000e+00
7.969170335602272781e-02
0.000000000000000000e+00
4.344486859637408833e-03
4.697775393609198574e-03
1.884668103578314435e-02
0.000000000000000000e+00
9.296861429073811217e-03
1.228862720371403539e+00
0.000000000000000000e+00
0.000000000000000000e+00
-1.192395647243315593e-01
1.318631185271367662e-02
1.255674646313184768e-02
-2.242505316908492696e-02
1.308820922558375996e-02
0.000000000000000000e+00
-1.088231482868811176e-02
0.000000000000000000e+00
0.000000000000000000e+00
-2.335718223793275053e-02
0.000000000000000000e+00
-3.577724307950905236e-02
7.082471748840735160e-02
2.100020098343317876e-02
-2.805473805374379681e-02
-2.596875528193290546e-03
-9.489580951746205695e-02
1.984370816121068248e-01
-2.069932926033879808e-03
0.000000000000000000e+00
2.810134448354992178e-03
3.346153511890639920e-02
1.039025623384389613e-02
-1.767363881494327382e-01
7.892053673992488472e-02
2.701010443516248527e-01
-1.160254136612539656e-02
1.062628013914422229e-02
-4.479185733207388144e-03
-3.866480772841648234e-02
-2.717663397299730985e-02
2.023050695284054918e-03
0.000000000000000000e+00
0.000000000000000000e+00
-2.127488012438037983e-04
8.137698598292532337e-03
-7.355410773213735169e-04
8.180457424388410184e-03
0.000000000000000000e+00
0.000000000000000000e+00
-2.994386547468663728e-02
2.766671139953285480e-02
-3.442017591145734440e-02
0.000000000000000000e+00
0.000000000000000000e+00
0.000000000000000000e+00
3.510840811928293305e-05
-3.255923310396589485e-03
5.272566762071466059e-03
5.647706069673613660e-02
-4.049724660812200304e-03
-3.654999398921559561e-01
-1.772323743676799089e-03
-5.327447259759472004e-02
2.352923000102950107e-02
-1.372214298932426628e-03
0.000000000000000000e+00
-1.672550955167634735e-03
0.000000000000000000e+00
1.283949744871060866e-02
0.000000000000000000e+00
6.522908121854964492e-02
-1.384801791093673816e-03
1.312366827957260791e-02
0.000000000000000000e+00
0.000000000000000000e+00
0.000000000000000000e+00
0.000000000000000000e+00
0.000000000000000000e+00
0.000000000000000000e+00
0.000000000000000000e+00
0.000000000000000000e+00
6.667060169779706613e-02
4.263155240377108218e-03
5.697510333851869141e-02
1.809428564388221132e-03
-9.671267662412795507e-03
5.396051244136260833e-02
0.000000000000000000e+00
0.000000000000000000e+00
-3.309061432565076066e-03
-1.780907983817930570e-02
-7.531657100508358516e-02
3.929574188462456492e-04
7.415844174803145478e-03
1.653266053615786921e-02
7.516633997777175114e-02
-2.142650781725071189e-04
0.000000000000000000e+00
0.000000000000000000e+00
0.000000000000000000e+00
0.000000000000000000e+00
0.000000000000000000e+00
0.000000000000000000e+00
0.000000000000000000e+00
0.000000000000000000e+00
0.000000000000000000e+00
0.000000000000000000e+00
0.000000000000000000e+00
3.541239375151370578e-02
-9.120208399469038885e-02
-6.107790432110751788e-02
-1.502479440238748132e-01
1.381562884571667892e-03
0.000000000000000000e+00
-8.170913482764916025e-02
4.515411610779795194e-05
1.196961592523439243e-03
0.000000000000000000e+00
1.992546543362937461e-01
-3.215628256426458949e-03
-1.991919422042602583e-02
1.903338261925683825e-02
8.847109218312811107e-03
-1.680474576091239153e-02
9.867407546927954229e-03
2.836494647858861344e-03
9.616896624187833142e-03
0.000000000000000000e+00
-2.635004726200435576e-01
6.297083038560116232e-03
0.000000000000000000e+00
-7.181312084008073526e-03
-5.539014415523902529e-02
0.000000000000000000e+00
0.000000000000000000e+00
0.000000000000000000e+00
3.737681675284228178e-02
1.191311160922252921e-01
-4.140804811997058493e-02
-3.800333470465136476e-01
6.530368092950489256e-03
-2.106597743558029021e-02
6.944886046354771525e-02
-7.035892430513043805e-02
0.000000000000000000e+00
4.194196877792154277e-02
9.835846545441448430e-02
-5.873858935969292552e-04
3.207684699603798647e-03
0.000000000000000000e+00
0.000000000000000000e+00
8.478668806746580966e-02
2.889434439905562684e-03
1.161581215820760848e-01
-1.423364406955815176e-01
0.000000000000000000e+00
0.000000000000000000e+00
-8.883097358423946294e-03
0.000000000000000000e+00
-1.558355434951263011e-02
-5.673350336430162122e-03
0.000000000000000000e+00
0.000000000000000000e+00
0.000000000000000000e+00
-3.307284816265591864e-04
3.258415933664841890e-02
6.132949873542140919e-03
-1.479060367757505795e-02
0.000000000000000000e+00
0.000000000000000000e+00
0.000000000000000000e+00
6.416267813733722569e-01
0.000000000000000000e+00
1.957553614700642541e-01
2.508120929383705899e-01
-2.294671063637482300e-03
-6.658807014972459130e-03
0.000000000000000000e+00
0.000000000000000000e+00
0.000000000000000000e+00
0.000000000000000000e+00
-1.326506752089152947e-05
0.000000000000000000e+00
-7.522432807146663125e-02
7.516928787743554609e-04
5.287803012098416522e-01
1.284047779465467311e-02
-6.377358977307232609e-04
0.000000000000000000e+00
-3.593038071390722548e-03
-5.894304090738865590e-03
0.000000000000000000e+00
-1.785369685548918173e-03
2.197851896733883648e-02
2.004835823887391455e-01
0.000000000000000000e+00
0.000000000000000000e+00
1.904387003075123375e-01
1.132770531094181611e-03
2.799184393137008411e-02
0.000000000000000000e+00
-2.909128953116993932e-01
8.939009825169345544e-04
1.818739764325429456e-02
0.000000000000000000e+00
0.000000000000000000e+00
0.000000000000000000e+00
0.000000000000000000e+00
-5.108707884617976619e-03
3.402453914201023638e-03
0.000000000000000000e+00
-1.575465494852704889e-03
0.000000000000000000e+00
-6.440601863019732726e-03
-6.070670658109689893e-02
0.000000000000000000e+00
0.000000000000000000e+00
0.000000000000000000e+00
1.107476261438094107e-04
7.849452479237886693e-02
9.166821745690217980e-05
5.761074460190006991e-02
3.324732035826381826e-02
0.000000000000000000e+00
0.000000000000000000e+00
7.599796810559666504e-04
0.000000000000000000e+00
0.000000000000000000e+00
1.155715663350304415e-02
0.000000000000000000e+00
0.000000000000000000e+00
0.000000000000000000e+00
0.000000000000000000e+00
3.795265992905616156e-03
0.000000000000000000e+00
0.000000000000000000e+00
-9.058763815882485328e-04
0.000000000000000000e+00
2.168634501676520998e-01
0.000000000000000000e+00
2.961174310877380533e-02
-1.047074588586817748e-02
-1.433918289084089629e-04
3.833596900735710940e-04
1.344179041807909078e-02
2.887832828279992409e-02
4.282057554209957317e-02
2.314553805331181959e-03
0.000000000000000000e+00
-3.870818414389985002e-02
-3.353693803592799200e-02
0.000000000000000000e+00
-1.162936314545696681e-01
0.000000000000000000e+00
-1.005498915863017734e-01
0.000000000000000000e+00
0.000000000000000000e+00
6.790441348191797455e-02
1.221818253999992082e-02
0.000000000000000000e+00
-5.168818584284310541e-03
0.000000000000000000e+00
0.000000000000000000e+00
0.000000000000000000e+00
-8.386258457979153466e-03
0.000000000000000000e+00
-5.830954778050653209e-01
1.393771116731659376e-01
1.344492907152921579e-01
0.000000000000000000e+00
0.000000000000000000e+00
-7.783390962941168049e-03
-4.130677921194533114e-02
0.000000000000000000e+00
0.000000000000000000e+00
0.000000000000000000e+00
-5.377070393994484721e-02
-1.590162459843968631e-02
-2.125678842874327568e-02
0.000000000000000000e+00
-1.592276533084999515e-02
0.000000000000000000e+00
0.000000000000000000e+00
0.000000000000000000e+00
-3.781191263363949118e-02
-8.767329462322613273e-03
0.000000000000000000e+00
-1.995609768265052021e-04
0.000000000000000000e+00
0.000000000000000000e+00
2.613846592670435870e-02
0.000000000000000000e+00
-5.030192998864868592e-02
2.409296803754117783e-02
0.000000000000000000e+00
0.000000000000000000e+00
7.208933909086054099e-06
0.000000000000000000e+00
0.000000000000000000e+00
0.000000000000000000e+00
1.975526032866323917e-02
0.000000000000000000e+00
0.000000000000000000e+00
0.000000000000000000e+00
-4.740188308342840884e-02
-1.403092063706003678e-03
0.000000000000000000e+00
0.000000000000000000e+00
0.000000000000000000e+00
-6.095971431100641041e-06
-1.392186423699418377e-02
0.000000000000000000e+00
0.000000000000000000e+00
2.482918164381428365e-03
0.000000000000000000e+00
0.000000000000000000e+00
0.000000000000000000e+00
-5.013134445633722625e-02
0.000000000000000000e+00
0.000000000000000000e+00
-3.947751198771890652e-03
0.000000000000000000e+00
0.000000000000000000e+00
2.534215981498075775e-03
0.000000000000000000e+00
0.000000000000000000e+00
0.000000000000000000e+00
0.000000000000000000e+00
2.094935263528282122e-03
0.000000000000000000e+00
0.000000000000000000e+00
0.000000000000000000e+00
0.000000000000000000e+00
0.000000000000000000e+00
0.000000000000000000e+00
0.000000000000000000e+00
-5.643822394596420371e-03
0.000000000000000000e+00
-2.958922723745810446e-02
0.000000000000000000e+00
0.000000000000000000e+00
-2.770776008004533636e-02
-5.279059635282457030e-02
2.697310544106396187e-04
-5.049967627532384040e-02
0.000000000000000000e+00
0.000000000000000000e+00
0.000000000000000000e+00
9.395650789072294840e-02
0.000000000000000000e+00
0.000000000000000000e+00
0.000000000000000000e+00
0.000000000000000000e+00
0.000000000000000000e+00
-3.552176922461025566e-02
-1.871766051729414882e-04
0.000000000000000000e+00
0.000000000000000000e+00
0.000000000000000000e+00
0.000000000000000000e+00
0.000000000000000000e+00
0.000000000000000000e+00
0.000000000000000000e+00
0.000000000000000000e+00
-2.631522251876856552e-02
-1.582138548222850440e-03
8.822138654611698383e-02
1.361458023083379418e-02
0.000000000000000000e+00
-4.363455606942431148e-02
0.000000000000000000e+00
0.000000000000000000e+00
0.000000000000000000e+00
0.000000000000000000e+00
0.000000000000000000e+00
0.000000000000000000e+00
0.000000000000000000e+00
0.000000000000000000e+00
0.000000000000000000e+00
0.000000000000000000e+00
0.000000000000000000e+00
-3.508937041000258911e-02
0.000000000000000000e+00
-1.447437543269210149e-04
0.000000000000000000e+00
-1.064463864660902467e-02
7.789129043501508143e-02
0.000000000000000000e+00
0.000000000000000000e+00
0.000000000000000000e+00
0.000000000000000000e+00
0.000000000000000000e+00
0.000000000000000000e+00
0.000000000000000000e+00
-1.713099825966678562e-03
0.000000000000000000e+00
1.840511124843970418e-03
7.772369466301586429e-04
1.575122172119143918e-02
1.191910057977464167e-02
0.000000000000000000e+00
0.000000000000000000e+00
0.000000000000000000e+00
0.000000000000000000e+00
0.000000000000000000e+00
0.000000000000000000e+00
0.000000000000000000e+00
2.562824792550322359e-04
-5.924260309321806306e-02
0.000000000000000000e+00
0.000000000000000000e+00
0.000000000000000000e+00
0.000000000000000000e+00
-1.059555109684723155e-02
5.245865013700773752e-03
0.000000000000000000e+00
0.000000000000000000e+00
0.000000000000000000e+00
0.000000000000000000e+00
0.000000000000000000e+00
1.632851338560850629e-02
8.158801421941023601e-04
2.882726436944052940e-04
0.000000000000000000e+00
-3.978715878767522147e-04
-3.768372456289888206e-02
0.000000000000000000e+00
0.000000000000000000e+00
0.000000000000000000e+00
0.000000000000000000e+00
0.000000000000000000e+00
4.737803900783189165e-02
-2.060759191947621541e-03
0.000000000000000000e+00
-7.607758005074853787e-04
-6.532210190499107907e-04
0.000000000000000000e+00
2.665231526635949803e-03
2.009505736912086662e-04
0.000000000000000000e+00
0.000000000000000000e+00
-1.068319930998757336e-03
-4.131708574397441281e-04
0.000000000000000000e+00
0.000000000000000000e+00
0.000000000000000000e+00
-3.218308391311608396e-02
-2.838011532243570056e-01
0.000000000000000000e+00
7.759766375509277725e-02
2.163321326818726242e-02
-1.055468145921137704e-02
0.000000000000000000e+00
-2.856336978242362407e-02
-1.972586657605643681e-02
0.000000000000000000e+00
0.000000000000000000e+00
0.000000000000000000e+00
-6.656852668986924446e-03
-2.686243677012623097e-03
-1.142969919156649854e-03
0.000000000000000000e+00
3.861064598787199847e-02
-6.887307975575351904e-03
-1.293199016015244987e-03
7.897946950690418189e-02
-5.944105906134635950e-04
-2.501077422573981524e-02
2.057164518783545851e-03
4.919738487202364279e-03
-2.663694557887374623e-03
0.000000000000000000e+00
-1.337946630876428629e-02
0.000000000000000000e+00
4.128475347926153973e-04
-3.377184237595060728e-02
3.964423997381194553e-02
7.177118643268889930e-02
-7.935138993870257144e-04
0.000000000000000000e+00
0.000000000000000000e+00
0.000000000000000000e+00
0.000000000000000000e+00
7.200954821230927394e-02
0.000000000000000000e+00
0.000000000000000000e+00
2.580349428076537770e-03
-2.180599639764852216e-01
0.000000000000000000e+00
-3.634454987486517713e-02
0.000000000000000000e+00
0.000000000000000000e+00
2.613538912167578249e-02
-4.847699327470269344e-04
1.841894704195091298e-02
1.848810954849835347e-02
-1.078694782176618794e-02
-1.480091705464628427e-01
-5.814677650364029338e-02
0.000000000000000000e+00
1.288897682809751408e-02
5.966839255423471433e-02
0.000000000000000000e+00
0.000000000000000000e+00
0.000000000000000000e+00
9.164624147329013260e-02
-3.496659537758847053e-02
0.000000000000000000e+00
0.000000000000000000e+00
0.000000000000000000e+00
0.000000000000000000e+00
0.000000000000000000e+00
0.000000000000000000e+00
0.000000000000000000e+00
0.000000000000000000e+00
0.000000000000000000e+00
-2.422350123200498070e-04
-1.276656781214610681e-02
4.919601940148009278e-02
4.644930511869257289e-02
0.000000000000000000e+00
0.000000000000000000e+00
-3.993247317811322861e-02
-3.937066076837626022e-03
9.048829582794562509e-02
4.824761574705314915e-02
0.000000000000000000e+00
0.000000000000000000e+00
0.000000000000000000e+00
0.000000000000000000e+00
8.422841228260175873e-04
5.272264219142393932e-03
7.649748732371527971e-02
-5.001630295579923696e-02
-2.344522069718306401e-02
0.000000000000000000e+00
0.000000000000000000e+00
1.277230101426198895e-03
0.000000000000000000e+00
0.000000000000000000e+00
0.000000000000000000e+00
0.000000000000000000e+00
0.000000000000000000e+00
-6.187018982516631930e-04
0.000000000000000000e+00
2.474582824275357081e-03
0.000000000000000000e+00
0.000000000000000000e+00
1.097048181690551960e-02
-1.012238561863538708e-03
0.000000000000000000e+00
4.156068184196119730e-02
4.062275534724317516e-03
-2.605856292265069062e-03
0.000000000000000000e+00
-2.506770693061717136e-03
3.951614454339140090e-03
-2.895615182193744808e-02
1.439915351922380071e-02
0.000000000000000000e+00
2.988034572216160395e-03
-7.904749907719716209e-04
3.259951292342588847e-01
0.000000000000000000e+00
-2.397404270973614755e-03
2.766654481316244141e-05
0.000000000000000000e+00
0.000000000000000000e+00
1.801450468873969828e-03
5.097383767554216835e-03
0.000000000000000000e+00
4.303332967303456942e-03
0.000000000000000000e+00
0.000000000000000000e+00
1.057599540576370234e-01
-1.524276941118414275e-01
-6.731938363630897426e-02
0.000000000000000000e+00
-8.715179910757152402e-04
0.000000000000000000e+00
-1.009041360562039705e-02
-6.112581222229836544e-05
3.613244887996470457e-03
0.000000000000000000e+00
0.000000000000000000e+00
-5.630639848842772244e-02
1.686274455070272890e-03
6.524050411129678033e-03
0.000000000000000000e+00
0.000000000000000000e+00
-7.480859312377317882e-02
1.229030049086744514e-01
-8.516160463620253349e-03
-7.638893842235643106e-03
6.567465419439411783e-03
9.968262460013027973e-03
1.214230325924300913e-01
-3.064954315334245637e-03
-2.719156762309224429e-02
0.000000000000000000e+00
0.000000000000000000e+00
-3.351166677786705100e-02
-2.138781913019861466e-02
8.553707492794321299e-02
0.000000000000000000e+00
0.000000000000000000e+00
-5.659068964386387325e-04
1.180443054420382684e-03
1.175491158518752327e-02
0.000000000000000000e+00
0.000000000000000000e+00
0.000000000000000000e+00
0.000000000000000000e+00
0.000000000000000000e+00
0.000000000000000000e+00
1.088590500921786663e-01
-2.579378400227277379e-01
0.000000000000000000e+00
0.000000000000000000e+00
0.000000000000000000e+00
4.990320352097009880e-03
1.526573148898825727e-02
0.000000000000000000e+00
0.000000000000000000e+00
9.459568013479830546e-04
-3.469444768887561606e-03
9.454607407855376497e-03
2.903629932219526852e-02
0.000000000000000000e+00
5.320644505491627096e-02
8.694645810023934190e-03
-1.360539068825564191e-02
-1.871843348135919169e-02
-5.133951079110771198e-03
-6.275133213846736772e-03
1.574033141353755813e-02
0.000000000000000000e+00
-8.418009070757705853e-03
1.172476165610743387e-01
0.000000000000000000e+00
0.000000000000000000e+00
0.000000000000000000e+00
0.000000000000000000e+00
-2.491434117760338209e-03
-3.308948174175316975e-02
0.000000000000000000e+00
0.000000000000000000e+00
0.000000000000000000e+00
0.000000000000000000e+00
0.000000000000000000e+00
0.000000000000000000e+00
-2.696498682380213049e-02
2.782544540562088484e-02
-2.378444576179209596e-02
5.159797242808455454e-03
-8.338914277906474964e-03
0.000000000000000000e+00
1.561738754899169232e-02
-5.657607702666862456e-03
-5.193767177072074626e-04
6.983182563820431420e-03
-4.030895942398443621e-02
4.416187339527827965e-02
4.289025307518779667e-03
2.252143557604256024e-02
0.000000000000000000e+00
-3.142199583210715519e-02
-5.229983689965951588e-02
-7.676544101814277918e-03
1.883771839971655829e-02
-1.369261222819782506e-02
0.000000000000000000e+00
0.000000000000000000e+00
3.602885330664555574e-02
0.000000000000000000e+00
-2.486979402462984601e-01
6.522693798560738609e-02
-2.179513893829814614e-02
0.000000000000000000e+00
-4.984333434780314348e-02
5.162508297387213840e-02
0.000000000000000000e+00
-4.268119102459472236e-03
6.521752628400463952e-05
0.000000000000000000e+00
-5.438068419163406136e-02
-6.700954083017671703e-01
-8.055410800019460194e-01
5.807235732260468408e-01
2.464527463121428744e-02
1.288493933842085014e-02
-3.069325884960297235e-02
-9.358654364084159627e-03
1.563731429192225797e-01
-7.287198798229568841e-02
1.660223106139655305e-02
7.789242423347203514e-02
1.688538638218661792e-03
-4.610149811492452246e-03
-2.441151962052918317e-02
-2.711238298820678200e-03
1.900124741621828399e-03
8.122902475923368670e-02
7.834090083032034958e-04
6.481228956438673931e-05
-9.293165619026003132e-04
-3.413876557762352514e-03
7.946271731139646632e-03
1.272410638798199148e-04
-1.566692168030119764e-02
0.000000000000000000e+00
1.621747717363951347e-01
8.877342105795240279e-04
3.419930484492625378e-02
0.000000000000000000e+00
0.000000000000000000e+00
0.000000000000000000e+00
0.000000000000000000e+00
-1.044924509520111622e+00
0.000000000000000000e+00
0.000000000000000000e+00
-8.911903547645860183e-04
-8.846317881550641582e-02
-4.696082608748197718e-01
-3.081754086165228515e-02
2.842056730134822750e-03
5.960386675161268022e-02
-1.105594228164924198e-01
-4.515855912183754789e-02
0.000000000000000000e+00
-3.817982531738262075e-03
-1.151379711049738408e-01
-1.960951402008948574e-01
0.000000000000000000e+00
3.653088709850153999e-04
9.605696961743803025e-03
8.710787064905519544e-03
1.156555247817392246e-01
8.059069489438666078e-01
0.000000000000000000e+00
1.147693725984259561e-01
-1.230202282707896777e-01
-9.244489937365614474e-02
3.303642842533249802e-01
-3.631083909939532561e-01
0.000000000000000000e+00
1.189321047699092027e-02
1.342051793200446652e-02
0.000000000000000000e+00
0.000000000000000000e+00
0.000000000000000000e+00
-9.649445023236473684e-01
-1.033416563280206424e-01
-9.122213057696117178e-02
-5.975939024934628571e-03
-3.494034986509240992e-02
0.000000000000000000e+00
0.000000000000000000e+00
1.158066091806954356e-02
6.196574466684083571e-02
5.570353868989399646e-03
-1.489614668841453618e-02
4.277989292064042709e-04
-1.423967246539551085e-03
-2.868619400037799964e-03
2.637188464168536278e-02
0.000000000000000000e+00
-2.791518888471786197e-02
5.904976794005946106e-01
3.183413909303080269e-02
3.456572189631820086e-02
2.843359739884707138e-02
-5.509400078366395725e-02
2.970313494181771596e-01
4.232350770742256130e-02
5.961251446086393395e-03
2.496826147083911970e-02
-1.778396192796954933e-02
4.107150696182744476e-02
-2.811148731561003040e-03
-4.086502822582663286e-01
2.536365457837799070e-02
0.000000000000000000e+00
0.000000000000000000e+00
1.798441311682084098e-01
2.472651200158759166e-01
4.455301622321991627e-04
-6.587629528077110219e-02
-5.586540820225105453e-02
-6.988777654910820203e-02
0.000000000000000000e+00
2.135293734476806718e-02
0.000000000000000000e+00
-1.747498917036470955e-04
-4.903586186167770226e-05
0.000000000000000000e+00
5.834748956466725978e-03
-6.281011634705703332e-03
-2.419193916463327140e-03
2.133676919892571878e-05
2.383005896259971640e-02
-1.202351643135294579e-01
1.343863850476521904e+00
-8.470181910856240670e-02
0.000000000000000000e+00
1.737682663569850849e-01
1.919924243089759230e-01
2.051791927979828428e-02
1.723829195866186798e-02
-1.693113243654748717e-03
2.102757789629342566e-01
-2.199738198573925399e-02
3.162107767882972598e-02
-1.237482446163207109e-04
6.996208750889057471e-02
7.678837175742683208e-01
-3.144286584561321179e-02
1.171333319621879927e-02
6.693395800898055414e-02
0.000000000000000000e+00
-1.006495557789851836e-01
-6.563787229904479749e-03
-5.171354482916708240e-02
0.000000000000000000e+00
3.807824506215745338e-05
5.186083152181161782e-02
1.739597720174401035e-02
-2.211324540062558630e-01
0.000000000000000000e+00
-2.896580165567958984e-02
-5.680016015944457531e-04
3.914381220948649764e-03
-1.375962069728678232e-03
2.921226983964368695e-02
0.000000000000000000e+00
-6.655240148960432922e-01
-2.350421704832361680e-02
-1.652633961146243169e-01
-1.112356360493979801e-04
0.000000000000000000e+00
-7.485992421246323580e-02
-3.366100754077692159e-01
-1.691136193486677403e-02
2.558881029838258048e-01
-1.283343710565537123e-02
-6.561759530176390111e-03
0.000000000000000000e+00
3.209941825291777635e-04
-6.237523444817937024e-02
0.000000000000000000e+00
-1.831821045603567333e-03
-6.818994592065973082e-02
-4.902371548756923741e-02
0.000000000000000000e+00
0.000000000000000000e+00
-2.070236618952966609e-02
7.686347228908516982e-04
0.000000000000000000e+00
5.546842894357560672e-02
7.788649411728421784e-05
3.911623848206153276e-01
0.000000000000000000e+00
1.218792838136991720e-02
4.479888396613420504e-02
7.177017848430720590e-03
2.094421747360647804e-02
8.916188562823690669e-03
-1.429428364110056360e-01
-1.040909640522873214e-01
1.911523306188426044e-02
-1.782259485597634252e-02
-1.409461839942734995e-01
6.151542476795599391e-05
3.107603669239942992e-03
0.000000000000000000e+00
0.000000000000000000e+00
0.000000000000000000e+00
0.000000000000000000e+00
6.600309647173893419e-04
-4.075442850606979250e-02
-2.700750918386108507e-02
5.528006547669921389e-01
1.382381492014400359e-01
2.578466702392222532e-01
-1.357854796959115894e-02
3.701263733695212693e-02
-4.793018719503271650e-03
-4.180805001973197932e-02
0.000000000000000000e+00
5.815754005652718980e-03
0.000000000000000000e+00
0.000000000000000000e+00
5.822239885652163256e-04
4.765646683252381006e-04
-3.021009962445897479e-01
1.688322360196428673e-01
8.475150142901944489e-03
6.683497071283631130e-02
0.000000000000000000e+00
-6.315963776002177406e-03
0.000000000000000000e+00
0.000000000000000000e+00
-1.442334706812333032e-03
0.000000000000000000e+00
2.770647852037024239e-01
2.861096410444484706e-01
7.413749117026833257e-01
-1.199815682419183571e-01
-2.120762794983569732e-01
0.000000000000000000e+00
6.567908744205554726e-04
1.118247587351488548e-01
0.000000000000000000e+00
0.000000000000000000e+00
0.000000000000000000e+00
1.547103341545788026e-02
-4.438604750985179065e-03
-9.542394161852907212e-04
0.000000000000000000e+00
0.000000000000000000e+00
1.031012546460334002e-03
-2.400265308411379458e-02
-1.000397849356861879e-01
-9.691737197838726225e-02
1.311799573432821664e-01
-8.505127919161591804e-03
-2.752763464132180204e-01
0.000000000000000000e+00
-2.898995499674296428e-03
-6.865982762115502291e-03
9.744586231791110137e-03
-5.838143110642652484e-02
0.000000000000000000e+00
0.000000000000000000e+00
0.000000000000000000e+00
2.109373435352842815e-02
-2.131096411848860256e-02
-1.754833376174893822e-01
-2.074535483119897133e-02
-4.796689742042478666e-02
0.000000000000000000e+00
0.000000000000000000e+00
0.000000000000000000e+00
-4.301442351497772321e-02
8.211330299189972468e-03
-5.786693736373693664e-02
2.905298912507271736e-04
-5.357375821293195069e-03
-1.045030109890445341e-01
1.728532435356533448e-02
-8.821550251374504770e-02
1.267988635784105811e-01
0.000000000000000000e+00
8.731894231334941248e-03
-1.074351371992486939e-02
-7.659760276704684822e-04
-8.095765577879800168e-02
0.000000000000000000e+00
5.353740622862514231e-03
1.502556093227481182e-01
-4.242783624111650526e-02
-7.187188187269710760e-02
-4.912751182265515104e-03
-5.205909754416074980e-02
2.615518017596897560e-02
1.059754489356627260e-03
0.000000000000000000e+00
0.000000000000000000e+00
-7.585727667207614253e-03
0.000000000000000000e+00
-1.259923538659786946e-03
-8.839767341179355364e-02
0.000000000000000000e+00
3.349550895909436665e-04
2.143698942468002522e-01
0.000000000000000000e+00
5.184560954351888698e-03
-3.025637765251552869e-02
-1.956456231633169063e-01
-1.220679411396293282e-02
-1.007674305346963339e-01
4.591137731166706759e-01
1.766837130222643770e-01
-9.059127635874515416e-01
0.000000000000000000e+00
0.000000000000000000e+00
-7.688625486595967659e-03
6.890291274103359231e-02
2.741808018733215419e-02
4.893591708554465708e-02
1.739703047530948704e-02
1.164858004595357710e-01
0.000000000000000000e+00
6.799660652249890636e-02
-5.050100118554060602e-01
-3.613528693454183538e-02
-8.700094222361164434e-03
-2.023363095077447549e-02
-6.423884889506915885e-02
0.000000000000000000e+00
0.000000000000000000e+00
3.357448792107237730e-03
6.432935060584801801e-03
-2.050243187177988374e-04
-1.841410634605381569e-01
6.270685662069763397e-03
1.521687798075245946e-03
-5.839588899622670526e-02
1.063733222395650962e-01
9.120593012172209524e-02
1.033304164210454082e-02
-1.101357545432254991e-03
0.000000000000000000e+00
0.000000000000000000e+00
0.000000000000000000e+00
3.716804609291096684e-02
0.000000000000000000e+00
0.000000000000000000e+00
0.000000000000000000e+00
6.195434235617214638e-03
0.000000000000000000e+00
0.000000000000000000e+00
3.832329370237380455e-03
-1.465578114458143677e-02
-4.074971899967196748e-02
-9.617233139990010024e-04
-6.076350574881932143e-02
1.145462732749367857e-01
-1.414395262721853397e-01
-2.857079009276213694e-02
3.789958991036169750e-03
3.018920355972778274e-02
7.893708668490460878e-02
3.985232543272178123e-03
-3.223184506474070722e-04
0.000000000000000000e+00
-1.664102527278246983e-04
-3.218174296133625989e-02
-9.939800846556544334e-02
-3.667603441880167014e-02
1.321988730731953054e-02
-2.019423554049759150e-04
0.000000000000000000e+00
0.000000000000000000e+00
0.000000000000000000e+00
1.985518644835218560e-02
-1.153893196410840953e-03
0.000000000000000000e+00
0.000000000000000000e+00
0.000000000000000000e+00
0.000000000000000000e+00
6.588794465664277351e-03
-1.790271327031292201e-03
3.601645892190753068e-02
-8.800624912881865533e-03
3.189610697794562078e-02
-3.078592246773554503e-03
-3.675099405917900235e-03
-1.097220466052228546e-02
-2.485532114387472083e-02
-3.883909229234341204e-02
0.000000000000000000e+00
-2.017639957627804237e-01
0.000000000000000000e+00
8.428350278012513436e-03
0.000000000000000000e+00
-3.921400712604542621e-02
0.000000000000000000e+00
-3.289272093593778763e-03
-6.951505868033201925e-03
7.375294855775910152e-02
8.187865952496643090e-03
0.000000000000000000e+00
0.000000000000000000e+00
-1.037483456366390276e-03
0.000000000000000000e+00
0.000000000000000000e+00
-1.085248510058148686e-04
0.000000000000000000e+00
0.000000000000000000e+00
0.000000000000000000e+00
1.536599092800367168e-02
9.730629595716608349e-02
1.487556946557203226e-02
0.000000000000000000e+00
2.582008473769967921e-04
0.000000000000000000e+00
7.895588203741253294e-03
2.100205915865338885e-05
1.829904239092209062e-01
0.000000000000000000e+00
3.583875014755970138e-03
0.000000000000000000e+00
-1.695716733905091103e-02
-3.757913157218693012e-01
-6.683288435163066074e-03
-3.382637465577654351e-02
0.000000000000000000e+00
-1.566426587105777292e-03
2.700548467270339598e-04
7.453418692716072547e-02
9.524817954640546480e-02
-3.886583300747855317e-03
-1.518007562112168862e-01
2.905545117257777449e-02
1.976082307834478857e-01
0.000000000000000000e+00
0.000000000000000000e+00
1.176439515126085147e-02
-3.187820367887934242e-02
1.977145326911916579e-02
0.000000000000000000e+00
3.463604370722757342e-02
1.430536699910697155e-03
3.621356674722632420e-03
0.000000000000000000e+00
0.000000000000000000e+00
-5.374551183403279524e-03
5.216953015347449568e-02
-8.641044879716803379e-03
0.000000000000000000e+00
0.000000000000000000e+00
-1.156140856091446810e-03
-8.337727870869311719e-02
-3.776979706049828772e-02
1.747823263095994034e-02
-1.275347882041701075e-02
0.000000000000000000e+00
-3.918022907888001338e-01
-9.258936764665001186e-04
0.000000000000000000e+00
0.000000000000000000e+00
0.000000000000000000e+00
3.402977399394033209e-03
-9.021035662816734822e-04
0.000000000000000000e+00
1.388552785363837139e-01
2.000915774826047405e-02
0.000000000000000000e+00
-9.842850771434075163e-02
1.267193297909493394e-02
1.827133702435315699e-02
-2.190851747744347947e-03
0.000000000000000000e+00
-8.243024211773194998e-02
-8.601033291333433362e-02
0.000000000000000000e+00
1.749768685947367466e-02
0.000000000000000000e+00
3.417286706072820979e-02
-2.108308219626052471e-02
-1.782614625004640130e-02
-9.001660345216086490e-03
0.000000000000000000e+00
0.000000000000000000e+00
0.000000000000000000e+00
6.919831365492011555e-02
0.000000000000000000e+00
6.077036905142545187e-04
-2.293960979622567953e-01
0.000000000000000000e+00
-1.405198886188582241e-01
6.088735823207321388e-03
0.000000000000000000e+00
3.352725909975949325e-01
1.885188939557300436e-01
0.000000000000000000e+00
-1.086815084376065036e-03
-5.090377266310031068e-02
3.088948836073042610e-03
-1.889699678307501260e-04
3.461835413936453776e-02
0.000000000000000000e+00
-1.173608425916728981e-01
0.000000000000000000e+00
0.000000000000000000e+00
0.000000000000000000e+00
3.314123924148924035e-03
3.117050192059788935e-02
0.000000000000000000e+00
-4.719014633710943638e-03
0.000000000000000000e+00
9.718701397280106328e-04
0.000000000000000000e+00
1.331514738956105642e-02
-1.061819068188347287e-01
-5.751115969264704308e-02
1.626225948131211282e-02
2.214696154634292202e-02
2.028398761203851575e-04
0.000000000000000000e+00
-1.648541890731570342e-02
1.002508897949356870e-04
0.000000000000000000e+00
0.000000000000000000e+00
0.000000000000000000e+00
0.000000000000000000e+00
0.000000000000000000e+00
-5.374727875717826703e-02
-3.407927929633680630e-01
4.567642140269471962e-02
1.070922281465767206e-02
-8.124399062560423018e-03
0.000000000000000000e+00
2.582290373339074518e-01
5.472805192020023871e-03
0.000000000000000000e+00
-4.168916708236199142e-02
-3.772645846418411740e-03
0.000000000000000000e+00
0.000000000000000000e+00
-1.108048315054636825e-03
0.000000000000000000e+00
7.582756433012008412e-02
1.484626987741046074e-02
-6.211975966830709378e-02
-8.932662454915424322e-02
2.825378844017411434e-02
0.000000000000000000e+00
-3.523206122466609417e-03
0.000000000000000000e+00
-7.997796669413106269e-03
-4.520882227231169150e-03
0.000000000000000000e+00
0.000000000000000000e+00
0.000000000000000000e+00
4.941237396059738884e-02
1.129737190315264761e-01
0.000000000000000000e+00
0.000000000000000000e+00
0.000000000000000000e+00
0.000000000000000000e+00
7.175042826399886421e-03
2.864868549347115339e-04
0.000000000000000000e+00
3.826827950612544105e-01
4.906998287470822409e-03
0.000000000000000000e+00
0.000000000000000000e+00
0.000000000000000000e+00
8.667245859172322334e-03
0.000000000000000000e+00
-3.161336707542362966e-04
1.366281654607759497e-03
9.133829610677069236e-03
0.000000000000000000e+00
0.000000000000000000e+00
1.749150381478771776e-01
0.000000000000000000e+00
9.631771401897611454e-03
-4.764316135835018032e-04
-8.327188723321813160e-03
0.000000000000000000e+00
0.000000000000000000e+00
0.000000000000000000e+00
0.000000000000000000e+00
-2.224808785634669814e-02
0.000000000000000000e+00
3.417516930107489942e-02
-5.486757057759968775e-04
0.000000000000000000e+00
0.000000000000000000e+00
0.000000000000000000e+00
-7.157304751062911483e-04
0.000000000000000000e+00
0.000000000000000000e+00
0.000000000000000000e+00
1.588766107829361895e-02
-4.078372738606795764e-03
0.000000000000000000e+00
-8.495268703393210261e-03
-7.589729976089034172e-03
-1.784092764273246612e-03
-1.564162819130915025e-02
-5.350371854817197528e-03
0.000000000000000000e+00
0.000000000000000000e+00
0.000000000000000000e+00
0.000000000000000000e+00
0.000000000000000000e+00
1.944358471520909537e-03
3.886909314154999781e-03
2.405227290777985777e-02
9.958297807244769796e-04
0.000000000000000000e+00
0.000000000000000000e+00
0.000000000000000000e+00
-2.821542481398199315e-03
0.000000000000000000e+00
0.000000000000000000e+00
0.000000000000000000e+00
0.000000000000000000e+00
0.000000000000000000e+00
0.000000000000000000e+00
9.251429875715823023e-03
1.749670754744869425e-02
3.147740282344797282e-04
0.000000000000000000e+00
0.000000000000000000e+00
6.827942496227922507e-03
0.000000000000000000e+00
0.000000000000000000e+00
3.043744281004270337e-03
-8.057750762750375039e-04
0.000000000000000000e+00
0.000000000000000000e+00
0.000000000000000000e+00
0.000000000000000000e+00
0.000000000000000000e+00
0.000000000000000000e+00
0.000000000000000000e+00
0.000000000000000000e+00
0.000000000000000000e+00
0.000000000000000000e+00
-7.562578837683854062e-03
-2.375851043620778869e-02
-3.265358953439173421e-03
1.307291898408307739e-04
0.000000000000000000e+00
1.142835416011533413e-03
0.000000000000000000e+00
0.000000000000000000e+00
-1.302150332230167344e-02
6.731626363353645885e-03
7.043396035626954543e-02
0.000000000000000000e+00
0.000000000000000000e+00
0.000000000000000000e+00
0.000000000000000000e+00
0.000000000000000000e+00
-5.101784515583746016e-02
-1.109474604299290172e-02
3.651019374421833608e-02
-7.482251134075784682e-02
-2.232943869199019438e-02
0.000000000000000000e+00
0.000000000000000000e+00
-1.445413363410470893e-02
8.663986234422142978e-04
0.000000000000000000e+00
0.000000000000000000e+00
0.000000000000000000e+00
0.000000000000000000e+00
-9.091167837132792381e-04
5.159202566086331342e-03
-2.969350557591194512e-04
-1.569185021760105200e-02
-6.925983284331865700e-04
0.000000000000000000e+00
0.000000000000000000e+00
0.000000000000000000e+00
-9.868900297381041908e-02
-4.152856997874813938e-02
0.000000000000000000e+00
0.000000000000000000e+00
0.000000000000000000e+00
1.729906867747752961e-04
0.000000000000000000e+00
-2.889133750277143690e-03
7.078515187644592033e-02
0.000000000000000000e+00
-1.235774257315457817e-03
-1.207741716079376807e-03
-1.495522619663888775e-03
0.000000000000000000e+00
0.000000000000000000e+00
-5.276310395344249726e-02
7.721791384468865583e-04
1.351184097304303743e-02
3.573002615406803244e-03
1.169917050276471637e-01
-9.724489598219147879e-02
0.000000000000000000e+00
1.362209633590874026e-02
-9.512395366870580668e-04
3.405206741108529611e-03
-1.826063263607650630e-02
3.910540452530876163e-03
0.000000000000000000e+00
0.000000000000000000e+00
1.477877698970340992e-02
0.000000000000000000e+00
0.000000000000000000e+00
0.000000000000000000e+00
-3.591046095407387801e-03
0.000000000000000000e+00
0.000000000000000000e+00
0.000000000000000000e+00
7.889504811511445503e-02
3.705199019331287813e-01
1.403656685447619542e-03
0.000000000000000000e+00
0.000000000000000000e+00
0.000000000000000000e+00
0.000000000000000000e+00
0.000000000000000000e+00
0.000000000000000000e+00
0.000000000000000000e+00
0.000000000000000000e+00
0.000000000000000000e+00
0.000000000000000000e+00
0.000000000000000000e+00
0.000000000000000000e+00
0.000000000000000000e+00
0.000000000000000000e+00
0.000000000000000000e+00
0.000000000000000000e+00
1.031723663543067521e-01
-2.132275474754281169e-02
-4.003304602344261338e-03
-5.182685880233497272e-02
2.157989862551876886e-02
0.000000000000000000e+00
0.000000000000000000e+00
0.000000000000000000e+00
0.000000000000000000e+00
0.000000000000000000e+00
-4.276434579619763608e-03
-6.432151357463310355e-03
0.000000000000000000e+00
1.536494234628132428e-02
1.104797871868784531e-02
1.014712601866994343e-02
0.000000000000000000e+00
9.028144453883604759e-02
0.000000000000000000e+00
0.000000000000000000e+00
3.781239752228338080e-02
2.195173027659533260e-02
0.000000000000000000e+00
1.683389953836796635e-03
5.424349221759040135e-03
1.535173157010531059e-02
0.000000000000000000e+00
0.000000000000000000e+00
0.000000000000000000e+00
-1.078716001171482579e-03
-1.649132667359603762e-03
-4.737707078498015235e-03
-1.519397081545654019e-02
0.000000000000000000e+00
1.497182192514068602e-02
-5.986494095568393667e-03
0.000000000000000000e+00
0.000000000000000000e+00
0.000000000000000000e+00
0.000000000000000000e+00
0.000000000000000000e+00
0.000000000000000000e+00
0.000000000000000000e+00
9.996834156259537876e-03
0.000000000000000000e+00
-2.108681806217137591e-02
1.198046668663310318e-02
0.000000000000000000e+00
1.928984735028667179e-03
9.571838713301620075e-03
-5.238349577632493920e-04
-1.540657078896780566e-02
0.000000000000000000e+00
0.000000000000000000e+00
2.098116599400963022e-03
-3.461652913231699769e-02
2.642569636544353246e-03
0.000000000000000000e+00
-3.845913402352401679e-03
0.000000000000000000e+00
0.000000000000000000e+00
0.000000000000000000e+00
0.000000000000000000e+00
0.000000000000000000e+00
-2.832787677109486598e-05
0.000000000000000000e+00
7.770631322371311135e-04
1.102567233198111299e-02
0.000000000000000000e+00
-6.175112391105103127e-04
-8.510064019363008936e-02
1.471350015197912114e-03
0.000000000000000000e+00
0.000000000000000000e+00
0.000000000000000000e+00
-8.773446015025906583e-03
-7.415755597331994201e-03
3.197427005225185817e-03
-3.940423170072291370e-01
0.000000000000000000e+00
-2.575268171970932201e-03
0.000000000000000000e+00
0.000000000000000000e+00
1.173728762246762855e-02
-2.126034668687622198e-02
5.264020949468481980e-01
0.000000000000000000e+00
-2.487781636965014087e-02
0.000000000000000000e+00
5.458389401495167270e-02
4.747752686853960041e-02
-4.184716121856392468e-02
0.000000000000000000e+00
0.000000000000000000e+00
0.000000000000000000e+00
-5.464329364660534816e-03
9.627131484039350845e-03
-2.701888741672760497e-01
3.305142295837339064e-03
-2.097033796034119824e-01
-3.855071975249333392e-03
0.000000000000000000e+00
0.000000000000000000e+00
0.000000000000000000e+00
-1.224295749316180529e-02
3.433983582962711785e-03
-1.336857964064719709e-04
-4.576072277465586396e-02
0.000000000000000000e+00
-5.268244430427278073e-03
0.000000000000000000e+00
-3.065314003636645732e-02
0.000000000000000000e+00
-2.396634225175001826e-02
-5.437294428995108619e-01
1.271948556323362900e-01
-5.401965758117050626e-02
0.000000000000000000e+00
-1.607374068854592556e-03
0.000000000000000000e+00
0.000000000000000000e+00
-2.578515496740241275e-02
-1.235231819018793642e+00
-1.895546815615435643e-02
0.000000000000000000e+00
0.000000000000000000e+00
1.789540327226621288e-03
4.843135435168684222e-02
4.715816919871464868e-02
-9.402631839726763655e-03
0.000000000000000000e+00
-3.044080802129205121e-02
-3.442675269472053601e-02
0.000000000000000000e+00
0.000000000000000000e+00
-1.026730228400086174e-02
0.000000000000000000e+00
0.000000000000000000e+00
-3.229329573022361455e-01
9.374745406798502823e-02
0.000000000000000000e+00
0.000000000000000000e+00
0.000000000000000000e+00
0.000000000000000000e+00
-9.734223642479786220e-02
0.000000000000000000e+00
-3.430781865525516644e-02
5.263753866091425496e-03
0.000000000000000000e+00
0.000000000000000000e+00
-1.974207121639215967e-01
0.000000000000000000e+00
-3.556712483004958320e-02
7.793388516271079758e-03
6.934652455443102159e-02
-5.115032172450335521e-04
1.436113954019243265e-02
0.000000000000000000e+00
0.000000000000000000e+00
1.492012834508933405e-01
7.817752694559865646e-04
-4.398300422786553809e-02
0.000000000000000000e+00
-7.851299778108659921e-03
-1.610342093124875120e-04
1.049066323636790410e-04
0.000000000000000000e+00
0.000000000000000000e+00
6.358047842124774779e-03
5.393291543473476002e-03
0.000000000000000000e+00
-1.166073021726118375e-01
0.000000000000000000e+00
-1.772911835186724017e-01
0.000000000000000000e+00
0.000000000000000000e+00
0.000000000000000000e+00
6.819435026194805433e-03
-5.427053234296456974e-02
3.314106690284582962e-02
4.475151641862110813e-02
0.000000000000000000e+00
0.000000000000000000e+00
4.612276343437683029e-03
4.367601157573384324e-02
-2.642753674001635175e-02
-2.153815767259782341e-02
4.985742776490921513e-02
0.000000000000000000e+00
0.000000000000000000e+00
1.788508527445242802e-01
-5.384412000778509080e-03
3.610613947840014826e-02
8.609655817582553827e-02
2.387755299091911740e-02
2.355738643849521197e-02
0.000000000000000000e+00
-2.402410939635100939e-02
7.782902850484945886e-03
9.454859883754315741e-02
0.000000000000000000e+00
-3.480256519851312319e-02
1.799170660945157221e-02
-3.137447788509353103e-02
3.787768405455587892e-03
9.136337091998748827e-02
4.620782748992280364e-02
-9.494424028998391801e-03
-1.238847288470640642e-02
3.115898387797905959e-03
0.000000000000000000e+00
0.000000000000000000e+00
4.554790008289248371e-06
1.224242160794896811e-01
3.653545021787011488e-02
-1.079124350137988936e-01
-5.434502780854656885e-03
0.000000000000000000e+00
0.000000000000000000e+00
-4.874380702235957090e-03
2.836413535935523589e-01
-1.180434950152593199e-01
-1.648811471244252258e-01
4.313238886689683103e-03
-7.007179950472064434e-02
0.000000000000000000e+00
0.000000000000000000e+00
1.858869769652253257e-01
-9.538264256712166572e-03
-1.145939657796206032e-02
0.000000000000000000e+00
1.907884460765608275e-03
-1.148268837769742673e-01
-3.373389991026705392e-02
-5.695314875010987210e-02
-9.975122995411067617e-02
2.392404206846844572e-02
2.027976155563740099e-02
-1.454335659905875780e-02
-1.689373922513788887e-02
-3.595649590893285064e-04
0.000000000000000000e+00
0.000000000000000000e+00
0.000000000000000000e+00
0.000000000000000000e+00
1.562807278779549114e-01
4.050736910020428377e-02
0.000000000000000000e+00
9.567012598720850414e-02
1.003656101494391439e+00
-4.534152766853740725e-03
7.007125365766611602e-02
2.706878734509456097e-04
0.000000000000000000e+00
-8.422322654977568157e-03
5.484486758053139580e-03
1.252742466179460057e-01
-1.204492220878720377e-01
2.429377274246415919e-01
3.384023950580143138e-03
7.193342576876881472e-03
1.039569314720695248e-01
-1.852918692758009911e-01
0.000000000000000000e+00
0.000000000000000000e+00
2.427273772715550970e-04
1.419358153990179887e-03
0.000000000000000000e+00
0.000000000000000000e+00
4.852353404361737371e-02
4.334810642280624571e-02
3.562238279343417358e-02
7.759542902880917081e-02
-6.345781508771094689e-03
9.876263406938032285e-02
3.288286339201818703e-02
-1.513089557953700703e-02
1.763499029674799046e-02
5.142990483791272729e-03
-5.719192542728727957e-02
-5.198349446318072456e-03
6.002440355199565453e-03
1.911074605804778392e-01
-8.033940935795350069e-02
7.102690186402144112e-02
0.000000000000000000e+00
-9.790308155179630600e-02
0.000000000000000000e+00
1.443100354525633788e-01
1.719474128775415889e-01
0.000000000000000000e+00
3.677748046468498622e-02
5.640852717612804268e-02
0.000000000000000000e+00
0.000000000000000000e+00
-1.066911194769852404e-02
1.408612822168750223e-01
6.863292113809438266e-02
-4.505861359625946694e-01
-4.475212544862335051e-02
1.128369549212438483e-01
-9.620311931964126151e-02
-1.724203024186253194e-02
0.000000000000000000e+00
-5.504166842330082687e-02
-2.158580459632543011e-02
0.000000000000000000e+00
-2.977152160272038967e-03
5.409520760745417656e-02
3.626266519576890612e-01
0.000000000000000000e+00
-1.613500610459933302e-02
3.487613340778504892e-03
0.000000000000000000e+00
0.000000000000000000e+00
-4.630140796281718985e-03
0.000000000000000000e+00
7.043322641129501349e-03
-1.090501360889573751e-02
4.981535421796953311e-04
-3.192056884921282839e-02
0.000000000000000000e+00
1.842386046455677523e-02
-2.041633055641944861e-01
5.948508077559340815e-03
7.546744292587825864e-02
0.000000000000000000e+00
-5.281582753659692757e-03
0.000000000000000000e+00
0.000000000000000000e+00
0.000000000000000000e+00
0.000000000000000000e+00
-8.051658552994988075e-03
0.000000000000000000e+00
2.143298793651065084e-02
0.000000000000000000e+00
4.531657562056967507e-03
7.448201574988218276e-03
0.000000000000000000e+00
-1.765225378269763903e-02
-1.479394257224192835e-02
-5.889053994342764026e-02
1.340804921520873029e-04
5.347793175917242786e-04
-3.762624238543198435e-04
1.211846719089935097e-03
0.000000000000000000e+00
-2.014928737261536575e-04
-1.269424914075666100e-02
1.088447673519679984e-02
0.000000000000000000e+00
-1.138196747995552233e-01
9.889004418130731278e-04
0.000000000000000000e+00
-3.335433293705346303e-02
-1.545676701181057135e-02
7.151304853310291821e-04
1.170128768654904970e-02
0.000000000000000000e+00
0.000000000000000000e+00
-4.076522322995021312e-03
-4.669235281368415424e-02
1.389529596233048982e-02
2.885846961542712918e-01
-1.762752027891386838e-02
1.055737114405623234e-01
1.644789062573219496e-02
5.650378699684737577e-02
1.930474387653058907e-03
-2.424349317102433496e-02
-3.917096385610219222e-02
0.000000000000000000e+00
0.000000000000000000e+00
0.000000000000000000e+00
-2.924214906461941946e-02
1.242815841526057480e-01
4.692777930193028912e-03
0.000000000000000000e+00
6.826441679916750438e-03
-1.362514755651006784e-02
-6.756543739347831493e-03
-1.105683999901812681e-01
-4.022375829881633114e-02
-1.630837101251073409e-02
0.000000000000000000e+00
-1.140856991001377302e-03
0.000000000000000000e+00
-1.014997211484866546e-02
1.562352955188939761e-02
2.686607853485826342e-02
-1.430571826375935142e-02
-3.465663351171176785e-04
0.000000000000000000e+00
-4.424580111373560554e-02
7.375901153265631768e-03
-8.061157556341289878e-04
1.314329205379283390e-02
0.000000000000000000e+00
4.819927285990354554e-03
0.000000000000000000e+00
2.686983670737309871e-03
5.124398941772020932e-02
3.138144467681645011e-01
0.000000000000000000e+00
2.052765442021863007e-02
2.546705374927083743e-05
4.969662970682248160e-02
8.168037850007489609e-02
4.633257896246594410e-05
-7.262043531842868327e-02
6.556415492720169685e-03
3.735420042548447811e-02
0.000000000000000000e+00
1.707637470811952315e-02
-2.803539815358243020e-03
-1.294380109039535570e-03
0.000000000000000000e+00
-2.578503086031989910e-02
-5.024630569588423717e-02
-8.520786395638234312e-02
-1.464797736915345212e-02
3.741369680238802037e-02
5.797003920164877089e-01
2.490515568969880219e-04
0.000000000000000000e+00
0.000000000000000000e+00
-1.352747164065116331e-02
2.790954580246251746e-02
-2.429465457980936605e-02
4.106971074064456016e-03
-7.518849277255730936e-05
0.000000000000000000e+00
0.000000000000000000e+00
8.841325744515066490e-03
-5.784494135876783183e-03
-2.622990777135453602e-02
1.604321654593540312e-03
2.900797071376807123e-04
1.587205232623730977e-01
3.574736500995969596e-02
-1.922921579326423158e-01
9.167528545414312113e-03
-5.410105719973853228e-02
-1.763530208643397379e-01
-8.873679832002948076e-02
1.068221948057984927e-01
1.056817713805201057e-02
1.260699326899428208e-02
0.000000000000000000e+00
-6.769216309636095774e-01
-3.657003303143040868e-02
-3.258698566250921563e-03
-1.173807624161354521e-02
1.498200195349802810e-01
-1.543316343409931179e-01
-3.900619745653545467e-02
1.539357979220802412e-02
1.162388388198188835e-02
-1.320801631255022306e-02
-4.117570223516791028e-01
-2.829634523580126099e-02
-1.647295731323375565e-04
-6.446292364672051578e-02
-2.624312116175091421e-03
-1.217619437765207341e-01
5.800980432338447706e-02
1.096113794932854386e-02
4.867614987747603816e-02
5.298430281479567239e-02
3.770772409180291138e-03
-3.423442587842950857e-02
-1.698005690387275821e-02
2.284225454511235737e-02
7.174485559080119850e-04
-1.467043287277071915e-02
-4.043590665214339026e-03
-1.041921834919583012e-01
4.377758200787897763e-02
-3.355922746822759262e-02
4.546412408123533255e-02
6.511045706787271792e-02
-9.365102598394947631e-02
-3.475267056237150154e-01
-1.744445418734903025e-02
6.846919675084404133e-01
-1.034881325873475422e-02
1.123180184742979433e-02
-2.593978374600033887e-02
5.204737005693817892e-02
1.411914814918464531e-03
1.476814674052305369e-02
-1.450102538986021775e-02
9.436758135610820442e-02
4.654153506347261278e-03
-1.847172739259034940e-02
0.000000000000000000e+00
0.000000000000000000e+00
1.920156341051592053e-01
1.943760008123987873e-02
-1.533375388082465051e-03
0.000000000000000000e+00
0.000000000000000000e+00
0.000000000000000000e+00
0.000000000000000000e+00
1.698400259689010205e-01
-2.586140917112289984e-03
0.000000000000000000e+00
0.000000000000000000e+00
1.995302998967765726e-03
-4.401751601781513368e-01
-1.221682280993518013e-02
3.102055548034367977e-02
7.451605966422961656e-03
5.262255720930596181e-02
-7.969927296029192610e-04
-1.331199087857689312e-01
7.908915687178131107e-03
0.000000000000000000e+00
-8.099534250948393910e-02
-3.588005097700531706e-03
-1.742037483198561937e-04
1.415112576091915805e-02
6.222935475511627568e-02
-1.340150149594349360e-01
-4.448383063447622354e-03
-2.789483551215444779e-01
0.000000000000000000e+00
-3.918497880772915942e-01
-5.732041203993093470e-02
-1.126090618056312109e-02
1.497311168529843334e-02
2.420691818707497445e-02
0.000000000000000000e+00
0.000000000000000000e+00
0.000000000000000000e+00
0.000000000000000000e+00
0.000000000000000000e+00
1.347160332677991255e-02
0.000000000000000000e+00
-4.215066909498983889e-03
-2.675466875937757699e-03
0.000000000000000000e+00
1.791422998123009813e-01
-7.465366983024222802e-02
0.000000000000000000e+00
3.269688837024833233e-02
7.902637896056913247e-02
2.168066226949389233e-02
2.250359633934611442e-02
-2.300682378338953123e-03
4.232069191161262254e-04
-2.327847642075597245e-01
-2.478982557296703915e-01
3.357321821910956572e-02
1.201100879182415539e-03
1.676709059497626456e-02
1.700006289835889056e-02
1.491576478351699583e-02
-5.085236558580780164e-01
1.044973947873105935e+00
-2.854232145338150319e-03
-2.912270334988465575e-02
-2.101682482659867832e-02
-1.170788788483458596e-02
-6.018976425386291657e-02
-1.388419228779394610e+00
-3.441320378187555373e-02
-1.090221013543203610e-01
-8.617262716409302206e-03
1.352034030794169086e-03
-4.701500011674359519e-02
-2.828112689809917368e-01
-1.607681537275395742e-02
0.000000000000000000e+00
-7.116231678766791677e-03
0.000000000000000000e+00
6.360350867262977437e-02
2.875510420580831838e-02
3.563825012255739111e-01
3.410424376375618127e-01
6.937316601054671628e-02
8.764309526134187942e-03
2.165870040755393106e-02
0.000000000000000000e+00
0.000000000000000000e+00
-6.881099898395204306e-02
-2.028661806873554851e-01
-2.980210065322283844e-02
0.000000000000000000e+00
1.990964341052631897e-02
6.486529930470354838e-03
0.000000000000000000e+00
-1.018532065387261955e-03
0.000000000000000000e+00
0.000000000000000000e+00
1.365176416000413520e-02
-1.342214885143554248e+00
-2.500416275659346141e-02
1.937150423307378300e-01
7.317061384652617795e-02
-1.563240716251342120e-03
-1.526756924054766939e-03
8.816012576973964940e-04
-8.656613735537768348e-03
-6.168935460744456173e-02
-1.410349247642214872e-03
4.047942110003687616e-02
-2.342932386439685599e-01
-1.108637062213325974e-02
0.000000000000000000e+00
-1.537974764489851744e-02
-5.114587849893856286e-02
1.229996695677371306e-03
4.621907854635199167e-03
-9.567237219083132849e-02
-3.604114764965529781e-04
1.153054437538753724e-02
0.000000000000000000e+00
4.382634867212194252e-03
4.316345246703725547e-01
3.276094998685433191e-02
