1.014856009309075824e-03
-3.972200240988049025e+00
-9.535418075156969486e-01
8.993688339163142566e-04
0.000000000000000000e+00
2.541869735501755212e+00
-2.671116093614928078e-02
2.892104954564640729e-02
-1.150074666974180114e-02
0.000000000000000000e+00
-6.047274617952488884e-02
0.000000000000000000e+00
-4.747051544275526953e-03
-5.063156649348873189e-02
0.000000000000000000e+00
1.336091096720929197e-02
-5.377918740561305616e-02
3.995850872067607806e-03
2.586130874141144521e-04
-7.226803944453744771e-03
-1.373952738953163576e-02
2.410516590619143362e-01
-8.095717511775631092e-03
1.243706040269844104e-01
0.000000000000000000e+00
7.051189507016975000e-02
-1.086123911395403411e-03
3.297519831309544713e+01
-4.881681658957220948e-03
0.000000000000000000e+00
0.000000000000000000e+00
0.000000000000000000e+00
0.000000000000000000e+00
1.725071217621847869e-02
4.962242130692492287e-02
0.000000000000000000e+00
1.526586984533880725e-02
-1.235870864509689901e-02
0.000000000000000000e+00
2.113618345362692219e-01
-5.620622711247711366e-03
2.104726132777377107e-02
4.083761808400172555e+00
-7.912006832111843913e-03
1.799361561589905290e-01
-7.003998003559976093e-03
0.000000000000000000e+00
0.000000000000000000e+00
0.000000000000000000e+00
-3.680315367399335236e-02
0.000000000000000000e+00
-4.207193213571697871e-02
0.000000000000000000e+00
0.000000000000000000e+00
0.000000000000000000e+00
0.000000000000000000e+00
0.000000000000000000e+00
0.000000000000000000e+00
0.000000000000000000e+00
0.000000000000000000e+00
-5.032525440961344021e-02
-1.061131359491395976e-01
-8.273075254877620965e-01
0.000000000000000000e+00
-5.330680001626907083e-02
5.167886291199916618e-03
2.143005106790280223e+00
1.104887448543157458e+00
0.000000000000000000e+00
1.233576625014601302e-02
4.576506967069170900e-02
6.356409790889837493e-04
7.886781752408445270e-03
-2.876816574908750562e-02
4.703716609058604045e-03
5.550490713268689535e-02
3.059045319372648286e-02
0.000000000000000000e+00
0.000000000000000000e+00
0.000000000000000000e+00
0.000000000000000000e+00
5.198847323927657804e-02
-3.171373092345763228e-02
0.000000000000000000e+00
1.916736617138139467e-03
2.043331305377664442e-02
-6.322284375110225063e-04
0.000000000000000000e+00
-8.558572853709700556e-03
-5.352936275622854900e-01
6.270527137250259120e-01
8.978191701776230826e-02
1.315376369104984899e+00
6.596814738414780166e+00
-3.936955760130551180e-02
-6.758534438716006676e+00
-1.851466379775573712e-01
-8.704711625998821922e-02
-4.650134043841807783e-04
9.943617603792792581e-01
2.448091344167210026e-01
-3.663984614870059286e-04
0.000000000000000000e+00
-1.279599842870910165e-01
-3.617192852286850446e-03
-8.068834813183090038e-02
0.000000000000000000e+00
9.345144196982870660e-03
7.980825620396133635e-01
1.911224075960384350e-01
0.000000000000000000e+00
0.000000000000000000e+00
0.000000000000000000e+00
0.000000000000000000e+00
1.859546342466013996e-02
1.078556725379752890e-01
-1.549102476389739580e-02
-2.051352876479568821e-02
3.144754305927333418e-03
-4.889306367230894512e-02
2.647052926347632715e-04
-5.016033935002292207e-03
0.000000000000000000e+00
-5.306252916555449783e-02
-2.164248272727141487e+00
-1.648738518688217664e-02
-3.652905000470461072e-01
-1.320505831230474603e-01
-5.988484212750973257e-02
5.328316511895212458e-03
5.697757237074810299e-02
-1.814050046102129161e-04
1.784217588506202198e-02
-5.887014112508321545e-03
-9.094113522419271928e-04
1.302785579931072246e-01
6.195852925491959068e-03
0.000000000000000000e+00
-7.205447262644421860e-04
0.000000000000000000e+00
4.743491825202626466e-01
1.301605947832232442e-02
-4.407466506701870901e-02
-4.678863329905384449e-01
0.000000000000000000e+00
0.000000000000000000e+00
-2.400763566209906594e-02
1.014155532057927321e-02
3.479266743085143287e-04
-9.650685371488516850e-02
-6.705468032671274559e-04
8.274552306914990940e-03
8.622411054469147906e-02
5.017882691911847992e-01
-1.960519129107728187e+00
0.000000000000000000e+00
-8.352046081122388443e-01
-3.252463659070643942e+00
-1.270156502792861852e-01
1.744227084885376922e-01
0.000000000000000000e+00
5.375795933264010174e+00
5.845792072498012804e-01
-6.830203425792215691e-03
-2.061194785979971258e-02
-1.336454616950806030e-04
-1.309001653384530596e-02
1.817712474617132548e-02
-2.603774213300168866e-04
-7.929846862312815714e-02
5.706690244091498082e-02
0.000000000000000000e+00
-5.029862662271886165e-02
-3.970105564971466994e-03
0.000000000000000000e+00
-1.081829903493590136e-02
0.000000000000000000e+00
-6.388496836110619994e-04
0.000000000000000000e+00
7.686818095984951360e-02
2.568162781315583634e-02
-2.072718160717947934e-03
-1.806528971389638385e-03
-6.692961826947659530e-03
-1.340684330023801489e-02
-7.660609790367733582e-04
7.304509888927559480e+00
1.398652808682546433e-01
7.021218790952718329e-03
0.000000000000000000e+00
1.724720557251755229e-02
1.060871985512354398e-01
-4.302294377312097101e-02
7.907282538057618382e-01
2.006818786010359235e-01
-1.490819842255963236e-02
-3.944463252084880189e-02
0.000000000000000000e+00
1.012327521105114009e-01
1.454861353106245148e-01
-3.673934734095112009e-02
9.142109995974889193e-04
0.000000000000000000e+00
-3.277035033603481733e-03
3.462602575028573409e-02
7.399912817521731023e-02
-2.586485080259258353e-03
0.000000000000000000e+00
-2.828232381319945206e-03
0.000000000000000000e+00
1.043319023959722591e-02
2.571895160475871911e-02
5.966994102028060354e-01
4.939884703675958069e-03
-7.113173801025635123e-04
-7.141091696810387621e-03
-6.523570582368949308e-03
0.000000000000000000e+00
-1.352961723492452153e-02
-6.329784734674293034e-01
-9.857796285428062077e+00
-2.869381084254164077e-02
-7.203436451668899024e-03
4.036376584911864976e-03
-8.604512478560728539e-01
-1.045540794691388400e-02
1.820151391663429874e-02
-8.121854043403087947e-03
5.546581502278091769e-01
1.967391971534083409e-03
-1.076496419583368837e-03
0.000000000000000000e+00
0.000000000000000000e+00
-7.022147007166188067e-03
-1.686086291713708688e-04
-3.931172369833006719e-02
-1.396286791404318883e+00
3.841433865073380638e-02
0.000000000000000000e+00
2.884939321196549169e-04
0.000000000000000000e+00
-6.911134182489253597e-01
-7.293204777147195561e-02
7.457336047740173966e-03
-7.123579440681344632e-01
0.000000000000000000e+00
2.125512062559973755e-02
1.109601153057976439e-03
0.000000000000000000e+00
0.000000000000000000e+00
1.267182479523775579e-02
0.000000000000000000e+00
-2.610416937683572580e-02
0.000000000000000000e+00
4.230963036642068631e-03
0.000000000000000000e+00
0.000000000000000000e+00
1.428467890767902470e-03
0.000000000000000000e+00
1.852038674768352045e-01
6.550332935706294421e-03
2.051521845784112091e-02
-2.631417473657297456e-03
0.000000000000000000e+00
2.308346425476222596e-01
6.239972736537906933e-02
-2.827393539243140339e-02
0.000000000000000000e+00
0.000000000000000000e+00
1.616794018613825282e-02
-3.933233231597214235e-04
3.808540601125155051e-02
0.000000000000000000e+00
1.683655448899549524e-03
8.384481793282295590e-04
-3.660652583116852377e-02
0.000000000000000000e+00
3.184736033517537868e-02
1.386372523291091313e-03
6.902729424128374591e-04
2.132059289446614197e-03
8.971639654518265977e-03
0.000000000000000000e+00
2.067268364910212763e-01
-1.973088907449737084e-01
-2.984271683759184279e-01
-2.835529166286047953e-02
0.000000000000000000e+00
0.000000000000000000e+00
-1.336130484581711866e-02
-4.179494686456626529e-03
1.312211237176460210e-01
1.006542735837246266e-01
0.000000000000000000e+00
2.337530812701024468e-04
-8.779961726348909368e-01
5.676365537225474406e-02
-6.170738878614250300e-01
1.464517834960775942e-02
7.413941103134088356e-05
0.000000000000000000e+00
0.000000000000000000e+00
2.674191810824474991e-02
1.759650026405059102e-03
0.000000000000000000e+00
0.000000000000000000e+00
-4.915771591352823822e-01
1.866887460486504544e-02
-3.400701312087720668e-02
-1.782199131128693104e+00
0.000000000000000000e+00
7.466632835895990750e-02
7.257625416299590126e-02
1.083602857450471357e-01
3.509984868774439389e-03
4.628403720853246223e-02
1.353316146583930131e-03
-5.409511122192546262e-01
6.763144473845302635e-04
2.133874206735934115e-02
4.049509088625457740e-04
2.495925958885989132e-05
-3.036993236336218982e-02
0.000000000000000000e+00
0.000000000000000000e+00
-5.798825797812649091e-02
0.000000000000000000e+00
-1.130040108027769996e-01
0.000000000000000000e+00
0.000000000000000000e+00
1.216727339903119071e-01
1.924043760381959067e-02
2.938706066483534954e-03
-1.582951376858458045e-03
8.567706662880682222e-02
-1.213886734353358809e-02
-2.682834601702658861e-01
0.000000000000000000e+00
2.756047383791212016e-02
-1.118485799197167655e-03
0.000000000000000000e+00
-2.085896664094767736e-03
0.000000000000000000e+00
-4.297273562072140458e-03
4.771557234723917441e-03
0.000000000000000000e+00
0.000000000000000000e+00
5.342533777337381967e-03
3.518926697405879572e-02
-2.792300527832445103e-02
-1.194099231106664563e-02
-3.193534413613004566e-03
0.000000000000000000e+00
-6.977907117308846004e-03
-1.345840293500236845e-02
1.516070056453261983e-01
-1.996223411411296444e-02
2.480803476508648686e-03
0.000000000000000000e+00
0.000000000000000000e+00
-1.730241642292354443e-02
0.000000000000000000e+00
1.524099233723537859e-02
-3.241564746695457105e-02
0.000000000000000000e+00
0.000000000000000000e+00
0.000000000000000000e+00
0.000000000000000000e+00
-4.932754072695275278e-03
1.794485016534207167e-02
0.000000000000000000e+00
0.000000000000000000e+00
5.732447976154058517e-02
-3.277533797586685421e-02
5.723069679809603821e-02
3.708666680994764420e+01
0.000000000000000000e+00
0.000000000000000000e+00
4.221564941180634863e-03
8.109832836900571218e-02
0.000000000000000000e+00
2.425842518335934823e-04
0.000000000000000000e+00
7.500604090270877045e-01
1.950934229511085694e-01
-7.053377951546996316e-02
1.215854357264834406e-04
0.000000000000000000e+00
0.000000000000000000e+00
0.000000000000000000e+00
0.000000000000000000e+00
4.558628092418832156e-01
3.176677476588872651e+01
4.026855152210419286e-02
0.000000000000000000e+00
5.789053561222842426e+00
3.229603797556138689e-01
1.539786487875812251e-02
1.384342908543886863e-01
6.981038978543771360e-03
3.941734308375915638e-03
-4.910360185313865714e-03
0.000000000000000000e+00
6.735288072723541681e-04
1.029794381473109720e-02
-1.068835965263217024e-02
-6.741125346705250168e-03
-1.207942234127561566e-03
-2.542871363768359205e-02
2.141787639077998573e-01
3.243240735611326291e-03
-8.406407836779903331e-01
-3.471729536004726224e-01
-1.165136047712768824e-01
5.702171412108994475e-02
0.000000000000000000e+00
0.000000000000000000e+00
0.000000000000000000e+00
0.000000000000000000e+00
0.000000000000000000e+00
0.000000000000000000e+00
3.863211150878864686e-02
7.769736025506680799e-02
2.035785447299096051e-02
1.309657239254641503e+00
2.301211766818053661e+01
-8.210040766721260486e-02
-1.166589990614460420e-01
1.422111908639143163e-01
4.493928062315940067e-03
0.000000000000000000e+00
2.994920885313161474e-01
-1.246119829877639695e+00
-3.212892693516361531e-01
0.000000000000000000e+00
-1.274807304279609588e-01
-5.058848285635469391e-04
3.072106975196442838e-02
0.000000000000000000e+00
0.000000000000000000e+00
0.000000000000000000e+00
0.000000000000000000e+00
4.947980785866139784e-03
0.000000000000000000e+00
1.511674375184552353e-02
-5.554109522014929329e-03
0.000000000000000000e+00
-1.691307290956250153e-01
-2.847563922970900580e-02
0.000000000000000000e+00
4.617282130066052703e-01
2.288877939392029992e-01
1.711763596139909693e-01
4.639677168590326806e-02
1.814149940392333158e-03
-2.770915320518275993e-02
-1.420953725954244407e+00
1.234724904351830596e-03
0.000000000000000000e+00
0.000000000000000000e+00
7.403225119503057880e-03
9.339358485379253283e-01
1.157682255474124233e-01
7.173725277701442291e-03
1.265198461802549256e-03
-1.032872647368286365e-02
-3.409535865085032424e-02
-2.786320279069603445e-01
1.786161610649460857e-02
-5.463230760557793303e-03
0.000000000000000000e+00
0.000000000000000000e+00
2.483703728434488167e-01
0.000000000000000000e+00
0.000000000000000000e+00
-1.455745837977987130e-02
0.000000000000000000e+00
-6.983088331566680851e-02
2.923512493541505913e-03
0.000000000000000000e+00
-5.407754252939542261e-02
0.000000000000000000e+00
1.085902157730510818e-02
1.484987018614066301e+02
2.433544939705465943e-03
7.925779645341027302e-02
1.021724632288033979e-01
-8.146418748123465114e-01
5.122326005262720638e-01
-3.823667089588757978e-02
0.000000000000000000e+00
5.560544507385573043e-02
0.000000000000000000e+00
0.000000000000000000e+00
3.152789661122478160e-01
-7.268576217351975510e-03
9.273696186718794615e-03
2.343225727226236094e-04
0.000000000000000000e+00
3.561011439052481214e-03
-6.066714154376261214e-02
-9.362515261692538893e-01
0.000000000000000000e+00
-1.686394007113213524e-04
-6.792236130354797896e-02
0.000000000000000000e+00
0.000000000000000000e+00
0.000000000000000000e+00
-1.671797465852911321e-02
0.000000000000000000e+00
0.000000000000000000e+00
-3.541185445237878329e-03
9.686853936265068772e-04
-8.799501462553007552e-03
0.000000000000000000e+00
7.545607179315673169e-04
-3.202278021002311181e+00
-8.158567830202115290e-02
-1.631649687639764867e-02
9.192726368423645433e-02
1.791506538150669514e-02
0.000000000000000000e+00
4.293727418248551031e-03
2.072151554501313886e-01
3.775356092779933448e-01
0.000000000000000000e+00
0.000000000000000000e+00
1.872550331032169077e-03
-3.619243058530332430e-02
-6.141422142844273069e-02
-1.037925564780728394e-02
1.454073726565092550e-03
1.620433131974983575e-03
3.733452345086797630e-03
5.932787325698327119e-02
0.000000000000000000e+00
0.000000000000000000e+00
0.000000000000000000e+00
8.119582724800776530e-02
-7.654071072093895445e-04
1.805500370505738750e-02
-1.900428030367706106e-02
-9.102717172742580409e-03
-1.531965155459036039e-04
0.000000000000000000e+00
0.000000000000000000e+00
4.738389986671206512e-03
2.469722204001544540e-03
-6.017831074767784894e-02
0.000000000000000000e+00
-3.243189782644216590e-02
-1.641169953776023486e-03
-2.827528475990660414e-02
-2.673664116465390012e-02
-5.750455444420481399e+00
0.000000000000000000e+00
-2.165954521531765573e-03
4.006346990833006133e-02
4.499745060265213266e-03
-1.755838518905730034e-02
0.000000000000000000e+00
4.562658829070819627e-03
2.548467083222353928e-03
8.512729083932457641e-01
-9.041544841797623244e-03
3.179475588243975415e-03
-6.242581798152602689e-04
-1.385753148419787209e-02
-2.134566922557100399e-02
0.000000000000000000e+00
8.193840997354647198e-04
3.907927793117322440e-02
0.000000000000000000e+00
-8.696886678186859995e-03
1.638455330780612396e-01
-1.016509054267420858e-01
7.485075231973349272e-03
4.418736820975022878e-02
0.000000000000000000e+00
0.000000000000000000e+00
1.975921460536745222e+00
0.000000000000000000e+00
0.000000000000000000e+00
1.433996555419197929e-03
0.000000000000000000e+00
4.981646713961663392e-03
-8.927191752777091649e-02
1.700336382227982113e-03
-2.774833518164032675e-02
0.000000000000000000e+00
-1.485170429863641672e+01
-8.879557332543222548e-02
9.996693032979434013e-02
0.000000000000000000e+00
7.795710578865291951e-02
-7.080192075104891833e-03
0.000000000000000000e+00
0.000000000000000000e+00
1.684592247196229908e-01
-1.597139882851360618e-03
0.000000000000000000e+00
0.000000000000000000e+00
-2.197027872300802709e-01
-2.212231183693163794e-01
7.540523991013611815e-02
0.000000000000000000e+00
0.000000000000000000e+00
0.000000000000000000e+00
5.392803365248426822e-03
-1.358673560872103447e-01
-2.822759350178639659e-01
0.000000000000000000e+00
2.586515634805248709e-01
-1.804131892930860433e-04
-1.331289944781544922e-02
2.891935825644693647e-01
5.825000027439008576e+00
4.492315529453144718e-02
0.000000000000000000e+00
1.123983357774268384e-03
-2.211948546595000203e-03
1.393564804208585490e-03
1.605424048125510348e-03
0.000000000000000000e+00
3.790277477777947990e-02
-1.091634437045773676e-01
-2.467735321902207995e-03
0.000000000000000000e+00
7.602796103027857910e-01
-1.627764384332271164e-02
0.000000000000000000e+00
7.251896818254698063e-02
7.910600459085680158e-02
-6.196860714555277143e-03
0.000000000000000000e+00
0.000000000000000000e+00
0.000000000000000000e+00
-6.980447814318949118e-02
-2.149203804897348746e+00
-6.135678276380041041e-01
0.000000000000000000e+00
0.000000000000000000e+00
0.000000000000000000e+00
-1.436300778461504298e-04
-1.473598308476585572e+00
0.000000000000000000e+00
0.000000000000000000e+00
0.000000000000000000e+00
1.086415824204241959e-01
6.166956837828458937e-01
-1.681614096615234588e-03
-1.053065718283132529e-02
3.266583527723121438e-02
-4.751905245986645827e-03
1.208489369458732449e-02
2.987019470860347026e-02
0.000000000000000000e+00
5.600029546730286335e-03
0.000000000000000000e+00
0.000000000000000000e+00
-6.084843557223846428e-03
0.000000000000000000e+00
9.878272127873590630e-03
6.036225450245396446e-02
8.105909581831359789e-01
-1.070051383489065491e-02
-4.056618092124970095e-04
0.000000000000000000e+00
6.063236419008724565e-02
0.000000000000000000e+00
0.000000000000000000e+00
0.000000000000000000e+00
-1.342109579614341408e+00
3.051877764056271786e-02
9.159941867332994647e-01
0.000000000000000000e+00
0.000000000000000000e+00
0.000000000000000000e+00
-1.287804288453667234e-01
0.000000000000000000e+00
1.223393808038865771e+00
-9.501018186327524206e-02
-4.990599235914228160e-02
9.257630852550015332e-02
-7.346751398917890086e-01
1.092157465951293648e-04
-5.385381467178334929e-04
-4.497621518579865939e-03
0.000000000000000000e+00
9.334305782162283282e-04
0.000000000000000000e+00
6.575741339639425490e-04
0.000000000000000000e+00
3.843125653881303283e-02
0.000000000000000000e+00
7.882648768642912251e-03
1.936441612388021052e-02
8.793477580408472605e+00
0.000000000000000000e+00
5.889961176104133861e-03
-3.979914892193951834e-04
1.730267717807897654e+01
0.000000000000000000e+00
2.476900391116241586e-04
2.698363156824890724e-02
-1.845233472008957765e-01
7.546320699928196589e-03
0.000000000000000000e+00
0.000000000000000000e+00
0.000000000000000000e+00
0.000000000000000000e+00
6.064582686954793633e-01
2.106299686514311043e-02
-8.867385204269682963e-03
2.843400830901079545e-03
4.419680194510717808e-01
-2.428507874752506776e-02
0.000000000000000000e+00
5.052245503289103795e-02
-3.046245445955902964e-02
7.721372692709493717e-03
-4.164400473796509772e+01
-1.553886697993319688e-01
3.898238719594928181e+00
1.265915953085575141e-01
-5.101611377289745272e-03
2.900709622888869577e-02
0.000000000000000000e+00
-5.634720864158406037e-04
9.277324741043846412e-02
-1.111320415693371061e-02
9.069377996111141482e-02
2.060045614339305053e-01
0.000000000000000000e+00
-4.564272442978370425e-03
1.443775665270985442e-03
0.000000000000000000e+00
0.000000000000000000e+00
7.825306245091016898e-04
0.000000000000000000e+00
0.000000000000000000e+00
-1.532759428946625039e-03
1.351498917126604457e-02
4.312086189766294736e-02
0.000000000000000000e+00
0.000000000000000000e+00
3.055124296773251581e-03
0.000000000000000000e+00
0.000000000000000000e+00
0.000000000000000000e+00
-3.383863120529711832e+00
-7.093437892052148475e-03
2.134504899812840861e+00
5.167757368878014542e-04
8.183206857661672051e-02
0.000000000000000000e+00
-4.317825538510276784e-02
-3.011339299769405856e-02
0.000000000000000000e+00
-6.990339090108673055e-03
2.426635968216852082e-03
2.246577140823474983e-01
2.169075042942189904e-02
-6.252987298306326158e-01
0.000000000000000000e+00
4.505101326401474496e-03
1.229227934239577463e-03
2.315290076420483678e-01
1.732900355185142072e+00
8.953780316141756596e-03
3.847497528893307095e+00
5.500787299854696499e+00
-1.487735979700299284e-02
-4.756261499689006661e-03
9.882358577306848968e-01
8.836819121592873194e-02
-3.636062744622835241e-02
-8.824444160557752548e-02
0.000000000000000000e+00
0.000000000000000000e+00
8.088469016960563307e-01
9.074937634888632365e-01
-1.074497064881966765e-02
1.716108574221573285e-02
0.000000000000000000e+00
8.914642677610039659e-03
-3.203349031647984881e-03
-1.385416914476209158e-03
0.000000000000000000e+00
-2.467631579371575706e-02
8.085524363710658996e-03
5.802140838171004726e-03
1.068230564465720178e+00
1.199110711102527533e-03
5.115467742184959601e-03
3.766943939161589983e-01
5.880928097381379546e-03
1.871235337114889319e-01
0.000000000000000000e+00
-2.835405367511229652e-02
0.000000000000000000e+00
4.104004971356799147e-02
2.726407193677837348e+00
2.826982057288038308e-01
0.000000000000000000e+00
8.492864972106807520e-03
-1.497316374996233122e-02
0.000000000000000000e+00
1.361464303678655563e-02
-1.374543883801953859e-01
2.749553117835144486e-03
-2.797881033227635379e-04
0.000000000000000000e+00
-2.030323896381608373e-03
-6.072026094274701052e-02
-6.968564300890918439e-02
0.000000000000000000e+00
2.355947698727215572e-02
0.000000000000000000e+00
0.000000000000000000e+00
-1.218224227723138653e-01
0.000000000000000000e+00
-3.109295119368270521e-01
0.000000000000000000e+00
1.733983756325651882e-01
7.246226005155874395e-02
0.000000000000000000e+00
-5.720327803461178976e-04
-4.393201168311552246e-02
-2.129817287939171958e-04
-5.254464638990687109e-03
-3.269547586370807890e-01
0.000000000000000000e+00
0.000000000000000000e+00
0.000000000000000000e+00
-8.440542650027454269e-03
1.652428807732924526e-02
1.335680381233808611e-02
-6.850685198445524357e-03
1.180959699490133630e-01
0.000000000000000000e+00
-2.259191558234160263e-02
0.000000000000000000e+00
0.000000000000000000e+00
-3.232236136082001776e-01
-7.866010678311623483e-01
2.654760020993137903e+00
0.000000000000000000e+00
0.000000000000000000e+00
8.100016760663183296e-03
3.286461201461200743e-02
4.892678025479152426e-02
1.673048535041381235e-02
7.006786628047076970e-01
-2.581211786894067948e-04
0.000000000000000000e+00
0.000000000000000000e+00
0.000000000000000000e+00
0.000000000000000000e+00
0.000000000000000000e+00
0.000000000000000000e+00
2.942675590228116533e+00
1.696329529975313111e-01
-3.725814772668230648e-03
8.095367062021667504e-02
-5.765421479106504904e-02
2.040367017283752733e-05
3.514811920517751931e-03
0.000000000000000000e+00
0.000000000000000000e+00
-1.370955895147682457e-02
-8.267382727667748634e-05
0.000000000000000000e+00
0.000000000000000000e+00
0.000000000000000000e+00
1.433266379497274631e-02
-2.280407493174673762e-03
0.000000000000000000e+00
0.000000000000000000e+00
0.000000000000000000e+00
0.000000000000000000e+00
0.000000000000000000e+00
0.000000000000000000e+00
0.000000000000000000e+00
0.000000000000000000e+00
8.299019869034621535e-03
-3.332274809627066431e-03
-1.729079501368271238e-03
0.000000000000000000e+00
-2.299226299402019544e-02
-4.549393503792959273e-03
0.000000000000000000e+00
0.000000000000000000e+00
0.000000000000000000e+00
9.776729876679538921e-04
7.115100761930109874e-02
-7.497767189189912668e-03
0.000000000000000000e+00
0.000000000000000000e+00
0.000000000000000000e+00
0.000000000000000000e+00
-4.723177844153376298e-02
1.043077942200136121e+01
-1.020764177483887425e-01
0.000000000000000000e+00
0.000000000000000000e+00
-7.638096676534719557e-04
0.000000000000000000e+00
0.000000000000000000e+00
1.733029091061540419e-02
0.000000000000000000e+00
0.000000000000000000e+00
7.296259223267226139e-03
-5.235535883726247924e-03
0.000000000000000000e+00
0.000000000000000000e+00
2.009509723104731527e-01
-1.679749272275542493e-01
-8.142668000188546529e-01
0.000000000000000000e+00
0.000000000000000000e+00
-5.351133183414402694e-02
-1.338881404293012778e-01
8.435342731340720324e-01
0.000000000000000000e+00
0.000000000000000000e+00
-4.948149504275504290e-02
1.728710079175547684e-03
6.457587868279582866e-01
-5.086126492530458967e-03
0.000000000000000000e+00
0.000000000000000000e+00
0.000000000000000000e+00
0.000000000000000000e+00
1.426706184750423656e-01
-3.862024462019272159e-03
1.439862621819439949e-02
4.932374826307485804e+00
9.865578099053064209e-03
-8.105044457011998174e-03
4.430584633084664117e-03
-1.157734933953851256e-02
0.000000000000000000e+00
1.190686860075710132e-03
9.947657631459589853e-03
-4.766303271417847670e-04
1.573217056241629080e-02
5.822287435554925235e-05
-3.645617946524360928e-03
-5.833495624694810811e-02
-1.552688273989330167e-02
2.783554526098759307e-01
-1.988691411329987328e-03
0.000000000000000000e+00
2.818151540606776695e-02
0.000000000000000000e+00
3.921698461327358803e-02
-7.150121817594455587e-02
3.129090621427028712e-04
0.000000000000000000e+00
0.000000000000000000e+00
0.000000000000000000e+00
0.000000000000000000e+00
-3.764555513431265543e-03
-1.088675911939565588e-01
-6.984051098732663165e-02
-6.612809054964899347e-02
1.303392237626828765e+00
1.488864109799651692e-03
-3.118499648930372556e-02
-2.746033105547367008e-03
-5.885168145771251490e-03
-1.353342147993529254e+00
-1.089508083258238988e-02
-8.082651804500018411e-03
0.000000000000000000e+00
1.356737660929255643e-02
-1.435989954463716411e-02
7.230488619683324812e-03
9.498684915488785768e-03
2.488745021820234354e-02
0.000000000000000000e+00
-3.008496700199795974e-03
2.717888650837513298e-01
1.260497521176943449e-02
-2.817862413313190206e+00
2.778073562684979167e-03
0.000000000000000000e+00
2.206070322815129325e-01
-3.612059973424179733e-03
-2.242490044774329838e-03
0.000000000000000000e+00
0.000000000000000000e+00
0.000000000000000000e+00
0.000000000000000000e+00
-7.515630311328271029e-03
0.000000000000000000e+00
-1.149208838556708273e-02
-1.053405786809975819e-01
-3.893643812808219584e-01
3.609488885759699617e-01
0.000000000000000000e+00
3.517925377857519242e-01
-3.732381535737829825e+00
6.200981710312398754e-01
2.613414342182051242e-04
-5.914376703652266497e-04
-2.543545327878077300e-02
0.000000000000000000e+00
6.720029879493617797e-02
4.841792488498593450e+00
5.026179088201201850e+00
-1.101552531974941962e-02
-1.072804308190190500e-03
-2.328872753884219543e-04
6.193604949132656273e-02
-1.024628478709654344e-01
0.000000000000000000e+00
2.394922076794295945e-02
-8.329152934606388631e-04
7.468957070850275326e-03
2.579694982767791189e-02
6.813477590369959591e-02
-5.414161956063509584e-02
0.000000000000000000e+00
0.000000000000000000e+00
0.000000000000000000e+00
-1.500157163415195144e-02
0.000000000000000000e+00
-1.071676361202046873e-04
0.000000000000000000e+00
0.000000000000000000e+00
-1.580937221543477132e-05
8.861436716380357570e-01
-6.021289490714597410e-03
-9.110626225261181377e-01
-1.271378534946591699e-01
1.608125318060212028e-01
4.899884881240157419e-03
1.618169441834617708e-02
0.000000000000000000e+00
9.895922094945608372e-02
-7.538891826320480438e-02
9.424887209593516002e-02
0.000000000000000000e+00
3.506033769419880652e+00
-1.829923596051246867e-02
0.000000000000000000e+00
0.000000000000000000e+00
5.125549357335477257e-02
0.000000000000000000e+00
0.000000000000000000e+00
1.600009362068381957e-01
0.000000000000000000e+00
8.195688835570093256e-02
0.000000000000000000e+00
-1.841435443279443307e-03
1.055815451287046153e-02
0.000000000000000000e+00
-2.402224119812904624e-01
0.000000000000000000e+00
0.000000000000000000e+00
5.977222776862181272e-03
-1.055963301088480360e-05
2.277620110456681293e-02
-5.004525683159357641e+00
-1.808963189079285439e+00
-1.241993752834225236e-04
5.480134962131553295e-02
5.330148736638686512e-03
0.000000000000000000e+00
2.997345725716650477e+00
-4.222945358657209658e-02
1.304841310815693656e-03
-1.882015796376461424e-03
0.000000000000000000e+00
8.080129973679527761e-03
0.000000000000000000e+00
-1.005132861841727052e-03
0.000000000000000000e+00
0.000000000000000000e+00
-2.387113730562044900e-01
-2.747201890528242485e-01
-4.995258413196838054e-01
6.597724888616753047e-02
0.000000000000000000e+00
0.000000000000000000e+00
0.000000000000000000e+00
0.000000000000000000e+00
0.000000000000000000e+00
-1.803902477330202037e-02
-1.664395346765226158e+00
-2.009110784650733859e-03
0.000000000000000000e+00
4.915485626112386236e-02
3.080322516849150639e-03
-5.047932832448030105e-07
-2.753062147537650883e+00
7.642463934084672839e-02
-3.380382799537124949e-01
1.200122413713141656e-01
2.901058950099241751e-02
-1.746736719898752399e-01
0.000000000000000000e+00
-4.468469775075007561e-02
2.894263530877736260e-02
0.000000000000000000e+00
0.000000000000000000e+00
0.000000000000000000e+00
3.288919818620368498e-03
0.000000000000000000e+00
4.736682178818126809e-01
-2.013348107612492142e-03
-3.329618668984148794e-02
0.000000000000000000e+00
0.000000000000000000e+00
0.000000000000000000e+00
0.000000000000000000e+00
1.627597052532372968e-02
-2.202421627908019153e-01
0.000000000000000000e+00
1.573020680102409780e-02
9.374788659186807788e-03
-1.501419108159939703e-02
-2.564670201849852305e+01
2.925039477598238152e-02
-6.344936931179425699e+00
3.818418923535789322e-02
-3.028761581135149331e-02
0.000000000000000000e+00
-2.085472796238051207e-02
-1.771581699510724972e+00
-2.765090328369401718e-01
7.465598275893289490e-03
-1.483757897830337682e-03
2.458011705772453898e-02
-8.194189975540180915e-02
-7.562144828333122390e-03
-1.029393215081099822e+00
-1.690531228471421621e-02
0.000000000000000000e+00
0.000000000000000000e+00
0.000000000000000000e+00
1.839276136323870214e-01
2.011349372896060306e+00
9.142593038874190225e-02
-1.163972113009386966e+00
-5.959932000314892286e-02
1.661632539784063819e-04
-5.568416715674665701e-02
-8.753667546969500640e-03
-1.599769165262456081e-03
-1.127593912257029984e-01
-2.010456710016462534e+00
-6.156806664691066855e-03
4.849038933807278129e-01
-2.653725307607450734e-01
0.000000000000000000e+00
-2.137026019993998414e-03
-6.034212360569026767e-01
1.051851034995288092e-02
0.000000000000000000e+00
5.485234660085261282e+00
0.000000000000000000e+00
-1.492803801981189456e-02
0.000000000000000000e+00
0.000000000000000000e+00
4.358958363648820708e-03
-2.149162439451149709e+00
0.000000000000000000e+00
-9.697621465290219567e-02
-4.405640714521416035e-01
-4.088421457373080450e-03
0.000000000000000000e+00
0.000000000000000000e+00
3.638399024925853108e-03
-7.495018726981063362e-02
0.000000000000000000e+00
-3.233928411568486819e-03
0.000000000000000000e+00
1.787221176431388892e-03
-1.817831373129484562e-02
1.218187206877194978e-03
-2.829617852676552525e-02
0.000000000000000000e+00
0.000000000000000000e+00
0.000000000000000000e+00
0.000000000000000000e+00
0.000000000000000000e+00
0.000000000000000000e+00
9.480270425226110242e-04
-3.741201311444956835e-04
-5.607981216447206763e-02
9.760017921164525490e-01
2.404229673929536917e-02
8.703018624128323107e-04
-3.611497665502803878e-03
0.000000000000000000e+00
0.000000000000000000e+00
0.000000000000000000e+00
0.000000000000000000e+00
2.392617776434632360e-01
7.573694001362885064e-01
9.412180018713089957e-02
5.782984807538819882e-02
-7.128374695655001307e-03
-2.804073737289159568e-02
0.000000000000000000e+00
0.000000000000000000e+00
0.000000000000000000e+00
-1.887860409811471102e-03
0.000000000000000000e+00
0.000000000000000000e+00
0.000000000000000000e+00
1.922006765145154589e-02
3.705758694848286794e+00
2.470404188531208009e-02
-3.443525474144965709e-02
0.000000000000000000e+00
0.000000000000000000e+00
0.000000000000000000e+00
0.000000000000000000e+00
2.151642039791261743e-02
0.000000000000000000e+00
2.653115451166864012e-03
0.000000000000000000e+00
0.000000000000000000e+00
1.445817681257863946e-02
0.000000000000000000e+00
0.000000000000000000e+00
5.131814735759429036e-01
6.361074113022738828e-05
-4.654157840630634459e-03
-1.527609164272741293e-01
0.000000000000000000e+00
2.811704028105480664e-04
0.000000000000000000e+00
2.344645493079323701e-03
0.000000000000000000e+00
0.000000000000000000e+00
-1.500008187689156613e-01
2.026535307372900191e-02
-1.623846232851664240e-01
-1.393357801204738768e-02
0.000000000000000000e+00
4.424135270360375627e-02
4.699151914822142020e-03
1.019156964289451468e-02
-2.967746111978150116e-03
2.895495548831700239e-02
1.054319039214686865e-01
0.000000000000000000e+00
0.000000000000000000e+00
0.000000000000000000e+00
2.717172416129160634e-02
0.000000000000000000e+00
1.364118257799767253e+00
3.954888914820611667e+00
1.507258981809231069e-01
0.000000000000000000e+00
3.386881173731719555e-03
0.000000000000000000e+00
3.512711593183315273e-02
0.000000000000000000e+00
8.207121862877561069e-01
-4.064003979313505349e-04
1.967079112036165811e-01
-5.827240659940868470e-03
3.709088016704747970e-02
0.000000000000000000e+00
3.900424628941948752e-04
1.962820607832252082e-02
-1.661044331071719407e-02
0.000000000000000000e+00
-4.834380582142266264e-02
0.000000000000000000e+00
-2.753368357230620567e-02
-6.576053959085976786e-01
3.693763486790338155e-04
2.400727938244613391e-01
4.277943238837888518e-01
1.637845005390142106e+00
-1.952821733150630623e-01
-2.823425594684645823e+00
-3.972400227885625745e-01
-1.258942490899545279e-03
1.470340145781162851e-02
4.789866957433885214e-02
-8.085548732821772333e-01
0.000000000000000000e+00
1.890968130652422724e-03
0.000000000000000000e+00
1.719507003571233220e-02
-2.311346176586400001e-04
6.828809497468846246e-02
3.218325713722320347e-01
3.315732931313313259e-01
-1.358055624425303851e-02
1.739055072013013237e-01
0.000000000000000000e+00
9.676360757531057150e-03
-1.207651744303624283e-03
1.103693112528129384e-02
1.155183417143221605e-02
-3.174028355007185720e-01
3.626592861152541647e-01
-8.938533415632124446e-03
0.000000000000000000e+00
0.000000000000000000e+00
0.000000000000000000e+00
0.000000000000000000e+00
0.000000000000000000e+00
0.000000000000000000e+00
1.320125717094736417e-01
-3.116735879504994172e-02
-1.018590883481381854e-01
4.221731519307968944e-02
0.000000000000000000e+00
1.987208190413899955e-02
2.513558197763800608e-04
0.000000000000000000e+00
0.000000000000000000e+00
6.642055597740232908e-01
1.078246936577729586e-03
0.000000000000000000e+00
1.150292640357040153e+00
-5.999473005604098047e-02
-7.261849487863976556e-03
2.148954115550482172e-03
4.245362134010162262e-03
0.000000000000000000e+00
0.000000000000000000e+00
2.643503505786122809e-01
2.092663904873967237e-03
0.000000000000000000e+00
9.180070049640645137e-04
0.000000000000000000e+00
-1.548303207712335983e+00
-2.291515166572579559e-03
-3.451742023763654070e-03
-5.786952925532799698e-05
-1.623048179610570019e-02
1.436256862812908874e+00
2.456061176650699111e-03
3.234923971367627618e-03
0.000000000000000000e+00
0.000000000000000000e+00
-3.889202569360784151e-02
4.939008452445066595e-03
2.497029598393871730e-01
0.000000000000000000e+00
6.983062392447475508e-03
1.023127173077435607e-03
0.000000000000000000e+00
0.000000000000000000e+00
1.046730487373289178e-02
0.000000000000000000e+00
0.000000000000000000e+00
-1.949640332831594034e-04
1.828534227673284107e+00
-4.227608813440950769e-03
-9.066419173157219680e-02
7.172055367340161858e-02
-7.827069214333827463e-03
0.000000000000000000e+00
-5.633870372225901341e-02
3.036008653056694595e-02
0.000000000000000000e+00
2.954381387321782793e-01
6.435287742255685339e-02
3.352729563672347660e-04
-3.202179199648085700e-02
-1.199130584224127327e-01
0.000000000000000000e+00
2.866436407803990213e-03
0.000000000000000000e+00
0.000000000000000000e+00
3.690123406128878805e-03
2.026172910667947136e+01
0.000000000000000000e+00
0.000000000000000000e+00
-1.468128209925268629e-02
-2.968192468460991051e+00
0.000000000000000000e+00
1.464063990386875180e-01
-3.870135040914201574e-01
-5.483581630284333798e-03
0.000000000000000000e+00
1.180747119500953971e-02
0.000000000000000000e+00
8.825179783851863635e-02
7.795464440489563440e-01
0.000000000000000000e+00
-1.310104337827347346e-03
0.000000000000000000e+00
0.000000000000000000e+00
0.000000000000000000e+00
0.000000000000000000e+00
-2.557783092536526637e-02
0.000000000000000000e+00
-3.669445063766893153e-03
0.000000000000000000e+00
1.041428200292415784e+00
4.506467465187658838e+00
-2.056563426070270872e-01
-4.164919421045026535e-04
0.000000000000000000e+00
0.000000000000000000e+00
-1.692105728527533394e-04
3.029017217395635949e-03
1.100212081616348259e-01
1.184657090499061094e-02
0.000000000000000000e+00
2.220642785609115190e-03
-1.317047172220853907e-02
3.726998505581042287e-01
0.000000000000000000e+00
7.500111003311635827e-01
-1.506065667745998260e-02
-5.039752462909588560e-02
0.000000000000000000e+00
0.000000000000000000e+00
8.785078449722927285e-03
0.000000000000000000e+00
4.919815848875472297e-02
4.362659350332077218e-03
0.000000000000000000e+00
4.557843924562518620e-05
2.764542998477207553e-02
5.240918763644501766e-02
0.000000000000000000e+00
0.000000000000000000e+00
0.000000000000000000e+00
-2.331066314956389222e-03
-1.844057554266883781e+00
0.000000000000000000e+00
0.000000000000000000e+00
-7.481524738512223410e-03
2.657182973298467549e-03
0.000000000000000000e+00
0.000000000000000000e+00
-9.542618328502122660e-02
0.000000000000000000e+00
-3.234151685538890320e+00
0.000000000000000000e+00
0.000000000000000000e+00
2.539802149513175136e-03
-3.487106818844670905e-04
-3.395002127546339205e-03
0.000000000000000000e+00
0.000000000000000000e+00
0.000000000000000000e+00
4.103525036914431809e-03
-1.168666160094370632e+00
0.000000000000000000e+00
0.000000000000000000e+00
0.000000000000000000e+00
0.000000000000000000e+00
0.000000000000000000e+00
0.000000000000000000e+00
0.000000000000000000e+00
-1.969099002838039557e-05
0.000000000000000000e+00
0.000000000000000000e+00
0.000000000000000000e+00
0.000000000000000000e+00
-1.971528194851765795e-02
-1.843912373917149048e-03
0.000000000000000000e+00
0.000000000000000000e+00
0.000000000000000000e+00
0.000000000000000000e+00
0.000000000000000000e+00
0.000000000000000000e+00
8.300768822384360299e-03
1.658658119853398460e+01
0.000000000000000000e+00
0.000000000000000000e+00
0.000000000000000000e+00
0.000000000000000000e+00
0.000000000000000000e+00
0.000000000000000000e+00
0.000000000000000000e+00
0.000000000000000000e+00
0.000000000000000000e+00
0.000000000000000000e+00
0.000000000000000000e+00
-3.301518819118681985e-03
0.000000000000000000e+00
0.000000000000000000e+00
0.000000000000000000e+00
0.000000000000000000e+00
0.000000000000000000e+00
0.000000000000000000e+00
1.298685822352614074e-06
0.000000000000000000e+00
-3.877925263446304477e-02
4.106010681280529262e+00
3.536830982919885624e+00
6.867761409573692744e-01
3.597500221814241561e-01
-1.433263529179738816e-02
-1.569585625876659951e-02
0.000000000000000000e+00
0.000000000000000000e+00
0.000000000000000000e+00
0.000000000000000000e+00
0.000000000000000000e+00
0.000000000000000000e+00
0.000000000000000000e+00
0.000000000000000000e+00
0.000000000000000000e+00
0.000000000000000000e+00
0.000000000000000000e+00
0.000000000000000000e+00
-4.762744861058672567e-04
0.000000000000000000e+00
0.000000000000000000e+00
3.332032288443736445e-01
0.000000000000000000e+00
-1.502642381454040010e-03
2.912117528782769832e-02
0.000000000000000000e+00
-6.714477772265833866e-02
0.000000000000000000e+00
0.000000000000000000e+00
-3.708880773528325236e-02
-4.001638365012248899e-01
0.000000000000000000e+00
0.000000000000000000e+00
0.000000000000000000e+00
-3.927616910436391606e+00
1.659727380688157702e-05
-6.148970171642805654e-02
-2.831249128196712539e-02
-8.352358826873176878e-02
3.322878564029381199e-01
1.982738338326547542e-02
0.000000000000000000e+00
0.000000000000000000e+00
0.000000000000000000e+00
0.000000000000000000e+00
0.000000000000000000e+00
0.000000000000000000e+00
5.717454381820826770e-01
5.452195391399463631e+00
2.125860150826545600e-02
-6.200058318698856846e-03
-3.389817675904531757e-01
2.645146933161207289e-02
0.000000000000000000e+00
-4.680857401343863078e-02
4.787471080170116813e-03
-2.647303576084152066e-02
0.000000000000000000e+00
7.047288886010480771e-03
0.000000000000000000e+00
0.000000000000000000e+00
1.768054923994625827e-01
-1.422221469595596685e-02
1.350162684861638666e-04
2.811825398027525957e-02
2.993791055369184662e+00
9.947967000751930300e+00
2.508920486291498289e-02
0.000000000000000000e+00
0.000000000000000000e+00
0.000000000000000000e+00
0.000000000000000000e+00
0.000000000000000000e+00
-1.482887859663248320e-02
6.133233490516671882e-01
1.669652009997129455e-02
1.549629277210539158e+01
1.688123739615943197e+00
-6.760061224848483707e-01
1.672765926506245004e-02
3.639371377710652871e-03
2.886798861221655590e-02
2.273211529034209477e-03
0.000000000000000000e+00
0.000000000000000000e+00
1.400327946644587263e-01
0.000000000000000000e+00
0.000000000000000000e+00
1.663233299289118951e-03
-1.865187344943321501e-01
1.339879457645585907e-04
0.000000000000000000e+00
-3.796613049240849525e-01
-7.228483769471210074e-01
0.000000000000000000e+00
-2.908336936426332391e-03
-1.135575217445989812e-03
-4.853415037090778178e-03
0.000000000000000000e+00
0.000000000000000000e+00
0.000000000000000000e+00
0.000000000000000000e+00
6.346000178084967858e-04
5.333591458342581415e-01
-2.831429341635758323e-01
1.453966994522901401e-01
1.667380145610767306e-01
2.393792090571366868e-04
2.389181558335734621e-03
-1.230836536891321970e-01
4.715217726262536935e-02
1.092952094854279799e-01
-7.339039382413724333e+00
-3.769473489907467556e+00
-8.552316398038631307e-02
-8.348949854384541888e-03
-2.774747253264576129e-03
7.350904484687803553e-02
8.987937468334561766e-03
8.005419785636308516e-02
4.032840326092714672e-02
6.679037882454627595e-02
1.849089855578750800e-03
0.000000000000000000e+00
0.000000000000000000e+00
0.000000000000000000e+00
2.240628029454143355e-02
-1.225700838569263387e-02
0.000000000000000000e+00
0.000000000000000000e+00
0.000000000000000000e+00
0.000000000000000000e+00
0.000000000000000000e+00
0.000000000000000000e+00
0.000000000000000000e+00
1.026063218503131189e-02
0.000000000000000000e+00
-7.941188491282687167e-02
5.579663460995019399e-03
-5.825798841757363900e-02
3.209928033474699488e-03
-4.643176910871686831e-03
6.085579883119747180e-01
-1.199824296581929878e-02
-1.348468626399172351e-03
-2.250584669938493487e-01
1.988381010215306555e-02
1.027459814804204535e-01
3.645609553163485506e-02
-1.560170074209634994e-01
0.000000000000000000e+00
0.000000000000000000e+00
1.973371611409406937e-02
3.519313493542017626e-03
0.000000000000000000e+00
0.000000000000000000e+00
0.000000000000000000e+00
0.000000000000000000e+00
0.000000000000000000e+00
0.000000000000000000e+00
1.921824499892405697e-02
0.000000000000000000e+00
0.000000000000000000e+00
0.000000000000000000e+00
0.000000000000000000e+00
-2.186895338792164902e-04
0.000000000000000000e+00
0.000000000000000000e+00
2.359487204462958759e-02
-3.227420753396765374e+00
-1.872622224169748217e-01
1.251935475516265939e-01
-3.621443320738419020e-04
0.000000000000000000e+00
0.000000000000000000e+00
-2.059929592496612810e-03
7.205098862078401778e-02
2.825123568136389096e+00
0.000000000000000000e+00
-2.586291518400365419e-01
2.826272282262157209e-02
0.000000000000000000e+00
-6.470323787954482958e-03
-9.463560820454941513e-01
-5.072867091875226525e-02
0.000000000000000000e+00
0.000000000000000000e+00
0.000000000000000000e+00
-1.969660567096017203e-05
-1.170193525381310953e-02
0.000000000000000000e+00
0.000000000000000000e+00
0.000000000000000000e+00
0.000000000000000000e+00
0.000000000000000000e+00
0.000000000000000000e+00
7.535591540370065655e-04
0.000000000000000000e+00
4.224415903586759002e-02
-2.596350953287768909e-02
5.777902446546414120e-03
2.231123022706150150e-01
8.156479139908000275e-02
-1.271339119978142362e-01
0.000000000000000000e+00
0.000000000000000000e+00
2.160565951462314893e-02
1.187035678211711097e-03
0.000000000000000000e+00
1.261584676419920115e-01
0.000000000000000000e+00
-6.346454617877679283e-01
-8.945441770756364264e+00
-4.196711001942041164e-01
3.506607023539873302e-02
6.183201044500513666e-04
1.747379343730159890e-05
0.000000000000000000e+00
-4.436106436746196924e-02
5.261825788454552004e-03
-3.280781001234372302e-02
5.460099250843692964e-01
0.000000000000000000e+00
0.000000000000000000e+00
0.000000000000000000e+00
8.379838112606941003e-02
-4.231055607296561188e-03
1.197647118704514430e-01
1.412006943744259979e-03
-1.967026045984059113e-02
2.113233026859349384e-01
5.187070461713336189e-02
-4.819668927856426283e-02
-6.010855182050368201e-02
1.773643792570931688e-01
-1.061684639489194892e-01
0.000000000000000000e+00
1.069881125391661247e-01
1.265488173655905380e-01
-4.006560579947211070e-02
-5.529375000139674645e-01
6.987660078357443502e-03
0.000000000000000000e+00
1.057376024579647494e-02
-4.233435203226762478e-02
0.000000000000000000e+00
0.000000000000000000e+00
2.425318756078463818e-03
1.234669597695827164e-03
0.000000000000000000e+00
0.000000000000000000e+00
-7.961733149489896855e-02
-1.405677919731923142e-03
0.000000000000000000e+00
0.000000000000000000e+00
1.486661728482030790e-03
6.213973220036862699e+00
-1.380255775917826194e-02
0.000000000000000000e+00
-1.805080615359514959e-02
0.000000000000000000e+00
0.000000000000000000e+00
1.428166075762950585e-02
-2.360129694089100824e-02
0.000000000000000000e+00
-5.359537291349926545e-04
4.910391704827596349e-02
0.000000000000000000e+00
1.280375901706876096e-03
5.435197916446504740e-03
0.000000000000000000e+00
0.000000000000000000e+00
-1.586402549336523096e-02
-4.140608577264863130e-03
0.000000000000000000e+00
2.486729336567178317e-02
3.350436025306854915e-02
0.000000000000000000e+00
-2.406533900837125317e-02
-6.020884853970227130e-02
1.491795998221747636e-03
1.254802928185102529e-01
0.000000000000000000e+00
-1.713841464761724567e-02
-2.810799160246126860e-01
9.488391182381889638e-03
-1.362375020613028509e+00
1.296197643765476970e+00
1.953022885303516102e-04
2.704118708970630613e-03
1.978364316768965042e-02
1.792516476369078807e-02
0.000000000000000000e+00
8.833843027494405753e-01
0.000000000000000000e+00
1.178658057424813999e-03
-1.677784370019980023e-04
0.000000000000000000e+00
0.000000000000000000e+00
0.000000000000000000e+00
0.000000000000000000e+00
0.000000000000000000e+00
2.150236273529624459e-02
-7.846529690586103722e-01
-4.682893730151944586e-03
3.019668402959410289e-03
-6.539955158687209280e-03
-7.665534956775892084e-02
6.437133937787684577e-03
1.271721036511020038e-02
-1.653247179661124777e-01
-2.547787129184672095e-01
2.714052441872463316e-03
3.313053567110941372e-02
5.403735728522269799e-01
-8.152214235656797536e-03
1.037546805913427128e-01
2.038376116222900825e-02
1.699525340288783712e-04
0.000000000000000000e+00
0.000000000000000000e+00
0.000000000000000000e+00
1.339988597214489523e-04
-1.963093164163260199e-03
0.000000000000000000e+00
0.000000000000000000e+00
0.000000000000000000e+00
0.000000000000000000e+00
-3.248050463106721963e-02
3.500337684653308072e-03
1.412212342241009888e-01
1.301966604858593168e+00
2.435753074771926374e-02
1.737693243345966865e-01
8.674769276295470899e-01
5.068309266567518068e-02
3.712694827117472840e-02
-2.818677868182958846e-02
-4.320926333612510328e-01
6.718395731408088878e-01
2.160575332550373345e-02
-1.821479732330625115e-02
0.000000000000000000e+00
0.000000000000000000e+00
-2.428776449571052806e-03
0.000000000000000000e+00
0.000000000000000000e+00
0.000000000000000000e+00
0.000000000000000000e+00
2.937104459026015357e-01
-3.909423020628832735e-02
-3.210263748667252504e-02
8.136230515667739471e-01
1.094441512358779391e+02
0.000000000000000000e+00
0.000000000000000000e+00
3.282444277396533074e-03
3.266050285592383019e-03
1.125291824639048721e-03
3.287135496334245570e-04
-1.094399003524137370e+01
-2.889726789381966837e-02
0.000000000000000000e+00
0.000000000000000000e+00
0.000000000000000000e+00
0.000000000000000000e+00
5.783118852318375192e-01
-7.909508910535892334e-03
-1.713813035163202492e-01
0.000000000000000000e+00
-2.679454002596201416e-03
-1.277543305112026351e-02
-2.746407405474159402e-01
0.000000000000000000e+00
0.000000000000000000e+00
-1.252196821243313669e-02
-1.449115149324410545e+00
-7.808227124507001182e-01
0.000000000000000000e+00
2.798917409787891053e-01
2.614154034393192205e+01
3.239408094564058160e+01
1.204995208785008654e+00
1.087569676285385714e-02
7.670316826261775085e-03
-9.872768925305356290e-04
-3.817209847579535187e-01
0.000000000000000000e+00
-1.520558000850240170e-02
-1.149771824182976854e-02
-1.207526864617648882e-01
-3.725943168655095339e-01
5.805201384838308554e-02
-1.799343978333894922e-03
0.000000000000000000e+00
8.237794954015877025e+00
2.266264977861771257e+01
7.212634038618892518e-01
0.000000000000000000e+00
-5.226605123522483354e-02
-6.799027203096037475e-01
0.000000000000000000e+00
0.000000000000000000e+00
-7.630453671508616656e-03
-1.560040948486234091e+00
-6.913196177055695724e-02
6.666744539715949505e-03
5.763307310211543584e-03
-2.725435966652797401e-02
5.775677663893332564e-02
-4.967039900525242052e-02
0.000000000000000000e+00
-4.828687493974981489e-03
0.000000000000000000e+00
3.489880632042796083e-01
-6.856953576209662282e-02
-3.050664269394331995e+00
9.410976083111487894e-03
-1.124492876806852757e-03
-1.658782876370076820e-02
0.000000000000000000e+00
-3.397154408851270069e-01
0.000000000000000000e+00
-5.321814441171714843e-02
4.695343508147664831e-03
-1.648045048465647186e-02
0.000000000000000000e+00
1.320610364737024103e-02
-1.688624486426914650e+00
0.000000000000000000e+00
0.000000000000000000e+00
-6.387899806695213067e-01
2.965784087607739594e-04
-1.156248152800612439e-01
2.636140036571876094e-03
-3.167590246700877632e-01
0.000000000000000000e+00
-3.058628014760610636e+00
0.000000000000000000e+00
0.000000000000000000e+00
7.706204658320274514e-02
0.000000000000000000e+00
-2.521391291980379923e-01
8.914521367453420719e-02
-7.513358922300500398e-02
4.603363000768959101e-02
1.003612612477135235e-01
-8.056894826637510387e-04
2.754327863355945580e-02
2.467380078227311702e-02
0.000000000000000000e+00
1.014759392461522976e-02
4.781157285874126093e-04
-1.593538020362809601e-02
-1.384134368911804192e+00
-1.254955139034202194e+00
8.842169393688805723e-01
9.827091734669718415e-02
-1.324289512747186814e-01
-3.713559460397537759e-02
8.308141895870425619e-01
-2.423582684856588620e-02
1.594532633976152858e-01
0.000000000000000000e+00
0.000000000000000000e+00
3.677102766124872978e-06
2.307867256859135602e-02
1.758129126514913043e+00
5.585379448231496749e-03
0.000000000000000000e+00
0.000000000000000000e+00
1.800052018278806010e+00
2.338530148542601605e-02
-5.858391431717163873e-03
0.000000000000000000e+00
0.000000000000000000e+00
0.000000000000000000e+00
2.702180026352359629e-04
6.166839088123488022e-03
2.248757621089467011e-04
3.486642609086481465e-02
7.357995845860987316e-02
-1.161720521611824680e-01
5.903222857120796500e-04
-7.139465930311608699e-02
2.352923000102950107e-02
1.393211751082888694e-03
0.000000000000000000e+00
3.179891339671785111e-02
0.000000000000000000e+00
-5.165823307369588058e-01
0.000000000000000000e+00
1.831164477322025086e-01
-1.384801791093673816e-03
8.351649952385254913e-03
0.000000000000000000e+00
0.000000000000000000e+00
0.000000000000000000e+00
0.000000000000000000e+00
0.000000000000000000e+00
0.000000000000000000e+00
0.000000000000000000e+00
0.000000000000000000e+00
-1.500027390709127335e-02
8.969472905236225424e-03
1.634061774075412643e-02
-7.314315484866534822e-02
4.911670068823836832e-01
1.252061289347025375e-01
0.000000000000000000e+00
0.000000000000000000e+00
2.955335312909413564e-03
2.474813542789260357e+00
1.514851134805561203e-02
-5.806608468701563450e-04
-6.080540802703721798e-03
-1.568434200687027769e-01
3.107058879158674462e-03
8.763072847058447261e-05
0.000000000000000000e+00
0.000000000000000000e+00
0.000000000000000000e+00
0.000000000000000000e+00
0.000000000000000000e+00
0.000000000000000000e+00
0.000000000000000000e+00
0.000000000000000000e+00
0.000000000000000000e+00
0.000000000000000000e+00
0.000000000000000000e+00
4.310406833089710510e-01
1.813994141127680537e-01
1.404966934181044267e-03
-5.046764313769813715e-02
2.878704661003829955e-03
0.000000000000000000e+00
-2.063261227211974757e-03
3.333493236167354426e-04
-1.768712584753765350e-03
0.000000000000000000e+00
2.636823943849618823e-01
-2.373930876475520077e-02
2.063759904514603487e-03
-7.409305981024034288e-03
-8.604243645419238154e-05
7.203833253253782293e-03
6.340202412030445656e-01
1.021931311913582691e-02
1.316565287065924600e-02
0.000000000000000000e+00
-5.082566972331580002e-03
2.893236030903143657e-02
0.000000000000000000e+00
-4.807785135104115232e-02
-1.694553186249607435e-03
0.000000000000000000e+00
0.000000000000000000e+00
0.000000000000000000e+00
1.180757206223329026e-01
-1.605880582381900901e+00
1.689099887474853484e-02
1.315458801333555840e-02
4.180592177218911965e-01
-5.728197513863619861e-02
-4.992375584289529371e-03
-2.026317837297854710e-02
0.000000000000000000e+00
5.079603598969427425e-02
3.824646823433228149e-02
5.245965688543373362e-04
-4.233167188032418982e-03
0.000000000000000000e+00
0.000000000000000000e+00
5.425673381832847753e+00
3.498561251347264145e-01
2.026365864460352995e-01
-7.106270633652267854e+00
0.000000000000000000e+00
0.000000000000000000e+00
-2.588595966554532550e-03
0.000000000000000000e+00
1.659225532229573752e-01
-3.769072288443734656e-03
0.000000000000000000e+00
0.000000000000000000e+00
0.000000000000000000e+00
-4.373514037489142914e-02
-3.022449300103011421e-03
7.963952313576567327e-03
-1.560757189998592670e-02
0.000000000000000000e+00
0.000000000000000000e+00
0.000000000000000000e+00
-8.198634813585774922e-03
0.000000000000000000e+00
5.976584410991410412e-02
-1.815731581354657898e-01
-2.294671063637482300e-03
-7.593374480653575925e-03
0.000000000000000000e+00
0.000000000000000000e+00
0.000000000000000000e+00
0.000000000000000000e+00
2.931931727326066162e-04
0.000000000000000000e+00
-2.430452317072138296e-02
-3.578443239894379263e-03
6.104732788633282503e-01
3.054987141754975100e-02
1.125028249436851868e-02
0.000000000000000000e+00
-3.593038071390722548e-03
1.592478290894884463e+00
0.000000000000000000e+00
-6.766969761851994447e-02
2.166866405607987059e-02
2.014020145123408129e-02
0.000000000000000000e+00
0.000000000000000000e+00
2.305021091003823519e-01
-2.675031393804370647e-03
1.841566551462664805e-02
0.000000000000000000e+00
-5.828114230810291785e-01
-1.826224174757359320e-01
-2.520414130420519094e-01
0.000000000000000000e+00
0.000000000000000000e+00
0.000000000000000000e+00
0.000000000000000000e+00
3.255177759862225573e-01
1.059734554948657398e-01
0.000000000000000000e+00
4.489904912781858201e-03
0.000000000000000000e+00
3.029280106521414773e-01
2.487640405367704810e-01
0.000000000000000000e+00
0.000000000000000000e+00
0.000000000000000000e+00
9.134552592165846949e-04
1.087802577389231251e+00
-1.948658774669601067e-04
6.722397795841253409e-02
3.370929193575961103e-02
0.000000000000000000e+00
0.000000000000000000e+00
-1.111308795678603301e-01
0.000000000000000000e+00
0.000000000000000000e+00
-4.004561009382512360e-03
0.000000000000000000e+00
0.000000000000000000e+00
0.000000000000000000e+00
0.000000000000000000e+00
1.979814560712952077e-03
0.000000000000000000e+00
0.000000000000000000e+00
6.114029659333763966e-02
0.000000000000000000e+00
1.054520892951530175e+00
0.000000000000000000e+00
1.512915718708040536e-01
2.341376436077315937e-01
-8.197008981529191459e-04
2.830144943660559131e-03
1.597257395714447858e-02
4.017974827682924133e-01
1.481008164591215959e+01
1.726275188716552000e-01
0.000000000000000000e+00
1.123806060489528514e-03
5.729795929222389339e-02
0.000000000000000000e+00
-1.006475262093466973e-02
0.000000000000000000e+00
-2.147949500964482696e-03
0.000000000000000000e+00
0.000000000000000000e+00
-4.516647344945994014e-03
1.366137241847713568e-01
0.000000000000000000e+00
-6.512382477619987897e-02
0.000000000000000000e+00
0.000000000000000000e+00
0.000000000000000000e+00
-1.352375647180016020e-03
0.000000000000000000e+00
3.026701275014103548e-02
6.837605319558299755e-01
2.872709788027934530e-01
0.000000000000000000e+00
0.000000000000000000e+00
2.009289318954186193e-02
4.469788352558268230e-02
0.000000000000000000e+00
0.000000000000000000e+00
0.000000000000000000e+00
-4.017491382209272682e-02
-5.064404611301315771e-03
3.196035014301352728e-01
0.000000000000000000e+00
-6.216583149460845961e-04
0.000000000000000000e+00
0.000000000000000000e+00
0.000000000000000000e+00
2.687765262861400301e-02
-7.023417206631552695e-03
0.000000000000000000e+00
-1.233841931866920538e-02
0.000000000000000000e+00
0.000000000000000000e+00
-2.804099009682745058e-03
0.000000000000000000e+00
1.742964588238643531e-02
2.409296803754117783e-02
0.000000000000000000e+00
0.000000000000000000e+00
9.478916558794562100e-05
0.000000000000000000e+00
0.000000000000000000e+00
0.000000000000000000e+00
-9.591522413433747896e-02
0.000000000000000000e+00
0.000000000000000000e+00
0.000000000000000000e+00
-8.198116647749895125e-02
-9.616110831794409675e-02
0.000000000000000000e+00
0.000000000000000000e+00
0.000000000000000000e+00
2.927027455270394532e-04
2.057190191649595559e-02
0.000000000000000000e+00
0.000000000000000000e+00
2.482918164381428365e-03
0.000000000000000000e+00
0.000000000000000000e+00
0.000000000000000000e+00
8.652691220141155160e-02
0.000000000000000000e+00
0.000000000000000000e+00
-5.320796065251062051e-02
0.000000000000000000e+00
0.000000000000000000e+00
2.534215981498075775e-03
0.000000000000000000e+00
0.000000000000000000e+00
0.000000000000000000e+00
0.000000000000000000e+00
2.094935263528282122e-03
0.000000000000000000e+00
0.000000000000000000e+00
0.000000000000000000e+00
0.000000000000000000e+00
0.000000000000000000e+00
0.000000000000000000e+00
0.000000000000000000e+00
-5.375806487204334502e-03
0.000000000000000000e+00
-1.066039656803515201e-01
0.000000000000000000e+00
0.000000000000000000e+00
1.278725413806527378e+00
1.115966468126258215e+00
2.610798616242692729e-04
6.224216054041222662e-02
0.000000000000000000e+00
0.000000000000000000e+00
0.000000000000000000e+00
1.032016380512112308e+00
0.000000000000000000e+00
0.000000000000000000e+00
0.000000000000000000e+00
0.000000000000000000e+00
0.000000000000000000e+00
-1.384876592785170946e+00
7.655200933280438091e-05
0.000000000000000000e+00
0.000000000000000000e+00
0.000000000000000000e+00
0.000000000000000000e+00
0.000000000000000000e+00
0.000000000000000000e+00
0.000000000000000000e+00
0.000000000000000000e+00
6.297581705913132821e-02
-7.229182629760377843e-02
3.880644095073576549e-03
7.581091792907762757e-03
0.000000000000000000e+00
-3.138008644309962097e-02
0.000000000000000000e+00
0.000000000000000000e+00
0.000000000000000000e+00
0.000000000000000000e+00
0.000000000000000000e+00
0.000000000000000000e+00
0.000000000000000000e+00
0.000000000000000000e+00
0.000000000000000000e+00
0.000000000000000000e+00
0.000000000000000000e+00
-3.331014512207081807e-02
0.000000000000000000e+00
1.178127216428695445e-01
0.000000000000000000e+00
-2.214071280911856024e-03
-2.528780243002628700e-02
0.000000000000000000e+00
0.000000000000000000e+00
0.000000000000000000e+00
0.000000000000000000e+00
0.000000000000000000e+00
0.000000000000000000e+00
0.000000000000000000e+00
-1.475709748943447802e-03
0.000000000000000000e+00
-1.388436016991274977e-03
2.801209268690947884e-01
7.589151767582349439e-01
-2.252471534388366184e-02
0.000000000000000000e+00
0.000000000000000000e+00
0.000000000000000000e+00
0.000000000000000000e+00
0.000000000000000000e+00
0.000000000000000000e+00
0.000000000000000000e+00
-2.288868540090111632e-04
-1.962400022997276214e-02
0.000000000000000000e+00
0.000000000000000000e+00
0.000000000000000000e+00
0.000000000000000000e+00
-4.978551158086629187e-03
-6.533452925759431276e-04
0.000000000000000000e+00
0.000000000000000000e+00
0.000000000000000000e+00
0.000000000000000000e+00
0.000000000000000000e+00
-9.121642739692442658e-01
-3.406901869285780884e-03
-6.069451870376068757e-05
0.000000000000000000e+00
2.685353916192925391e-02
-1.469426330323638473e-02
0.000000000000000000e+00
0.000000000000000000e+00
0.000000000000000000e+00
0.000000000000000000e+00
0.000000000000000000e+00
1.093130147689474363e+00
-9.416118816699481364e-02
0.000000000000000000e+00
3.755937260321709492e-03
1.650928732591250281e-02
0.000000000000000000e+00
9.624339242279334600e-03
2.066463464961254982e-03
0.000000000000000000e+00
0.000000000000000000e+00
-1.068319930998757336e-03
-3.050225267102499131e-03
0.000000000000000000e+00
0.000000000000000000e+00
0.000000000000000000e+00
-2.973429947375297658e-02
-9.101770765051132583e-01
0.000000000000000000e+00
-1.160069233569842595e-01
-7.962484238112677026e-01
-1.257624466301560107e-01
0.000000000000000000e+00
4.239022236565725965e-02
-1.528666371814525471e-01
0.000000000000000000e+00
0.000000000000000000e+00
0.000000000000000000e+00
2.047436267555337829e-03
2.211540559270857464e+00
2.888703555142391188e-02
0.000000000000000000e+00
-6.723854881669788508e-01
2.077048495299131659e-02
-2.784291482961231273e-03
-8.058509411229680675e-03
-1.863848242498836530e-03
-8.207637974800791048e-02
1.398434472163597418e-02
1.570804107907487757e-02
4.699016687249178703e-02
0.000000000000000000e+00
8.505802543457785525e-03
0.000000000000000000e+00
-5.924281781147468749e-03
-2.091930014066271937e-02
8.616358387113821904e-02
-1.340917464204058329e-02
9.429506671982442606e-03
0.000000000000000000e+00
0.000000000000000000e+00
0.000000000000000000e+00
0.000000000000000000e+00
-4.728588486623820641e-02
0.000000000000000000e+00
0.000000000000000000e+00
-8.044851565840568375e-01
-1.463440259623156048e-01
0.000000000000000000e+00
2.612651124959884576e-03
0.000000000000000000e+00
0.000000000000000000e+00
-1.648931603656283773e+00
-1.664955602475590157e-02
9.055026533359412932e-03
5.111026973210048424e-03
-5.940627000027789428e+00
-1.654541950651758020e+00
2.811224021478725965e-01
0.000000000000000000e+00
-1.866764735621547211e-01
1.542576228933665791e-02
0.000000000000000000e+00
0.000000000000000000e+00
0.000000000000000000e+00
-1.497151218141571163e-02
5.405238698564417410e-01
0.000000000000000000e+00
0.000000000000000000e+00
0.000000000000000000e+00
0.000000000000000000e+00
0.000000000000000000e+00
0.000000000000000000e+00
0.000000000000000000e+00
0.000000000000000000e+00
0.000000000000000000e+00
3.007228794493686471e-04
-1.276656781214610681e-02
4.226615341697814721e-02
3.413056252425885478e-02
0.000000000000000000e+00
0.000000000000000000e+00
2.264155471098690947e-02
-4.216877185335154293e-02
9.753396842689708926e-04
-1.452681819585331397e-04
0.000000000000000000e+00
0.000000000000000000e+00
0.000000000000000000e+00
0.000000000000000000e+00
1.234955717469006231e-01
9.331523690537196422e-03
4.729338005672058948e-02
-7.056691367010381466e-02
3.061783002684944147e-02
0.000000000000000000e+00
0.000000000000000000e+00
-2.238474382629103594e-03
0.000000000000000000e+00
0.000000000000000000e+00
0.000000000000000000e+00
0.000000000000000000e+00
0.000000000000000000e+00
-1.330596452241676478e-04
0.000000000000000000e+00
-1.216410048657729170e+00
0.000000000000000000e+00
0.000000000000000000e+00
1.066879119594334006e-02
3.093364394785982907e-01
0.000000000000000000e+00
6.952923880067980456e-01
6.906296215108089463e-03
6.413402659753497659e+00
0.000000000000000000e+00
-5.223252997580238310e-03
1.078433393821526601e-02
-1.073692495618821241e-01
-2.201513374959295533e+01
0.000000000000000000e+00
1.132535169674868947e-01
-1.264759985235151124e-02
-2.745045507864038448e-02
0.000000000000000000e+00
-1.946866858640623754e-01
5.685340227405332181e-01
0.000000000000000000e+00
0.000000000000000000e+00
1.751910191641142811e-03
-1.296455801531777412e-02
0.000000000000000000e+00
6.514959631481600372e-03
0.000000000000000000e+00
0.000000000000000000e+00
-9.741867543847109248e-03
-9.570083281309370582e-01
9.556962076361580696e-04
0.000000000000000000e+00
-6.433963454213952916e-03
0.000000000000000000e+00
-5.173587868529597872e-02
3.186746581492161563e-03
1.536105026344939360e-02
0.000000000000000000e+00
0.000000000000000000e+00
-3.353312719210070625e-02
4.160854259945057976e+00
3.281645180771272652e-03
0.000000000000000000e+00
0.000000000000000000e+00
-1.813287478667752195e-02
-1.316195451497861235e+01
-1.221004339620904156e-01
2.334418299933055607e+00
1.376914362609282956e-04
-1.501453424181744059e-02
-8.405732694432723306e+00
3.754440665574639707e-02
4.110234222508590829e-01
0.000000000000000000e+00
0.000000000000000000e+00
2.158103496100706453e-02
4.466697930740150257e-03
2.994175139256457369e-02
0.000000000000000000e+00
0.000000000000000000e+00
-4.562376600519741504e-03
-3.047324273152355462e-03
4.849670275901642180e-02
0.000000000000000000e+00
0.000000000000000000e+00
0.000000000000000000e+00
0.000000000000000000e+00
0.000000000000000000e+00
0.000000000000000000e+00
-6.937507010402188534e-03
5.769994216329344283e+00
0.000000000000000000e+00
0.000000000000000000e+00
0.000000000000000000e+00
-3.276950341629384332e-03
1.704131503387855129e-01
0.000000000000000000e+00
0.000000000000000000e+00
9.459568013479830546e-04
5.889142297116102542e-04
-1.846111268335758560e+00
2.610109622429612752e+00
0.000000000000000000e+00
6.647129793223828242e-01
-1.691735524168045540e-02
-1.964624440863813222e-03
4.744004357393150073e+00
6.661414053412814153e-03
-1.712543894827582569e-02
1.879023510508932501e-02
0.000000000000000000e+00
4.792696917335664608e+00
1.163794292670517816e+00
0.000000000000000000e+00
0.000000000000000000e+00
0.000000000000000000e+00
0.000000000000000000e+00
3.005311592064392051e-02
-4.601506693705612050e-02
0.000000000000000000e+00
0.000000000000000000e+00
0.000000000000000000e+00
0.000000000000000000e+00
0.000000000000000000e+00
0.000000000000000000e+00
-2.287397917233627981e-02
-1.323885133106125073e-02
-1.441708344127257679e-01
-2.824179749360930525e-01
-1.099050159114689951e+00
0.000000000000000000e+00
-1.674167408349612821e-02
1.885861423403200621e-01
9.162311257678612195e-03
-2.625300090571631717e-01
-3.348135409060034595e-01
-4.176792188469510142e-02
1.476321996969809282e-04
-1.315428752293617276e-01
0.000000000000000000e+00
-4.778362723404837309e-02
1.785443919429303916e+00
2.927440560782833268e-03
-6.007058535206462324e-02
1.825374805312459520e-02
0.000000000000000000e+00
0.000000000000000000e+00
1.779339280674778756e+00
0.000000000000000000e+00
-1.020453482194527695e-02
7.852007506803715398e-01
-2.131013144345630939e-02
0.000000000000000000e+00
-2.290084630492515150e-01
-8.763000421852545907e-03
0.000000000000000000e+00
7.165732327778223665e-01
4.814670322153675975e-04
0.000000000000000000e+00
9.837454178022514081e-04
6.033889622310157907e-01
2.545808868874433806e+00
-2.415877793875223223e-01
-3.475440678248656323e-02
4.356265006150780161e-01
-1.421312297920541146e-01
3.480279956946393666e-02
9.061462669848936002e+00
1.116550744324353722e-01
-8.723284378356767994e-04
2.775223734912787149e-02
6.307096991781380169e-02
3.031997595552014813e-02
-2.097033912469813133e-03
2.767461819983225990e-02
-3.924473746385294219e-03
-2.658090387524613685e-01
9.251239143781573304e-01
-6.564863743754040769e-03
6.185747536273891733e-02
1.575213144181965687e-04
2.136988414763020625e-03
-4.031809832545283604e-04
-3.711892493346189911e-03
0.000000000000000000e+00
3.449096752188776982e+00
6.084098669591592873e-02
1.483759816495114070e-01
0.000000000000000000e+00
0.000000000000000000e+00
0.000000000000000000e+00
0.000000000000000000e+00
9.291999190272448583e-01
0.000000000000000000e+00
0.000000000000000000e+00
2.037034745706612152e-02
4.055470955894399765e+00
2.001903791115432263e+00
4.819372729449103332e+00
-3.818454135308010228e-02
-1.932718099718119809e-01
7.602863382428066696e-01
2.266289642613225352e-01
0.000000000000000000e+00
6.254195610626591417e+01
3.360448443646182892e-01
-1.334356468215890795e-02
0.000000000000000000e+00
-7.463196757740592213e-02
1.942120398122082481e-02
1.174161974330964128e-02
-8.815017609493327910e+00
-7.210686429901783434e+00
0.000000000000000000e+00
4.396164253061191074e-02
4.778482035441253273e-02
2.818327327580278041e+00
3.441434081624862529e+01
5.611806095865629063e-02
0.000000000000000000e+00
-3.586709787498100488e-02
1.546722571942690631e-02
0.000000000000000000e+00
0.000000000000000000e+00
0.000000000000000000e+00
6.314979661893212182e+01
6.002521355721201246e+01
6.584376273878598695e+00
1.740494253520998569e-01
4.321034503589465947e-01
0.000000000000000000e+00
0.000000000000000000e+00
-2.950435320642331716e-01
1.003488515716069174e-01
1.250043576145638477e-02
7.847444700079407934e-03
1.541272504388945105e-03
-1.423967246539551085e-03
-4.488905615819854811e-03
5.056103357172472834e-02
0.000000000000000000e+00
-1.358460457478021660e-02
-8.028498684979129552e-02
2.861447590718185774e-03
-1.532638040529482257e-02
-9.852256840564267704e-03
1.990832264089076631e+01
4.282187075132840803e+00
1.169215572085601984e+01
8.217294333134979659e-03
6.454916074320036015e-03
-5.985440716864342051e-03
-2.919465375236285354e-02
2.510647591629251198e-03
4.058449786120632119e+00
3.609277816345925899e-02
0.000000000000000000e+00
0.000000000000000000e+00
-7.762265436340198832e+00
-2.920523884634963263e+00
4.455301622321991627e-04
-1.013960541034362034e-01
-1.008917816292596251e-03
-1.598487070581129307e-02
0.000000000000000000e+00
-2.757179214943157319e-01
0.000000000000000000e+00
3.082758324444287087e-03
-4.903586186167770226e-05
0.000000000000000000e+00
-2.608805677468829742e+00
-1.824655449612263419e-02
-8.062064227095104736e-05
-2.856322123537689741e-04
-1.082957479765620928e-01
-1.699765072005511302e-01
-1.631200897273505257e+00
1.047083258664845487e-03
0.000000000000000000e+00
4.499432157851721570e+00
3.732184783896403957e-01
5.704104305199729774e-01
8.067359632675960013e-01
2.108684772960710621e-04
7.333302200055445697e-02
7.446327359071653884e-01
-9.619937881659351708e-02
-1.272557831786386411e-03
-4.714655882593257630e+00
-6.662622764256090235e+00
-7.124396725118846696e-01
-5.299049454781183666e-02
-3.183968463044114516e-01
0.000000000000000000e+00
-1.640047049040439103e-02
-1.244917337194763607e-01
-1.109156696105841619e-03
0.000000000000000000e+00
2.354294722181084730e-03
-1.898635372311098468e+00
-2.703937981823764147e+01
-1.544038436670457237e+01
0.000000000000000000e+00
-1.512666064885006267e-01
-3.004388859817052476e-02
5.911207034207614092e-03
-2.187001873052088138e-02
-1.469096414854505206e-02
0.000000000000000000e+00
-9.945546035107029337e-02
1.054218197349430369e-02
6.776972420175219058e-01
-8.211947710507950691e-04
0.000000000000000000e+00
-4.808762919082101503e-04
-4.779848832940931241e-02
-1.334634569531033543e-01
-8.192816525292416496e-02
-3.074799410908588427e-03
-6.561759530176390111e-03
0.000000000000000000e+00
-7.089068407520660031e-03
2.187154880850905592e+00
0.000000000000000000e+00
-4.552567683940864085e-02
-6.619419524766896601e-02
-1.764527927593351891e-02
0.000000000000000000e+00
0.000000000000000000e+00
-2.502824164911391924e-01
-1.092818588846199493e-02
0.000000000000000000e+00
6.253290813694106776e-03
1.675047273054361467e-05
-8.590123687406764352e-01
0.000000000000000000e+00
8.925896017773115448e-03
-1.100846105180745133e-02
-5.013542286868325620e-02
2.965180541419880356e-02
-1.350869589403365656e-01
-6.392556488033250828e-01
-6.324173634528570953e-02
-3.706459442972320079e-02
-3.467282052989498209e-02
-1.378761704500647833e-01
-1.358551269875707228e-03
-5.998327434334936592e-02
0.000000000000000000e+00
0.000000000000000000e+00
0.000000000000000000e+00
0.000000000000000000e+00
6.600309647173893419e-04
5.918334360587003753e-03
-2.072729707049830727e-01
-6.040883707396748292e+00
-4.663867231383384687e-02
-1.096435812212223637e-01
-1.171403817255772459e-02
1.120289186992197428e-02
-4.793018719503271650e-03
-5.691113779334755485e-02
0.000000000000000000e+00
-3.818980692822195044e-03
0.000000000000000000e+00
0.000000000000000000e+00
-2.795593153460250793e-02
-2.073240010259660288e-02
-1.274908258962144991e+00
-1.263747717805843163e-01
4.143337092450918857e-02
1.988319624407659525e-01
0.000000000000000000e+00
3.464374356508718045e-03
0.000000000000000000e+00
0.000000000000000000e+00
2.590893119167708702e-02
0.000000000000000000e+00
5.343781579896266232e-01
2.217417019171543102e-01
-9.026281010080951239e-02
-1.097564650254015062e+00
-2.125839919803388933e-01
0.000000000000000000e+00
6.567908744205554726e-04
-8.308904490620885319e-01
0.000000000000000000e+00
0.000000000000000000e+00
0.000000000000000000e+00
-2.484827909175229554e-01
-4.307728218474441914e-03
2.306009204042469563e-02
0.000000000000000000e+00
0.000000000000000000e+00
-1.702855323900862375e-02
-1.123301746090951347e+00
-3.086085165758172821e-01
1.867516160295976113e-02
2.338399102624495740e-01
-7.964867655035109961e-02
1.566425741809945871e-01
0.000000000000000000e+00
-5.128208604806530797e-05
4.851285737741180965e-02
1.869373196839827986e-02
3.220458498754815935e+01
0.000000000000000000e+00
0.000000000000000000e+00
0.000000000000000000e+00
-3.673389017973487103e-02
-5.312493802458509995e-01
-6.738656336946906300e-02
-4.712541364210377087e-02
1.208820473207805057e-01
0.000000000000000000e+00
0.000000000000000000e+00
0.000000000000000000e+00
7.113948438209805047e-02
-1.022678620732804088e-03
-6.583113980368368590e-02
2.905298912507271736e-04
1.023218208296571563e-01
-9.613973258941455047e-02
1.126449332324759404e-02
-2.797082283517824397e-01
-1.512159075948998725e-03
0.000000000000000000e+00
-1.334673289585459055e-01
2.976627750955113984e-03
5.048436091908943026e-03
-4.072229430965249031e-02
0.000000000000000000e+00
1.874045504654687578e-03
6.755435816086918344e+00
3.822992944984721780e-02
-5.789438730392278826e-03
-2.330815458404654830e-02
9.898634869084818599e-02
1.407111190773847609e-01
-1.423836431337905176e-02
0.000000000000000000e+00
0.000000000000000000e+00
-1.961099114235888112e-03
0.000000000000000000e+00
2.070995927508891832e-01
5.778571649547349365e-01
0.000000000000000000e+00
3.010370494820645022e-03
-1.537576039788096371e-01
0.000000000000000000e+00
3.546084662524387476e-04
3.917549572924841073e-01
-4.543277673722124987e+00
2.277022940954236685e-01
-6.782688302795557983e-03
-1.028793701586966369e-02
3.190871626168623968e-03
3.011769887528549863e-02
0.000000000000000000e+00
0.000000000000000000e+00
-1.800069951377831611e-03
-1.745753993221660139e+00
3.554095588665327765e-02
-9.987356711087738356e-03
-6.363645820195046321e-01
-7.597084624234228256e-01
0.000000000000000000e+00
3.357175123367005298e+00
2.294158448793456873e-02
3.125634746424498789e-01
-1.941820215564097896e-01
5.663375171972155897e+00
-3.665908549853237608e-02
0.000000000000000000e+00
0.000000000000000000e+00
-5.922866739349159915e-02
-2.929855862361099503e-03
2.779068841760204064e-03
2.770120950241287960e-02
6.982271515331875400e-02
-7.509695427974356907e-02
2.942445880327382302e-03
2.304674250404810110e-01
1.417435381822231388e+00
-5.422918583682784233e-02
3.138748941263212570e-03
0.000000000000000000e+00
0.000000000000000000e+00
0.000000000000000000e+00
2.100309678893013654e+01
0.000000000000000000e+00
0.000000000000000000e+00
0.000000000000000000e+00
1.470324644320750163e-02
0.000000000000000000e+00
0.000000000000000000e+00
-1.954019748720626504e-01
-6.596117840743427330e-01
-1.170194562896829243e-02
5.641102193949154749e-03
7.435452608738643554e-02
2.055568355001611280e+00
3.714233393719590826e+00
3.136288091547627666e+00
1.820555772257568400e-02
1.383397405533182412e-01
8.405756807956041854e-01
-9.209047899569192119e-02
-1.965087728173556259e-02
0.000000000000000000e+00
3.678107924868423070e-03
2.510626507975806387e-02
4.451833754197343992e-04
1.675932352278350357e-02
2.199409640550419454e+01
1.344157627304360184e-02
0.000000000000000000e+00
0.000000000000000000e+00
0.000000000000000000e+00
6.950191563019741600e-03
-4.310067974279527259e-02
0.000000000000000000e+00
0.000000000000000000e+00
0.000000000000000000e+00
0.000000000000000000e+00
1.714094566792805779e-02
1.309959597212236038e-01
-9.148468046738515713e-03
-1.363097243249484780e-01
1.298143171609623392e-01
1.169468939355903514e-01
-1.204753980631727110e-03
4.198173510870246705e-01
4.389457407517470822e-01
1.523334415724770352e+00
0.000000000000000000e+00
2.155248047797403976e-01
0.000000000000000000e+00
3.316745077972636513e-01
0.000000000000000000e+00
-1.192151805206039528e-01
0.000000000000000000e+00
1.172183172140851826e-02
2.477277028986714369e-02
9.657383345107586892e-02
4.419316212723499795e-03
0.000000000000000000e+00
0.000000000000000000e+00
7.458015930133936636e-05
0.000000000000000000e+00
0.000000000000000000e+00
-5.458879558772216002e-05
0.000000000000000000e+00
0.000000000000000000e+00
0.000000000000000000e+00
1.798121887706793237e-02
4.267793487743780645e-01
-9.768211057162667563e-03
0.000000000000000000e+00
5.791423675930226257e-03
0.000000000000000000e+00
-3.229159655408458084e-03
2.100205915865338885e-05
-1.811123657325081349e-01
0.000000000000000000e+00
1.802715403700262328e-03
0.000000000000000000e+00
-1.331216259512201516e-01
1.216420055797527056e+01
1.363376181227522110e+01
-4.581306388089532167e-01
0.000000000000000000e+00
4.786942934359744162e-01
2.336730959497271645e-04
-7.194980166315301066e-03
1.429287135686971233e+01
3.965973626709640154e-03
7.575604724526766631e+01
8.293785710708453940e-02
4.489589649534886373e-03
0.000000000000000000e+00
0.000000000000000000e+00
2.767065329152575831e-03
1.476056280227531006e-02
2.171692424328110771e-01
0.000000000000000000e+00
3.819394561563445312e-03
-1.674619999024404282e-01
9.638481011852950654e-04
0.000000000000000000e+00
0.000000000000000000e+00
5.087332121884826416e-04
1.739385739325152169e-01
-2.304809415600070821e+01
0.000000000000000000e+00
0.000000000000000000e+00
1.900403422210030224e-01
2.427488085050103717e+00
5.088378182583247700e+00
1.763889642407031888e-01
2.144088707178124775e-01
0.000000000000000000e+00
4.375628138912005305e+00
8.731785405759895369e-02
0.000000000000000000e+00
0.000000000000000000e+00
0.000000000000000000e+00
-9.162355957319519295e-03
-8.975495283078890624e-04
0.000000000000000000e+00
1.937794319114105601e-02
1.566094979529203401e-01
0.000000000000000000e+00
5.496656924307342929e-02
-3.222471046870957478e-02
8.304991171234996084e-02
-4.011695128505304506e-03
0.000000000000000000e+00
-2.840030709509574341e-02
2.032577087586817655e-02
0.000000000000000000e+00
2.640010879059709326e-02
0.000000000000000000e+00
6.314303561192970843e-03
-4.910984494727354752e-03
-1.782614625004640130e-02
-8.935435475480870207e-03
0.000000000000000000e+00
0.000000000000000000e+00
0.000000000000000000e+00
1.475344759593026356e-01
0.000000000000000000e+00
6.238464786923154648e-01
4.478183121960047863e+00
0.000000000000000000e+00
-1.023038497170017103e-01
-6.144184951162573460e-02
0.000000000000000000e+00
-1.789522015382969192e-02
-1.063441541876298906e-02
0.000000000000000000e+00
1.990736421664334420e-03
-9.302225205888957349e-02
2.799861706286485737e-03
9.289039166881177256e-02
3.286301198327452877e-02
0.000000000000000000e+00
-2.407058949553651447e-02
0.000000000000000000e+00
0.000000000000000000e+00
0.000000000000000000e+00
3.314123924148924035e-03
3.278505565190146243e-01
0.000000000000000000e+00
5.764864115672921230e+00
0.000000000000000000e+00
9.718701397280106328e-04
0.000000000000000000e+00
-4.219089382789739662e-02
5.989757755172472366e-03
4.985596699519210390e-02
-6.845844772125805888e-02
1.103840152265805202e-02
7.324691157726791191e-04
0.000000000000000000e+00
2.394002927885642996e-03
8.415343130927849984e-05
0.000000000000000000e+00
0.000000000000000000e+00
0.000000000000000000e+00
0.000000000000000000e+00
0.000000000000000000e+00
-5.797748827770289604e-02
1.084822797453544041e-01
-2.637963501467650938e-03
1.157669766595917013e-02
1.423716329638022651e-02
0.000000000000000000e+00
-5.433735471447002918e-02
-1.645182027052607574e-03
0.000000000000000000e+00
-2.067645821032370601e-01
2.868013280556667988e-02
0.000000000000000000e+00
0.000000000000000000e+00
5.822000983744634987e-05
0.000000000000000000e+00
1.034886316940170498e-01
1.146923134513585962e+00
-5.756354456752861282e-01
1.769017163163806583e-03
-2.007404399931623507e-01
0.000000000000000000e+00
1.836796053659139061e-01
0.000000000000000000e+00
8.651410264709169518e-03
2.152171571822257545e-02
0.000000000000000000e+00
0.000000000000000000e+00
0.000000000000000000e+00
9.060001413827178940e-03
2.773055253973034581e-02
0.000000000000000000e+00
0.000000000000000000e+00
0.000000000000000000e+00
0.000000000000000000e+00
-4.703557713868084522e-01
2.864868549347115339e-04
0.000000000000000000e+00
-4.526887985548998933e-02
5.304477888318638416e-03
0.000000000000000000e+00
0.000000000000000000e+00
0.000000000000000000e+00
7.258822332917062685e-03
0.000000000000000000e+00
3.403035256001216147e-02
-6.101627338486127240e-03
9.133829610677069236e-03
0.000000000000000000e+00
0.000000000000000000e+00
-4.957931220660695415e-02
0.000000000000000000e+00
8.212529105010221708e-02
-2.086470100812176307e-03
-8.327188723321813160e-03
0.000000000000000000e+00
0.000000000000000000e+00
0.000000000000000000e+00
0.000000000000000000e+00
3.230854354833230090e-03
0.000000000000000000e+00
-8.116765291769101331e-01
-4.319433447449723233e-06
0.000000000000000000e+00
0.000000000000000000e+00
0.000000000000000000e+00
-7.157304751062911483e-04
0.000000000000000000e+00
0.000000000000000000e+00
0.000000000000000000e+00
1.588766107829361895e-02
-2.477468462278526796e-04
0.000000000000000000e+00
-1.088441953475454728e-02
1.771325835657046599e-01
-2.149183881918054467e-03
3.512281584465348078e-02
-5.350371854817197528e-03
0.000000000000000000e+00
0.000000000000000000e+00
0.000000000000000000e+00
0.000000000000000000e+00
0.000000000000000000e+00
-4.015833070271299966e-03
-8.432804980406018863e-03
-1.814443908807999994e-02
1.024055727429624627e-02
0.000000000000000000e+00
0.000000000000000000e+00
0.000000000000000000e+00
-6.605828110831273633e-04
0.000000000000000000e+00
0.000000000000000000e+00
0.000000000000000000e+00
0.000000000000000000e+00
0.000000000000000000e+00
0.000000000000000000e+00
9.251429875715823023e-03
2.452997018032392756e-02
1.823597994165457791e-03
0.000000000000000000e+00
0.000000000000000000e+00
-2.433243303286362208e-02
0.000000000000000000e+00
0.000000000000000000e+00
1.398468238187719481e-02
-5.948617752194690009e-03
0.000000000000000000e+00
0.000000000000000000e+00
0.000000000000000000e+00
0.000000000000000000e+00
0.000000000000000000e+00
0.000000000000000000e+00
0.000000000000000000e+00
0.000000000000000000e+00
0.000000000000000000e+00
0.000000000000000000e+00
6.613085128045764413e-03
-8.559707932998887603e-02
-3.368878917027852415e-02
1.029161723787021075e-06
0.000000000000000000e+00
-1.917106190982478253e-01
0.000000000000000000e+00
0.000000000000000000e+00
-4.147133587722277859e-03
-1.279831882466569981e-01
1.272022880746146410e-03
0.000000000000000000e+00
0.000000000000000000e+00
0.000000000000000000e+00
0.000000000000000000e+00
0.000000000000000000e+00
5.992121926247145208e-02
-9.198323441515755816e-02
-5.700425167362139361e-02
-2.671930124242349880e-01
-1.790407935307325726e-01
0.000000000000000000e+00
0.000000000000000000e+00
-2.609372244194463342e-02
1.447912889090563742e-03
0.000000000000000000e+00
0.000000000000000000e+00
0.000000000000000000e+00
0.000000000000000000e+00
-9.091167837132792381e-04
2.399233573370385467e-02
-1.220987596318503787e-01
2.396288783854386040e+00
-6.597079650456022862e-04
0.000000000000000000e+00
0.000000000000000000e+00
0.000000000000000000e+00
7.094321859218009896e-03
9.840931069395002506e-01
0.000000000000000000e+00
0.000000000000000000e+00
0.000000000000000000e+00
-2.154509324364893813e-05
0.000000000000000000e+00
-2.889133750277143690e-03
4.025146125066747516e+00
0.000000000000000000e+00
2.918274128106960151e-03
3.419474616764078689e+01
-2.236282484426586979e-03
0.000000000000000000e+00
0.000000000000000000e+00
3.792909346104488509e-03
-1.894901781907466938e-04
1.129313602385612070e-02
3.573002615406803244e-03
1.117929535963453624e-01
-1.163502508580841754e-01
0.000000000000000000e+00
2.282110469368533456e-01
9.851910920407105920e-02
-1.782372474243378024e-02
-5.921915676295756714e-02
3.802999744920048004e-03
0.000000000000000000e+00
0.000000000000000000e+00
-3.589800031554587351e-02
0.000000000000000000e+00
0.000000000000000000e+00
0.000000000000000000e+00
8.812307023452906410e-04
0.000000000000000000e+00
0.000000000000000000e+00
0.000000000000000000e+00
-1.706862461007198351e-01
1.210618244309666358e-01
7.701228102952788479e-01
0.000000000000000000e+00
0.000000000000000000e+00
0.000000000000000000e+00
0.000000000000000000e+00
0.000000000000000000e+00
0.000000000000000000e+00
0.000000000000000000e+00
0.000000000000000000e+00
0.000000000000000000e+00
0.000000000000000000e+00
0.000000000000000000e+00
0.000000000000000000e+00
0.000000000000000000e+00
0.000000000000000000e+00
0.000000000000000000e+00
0.000000000000000000e+00
3.760394240500767182e+01
2.505663138488702657e+01
-5.293922310104268725e-01
-7.924682040632033062e-03
1.101753011321035883e-02
0.000000000000000000e+00
0.000000000000000000e+00
0.000000000000000000e+00
0.000000000000000000e+00
0.000000000000000000e+00
-4.276434579619763608e-03
-5.305289774719368356e-02
0.000000000000000000e+00
1.660954256683641259e-02
1.292982506538772891e-01
2.227446633866496217e+00
0.000000000000000000e+00
-6.005050715632884173e-03
0.000000000000000000e+00
0.000000000000000000e+00
-6.780444763425105825e-02
-1.149009818836473906e-01
0.000000000000000000e+00
-1.503441950944499686e-03
5.424349221759040135e-03
-1.804647414546595337e-03
0.000000000000000000e+00
0.000000000000000000e+00
0.000000000000000000e+00
1.902960110534498289e-02
3.116530785855403055e-03
1.227498672499757054e-02
3.687918332334400029e-02
0.000000000000000000e+00
4.989501987294484020e-02
2.430673073796847938e-01
0.000000000000000000e+00
0.000000000000000000e+00
0.000000000000000000e+00
0.000000000000000000e+00
0.000000000000000000e+00
0.000000000000000000e+00
0.000000000000000000e+00
-8.928210491514283059e-03
0.000000000000000000e+00
-2.798676471033531010e-01
-4.477261901384639586e-02
0.000000000000000000e+00
1.928984735028667179e-03
9.571838713301620075e-03
9.240958955317476672e-03
3.739521125922000422e-02
0.000000000000000000e+00
0.000000000000000000e+00
-8.666229233467975107e-03
-2.147721160049988892e-02
-4.038878978890285756e-03
0.000000000000000000e+00
1.353061490983742399e-02
0.000000000000000000e+00
0.000000000000000000e+00
0.000000000000000000e+00
0.000000000000000000e+00
0.000000000000000000e+00
1.925056997127557595e-02
0.000000000000000000e+00
1.571099073556867041e-03
-2.321406107075403048e-03
0.000000000000000000e+00
1.261564731557527907e-01
2.791258017858985058e-02
7.049962419443362750e-03
0.000000000000000000e+00
0.000000000000000000e+00
0.000000000000000000e+00
-2.061121036878113197e-02
1.401429434811207568e-02
-4.772819548735333928e-02
-5.770672508594951872e-03
0.000000000000000000e+00
-1.597779466740840764e-03
0.000000000000000000e+00
0.000000000000000000e+00
-2.471233530880842522e-03
-2.591833075778166712e-03
-2.779580036306115720e-01
0.000000000000000000e+00
2.034697134979322364e+00
0.000000000000000000e+00
1.094134837769138863e-02
-2.132563810026100182e-01
-1.262680931299733078e-01
0.000000000000000000e+00
0.000000000000000000e+00
0.000000000000000000e+00
-1.296815981575102743e-02
1.388416482644765776e-02
-1.881422771671852415e-02
1.659619025996672548e-02
4.101374207854379117e-01
2.361004610123814407e-01
0.000000000000000000e+00
0.000000000000000000e+00
0.000000000000000000e+00
-8.805744990677228518e-03
1.334620150755431306e-02
-2.138972742503545462e-03
3.289538713447212603e-03
0.000000000000000000e+00
-2.053914699641380959e-01
0.000000000000000000e+00
7.522178052206627934e-03
0.000000000000000000e+00
-1.944047793311607514e-02
-4.994535290258792642e-02
-2.500426354220715575e-01
3.381203281158633861e-02
0.000000000000000000e+00
1.201400656080104712e+00
0.000000000000000000e+00
0.000000000000000000e+00
-3.508406413565620663e-02
-1.483097966833655246e-01
1.987429535245784779e-02
0.000000000000000000e+00
0.000000000000000000e+00
-3.001953555405341145e-01
-1.119656667628906366e+00
-3.012177014863446148e-02
5.442838142540984414e-03
0.000000000000000000e+00
3.806555342755689811e-03
6.505967455117504794e-02
0.000000000000000000e+00
0.000000000000000000e+00
2.650513241843019396e-02
0.000000000000000000e+00
0.000000000000000000e+00
1.798818372168364474e-02
4.307288156342173879e-01
0.000000000000000000e+00
0.000000000000000000e+00
0.000000000000000000e+00
0.000000000000000000e+00
-8.882377120231313428e-02
0.000000000000000000e+00
3.567786128316003530e-02
-9.097754623314938994e-05
0.000000000000000000e+00
0.000000000000000000e+00
1.060793886744396120e-02
0.000000000000000000e+00
3.157415711262936409e-01
3.920131552427822547e-03
1.180190017583332418e-02
-1.020928323269580315e-02
1.899099982694932631e+00
0.000000000000000000e+00
0.000000000000000000e+00
-4.534505352128196387e-01
-3.059539093394495479e-01
3.938865843959418050e-02
0.000000000000000000e+00
1.276762636259326164e-02
-3.062307484200930442e-04
1.078801214794186886e-03
0.000000000000000000e+00
0.000000000000000000e+00
1.131993389188873378e-03
2.458004077525419273e+00
0.000000000000000000e+00
3.949085799029375399e-03
0.000000000000000000e+00
3.732786752215423026e-02
0.000000000000000000e+00
0.000000000000000000e+00
0.000000000000000000e+00
-3.729563250106302075e+00
-5.676586124067699579e-01
4.583127229425622805e-03
-7.649928283989130939e+00
0.000000000000000000e+00
0.000000000000000000e+00
-1.537392689650776578e+00
-1.664484894625243017e-01
1.080840758542200852e-02
1.491904261131853648e-01
-1.697467844110274737e-01
0.000000000000000000e+00
0.000000000000000000e+00
-8.727382755636749895e-03
-1.565621541508731840e-01
-4.121292453408832435e-01
-2.171730549204639593e-01
-2.549798146523813216e-02
-1.349934539410723167e+00
0.000000000000000000e+00
-1.907472695273178531e-01
-7.442809823681631465e-02
2.892529562056406212e-03
0.000000000000000000e+00
-5.268099320789818019e-02
3.467402247038774837e-02
-4.495052688556223225e-02
4.080177296730149936e-03
2.553033168822141707e+00
1.586901822882542112e-01
8.572881471042284249e-03
-1.317324954241407275e-01
1.090701955503273202e-03
0.000000000000000000e+00
0.000000000000000000e+00
6.757229806123603484e-05
-3.133607659855421446e+00
-6.983538131272709393e+00
3.576130023442941619e-02
-5.434502780854656885e-03
0.000000000000000000e+00
0.000000000000000000e+00
-3.264929737478882821e+00
-2.048708288328340288e+00
1.272975598793158192e-01
4.058154971705443120e-02
7.126604240565982407e-01
3.095293277318093672e+00
0.000000000000000000e+00
0.000000000000000000e+00
-9.747896060303993249e-01
-1.907990886209211950e-02
2.366797296752433388e-02
0.000000000000000000e+00
1.855417225752695881e-03
3.740839616000560142e+00
-1.670739103216136945e+00
-2.197140657218302984e+00
-5.207975583603099978e-03
2.015782070430705009e-01
-2.335719358866050199e-01
2.117627760008518045e-01
-9.022516332591797028e-02
-1.320482439932125773e-01
0.000000000000000000e+00
0.000000000000000000e+00
0.000000000000000000e+00
0.000000000000000000e+00
-1.880196045572623820e-01
-8.973190322723798018e-03
0.000000000000000000e+00
-4.121188837740910604e-01
6.426173502644025315e-02
-1.985492024455784779e-02
-8.237873480288319950e-02
1.394676634609867127e-01
0.000000000000000000e+00
2.980825830145045208e-02
-7.710134145453223509e-02
6.819069563428595965e-03
-2.187697175302816710e+00
-1.108974361275962384e+00
2.131189870205623949e-01
1.622699980579962384e-02
1.689226121576407724e+00
3.307054410885248430e-01
0.000000000000000000e+00
0.000000000000000000e+00
-2.409978015772084453e-02
1.036987617761341365e-02
0.000000000000000000e+00
0.000000000000000000e+00
3.948877711637908960e-02
-7.482560715548277619e-01
-1.950302201055928997e-01
-1.347658983320001225e+00
-5.532916779421299946e-02
6.249980984993469546e-02
2.333921032858869704e-02
3.906617555122688379e-01
5.336173226611892273e-04
1.541179959808514355e-01
8.060147164080326831e+00
-9.524180216238046712e-03
2.960724972013796183e-02
-1.004132950146328744e-02
-4.773602169932492784e-02
-7.801300456166104791e-01
0.000000000000000000e+00
6.512002249613746581e-03
0.000000000000000000e+00
-1.422400230701495183e-01
1.856821990693359632e-03
0.000000000000000000e+00
3.677748046468498622e-02
-9.091193556427318301e-02
0.000000000000000000e+00
0.000000000000000000e+00
2.881906757693455251e-02
-1.307709059463595302e+01
-4.516716084119375196e+00
-1.057522738829536069e-02
-2.582036046781428240e+01
4.438471778331548045e-01
1.582734339309970428e+00
1.259543097038444935e-02
0.000000000000000000e+00
-2.878212269564037196e-01
-5.658604042300615505e-02
0.000000000000000000e+00
1.060954388653458785e-02
-3.819826751314737701e-01
-1.115816059471269384e+00
0.000000000000000000e+00
-3.913355847585718063e-03
5.472446015774715677e-01
0.000000000000000000e+00
0.000000000000000000e+00
8.769657797175622535e-03
0.000000000000000000e+00
1.534251045959579507e+00
1.111254880702040815e+01
8.325070180772370983e-04
-1.178580843423037219e-02
0.000000000000000000e+00
-6.948095316892093365e-01
-6.548755922869831103e-02
-5.556360599722758205e-04
6.354180536258047240e-01
0.000000000000000000e+00
-5.136338086451067500e-03
0.000000000000000000e+00
0.000000000000000000e+00
0.000000000000000000e+00
0.000000000000000000e+00
-1.184679682090973400e-02
0.000000000000000000e+00
5.192987064937293340e-02
0.000000000000000000e+00
4.158181868735975895e-03
1.349997037025294291e-02
0.000000000000000000e+00
3.608346874097030990e-03
-1.278855209721430297e+00
4.362586082343494986e+00
1.340804921520873029e-04
-4.112391265583748012e-02
-6.020198781669098415e-03
-2.303990126661057194e-02
0.000000000000000000e+00
-1.687503730125769442e-04
3.593785078640621133e-01
8.380234135589919475e+00
0.000000000000000000e+00
-5.945854741395077692e-03
-3.104829847259494180e+00
0.000000000000000000e+00
-1.739941130215488102e-02
8.631701058543569602e-03
7.151304853310291821e-04
1.170128768654904970e-02
0.000000000000000000e+00
0.000000000000000000e+00
7.045770139441079262e-05
-1.091267402245340579e+00
-1.918564463786121621e+01
-5.852286539381638875e+01
-5.136781243434499107e-03
2.263629376026216056e-01
2.028197244383132536e-01
4.760676608010772082e-01
1.485823371420761166e-02
-3.464035753224903422e-04
-3.917096385610219222e-02
0.000000000000000000e+00
0.000000000000000000e+00
0.000000000000000000e+00
-4.768010057311027339e+01
1.567671908475165354e+00
2.986314488587595406e+00
0.000000000000000000e+00
6.826441679916750438e-03
1.216867094732116891e-02
6.647921754141236761e+00
4.538047712325368188e+00
-1.336473208359265780e-02
-1.762939140436254465e-02
0.000000000000000000e+00
-1.500095348299632439e-02
0.000000000000000000e+00
-5.574717527998355841e-03
1.562352955188939761e-02
4.705736447078402995e-01
-6.081814660124083144e-02
-2.558518765461356703e-03
0.000000000000000000e+00
-6.076523262306440798e-03
-1.357991607407147416e-01
-4.418752665627365475e-03
1.072552759358293660e-02
0.000000000000000000e+00
-3.950696394953952251e-02
0.000000000000000000e+00
-1.244201008866172298e-01
-1.254575179092176462e+01
-3.608456717363314858e+00
0.000000000000000000e+00
-6.453891288241820831e-03
-4.812763618448772811e-05
5.608716898123782357e+01
1.479923454983261832e-01
7.580295250100136696e-03
-4.795008204503439092e-02
3.420178423023692744e-03
8.842557403414691430e-03
0.000000000000000000e+00
5.438543104872160978e-03
2.456975313094213187e-02
-4.665024706263823928e-01
0.000000000000000000e+00
-3.356952298994250183e-01
8.542956734714218792e-02
-5.516065676175437860e-01
-4.809762878861753577e-02
-3.757990626574753135e-01
-9.715175652249361665e-04
-1.179774105269888462e-01
0.000000000000000000e+00
0.000000000000000000e+00
-1.064946248739359613e-04
-1.814668446898481252e-02
-1.920013092946824207e+00
-8.940839081690699075e-02
-7.518849277255730936e-05
0.000000000000000000e+00
0.000000000000000000e+00
6.960307835508316825e-05
-5.784494135876783183e-03
5.560928073646838332e-02
-2.370655765562513281e-03
5.254046168745539740e-04
-4.549788729029621948e+00
-6.144925836336823100e-01
9.751579615934372752e-03
8.713835562507127319e-02
3.314902107075996085e+00
1.876783213584065280e+01
-1.332976436991432229e-02
-5.708956824033148969e-01
-9.106442498474272285e-02
-2.646369766361515996e-01
0.000000000000000000e+00
1.228698326092582671e-01
-2.660148732345479772e-02
2.910356046035491185e-03
-4.502504800526790528e-04
-1.582839851912140605e-01
-7.779941930564299168e-01
-8.935957959128378730e-04
1.289213004855165740e-02
-1.910672786304780324e+00
-7.882854204402680587e-01
-1.387531996825767777e+00
-5.110261924697735540e-04
3.365396555496415198e-02
2.577369606736731877e-01
4.420753000541387603e-03
-3.921620245675299654e-01
-1.305167393106468170e-02
1.759080620374944490e-02
4.161863464956124248e-01
1.118732586537241891e-01
1.970939144795489512e-03
5.753270953851845164e-03
1.109431037993506911e-02
-1.835141988416607861e-01
-1.585751584361024674e-02
-4.530139244640048191e-02
6.988851797617076362e-05
-1.396132806710387864e-01
5.796701949548947047e-02
4.732007299786043092e-03
2.320433274450623529e+00
-6.779899153271826129e-02
5.973234044554225075e-02
-6.702362188958863598e-01
1.949826180540534248e-02
2.956467734580763701e-02
7.316564487138806951e-03
-6.630931373499310104e-03
4.867648530932673634e-02
-8.042922452156818502e-02
-6.634830513174556910e-02
-2.170141761922025209e-02
-6.143910889918428875e-02
-2.727444927988430745e+00
-2.287803438049908156e+00
-3.714598537432650671e-01
0.000000000000000000e+00
0.000000000000000000e+00
1.573603204235447972e+00
1.969811893790793800e-01
1.868841178889970450e-02
0.000000000000000000e+00
0.000000000000000000e+00
0.000000000000000000e+00
0.000000000000000000e+00
-2.179150301651454069e-01
1.135379551270927290e-03
0.000000000000000000e+00
0.000000000000000000e+00
-5.144967387942472187e-02
1.540012426439350997e-02
1.879964984001704753e+00
2.288259642787359577e-02
6.044425963496529927e-03
-3.997900058307599203e+00
-1.709397075189804597e-05
-3.169670111603931639e-01
7.908915687178131107e-03
0.000000000000000000e+00
1.534081722835773376e-01
5.122277936199718176e-03
-1.742037483198561937e-04
2.229958052431551402e-02
-4.580308204988191301e-02
-3.322499909608004742e+01
-8.921184535098959645e-02
-3.652688524332199649e-02
0.000000000000000000e+00
-4.964414174823662818e-03
-2.198744857273744191e-01
-2.057833434218489868e-02
-5.335900786765357395e-02
5.005634305573938292e+00
0.000000000000000000e+00
0.000000000000000000e+00
0.000000000000000000e+00
0.000000000000000000e+00
0.000000000000000000e+00
-3.389199014639211749e-02
0.000000000000000000e+00
-1.544014932926098815e+00
2.202668194905624599e+00
0.000000000000000000e+00
-1.273821801522917463e-02
1.084116243304544119e-02
0.000000000000000000e+00
3.165034480904663217e-01
3.076257021750785636e-01
2.243803070732894311e-02
-4.581221446352156529e-03
1.609779361695174549e+00
4.232069191161262254e-04
3.311235786940798675e+00
8.789398177737175466e-01
7.038856455654319633e-04
2.428436506952916241e-03
-3.569463629549133460e-02
-7.781463990286220656e-02
-3.291787299644668963e+01
-4.763631693983959581e-01
1.175974278336002488e-01
-2.854232145338150319e-03
-1.021264399226716815e-02
5.165254869406110672e-02
2.979959358365986966e-02
7.840522675294926691e-02
3.498803128424601283e+00
-5.405669014947135642e-03
-6.091928193438189698e-01
-2.698846713608161751e-01
2.449999926414938699e-03
-5.429618925050319622e-02
6.437951760901441389e-01
7.902746102490888269e+00
0.000000000000000000e+00
-1.093368156623675952e-02
0.000000000000000000e+00
6.243420282311750169e-01
-4.547749915855594724e-03
-1.368569743181175014e+01
-1.906469351709981774e+00
-1.784900993864609389e-02
6.016868916321995581e-03
2.033501517137949882e-02
0.000000000000000000e+00
0.000000000000000000e+00
5.128538457139578122e-04
4.438863604686634767e-01
7.250034412118712239e-03
0.000000000000000000e+00
-4.015717780458114006e-02
2.458546947118428749e-01
0.000000000000000000e+00
-2.384599131034194287e-04
0.000000000000000000e+00
0.000000000000000000e+00
3.633507589930303622e-03
1.696365142378805757e+00
1.864808123347572871e-02
-2.051831347321450227e+00
-1.947654303357664540e+00
-2.856687517018994572e-03
7.506014640593394738e-01
2.012868758725704782e-02
-1.345000492317001244e-02
4.509650426544804802e-02
1.063932548698396470e-03
-3.479589744358357016e-03
1.759679459898817466e+00
1.118530044629120236e-03
0.000000000000000000e+00
-4.151340785153603830e-02
-9.607622455582595644e-03
2.769391725698980983e-02
2.962339077850901017e-02
1.441996883259677731e-01
-9.981067408898184126e-03
2.485710726751277910e-02
0.000000000000000000e+00
-1.512593981426308132e-01
-7.802437148029342850e+00
-4.901964165563945652e-01
-8.371405847076482387e-02
1.896982486010961111e+01
2.239184541122077234e-03
0.000000000000000000e+00
